<?xml version="1.0"?>
<MethodSetup Method="DL::DNN_CPU">
  <GeneralInfo>
    <Info name="TMVA Release" value="4.2.1 [262657]"/>
    <Info name="ROOT Release" value="6.24/06 [399366]"/>
    <Info name="Creator" value="rshara01-local"/>
    <Info name="Date" value="Wed Sep 22 17:15:06 2021"/>
    <Info name="Host" value="Darwin christophers-mac-mini.home 20.6.0 Darwin Kernel Version 20.6.0: Wed Jun 23 00:26:27 PDT 2021; root:xnu-7195.141.2~5/RELEASE_ARM64_T8101 arm64"/>
    <Info name="Dir" value="/Users/rshara01-local/WORK/linacTune/tmva"/>
    <Info name="Training events" value="5000"/>
    <Info name="TrainingTime" value="1.17241311e+01"/>
    <Info name="AnalysisType" value="Regression"/>
  </GeneralInfo>
  <Options>
    <Option name="V" modified="Yes">True</Option>
    <Option name="VerbosityLevel" modified="No">Verbose</Option>
    <Option name="VarTransform" modified="Yes">N</Option>
    <Option name="H" modified="Yes">False</Option>
    <Option name="CreateMVAPdfs" modified="No">False</Option>
    <Option name="IgnoreNegWeightsInTraining" modified="No">False</Option>
    <Option name="InputLayout" modified="No">0|0|0</Option>
    <Option name="BatchLayout" modified="No">0|0|0</Option>
    <Option name="Layout" modified="Yes">TANH|50,TANH|50,TANH|50,LINEAR</Option>
    <Option name="ErrorStrategy" modified="Yes">SUMOFSQUARES</Option>
    <Option name="WeightInitialization" modified="Yes">XAVIERUNIFORM</Option>
    <Option name="RandomSeed" modified="No">0</Option>
    <Option name="ValidationSize" modified="No">20%</Option>
    <Option name="Architecture" modified="Yes">CPU</Option>
    <Option name="TrainingStrategy" modified="Yes">LearningRate=1e-4,Momentum=0.3,ConvergenceSteps=20,BatchSize=30,TestRepetitions=1,WeightDecay=0.0,Regularization=None,Optimizer=Adam</Option>
  </Options>
  <Variables NVar="3">
    <Variable VarIndex="0" Expression="RFQPAH_R" Label="RFQPAH_R" Title="RFQ phase" Unit="units" Internal="RFQPAH_R" Type="D" Min="1.28002930e+02" Max="1.90002441e+02"/>
    <Variable VarIndex="1" Expression="RFBPAH_R" Label="RFBPAH_R" Title="buncher phase" Unit="units" Internal="RFBPAH_R" Type="D" Min="2.15795898e+02" Max="2.58337402e+02"/>
    <Variable VarIndex="2" Expression="V5QSET_R" Label="V5QSET_R" Title="tank5 phase" Unit="units" Internal="V5QSET_R" Type="D" Min="-3.30000000e+01" Max="-2.85000000e+01"/>
  </Variables>
  <Spectators NSpec="6">
    <Spectator SpecIndex="0" Expression="RFQPAH_S" Label="RFQPAH_S" Title="RFQ phase Set" Unit="degrees" Internal="RFQPAH_S" Type="F" Min="1.28002930e+02" Max="1.90002441e+02"/>
    <Spectator SpecIndex="1" Expression="RFBPAH_S" Label="RFBPAH_S" Title="buncher phase Set" Unit="degrees" Internal="RFBPAH_S" Type="F" Min="2.14996277e+02" Max="2.56997131e+02"/>
    <Spectator SpecIndex="2" Expression="V5QSET_S" Label="V5QSET_S" Title="Tank 5 phase" Unit="degrees" Internal="V5QSET_S" Type="F" Min="-3.30000000e+01" Max="-2.85000000e+01"/>
    <Spectator SpecIndex="3" Expression="TO1IN_R" Label="TO1IN_R" Title="to1in" Unit="units" Internal="TO1IN_R" Type="F" Min="2.22277756e+01" Max="2.42592621e+01"/>
    <Spectator SpecIndex="4" Expression="TO5OUT_R" Label="TO5OUT_R" Title="to5out" Unit="units" Internal="TO5OUT_R" Type="F" Min="-4.08233719e+01" Max="3.42947617e+01"/>
    <Spectator SpecIndex="5" Expression="TO3IN_R" Label="TO3IN_R" Title="to3in" Unit="units" Internal="TO3IN_R" Type="F" Min="-1.02136169e+02" Max="1.00574913e+02"/>
  </Spectators>
  <Classes NClass="1">
    <Class Name="Regression" Index="0"/>
  </Classes>
  <Targets NTrgt="3">
    <Target TargetIndex="0" Expression="LMSM" Label="LMSM" Title="LMSM" Unit="" Internal="LMSM" Type="F" Min="1.34887695e+00" Max="3.99658203e+01"/>
    <Target TargetIndex="1" Expression="D7TOR_R" Label="D7TOR_R" Title="D7TOR_R" Unit="" Internal="D7TOR_R" Type="F" Min="2.41185451e+00" Max="2.93067665e+01"/>
    <Target TargetIndex="2" Expression="D00LM_R" Label="D00LM_R" Title="d00lm" Unit="" Internal="D00LM_R" Type="F" Min="3.05175781e-03" Max="8.72802734e-01"/>
  </Targets>
  <Transformations NTransformations="1">
    <Transform Name="Normalize">
      <Selection>
        <Input NInputs="6">
          <Input Type="Variable" Label="RFQPAH_R" Expression="RFQPAH_R"/>
          <Input Type="Variable" Label="RFBPAH_R" Expression="RFBPAH_R"/>
          <Input Type="Variable" Label="V5QSET_R" Expression="V5QSET_R"/>
          <Input Type="Target" Label="LMSM" Expression="LMSM"/>
          <Input Type="Target" Label="D7TOR_R" Expression="D7TOR_R"/>
          <Input Type="Target" Label="D00LM_R" Expression="D00LM_R"/>
        </Input>
        <Output NOutputs="6">
          <Output Type="Variable" Label="RFQPAH_R" Expression="RFQPAH_R"/>
          <Output Type="Variable" Label="RFBPAH_R" Expression="RFBPAH_R"/>
          <Output Type="Variable" Label="V5QSET_R" Expression="V5QSET_R"/>
          <Output Type="Target" Label="LMSM" Expression="LMSM"/>
          <Output Type="Target" Label="D7TOR_R" Expression="D7TOR_R"/>
          <Output Type="Target" Label="D00LM_R" Expression="D00LM_R"/>
        </Output>
      </Selection>
      <Class ClassIndex="0">
        <Ranges>
          <Range Index="0" Min="1.2800292968750000e+02" Max="1.9000244140625000e+02"/>
          <Range Index="1" Min="2.1579589843750000e+02" Max="2.5833740234375000e+02"/>
          <Range Index="2" Min="-3.3000000000000000e+01" Max="-2.8500000000000000e+01"/>
          <Range Index="3" Min="1.3488769531250000e+00" Max="3.9965820312500000e+01"/>
          <Range Index="4" Min="2.4118545055389404e+00" Max="2.9306766510009766e+01"/>
          <Range Index="5" Min="3.0517578125000000e-03" Max="8.7280273437500000e-01"/>
        </Ranges>
      </Class>
    </Transform>
  </Transformations>
  <MVAPdfs/>
  <Weights NetDepth="4" InputDepth="1" InputHeight="1" InputWidth="3" BatchSize="1" BatchDepth="1" BatchHeight="30" BatchWidth="3" LossFunction="R" Initialization="F" Regularization="0" OutputFunction="I" WeightDecay="0.0000000000000000e+00">
    <DenseLayer Width="50" ActivationFunction="3">
      <Weights Rows="50" Columns="3">
        -2.650625e-01  5.028216e-01  6.534518e-02  1.773561e-01  6.867458e-02  -6.777754e-01  -6.586912e-02  6.793831e-02  5.364101e-02  -8.216036e-03  1.834773e-01  6.370715e-01  1.193452e-01  -2.746052e-01  4.503108e-01  -4.073800e-01  1.694093e-01  1.369702e-01  5.640510e-01  -1.612003e-01  5.123675e-01  -2.780491e-01  -4.172978e-01  -5.059113e-02  2.883772e-01  -2.958393e-01  -3.508528e-01  -2.605859e-01  -1.822413e-01  -2.812567e-01  -2.005142e-01  -1.737919e-01  -3.733934e-01  -2.147737e-01  -3.160891e-01  2.088264e-01  6.170700e-01  8.315536e-02  1.028943e-01  5.298871e-01  1.466057e-01  4.598311e-01  2.326677e-01  -3.236667e-01  -3.625491e-02  -3.195333e-01  -3.718221e-01  -3.415475e-01  9.063407e-02  -4.515128e-01  4.629572e-02  -4.036381e-02  3.890704e-01  2.684569e-01  -1.521703e-01  1.794093e-01  3.877306e-01  1.921223e-01  -2.818273e-01  2.641493e-01  3.919244e-01  1.871848e-01  -2.511483e-01  3.815670e-01  -2.569605e-01  9.127282e-02  2.142068e-01  2.187913e-01  4.622727e-01  -2.658987e-01  5.767504e-04  6.170858e-01  1.761624e-01  -3.748698e-01  -3.719906e-01  -2.389661e-01  -3.359953e-01  -1.862811e-01  -2.051213e-01  -3.889937e-01  2.340801e-01  -3.389248e-03  -1.864028e-01  -4.933045e-01  2.060111e-01  -5.215509e-01  -1.633015e-01  1.712473e-01  6.350294e-01  -4.396415e-01  -3.398430e-01  2.671978e-01  4.155317e-01  -3.722068e-01  3.513744e-01  4.767331e-01  -1.486546e-01  -2.316877e-01  -4.056537e-01  3.618186e-01  -4.449069e-01  3.863196e-02  -2.875463e-01  3.860008e-01  3.427401e-01  2.314158e-01  3.571305e-01  -6.678677e-01  1.251791e-01  3.779590e-01  -3.101814e-01  -4.027813e-01  -1.656146e-01  4.872539e-01  2.576990e-01  -3.262484e-01  -3.762797e-01  -1.864249e-01  4.776601e-01  3.422396e-01  -6.567973e-02  -5.490816e-01  3.255529e-02  -3.430243e-01  2.916652e-01  -3.456183e-01  -1.559361e-01  -2.395338e-01  9.393682e-02  8.038361e-02  1.716583e-01  -5.750906e-01  -2.565497e-01  4.149256e-01  5.262547e-01  2.050362e-01  3.131368e-01  6.880336e-01  -2.631589e-01  -7.911883e-02  -2.622961e-01  -2.581173e-01  3.206231e-01  -3.087528e-01  -3.946307e-01  8.335543e-02  -2.249564e-01  8.820139e-02  -4.707419e-01  9.809060e-02  
      </Weights>
      <Biases Rows="50" Columns="1">
        -2.467011e-02  -3.937010e-01  3.491706e-01  5.293215e-01  1.604175e-01  1.832224e-02  -4.236636e-01  -3.806634e-02  2.257069e-01  3.430523e-02  -1.996327e-01  1.524920e-01  -4.148012e-01  -3.629531e-01  -1.169141e-01  3.373871e-01  -1.467770e-01  -7.391159e-02  3.864629e-01  1.834771e-01  -1.691119e-01  -3.553837e-01  8.088274e-02  3.550902e-02  -5.829615e-02  3.063374e-01  3.885023e-02  -2.228564e-01  1.842827e-02  2.911094e-01  -3.414614e-01  -1.800424e-01  -1.698821e-03  -5.033844e-01  4.022292e-01  2.271884e-01  1.049445e-01  -6.986654e-03  9.856059e-04  3.240222e-01  -8.239691e-02  -2.660187e-01  -1.769659e-01  -1.557444e-01  6.452466e-02  -2.884266e-01  -1.931655e-01  -4.851865e-02  3.109367e-01  -4.715526e-01  
      </Biases>
    </DenseLayer>
    <DenseLayer Width="50" ActivationFunction="3">
      <Weights Rows="50" Columns="50">
        1.323880e-01  1.843000e-01  -2.860030e-01  -3.985487e-01  -2.681937e-01  2.287776e-01  1.229427e-01  -1.874678e-02  1.274466e-01  2.377056e-01  2.821050e-01  -3.030048e-01  2.270273e-01  8.523408e-02  -7.716265e-03  3.847647e-02  -2.685540e-01  4.173383e-02  -2.893397e-01  9.099409e-02  2.408649e-02  6.575145e-02  -7.325071e-02  -1.712426e-01  -1.804615e-01  1.600855e-01  -2.860116e-01  1.644953e-01  1.721600e-02  -8.547561e-02  -7.744511e-02  -1.356232e-01  2.507713e-01  1.270930e-02  7.192425e-02  -3.689300e-03  2.775906e-01  1.244103e-01  1.913752e-01  -2.564582e-02  1.231172e-01  3.674299e-01  2.300895e-01  3.425332e-01  5.478081e-02  8.976261e-02  1.804846e-01  7.697403e-02  2.602891e-01  2.545341e-01  6.455321e-01  2.500119e-01  -2.996828e-02  -7.977481e-02  -4.163828e-01  3.467934e-01  -2.928156e-02  -1.821920e-01  -4.949240e-01  2.809571e-02  1.919783e-01  -1.751829e-01  -2.186729e-01  -2.242294e-01  -5.545980e-01  6.039893e-02  -5.139707e-02  3.982452e-01  1.428216e-01  -4.528415e-01  1.179118e-01  -1.245479e-01  -2.334764e-01  1.744663e-01  -2.678846e-01  3.986614e-02  -1.422074e-01  -1.948374e-01  -5.229756e-01  1.982661e-01  2.636033e-01  3.761915e-01  2.215511e-01  -3.410686e-01  -2.530135e-02  5.902606e-02  -1.731256e-02  1.379090e-01  -1.661101e-01  7.567293e-02  -2.052983e-01  4.796201e-01  2.895254e-01  2.424242e-01  1.685726e-01  1.312324e-01  1.272468e-01  6.128603e-01  3.997616e-01  -9.672249e-02  1.210574e-01  3.215266e-02  -5.193309e-02  -3.116816e-01  -1.547596e-01  -1.967277e-01  2.167828e-01  3.061171e-01  1.993894e-01  2.069746e-02  1.816095e-01  1.432191e-01  6.209868e-02  1.713451e-01  1.451292e-01  2.200860e-01  6.105653e-02  -2.008451e-01  -2.282076e-01  -1.445360e-01  8.889897e-02  3.544298e-01  -1.753130e-01  1.141516e-02  4.328245e-02  5.748404e-02  -2.102186e-01  3.037252e-01  -1.058626e-01  -2.593379e-02  -1.507546e-01  1.646351e-01  -1.509268e-01  1.633114e-01  -3.823965e-01  1.399625e-01  6.859934e-02  1.454216e-01  -1.110109e-02  -2.211560e-01  3.710788e-01  -2.149671e-01  2.750878e-01  2.816792e-03  -1.105483e-01  -1.683308e-02  -1.443980e-01  -7.614768e-02  -3.392773e-02  3.292253e-01  3.162372e-02  2.213369e-01  -2.790198e-01  -1.091650e-01  4.704661e-02  -3.344246e-02  5.231884e-01  2.377573e-02  -7.081266e-02  -1.932980e-01  -4.837476e-02  -1.769379e-01  1.424970e-01  2.851982e-01  2.255500e-01  -2.250341e-01  3.106557e-01  -1.970848e-01  -4.879773e-03  1.100956e-01  -8.707698e-02  4.011010e-02  -9.910610e-02  -1.982264e-01  1.306185e-01  -1.680062e-01  2.727654e-01  2.829998e-02  1.482771e-02  -2.901475e-01  2.549706e-01  2.284333e-01  8.028883e-02  1.637905e-01  -1.194261e-01  1.814855e-02  -3.679572e-03  1.999139e-01  -1.822523e-01  -2.795182e-01  3.443628e-01  4.922339e-02  5.307125e-02  1.065755e-01  1.140893e-01  1.149597e-01  2.222450e-03  -3.324478e-01  -1.307042e-01  3.088013e-01  2.794466e-03  2.000031e-01  -1.718393e-02  -3.717600e-01  -8.219042e-03  -2.447202e-01  -1.196965e-01  -8.163722e-02  2.980530e-03  1.057304e-01  1.175663e-01  1.038882e-01  -1.729744e-01  1.069062e-01  -3.989005e-02  1.443378e-01  9.814186e-02  -2.681471e-01  -2.866985e-01  -5.348226e-03  1.577581e-01  -1.477634e-01  -2.018999e-01  1.051025e-01  1.795514e-01  5.181096e-02  -7.607767e-02  3.805838e-01  2.107781e-01  -1.804124e-01  1.986026e-01  2.032290e-01  -9.236890e-02  2.282245e-01  -9.835660e-02  1.893022e-01  2.157504e-01  1.951199e-02  -1.701936e-01  4.149659e-02  1.151411e-01  -1.568159e-01  2.867004e-02  4.139622e-02  -1.705398e-01  -3.269453e-02  3.187273e-01  -4.867133e-02  1.938618e-02  3.259198e-02  -1.256107e-01  -1.186281e-01  2.065948e-01  2.688835e-01  -2.302642e-01  2.281470e-02  -4.479525e-02  -2.495196e-01  2.242724e-01  -1.271645e-01  -1.496467e-02  1.469988e-01  1.936254e-01  1.758271e-01  -1.898029e-01  -5.981921e-03  2.170198e-01  1.247964e-02  2.114144e-01  -2.383842e-01  1.574416e-01  1.535518e-01  1.154721e-01  -3.413515e-02  -1.426974e-01  2.015221e-01  2.463206e-01  -2.832554e-01  7.817782e-02  2.047888e-01  -9.294821e-02  -2.287146e-01  1.223328e-01  9.300087e-03  4.002975e-02  -1.219639e-01  -5.874379e-02  6.087196e-02  5.247075e-02  2.391138e-01  -1.683745e-01  1.896371e-01  1.946509e-01  2.250316e-02  2.541291e-01  9.195011e-02  3.853427e-02  1.958882e-02  2.290688e-01  1.225301e-01  -9.663007e-02  1.479875e-01  1.591563e-01  8.041671e-02  -1.157163e-01  7.602727e-02  -2.112650e-01  1.383626e-03  -1.736131e-01  8.065952e-02  -1.406013e-02  1.899791e-01  -2.892342e-01  -2.521763e-01  4.963461e-02  1.988051e-01  -1.715449e-01  3.482168e-02  2.588258e-01  -1.419219e-01  -7.198971e-02  7.961051e-02  -4.053443e-02  1.116439e-01  2.488394e-01  1.607062e-01  -3.806741e-02  -1.667303e-01  -4.912011e-02  2.117381e-02  -1.022961e-01  -1.083532e-01  2.483388e-01  -3.684533e-02  -1.639929e-01  -9.652130e-02  -1.747705e-01  2.066230e-01  -6.872427e-02  -1.742888e-01  3.562668e-02  1.334652e-01  -5.891209e-03  1.931843e-01  -1.946829e-01  -2.218670e-01  2.147309e-01  6.978050e-04  1.490176e-01  2.071070e-01  -1.519817e-01  6.286392e-01  -8.062958e-02  -5.506632e-01  -3.797880e-01  -2.969615e-01  -1.720150e-01  -1.185433e-01  1.100585e-01  4.042853e-01  5.926020e-01  -2.760406e-01  7.439043e-02  -3.504503e-01  2.441895e-01  3.528854e-01  3.410681e-01  -2.209321e-01  -6.855336e-01  -2.458936e-01  2.433852e-01  1.732922e-02  -3.611095e-01  -7.461134e-01  6.697568e-01  4.451321e-02  -3.058479e-02  9.157696e-01  4.358900e-01  2.702806e-01  -3.915987e-01  -6.096666e-01  7.853986e-01  7.060333e-02  -4.470975e-01  4.780384e-01  -2.802940e-03  -4.236406e-01  2.333444e-01  -1.837345e-01  -1.222050e-01  2.485194e-01  -9.004856e-02  3.501344e-01  -7.016939e-01  -5.098302e-01  9.416892e-02  1.389660e-01  -1.296888e-01  -9.168588e-02  4.030603e-01  1.516529e-01  -2.808109e-01  -2.166930e-01  -2.847386e-01  6.935611e-02  1.128143e-01  -4.388249e-02  -2.298406e-01  -1.715482e-01  1.040658e-01  -1.675991e-01  -1.857190e-01  -2.557381e-01  -1.661875e-01  -9.359217e-02  -3.377648e-01  1.093098e-01  -1.111285e-01  -3.582001e-01  -1.366463e-01  1.385448e-01  1.891285e-01  -1.020717e-01  -1.015327e-01  -1.291383e-02  -1.561515e-01  -2.176789e-01  -2.733335e-01  -2.437653e-01  5.021954e-01  9.599091e-02  -2.903453e-01  -1.491815e-01  1.701165e-01  -2.561426e-01  9.874368e-02  -9.113034e-02  -2.285445e-01  5.322693e-02  -1.182588e-01  -3.897066e-02  -9.251161e-02  3.019828e-02  3.246917e-01  2.890432e-01  1.278524e-01  -3.289393e-02  1.994461e-01  3.234033e-01  -2.321608e-01  -4.859473e-01  -3.578897e-02  3.392091e-01  2.024348e-01  -1.463906e-01  3.600255e-01  1.596353e-01  -2.915797e-01  3.439613e-02  -1.471802e-01  3.649688e-01  1.633777e-01  4.018588e-01  -2.552783e-02  -2.813967e-01  2.474248e-01  1.817911e-01  3.050308e-01  2.994817e-01  -1.079836e-01  1.604176e-01  1.297173e-01  4.969705e-01  -3.446752e-01  1.499144e-01  1.659293e-01  -2.337411e-01  1.810175e-01  -4.949898e-02  -4.523771e-02  3.378319e-01  -3.333521e-01  -6.280268e-02  1.229237e-01  -6.794405e-02  -1.847804e-01  5.641606e-02  -2.214434e-01  2.060363e-01  1.350839e-01  -3.524526e-01  -1.481540e-01  -4.599450e-01  3.699099e-01  4.089605e-01  -5.244747e-02  -3.861847e-01  -1.489738e-01  1.013915e-01  9.086563e-02  -1.781725e-01  -1.497899e-01  -1.380489e-01  1.894749e-01  5.191440e-02  -1.197309e-01  1.395245e-01  2.515792e-01  3.549350e-02  3.215549e-02  -8.206075e-02  -1.142592e-01  -4.094351e-02  -1.329489e-01  3.284146e-01  -6.524798e-02  -2.053855e-01  -9.933393e-02  2.192146e-01  -2.928312e-01  -2.881938e-03  -1.141895e-03  -1.112503e-01  -2.339774e-02  3.803247e-01  1.019342e-01  -1.427245e-01  7.490783e-02  -1.542614e-01  -2.591321e-01  -6.842101e-02  -1.008215e-01  -1.613414e-01  -1.596013e-01  -8.448757e-02  -7.560664e-02  1.946793e-01  2.410453e-01  9.954539e-02  1.561030e-01  -1.363185e-01  1.400586e-01  -1.278973e-01  -9.426293e-03  -4.279801e-02  -1.437666e-01  1.756478e-01  1.175001e-01  -1.165508e-01  -3.340962e-01  7.187009e-02  -1.177655e-01  -2.939863e-01  9.681628e-02  -4.630568e-01  2.357705e-01  1.967515e-02  3.811528e-01  -3.110727e-01  -1.110073e-01  -1.054088e-01  3.092410e-01  3.389649e-01  1.242029e-01  -1.056062e-01  -2.138191e-01  1.298918e-01  -2.114370e-01  2.384898e-02  5.711802e-01  1.143828e-01  -1.122398e-01  -3.239727e-01  -1.033594e-01  -4.203472e-01  -3.547987e-01  1.732478e-01  -1.596085e-01  1.611750e-01  -3.122745e-01  -2.748432e-01  -1.994637e-01  1.277958e-01  -1.076552e-01  -6.498579e-03  1.767756e-01  -4.807132e-01  3.687676e-01  -1.465961e-02  -1.646231e-01  -1.558175e-01  8.280849e-02  2.100511e-01  -4.136231e-01  6.912772e-02  -3.234287e-01  -7.252913e-02  -7.486394e-02  -1.472317e-01  -2.671383e-02  -2.304812e-02  -4.630836e-02  -1.794183e-02  -5.466113e-02  -8.067386e-03  -2.283549e-02  1.177722e-01  9.544766e-03  -6.853759e-02  -4.371665e-02  -2.277128e-01  -2.038798e-01  5.026348e-03  -1.016927e-01  -1.715864e-01  1.694255e-01  4.648064e-02  -4.581394e-02  -2.593156e-01  1.009732e-01  -9.948619e-02  1.458078e-01  -7.053402e-03  2.198154e-01  -9.268668e-02  6.137799e-02  -2.005913e-01  -5.777051e-02  1.325324e-01  -1.096877e-01  -7.413667e-02  -1.892539e-01  1.775663e-01  -2.015206e-01  1.244234e-01  2.439902e-01  5.555204e-02  2.259071e-02  -1.782260e-01  -8.513410e-03  2.851391e-01  1.440995e-01  2.241388e-01  3.284343e-02  -1.456905e-01  2.470226e-01  2.948278e-01  2.425394e-01  1.506267e-02  1.998847e-01  -4.131217e-02  1.283616e-01  -4.631730e-03  3.015118e-02  2.900030e-01  1.719772e-01  1.213730e-02  -5.096427e-01  -3.126731e-01  -8.845942e-02  1.394099e-01  3.067055e-02  2.547684e-02  -1.420004e-01  -2.533531e-01  -2.098365e-01  6.253394e-01  2.541084e-01  -8.657128e-02  -1.229146e-01  9.307812e-02  -3.066655e-02  1.173318e-01  -4.592751e-01  -4.731932e-01  -2.437299e-01  5.752969e-02  -4.513095e-01  8.794690e-02  2.451299e-01  4.913070e-01  -1.614058e-01  -2.839627e-03  2.474445e-02  -1.534463e-01  3.016998e-02  1.986236e-01  -5.927114e-01  1.733503e-01  -2.952673e-01  1.879511e-01  1.879280e-02  3.574978e-02  3.041768e-01  4.860812e-01  2.059732e-01  2.788377e-01  -7.207111e-02  1.805791e-02  3.883436e-01  1.303261e-01  -1.208929e-01  1.727988e-01  -2.966669e-01  -3.635345e-03  3.209945e-01  -5.094413e-01  -4.892011e-01  -7.242194e-01  -2.635737e-01  -2.122137e-01  5.480613e-01  4.750717e-01  -4.379753e-03  -9.063675e-01  -3.040434e-01  5.807602e-01  -1.643723e-03  -3.135040e-01  1.772521e-01  5.830028e-02  6.586121e-01  3.997283e-01  -1.534975e-01  -9.569721e-01  -1.697647e-01  -2.110791e-01  -4.580100e-01  1.585525e-01  2.589523e-01  4.814315e-01  -1.046142e+00  -9.918941e-02  3.925791e-02  -8.767636e-02  1.998313e-01  -4.607197e-02  -3.374705e-01  1.772565e-01  -2.455490e-01  8.265945e-02  -6.939477e-02  1.163855e-01  5.323853e-01  7.712753e-01  -2.335691e-01  2.310576e-01  -3.880290e-01  1.439719e-01  -7.372698e-01  6.262419e-02  4.235361e-02  -2.540088e-01  2.549279e-01  -4.398968e-01  6.530433e-01  -2.316017e-01  1.977759e-01  7.202445e-03  -1.550441e-01  1.503883e-01  5.989029e-01  3.738987e-01  7.107006e-01  -6.606995e-02  6.501434e-01  5.193470e-02  -9.529595e-02  1.816666e-01  1.227168e-01  5.346923e-01  1.813753e-01  -8.287703e-02  2.085022e-01  9.474993e-02  -1.288855e-02  2.640743e-01  4.164062e-01  -3.032483e-01  -2.482079e-01  -2.863727e-01  -2.691657e-01  9.099618e-01  -3.960745e-01  -2.183340e-01  -2.742912e-01  -3.365028e-01  1.733416e-01  -3.766037e-01  3.188636e-01  -4.553259e-02  -1.419524e-01  2.627044e-01  -4.031285e-01  2.629689e-02  -6.367107e-02  -4.462572e-01  -2.144079e-01  5.331914e-01  7.438489e-02  -3.844828e-01  4.559030e-02  4.218117e-01  -2.029657e-02  2.855445e-01  -9.414634e-02  8.068497e-02  -1.445203e-01  9.583669e-02  6.853667e-03  -1.744845e-01  4.252698e-03  2.127457e-01  -2.472403e-01  -1.361194e-01  -3.035694e-01  3.222394e-01  1.934706e-01  4.637205e-03  -3.067506e-01  -2.067207e-01  2.195933e-01  -1.133074e-02  -4.348277e-01  -6.433576e-02  2.840699e-01  -3.137877e-01  -7.823523e-02  -3.002972e-01  -1.217569e-01  3.101606e-01  -3.624419e-01  -1.986539e-02  6.856570e-02  -2.543985e-01  1.119354e-01  2.767968e-01  -3.973071e-01  3.463326e-01  -2.804746e-01  2.138020e-01  -1.545062e-01  -9.178191e-02  3.226312e-01  1.362114e-01  -3.364530e-01  2.180596e-01  -2.568516e-01  5.994819e-02  -2.809251e-01  1.134682e-02  8.198045e-02  1.182307e-01  1.247859e-01  -1.685461e-01  4.515175e-01  -2.645380e-02  -8.438835e-02  1.315159e-01  8.590255e-03  -1.949242e-01  2.604444e-01  1.506448e-01  2.576625e-01  6.631444e-02  2.067665e-01  -2.348168e-01  -2.504922e-01  3.371959e-01  -1.447552e-01  1.596401e-01  1.528509e-01  -4.796121e-02  4.125679e-02  -1.159776e-01  2.274343e-01  1.110987e-01  2.662786e-01  1.017025e-01  -1.085846e-01  2.262858e-01  -1.405553e-01  5.262577e-01  -2.611467e-01  -2.868414e-01  3.502848e-02  -1.865845e-01  1.005330e-01  -2.248351e-01  2.234764e-01  -2.713398e-01  -9.449292e-02  -2.403142e-01  1.521061e-01  1.521771e-01  9.847695e-02  -2.836136e-01  -3.166594e-01  2.984257e-01  -6.875753e-02  3.684335e-01  -9.065054e-02  -1.798620e-01  -2.215989e-01  1.977218e-02  -1.544976e-01  1.387913e-01  1.113396e-01  3.149352e-01  -7.735110e-02  -4.368617e-02  3.879986e-02  -3.565871e-01  -3.016968e-02  -1.353637e-01  -2.084655e-01  -1.172610e-01  -2.361719e-01  -2.358457e-01  2.467855e-01  -1.784839e-02  -1.504931e-01  -2.125990e-01  2.399846e-01  -1.403628e-01  -2.790209e-02  3.239565e-01  -2.112628e-02  -8.740117e-02  -1.252136e-01  2.499744e-02  2.107243e-01  3.275014e-02  -2.700481e-01  1.711151e-01  8.636505e-02  -3.053288e-01  -6.787647e-02  -3.137166e-01  -6.382130e-02  2.253155e-02  1.619104e-01  4.272486e-01  -1.627941e-01  -3.958983e-01  5.283741e-02  -1.116921e-01  8.618652e-02  -3.102508e-02  3.856420e-01  -7.200728e-02  -3.047996e-01  -1.855097e-01  9.616163e-02  5.871891e-01  -3.282015e-02  1.319385e-01  -5.937633e-01  6.309871e-02  2.694977e-01  -4.989451e-02  2.114607e-02  -1.096243e-01  -2.212946e-01  -1.053952e-03  -1.527393e-01  2.756252e-02  1.204942e-01  -3.672290e-01  5.824859e-03  2.502766e-03  1.469171e-01  3.727166e-01  -9.045031e-02  -2.290252e-01  2.013686e-01  -1.694388e-01  -6.310807e-02  -2.843426e-01  1.378013e-01  9.461138e-02  -7.887884e-02  -1.714456e-01  2.369440e-02  -2.872764e-01  -3.219701e-01  1.907044e-01  -3.555173e-01  -3.969494e-02  8.614943e-02  3.806689e-01  2.886912e-01  -1.686738e-01  9.564035e-02  2.103828e-01  4.203870e-01  2.681506e-01  2.356596e-01  -1.315891e-02  -2.275155e-02  8.137046e-03  -8.889570e-02  -5.560635e-02  1.261529e-01  2.917620e-01  -3.307940e-03  7.594979e-02  9.171645e-02  2.672663e-02  2.092307e-01  1.351926e-01  -3.219486e-01  -1.711849e-01  -2.857828e-01  -1.737415e-02  -2.210517e-01  -1.558798e-01  -6.555071e-02  -1.201544e-01  -3.329698e-02  -6.649652e-02  -1.779959e-01  1.811722e-01  -2.378995e-01  1.260188e-01  -1.951881e-01  -1.739667e-01  1.575781e-01  -2.162784e-01  -6.439554e-02  2.855513e-01  4.237505e-02  -6.040235e-02  1.116326e-01  -8.798303e-02  2.126601e-01  2.388210e-01  4.336726e-02  -1.610513e-01  -1.952441e-01  2.165090e-01  -1.754891e-01  -2.341880e-02  -4.837986e-02  4.913879e-02  1.398496e-01  -2.129820e-01  -1.211174e-01  -1.488601e-01  -1.435292e-01  2.414030e-01  -2.701958e-01  1.875048e-02  -1.913527e-01  -7.972235e-02  8.853899e-02  3.702041e-02  -1.246698e-01  2.131703e-01  1.507550e-01  1.256818e-01  3.836092e-01  2.559612e-02  1.489589e-01  -8.568254e-02  2.555817e-01  6.809368e-02  -1.794634e-01  2.695429e-01  -1.790573e-01  3.425606e-01  1.299887e-01  -1.175461e-01  8.176165e-02  3.985124e-02  1.113195e-01  2.060859e-01  2.512240e-01  -5.926879e-02  -4.575761e-02  1.902594e-01  1.167011e-01  1.670956e-01  -6.403738e-02  -2.776338e-01  -1.222257e-01  -5.183862e-02  -1.692566e-01  -4.465275e-01  -2.331798e-02  9.199250e-03  -2.401900e-03  -2.383287e-01  9.598738e-02  -2.546391e-01  2.701412e-01  -1.473877e-01  -1.866485e-01  4.762340e-01  -4.838496e-04  -4.165337e-01  1.765077e-01  3.989528e-01  2.946679e-01  -1.838929e-01  -8.828136e-02  -1.607368e-01  -4.078377e-02  3.305217e-02  -7.606984e-02  9.455880e-02  1.540580e-01  1.930958e-01  -1.784853e-01  -4.116422e-02  -7.392457e-02  -1.831014e-01  2.143508e-01  2.935074e-01  1.094004e-01  -2.269871e-02  3.153566e-01  1.857041e-01  1.047872e-01  -1.252430e-02  7.367838e-02  -3.735022e-01  1.193340e-01  1.232542e-01  -2.065236e-01  -1.862487e-01  -1.621666e-01  1.983549e-02  9.360636e-02  -8.052506e-02  -1.207596e-01  2.168223e-01  -1.145460e-01  1.858190e-01  1.025679e-01  6.182388e-02  8.439874e-02  -4.120360e-01  1.701203e-01  9.461941e-02  -8.845636e-02  -6.113839e-02  -3.987682e-02  -2.290957e-01  1.417293e-01  -1.749746e-01  -1.019811e-01  -2.526868e-01  4.592117e-02  1.065626e-01  4.525846e-01  -1.572424e-01  -2.092645e-01  -2.080589e-05  1.009599e-01  -1.105952e-01  4.039347e-01  3.395072e-01  -1.348562e-01  -4.436088e-01  -9.639449e-02  3.022380e-01  -2.217629e-01  -1.848835e-01  5.420605e-03  4.289186e-01  -2.673873e-02  2.081866e-01  7.121035e-02  3.448216e-02  -6.390627e-02  3.397080e-02  -2.275359e-02  -3.935277e-01  3.546660e-01  1.529987e-01  -3.902621e-01  1.753129e-01  -8.697778e-02  -7.158240e-02  -1.092657e-01  2.285814e-01  8.664806e-02  1.628341e-01  2.570888e-01  9.656274e-02  2.834738e-01  -1.024969e-01  7.459737e-04  4.035743e-01  -4.673040e-03  -1.282509e-01  -3.949248e-01  3.779932e-01  1.100604e-01  -3.788138e-02  -1.250379e-01  1.430294e-01  5.419395e-02  1.568816e-01  -1.556810e-01  1.691094e-01  2.208268e-01  -1.270397e-01  4.945659e-02  2.253078e-01  -5.607289e-02  9.402204e-02  2.837220e-01  -1.705780e-01  3.251530e-01  -3.083520e-01  1.413323e-01  2.614362e-01  1.489943e-01  -1.084207e-01  -8.042958e-02  3.559196e-02  1.218544e-01  2.735575e-01  -1.138676e-01  1.359463e-01  1.231976e-01  -9.242155e-02  1.712800e-01  1.390588e-01  -1.460509e-01  -4.134933e-02  -3.263828e-01  -5.547740e-02  -2.494990e-01  -1.853738e-01  3.263958e-01  -2.976114e-01  -6.009474e-02  1.429232e-01  -8.541352e-02  2.164422e-01  -3.241727e-01  1.370357e-01  1.529187e-01  3.078968e-02  1.090121e-01  2.929010e-01  1.483116e-01  -2.146824e-01  2.801832e-01  3.771083e-01  -1.112535e-01  2.825859e-02  5.161693e-02  1.616868e-01  -1.130429e-01  6.476095e-02  -1.520250e-01  -1.821125e-01  -2.773077e-01  -1.935100e-01  -1.200892e-01  4.805508e-02  -1.960280e-01  -3.080291e-02  1.842388e-01  -8.172355e-02  -2.901615e-01  -5.694129e-02  -1.407255e-01  2.471008e-01  -2.784110e-01  1.485331e-01  -1.760353e-01  3.718149e-02  -1.360890e-03  -1.344487e-01  1.364333e-01  2.685989e-01  -1.939844e-01  -2.981332e-01  1.280953e-01  1.026167e-01  2.363165e-01  9.160305e-02  -3.113392e-01  9.166222e-02  9.973527e-02  -2.189748e-01  -2.554540e-01  -1.687418e-01  7.479081e-02  2.463115e-01  1.899702e-02  -1.893170e-01  1.939241e-01  -1.029540e-01  -1.147648e-01  -9.480520e-02  6.258976e-02  -2.350260e-02  2.415880e-01  1.227499e-01  1.387369e-01  -5.944625e-02  3.274081e-02  1.782532e-01  1.398736e-01  1.649826e-01  -4.262826e-01  -2.679575e-01  -9.570342e-02  1.118610e-01  -1.726016e-01  -1.890172e-01  2.625120e-01  3.461736e-02  -2.824964e-01  1.231857e-01  -8.859998e-02  -1.141422e-01  1.151174e-01  -7.761980e-02  -1.940697e-01  1.543941e-01  2.240084e-01  1.076181e-01  -1.133429e-01  1.361091e-01  1.625995e-01  -3.445587e-02  2.431265e-01  1.548033e-01  2.379993e-01  -2.058350e-01  2.572290e-01  -1.469034e-01  7.348000e-02  1.362952e-01  -2.166632e-01  -2.141709e-01  -1.812970e-01  -1.584747e-01  1.605606e-01  2.477208e-01  2.153392e-01  -3.306264e-01  2.261028e-01  2.556351e-01  -1.141215e-02  1.186924e-01  -2.281239e-01  -1.857337e-01  -6.350519e-02  8.435313e-02  -4.335142e-02  9.935835e-02  3.267310e-03  -1.789816e-01  -8.218233e-03  1.161636e-01  -1.449165e-01  -2.673793e-01  2.064682e-01  1.535478e-01  1.223685e-01  -2.588687e-01  -1.450454e-01  1.214561e-01  1.050875e-01  -1.715386e-01  -2.516120e-01  -8.667886e-02  -2.184777e-01  1.760368e-01  -3.756147e-02  -1.435036e-01  2.136743e-01  1.345744e-02  -2.116478e-01  -1.275419e-01  -2.430390e-01  -2.563111e-01  1.144908e-01  2.177692e-01  -2.137734e-01  2.448993e-02  -8.623476e-02  1.384741e-01  -1.261418e-01  -4.526768e-02  -1.448823e-01  1.165978e-02  -8.022729e-02  1.267793e-01  1.290069e-01  2.067112e-01  -1.588885e-01  5.623652e-01  6.547756e-02  -1.918131e-01  -2.490877e-01  1.167382e-01  2.037619e-01  -7.187464e-02  9.660742e-02  2.524875e-01  2.999564e-01  -3.097270e-01  4.345826e-02  -3.481449e-02  4.813832e-02  -2.177388e-01  -1.684143e-01  2.264063e-02  -2.441460e-01  3.933999e-03  1.687661e-01  -5.279509e-03  -3.005172e-01  -3.322262e-01  2.126407e-01  7.864951e-02  -2.136134e-01  3.901239e-01  -1.093365e-01  2.775027e-01  1.140682e-01  3.197335e-02  1.376027e-01  -2.920412e-02  -2.512971e-01  -4.396260e-02  3.313743e-01  -9.770872e-04  2.137207e-02  1.507970e-01  -2.040831e-01  2.596020e-01  -7.754202e-02  4.486995e-01  -1.709880e-01  -1.328109e-01  1.436553e-01  -5.017099e-02  -1.773848e-01  -7.104921e-02  -2.880332e-02  -1.922192e-01  1.530218e-01  1.260274e-01  3.768758e-01  1.058182e-01  1.079844e-01  -1.776219e-01  7.878816e-02  1.501341e-01  -2.984928e-01  3.439295e-01  -7.237057e-02  3.212865e-01  1.895105e-01  8.470031e-02  1.946672e-01  2.354268e-01  3.287066e-01  2.138617e-02  -6.833947e-02  -1.087488e-01  3.455075e-01  4.174039e-01  2.711327e-02  1.217470e-01  2.044146e-01  -3.894393e-01  -2.954354e-01  -1.291559e-01  4.186905e-02  6.970284e-02  -2.928743e-01  -5.133405e-02  3.685874e-01  -4.711314e-01  -4.286079e-01  4.523502e-01  -1.911734e-01  2.420349e-01  1.758453e-01  -1.659447e-01  -8.551294e-02  -3.948017e-01  4.391719e-01  3.638652e-01  -2.804987e-01  -3.299495e-01  -7.709160e-02  -6.855603e-02  -1.774884e-01  -3.332519e-01  8.562817e-02  1.433583e-01  2.171673e-02  -2.794277e-02  1.704949e-03  -1.810694e-01  2.729052e-02  -2.591948e-01  -3.729640e-01  2.616084e-01  -1.090560e-01  -1.141233e-02  2.875368e-01  -6.845470e-02  2.275771e-01  -6.064818e-02  6.968799e-02  -1.350695e-02  2.578756e-01  4.703188e-02  1.026302e-01  -4.826211e-02  -6.756087e-02  -6.247447e-02  -1.272406e-01  2.543451e-02  1.728971e-01  4.279677e-02  -2.269000e-01  -1.687931e-01  -1.547260e-01  -4.456985e-02  -8.035958e-03  4.229075e-02  7.405934e-02  -1.083736e-01  -2.420835e-01  -4.721470e-02  -1.480716e-02  -2.208136e-01  1.935568e-01  8.956017e-02  7.225523e-02  -2.006463e-01  -2.203161e-01  -2.630523e-01  7.953215e-02  1.429657e-01  1.620384e-01  3.381382e-01  -3.099955e-01  -2.304278e-01  2.227670e-02  -2.632725e-01  -1.027739e-01  -1.266399e-01  7.116530e-02  -2.001851e-01  -8.986460e-02  -2.085151e-01  1.775070e-01  1.759210e-01  -9.071178e-02  -3.447096e-01  -5.685385e-02  -8.421055e-02  -3.043843e-01  5.696004e-02  2.059989e-01  1.203359e-01  3.574109e-02  -1.883114e-01  2.315661e-01  1.818424e-02  -2.821085e-01  -4.436393e-02  1.077239e-01  -1.419903e-01  1.988702e-01  6.836461e-02  -4.413108e-02  -8.191162e-02  -3.279051e-01  2.983862e-02  -2.777665e-02  1.233715e-01  1.638455e-01  1.609850e-01  4.517890e-02  -7.935376e-02  -5.341975e-02  1.276688e-01  1.410404e-01  -1.533013e-01  1.918495e-01  -1.701584e-02  -2.988917e-01  2.122634e-01  -9.230532e-02  -8.682627e-02  1.442647e-01  5.175753e-02  -2.662578e-02  -2.325044e-01  1.991593e-01  -1.891184e-02  -1.414307e-01  2.233570e-01  1.970227e-02  -9.692914e-02  2.065079e-01  7.206187e-02  -1.940329e-01  2.402526e-01  -1.637052e-01  2.038223e-01  1.142591e-01  -2.060438e-01  -2.939681e-02  -4.163431e-02  1.038541e-01  5.991131e-02  -7.838648e-02  8.161347e-04  8.799861e-02  -1.241975e-01  -2.048736e-02  2.396184e-01  7.761917e-02  -2.029565e-01  -1.714639e-01  -1.499982e-01  1.682769e-01  3.256535e-01  1.382730e-01  -2.299611e-01  2.425776e-01  -4.587800e-02  -2.413605e-01  5.789058e-02  -2.826335e-01  7.105639e-02  -2.187300e-01  -5.893268e-02  1.674502e-01  4.844821e-02  1.409980e-01  -3.008797e-01  -6.629536e-02  -2.206806e-01  2.480763e-01  1.726309e-01  4.581434e-02  1.813554e-01  7.845395e-02  -1.241267e-01  -3.020041e-02  -1.182955e-01  1.135962e-01  -1.565898e-01  -1.654241e-01  -1.867134e-01  -2.686452e-01  2.832144e-01  -9.937135e-02  2.441981e-01  -1.254531e-01  -2.256229e-01  -1.474950e-01  -1.980523e-01  -2.408646e-01  -3.781831e-02  1.529220e-01  2.439274e-01  -1.243153e-01  1.368634e-01  1.021405e-01  -1.729632e-01  2.414112e-01  1.555685e-01  -6.360951e-02  -2.048650e-01  -1.531301e-01  4.311292e-03  -1.288683e-01  -1.441135e-01  -2.740561e-01  7.214066e-02  -4.373850e-02  5.527893e-02  2.100907e-01  -5.373786e-02  -1.813281e-01  5.318766e-02  1.114222e-01  -1.315301e-01  2.702748e-01  1.717262e-01  9.237168e-02  -1.223041e-01  2.060553e-01  3.535272e-01  1.907558e-01  1.765600e-01  -2.799025e-01  -1.238280e-01  9.195840e-02  -1.810866e-01  -2.274964e-01  1.165236e-01  1.726679e-01  -1.517233e-01  -9.617004e-02  2.339461e-01  -3.148160e-01  -8.095986e-02  -1.301886e-02  1.995596e-01  -2.840557e-02  -2.094012e-02  6.363664e-02  2.423228e-01  -3.469894e-02  -6.252174e-03  -1.196611e-01  4.620544e-02  -1.181336e-02  3.066042e-01  -2.005173e-01  2.554738e-01  6.099206e-02  -3.219743e-01  3.866256e-01  2.385544e-01  9.169468e-02  1.301005e-01  -6.367864e-02  2.380946e-01  8.952663e-02  -4.369925e-02  -5.541347e-02  2.182832e-01  1.523413e-01  2.659851e-01  -2.541670e-01  1.003391e-01  2.006714e-01  -2.265683e-01  2.072753e-01  1.134428e-01  -1.934062e-01  -2.404409e-01  -1.929632e-01  1.808889e-01  -6.991924e-02  8.998845e-02  -1.808566e-01  -1.504218e-01  3.799155e-02  -2.312569e-01  -2.393462e-01  -2.873214e-02  -6.564820e-02  -9.462430e-02  -3.902895e-01  -6.021801e-02  -2.264679e-01  -5.134366e-01  1.100537e-01  -2.963719e-01  -2.364394e-01  1.542099e-01  -2.450028e-01  -9.522573e-02  -5.281456e-02  2.744668e-01  -1.163664e-02  6.559808e-02  4.317048e-02  2.253812e-01  -1.083050e-01  -3.626918e-01  2.337482e-02  -3.024924e-02  6.561152e-02  2.208192e-01  1.423759e-01  2.492198e-01  -1.596265e-01  5.599169e-01  1.910834e-01  3.601859e-01  1.282511e-01  7.191678e-02  1.224835e-02  4.158684e-01  3.197456e-01  9.457870e-02  -3.041006e-01  2.999600e-01  -1.113896e-02  -3.062348e-01  -8.090166e-02  1.129218e-01  7.975031e-02  3.718726e-01  -6.499993e-02  1.045292e-01  2.387191e-01  -5.618379e-02  -1.279248e-01  -6.254680e-02  -9.292153e-02  2.170839e-01  4.732847e-02  -2.246777e-01  -1.417586e-01  -1.511459e-01  -8.116870e-02  2.940738e-01  -3.501495e-01  9.478089e-02  2.721528e-01  1.277939e-01  1.582415e-01  3.649771e-01  9.561740e-02  -1.182052e-01  2.007520e-01  -2.733642e-02  2.617332e-01  1.060267e-01  -4.114328e-01  6.104128e-02  -1.743252e-02  1.865501e-01  2.198174e-01  -4.944633e-01  4.660384e-01  -8.499693e-02  3.063015e-02  1.101069e-01  8.117338e-02  5.768196e-02  -1.935870e-02  -3.342598e-02  -2.107123e-01  3.857184e-01  7.902680e-03  2.013128e-01  -1.365368e-01  -1.757034e-02  -4.979934e-02  -1.182818e-01  1.405473e-01  1.659499e-01  -1.687037e-01  1.111532e-01  9.204469e-02  1.645156e-01  3.249207e-01  -9.655704e-03  2.300313e-01  4.050216e-02  2.366607e-01  -1.915409e-01  -1.907696e-01  -1.779427e-01  6.799049e-02  4.587049e-02  5.297114e-02  -8.786973e-02  2.726865e-01  -3.117054e-01  -2.202028e-01  -2.087459e-01  2.418308e-01  8.227456e-02  1.357009e-01  1.159702e-01  -8.106018e-04  3.504054e-01  -3.811524e-01  -1.009416e-01  -6.752262e-02  2.039520e-01  2.026676e-01  -1.835811e-01  3.156812e-02  1.134928e-01  -2.473344e-02  -1.601253e-01  -1.946186e-01  3.359065e-01  5.389296e-02  5.488918e-02  -3.399269e-02  4.935383e-01  9.823723e-02  1.004755e-01  2.471072e-01  -1.371376e-01  2.178795e-01  1.154568e-01  6.294632e-02  -5.383669e-02  1.019824e-01  2.661090e-02  3.610510e-02  -9.473727e-02  -1.646361e-02  2.495945e-01  -1.705760e-01  2.045502e-01  3.410074e-02  -4.633437e-02  -6.361847e-02  2.173138e-01  -1.636412e-01  3.062761e-01  1.495781e-01  -5.267079e-02  -8.284350e-02  -8.704121e-02  1.501846e-01  7.729778e-02  2.162413e-01  -7.498407e-02  -5.778216e-02  -1.220644e-01  6.238858e-02  -7.379238e-02  2.204809e-02  2.238871e-01  1.318652e-01  -8.709257e-02  1.010351e-01  -1.602438e-02  2.072350e-01  1.216779e-01  -1.129627e-01  1.635619e-01  -1.735834e-01  3.158476e-02  -1.421533e-01  -9.233201e-02  -1.702493e-01  5.022759e-02  -8.895908e-02  -1.126707e-01  1.126357e-01  2.120800e-01  2.093043e-01  -1.501019e-01  -2.230695e-01  -2.900105e-01  2.314698e-01  9.249184e-02  -1.674727e-01  -3.140717e-01  -1.093816e-01  -1.263011e-01  -1.283696e-01  -1.782988e-01  -2.035690e-01  2.379785e-01  6.688770e-02  8.537303e-02  2.195703e-01  -1.544156e-01  -2.267229e-01  -1.652189e-01  1.617574e-01  9.313312e-03  -3.521103e-01  -7.202657e-02  -4.065247e-02  2.062717e-01  -8.094192e-02  1.922088e-01  -2.043477e-01  1.739441e-01  6.110061e-02  -2.961848e-02  3.234285e-01  -1.367020e-01  1.227276e-02  -1.927698e-01  -2.274530e-01  -1.938393e-01  -1.537298e-01  -8.538453e-02  4.838745e-02  -1.335743e-01  -3.769843e-02  4.272359e-02  1.119943e-01  -3.268790e-01  7.127066e-01  5.073935e-02  -1.943799e-01  -4.564468e-02  -1.791031e-01  3.866048e-01  -1.948741e-01  -3.313692e-01  -1.363218e-01  -6.012636e-02  1.571782e-01  -2.330860e-01  1.998130e-01  -2.296115e-01  -4.573582e-01  -2.498700e-01  -5.069147e-01  5.293606e-01  -5.702224e-03  -4.707403e-01  1.701339e-01  -2.902995e-01  2.321143e-01  1.798172e-01  -1.226688e-01  -4.583434e-01  -2.682367e-01  -1.690926e-01  -6.218472e-01  -1.750216e-01  4.269111e-01  3.905674e-01  -4.392305e-02  -1.497390e-01  -6.096687e-02  5.328105e-02  2.022480e-01  2.994628e-01  -5.127603e-01  3.472309e-01  -2.718532e-01  3.787128e-01  1.707105e-02  1.399411e-01  1.625158e-01  -1.843693e-01  -5.957366e-02  1.500208e-01  1.389716e-02  -1.918917e-01  -5.923572e-02  -3.796781e-01  3.322213e-01  3.305394e-01  3.006272e-01  -4.316445e-01  7.473569e-02  -2.569520e-02  3.333831e-01  2.323179e-01  -4.225666e-02  1.582097e-01  1.156960e-01  1.498200e-01  1.950758e-01  2.419309e-01  1.304480e-01  -1.929368e-01  1.185529e-01  5.349255e-01  -2.142903e-01  9.403984e-02  1.649000e-01  -8.142013e-02  1.908339e-01  3.608627e-02  1.531910e-01  -8.809081e-02  4.603600e-01  2.646614e-01  -4.793611e-01  -2.457647e-01  1.879456e-01  6.439635e-02  -2.044640e-01  1.844937e-01  -1.960155e-02  -2.350883e-01  9.908311e-02  1.774703e-01  3.261802e-01  -3.136778e-01  5.622895e-02  -2.162454e-01  -2.402299e-01  -2.132590e-01  -2.587587e-01  -1.257651e-01  2.108107e-01  6.671128e-02  -9.177488e-02  -4.264025e-01  -1.178348e-01  4.232400e-01  1.689642e-01  1.860624e-02  3.637228e-01  -2.470885e-01  1.937380e-01  -8.122171e-02  -3.756317e-01  -8.401090e-03  2.725950e-01  4.615783e-01  1.407646e-02  -1.937408e-02  1.161933e-01  7.492230e-02  8.095880e-02  3.176070e-01  -1.810282e-01  -1.594151e-01  4.043266e-01  -4.260989e-02  1.575087e-01  -1.826238e-01  -1.373931e-01  -3.059125e-01  -4.795077e-03  -3.002602e-01  1.580773e-01  -5.954122e-02  -2.311938e-01  -1.869744e-01  2.640321e-01  -2.268369e-01  1.772800e-02  2.068229e-01  -9.169014e-02  1.961401e-01  1.173555e-01  -2.139408e-01  1.777534e-01  -2.791457e-01  7.703052e-02  9.736738e-02  -3.582272e-01  -1.859459e-01  4.827131e-03  -2.050097e-01  7.688377e-03  -2.073741e-01  -1.080063e-01  3.810734e-01  3.718898e-01  -1.605906e-01  5.074562e-01  2.545668e-01  -9.742564e-02  -2.417465e-01  -1.284381e-01  5.578991e-02  -1.669294e-01  5.163885e-02  2.097304e-02  -2.710283e-01  1.562690e-01  9.062202e-02  3.699749e-01  4.581858e-01  -1.219114e-01  2.260721e-01  3.576669e-01  1.477467e-01  -1.577776e-01  -9.940234e-02  2.500612e-01  -4.482818e-01  1.632040e-01  -5.585985e-01  3.487641e-01  1.738183e-01  -2.039200e-02  2.088878e-01  -7.195976e-02  -5.400376e-01  -3.698769e-01  3.496810e-01  -4.406207e-02  -9.528467e-02  3.077760e-01  -3.375221e-01  -2.032247e-02  -6.435333e-01  1.426151e-01  3.092225e-01  -1.714489e-01  -2.325059e-01  -4.708092e-01  2.621711e-01  7.532150e-02  -8.244435e-02  -2.703382e-02  -3.520620e-02  3.187600e-01  -1.192375e-01  2.727081e-01  -1.693402e-01  2.095439e-01  -2.476659e-01  -1.079044e-01  3.234736e-01  8.994456e-02  6.563328e-02  1.079406e-01  2.471598e-01  1.132293e-01  1.632751e-01  2.909306e-02  2.408472e-01  -2.284546e-01  2.866132e-01  1.791055e-01  1.918498e-01  -2.133862e-01  1.769910e-01  8.320466e-02  -2.903478e-01  1.774488e-01  -2.677597e-01  -2.234797e-01  -1.367664e-01  1.560259e-01  2.654447e-01  -1.436559e-01  4.433199e-02  1.095982e-01  1.167766e-01  -2.308027e-01  2.382976e-01  1.658697e-01  -2.885551e-02  -1.500676e-01  -1.897855e-01  5.576770e-02  1.881791e-01  -3.254108e-01  -3.221964e-01  1.142900e-01  1.970119e-03  -5.223026e-02  -1.296982e-01  -4.680828e-02  -2.742810e-01  -6.547617e-02  1.714433e-01  8.368623e-02  -2.220126e-02  -6.052271e-03  -2.040681e-01  1.855983e-01  -1.291316e-01  2.103407e-01  1.347356e-01  2.280231e-01  -1.891337e-01  2.417295e-01  -2.092768e-01  -2.689615e-01  -1.574676e-01  3.326358e-02  1.842873e-01  1.203409e-01  -2.090834e-01  1.429270e-01  -1.308001e-01  -2.071175e-01  -4.082590e-02  1.175930e-01  -2.110334e-02  -1.985309e-01  -3.022026e-01  2.781542e-01  -5.183723e-02  1.598540e-01  1.050709e-01  -4.247605e-02  -4.045017e-03  2.417791e-01  -8.913935e-02  -2.322946e-02  1.429768e-01  3.377048e-02  1.470385e-01  -2.327782e-02  9.659105e-02  -2.355486e-01  -1.573186e-01  2.250944e-01  -5.821409e-02  -2.651740e-01  3.562116e-01  -1.755662e-01  1.157761e-01  -1.605513e-01  -2.041080e-01  -3.575980e-02  3.644609e-02  2.943776e-01  1.223085e-01  1.242511e-01  1.597394e-01  -2.493365e-01  -1.010016e-01  1.311688e-01  2.829119e-01  -1.477980e-01  -6.766351e-02  -2.471434e-01  1.300517e-02  1.715296e-02  -9.138861e-02  -2.436188e-02  7.168523e-02  3.268538e-01  3.023572e-01  1.297676e-01  2.553807e-01  3.890263e-02  2.060613e-01  -1.181482e-01  -8.636939e-02  1.307067e-01  -6.879028e-02  -2.814925e-01  3.013854e-01  -1.005447e-01  -1.331857e-01  9.131840e-02  -1.592696e-01  -6.049256e-02  9.252093e-02  7.304574e-02  3.497515e-01  -1.259690e-01  5.293864e-02  1.429010e-01  2.288938e-01  2.134047e-02  6.612929e-02  3.043135e-01  -1.757231e-01  4.341707e-01  3.759926e-01  -1.923459e-01  1.616931e-01  -5.478940e-01  -3.250169e-01  3.890497e-02  2.278324e-02  -3.027385e-01  1.941935e-01  -7.479650e-01  -4.872815e-01  -2.802100e-01  2.499563e-01  -3.958556e-01  -1.602160e-01  7.291389e-01  -1.520466e-02  -2.791995e-01  -7.012205e-01  1.470704e-01  -1.093171e-01  -5.045072e-02  1.620228e-01  -1.967481e-01  -3.886538e-01  -2.921017e-01  4.962634e-01  7.739852e-02  9.038970e-02  -2.917356e-02  -7.112957e-01  5.641188e-01  3.461898e-01  2.513193e-01  1.886912e-01  1.026416e-01  4.210641e-01  -2.520593e-01  -1.260093e-01  -4.783154e-01  -7.762825e-02  9.412242e-02  -3.612579e-01  -1.836290e-01  -5.051452e-02  5.997506e-01  -1.101547e+00  -1.309280e-01  1.036393e-01  1.167400e-01  6.123722e-02  -1.887508e-01  2.501959e-02  1.846364e-01  -7.604291e-03  1.618993e-01  -2.515552e-01  -5.751660e-02  -2.151058e-01  -7.885791e-02  1.483335e-01  1.953240e-01  -7.503531e-02  2.828392e-02  1.506422e-01  -1.498897e-01  -3.068030e-02  2.105533e-01  -1.924225e-01  1.302212e-01  -1.926032e-01  2.689625e-01  -7.939754e-02  -2.508687e-01  2.006187e-01  1.999997e-01  3.778770e-02  -2.070375e-01  -5.299525e-02  7.020089e-02  1.776009e-01  -2.704321e-01  3.410088e-01  -1.705108e-02  -3.115085e-01  2.088573e-01  -1.116900e-01  2.798630e-02  1.135251e-01  -1.262621e-01  1.464754e-01  -2.554340e-01  -3.015733e-02  -4.731225e-02  -2.820697e-02  -1.987857e-01  -2.363527e-01  9.169432e-02  -1.896218e-02  -3.741776e-02  3.104767e-01  1.892993e-01  2.052375e-01  -2.717806e-01  -3.776387e-01  1.674933e-01  -3.020283e-02  -1.903237e-01  1.576060e-01  -4.113560e-01  8.386807e-03  -2.563888e-01  8.441675e-02  -3.423323e-01  2.524253e-01  2.875493e-01  -8.902518e-03  -1.075597e-01  -2.455688e-01  2.270313e-01  4.502436e-03  5.985743e-03  1.478995e-01  -2.624727e-01  -2.152843e-01  2.052292e-01  9.823648e-02  -2.394290e-01  -1.590526e-01  -3.228577e-01  -4.714446e-01  3.847266e-01  2.857967e-01  3.099636e-01  1.952260e-01  -1.602457e-01  1.923108e-01  -1.384233e-01  -6.322259e-02  -1.773875e-01  9.594143e-02  -1.441085e-02  -2.890811e-01  -1.044454e-01  1.694578e-01  3.323378e-01  -5.150032e-01  
      </Weights>
      <Biases Rows="50" Columns="1">
        -1.279043e-01  -1.414094e-01  -8.224334e-02  -4.915353e-02  -3.849609e-02  5.286355e-02  2.088584e-02  -1.259579e-01  -2.158952e-01  9.154138e-03  1.097676e-01  -5.390104e-02  -3.448758e-02  -1.447349e-01  -1.955316e-01  -1.240317e-01  1.500612e-01  -5.439029e-02  -2.109117e-02  -9.828386e-02  5.022243e-02  -1.285704e-01  1.563712e-01  -1.917198e-01  -2.825309e-02  8.097062e-02  1.435275e-01  -4.874583e-02  -5.293110e-02  2.756311e-02  7.343353e-02  -1.231572e-01  3.519102e-02  4.107171e-02  7.353068e-02  -3.792538e-02  -7.393125e-02  -9.849435e-02  3.101796e-02  6.273222e-02  -1.656583e-01  2.051207e-01  7.104642e-02  5.092699e-02  5.479928e-02  1.261079e-02  -4.856823e-02  3.211735e-01  4.169605e-02  1.391449e-01  
      </Biases>
    </DenseLayer>
    <DenseLayer Width="50" ActivationFunction="3">
      <Weights Rows="50" Columns="50">
        -9.426992e-02  -1.372388e-01  -4.361009e-01  5.816586e-02  -4.053813e-01  2.631971e-01  1.080384e-01  1.632644e-01  3.970972e-02  5.613732e-02  2.188434e-01  -1.505102e-01  -1.858559e-02  -3.168048e-01  -2.090153e-01  -1.354752e-01  2.801560e-03  -6.319879e-01  1.711094e-01  -1.378568e-01  3.640002e-01  -3.247752e-01  2.359377e-01  2.787097e-02  -1.917189e-01  1.433236e-01  1.046087e-01  3.341333e-02  1.576887e-01  1.520306e-01  -3.542213e-01  -6.252509e-01  1.737528e-01  4.316003e-01  3.785372e-01  6.886829e-02  -2.404334e-01  -6.577446e-01  -8.876023e-02  -5.106331e-02  -2.554617e-01  -1.088717e-01  7.795562e-02  1.973278e-01  -4.768697e-02  -2.811034e-01  -1.370167e-01  7.538621e-01  9.659828e-02  5.968190e-01  2.973818e-01  1.185470e-01  3.701847e-01  3.239689e-01  2.550345e-02  1.180271e-01  -2.085918e-01  4.872046e-02  -7.804204e-02  -3.847428e-02  -1.343123e-01  1.740350e-01  -8.397397e-02  2.161406e-01  2.504388e-01  -2.227824e-01  -1.617120e-01  2.661812e-02  3.571530e-01  -1.888173e-01  -2.498756e-01  4.835911e-01  1.111584e-01  5.414265e-01  1.373006e-01  -4.790321e-01  -4.212666e-01  -1.344960e-01  -1.038522e-01  -1.538924e-01  -1.539395e-02  3.166151e-02  -2.916509e-01  -4.123574e-01  -3.541584e-01  1.876991e-01  6.585757e-02  5.799522e-01  2.614137e-01  -3.705661e-01  -9.543036e-02  1.914294e-02  -1.893928e-01  1.046138e-02  -5.021514e-02  2.185822e-01  2.419021e-01  -1.157519e-01  2.409384e-01  -4.710978e-01  8.633643e-02  8.043497e-03  -1.139938e-01  -1.262680e-01  -3.355066e-01  3.267815e-02  -4.867503e-02  -2.535197e-01  2.390042e-01  -2.430974e-02  -1.050237e-01  -7.139161e-02  1.446303e-02  3.014306e-01  5.686873e-01  7.963753e-02  3.032910e-01  9.679661e-02  -2.264223e-01  -2.859477e-02  -8.957331e-02  1.543124e-01  1.560270e-02  -9.579960e-02  -1.764135e-02  1.847054e-01  -2.981333e-01  1.468044e-01  -2.157143e-01  3.426645e-01  1.361052e-01  -2.941716e-01  1.749505e-01  -1.969135e-01  2.709654e-01  -1.370463e-01  -3.084641e-01  1.657034e-02  -3.011250e-01  4.652895e-02  2.038153e-01  3.209716e-02  1.166113e-01  2.171776e-01  1.824939e-01  -6.951731e-02  -2.936535e-01  1.898457e-03  -2.421985e-01  1.986069e-02  2.214370e-02  -7.392046e-02  3.096690e-01  -1.610695e-02  1.910929e-01  -2.358866e-01  -9.247579e-02  -9.673303e-02  -1.260137e-01  2.834144e-01  1.085677e-01  4.504384e-02  -1.678208e-01  5.420332e-02  -7.668434e-02  -6.239523e-02  -1.922305e-01  1.634870e-01  -2.258464e-01  7.094205e-03  -4.610913e-01  1.956650e-01  -1.197058e-01  2.683557e-01  2.156633e-01  -1.412035e-02  -2.344110e-01  -1.150912e-01  -2.783724e-02  3.625464e-02  1.398908e-01  2.126660e-01  1.013138e-01  -3.275598e-01  -1.915440e-01  -2.299924e-01  9.537728e-02  3.167603e-01  1.980592e-01  2.835120e-02  1.916336e-02  -4.919337e-02  -2.795233e-02  6.706289e-02  -8.388137e-02  1.948142e-01  1.126242e-01  -4.929772e-01  1.804393e-01  -3.806225e-01  2.001991e-01  -3.156675e-01  -1.633130e-01  4.353459e-01  -1.574336e-01  8.935437e-02  -1.439715e-01  -4.573633e-01  1.536238e-02  2.157894e-01  2.249941e-01  -3.329715e-01  4.773836e-03  1.014757e-01  2.901572e-02  2.242650e-02  2.157870e-01  -5.152198e-02  1.130455e-01  9.630744e-02  1.866394e-01  1.570852e-01  1.749645e-01  8.546539e-02  2.456534e-02  2.234232e-01  -2.133407e-01  -1.132410e-01  -2.299592e-01  2.253495e-01  9.742236e-02  -2.714090e-01  -1.600089e-01  -1.238298e-01  -1.091189e-01  -1.199252e-01  -2.476678e-01  2.757373e-02  -2.025232e-02  -2.876554e-01  -3.362597e-01  1.627421e-01  1.704398e-01  2.015863e-01  -2.696648e-03  1.160016e-02  1.022116e-01  -2.839070e-01  -5.883458e-02  -8.594085e-02  -1.980192e-01  4.707360e-02  -1.590338e-01  1.180356e-03  -1.055671e-01  -2.052331e-01  2.074754e-02  1.228733e-01  -4.106842e-02  1.772041e-01  -2.887732e-01  -1.974573e-01  -4.361988e-02  1.451763e-01  1.234383e-01  -1.353042e-01  -6.352077e-02  -7.916716e-02  -2.307587e-01  2.342186e-01  1.026185e-01  8.391311e-02  5.648629e-02  -1.266391e-01  1.170718e-01  3.298919e-01  4.170766e-02  -5.167797e-02  5.473303e-02  2.105080e-01  -2.467723e-01  -1.945562e-01  1.731993e-01  -3.693697e-02  2.372257e-01  -2.391284e-01  -1.431080e-01  9.532065e-02  -1.782309e-01  3.041417e-02  2.553933e-02  -1.100249e-01  -8.039722e-02  2.792916e-01  2.514878e-01  1.363327e-01  1.392908e-01  -1.154462e-01  -2.137512e-01  7.929523e-02  1.199584e-01  -9.028002e-02  -5.962146e-02  -1.239821e-01  -3.563060e-02  1.850520e-01  7.214925e-02  -3.483886e-02  -1.027239e-01  2.025639e-01  -7.007123e-02  -3.130490e-01  1.832752e-01  2.393031e-01  1.556725e-01  -8.415490e-02  2.851970e-01  -2.531475e-01  -1.693756e-01  1.806582e-01  -1.853430e-01  -4.805585e-02  1.090130e-01  6.707206e-02  1.789454e-01  3.974391e-01  -2.480946e-01  4.929863e-03  1.952978e-02  -1.995187e-01  2.137733e-01  5.905386e-02  -1.031821e-01  -8.359335e-02  1.876385e-01  -1.985539e-01  -2.783754e-01  3.099973e-02  -1.279171e-01  -5.415444e-02  6.000019e-02  1.820469e-01  -1.207261e-01  2.095766e-01  2.085455e-01  -2.910461e-01  -2.737110e-01  5.978743e-01  -1.060172e-01  1.110838e-01  9.488424e-02  1.542580e-01  3.630841e-01  -3.483477e-02  3.856086e-01  -2.670467e-01  1.460527e-01  -2.450888e-01  1.062084e-01  -1.769168e-01  3.236780e-02  -1.003890e-02  2.072839e-01  1.429390e-01  2.510413e-01  4.940821e-02  -9.797172e-02  3.127647e-01  -1.159777e-01  8.107742e-02  2.598691e-01  1.904192e-01  1.485582e-01  -1.175650e-01  -1.155775e-02  -1.833312e-01  1.849811e-01  -6.768584e-02  -4.716254e-02  -3.983574e-02  -1.101365e-02  3.649530e-01  -2.665543e-02  -1.112807e-01  -3.755903e-01  -2.336703e-01  2.834406e-01  -1.150326e-01  -2.378841e-01  -1.612068e-01  1.169267e-03  5.865305e-03  -1.042854e-01  2.217934e-02  -5.215123e-02  7.350891e-02  4.510205e-02  -2.899751e-01  -3.162297e-02  1.823313e-01  -2.141064e-01  2.011114e-01  -3.426487e-01  -2.261484e-01  2.287213e-02  1.137360e-01  6.192131e-02  -1.887342e-01  -5.136424e-02  2.354080e-01  2.347117e-01  -1.002595e-01  6.875529e-02  -1.917903e-01  -8.566813e-02  -3.304496e-02  -1.363196e-01  3.630781e-02  1.000088e-01  -1.042277e-01  -3.314688e-02  -3.953326e-01  1.189104e-01  -7.254067e-02  -3.639780e-01  2.686794e-02  2.050074e-01  -7.802398e-02  -5.083406e-02  5.304272e-02  -1.318274e-01  8.530007e-04  3.648728e-01  3.050431e-01  -4.983055e-02  1.817497e-02  -2.993672e-01  -3.772966e-01  -1.927738e-01  2.325354e-01  1.782370e-01  -1.565901e-02  2.393001e-01  4.053073e-03  5.151853e-03  -2.459286e-01  -9.553551e-02  -1.269502e-01  -2.237176e-01  2.454485e-01  1.448555e-02  -1.792223e-01  9.761192e-02  -3.165619e-01  9.383922e-02  -4.768503e-03  4.087950e-03  2.203431e-01  -1.685335e-01  -1.458149e-01  -3.212580e-01  1.415828e-01  6.549588e-02  1.096527e-01  -6.045043e-02  8.366672e-02  -1.592948e-01  -2.175067e-01  1.880552e-01  -2.624476e-01  2.087892e-01  -2.541202e-01  2.607627e-01  2.773496e-01  2.172408e-01  -5.498231e-02  6.741403e-02  1.524590e-01  1.966987e-01  -7.762419e-02  -3.258093e-01  4.430437e-02  -2.199982e-01  1.871282e-01  1.365088e-01  4.053014e-02  1.691889e-01  -6.660764e-02  -1.867076e-01  -1.500658e-01  -2.599781e-01  2.426159e-02  1.353659e-01  -1.909958e-01  -2.319520e-01  -5.931092e-02  -1.272123e-01  5.730482e-01  -2.524405e-01  2.595396e-01  -5.070139e-02  -4.465418e-04  -1.708806e-01  -6.125751e-02  2.849150e-01  4.058510e-02  2.678099e-01  8.030165e-02  -1.942888e-01  9.128501e-02  2.134494e-01  2.250583e-01  2.019014e-02  -2.409644e-01  -6.270040e-02  2.510330e-01  4.536204e-02  4.817311e-03  1.312627e-01  1.898754e-01  -6.559060e-02  5.996395e-02  -3.641043e-02  -1.932404e-01  -2.558801e-01  6.953910e-03  5.184703e-02  1.040933e-01  1.857759e-01  -1.679300e-01  -1.044797e-01  -1.738243e-01  6.029801e-02  2.145392e-01  -7.866431e-02  1.617164e-01  2.112069e-01  -2.632435e-01  3.984158e-02  2.362482e-01  -2.120388e-01  -6.403233e-02  -9.091857e-02  2.076291e-01  -2.178081e-01  -6.899657e-02  6.431814e-02  -2.379487e-01  5.268818e-02  -3.079064e-02  -3.665746e-02  -2.289938e-01  3.726173e-01  1.386590e-01  -1.984336e-01  -1.923916e-01  -5.190589e-02  1.793080e-01  -2.972946e-01  1.373946e-01  -1.569085e-01  3.345011e-01  -6.995966e-02  -2.371256e-01  -7.675443e-03  5.075282e-01  8.316527e-02  9.061988e-02  2.231126e-01  -4.365864e-01  8.937223e-02  3.035188e-02  1.604113e-01  -2.371557e-01  1.018375e-01  -1.550558e-01  1.259152e-01  -3.707074e-01  -8.710683e-02  6.791747e-02  6.700531e-02  -1.749747e-01  -1.667294e-01  1.809473e-01  1.728534e-01  -3.015239e-01  3.233244e-01  3.213093e-02  1.745903e-01  1.834010e-01  -8.665232e-02  1.734224e-01  1.829952e-02  1.809182e-03  2.348306e-01  9.128896e-02  -1.386255e-01  -2.280903e-01  7.332403e-02  -2.393974e-01  9.910686e-02  -1.529433e-01  2.339196e-01  -3.347922e-02  1.419765e-01  1.560516e-01  1.322183e-01  2.500762e-01  -1.220424e-01  -9.587771e-02  -2.572066e-01  2.023576e-01  -1.595019e-01  2.154318e-01  8.174514e-02  -1.305240e-01  1.977448e-01  -3.255811e-02  4.748313e-02  -1.428560e-01  -1.288522e-01  -3.106037e-02  -1.707262e-02  1.725611e-01  3.297089e-01  -2.537057e-01  -8.570212e-03  -6.363872e-03  -1.157018e-01  -1.713046e-01  -1.581001e-02  9.102686e-02  -1.717135e-01  -2.291069e-01  -2.104012e-01  2.525895e-01  -5.509978e-02  -9.703084e-02  2.644484e-02  -2.757523e-02  -3.179550e-01  -9.385459e-03  -1.299379e-01  -2.418893e-01  1.628649e-01  -1.032094e-03  -1.026613e-01  -9.937424e-02  2.497944e-01  -6.983903e-02  -2.257226e-01  -1.776805e-01  -1.244889e-01  3.330549e-01  3.891395e-02  3.174854e-02  1.549060e-01  -7.483792e-03  1.861320e-01  -3.222692e-02  -2.260290e-01  -3.371090e-02  -2.209205e-01  1.285609e-01  1.672435e-01  3.990873e-01  1.791077e-01  1.934188e-02  5.237134e-02  -7.348794e-02  1.177547e-01  1.931254e-01  1.825427e-01  1.185484e-01  -3.480037e-02  -1.653076e-01  1.295286e-01  1.664651e-01  2.636315e-01  2.429900e-01  -1.905829e-01  -2.862584e-01  -4.871517e-02  -4.841414e-02  1.468500e-01  -2.145070e-01  6.447471e-02  -1.325229e-01  2.107770e-01  -2.268487e-01  -2.404471e-01  -2.392172e-01  -4.725276e-02  4.488884e-02  -1.602526e-01  -1.544995e-01  -1.434027e-01  -7.407837e-02  1.556617e-01  -1.551619e-02  5.443481e-02  5.939640e-02  -3.037360e-02  -1.526184e-01  -7.968628e-02  1.382353e-01  -6.339812e-02  -2.589254e-02  -6.316959e-02  -1.825159e-01  1.722338e-01  5.810584e-02  3.057383e-02  8.636542e-02  2.276386e-01  -7.826228e-02  6.115349e-02  1.487383e-01  5.067480e-03  1.285384e-01  -1.617633e-01  1.513596e-02  1.934574e-01  7.377287e-02  -4.762101e-02  1.011597e-02  -3.196027e-01  2.043633e-04  6.101935e-02  1.226636e-01  2.658663e-01  1.832153e-01  -1.337758e-01  -2.069783e-01  -9.724943e-02  5.798181e-02  3.137439e-02  2.032406e-01  2.270397e-01  -2.228704e-01  5.436701e-02  -1.307386e-01  5.577157e-02  -1.636235e-01  4.594701e-02  -1.774438e-01  4.567219e-02  1.535184e-01  4.352547e-02  -5.614930e-02  5.319516e-02  2.365137e-01  -5.608432e-02  -2.750385e-01  3.220637e-02  2.297141e-01  4.949475e-02  -2.508053e-01  2.730440e-01  -1.985461e-01  7.512522e-02  1.025608e-02  1.323675e-01  3.919355e-01  -1.781455e-01  -3.128098e-01  -9.446536e-02  -2.610614e-01  -1.350293e-01  1.552456e-01  -9.400998e-02  -8.096925e-02  -2.103728e-01  3.447631e-02  -1.689122e-01  2.443983e-01  -1.134406e-02  2.737528e-02  4.455688e-02  -4.761576e-02  -2.687370e-01  3.397379e-02  -8.099923e-02  2.821549e-01  2.532063e-01  2.064100e-02  2.299218e-01  -4.012585e-03  -3.086336e-01  -8.662436e-02  1.663916e-01  -2.978382e-01  4.702646e-02  1.004121e-01  -2.622935e-01  -7.019519e-02  -7.773147e-02  1.544140e-01  -2.434816e-01  -3.069094e-02  1.792357e-01  -1.176087e-01  -1.009569e-01  4.912898e-02  1.783120e-01  -2.367064e-01  -1.177199e-02  -7.721398e-03  8.479473e-02  2.246674e-01  -1.098561e-01  -8.912934e-02  -1.701033e-01  -1.703869e-01  -8.069009e-02  -2.078431e-01  1.562256e-01  -1.209508e-01  2.275722e-01  -4.191699e-02  2.605238e-02  1.668470e-02  1.301065e-01  2.413123e-01  -2.003597e-01  4.565735e-02  -1.138744e-01  6.034258e-02  -1.260273e-01  -7.174175e-03  -1.830613e-02  9.185294e-02  2.678435e-01  -2.068880e-01  1.672684e-01  -2.925515e-01  -5.401966e-02  -2.072974e-01  2.361003e-02  -2.045145e-01  7.355320e-02  1.941243e-01  6.165198e-02  -1.452861e-02  1.670326e-01  2.221037e-01  4.820696e-03  -3.146556e-02  1.210785e-01  4.492173e-02  -3.670134e-01  9.373911e-02  -1.801051e-01  5.333247e-02  -1.350913e-02  8.647493e-02  -1.938817e-02  -1.938078e-01  -2.491343e-01  -4.165041e-02  1.365672e-01  1.693823e-01  -1.204429e-01  -2.931713e-01  -1.180715e-01  -6.113262e-02  -5.358925e-02  -3.605723e-02  -1.256551e-01  -2.455763e-02  -1.485277e-01  1.630213e-02  2.549917e-01  -2.213114e-01  -1.050590e-01  -2.453684e-01  1.636706e-01  -3.028020e-01  2.022088e-02  3.695413e-02  2.848016e-01  -7.208204e-02  -1.001170e-01  -3.013826e-01  2.305127e-01  1.006721e-01  1.353695e-01  -2.332924e-01  -1.308989e-01  3.037670e-01  1.162689e-01  -2.550832e-02  1.744082e-01  -1.311514e-02  -2.103408e-01  -1.823941e-01  2.103933e-01  -2.656942e-01  7.463808e-02  8.010291e-02  -1.571710e-01  9.266194e-02  -3.100635e-01  2.304855e-01  -1.416717e-01  2.209215e-01  -3.311887e-01  -2.659526e-01  4.490905e-02  3.610874e-01  -3.562304e-01  3.286197e-02  -3.411855e-01  4.168493e-01  9.696867e-01  -4.281261e-02  2.073455e-01  2.626011e-02  -5.645812e-01  2.557834e-03  7.093156e-02  5.436062e-02  2.102512e-01  2.627400e-01  -3.658559e-01  1.893363e-01  -4.202971e-01  2.485003e-01  -2.304759e-01  6.691777e-02  2.936772e-01  1.051243e-01  -2.909243e-01  -2.010331e-01  -6.015229e-02  -1.220937e-01  -1.811814e-01  -1.912784e-01  -2.061344e-01  6.986354e-02  3.951214e-01  2.239232e-01  2.072440e-01  2.285880e-01  8.445224e-02  -1.509575e-01  -6.519281e-01  1.280476e-02  2.150773e-01  -5.841083e-02  -1.582835e-01  -8.248452e-02  1.357789e-01  1.839778e-01  1.706927e-01  4.031631e-01  -2.579038e-02  2.145346e-01  -7.207143e-02  2.281259e-02  2.957680e-01  -1.041151e-01  -2.938796e-01  1.671395e-01  -1.575074e-01  -1.408791e-01  7.433201e-02  -2.335825e-01  1.275514e-02  2.180757e-01  1.490341e-01  -1.051271e-01  1.457420e-01  4.946169e-02  8.469861e-02  1.718665e-01  1.283355e-01  -2.470682e-01  7.288853e-02  1.651421e-01  6.895252e-02  -2.591964e-01  -2.890966e-01  3.240005e-02  5.766479e-02  5.990682e-03  6.688657e-05  2.135750e-01  -2.138193e-02  -1.710214e-01  2.869862e-01  -1.177683e-01  -2.171853e-02  1.545310e-01  -3.425772e-02  -1.596898e-01  1.372033e-01  1.744627e-01  -2.168807e-01  -9.967319e-02  -1.873027e-01  1.783879e-01  -3.317716e-02  -1.475509e-01  -1.319748e-02  -1.771260e-01  -4.807409e-03  -1.560816e-01  1.464370e-01  1.221143e-01  -5.340130e-02  -1.655522e-01  2.211417e-01  -1.034072e-01  6.482954e-02  1.547035e-01  -4.301951e-02  1.701969e-01  2.311196e-01  -2.712606e-03  -1.156810e-01  2.391707e-01  2.338197e-01  -1.538396e-01  1.584106e-01  5.152850e-02  1.923867e-01  1.084125e-01  1.122770e-01  2.284830e-01  -3.288435e-02  1.221444e-01  -2.240126e-01  1.944963e-01  -2.085909e-01  -2.133258e-02  -8.286236e-02  1.105266e-01  -2.207482e-01  8.090158e-02  1.015911e-01  1.881213e-01  2.746755e-01  -1.657422e-01  9.408425e-02  1.187539e-01  2.213592e-01  2.193125e-01  -5.207318e-02  1.245640e-01  -2.601836e-01  -1.615380e-01  -2.256739e-01  -1.075277e-01  2.649898e-01  -2.580128e-02  7.227069e-02  9.486052e-02  -7.158214e-02  2.414687e-01  -3.168766e-01  3.035416e-01  -1.453942e-01  -8.584718e-02  1.120166e-01  -2.301007e-01  -1.096719e-01  1.326307e-01  -2.664609e-01  1.763769e-01  -1.406609e-01  9.545773e-02  -1.408927e-01  -9.925553e-03  9.674440e-02  -9.761064e-04  6.334731e-02  6.226690e-02  -3.345038e-01  -1.494099e-01  1.455592e-01  2.851586e-01  1.924904e-01  -3.572027e-02  8.678371e-02  -2.974489e-02  7.832013e-02  -2.022538e-01  -9.943715e-02  2.462281e-01  7.484611e-02  1.219659e-01  -2.792336e-02  -1.642313e-01  1.600643e-01  2.890439e-01  -8.146766e-02  2.434531e-01  2.490931e-01  8.827897e-02  -1.705388e-01  1.222874e-01  -8.361382e-02  -1.190411e-01  5.030102e-02  -1.794481e-02  -8.582730e-02  -2.542620e-01  -1.492338e-01  -2.693549e-01  -2.802748e-01  7.940295e-02  1.771193e-01  -7.091479e-03  1.600388e-01  -2.486953e-01  -1.385316e-01  1.006510e-01  2.836356e-01  7.739599e-02  9.213132e-02  -2.273303e-01  3.033841e-03  -2.717821e-03  1.532038e-01  -1.196548e-02  1.918862e-01  1.916640e-01  1.941106e-01  -2.463429e-01  -4.746240e-02  -1.634864e-01  -1.870133e-01  -9.716289e-03  2.207316e-01  -9.886366e-03  2.037364e-01  1.693487e-01  2.065377e-01  4.237276e-02  2.978648e-02  2.101436e-01  9.228533e-02  5.457576e-03  8.643942e-02  5.666511e-02  -1.160399e-01  4.548816e-01  2.621796e-02  1.814332e-01  -6.027212e-02  -1.654216e-01  -1.969302e-01  6.166236e-02  -1.310747e-02  3.254710e-01  -2.877460e-02  1.572672e-01  -4.639606e-02  -1.276421e-01  -4.251839e-02  -1.951645e-01  3.001664e-02  2.640065e-01  3.810397e-01  -1.433574e-01  -9.274635e-02  2.513334e-01  -4.951567e-01  1.047628e-01  1.978819e-01  -1.988915e-01  6.917412e-02  8.440477e-02  -1.368210e-01  3.468432e-02  -2.203461e-01  4.689958e-02  -1.314666e-01  2.622182e-01  2.468754e-01  -1.527911e-01  -1.692767e-01  -6.637304e-02  -1.332336e-01  1.410488e-01  -3.666077e-01  1.300731e-01  1.597674e-01  1.653866e-01  -1.448430e-01  1.884093e-01  3.043429e-01  3.052366e-01  2.359113e-01  -3.538542e-02  -3.036400e-01  2.001184e-01  -6.411617e-02  -9.399937e-02  1.552740e-01  -1.774785e-01  -1.338494e-01  -9.955873e-02  1.824698e-01  2.357572e-01  2.831383e-01  -1.726404e-01  -1.808250e-01  2.518600e-01  -9.761845e-02  -4.106658e-02  9.486710e-02  -9.334280e-02  1.380593e-01  1.627140e-02  -1.865803e-01  -1.165606e-01  5.055033e-02  -2.208035e-01  1.400122e-01  -1.361758e-01  -2.868720e-01  1.472481e-01  2.355981e-01  9.041438e-02  -2.105184e-01  -2.525227e-01  1.345381e-01  -7.439855e-02  -1.689698e-01  1.170139e-01  2.610845e-01  3.838803e-02  -1.816553e-01  1.145728e-01  -1.832242e-01  1.519629e-01  5.562394e-02  3.488203e-02  -7.476234e-03  -2.085859e-01  4.574469e-02  1.784815e-01  -2.684040e-01  -8.565925e-02  9.128410e-02  7.912108e-02  -1.408626e-01  2.386518e-01  5.012723e-02  7.362357e-02  -1.763633e-02  -9.972388e-02  -1.893978e-02  -1.283248e-01  1.501189e-01  3.435863e-01  3.571343e-01  -1.530455e-01  2.979637e-02  -2.988268e-01  -1.145740e-01  1.032381e-01  -6.207306e-03  -2.027548e-01  -8.105872e-02  -1.142269e-01  -7.673354e-02  4.274621e-01  -6.029227e-02  3.389543e-02  -2.041418e-02  3.435011e-01  -1.782214e-01  8.407111e-02  -3.024179e-01  3.228259e-01  9.673566e-02  -2.752587e-01  2.590289e-01  -3.140174e-01  1.262419e-01  3.429820e-01  1.332655e-01  3.771228e-01  -2.238056e-01  -2.566136e-03  -4.124205e-01  -5.130327e-02  -1.930992e-01  -4.942307e-01  -3.045899e-01  -1.357801e-01  -1.598145e-01  -1.157737e-01  -5.945905e-02  1.090323e-01  3.429386e-03  1.411245e-01  -2.520052e-01  -8.330864e-02  -1.295601e-01  -2.552489e-01  3.111044e-02  -1.224791e-01  1.400298e-01  -1.088187e-01  1.901667e-01  -1.515659e-01  -1.839310e-01  9.805043e-02  -1.672884e-01  1.905309e-01  1.067010e-01  -2.114234e-01  5.403845e-02  1.569618e-01  -1.821225e-01  1.485743e-01  9.218703e-02  7.550908e-02  3.039064e-01  -1.152020e-01  -1.215161e-01  1.576081e-01  1.625587e-01  -1.036797e-01  -2.512882e-01  -7.874176e-02  -2.478201e-02  -2.125594e-01  -1.460485e-01  1.395431e-01  -1.123294e-02  2.806956e-02  -2.995338e-01  -1.363347e-01  1.118717e-01  -1.091008e-02  9.983722e-02  -1.123608e-01  -1.061442e-01  -1.731279e-02  -1.780718e-01  4.426116e-02  1.273931e-02  -2.295446e-04  -1.566685e-01  5.972007e-02  1.226138e-01  -1.607245e-01  1.238963e-01  -1.981134e-01  -2.229773e-01  1.339816e-01  -8.810744e-02  -4.218466e-02  -1.676605e-01  1.170988e-01  -2.168635e-01  -1.072622e-01  1.851248e-01  4.154367e-02  1.730616e-01  6.698430e-02  1.776840e-01  1.611230e-01  9.345593e-02  1.325686e-01  2.880333e-01  -1.170440e-01  -1.030546e-01  -2.951905e-03  1.984494e-01  -5.287188e-02  -9.875064e-02  -2.979309e-02  1.166103e-01  2.249535e-01  -6.376851e-02  -4.052888e-01  -3.179603e-02  2.059866e-01  2.913030e-01  -2.124978e-01  -6.330562e-02  -2.272671e-01  -1.676191e-01  1.820299e-01  -2.074757e-01  2.922607e-01  2.054946e-01  -8.016474e-02  1.791745e-01  1.542967e-01  1.693506e-01  2.267500e-01  1.961472e-01  6.928121e-02  -2.058936e-01  -1.384031e-01  -6.811618e-02  -2.806971e-03  1.283974e-01  -1.730649e-01  -1.477754e-01  2.650942e-02  1.534088e-01  3.077289e-01  -1.483521e-01  -3.503151e-01  -2.287272e-01  2.500239e-01  -1.108057e-01  1.746489e-02  3.563556e-01  1.873170e-01  -2.797385e-01  2.701591e-01  8.027300e-02  5.035454e-02  2.454986e-01  -1.603133e-01  -6.067165e-02  -1.990777e-02  -3.009785e-02  -8.521596e-03  -1.755811e-01  -1.340304e-01  -1.762617e-02  -2.367051e-01  7.802794e-02  2.354382e-01  -1.278354e-01  9.768378e-02  -3.684217e-01  -1.803175e-01  -2.648910e-01  3.210164e-01  2.098965e-01  -2.936794e-01  2.330884e-01  -2.273321e-02  1.232446e-01  -2.488752e-01  8.520982e-02  7.660343e-02  1.499958e-01  1.891404e-01  -2.675788e-01  2.328868e-01  -1.891133e-01  7.722157e-02  -2.631502e-01  -9.275393e-02  -4.530336e-01  -8.566200e-01  1.181213e-01  4.318710e-01  -2.006085e-01  4.674188e-01  5.584029e-02  5.883200e-01  -3.877890e-02  -3.834515e-02  5.458815e-01  8.621428e-02  -2.089330e-01  2.251873e-02  -1.089852e-01  1.130124e-01  4.284452e-02  3.278409e-01  -6.193986e-02  2.887487e-01  -3.175568e-01  -4.099340e-02  1.132050e-01  3.993651e-01  3.021961e-01  2.804112e-01  -2.429288e-01  -2.981693e-01  6.383540e-02  3.567680e-01  -9.785891e-02  2.442931e-01  2.369761e-01  -2.033701e-01  1.060087e-01  -2.065159e-01  3.958871e-01  4.024427e-01  2.170814e-01  1.273042e-01  -5.314242e-01  9.499267e-02  -1.088696e-01  -7.605553e-02  -1.777969e-01  -2.019035e-01  2.612242e-02  -1.368832e-01  1.060376e-01  -2.402801e-01  1.756234e-01  7.288653e-03  -1.344560e-01  -6.385385e-02  2.497178e-02  -2.066664e-01  -1.906169e-01  -1.248734e-01  -9.517608e-02  1.487154e-01  -3.214843e-03  2.190316e-01  1.061598e-01  -1.114381e-01  -7.128170e-02  -2.268443e-01  -1.383430e-01  -1.446465e-01  -2.189538e-01  2.424602e-01  2.655044e-01  1.771903e-01  1.206705e-01  2.162088e-02  -5.859532e-02  -2.485789e-01  1.124036e-01  8.654647e-03  1.226377e-01  1.867077e-01  -3.609701e-02  -2.959834e-01  1.527330e-01  1.060370e-01  -3.801553e-02  -1.355295e-01  -1.045831e-01  9.601079e-02  2.911041e-04  -1.735679e-01  4.975305e-02  -1.813991e-01  -3.140107e-02  1.024562e-01  5.718371e-02  1.396997e-01  2.683912e-01  -8.137396e-02  1.842961e-01  2.075521e-01  2.702564e-02  -5.653160e-02  7.223669e-02  2.372227e-01  3.148601e-01  -1.731077e-01  3.841634e-02  -3.661383e-02  -3.157228e-01  2.794728e-02  -2.039535e-01  -9.989879e-02  3.422366e-02  1.137086e-01  1.114226e-01  1.388212e-01  -2.469275e-01  1.626080e-02  2.367543e-01  1.912103e-01  -1.998475e-01  -1.618232e-01  -2.568009e-01  1.700960e-01  -4.276710e-02  -1.610093e-01  -1.248488e-02  1.481295e-01  1.536293e-03  1.085803e-01  -1.170263e-01  -1.405752e-01  2.195295e-01  -2.223905e-01  -1.774287e-01  2.450687e-01  1.094114e-02  -2.612536e-01  1.379381e-01  -2.292992e-01  -5.818778e-02  2.371747e-01  6.001895e-02  1.565930e-01  -1.478991e-01  8.501254e-02  1.561859e-01  -1.027295e-01  -1.083117e-01  -1.473505e-01  -4.081017e-02  -8.575958e-02  8.166622e-02  1.046694e-01  2.109727e-01  -4.778740e-02  6.140575e-03  -1.765104e-01  1.109922e-01  8.927979e-02  1.291517e-01  8.091279e-02  -2.437982e-01  -1.024454e-01  -1.134063e-01  1.050050e-01  3.644452e-02  -1.989092e-01  4.727579e-03  2.526915e-02  9.122624e-02  -1.149074e-01  7.777154e-02  9.969221e-03  7.696959e-02  2.188084e-01  -1.913850e-01  -4.278051e-02  -2.124200e-01  2.199260e-01  -1.123684e-01  2.453816e-01  -9.939418e-03  2.143911e-01  -1.882710e-01  -2.132536e-01  3.732335e-02  -2.151835e-01  -1.699287e-02  1.049369e-01  -1.620557e-01  2.357758e-01  -2.087422e-01  -1.170774e-01  -1.126519e-01  -2.770033e-01  5.669690e-02  2.758418e-01  2.494376e-01  -1.220044e-01  3.301001e-02  1.604843e-01  -1.514809e-01  -1.101924e-01  -2.029013e-01  2.018495e-01  -2.825014e-01  6.660625e-02  -2.218903e-01  3.191395e-01  -1.594311e-01  3.178395e-01  -2.512166e-01  1.094085e-01  1.942131e-01  2.863660e-02  3.155028e-02  5.653608e-03  2.073078e-01  1.775959e-01  -1.886176e-01  5.168189e-03  1.747214e-01  1.083882e-01  1.042858e-01  3.382002e-02  -4.174972e-01  -5.147321e-02  1.127867e-01  -5.005267e-01  1.561698e-01  -3.997039e-02  -1.088213e-01  -1.987381e-01  -3.787983e-01  4.822805e-02  -1.984253e-01  -1.078540e-01  1.534613e-01  -1.298867e-01  -1.988811e-02  1.852830e-01  2.119954e-01  -1.353983e-01  -2.580388e-01  -4.027365e-02  9.824637e-02  -1.598129e-01  5.329946e-02  -8.512498e-02  -1.752536e-01  2.429632e-01  -2.811942e-02  -1.690332e-01  -7.896707e-02  -1.770038e-01  1.517660e-01  2.259961e-01  -2.599680e-01  -2.082077e-01  6.435177e-02  -2.400243e-01  2.326783e-01  -8.944917e-02  1.849988e-01  -1.367398e-01  2.303161e-01  -1.297736e-01  1.207271e-01  -1.220274e-01  -5.791578e-03  8.373220e-02  -2.410727e-01  5.563390e-02  8.979280e-02  -4.473830e-01  -7.829016e-02  2.033757e-03  1.416663e-01  -1.651830e-01  2.132913e-01  -1.267888e-01  -1.836375e-01  -1.099677e-01  3.053198e-01  1.610747e-01  5.827398e-02  -3.302104e-01  -5.644815e-02  -1.159162e-01  1.276330e-01  5.977225e-01  -1.953303e-01  1.098478e-01  -1.333013e-01  2.067951e-01  -2.176366e-01  4.008153e-02  -2.110109e-01  3.502211e-01  -3.763260e-02  1.525229e-01  -1.880206e-01  -4.475447e-02  1.951399e-01  -2.641125e-01  -8.053468e-02  2.939964e-01  -1.800129e-01  -2.222193e-02  2.201667e-01  1.037733e-01  -2.515131e-01  -5.364484e-02  2.148125e-01  1.939893e-01  3.089030e-01  1.158388e-01  -3.130881e-01  2.594923e-01  1.552210e-01  -1.750599e-01  -3.691501e-01  1.868295e-01  -8.586682e-02  -1.680219e-01  3.777885e-02  -9.753405e-02  9.101631e-02  -1.788673e-01  -3.491982e-01  -2.276342e-01  1.829621e-01  1.113151e-01  1.153403e-01  1.899626e-01  -1.064516e-01  1.276778e-01  -5.596722e-02  -1.609828e-01  1.572661e-01  1.620962e-01  1.452718e-01  -1.894559e-01  -1.482635e-02  -1.523398e-01  5.833340e-02  -1.101725e-01  1.650171e-01  -4.222944e-02  -6.982502e-02  -6.037429e-02  2.397828e-01  -3.069665e-01  -1.307788e-01  -7.357354e-02  -1.061339e-01  2.234823e-01  8.637162e-02  2.415738e-02  -1.697710e-02  5.021978e-02  2.550259e-01  -2.071937e-01  1.581734e-01  -1.455723e-01  -1.128800e-01  1.897627e-01  -2.010079e-01  -6.135618e-02  -2.168361e-01  9.697926e-02  -7.959092e-02  7.779425e-02  -1.178087e-01  3.091525e-01  1.170906e-01  -2.385985e-01  -1.151942e-01  -2.015573e-01  -6.110261e-02  4.550268e-02  -4.941553e-02  2.034075e-01  -2.185744e-01  -5.222980e-02  -6.701311e-02  -3.440068e-01  -2.427463e-01  3.835614e-02  1.823842e-01  1.655313e-01  -2.149041e-01  2.506994e-01  -7.409535e-02  3.302906e-01  2.269118e-01  -9.852020e-02  -1.125604e-01  -1.795907e-01  1.240779e-01  -2.875024e-02  1.234620e-01  -1.306724e-01  -2.115562e-01  -8.208977e-02  1.967787e-01  3.149205e-02  -1.872133e-01  7.217480e-03  5.455523e-02  1.943576e-01  -4.529963e-02  2.904819e-01  2.015441e-02  -8.375973e-02  1.431535e-01  2.848132e-01  2.366858e-01  -5.374969e-02  1.186200e-01  -1.220598e-01  2.442563e-02  -1.810724e-01  -9.409780e-02  -4.816706e-03  -9.551646e-02  -1.944746e-01  2.424312e-01  1.164569e-01  -1.907946e-01  -7.161774e-02  6.692971e-02  8.727717e-03  -2.549089e-01  1.335555e-01  1.249480e-01  -4.425853e-02  -2.173133e-01  1.788976e-01  1.370433e-01  1.705099e-01  3.334225e-03  4.443178e-02  1.827176e-02  5.636414e-02  -1.348360e-01  5.728899e-02  7.279196e-02  -8.261776e-02  -3.762856e-02  -2.824059e-02  -1.665629e-02  -5.045368e-02  -6.552774e-02  -5.524224e-03  -1.445353e-01  -7.474239e-03  -8.272081e-02  4.551745e-03  -7.706825e-02  -2.126484e-01  2.677476e-01  8.542566e-02  1.930006e-01  -2.382798e-01  1.284995e-01  -1.970107e-01  1.153519e-01  -5.044452e-02  -1.931194e-01  -1.316137e-01  2.527332e-01  -1.814471e-01  -1.039851e-01  1.198230e-01  1.890132e-01  3.200092e-02  2.741728e-01  -1.532206e-01  1.429726e-01  5.088691e-02  -3.318367e-01  -1.145425e-01  -1.693195e-01  -5.993729e-02  -2.855582e-01  -2.987030e-02  8.611222e-02  9.853227e-02  3.148992e-02  3.724160e-01  -1.913249e-01  9.286249e-02  -8.373889e-02  -3.327455e-01  3.121935e-02  -2.715792e-02  1.452353e-01  -1.323457e-01  -9.338524e-03  4.184593e-02  -3.636322e-03  1.996921e-01  -7.200620e-03  -1.599714e-01  -6.695978e-02  -4.827956e-02  -5.713127e-02  1.773687e-01  -2.017819e-01  -2.620687e-01  -1.724974e-01  -4.177722e-02  1.616101e-01  -1.498359e-01  8.870438e-02  -4.382923e-02  1.233383e-01  -2.456773e-01  2.051471e-01  1.453388e-01  -8.956476e-02  -5.897178e-02  1.570681e-01  1.546013e-01  4.989473e-03  2.860407e-01  1.411033e-01  -1.460938e-01  -1.461367e-01  1.424820e-01  1.285820e-01  2.369134e-01  -2.592165e-02  -2.507033e-02  -1.974728e-01  -9.113964e-02  -2.618924e-02  -1.905886e-01  -8.946179e-02  -2.849256e-01  -1.115741e-01  1.440085e-01  -1.081505e-01  -7.832548e-02  1.615557e-01  2.074506e-01  1.141343e-01  1.042297e-01  -2.496787e-01  -1.841181e-01  3.888673e-02  -7.773738e-02  -4.672727e-02  3.132926e-01  -1.004874e-02  1.825057e-01  -2.086029e-01  1.281081e-01  -2.538113e-02  2.645168e-01  2.847152e-02  -1.991450e-01  2.164318e-02  -2.408811e-01  3.800572e-02  -1.686351e-03  1.249959e-01  9.858265e-02  1.813511e-01  -3.505579e-01  -2.078691e-01  1.521990e-01  2.598848e-01  -1.061240e-01  1.267332e-01  -2.338014e-01  1.964386e-01  -3.785872e-01  2.501262e-02  5.635183e-02  9.380756e-03  1.001766e-01  -2.013762e-01  -3.688537e-02  1.547274e-01  -1.272812e-01  3.479781e-01  -3.916007e-02  2.671683e-02  7.183420e-03  -2.322778e-02  -1.526632e-01  2.243678e-01  2.857074e-01  1.835216e-01  1.103170e-01  -1.998802e-01  -1.940599e-02  -2.522401e-01  1.535267e-01  3.055585e-01  2.048636e-01  -1.310465e-01  -4.516160e-02  -1.221939e-01  -1.074160e-01  3.541785e-02  -3.950370e-02  -4.686540e-02  -1.046620e-02  -1.547468e-01  1.834840e-01  2.300955e-01  1.624028e-02  -1.753814e-01  2.248740e-01  -2.434493e-01  2.249599e-01  -1.633729e-01  -1.405463e-01  1.767288e-01  1.672226e-01  -2.606180e-01  -2.129592e-01  2.648568e-01  5.071423e-03  -7.866708e-02  -1.419481e-01  1.503398e-01  -1.427890e-01  -1.425339e-01  -2.158011e-01  -1.766570e-01  1.719384e-01  -2.044966e-01  8.932681e-02  -1.210906e-01  -7.666869e-02  -1.098530e-01  -8.975329e-02  1.461778e-01  -9.280969e-03  1.675617e-01  -2.051826e-02  1.240720e-01  2.796644e-01  -1.056798e-01  -2.207139e-01  -3.807449e-01  -2.288804e-01  8.024360e-02  3.815356e-02  -2.570348e-01  7.689734e-02  2.094922e-02  1.926237e-01  6.020153e-02  1.483219e-01  6.016967e-02  3.012798e-02  -8.091628e-02  -1.648154e-01  1.356389e-01  -4.517412e-02  2.615000e-01  8.390734e-02  1.088439e-01  -5.130385e-02  -3.096556e-01  -9.549144e-02  -1.011727e-02  -7.849950e-02  9.178145e-02  -1.292495e-01  1.200004e-02  1.834891e-01  -2.473713e-01  2.106600e-01  -2.583006e-01  9.776623e-02  -1.225358e-01  -2.202123e-01  -8.406629e-02  -2.472413e-01  1.091290e-01  3.220677e-01  1.576627e-01  -2.510530e-01  -4.049440e-02  2.627589e-02  -1.858320e-01  -1.202994e-01  -1.903763e-01  8.958215e-02  -1.253877e-01  1.742934e-01  1.334029e-01  -1.176883e-01  -1.502203e-01  2.366718e-01  4.366161e-02  -1.555219e-01  -4.497326e-03  -1.020337e-01  2.328221e-02  -1.700482e-01  -1.304157e-01  -1.601543e-01  1.331470e-01  1.415790e-02  5.047365e-02  -4.962545e-02  2.163350e-04  -2.750645e-01  1.331470e-01  5.515643e-02  1.767830e-01  -3.278137e-02  -1.973765e-01  -7.186764e-02  -2.136952e-01  -1.138391e-01  2.010001e-01  -2.206372e-01  8.116311e-02  -2.369813e-01  1.853760e-01  1.935405e-01  -1.631330e-01  1.506280e-01  1.075264e-01  1.938717e-01  -1.219333e-01  -5.171090e-02  -6.973080e-02  1.382192e-02  8.760292e-02  1.844441e-01  -8.482914e-02  3.166093e-01  -1.412938e-01  -1.513373e-01  -1.991821e-01  2.333350e-02  2.366451e-01  -1.320027e-01  1.751330e-01  -2.467813e-01  1.087583e-01  -1.622452e-01  -5.540621e-02  2.413762e-01  -4.593638e-02  -5.622839e-02  1.518241e-01  -1.923777e-01  -5.716575e-02  2.303686e-01  1.309811e-01  -4.291059e-02  5.561111e-02  3.287237e-02  -2.587973e-02  1.687549e-01  -1.007924e-01  -6.257471e-02  1.620264e-01  -1.957346e-01  -5.287885e-02  -2.591372e-02  2.131442e-01  1.527763e-01  -7.046875e-02  -1.860965e-01  -1.326173e-01  -1.263680e-02  -2.446565e-01  1.034489e-01  -1.220107e-01  1.637411e-01  5.378946e-02  -9.385078e-02  1.875135e-01  -4.495445e-02  -7.605187e-02  1.884386e-01  2.055244e-01  -4.348851e-02  -2.470336e-01  3.279695e-02  -7.277973e-03  -9.011596e-02  2.445091e-01  2.328106e-02  -1.275090e-01  -1.165251e-01  3.452151e-02  -6.301339e-03  -1.024495e-01  1.908226e-02  5.702297e-02  1.468287e-01  9.979966e-02  -1.417032e-01  4.249700e-01  3.318520e-02  2.769388e-01  1.074051e-01  -2.452460e-02  -5.485966e-01  3.124745e-01  -2.603861e-01  1.438131e-02  -2.169485e-01  -3.111297e-01  -2.550815e-02  1.103576e-01  2.159272e-01  1.890744e-01  1.700047e-01  4.981827e-01  -6.029886e-02  -9.729639e-02  1.544219e-01  1.590995e-01  7.201560e-02  9.339475e-02  -5.892236e-03  -8.502471e-02  -3.451625e-02  1.619263e-01  1.498725e-01  1.614271e-01  -2.899910e-01  -5.359446e-01  -3.408326e-02  -4.919796e-01  3.163279e-01  3.325283e-01  3.902652e-01  1.800954e-01  2.903645e-02  1.571224e-01  1.736780e-01  -3.868672e-02  -3.432110e-01  2.237486e-01  -1.541454e-02  1.762484e-01  4.137737e-01  -3.091055e-01  -2.837506e-01  -8.047897e-02  -1.412057e-01  3.978683e-02  -1.430358e-01  -3.516789e-02  2.646224e-01  -2.680821e-01  -4.340122e-02  7.141627e-02  -2.334182e-01  1.369515e-01  -1.302450e-01  -2.320536e-02  -2.724771e-01  1.475747e-01  -1.894353e-01  4.893139e-01  -1.091798e-01  -7.880534e-02  -2.377591e-01  -1.215014e-01  -3.746705e-02  -1.185474e-01  1.666171e-01  -6.534610e-02  -1.902087e-01  6.027966e-02  -6.035906e-02  2.383212e-01  -1.493557e-01  -2.626876e-01  -1.808086e-01  -3.594978e-02  -3.382272e-01  -1.119065e-02  6.589147e-02  -1.244502e-01  -3.341441e-02  1.895001e-01  2.984535e-01  -4.712773e-02  -4.397436e-02  -3.504272e-01  1.598221e-01  -5.458302e-03  -2.027246e-01  1.491714e-01  8.963230e-02  2.180638e-01  3.907329e-01  6.039033e-02  -2.177460e-01  -1.323664e-01  -8.402228e-02  3.074904e-02  1.483650e-01  2.672441e-01  1.224665e-01  6.434280e-02  9.255193e-03  1.391734e-01  -3.432307e-01  2.659512e-01  -2.024796e-01  -2.857406e-01  1.031742e-01  1.736811e-01  4.449246e-02  -1.425977e-01  3.147752e-01  -1.352065e-01  -1.377521e-02  4.474805e-02  2.837344e-01  2.763209e-02  7.376903e-02  -2.813081e-01  -2.778788e-01  -1.309707e-01  1.098636e-01  -3.666295e-02  1.863229e-01  1.061203e-02  7.427310e-05  -1.707905e-02  -3.780099e-01  -1.554753e-01  2.809889e-01  -6.358657e-02  1.343377e-01  7.180441e-01  2.550423e-01  2.481065e-01  1.729338e-01  3.972503e-02  5.503968e-02  1.623965e-01  -1.876225e-01  5.541505e-02  -1.245035e-01  -2.281540e-01  -3.372104e-01  4.650249e-01  -1.046707e-01  1.026798e-01  2.037981e-01  -1.844835e-02  1.714827e-01  3.624149e-01  2.102065e-01  7.704545e-02  -9.038717e-02  -6.178063e-01  2.908652e-01  9.097748e-02  -1.018387e-01  1.309288e-01  1.800160e-01  4.738071e-01  -1.326750e-01  -1.633014e-01  2.822425e-01  1.642702e-01  -6.227114e-02  -2.513798e-01  -1.673393e-01  -4.608003e-02  3.605675e-01  -4.014599e-02  -3.336034e-01  2.331912e-02  -4.413732e-01  -2.598473e-01  2.600629e-01  -1.577088e-01  5.326268e-02  2.419874e-01  -9.883251e-02  1.538958e-01  2.179271e-02  -1.035692e-01  -3.377340e-02  -3.861981e-01  1.656225e-01  -3.304913e-01  -5.222103e-03  8.855560e-03  1.741081e-01  2.300198e-01  -1.657256e-01  -1.157953e-02  5.956597e-02  1.347433e-01  4.515231e-03  -9.593376e-02  -1.129742e-02  -2.286754e-01  -4.621285e-01  1.758220e-01  7.375528e-02  -8.350192e-02  -2.607186e-01  4.042209e-02  3.003574e-02  -1.553284e-01  7.398024e-02  -1.717701e-01  9.874579e-02  -2.063727e-01  -7.822727e-02  -1.859027e-01  -3.319229e-01  1.640780e-02  1.734163e-01  1.783337e-01  1.150126e-01  -7.634289e-02  7.842363e-02  7.922582e-02  7.102385e-02  3.619982e-02  -3.249684e-02  -6.305604e-02  1.881689e-01  -2.212824e-01  -2.164443e-01  9.574457e-04  6.212018e-01  1.910910e-02  3.616370e-01  
      </Weights>
      <Biases Rows="50" Columns="1">
        1.270842e-01  -7.534196e-02  5.197486e-03  4.431313e-02  -5.997211e-02  -1.223155e-01  2.465043e-02  -1.315080e-01  -2.687096e-02  -1.919601e-01  2.283527e-03  4.757811e-02  3.720694e-03  1.103324e-01  -8.856267e-02  -5.411620e-03  -8.367313e-02  5.773874e-02  -5.669183e-02  1.529533e-01  -1.315874e-01  -8.873338e-02  -2.612505e-02  8.669268e-02  -2.181851e-02  -4.776091e-02  -4.235375e-02  6.555986e-02  -2.191103e-02  -2.648414e-02  1.166807e-02  -5.980583e-02  2.871758e-02  8.643132e-02  -4.164679e-02  1.133843e-01  -1.354816e-01  -6.159820e-02  -5.638655e-02  1.139783e-02  8.250701e-02  3.979396e-03  -2.016877e-02  8.099974e-02  7.027628e-02  7.023370e-02  9.303819e-02  -4.478808e-02  -1.373760e-01  1.588684e-02  
      </Biases>
    </DenseLayer>
    <DenseLayer Width="3" ActivationFunction="0">
      <Weights Rows="3" Columns="50">
        1.009051e-01  2.498557e-01  2.169303e-01  2.616411e-01  2.338386e-02  1.534672e-02  5.936169e-03  -1.197466e-01  5.293348e-02  -6.944287e-04  -2.353079e-01  -1.677266e-01  -2.670346e-01  2.015894e-01  -2.063066e-02  -2.429702e-01  2.438339e-01  -2.927550e-01  -1.065112e-01  1.248938e-01  -3.709439e-01  -3.776508e-01  1.231325e-01  -1.390191e-01  1.811197e-01  2.812540e-01  -2.781261e-01  4.221148e-01  -3.170673e-01  1.583819e-01  1.175496e-01  -1.291739e-01  -2.005266e-01  1.886834e-01  1.428621e-01  -1.904798e-01  -4.043574e-01  1.155026e-01  -2.151353e-01  -3.582280e-01  3.957319e-01  5.022417e-01  -2.621102e-01  -9.654970e-03  -2.002226e-01  1.561323e-01  2.012871e-01  -2.403459e-02  3.721757e-01  2.364734e-01  -5.060006e-02  4.691578e-01  -1.735889e-01  -3.018887e-01  3.919496e-01  -2.637364e-01  4.466894e-01  -3.326451e-01  -4.151262e-01  -8.017886e-03  -3.096021e-01  2.841943e-01  2.209877e-01  6.426392e-02  3.709655e-01  3.356637e-01  -3.158013e-01  1.956163e-01  -4.762802e-01  1.773562e-01  -1.426386e-01  -3.985644e-02  3.495778e-01  -2.149070e-02  2.480184e-03  -1.135429e-02  -1.863960e-01  -2.097289e-02  -2.023564e-01  6.615106e-01  -4.297955e-01  3.304663e-01  3.715453e-01  -9.090897e-02  9.773888e-02  3.385781e-01  2.225935e-01  2.563420e-01  2.887536e-01  -3.368016e-01  2.197614e-01  -3.054594e-01  -1.160811e-01  2.817123e-01  7.112430e-03  -1.772550e-01  8.719695e-02  -3.642879e-01  9.379172e-02  2.441337e-01  -3.913505e-01  -8.691372e-02  -2.831100e-02  4.310207e-01  -9.480577e-04  8.356845e-02  1.599403e-01  1.752852e-01  2.785934e-01  3.633444e-01  -1.800747e-01  3.511124e-01  -1.617637e-01  -2.300111e-01  3.038378e-01  -2.595997e-01  3.319810e-01  -1.109361e-01  -1.934817e-01  1.234748e-02  3.262148e-01  1.957467e-01  1.557232e-01  -3.353516e-01  9.401643e-02  4.003184e-01  2.903864e-01  2.527027e-01  -1.124339e-01  3.043938e-01  1.775263e-02  2.345975e-01  -9.790622e-02  -9.263806e-02  4.577688e-01  -2.465600e-01  2.715612e-01  2.422075e-01  1.029933e-01  -3.353936e-01  -8.917406e-02  -1.041416e-01  -1.691072e-01  -1.421986e-02  -1.742456e-01  -3.999211e-01  -3.489183e-01  -1.842590e-01  2.145318e-03  -3.618038e-01  
      </Weights>
      <Biases Rows="3" Columns="1">
        8.875615e-02  5.283426e-02  -1.273375e-01  
      </Biases>
    </DenseLayer>
  </Weights>
</MethodSetup>
