<?xml version="1.0"?>
<MethodSetup Method="DL::DNN_CPU">
  <GeneralInfo>
    <Info name="TMVA Release" value="4.2.1 [262657]"/>
    <Info name="ROOT Release" value="6.24/06 [399366]"/>
    <Info name="Creator" value="rshara01-local"/>
    <Info name="Date" value="Thu Sep 23 14:45:02 2021"/>
    <Info name="Host" value="Darwin christophers-mac-mini.home 20.6.0 Darwin Kernel Version 20.6.0: Wed Jun 23 00:26:27 PDT 2021; root:xnu-7195.141.2~5/RELEASE_ARM64_T8101 arm64"/>
    <Info name="Dir" value="/Users/rshara01-local/WORK/linacTune/tmva"/>
    <Info name="Training events" value="5000"/>
    <Info name="TrainingTime" value="6.02660894e-01"/>
    <Info name="AnalysisType" value="Regression"/>
  </GeneralInfo>
  <Options>
    <Option name="V" modified="Yes">True</Option>
    <Option name="VerbosityLevel" modified="No">Verbose</Option>
    <Option name="VarTransform" modified="Yes">N</Option>
    <Option name="H" modified="Yes">False</Option>
    <Option name="CreateMVAPdfs" modified="No">False</Option>
    <Option name="IgnoreNegWeightsInTraining" modified="No">False</Option>
    <Option name="InputLayout" modified="No">0|0|0</Option>
    <Option name="BatchLayout" modified="No">0|0|0</Option>
    <Option name="Layout" modified="Yes">RELU|50,RELU|50,RELU|50,LINEAR</Option>
    <Option name="ErrorStrategy" modified="Yes">SUMOFSQUARES</Option>
    <Option name="WeightInitialization" modified="Yes">XAVIERUNIFORM</Option>
    <Option name="RandomSeed" modified="No">0</Option>
    <Option name="ValidationSize" modified="No">20%</Option>
    <Option name="Architecture" modified="Yes">CPU</Option>
    <Option name="TrainingStrategy" modified="Yes">LearningRate=1e-3,Momentum=0.3,ConvergenceSteps=20,BatchSize=30,TestRepetitions=1,WeightDecay=0.0,Regularization=None,Optimizer=Adam</Option>
  </Options>
  <Variables NVar="3">
    <Variable VarIndex="0" Expression="RFQPAH_R" Label="RFQPAH_R" Title="RFQ phase" Unit="units" Internal="RFQPAH_R" Type="D" Min="1.28002930e+02" Max="1.90002441e+02"/>
    <Variable VarIndex="1" Expression="RFBPAH_R" Label="RFBPAH_R" Title="buncher phase" Unit="units" Internal="RFBPAH_R" Type="D" Min="2.15795898e+02" Max="2.58337402e+02"/>
    <Variable VarIndex="2" Expression="V5QSET_R" Label="V5QSET_R" Title="tank5 phase" Unit="units" Internal="V5QSET_R" Type="D" Min="-3.30000000e+01" Max="-2.85000000e+01"/>
  </Variables>
  <Spectators NSpec="6">
    <Spectator SpecIndex="0" Expression="RFQPAH_S" Label="RFQPAH_S" Title="RFQ phase Set" Unit="degrees" Internal="RFQPAH_S" Type="F" Min="1.28002930e+02" Max="1.90002441e+02"/>
    <Spectator SpecIndex="1" Expression="RFBPAH_S" Label="RFBPAH_S" Title="buncher phase Set" Unit="degrees" Internal="RFBPAH_S" Type="F" Min="2.14996277e+02" Max="2.56997131e+02"/>
    <Spectator SpecIndex="2" Expression="V5QSET_S" Label="V5QSET_S" Title="Tank 5 phase" Unit="degrees" Internal="V5QSET_S" Type="F" Min="-3.30000000e+01" Max="-2.85000000e+01"/>
    <Spectator SpecIndex="3" Expression="TO1IN_R" Label="TO1IN_R" Title="to1in" Unit="units" Internal="TO1IN_R" Type="F" Min="2.22277756e+01" Max="2.42592621e+01"/>
    <Spectator SpecIndex="4" Expression="TO5OUT_R" Label="TO5OUT_R" Title="to5out" Unit="units" Internal="TO5OUT_R" Type="F" Min="-4.08233719e+01" Max="3.42947617e+01"/>
    <Spectator SpecIndex="5" Expression="TO3IN_R" Label="TO3IN_R" Title="to3in" Unit="units" Internal="TO3IN_R" Type="F" Min="-1.02136169e+02" Max="1.00574913e+02"/>
  </Spectators>
  <Classes NClass="1">
    <Class Name="Regression" Index="0"/>
  </Classes>
  <Targets NTrgt="6">
    <Target TargetIndex="0" Expression="LMSM" Label="LMSM" Title="LMSM" Unit="" Internal="LMSM" Type="F" Min="1.34887695e+00" Max="3.99658203e+01"/>
    <Target TargetIndex="1" Expression="D7TOR_R" Label="D7TOR_R" Title="D7TOR_R" Unit="" Internal="D7TOR_R" Type="F" Min="2.41185451e+00" Max="2.93067665e+01"/>
    <Target TargetIndex="2" Expression="TO1IN_R" Label="TO1IN_R" Title="to1in" Unit="mA" Internal="TO1IN_R" Type="F" Min="2.22277756e+01" Max="2.42592621e+01"/>
    <Target TargetIndex="3" Expression="TO3IN_R" Label="TO3IN_R" Title="to3in" Unit="mA" Internal="TO3IN_R" Type="F" Min="-1.02136169e+02" Max="1.00574913e+02"/>
    <Target TargetIndex="4" Expression="TO5OUT_R" Label="TO5OUT_R" Title="to5out" Unit="mA" Internal="TO5OUT_R" Type="F" Min="-4.08233719e+01" Max="3.42947617e+01"/>
    <Target TargetIndex="5" Expression="D00LM_R" Label="D00LM_R" Title="d00lm" Unit="" Internal="D00LM_R" Type="F" Min="3.05175781e-03" Max="8.72802734e-01"/>
  </Targets>
  <Transformations NTransformations="1">
    <Transform Name="Normalize">
      <Selection>
        <Input NInputs="9">
          <Input Type="Variable" Label="RFQPAH_R" Expression="RFQPAH_R"/>
          <Input Type="Variable" Label="RFBPAH_R" Expression="RFBPAH_R"/>
          <Input Type="Variable" Label="V5QSET_R" Expression="V5QSET_R"/>
          <Input Type="Target" Label="LMSM" Expression="LMSM"/>
          <Input Type="Target" Label="D7TOR_R" Expression="D7TOR_R"/>
          <Input Type="Target" Label="TO1IN_R" Expression="TO1IN_R"/>
          <Input Type="Target" Label="TO3IN_R" Expression="TO3IN_R"/>
          <Input Type="Target" Label="TO5OUT_R" Expression="TO5OUT_R"/>
          <Input Type="Target" Label="D00LM_R" Expression="D00LM_R"/>
        </Input>
        <Output NOutputs="9">
          <Output Type="Variable" Label="RFQPAH_R" Expression="RFQPAH_R"/>
          <Output Type="Variable" Label="RFBPAH_R" Expression="RFBPAH_R"/>
          <Output Type="Variable" Label="V5QSET_R" Expression="V5QSET_R"/>
          <Output Type="Target" Label="LMSM" Expression="LMSM"/>
          <Output Type="Target" Label="D7TOR_R" Expression="D7TOR_R"/>
          <Output Type="Target" Label="TO1IN_R" Expression="TO1IN_R"/>
          <Output Type="Target" Label="TO3IN_R" Expression="TO3IN_R"/>
          <Output Type="Target" Label="TO5OUT_R" Expression="TO5OUT_R"/>
          <Output Type="Target" Label="D00LM_R" Expression="D00LM_R"/>
        </Output>
      </Selection>
      <Class ClassIndex="0">
        <Ranges>
          <Range Index="0" Min="1.2800292968750000e+02" Max="1.9000244140625000e+02"/>
          <Range Index="1" Min="2.1579589843750000e+02" Max="2.5833740234375000e+02"/>
          <Range Index="2" Min="-3.3000000000000000e+01" Max="-2.8500000000000000e+01"/>
          <Range Index="3" Min="1.3488769531250000e+00" Max="3.9965820312500000e+01"/>
          <Range Index="4" Min="2.4118545055389404e+00" Max="2.9306766510009766e+01"/>
          <Range Index="5" Min="2.2227775573730469e+01" Max="2.4259262084960938e+01"/>
          <Range Index="6" Min="-1.0213616943359375e+02" Max="1.0057491302490234e+02"/>
          <Range Index="7" Min="-4.0823371887207031e+01" Max="3.4294761657714844e+01"/>
          <Range Index="8" Min="3.0517578125000000e-03" Max="8.7280273437500000e-01"/>
        </Ranges>
      </Class>
    </Transform>
  </Transformations>
  <MVAPdfs/>
  <Weights NetDepth="4" InputDepth="1" InputHeight="1" InputWidth="3" BatchSize="1" BatchDepth="1" BatchHeight="30" BatchWidth="3" LossFunction="R" Initialization="F" Regularization="0" OutputFunction="I" WeightDecay="0.0000000000000000e+00">
    <DenseLayer Width="50" ActivationFunction="1">
      <Weights Rows="50" Columns="3">
        1.535997e-01  -2.203521e-01  -3.820082e-01  1.177238e-01  -5.150369e-01  4.636083e-02  5.149281e-02  -2.035062e-01  -5.301157e-01  -1.526425e-02  -6.431042e-02  -4.198008e-01  -1.384146e-01  3.280249e-01  4.173717e-02  3.523963e-01  -4.129311e-01  1.775917e-01  -1.357977e-01  3.682441e-01  -2.781303e-01  -2.634036e-01  1.018170e-01  -1.760734e-01  1.582686e-01  -2.260641e-01  -2.970396e-01  -2.419252e-01  1.110170e-01  -1.082225e-01  -1.655355e-01  3.100502e-02  4.901256e-02  -2.065864e-01  1.215535e-01  -4.877371e-01  1.101382e-01  -2.731192e-03  -1.010538e-01  2.823807e-01  1.254439e-01  -2.086266e-01  2.809394e-01  -2.921367e-01  -4.815519e-02  -3.450519e-01  -7.783107e-02  -1.303724e-02  -3.280128e-01  2.029377e-01  -1.319720e-02  9.573950e-02  4.609788e-01  5.191190e-01  1.370924e-01  -2.319225e-01  -2.080142e-01  -2.302310e-01  1.868606e-01  9.644551e-02  -2.172868e-01  9.761141e-02  4.053275e-01  -2.041501e-01  -4.207185e-02  -1.789312e-01  -1.214773e-01  1.578773e-01  2.946368e-01  1.901950e-01  -2.471572e-03  1.987909e-01  1.371771e-01  1.143791e-01  1.517578e-01  -2.091556e-01  -1.662550e-01  3.174354e-01  2.869492e-01  -2.256754e-01  3.608508e-01  -3.465716e-01  3.066017e-01  -3.078359e-02  1.224052e-01  1.963106e-01  -2.840661e-01  2.283715e-01  1.555609e-01  5.245250e-01  1.931255e-01  1.583233e-01  -3.396504e-01  -3.559614e-01  -2.498773e-01  1.291186e-01  -1.429596e-01  -1.256971e-01  -2.440008e-01  -2.550457e-01  2.938615e-01  4.995343e-02  4.238755e-01  -1.026589e-01  1.139498e-01  -1.819408e-02  -3.963507e-01  -1.985548e-01  6.777290e-02  2.397240e-01  4.983405e-01  -1.297389e-01  -2.423472e-01  -1.491620e-01  -2.448502e-03  7.197478e-02  -2.355361e-01  2.437285e-01  -3.843641e-02  -3.200256e-01  3.045210e-01  1.845198e-01  1.434831e-02  1.868885e-01  -3.482378e-01  2.974924e-01  -2.279490e-01  -2.317804e-01  -5.817976e-02  -1.999913e-02  -1.458727e-02  -9.565432e-02  1.222998e-01  -2.912848e-02  -4.881888e-01  2.785221e-01  1.034491e-01  1.297387e-01  -1.913464e-01  -1.914982e-01  1.896818e-01  2.260928e-02  1.515110e-01  -4.202469e-01  2.514120e-01  2.851591e-01  2.729605e-01  -1.572151e-01  -2.281225e-01  -2.874049e-01  
      </Weights>
      <Biases Rows="50" Columns="1">
        -7.037771e-02  -2.525638e-01  4.922252e-04  -4.587721e-02  1.642164e-01  -1.853423e-01  -1.484079e-01  3.001717e-02  -5.447018e-02  3.510259e-02  2.512759e-02  -5.052653e-02  1.441411e-02  4.720589e-02  -1.132202e-01  -1.207094e-01  -1.252818e-01  -1.154673e-01  5.960006e-02  7.068397e-02  1.746475e-02  2.197417e-01  1.446069e-01  3.470065e-02  3.544682e-02  -7.099279e-02  1.976732e-03  -5.187395e-02  6.296665e-02  3.411066e-02  -1.296568e-01  -3.512469e-02  -6.620657e-02  1.075685e-01  -6.685625e-02  -1.484881e-01  -1.739188e-01  -1.033512e-01  -8.299478e-02  -1.158317e-02  -1.430799e-01  -9.937745e-02  6.397947e-02  2.480296e-01  -1.663281e-01  -1.573394e-02  2.361714e-01  -1.103202e-01  -1.765428e-01  2.967539e-02  
      </Biases>
    </DenseLayer>
    <DenseLayer Width="50" ActivationFunction="1">
      <Weights Rows="50" Columns="50">
        8.112078e-02  -1.984591e-01  1.847411e-01  1.694013e-01  1.144964e-01  4.869572e-02  1.490264e-01  -5.524162e-02  -1.559119e-01  -5.539239e-03  -7.386822e-02  -2.748228e-01  -1.768520e-01  1.722201e-02  3.297294e-02  -1.840280e-03  -6.783353e-02  -2.012378e-01  1.264073e-01  1.267922e-01  -3.738497e-01  2.530893e-01  -2.842927e-01  -1.212720e-01  2.322741e-01  -1.323686e-01  -3.312027e-01  1.732879e-01  5.333530e-02  1.544394e-01  -1.560034e-01  8.368741e-02  1.687730e-01  -1.528416e-01  1.427123e-01  2.373980e-01  1.560242e-01  1.621378e-01  1.234225e-01  1.970064e-02  3.834480e-01  -3.873138e-01  -3.860298e-02  -1.203368e-01  -3.210616e-01  -1.684680e-02  1.512800e-01  8.433385e-02  1.246684e-01  1.841210e-01  -2.239394e-01  -9.702177e-02  -3.433003e-01  -5.450633e-01  -7.739427e-02  1.303865e-01  2.462918e-01  2.300893e-02  -2.325004e-01  -3.321159e-02  -1.197895e-01  1.253344e-01  1.062834e-01  -9.417000e-02  -8.692972e-02  -1.311383e-01  1.866285e-01  2.738720e-01  8.167638e-02  1.133642e-01  -1.050938e-01  -2.686613e-01  -1.024453e-02  -8.320697e-02  9.250869e-02  8.668719e-02  1.038164e-01  1.166937e-02  -1.397917e-01  3.210506e-01  8.648766e-02  1.214968e-01  -1.322621e-01  9.698364e-02  -1.782957e-01  -2.097398e-01  2.530395e-02  2.257379e-01  2.033353e-01  -2.277764e-01  1.258150e-01  -1.066232e-02  8.947136e-02  3.886653e-02  -2.959135e-01  3.075616e-01  -8.524203e-02  1.122064e-01  1.945289e-01  2.110789e-01  4.680770e-02  -3.326298e-01  1.554711e-01  -1.442335e-01  2.292196e-01  2.508172e-01  -1.618980e-01  7.096146e-02  -3.562355e-02  1.990236e-01  -1.928457e-01  -2.165776e-01  1.978696e-01  -1.197785e-01  -4.842040e-02  -2.715745e-01  2.407818e-02  8.327322e-02  -1.532507e-01  -1.849275e-01  7.895683e-02  -2.799170e-02  2.587621e-01  2.118881e-01  -2.196520e-03  8.578422e-03  -2.544746e-01  3.765959e-02  -4.202724e-02  1.468697e-03  -1.501096e-02  7.634357e-03  1.766445e-01  -2.433325e-01  2.358284e-01  -5.563889e-02  -2.001842e-01  -5.814900e-02  -3.437760e-02  2.365180e-01  -1.388441e-01  -1.740889e-01  -6.857223e-03  4.755334e-02  9.129830e-02  -4.810826e-02  1.722924e-02  1.933317e-01  1.462064e-01  -2.548089e-02  -3.036971e-02  -1.257586e-01  3.408054e-02  2.727226e-01  -4.480686e-03  4.983054e-02  -5.696861e-02  5.917872e-02  -8.178262e-02  -7.923529e-03  -6.802588e-02  -1.524969e-01  2.196421e-01  8.544067e-02  -7.206025e-02  8.147761e-02  1.276874e-01  -3.443497e-01  3.662356e-03  8.950991e-03  -3.387134e-01  2.018907e-01  -2.339412e-01  -3.388150e-01  -6.253879e-02  -2.984873e-01  -5.391921e-01  1.253720e-01  -6.165134e-02  -2.559109e-01  2.543688e-01  1.315649e-01  -1.304529e-02  1.704065e-01  7.102178e-02  1.036821e-01  -3.592185e-01  -6.362940e-02  -1.576081e-01  2.092291e-01  -5.056038e-02  -1.687450e-01  1.462538e-01  -9.187230e-02  -1.068419e-01  9.646324e-02  -2.693302e-01  2.487455e-01  -4.628137e-01  4.119959e-02  -1.473234e-01  -9.040716e-02  -8.698966e-02  5.610702e-02  1.449538e-01  -2.623135e-01  8.088683e-02  -3.157740e-01  -2.183060e-02  9.270161e-02  2.105357e-01  -3.610872e-01  1.988467e-01  2.852634e-01  -2.830871e-02  3.446317e-03  -5.137620e-02  -2.916091e-01  2.821589e-02  2.291192e-01  1.495664e-01  2.704870e-01  -3.222145e-02  6.006868e-03  -1.324201e-02  -2.361569e-01  -1.953047e-02  -3.276711e-01  5.850699e-03  5.946831e-02  -5.695796e-02  1.494195e-01  9.228677e-02  -2.177793e-01  -8.968602e-02  -1.658479e-01  -1.985031e-01  -3.429646e-01  -2.455691e-01  2.327995e-01  2.077257e-01  7.765621e-02  -3.468147e-01  1.028608e-01  2.142974e-01  1.955691e-02  1.131287e-01  -1.272665e-01  -1.273242e-01  -2.403573e-02  -4.613413e-01  2.463481e-01  -3.144038e-01  -4.891823e-01  1.731909e-01  -3.530361e-02  5.931173e-03  -4.216198e-01  -4.990943e-02  -4.553842e-01  -1.313877e-02  -4.961656e-01  5.719653e-02  7.271677e-02  -2.766928e-01  3.409813e-01  2.288114e-02  1.266982e-01  -2.372637e-01  -1.045026e+00  1.455111e-02  1.565592e-01  -1.814678e-01  1.596190e-01  2.612370e-01  2.098182e-02  8.014631e-03  1.678735e-01  -9.258932e-03  1.594732e-01  -9.994259e-02  -6.802856e-02  7.335418e-02  -9.990473e-01  1.805319e-01  -6.630698e-03  -4.605516e-03  -8.855882e-02  -3.505768e-01  -3.764371e-02  1.323830e-01  1.703091e-01  -8.400436e-02  5.683868e-02  1.882287e-02  -5.094218e-02  1.425495e-01  1.130241e-02  -1.708622e-01  1.501063e-01  8.453946e-02  2.589120e-01  -1.998214e-01  -6.453288e-01  -1.860899e-01  2.201419e-01  1.066523e-01  -1.065904e-01  7.742355e-02  -8.826986e-02  1.679734e-01  -5.651098e-02  -1.788856e-01  -1.126474e-01  1.819655e-04  -1.939077e-01  1.677276e-01  1.430754e-01  1.627544e-01  1.681882e-01  9.508847e-02  -1.072717e-01  5.031232e-02  2.907791e-01  -4.511582e-02  -2.496557e-01  2.567261e-01  -8.935221e-02  -4.464031e-01  1.723260e-01  -8.144031e-01  -8.498655e-02  -5.377874e-01  2.736561e-01  2.258681e-01  1.042180e-01  2.966272e-02  2.567902e-01  3.769448e-01  -9.134868e-02  2.584234e-01  -5.043550e-02  -3.206005e-02  -1.061622e-01  -5.600971e-01  2.977291e-01  -1.796414e-01  -3.563172e-01  2.083805e-01  -6.125452e-02  -2.142144e-01  -1.387889e-01  1.437660e-01  7.964277e-02  -1.951247e-01  9.134953e-02  -1.228242e-01  -2.117444e-01  -2.302695e-02  -2.259735e-01  -4.778534e-01  1.358783e-01  -1.727688e-01  7.264788e-02  -7.561291e-02  -8.854954e-02  -4.495098e-02  1.237343e-01  6.269907e-02  8.622656e-02  -1.186458e-01  7.733085e-02  2.536823e-01  -9.352908e-02  2.245616e-01  2.189145e-01  -1.306322e-02  -3.157640e-01  1.097602e-01  -3.267985e-02  7.709832e-02  1.952421e-01  -2.589940e-01  -5.822952e-02  -5.640683e-02  9.128129e-02  -4.414850e-01  6.311567e-02  2.403370e-02  5.529960e-02  -2.203486e-01  3.186880e-02  -1.324607e-01  4.682874e-02  2.760615e-02  2.760671e-01  3.691104e-02  7.972189e-02  2.225186e-02  4.022634e-02  1.292037e-01  1.950496e-01  2.526048e-01  1.106932e-01  8.544640e-02  -2.285801e-01  9.650442e-02  -5.581713e-02  -2.061912e-01  -1.400232e-01  -8.147787e-02  -2.151350e-01  -2.261474e-01  -1.920897e-01  -3.018670e-01  -1.776644e-01  -5.031433e-02  6.250110e-02  6.768288e-02  1.345622e-01  2.237066e-01  -1.700600e-01  -1.789575e-01  1.009805e-01  1.963698e-01  2.224623e-02  -1.061348e-02  1.110005e-01  1.176143e-01  -1.139938e-01  -2.081638e-01  3.474729e-02  -1.381301e-01  -6.088986e-03  6.155927e-02  -2.313493e-01  -1.944526e-01  3.484042e-01  -9.173310e-03  1.763336e-01  -1.527581e-01  1.934881e-01  1.124597e-01  1.493676e-01  -1.173581e-01  7.954618e-02  6.631772e-02  1.847656e-01  -8.682138e-02  1.487450e-01  -2.099891e-01  -3.461709e-01  6.477322e-02  -2.126503e-01  -3.025301e-01  -2.230769e-01  -1.775013e-01  -5.025904e-02  -1.812933e-01  -1.417341e-01  -4.446508e-02  9.778537e-02  3.677071e-02  5.500354e-02  5.209157e-02  -1.793659e-01  -2.056688e-01  1.758764e-02  -4.033586e-02  -3.138179e-02  1.397660e-01  2.433986e-01  1.927751e-01  1.349148e-01  1.454386e-01  -1.089926e-01  -5.483625e-02  -5.420824e-03  2.689680e-01  7.956140e-02  -5.459380e-02  -2.016630e-01  1.586201e-01  2.016916e-02  -2.133616e-01  -4.423556e-01  8.617225e-02  -2.158003e-01  -1.708503e-01  5.952297e-02  -4.027804e-02  1.562403e-01  2.332757e-01  2.845891e-01  -1.458768e-01  -2.142487e-01  3.722769e-01  5.849236e-02  -3.740234e-01  -5.001659e-02  -1.183700e+00  2.838189e-01  -1.559898e+00  -1.744071e-01  4.266550e-01  1.899330e-02  4.105104e-01  1.189997e-01  8.102417e-02  -1.017042e-01  -1.934188e-01  3.677567e-02  1.630782e-02  -2.806031e-01  -1.351469e-01  1.681071e-01  -4.422562e-01  3.797507e-01  -4.477915e-01  -1.006498e-01  -6.800341e-02  -2.939808e-01  2.916985e-01  -2.580013e-03  2.599484e-01  5.042949e-01  -6.383339e-02  -3.233609e-02  -4.342271e-02  2.495684e-01  3.612411e-01  8.101012e-04  -3.611639e-01  -1.826372e-02  -1.445796e-01  1.186911e-01  -2.885314e-01  -4.445927e-01  -1.563209e-01  -1.314776e-01  1.590270e-01  -2.582316e-02  -3.268440e-01  -3.045403e-01  -3.072431e-01  3.438903e-01  8.871725e-02  5.746345e-02  5.032296e-01  -1.426857e-01  -3.498228e-02  -3.834605e-01  5.713781e-02  2.065354e-01  -3.843502e-01  -2.258209e-01  -2.525509e-02  1.655528e-01  -1.193481e-01  6.989326e-02  4.324189e-02  -5.737128e-02  -1.221112e-01  -1.635300e-01  1.617502e-01  1.023276e-01  8.482852e-02  -9.507767e-03  2.794502e-01  -1.551452e-01  -2.826022e-03  -8.323413e-02  -9.009135e-01  5.803664e-02  2.823899e-01  -5.543633e-01  -9.666296e-01  -6.897101e-03  -1.293579e-02  1.507557e-01  -1.755562e-01  6.885438e-02  2.645441e-01  -9.825340e-03  -5.563757e-02  1.156180e-01  -1.685356e-01  8.193242e-02  1.028659e-01  8.870780e-02  7.256337e-02  -9.858478e-01  -1.836330e-02  1.552723e-01  4.688787e-02  1.872344e-01  2.641348e-02  2.526792e-01  2.340126e-01  1.766644e-01  -2.737302e-01  -1.347708e-01  4.181255e-02  2.612551e-02  -2.968148e-01  -7.374378e-02  -3.552817e-02  -8.376730e-02  1.428422e-01  -1.908307e-01  -1.140402e-01  -3.324813e-01  1.257998e-01  -1.502516e-01  1.494650e-01  -2.332342e-01  -4.322703e-01  -2.809824e-01  -1.630613e-01  -1.250449e-01  -2.082206e-01  1.692106e-01  -6.329406e-02  2.088298e-01  -1.025123e-01  -8.257369e-02  -8.732118e-03  -2.359554e-01  -7.501070e-02  7.758412e-02  -6.443904e-02  1.636982e-01  -1.001585e-01  8.860728e-02  -1.902341e-01  -3.146519e-01  1.170497e-01  -2.118845e-02  -1.088994e-02  -4.674820e-02  1.318235e-01  -1.467134e-01  -1.029355e-02  3.940988e-01  6.665021e-02  -1.517868e-01  -1.616468e-02  1.996571e-02  1.650773e-01  8.041750e-02  1.437856e-01  -1.562757e-02  -2.003290e-01  1.181552e-01  1.132984e-01  8.608954e-02  7.907543e-02  -3.768367e-02  1.736719e-01  -4.866786e-03  1.808947e-01  -5.819363e-02  9.906125e-02  -2.035717e-01  -1.227162e-01  -5.694615e-02  -2.625842e-01  -1.319492e-01  1.945437e-01  -2.961517e-02  -2.422024e-01  9.513272e-02  1.040214e-01  1.029726e-01  -2.239773e-01  1.006374e-01  9.282886e-02  9.452489e-02  -2.513463e-01  6.295813e-03  -1.815985e-01  -3.783770e-01  6.123521e-02  2.616180e-02  -2.270184e-02  -5.077786e-02  2.537693e-02  1.635557e-01  2.293311e-01  -6.823500e-02  2.834994e-01  -2.025148e-01  6.188560e-02  1.226881e-01  -2.669114e-01  2.174326e-01  2.607073e-02  1.019016e-01  3.293198e-01  5.472707e-02  2.259315e-01  3.445514e-01  9.682065e-02  -2.216870e-01  2.274442e-01  2.052774e-01  4.449020e-02  4.951929e-02  1.694348e-01  -2.101926e-01  -2.211833e-01  1.034985e-01  -3.208289e-01  -2.661634e-01  2.812032e-01  -2.078877e-01  -2.242457e-02  1.085274e-01  -2.369039e-01  -6.163558e-02  -1.793132e-01  8.154801e-02  2.613696e-01  -1.129558e-01  9.225291e-02  -1.728316e-01  7.974124e-02  3.463480e-02  -3.489466e-02  -3.654548e-01  -2.926054e-01  9.856960e-02  -4.588480e-02  1.515297e-01  -2.723378e-01  5.059649e-02  -9.720434e-02  2.372402e-01  -5.003670e-01  -2.214664e-01  -1.755848e-01  1.050784e-01  3.329609e-02  -1.121389e-01  -3.233511e-01  6.789686e-04  1.621921e-01  -1.145501e-01  -1.780546e-01  -9.083509e-02  -1.771044e-01  -1.080161e-01  -7.267466e-02  -2.275949e-01  -1.037926e-01  -1.980094e-01  -2.616698e-01  1.534965e-01  1.164280e-01  8.924612e-02  -1.546787e-01  2.237697e-01  2.031607e-01  1.120720e-01  -1.395196e-01  2.275711e-01  1.649339e-01  -1.592482e-01  1.262260e-01  -2.015686e-01  2.071480e-01  -1.893340e-02  7.715049e-03  2.226324e-01  3.004533e-01  2.504618e-02  1.260633e-01  -1.871797e-01  1.368167e-02  -1.355927e-01  1.795675e-01  3.813179e-02  1.687215e-01  6.362579e-02  8.370219e-03  2.352481e-02  -9.729742e-02  -2.534736e-01  1.049130e-01  -4.791167e-02  6.630984e-02  -8.089517e-02  -2.167177e-01  2.431175e-01  2.659092e-01  -1.680412e-01  -1.470079e-02  -2.349187e-02  -7.717469e-02  -2.536407e-01  -3.135976e-01  -3.575334e-01  7.822258e-02  3.659287e-02  6.358324e-02  -2.598669e-01  1.093290e-01  8.354984e-02  3.978182e-02  -2.743878e-01  -3.632124e-02  1.137439e-02  -7.887643e-02  2.169076e-01  -6.227863e-01  6.965514e-02  -1.862759e-01  -4.876447e-02  1.869630e-01  1.374822e-01  1.369321e-01  9.819511e-02  9.466082e-02  -8.526047e-02  -6.335284e-02  -2.160906e-01  2.951750e-01  -3.123787e-01  2.229283e-01  -2.183897e-01  -1.442005e-01  8.459301e-02  -7.144386e-03  -1.057796e-02  -3.580314e-01  -3.278163e-01  -3.669564e-01  1.192009e-01  8.216421e-02  1.576675e-02  -3.977942e-02  -5.840234e-02  -2.043656e-01  2.441211e-01  -3.256254e-01  5.035956e-02  3.268834e-01  -6.033656e-02  -2.587092e-03  -8.008039e-02  -4.842512e-02  3.691167e-02  -2.447225e-01  -6.781934e-02  9.642962e-02  -5.398800e-02  -5.252449e-01  1.898099e-01  -1.029167e-01  1.466478e-01  -3.807387e-02  -2.172545e-01  1.182671e-01  6.371224e-02  -4.691974e-02  2.622505e-01  -3.074042e-01  -1.437607e-01  2.554062e-01  -2.832208e-01  -2.003191e-01  1.556053e-01  1.354053e-01  -1.194503e-01  -5.245515e-02  -1.517197e-01  1.753360e-01  -4.713911e-01  -6.981441e-02  2.971466e-02  3.366476e-02  8.542899e-02  1.133500e-01  -2.721782e-01  2.692402e-01  2.531294e-01  -4.407695e-01  1.412076e-01  4.494280e-02  -1.784551e-01  -5.743802e-02  1.528016e-01  -2.343281e-02  -1.654999e-01  2.897047e-01  -1.837148e-01  2.265503e-02  -1.473315e-01  2.266226e-01  1.622030e-01  2.712127e-01  4.632879e-01  9.874397e-02  -1.926991e-01  1.571410e-01  1.246158e-01  4.046001e-01  2.225938e-01  2.889617e-01  8.520781e-02  1.391642e-01  2.851715e-01  -7.594278e-02  -2.015983e-01  1.487314e-01  1.168669e-01  -1.132612e-01  -9.382729e-02  -7.457093e-02  -5.432545e-02  1.724014e-01  -1.376555e-01  -7.920130e-02  -6.647328e-02  1.625469e-01  1.661627e-01  1.059396e-03  -1.103332e-01  -1.466869e-01  1.154776e-01  -6.030037e-02  -2.033252e-01  -1.074942e-01  1.018116e-01  -1.574905e-01  5.762982e-02  3.841417e-01  -5.348939e-02  2.356180e-01  -1.460954e-01  -6.320055e-01  1.248518e-01  -1.315563e-01  -1.203359e-01  -1.884922e-02  -1.519938e-01  1.714559e-01  2.742107e-01  2.986638e-02  1.515044e-01  -2.761881e-01  2.287623e-01  -3.828505e-01  -5.570111e-01  -2.961709e-02  2.030127e-01  -2.236165e-02  1.371411e-02  -3.494157e-01  -3.305710e-02  1.623181e-01  -4.805686e-01  -1.190815e-01  2.346857e-02  2.325225e-01  -7.276225e-02  1.454428e-02  -6.898584e-02  1.182729e-01  -1.326252e-01  -7.111442e-02  1.180483e-01  -5.161913e-02  6.215331e-02  2.264586e-01  -7.685593e-02  -2.080543e-01  -2.101934e-03  1.724751e-01  1.447848e-01  -1.065716e-01  4.160433e-02  -2.265984e-01  1.706900e-01  -1.857475e-02  -2.705872e-01  -4.531335e-01  9.825720e-02  2.932581e-02  -2.338521e-01  2.700042e-02  1.865067e-01  -1.003237e-01  9.005816e-02  -2.395610e-01  3.079488e-01  1.833597e-01  2.353489e-01  1.053712e-01  8.247527e-02  2.547335e-01  2.961869e-01  -1.258733e-01  -4.599512e-02  -9.629948e-02  5.401049e-01  4.550733e-01  2.219793e-01  1.529137e-01  -1.808647e-01  -3.195277e-01  2.864738e-01  8.690874e-02  2.081392e-02  -8.190355e-03  1.823549e-01  -3.708991e-01  4.277897e-01  -2.636426e-02  2.441257e-01  -2.090155e-01  -2.203371e-01  1.103516e-01  -3.235741e-01  1.022135e-01  -3.697275e-02  9.875345e-02  -9.093557e-02  -1.182268e-01  -2.307573e-01  6.951730e-02  -3.632357e-01  3.739815e-01  -4.894528e-03  -1.816748e-01  1.333404e-01  -1.110127e+00  -3.524413e-02  2.189975e-01  1.557342e-01  2.295189e-01  5.238680e-02  -3.174816e-01  -3.724068e-03  -1.054580e-01  1.761127e-01  -2.882573e-01  2.085316e-01  2.740686e-01  -4.856439e-02  -1.714646e-01  7.260097e-02  6.143148e-03  -1.069678e-01  1.978879e-01  1.125030e-01  -1.905740e-01  2.639852e-01  -2.238437e-02  2.801694e-01  4.339361e-02  1.012785e-01  -7.017181e-03  -1.071195e-01  6.000631e-02  2.472792e-01  1.819863e-03  8.145975e-02  1.332440e-01  1.575127e-01  1.951170e-01  -3.580168e-02  -2.308793e-01  -2.311171e-01  -3.051697e-01  8.943341e-02  -3.565095e-01  -3.311302e-02  1.579323e-01  -6.260886e-02  -1.381971e-01  -1.396632e-01  -1.893505e-02  -1.060744e-01  -1.363670e-01  1.620884e-01  1.907671e-01  -2.528536e-01  -1.606605e-01  2.583486e-01  4.132604e-01  -6.616073e-01  -2.076427e-01  -7.214841e-02  -2.802811e-03  -1.080979e-01  -3.787668e-02  -2.036187e-01  7.475282e-02  1.847964e-01  -1.269986e-01  -7.086509e-02  -2.325242e-02  1.967552e-01  -1.585741e-01  -4.708473e-01  -4.743897e-03  2.750131e-01  -8.997409e-02  1.848274e-01  -4.146777e-02  -5.802156e-02  2.985528e-01  9.843463e-02  -2.452312e-01  -4.723466e-02  -1.467544e-01  2.383859e-01  4.305217e-02  -8.338510e-02  -1.903940e-01  2.412687e-01  -2.353189e-01  -2.310027e-01  -3.872145e-02  2.835706e-01  -2.629817e-01  -1.504233e-01  1.293261e-01  -1.766344e-01  -2.310645e-01  2.391163e-01  -4.782569e-02  8.495083e-02  -8.578736e-02  -1.383668e-01  1.910742e-01  -2.050339e-02  1.585697e-01  1.988294e-01  -1.558915e-02  -8.571299e-02  -1.704657e-01  2.952980e-01  -1.999471e-01  2.180518e-01  1.143501e-01  -2.067082e-01  -1.958879e-01  -1.027461e-01  1.789333e-03  3.840204e-01  2.348629e-01  -2.086676e-02  -1.237850e-01  1.038101e-01  3.364306e-02  1.381654e-01  -2.081979e-02  2.486946e-01  2.648444e-01  1.116351e-01  5.587435e-02  -2.472064e-01  3.954612e-01  -6.430402e-02  1.693077e-01  5.757118e-01  1.893306e-01  2.184100e-01  1.291785e-03  -4.409102e-01  -9.802403e-02  -7.571600e-02  -8.903332e-02  -2.375262e-01  2.028446e-01  1.703721e-01  -2.464848e-01  2.786363e-02  -5.137844e-02  -1.217300e+00  -2.227838e-02  2.937650e-01  2.803492e-01  3.345263e-01  -1.769313e-02  2.398761e-01  1.350583e-01  1.766187e-01  -6.251199e-01  2.077548e-01  -2.891932e-01  -4.814479e-01  1.192466e-01  7.977077e-02  -5.174684e-01  2.368170e-01  4.225667e-01  -2.148459e-01  6.119668e-02  1.515869e-01  1.706677e-01  -1.140177e+00  -2.000568e-01  2.478760e-01  -1.228982e-01  -1.093067e-01  1.839931e-01  -1.466710e-01  1.957355e-01  -3.511790e-02  2.118553e-01  -1.170016e-01  -2.161874e-01  1.024139e-01  2.290994e-01  9.013696e-02  8.918307e-02  5.168065e-02  1.132195e-01  3.292025e-01  -3.067458e-01  -6.309868e-02  -1.329180e-01  8.020710e-02  9.501248e-02  -8.659963e-02  -3.610632e-01  2.815250e-01  -4.457211e-01  -4.583915e-02  1.692255e-01  -5.206865e-02  2.366337e-01  -2.928893e-02  3.195778e-01  -1.670298e-01  2.185538e-01  -2.687961e-01  -3.250992e-01  2.559888e-01  -2.160137e-01  -1.988152e-01  -7.048560e-01  2.898873e-01  9.987503e-02  1.457661e-01  1.701404e-01  -9.026425e-02  1.951430e-01  -1.439033e-01  -2.583287e-01  1.757220e-01  8.272836e-02  6.461003e-02  -4.370223e-02  -3.433524e-02  1.925972e-01  2.231325e-01  1.794586e-01  1.011929e-01  8.276701e-02  -2.303887e-01  1.098924e-01  1.391459e-01  2.767406e-01  -1.188762e-02  -1.183846e-01  1.187828e-01  9.134611e-04  -1.069478e-01  -1.290201e-01  8.262032e-02  1.031352e-01  -3.179125e-01  1.810738e-02  -2.499400e-01  -9.301887e-02  1.046592e-01  -7.283679e-02  -7.285194e-01  -9.028807e-02  -9.555840e-02  8.235008e-03  -2.333139e-01  -1.054626e-01  -2.528968e-01  7.396844e-03  1.509809e-01  -2.807736e-01  -5.251931e-02  -4.492189e-02  2.128290e-01  9.475593e-02  6.648942e-02  -2.228681e-01  -2.076255e-01  -2.922848e-01  -1.291902e-01  1.419869e-01  -9.512760e-02  1.061434e-01  -9.663505e-02  -5.022873e-02  -1.743619e-01  -1.103761e-01  1.995167e-01  1.454050e-01  3.109744e-01  1.937038e-01  1.971580e-03  8.423692e-02  1.295647e-01  2.459904e-01  -1.207277e-02  2.162856e-01  3.677089e-01  1.545847e-01  -6.768332e-02  -5.522535e-01  8.938186e-02  -2.635809e-01  -9.082023e-02  9.117647e-02  -2.959622e-01  -3.722418e-01  2.729444e-01  -1.637956e-03  -3.764947e-01  6.108468e-02  1.296921e-01  2.955161e-01  6.321683e-02  9.266149e-02  -4.829680e-02  -1.712855e-01  1.223040e-01  5.695198e-02  -1.776550e-01  -1.595672e-01  -1.990155e-01  -3.529450e-02  -1.737167e-01  1.965183e-01  -1.713150e-02  -4.457000e-02  2.832291e-01  -3.583037e-01  1.047993e-01  -3.075068e-01  -1.805417e-01  1.784190e-01  -8.874787e-02  7.278144e-02  -5.384014e-01  1.369283e-01  1.557958e-01  -2.756714e-01  1.361010e-01  5.858340e-03  2.046284e-01  -7.532930e-02  2.294996e-01  -1.761393e+00  2.589997e-01  1.343604e-01  1.228046e-02  -3.523113e-01  2.657401e-02  -2.426562e-01  1.409033e-01  4.962663e-03  -1.159478e-01  -6.907982e-02  -3.156175e-01  -3.662866e-01  -1.832321e-01  2.207906e-01  -7.604869e-02  1.799207e-01  -1.432161e-01  5.011068e-03  7.316917e-02  8.028959e-02  -1.063570e+00  3.207501e-01  -3.293100e-01  -1.267002e-01  7.913478e-02  2.130635e-01  -1.783478e-01  1.533556e-02  -2.336468e-01  -2.268545e-01  2.902667e-01  -3.050965e-01  1.115501e-01  3.363307e-02  -3.189972e-01  -4.755186e-02  3.997538e-01  -5.192840e-01  -7.429709e-01  1.432134e-02  4.257244e-01  2.216568e-01  -1.350787e-02  -2.417374e-01  1.308458e-01  -1.023666e-01  -1.921110e-01  7.247160e-02  2.607131e-01  1.142961e-01  -5.617352e-02  1.187201e-01  -1.054912e-02  -2.428869e-02  4.682164e-01  -4.652847e-02  -9.885794e-02  1.021698e-01  2.031124e-01  -6.962307e-02  -8.466986e-02  -8.019163e-02  -1.593534e-01  -7.868887e-02  -1.117924e-01  -8.576813e-02  -2.120793e-02  -1.681316e-01  6.919922e-02  9.415426e-02  -1.148584e-01  -3.669620e-01  -1.878207e-01  -9.611568e-02  -2.092385e-01  2.162800e-01  3.660199e-01  3.943816e-01  -3.803201e-02  -3.599824e-01  1.895861e-01  2.229001e-01  1.828817e-01  1.351180e-01  -1.625155e-01  -3.875833e-03  9.457746e-02  2.689861e-01  1.417630e-01  1.205838e-01  1.420322e-01  3.593569e-01  1.978549e-01  1.584473e-01  -1.406020e-01  -1.142009e-01  2.513187e-03  -5.718686e-02  -1.693055e-01  8.597712e-04  -1.113230e-01  3.054552e-01  -3.431770e-02  1.204022e-01  -2.012748e-02  -3.226303e-01  -2.095177e-01  -2.660245e-01  6.091183e-02  7.558574e-02  1.583255e-01  1.680331e-01  1.092968e-01  1.262314e-01  -1.279646e-01  2.068982e-01  3.434433e-01  -1.501083e-01  1.903156e-01  1.856577e-01  -6.609368e-02  2.550230e-01  1.616020e-01  1.476886e-01  2.581312e-03  8.296101e-02  2.568796e-01  -3.363636e-01  -1.530043e-01  -4.877939e-03  1.781054e-01  -1.470187e-01  -1.831885e-02  -4.186416e-01  -4.506348e-02  -3.418240e-01  4.836227e-02  -6.865519e-02  -8.675746e-02  3.131157e-03  1.584848e-01  8.365194e-02  -2.014404e-01  -1.435773e-01  2.306677e-02  1.186510e-01  -1.326144e-01  -1.201230e-01  2.385636e-01  9.269656e-02  3.332379e-02  -6.568309e-02  -4.438527e-01  1.919320e-01  7.398205e-02  -5.666068e-02  -2.035209e-02  -3.195382e-02  2.653037e-02  2.206898e-01  1.167613e-02  4.202804e-02  9.120975e-02  1.294381e-01  3.683242e-02  -2.686754e-01  1.548554e-01  -3.368259e-02  2.937873e-03  -9.098712e-02  -1.132588e-01  1.153142e-01  3.803397e-03  -1.467053e-02  1.840513e-01  3.365762e-01  7.537757e-02  2.044852e-01  -9.736423e-02  -9.407281e-02  -2.632742e-01  -5.217750e-02  -1.798044e-01  4.044102e-02  1.761839e-01  -2.187062e-01  2.328524e-01  3.224650e-01  2.114924e-01  2.023519e-01  -5.427397e-03  -1.595472e-01  2.146415e-01  -4.310653e-02  -6.201659e-02  8.772851e-02  -2.336619e-01  2.242074e-01  1.454164e-01  8.671992e-02  1.941378e-01  -9.966591e-02  4.760489e-02  -2.094118e-01  8.265629e-02  2.098161e-01  -3.062713e-01  -9.427827e-02  1.783832e-01  -1.153551e-02  -1.940428e-01  -3.758446e-02  1.538680e-01  1.023084e-01  -1.568521e-01  1.941108e-01  3.119432e-01  2.242141e-01  1.661791e-02  -1.554450e-01  -2.328396e-01  -1.343050e-01  1.827302e-01  -1.881737e-01  1.125834e-02  -2.458407e-01  2.192665e-01  1.437854e-01  2.133920e-01  -1.948573e-01  -2.485299e-01  -4.881867e-02  -2.145914e-01  2.751699e-03  -1.519370e-01  1.271078e-01  1.957277e-01  8.908811e-02  3.584921e-02  1.566171e-01  5.335188e-02  8.668081e-02  2.166558e-01  -5.474590e-02  9.901132e-02  1.448618e-01  -4.512336e-02  -5.418485e-02  -1.198836e-01  -7.022324e-02  -2.939326e-01  1.904969e-01  1.513556e-02  2.170418e-01  1.323806e-03  -8.651485e-02  -3.308962e-02  -1.928981e-01  -2.778590e-02  -5.187398e-05  1.486213e-01  -1.543016e-01  -1.740830e-01  5.224489e-02  -2.863546e-01  -3.151298e-01  1.541875e-01  -2.122964e-01  -1.394849e-02  1.255271e-01  -1.908761e-02  2.331287e-01  -1.567011e-01  6.987859e-02  2.041734e-01  2.544242e-02  -1.626066e-01  -2.408844e-01  1.803112e-01  -2.004197e-01  1.751695e-01  -2.479704e-02  -7.547509e-02  -1.036436e-01  7.169440e-02  -1.383054e-01  -9.872069e-02  -1.401343e+00  -3.500044e-01  1.262104e-02  -7.347371e-02  -2.962542e-01  9.598857e-03  1.244672e-01  9.702309e-02  -1.233366e-02  -6.457780e-02  4.616744e-02  -2.547058e-01  -5.516293e-02  -1.482310e-01  -4.697328e-02  -3.488939e-01  -2.069843e-01  -1.456123e-01  1.958836e-01  1.123140e-01  1.518668e-01  7.408628e-02  -6.324444e-02  -5.151282e-02  2.018788e-01  1.401002e-01  7.697787e-02  2.892687e-01  -2.205233e-01  -2.007547e-01  -1.838926e-01  3.074566e-03  6.579415e-02  3.567502e-01  -3.723930e-01  -3.250208e-02  -3.420615e-01  -1.666126e-01  -3.391751e-03  -2.053944e-01  1.342745e-01  1.206654e-01  -3.312604e-01  3.409122e-01  2.682153e-02  -4.239264e-01  7.195368e-02  1.551089e-01  2.581444e-01  -1.525627e-01  8.928582e-02  -2.186255e-01  -2.224790e-01  -4.616227e-01  1.046065e-01  1.945755e-01  1.538669e-01  6.815700e-02  -2.843131e-01  2.335608e-01  -3.838674e-02  -2.013601e-01  -1.749692e-01  -1.807261e-01  1.025482e-01  3.102237e-02  3.112680e-01  2.209738e-01  -1.968948e-01  -1.094259e-02  6.779984e-02  4.606024e-03  -2.601516e-01  -9.101653e-02  -3.489803e-01  2.577804e-01  -2.356190e-01  -1.529474e-01  1.144300e-01  -2.527391e-02  1.037987e-01  9.244382e-02  1.414985e-01  1.951275e-01  -1.352394e-01  2.483234e-01  -1.263642e-01  -1.252268e-01  8.290597e-02  1.625244e-01  -8.521346e-02  1.085146e-01  1.870697e-01  1.126195e-01  1.653796e-01  -5.605147e-02  -1.126645e-01  -2.291125e-01  -2.060136e-01  -7.539755e-01  -1.324545e-01  -1.468533e-01  1.035364e-01  -8.305733e-01  -2.314834e-01  -1.487603e-01  -1.947435e-01  -5.349710e-02  1.407083e-01  -7.583659e-01  -2.825443e-01  2.352311e-02  -2.687279e-01  1.369058e-01  1.621807e-01  -3.973973e-03  -7.896633e-01  1.763409e-01  6.376881e-04  -3.372550e-01  1.709090e-01  1.435466e-01  -6.713487e-02  9.343918e-02  -3.097281e-01  -1.219635e-02  -2.541929e-01  -6.346179e-02  7.964741e-02  -4.291298e-02  -1.999592e-01  4.561714e-02  -1.536280e-01  -1.861243e-01  2.068186e-01  -2.914038e-01  -2.386358e-02  3.159726e-01  -1.348374e-02  -3.814667e-01  1.534522e-01  1.318342e-01  -2.256426e-01  2.387623e-01  5.787542e-02  -5.854898e-02  2.820484e-01  1.404567e-01  3.572376e-02  -5.691362e-01  4.824588e-03  1.159133e-01  -1.515878e-01  -6.541418e-01  -2.982880e-01  7.682520e-02  -3.333533e-01  1.479657e-01  -1.286001e-02  -9.941722e-02  -3.395497e-02  3.652359e-01  -1.032056e+00  5.688339e-02  -6.313465e-01  5.455109e-02  5.264493e-02  -4.515374e-01  -4.510189e-01  8.438660e-02  4.382116e-02  -2.678741e-02  -1.579277e-01  -2.448674e-01  2.144336e-02  -2.300274e-01  -4.200775e-03  -1.245163e-02  -4.755259e-02  -1.280077e-01  4.606911e-02  -4.856858e-01  -2.482736e-01  -1.594535e-01  7.379454e-02  -5.897298e-03  -1.553830e-01  -2.566729e-01  -1.169231e-01  -9.652625e-02  -1.515037e-03  -1.482806e-02  -1.283555e-01  6.368179e-02  9.914286e-02  7.454824e-02  1.261727e-03  2.214365e-01  2.466034e-01  -2.562646e-01  -2.071805e-01  2.091704e-01  1.035525e-01  1.859851e-01  1.710546e-01  -5.482311e-02  6.890714e-02  -4.418698e-02  -8.357430e-02  -1.073915e-01  -5.647986e-02  1.658114e-02  2.589027e-01  2.410353e-01  -1.651258e-01  1.153153e-01  3.177955e-03  1.734044e-01  -1.575362e-01  6.537978e-02  1.350124e-01  -1.053497e-01  5.593979e-02  7.097741e-02  -3.724761e-03  -2.434288e-01  -1.483904e-01  1.702279e-01  2.454312e-02  -2.943770e-01  -1.340112e-01  1.695697e-02  -1.696110e-02  -2.464154e-01  -3.277695e-01  -1.690433e-01  -2.045781e-01  4.525851e-02  -1.314648e-01  -3.118100e-01  2.729789e-01  1.225903e-01  -1.596397e-01  6.650434e-02  -1.733530e-01  2.213378e-02  -7.518841e-02  -6.644976e-02  -7.146119e-02  6.728531e-02  -6.313397e-02  1.711382e-01  1.015538e-01  2.011074e-01  -7.831953e-02  -9.396268e-02  1.392407e-01  -2.107342e-01  3.285121e-01  2.940888e-02  2.124428e-01  -9.334105e-02  1.068412e-01  1.702552e-01  2.456092e-01  9.448692e-02  2.334343e-01  7.256099e-02  4.309053e-05  -6.045333e-02  2.260605e-01  -1.703022e-01  2.729304e-01  -3.817245e-01  -2.453026e-01  3.043936e-01  2.176337e-02  5.379984e-02  -1.100754e-01  -6.293069e-01  1.366823e-01  1.034488e-01  2.954801e-01  1.247946e-01  2.555204e-01  6.482954e-02  -2.312594e-01  -9.537856e-02  4.465390e-02  -3.024053e-02  -2.473838e-01  3.914271e-02  -3.923984e-01  -1.648212e-02  -1.543879e-01  6.307855e-02  -1.387599e-01  1.052507e-01  -2.987210e-01  1.008877e-01  -2.551216e-01  8.856998e-02  1.171712e-01  1.213102e-01  1.098322e-01  1.769810e-01  -2.374616e-01  9.671128e-02  -1.935046e-01  -2.117585e-01  -2.124071e-01  3.901718e-03  -1.931326e-02  -2.450548e-01  -9.655181e-02  -3.527114e-01  2.299041e-01  2.192093e-02  -1.617399e-03  -8.313739e-02  -1.060800e-01  3.687640e-02  -1.964371e-01  1.362577e-04  -2.139946e-01  -2.279195e-01  -8.015268e-02  5.021285e-02  -6.988638e-01  -2.251720e-01  1.928674e-01  1.827768e-01  1.857821e-01  -9.003125e-02  -1.324827e-01  2.551796e-01  -2.750241e-02  2.577984e-03  2.043824e-01  -1.807039e-01  1.472183e-01  1.167446e-01  -6.618746e-02  -2.569685e-02  2.286993e-01  -2.651139e-01  3.061085e-01  -9.536016e-03  -1.586666e-01  5.732904e-02  -5.009025e-02  -2.127805e-01  1.708319e-01  -2.181917e-01  -1.746537e-01  7.489827e-02  -5.268751e-02  1.127791e-01  2.374419e-01  -1.688546e-01  1.779300e-01  -1.323195e-01  8.446801e-02  -2.239794e-01  3.375202e-02  2.943738e-01  -1.066283e-01  -5.912894e-02  -2.963963e-01  1.636598e-01  1.800831e-03  2.271893e-01  1.689426e-01  -3.066362e-01  -2.319259e-01  1.234549e-01  1.307415e-01  1.931940e-01  -1.134512e-01  -1.860488e-01  -1.571484e-02  2.098595e-01  1.423539e-01  -3.229121e-01  -3.585264e-01  -2.392918e-01  -1.281157e-01  -1.040679e-01  2.573708e-02  5.479185e-02  1.087485e-01  -9.739643e-02  7.810368e-02  -1.641123e-01  2.122827e-01  6.675676e-02  1.518996e-01  -1.011010e-01  1.262068e-01  1.465825e-01  -1.623674e-02  -2.756451e-01  6.263188e-02  1.507519e-01  8.461635e-02  7.680740e-02  1.985624e-02  -5.832602e-02  5.088562e-03  1.620669e-01  1.167721e-01  2.429260e-01  2.185337e-02  -2.683497e-01  -6.739851e-01  -2.747824e-02  1.019905e-01  -9.430236e-02  -2.332330e-01  -1.826871e-01  1.454890e-01  2.392951e-01  -1.165139e-01  -1.171157e-01  1.306240e-01  -2.069596e-01  -2.361108e-01  1.955473e-01  -2.150390e-02  -2.703073e-02  -1.022369e-01  -2.666082e-01  2.955531e-01  1.145445e-02  -1.828436e-01  9.526475e-02  -1.533153e-01  2.236801e-01  6.158331e-02  9.548926e-02  1.260483e-02  1.212523e-01  2.359152e-01  8.905403e-02  2.093303e-01  1.397945e-01  -2.301254e-01  -7.700232e-02  -1.009159e-01  5.988539e-02  1.642211e-01  6.781092e-02  3.446633e-01  2.567459e-01  7.063392e-02  -2.064364e-01  3.449767e-02  -9.511572e-02  -1.017716e-01  -1.638851e-01  3.082848e-02  6.651685e-02  2.242292e-01  1.059787e-01  -6.731218e-01  -1.083157e+00  1.855329e-01  -2.363215e-01  7.724112e-02  -9.968363e-02  -1.245321e-01  -3.757498e-02  -1.683440e-01  3.219780e-01  9.330348e-02  -1.231772e+00  -2.905936e-02  -4.424866e-01  2.025566e-01  1.286424e-02  1.145622e-01  -4.599650e-01  -1.919175e-01  -3.099201e-02  -8.254639e-01  5.972937e-02  -4.118483e-02  -9.192176e-02  9.615251e-02  9.592938e-02  1.447032e-03  -9.637864e-02  1.404176e-02  6.426294e-02  -1.756056e-02  1.100974e-01  -3.643869e-01  9.382801e-02  5.090739e-02  -2.909793e-01  -2.830967e-02  8.468581e-03  -2.844633e-01  -2.332705e-01  2.873400e-01  1.925606e-01  2.102892e-01  -2.456685e-01  2.054357e-01  -1.197875e-01  -2.992639e-02  3.642549e-02  7.355008e-02  7.251550e-02  2.398135e-01  1.693254e-01  6.750738e-02  1.429453e-01  -9.466204e-02  -1.150426e-01  1.108919e-01  8.489059e-02  1.755702e-01  -5.280613e-01  4.099244e-02  1.874381e-01  -4.372436e-01  2.446684e-01  2.254557e-01  2.587953e-01  8.126081e-02  2.031916e-01  1.275261e-01  -1.695326e-01  4.857772e-02  -1.376141e-01  -2.467557e-01  -1.787479e-01  2.245448e-01  -1.569938e-01  -2.061334e-01  5.599643e-02  -3.877414e-01  1.639134e-01  1.615714e-01  -3.055503e-01  -3.938610e-02  -1.720245e-01  -4.134543e-02  1.147665e-01  1.989296e-01  2.042524e-02  -5.423436e-02  -1.464885e-01  -3.471194e-01  -3.655531e-01  1.715686e-01  -1.050783e-01  -1.684038e-02  -5.408071e-02  1.925430e-01  -4.381998e-02  -7.459142e-01  2.689191e-01  -2.602593e-02  2.582506e-01  -7.592103e-01  2.519399e-02  2.201898e-01  -2.103153e-02  3.095943e-02  1.010503e-01  -1.918733e-01  2.326553e-01  2.702061e-01  -1.257122e-01  4.857552e-02  -9.284384e-02  -3.070095e-01  1.463695e-01  -1.742838e-01  -5.780617e-02  -1.938070e-01  -1.661270e+00  3.777108e-01  -5.303963e-01  -5.588342e-02  -2.833301e-01  3.553225e-01  -1.682523e-01  -1.075776e-01  -4.967769e-01  1.842275e-01  -2.850114e-01  -1.061991e-02  -7.238159e-02  2.125766e-01  -4.454238e-01  2.093976e-01  -3.917519e-02  1.531567e-01  1.818362e-02  -2.416711e-02  1.074178e-01  1.074902e-01  1.151587e-01  3.942452e-02  1.882514e-01  2.344851e-01  2.932772e-01  7.366944e-02  2.690324e-01  -2.250693e-01  -5.878288e-02  2.517117e-01  -1.929909e+00  4.508907e-02  -7.279892e-02  -1.892013e-02  1.042189e-01  -2.395490e-01  1.173699e-01  -1.705049e-01  -3.243279e-01  -3.503070e-01  -1.807987e-01  -1.187347e-01  -3.442520e-01  8.091955e-02  -1.983687e-01  -1.139921e-01  -4.416280e-02  2.168956e-01  2.522537e-03  -7.726609e-02  9.787861e-02  3.152511e-02  2.009252e-02  1.534389e-01  2.029554e-02  -2.350866e-01  2.928754e-02  2.455934e-01  -3.227750e-02  -1.273304e-02  2.852195e-01  -1.669045e-01  -1.760047e-02  -7.363962e-02  -2.163243e-01  8.553254e-02  -2.153319e-01  -2.395544e-01  -1.869462e-01  -6.567212e-02  -4.428754e-02  1.479468e-01  -3.126026e-01  -1.752505e-01  -2.467885e-01  -1.258520e-01  6.859975e-02  1.031072e-01  -2.491025e-02  3.522229e-02  3.331975e-01  -5.407961e-04  -1.900417e-01  -1.076414e-01  1.350605e-02  2.422857e-01  -1.578995e-01  1.198590e-01  -9.969098e-03  9.298800e-02  -2.632955e-02  9.753364e-02  1.538039e-01  -2.208158e-01  2.186391e-01  -1.644752e-02  -7.959720e-02  -1.730693e-01  -2.779710e-01  -4.491066e-01  1.797857e-01  -2.205135e-01  1.823857e-01  6.021196e-02  -3.513978e-01  -6.289909e-02  2.184335e-01  1.142758e-01  -2.082133e-01  2.258015e-01  -1.875072e-01  -1.840113e-01  3.646620e-02  4.912467e-02  -1.426731e-01  -3.984852e-02  1.174488e-01  -3.318576e-01  9.016669e-02  -2.036173e-01  -1.066015e-01  2.653411e-01  6.410710e-02  -1.376675e-01  -2.914105e-01  1.288490e-01  8.915677e-02  1.187124e-02  -1.795625e-01  8.421617e-02  -1.060703e-01  3.356682e-01  2.581232e-01  2.615334e-01  7.237804e-02  1.960680e-01  -2.352461e-02  -1.664604e-01  8.291911e-02  2.189844e-01  2.145047e-01  -1.941139e-01  -1.887241e-01  1.069039e-01  -6.444411e-02  1.150197e-02  1.244609e-01  1.895011e-01  -1.272214e-01  -1.083991e-01  1.878715e-01  7.708711e-02  1.664250e-01  1.542861e-01  -1.830114e-01  2.165209e-02  6.166463e-02  1.919500e-01  1.670379e-01  -2.551022e-01  -2.541347e-01  3.422795e-02  -6.172338e-02  1.424333e-02  -2.121185e-02  -1.726447e-01  1.111400e-01  -5.370507e-03  1.328480e-02  -3.004314e-01  2.601384e-02  -1.444307e-01  1.902256e-01  6.982797e-02  2.496690e-01  -6.189263e-02  2.106414e-01  6.879523e-02  5.410203e-02  -2.226734e-01  3.249406e-01  2.698404e-01  1.584343e-01  1.457029e-01  -1.656561e-01  3.031331e-02  -2.062067e-01  -7.754194e-02  3.161957e-02  -6.029535e-02  7.482295e-02  1.177545e-01  -1.151642e-01  3.071780e-01  7.842430e-02  -1.374693e-01  2.410567e-01  1.726576e-01  -1.126245e-02  1.532449e-01  -1.394624e-01  2.785576e-01  -1.374600e-01  1.153512e-01  1.261737e-01  1.555917e-01  5.383906e-03  1.164461e-01  -1.608869e-01  -6.069259e-03  3.965833e-02  -1.309634e-01  -2.381625e-01  -4.581518e-02  6.873905e-02  -8.972933e-02  7.308134e-02  -3.101789e-02  3.779805e-02  -2.950274e-02  1.654656e-01  1.437501e-01  -1.391545e-01  1.753892e-01  -3.730445e-02  9.565964e-02  6.043254e-02  1.464108e-01  -1.876047e-01  2.182823e-01  -8.661938e-02  2.869654e-01  9.615028e-02  -3.102015e-01  -1.638329e-01  1.659782e-01  -1.175764e-01  -1.973953e-01  3.195823e-02  2.210042e-01  1.584548e-01  -1.855372e-01  2.964331e-02  -4.289864e-01  -9.385447e-02  -6.584716e-02  -2.263999e-01  1.415810e-01  1.612103e-01  -8.721877e-02  -9.283651e-02  8.755919e-02  -1.909336e-01  9.740687e-02  -1.463370e-01  1.637254e-01  4.918772e-02  -9.381752e-02  8.912054e-02  4.282035e-02  -3.463846e-01  -5.000569e-02  2.056505e-01  
      </Weights>
      <Biases Rows="50" Columns="1">
        3.504900e-02  9.973765e-02  9.463818e-02  1.053114e-01  6.008908e-02  4.146153e-02  -7.229815e-02  6.992004e-02  3.710387e-02  2.346058e-01  -1.060176e-01  -1.212038e-01  2.351897e-01  -7.278257e-03  -1.900267e-02  9.335654e-02  8.002119e-02  8.638701e-02  -2.649888e-01  1.454259e-01  -1.849820e-01  -7.074764e-03  1.133782e-01  -3.395018e-01  -9.491812e-02  1.342709e-01  -7.794664e-02  1.395685e-02  7.638787e-03  -1.474992e-01  1.262032e-01  5.436188e-02  6.298435e-02  2.268745e-01  -3.398918e-02  -3.961739e-02  2.288122e-01  1.445912e-01  -1.654570e-02  1.372420e-01  1.305909e-01  5.208297e-02  4.250019e-02  -3.199156e-02  -1.056629e-01  -1.332557e-02  1.998875e-01  -1.375808e-02  -2.001344e-02  1.442293e-01  
      </Biases>
    </DenseLayer>
    <DenseLayer Width="50" ActivationFunction="1">
      <Weights Rows="50" Columns="50">
        -1.149594e-01  -2.822612e-01  1.532564e-01  -1.256220e-01  -2.094876e-01  2.710320e-01  -1.535890e-01  -1.728085e-01  1.115822e-01  -2.243916e-01  -8.655131e-02  -2.494683e-02  -1.844678e-01  6.719740e-03  1.198046e-01  1.164024e-01  1.545266e-01  1.448553e-01  -2.259660e-01  -2.407071e-01  -3.444250e-02  2.239746e-01  1.950406e-01  2.659106e-02  2.787891e-02  6.796005e-02  -1.563361e-01  3.232080e-01  -3.748599e-02  -1.560371e-01  1.589168e-01  1.138355e-03  -1.930933e-02  3.317435e-01  -2.068158e-01  -1.418056e-01  1.416089e-01  1.175762e-01  1.688115e-01  -3.547487e-02  -2.418954e-02  1.200108e-01  1.908976e-01  -4.555708e-02  -1.660917e-01  7.296394e-02  5.781376e-02  -1.226414e-02  -5.643475e-02  -1.233663e-01  1.917987e-01  -2.226726e-01  7.375135e-02  -2.069140e-01  2.198072e-01  2.059748e-01  1.526433e-01  1.743630e-01  2.779698e-01  -1.346576e-01  6.983294e-02  -2.259385e-01  1.319913e-01  1.992389e-01  4.063826e-02  -2.950397e-02  1.505799e-01  6.804383e-02  1.094596e-01  -3.100650e-03  -8.278574e-02  1.632925e-01  -2.706515e-01  -2.804320e-01  8.711971e-02  6.829759e-02  -2.433506e-01  2.268002e-01  9.748910e-02  1.502483e-01  3.849828e-02  6.350191e-02  6.223187e-02  1.105413e-01  1.746362e-01  2.932395e-01  1.943291e-01  1.433865e-01  -7.403425e-02  -4.430350e-02  -1.555680e-01  7.515210e-02  1.547097e-01  -1.867780e-01  -9.449656e-02  3.097509e-01  3.719163e-01  1.765599e-01  -1.665683e-01  9.976536e-02  -2.463749e-01  1.623389e-01  1.267973e-01  -1.216449e+00  1.520994e-01  5.411993e-01  -2.092455e-01  1.989812e-01  8.848184e-02  -2.632342e-01  -9.019163e-02  -2.819768e-01  5.861030e-02  -2.185566e-03  -2.544786e-02  7.360125e-02  -2.668795e-01  2.648703e-01  -1.287010e-01  1.329843e-01  -1.955097e-01  8.877559e-02  -4.916333e-01  -7.480459e-01  -1.339937e-01  -1.450461e-01  -1.058498e+00  1.153425e-01  5.487612e-02  -7.455637e-02  1.575347e-01  -2.699817e-02  1.438045e-02  1.601513e-01  5.301906e-01  -4.251674e-01  3.666038e-01  6.651388e-02  -2.493837e-01  -2.339627e-04  -7.531911e-02  1.060562e-01  -9.420811e-02  -7.485913e-02  3.768111e-01  8.248310e-02  -1.861426e-01  -3.001937e-01  -3.402289e-01  2.498791e-01  4.997659e-02  -9.351388e-02  -2.125582e-01  -1.393515e-01  -2.037285e-01  -3.135985e-01  1.783369e-01  -2.074855e-02  1.615535e-01  -3.781201e-01  4.987420e-01  1.383951e-03  -2.584994e-01  1.550584e-01  1.168993e-01  6.289710e-02  2.132540e-01  -3.628593e-04  3.687477e-01  -2.873851e-02  1.596816e-01  -2.787632e-01  7.232106e-02  1.139271e+00  2.103550e-01  -4.778446e-02  2.151600e-01  2.831456e-02  1.490884e-01  4.487631e-01  -2.223334e-01  1.871984e-01  1.528946e-01  -2.633744e-01  2.962607e-01  1.027348e-01  5.275889e-03  -2.207827e-01  -4.465892e-02  -5.146478e-01  -1.422304e-01  1.318715e-01  2.161701e-01  -3.028139e-01  1.124776e-01  8.256499e-02  -7.649472e-01  -2.276871e-01  1.106974e-01  -4.856637e-02  -1.412584e-01  1.807763e-01  -1.670147e-01  -3.773591e-02  1.693235e-01  -2.223460e-01  1.163330e-01  -1.842843e-01  -2.917752e-01  -1.293305e-01  1.673983e-02  -2.060057e-01  -2.014161e-01  -2.380789e-01  2.180676e-01  -1.411825e-01  8.894765e-05  -2.132278e-01  -1.657698e-01  -2.355838e-01  -1.697481e-02  -6.299049e-02  9.398230e-02  -2.115828e-01  -1.835769e-01  1.592910e-02  -3.515204e-02  -5.480470e-02  1.834987e-01  6.532501e-02  -2.096794e-01  -4.901480e-03  -3.244974e-02  -2.423353e-01  8.738442e-02  4.697737e-03  1.467433e-01  -8.057334e-02  4.442584e-02  1.164772e-01  -3.068364e-02  -1.962934e-01  -3.048907e-02  -9.909021e-02  -2.296796e-01  4.796542e-02  7.331976e-02  1.108260e-01  9.759010e-02  7.705355e-03  2.342440e-01  -5.213244e-01  -1.831445e-01  2.227601e-02  2.670618e-01  1.762480e-01  -5.849126e-01  -1.478725e-01  6.478304e-02  -1.661429e-01  -1.734266e-01  1.180748e-01  3.073516e-01  1.535748e-01  -3.769667e-01  2.482960e-01  4.452278e-02  1.214577e-01  1.704767e-01  -7.249103e-01  -2.016733e-01  -1.498850e-01  -1.661765e-01  -8.853447e-01  -2.004102e-01  1.328373e-01  -2.240662e-02  2.495275e-01  -1.139135e+00  1.529649e-01  2.636988e-01  2.045654e-01  3.266073e-01  -5.517035e-01  4.878655e-02  -1.533196e-01  1.649317e-01  1.130788e-02  2.171229e-01  -7.947347e-02  -2.729731e-01  -1.780554e-02  -1.918543e-02  1.902669e-01  -1.531437e-01  3.091382e-01  -1.954843e-01  1.610835e-01  2.222530e-01  -1.568460e-01  1.168176e-01  -1.332994e-01  -4.540183e-03  -3.239548e-01  5.711007e-02  -2.066640e-01  -1.110134e-01  -4.213670e-01  8.315522e-02  1.074533e-01  2.325585e-01  7.344405e-02  -4.597804e-01  1.843158e-01  -3.102160e-02  -3.289042e-01  -2.137504e-01  -9.401974e-03  3.499397e-01  1.668403e-01  -2.739001e-01  -1.166426e-01  -2.626654e-01  -2.162516e-01  -1.913838e-01  1.093032e-01  -4.777877e-02  3.163057e-01  -5.576692e-02  3.557512e-01  3.235141e-02  8.082428e-02  -2.120443e-01  3.858358e-02  9.942897e-02  -4.278820e-02  -1.226733e-01  2.306193e-02  2.506900e-01  1.045738e-01  1.055053e-01  -2.166807e-01  -2.463408e-01  -1.843830e-01  -2.127013e-01  -3.143726e-01  -1.095774e-01  -5.096417e-02  1.877132e-01  -3.684880e-01  1.972058e-01  3.621944e-01  -3.568715e-01  7.260529e-02  -2.235882e-01  2.269857e-01  -2.608263e-01  -6.176516e-01  -1.031093e-01  -3.619077e-01  1.344268e-01  3.238187e-01  -5.380241e-01  -1.534704e-01  2.985598e-01  -3.696273e-03  -4.697867e-02  3.010221e-02  -4.913965e-02  7.734328e-03  -1.275252e-01  1.369526e-01  1.572707e-01  1.409836e-01  1.747567e-01  -1.548485e-01  2.956031e-01  9.772913e-02  3.805408e-02  1.640679e-01  -1.185677e-01  -2.814398e-03  -2.057076e-01  -2.597702e-01  1.080411e-01  1.574063e-01  6.215106e-02  -3.410594e-01  6.356749e-02  -3.685103e-01  -1.744229e-03  -4.799242e-01  5.269108e-02  1.362813e-02  6.952402e-02  1.841133e-01  -5.707806e-01  -2.543138e-01  -2.058745e-02  -4.154521e-01  -3.656198e-03  -8.619122e-02  8.400008e-02  1.573142e-01  -1.898106e-01  -3.194133e-02  -4.821496e-02  -9.461544e-02  -2.497091e-01  3.926827e-02  -1.040249e-01  -1.888761e-01  -8.543565e-02  -1.010407e-01  -5.575200e-02  -1.978301e-01  8.548936e-02  -4.438625e-02  -1.843089e-01  5.207878e-02  -1.258742e-01  1.538859e-01  -2.096824e-01  -8.983894e-02  -2.202386e-01  1.562633e-01  -2.003273e-01  -6.459785e-02  -2.609617e-01  -2.597065e-02  -1.355908e-02  2.419959e-02  -2.510492e-01  -1.643535e-01  1.874044e-02  -1.679961e-02  -6.987721e-02  -4.353493e-02  -3.363396e-04  8.716512e-02  1.012718e-01  1.797087e-01  -4.378730e-04  1.827013e-01  -9.209496e-02  -6.161161e-02  2.949099e-02  -1.554922e-01  1.021737e-01  -1.913032e-01  2.918886e-01  7.532225e-02  -2.142866e-01  -5.449385e-01  6.923410e-02  -1.756471e-01  2.491498e-01  -1.358618e-01  -2.106298e-01  2.161783e-02  3.133811e-01  -4.134575e-02  -3.831459e-01  6.787553e-02  1.266104e-01  -1.896853e-01  1.887769e-02  1.907060e-01  3.167157e-01  3.032674e-01  8.300623e-01  -1.338434e-01  9.185370e-02  8.723022e-01  2.845110e-01  -6.671032e-02  -2.586932e-01  1.163425e-01  1.391408e-01  -1.595779e-01  -2.456541e-01  -1.786655e-01  -8.160613e-02  2.897853e-01  -1.247445e-02  -1.343370e-01  2.998633e-01  1.997516e-01  3.424919e-01  2.165031e-01  2.329437e-01  -1.187393e-01  7.988801e-02  -4.167098e-02  -1.965753e-01  -5.980377e-02  8.157415e-02  -3.954622e-01  2.768512e-02  1.215158e-02  -1.009148e-01  1.955279e-01  6.559534e-02  2.463154e-01  -1.195097e-01  -8.361714e-02  -4.937334e-02  1.779716e-01  1.813214e-01  3.071904e-01  -1.142982e-01  -2.121669e-01  1.015134e-01  1.098580e-01  1.433433e-01  2.583259e-01  -4.664785e-02  1.231170e-01  -6.184364e-02  2.529101e-02  -1.824521e-01  -4.491263e-02  1.681452e-01  -5.955381e-02  -1.961790e-01  -8.073431e-02  -2.807387e-02  2.653804e-01  1.687513e-01  -1.796951e-01  1.553561e-01  2.434020e-01  5.671493e-02  2.689974e-02  -1.395071e-01  1.111611e-02  1.539658e-01  4.287888e-02  -8.246851e-02  8.213857e-02  1.660206e-02  1.084300e-02  4.942637e-02  2.323869e-01  -4.426073e-01  -1.775178e-01  -1.537826e-01  -1.180909e-01  -1.729958e-02  1.093296e-01  5.872385e-02  1.334721e-01  1.459463e-01  -4.922852e-02  -2.281611e-01  5.990947e-02  7.371986e-02  -2.089860e-01  -1.849859e-01  -1.859257e-01  -1.771692e-01  -1.694562e-01  -1.156526e-01  -3.013475e-01  -5.538904e-02  8.617190e-02  -2.154271e-01  -1.385056e-01  -1.670101e-01  -2.754485e-01  -2.368931e-01  1.419890e-02  -2.347463e-01  -2.563475e-01  1.648004e-01  -2.068184e-01  4.399271e-02  5.578725e-02  9.405502e-02  1.155291e-01  1.648187e-02  -8.132605e-02  1.620949e-02  -1.062798e-01  1.441264e-01  -3.187276e-02  2.198658e-02  -1.136665e-01  9.691159e-02  -1.975804e-01  7.645588e-02  -1.088512e-02  -1.919852e-01  -1.329018e-01  2.147199e-01  -2.583718e-01  1.034673e-01  -2.883446e-03  -1.449764e-01  -2.045201e-01  -2.707588e-01  -5.625961e-02  -1.589004e-01  -2.338465e-02  -2.725327e-01  -1.041520e-01  -1.530485e-01  2.034076e-01  2.142959e-03  3.206542e-01  1.437634e-02  -6.064578e-02  -3.169724e-01  -1.696658e-01  3.541270e-01  -1.486665e-01  -4.200240e-01  2.530343e-01  2.120963e-01  2.080334e-01  3.184829e-01  1.394900e-02  -1.037276e-02  -9.054238e-02  -1.937322e-01  -3.727442e-01  8.452769e-02  1.106888e-01  4.722890e-02  3.352035e-01  -2.255315e-01  -4.768051e-02  1.535284e-01  2.018153e-02  1.045161e-01  2.282844e-01  -1.785652e-01  -1.930899e-01  -4.468739e-01  1.698348e-01  -2.796938e-01  1.747312e-02  2.217864e-01  -3.548344e-01  1.707334e-01  3.305875e-01  -5.520412e-01  -1.129349e-01  1.293695e-01  -3.245278e-02  -3.072017e-04  9.836276e-02  1.788422e-01  -2.161464e-02  7.730677e-03  -6.288264e-02  -8.781730e-02  1.509939e-01  4.639382e-02  7.847004e-02  -8.763634e-02  -2.626379e-01  -9.846152e-03  3.627147e-02  1.316154e-01  1.394054e-01  -1.648398e-01  -1.961401e-01  -4.492833e-01  4.566613e-02  1.932930e-01  2.372447e-01  1.439327e-01  -1.030147e-01  -9.085955e-02  2.457004e-02  7.157145e-02  5.302216e-02  1.590429e-01  -3.267928e-01  3.358472e-02  1.242112e-01  6.635298e-02  1.565978e-01  7.818035e-02  1.500580e-01  -1.179238e-01  6.725667e-02  -1.621414e-01  1.427117e-01  9.122913e-02  3.122753e-02  -7.783283e-02  -1.844083e-01  -1.364703e-01  1.867438e-01  -7.041788e-02  -1.347523e-01  7.213463e-02  -2.073413e-01  2.927713e-01  5.084810e-02  7.091531e-02  -3.928204e-01  -3.767999e-02  -3.609248e-02  3.978118e-02  -6.144973e-02  9.612275e-02  9.825375e-02  2.733354e-01  1.082729e-01  2.681265e-02  -1.264540e-01  1.138808e-01  6.938142e-02  -8.400302e-03  4.684303e-02  9.704794e-02  -1.369587e-02  3.241341e-01  -1.450259e-01  -5.329492e-02  -1.275615e-01  1.569358e-02  -4.710263e-02  -5.240132e-02  -7.647267e-02  3.262863e-02  -8.642904e-02  -4.062345e-02  -1.734900e-01  1.021231e-01  2.384178e-01  2.206054e-01  -1.420711e-01  -1.476431e-01  2.115734e-01  1.156002e-01  2.369404e-01  1.510226e-02  2.243071e-01  2.635223e-01  -2.738452e-01  1.113195e-01  5.398790e-02  8.104742e-02  1.697846e-01  -5.490360e-02  2.662757e-01  1.862717e-01  -1.303328e-01  6.689638e-02  8.619125e-02  1.524302e-01  -4.456900e-01  2.392604e-01  -1.251666e-01  1.835740e-01  1.941750e-01  1.741608e-01  1.366903e-01  1.459703e-01  -9.183802e-02  2.159606e-01  2.229403e-01  -1.231033e-01  -2.821549e-01  -1.150273e-01  -6.290410e-02  -2.487008e-01  -2.015595e-02  2.848440e-01  3.125539e-01  -1.302564e-01  1.976565e-01  -8.175895e-02  9.207658e-02  -3.896550e-01  -1.863059e-01  -1.154533e-01  -3.384698e-02  1.743137e-02  1.345913e-01  1.150493e-01  1.242611e-01  -4.180920e-01  -4.522090e-02  -7.676000e-02  -2.562095e-01  -3.055057e-03  -2.304475e-01  -1.992213e-02  1.559068e-02  -1.274810e-01  -3.897255e-02  1.570533e-01  2.343448e-02  6.471194e-02  -2.029847e-01  1.879580e-01  3.966999e-04  6.911986e-02  1.203320e-01  -2.123800e-01  -3.667624e-02  -2.617591e-01  -2.593906e-01  -2.241328e-01  1.155875e-01  -2.118898e-01  6.423268e-03  -1.462266e-01  -7.910816e-02  1.089680e-01  -2.642336e-01  -1.461539e-01  -8.613223e-02  -1.437461e-01  5.219732e-02  -2.366408e-02  1.828189e-01  1.099840e-02  -2.494690e-01  1.353009e-01  -1.053065e-01  -2.334222e-01  4.598611e-02  -3.318278e-02  6.101238e-02  -7.222834e-02  -2.967610e-01  -4.354639e-02  1.041455e-01  6.332475e-02  7.687895e-02  1.567361e-01  -1.817728e-01  1.075294e-01  -1.320251e-01  1.386750e-01  1.628727e-01  1.603783e-02  2.442692e-02  1.795824e-01  -1.970046e-01  5.085255e-02  1.191270e-01  -2.053483e-01  -2.201109e-01  2.080706e-01  1.613481e-01  -7.272056e-02  -2.910605e-01  -2.067206e-01  -2.050269e-02  -6.822557e-01  -2.256084e-01  1.194748e-01  -2.151265e-01  -1.509672e-02  -5.349398e-01  7.198208e-02  1.759343e-01  -9.243593e-02  -1.531079e-01  -1.188196e-01  1.339860e-01  -1.081609e-01  -1.036219e+00  -2.270958e-01  -6.064156e-02  1.067840e-01  -2.436627e-01  -1.474484e-02  -1.273284e-01  -1.322739e-01  1.293677e-01  -1.032797e+00  1.951995e-01  2.513988e-01  2.878303e-01  1.581691e-01  -8.000619e-01  -1.546209e-01  -9.373648e-02  1.906531e-02  -4.139649e-02  9.246108e-02  2.636132e-01  1.597154e-01  -9.538026e-02  1.175783e-01  -2.719507e-02  -8.966853e-02  -5.038543e-02  -2.295133e-01  1.022051e-01  -3.605325e-01  2.875871e-01  -1.328981e-01  3.618746e-02  -2.108980e-01  1.832980e-03  1.217082e-01  6.044792e-02  1.677858e-01  2.106443e-02  4.881980e-02  7.303089e-02  1.732884e-01  -1.144584e-01  -5.607900e-02  -2.164592e-01  -1.419258e-01  -8.782520e-04  4.079820e-02  6.970932e-02  1.487825e-02  -2.341262e-02  -1.870841e-03  1.688143e-01  8.149547e-02  -1.596062e-01  6.925756e-02  -1.068161e-01  1.853271e-01  -8.023368e-02  -1.371083e-01  -8.538277e-02  -2.350460e-01  1.059744e-01  -2.884316e-01  -7.635996e-02  -8.350126e-02  -4.203368e-02  1.883713e-01  -1.812835e-01  -1.776456e-01  1.401139e-02  -9.024544e-02  -1.681894e-01  1.279617e-01  -6.604688e-02  -2.193501e-01  -2.953188e-01  -1.626123e-01  2.963422e-02  -2.173957e-01  -3.322002e-02  1.107733e-01  1.366888e-01  -4.019157e-03  -1.644107e-02  1.283897e-01  -3.534440e-01  2.407791e-01  1.718511e-01  3.229768e-02  -1.754016e-02  -1.744898e-01  -8.972643e-02  2.211786e-01  1.523765e-01  -2.508667e-02  1.597013e-02  -2.360344e-01  -8.480600e-02  -2.623702e-02  3.042538e-01  -2.037578e-01  -8.733773e-01  -1.738033e-01  -7.943423e-01  8.149406e-02  -7.524095e-03  -2.849951e-01  7.865278e-02  2.714534e-01  -9.658798e-02  2.443926e-01  -2.238132e-01  -2.288916e-01  -1.612987e-01  -2.202307e-01  -2.254529e-01  -1.679160e-01  1.835842e-02  -2.306989e-01  4.030302e-01  1.181631e-01  2.219053e-01  1.263763e-01  2.285998e-03  1.258670e-01  -3.508368e-01  2.167911e-01  -2.447553e-01  -6.295871e-02  3.706813e-04  -1.501479e-01  -5.468869e-02  7.091552e-02  3.898999e-02  -2.289075e-02  -4.797082e-01  -5.391788e-02  3.695061e-02  1.649043e-01  2.140521e-01  6.217754e-02  3.391049e-01  -1.103226e+00  2.187077e-01  1.419606e-02  2.748207e-01  -8.306434e-02  -1.045475e+00  -3.598059e-01  1.857761e-01  -4.654093e-01  -2.602717e-01  1.161088e-01  4.410693e-02  -1.416363e-01  1.200220e-01  -5.127145e-01  -1.107604e-02  5.738033e-02  -8.982403e-01  -2.172528e-01  -2.988790e-02  1.786514e-01  2.336950e-01  1.904774e-01  1.550343e-01  6.626064e-02  6.191985e-02  -1.334720e-01  -4.111604e-02  1.981755e-01  -4.979040e-01  1.066764e-02  -1.996084e-01  9.747323e-02  3.192979e-01  -3.642498e-02  -1.594994e-01  -1.756959e-01  -2.158476e-01  -5.297704e-02  9.199990e-02  -1.127049e-01  -2.488553e-01  -2.487532e-01  9.195215e-02  -3.952599e-02  -1.328996e-01  5.669943e-03  -1.734477e-01  -1.553300e-01  1.030809e-03  -2.693333e-01  -2.464415e-01  -2.103465e-01  3.445550e-02  -2.239684e-01  -1.893045e-01  9.486786e-02  9.034357e-02  -7.271952e-02  -1.490951e-01  -6.876183e-02  1.397128e-01  4.397239e-02  -1.666235e-01  1.413207e-01  4.792263e-02  -3.873257e-02  1.955573e-01  2.183276e-02  -1.375149e-01  -1.489509e-01  -7.870502e-02  8.639305e-03  1.353929e-01  3.450703e-02  -1.409728e-01  1.590613e-03  1.088481e-01  1.249125e-01  -1.610491e-01  -1.178191e-02  1.850265e-01  -1.714427e-01  1.127319e-01  -1.521593e-01  -2.563428e-01  -2.197436e-01  -2.088445e-01  4.751825e-02  2.477742e-01  -1.811446e-02  -1.920763e-01  1.502023e-01  3.337880e-01  1.004473e-02  4.664983e-02  -4.623586e-02  1.196416e-01  2.818077e-01  -5.821718e-01  2.106650e-01  4.507446e-02  -1.631858e-01  -2.119384e-01  1.538344e-01  -2.292461e-01  -1.839680e-02  2.743621e-01  -7.094427e-01  -5.420896e-01  -3.260323e-01  -1.013080e+00  4.622548e-02  -3.632933e-02  -2.973630e-01  1.648419e-01  -5.993385e-02  2.104595e-01  2.892807e-01  4.147931e-02  -1.870605e-01  1.606299e-02  7.326861e-02  -8.577471e-02  -1.501832e-01  -1.974356e-01  -1.251072e-01  1.754291e-01  -1.265576e-01  1.035116e-01  -3.586232e-02  -1.579016e-01  6.062610e-01  -6.173298e-01  -1.273358e-01  -7.257933e-02  -1.276453e-01  1.524932e-01  -1.696309e-02  1.796177e-01  -1.406770e-01  8.384924e-02  -5.899728e-02  -1.916043e-01  2.343285e-01  -2.058400e-01  -1.135131e-01  3.866997e-01  -2.581841e-01  4.958741e-02  6.391075e-02  1.678665e-01  2.242184e-02  5.406624e-02  -2.307429e-02  9.668722e-02  -1.198562e-01  1.566896e-03  -2.243215e-01  -9.394869e-03  2.617836e-01  1.937910e-01  2.409270e-02  5.443550e-02  1.176858e-01  2.775647e-01  -2.228325e-01  -1.327651e-01  -1.178399e-01  -6.499404e-02  4.849752e-02  1.796678e-02  1.734512e-01  1.314822e-02  -2.203285e-01  2.809474e-01  6.710619e-02  -2.441404e-02  1.942014e-01  -2.593123e-03  2.080852e-02  2.522356e-01  7.964738e-02  3.273581e-02  -2.967805e-01  2.854972e-01  5.203556e-02  -1.478521e-01  1.033971e-01  1.952657e-01  1.067606e-01  -1.270103e-01  -7.323931e-02  3.804442e-01  -2.849632e-01  1.459547e-01  1.895877e-01  -3.462645e-01  3.036304e-01  1.484955e-01  9.655072e-02  -1.506501e-01  -2.269195e-01  1.100235e-01  -6.789505e-02  1.411050e-01  2.112491e-01  -2.377071e-01  8.841225e-02  1.460128e-01  1.322433e-01  -9.294129e-01  3.025665e-01  1.372821e-01  1.674590e-01  8.353916e-03  -5.071970e-01  -1.757130e-01  -1.309496e-02  -1.505756e-01  2.599316e-01  1.380747e-01  1.152684e-01  -5.884132e-01  5.749137e-01  2.460888e-02  -7.291351e-02  -1.423123e-01  -2.173363e-01  9.011181e-02  1.372629e-02  -1.368189e-01  -8.940451e-02  1.532284e-01  -6.756544e-02  -1.683829e-01  -4.572958e-03  1.363837e-01  2.174347e-01  3.635722e-02  7.978396e-02  -1.515393e-01  1.496043e-01  2.379788e-01  1.687335e-01  7.880053e-02  1.443008e-01  4.999198e-02  -1.468301e+00  3.154235e-02  1.404368e-01  -5.186753e-02  -2.990462e-01  9.842814e-02  1.676367e-01  -1.799643e-01  -7.613961e-02  6.816677e-02  -2.195077e-01  -1.076456e-01  1.107385e-01  -5.312079e-01  2.445654e-01  -9.751044e-02  2.004116e-01  4.668987e-01  1.666157e-01  3.958206e-02  -1.431063e-01  1.316253e-01  2.088359e-01  -5.282512e-01  1.215354e-01  -1.603335e-01  4.249776e-02  2.774444e-01  1.196830e-01  -2.695754e-01  -6.535371e-02  9.174265e-02  3.893048e-02  5.759292e-02  -1.392631e-01  -1.605390e-01  -3.191669e-01  -6.397416e-02  -6.058550e-02  2.792956e-02  -1.724965e-01  1.728302e-02  -1.268838e-01  1.329469e-01  -1.534696e-01  3.387556e-02  3.374911e-01  -4.226649e-02  -1.259789e-03  1.274949e-01  -8.062900e-01  -1.760017e-01  2.168658e-01  -1.519698e-01  -7.390077e-02  2.075619e-01  -3.275307e-01  1.717781e-01  -2.732881e-01  -1.756082e-01  -2.512924e-01  -8.920328e-02  1.067614e-01  5.762868e-02  2.170477e-01  8.934261e-02  -6.430294e-02  2.211893e-01  1.307894e-01  -7.996143e-02  1.498341e-01  1.558770e-01  2.769372e-01  -4.085379e-01  -8.240807e-02  4.791132e-01  -4.394218e-02  6.949751e-02  2.149586e-01  -5.591747e-02  2.215887e-01  3.280081e-01  1.298575e-01  1.234248e-01  3.004334e-01  -6.823055e-03  -5.965522e-01  2.944747e-01  2.700662e-01  5.868063e-02  -8.567408e-03  1.415719e-01  7.303821e-02  1.408207e-01  -3.257374e-03  -1.938734e-01  -9.687577e-02  -1.479097e-01  1.550470e-01  2.986096e-02  -2.383863e-01  1.100584e-01  3.060673e-01  -1.692276e-01  2.316074e-01  -2.870899e-02  6.667982e-02  9.870946e-02  -3.479008e-01  1.197395e-01  -4.897516e-02  -8.319529e-02  1.202607e-01  -5.636731e-01  -2.688914e-01  7.472730e-03  -1.704576e-01  6.604963e-02  9.911753e-03  5.927237e-02  1.683683e-01  1.153667e-01  2.045110e-02  1.570770e-01  -3.560592e-03  1.103529e-01  -8.842276e-02  9.556035e-02  -1.616690e-02  1.585577e-02  2.599045e-02  1.406233e-01  3.345387e-01  2.509793e-01  -8.734133e-01  -2.376857e-01  -1.419426e-01  4.816656e-02  -1.060306e-01  2.536660e-01  1.443475e-01  -8.521878e-02  7.007334e-02  -1.922741e-01  -2.523392e-01  1.565229e-01  -1.304072e-01  -1.559099e-01  -8.068933e-02  6.316499e-02  -2.555742e-01  -7.042544e-02  7.108851e-02  1.713809e-02  7.065839e-02  1.738704e-01  -4.386751e-02  -3.460792e-02  1.955599e-01  -1.715064e-01  -1.164152e-01  8.583705e-02  5.914208e-02  5.328460e-02  -1.748685e-01  1.071129e-02  -1.882010e-01  -9.094731e-03  1.016152e-01  -1.740108e-01  -1.934833e-01  -1.094697e-01  -1.479382e-01  1.035130e-01  -1.365524e-01  -1.926046e-01  -2.639295e-02  4.025276e-02  -1.620936e-01  -2.145131e-01  -1.983593e-01  -7.351461e-04  1.745606e-01  1.420851e-01  1.440183e-01  -8.077545e-03  -1.344518e-01  -6.433606e-02  -7.043590e-02  -2.200416e-01  1.314168e-01  1.439682e-01  3.782750e-02  7.870483e-02  5.209708e-02  1.836573e-01  -2.233804e-02  -2.154330e-01  1.151653e-01  1.903836e-01  -4.675228e-01  -4.159630e-01  1.218769e-01  3.038945e-02  1.642332e-01  -6.705575e-02  -4.564244e-02  2.045367e-01  -2.163605e-01  2.518498e-01  -1.226495e-01  4.941822e-02  8.264921e-02  -3.764869e-01  -2.973359e-01  -7.607868e-04  -1.015032e-01  6.334729e-02  -2.728639e-02  7.375818e-02  -7.840128e-02  1.673729e-01  -1.612982e-01  5.334388e-02  -1.371165e-01  2.482723e-01  -1.024156e-01  1.578013e-01  -1.891049e-01  -1.687955e-01  1.030955e-01  -1.179730e-02  3.616170e-01  2.034692e-01  -2.602647e-01  -2.635891e-01  -9.713082e-02  -1.261296e-01  1.332951e-01  1.244811e-01  1.590795e-01  1.260671e-02  -1.392086e-01  4.907193e-02  5.598087e-03  4.888788e-01  -2.959182e-01  4.169213e-02  -5.569879e-02  2.105037e-01  -2.278173e-01  -1.155412e-01  4.040958e-01  3.343381e-02  -1.270111e-01  3.694701e-02  -6.290404e-02  1.421063e-04  -4.024343e-01  -5.526068e-02  -1.975128e-01  7.319274e-02  -2.119486e-01  -7.724813e-01  -1.846598e-01  1.774378e-01  -3.976051e-02  -3.584841e-01  -1.152127e-01  -2.393546e-01  3.067864e-02  7.957029e-02  1.995580e-01  4.211063e-01  2.970374e-01  1.197763e-01  3.538398e-01  -6.728019e-02  -2.400589e-05  8.531398e-02  -1.816336e-01  -1.182171e-01  1.419434e-01  3.106967e-01  4.136319e-01  3.756797e-01  2.541200e-02  1.602177e-02  -8.027360e-02  2.510449e-01  1.292202e-01  -9.233111e-01  -6.972554e-02  9.780318e-02  1.722215e-01  3.585958e-01  -6.580140e-02  1.845728e-01  -3.730825e-02  5.625064e-02  -1.786854e-01  4.238423e-02  1.251666e-01  7.066839e-03  3.552862e-02  1.761227e-01  3.171580e-02  6.342439e-02  -2.367369e-01  -5.475126e-01  -1.780531e-01  1.949131e-01  7.928064e-02  -1.003847e+00  -1.277534e-01  7.100950e-02  -2.126405e-01  -3.387996e-03  -5.635926e-01  3.065417e-01  -3.043169e-02  1.021132e-01  2.178026e-01  -4.620793e-01  8.631532e-03  -2.553418e-01  -3.198440e-02  -6.384365e-02  -1.659127e-01  1.254916e-01  -1.740994e-01  -3.445558e-02  2.140824e-02  2.073043e-01  -4.635324e-02  -1.055432e-01  -1.989723e-01  1.871387e-01  9.495945e-02  5.951566e-02  -5.983451e-02  1.868463e-01  1.963997e-01  3.578320e-02  2.800491e-01  5.636705e-02  -4.373495e-01  3.187019e-02  -8.126555e-03  1.598455e-02  2.376063e-01  5.034951e-03  -1.773786e-03  1.300830e-01  -1.969793e-01  1.154841e-01  -1.843089e-01  2.449321e-01  -2.158018e-01  -6.043547e-02  2.003872e-01  -1.498505e-01  -6.222638e-03  -5.294651e-01  -1.860660e-01  -2.631462e-01  -2.532156e-01  1.323757e-01  1.213724e-02  -3.164061e-01  1.992073e-01  -1.185715e-01  -6.146992e-02  4.910408e-01  1.533698e-01  -1.809301e-01  -2.716938e-01  2.333474e-01  -2.904183e-01  6.801859e-02  7.195937e-02  -1.078783e-01  1.150569e-01  1.051645e-01  1.956383e-02  2.869418e-01  1.749489e-01  -1.469389e-01  1.193178e-01  2.946402e-01  7.779330e-02  -2.306438e-01  3.141209e-01  -4.612900e-02  1.469271e-01  1.483645e-02  -3.455338e-01  -2.031267e-02  -1.166873e-01  -1.213082e+00  -3.596612e-01  2.423918e-01  -9.732527e-02  7.070982e-02  -3.604855e-01  3.399238e-02  1.908029e-01  -3.668153e-02  -1.429805e-01  -2.408793e-01  -4.198484e-02  3.274659e-01  -8.661784e-01  -7.506299e-01  -4.155229e-01  1.425277e-01  3.187060e-02  2.340214e-01  -3.310177e-01  3.508612e-02  2.365108e-01  1.034675e-01  7.650319e-02  -1.715289e-01  1.563176e-02  -7.872364e-02  3.903785e-01  1.760506e-01  1.555731e-01  -8.056838e-02  1.666909e-01  3.235101e-01  2.283304e-01  2.064315e-01  -2.185467e-01  3.301179e-02  -1.597350e-01  1.087041e-01  -1.357005e-02  5.151267e-02  3.104262e-01  6.998266e-02  -1.325375e-01  6.764969e-03  2.073646e-01  -2.497807e-01  1.513954e-01  -4.887747e-03  9.473401e-02  1.402188e-01  -3.823287e-02  2.898076e-01  5.354538e-01  6.274626e-03  5.893366e-02  6.214653e-02  -3.684331e-01  -1.916566e-01  -1.806200e-01  1.553947e-01  -5.864333e-01  3.909498e-02  -1.321104e-01  -3.460484e-01  -4.662349e-02  6.486777e-02  -8.065141e-02  -3.129556e-01  2.775915e-01  -3.912100e-01  9.236588e-02  3.260390e-02  1.820938e-01  -5.599393e-02  2.884616e-01  1.273907e-01  -5.473377e-01  -1.400724e-01  8.408367e-02  -1.074711e-01  -1.456224e-01  -2.338150e-01  -4.476899e-02  -3.471116e-01  4.003583e-01  -1.859761e-04  3.161154e-01  -2.879678e-02  2.663179e-01  -1.062442e-01  -9.683290e-02  3.073573e-02  -1.998437e-01  -2.927306e-01  9.195658e-02  -1.372413e-01  -8.968423e-02  3.657940e-02  1.022008e-01  -2.059839e-02  1.414342e-01  6.097444e-02  1.483021e-01  1.145354e-01  -8.162902e-02  2.765278e-01  1.128310e-01  -1.030768e-01  -1.900978e-01  -3.789199e-02  1.743762e-01  5.359480e-02  8.369043e-02  -1.131082e-01  9.236182e-02  1.798652e-02  -3.351288e-01  -3.823606e-02  -1.374808e-01  -1.048059e-01  -2.713423e-02  1.664861e-01  1.145175e-01  -9.849017e-02  -1.596450e-01  2.338096e-01  1.576705e-03  2.479787e-01  -2.547364e-02  4.028460e-03  1.090513e-01  2.091907e-01  1.920104e-01  -1.454499e-01  -2.997321e-01  2.772198e-01  -9.042761e-03  1.896140e-01  -2.795083e-02  1.835981e-01  1.183037e-01  2.405890e-01  2.340277e-01  1.716495e-01  1.752084e-01  -1.810386e-01  -3.409470e-02  8.654249e-02  1.975478e-01  1.047254e-01  -2.089735e-01  -1.681480e-01  -4.229454e-02  2.331440e-01  -3.005401e-01  -1.084407e-01  -9.003511e-02  1.797695e-01  -1.413116e-01  9.707543e-02  1.299043e-01  -6.066835e-02  3.084037e-02  -1.973211e-01  -7.643002e-02  2.362893e-01  2.625889e-01  2.047278e-01  -1.462788e-01  2.412431e-02  8.642715e-02  1.226279e-01  2.228165e-01  1.916729e-01  1.875879e-01  1.538103e-01  -3.287412e-01  -1.069904e-01  -1.711059e-01  -1.420859e-01  8.651436e-02  -4.628948e-02  -4.391725e-02  -5.775296e-02  -1.636741e-01  -1.664804e-01  -1.300345e-01  9.384236e-02  -5.214281e-03  1.236713e-01  2.241786e-01  -6.023539e-02  1.944865e-01  -2.013765e-02  1.749029e-01  -2.860653e-01  -8.394665e-02  1.994625e-01  1.660780e-01  1.554423e-01  3.013977e-01  7.362618e-02  1.303807e-02  6.690878e-02  -1.740411e-01  8.840079e-02  -4.075380e-02  1.953416e-01  -1.661456e-01  -1.809917e-01  4.793284e-01  2.263537e-01  -1.859266e-01  -3.329943e-01  5.171094e-02  7.278850e-02  -1.417035e-01  -1.957525e-01  1.240072e-01  -1.149258e-01  7.498957e-03  -1.868246e-01  1.930601e-01  2.359719e-01  2.987056e-02  -1.991896e-01  -2.062619e-01  1.567102e-01  1.093389e-01  1.296296e-01  -1.006269e-01  4.761394e-02  -1.382938e-01  -2.609042e-01  8.695553e-02  9.731796e-02  1.599771e-02  -5.587607e-02  -1.787935e-01  4.864868e-02  -2.174960e-01  2.063458e-01  -9.136213e-02  9.247313e-02  2.692330e-01  -2.081866e-01  -2.685934e-02  -2.699050e-01  9.433135e-02  1.132302e-01  -4.026668e-02  6.978445e-02  -1.525640e-01  -2.291626e-01  1.079246e-01  -2.007653e-01  2.125251e-01  -1.771281e-01  2.897676e-01  -5.375279e-02  8.147266e-02  1.666180e-01  -8.871192e-02  -7.438509e-01  -1.627662e-01  -9.684294e-02  1.213534e-01  -4.677857e-02  1.652092e-01  -1.347596e-01  2.587350e-02  -1.811885e-02  4.585063e-02  -1.014795e-02  1.239973e-02  9.643096e-03  -1.144628e-01  8.275989e-02  -7.847188e-02  3.280209e-02  -2.492862e-01  -7.733139e-02  8.599428e-02  -4.566515e-02  4.279236e-01  1.231470e-01  1.655787e-01  1.557473e-01  2.769140e-01  6.642426e-02  1.943129e-01  9.444450e-02  2.518771e-01  -2.885840e-01  -1.055873e-01  -1.682709e-01  -2.748200e-03  1.271539e-01  2.460937e-01  5.374651e-02  1.816587e-01  -1.201936e-01  1.362362e-01  2.537496e-01  2.695391e-01  4.340583e-02  -2.349810e-02  -1.977295e-01  3.825900e-01  9.152357e-02  1.829905e-01  -7.702176e-02  4.775034e-02  1.733824e-01  1.538028e-01  3.198140e-03  -1.996462e-01  -1.273501e-01  2.195988e-01  -2.158454e-01  -8.547323e-02  2.050053e-01  1.230356e-01  3.107701e-02  2.395812e-01  1.827951e-01  -2.805898e-01  1.271299e-01  -2.308602e-01  1.180615e-01  -2.979650e-01  -1.639293e-02  -1.096991e-01  -2.885707e-01  5.002277e-02  1.384893e-01  1.883190e-01  8.496734e-02  1.069511e-01  2.644859e-03  -6.888415e-02  -3.018543e-01  9.918606e-02  2.260955e-01  -1.664483e-01  -4.736678e-01  -4.162995e-01  1.655053e-01  -1.641904e-01  2.692869e-01  -4.896596e-01  9.722936e-02  1.308637e-01  -1.032892e-02  1.115412e-01  -1.889431e-02  1.101301e-01  -5.492623e-01  -2.410572e-01  -1.357400e-01  -1.202942e-01  7.395234e-02  -3.409139e-02  -1.608697e-01  -9.280223e-01  -4.302184e-01  2.054846e-01  -4.940760e-01  -3.094578e-01  -9.600985e-02  1.149105e-01  -1.435974e-01  -5.491119e-03  1.089434e-01  -4.634973e-04  1.418716e-01  -4.934736e-01  -4.401416e-01  -5.445361e-01  -1.898807e-02  2.810737e-01  -2.482754e-01  -8.415918e-02  4.325889e-02  -3.700457e-01  -2.696976e-01  2.930703e-01  2.948391e-01  -1.582740e-01  1.744993e-01  -1.420615e-01  3.076268e-01  3.382596e-02  -2.019270e-01  -1.625922e-01  2.804611e-01  -3.159918e-01  2.144795e-01  2.435549e-01  -4.930211e-02  2.836390e-01  4.864910e-02  2.209195e-01  -1.109274e-01  3.519495e-02  1.070272e-01  1.347308e-01  8.474955e-03  -4.986274e-01  2.096301e-01  4.021702e-01  -2.897518e-01  -8.655351e-02  -8.896425e-01  -3.130863e-01  1.007177e-01  -1.546744e-01  -3.337799e-02  -1.266827e-01  -2.845269e-01  2.873558e-01  -8.678672e-02  4.006743e-02  2.485788e-01  -4.894089e-02  -1.839038e-01  -3.142865e-01  6.480054e-02  4.259029e-02  -2.649702e-02  9.857631e-02  -6.474849e-02  1.346908e-01  -3.415858e-02  -2.780123e-01  3.823387e-01  -1.333250e-01  -1.611751e-02  -2.045766e-01  -5.749434e-02  1.501508e-01  5.084290e-02  -2.007855e-01  -1.253986e-01  -1.997337e-01  1.694229e-01  -2.620998e-01  -5.246035e-02  2.408854e-01  2.609308e-01  -2.171636e-02  -1.632142e-01  -3.071348e-02  -2.622510e-02  -7.930534e-02  1.441180e-01  -2.507778e-01  2.824047e-01  -2.309667e-01  -7.414626e-02  -3.671335e-01  2.236824e-01  1.957924e-01  -8.395886e-02  -1.724669e-01  7.063181e-02  -2.273923e-02  -7.883431e-03  1.472596e-01  -5.117301e-01  -1.980061e-02  9.814567e-02  1.262507e-01  2.381115e-01  8.234031e-02  1.383027e-01  1.132509e-02  -2.960774e-02  1.192978e-01  -6.677777e-03  -4.685414e-02  -4.693417e-02  -1.206109e-01  -3.015930e-01  2.861041e-01  8.622332e-02  1.147787e-01  -3.879781e-01  6.410698e-03  -1.122980e-01  -4.973658e-02  3.291092e-02  -2.112374e-01  -2.008065e-01  -6.867123e-03  2.251991e-01  -2.458321e-01  5.203717e-02  -1.357571e-01  -2.355718e-01  -1.481384e-01  1.786288e-01  4.124204e-02  -2.401473e-01  1.535680e-01  2.887695e-02  -1.642335e-01  -2.683319e-02  -1.968552e-01  1.710139e-02  -1.465559e-01  2.157705e-01  -2.421834e-01  -2.241361e-01  4.044388e-02  8.453090e-02  -2.135091e-01  -1.116061e-01  8.921202e-02  -1.559608e-01  -1.427258e-01  -2.271638e-01  1.254071e-01  -3.533763e-02  1.655791e-01  8.441353e-02  -1.713440e-01  4.636557e-02  -1.985443e-01  1.150792e-01  -1.133595e-01  -4.399438e-02  1.909142e-01  -2.371558e-01  1.160454e-01  7.313126e-02  -2.516118e-01  1.655425e-01  1.687013e-01  -2.380610e-01  8.793247e-02  1.178877e-02  -1.757288e-01  2.842790e-01  8.641005e-02  5.461730e-02  1.580641e-01  9.396970e-02  -2.028792e-02  -1.266130e-02  1.490437e-01  1.779388e-01  5.043730e-03  3.201824e-02  1.606290e-02  2.055689e-01  5.980464e-02  2.824802e-03  1.503249e-01  1.395243e-01  -3.022352e-01  -2.133725e-01  1.292051e-01  4.747571e-01  2.480621e-01  1.373912e-01  -9.788753e-02  7.786736e-02  1.934018e-01  -3.497245e-02  5.737462e-02  1.454608e-01  -6.367435e-02  -9.039162e-02  1.098557e-01  -3.097361e-01  -3.186938e-01  1.218893e-01  -6.174135e-02  -7.670210e-02  -3.709025e-02  -1.234787e-01  -7.853488e-02  -2.167666e-01  2.291349e-01  -4.497566e-02  8.777174e-02  -3.800803e-02  1.678368e-01  1.286822e-01  -3.689640e-01  8.489606e-02  -5.145939e-02  -1.712233e-01  -1.939578e-01  -3.889989e-01  1.489956e-01  -2.839713e-01  -9.776956e-02  -8.920877e-02  1.165161e-01  8.456098e-03  -4.735480e-01  9.163946e-02  -2.004019e-01  -5.218218e-01  -3.146195e-01  -1.632333e-01  -3.941370e-01  -1.504063e-01  1.842163e-01  -3.188616e-01  -1.195248e-01  -2.118254e-01  -2.674286e-01  2.241787e-01  1.790030e-01  -1.745087e-01  -2.077931e-01  6.959236e-02  7.281297e-02  -1.699475e-01  -4.096676e-01  8.526708e-02  -1.269882e-01  2.815729e-01  -2.381032e-01  8.046647e-02  -9.910237e-02  -1.621071e-01  1.865488e-02  -5.751011e-01  1.848863e-01  8.485828e-02  1.847427e-01  4.556597e-02  2.517056e-01  7.524378e-02  1.890620e-01  -5.794753e-01  -1.022200e-01  -1.124789e-01  1.140333e-01  -1.789977e-01  -9.089980e-02  -2.733925e-01  1.799034e-01  1.012928e-01  -9.789221e-02  1.906268e-01  8.914135e-02  8.994896e-02  -3.290969e-02  -1.122303e-01  -7.064994e-02  -5.116416e-02  -6.361562e-02  3.048674e-01  -2.947691e-01  1.731552e-01  1.165973e-02  -2.683458e-01  3.672025e-02  2.534750e-01  -2.513905e-01  1.898546e-01  -3.568197e-02  -2.650481e-03  -1.894162e-01  -1.555112e-01  -1.191537e-01  1.363380e-01  2.865681e-01  1.958312e-02  1.305261e-01  -7.166643e-02  -4.203087e-02  1.641132e-01  8.805826e-02  -5.603689e-02  1.999173e-01  6.133015e-02  2.001895e-01  5.292523e-02  -2.370206e-01  3.526841e-02  7.706401e-02  1.539476e-01  -1.629180e-01  1.717899e-01  -1.117869e-01  -9.848235e-02  -5.131355e-02  2.045100e-01  1.319537e-01  -3.967918e-02  -4.459579e-01  -9.682573e-02  1.975273e-01  4.049200e-02  -9.788296e-02  2.731057e-01  -4.808722e-02  1.379324e-01  -4.070776e-01  1.584185e-01  -2.016278e-02  -3.812478e-01  4.228502e-01  1.057596e-01  9.860410e-02  1.111186e-01  1.578115e-01  -4.945020e-01  -1.213973e-01  -5.572498e-02  2.273079e-01  -3.253541e-01  2.970649e-01  -3.321243e-01  -3.309534e-02  1.831120e-01  -5.953717e-02  3.346572e-02  1.027833e-01  -7.390406e-01  -8.136555e-02  -2.075671e-01  -2.282768e-01  -5.020831e-01  -4.554311e-01  -1.736322e-02  -4.332171e-01  -2.935598e-01  9.276268e-01  1.938454e-01  1.848330e-01  3.420228e-01  4.053935e-02  -2.833536e-01  1.570723e-01  9.706648e-02  3.314518e-02  3.065282e-01  8.716694e-02  4.956401e-02  1.912959e-01  2.920770e-02  1.642243e-01  -2.096805e-02  -2.335436e-02  -1.257340e-01  -1.631666e-01  2.848099e-01  -1.937263e-01  1.159968e-01  1.811284e-01  -3.452954e-01  1.636883e-01  -2.498794e-01  -1.171744e-01  -1.395827e-01  8.560161e-02  -9.409168e-02  -1.372709e-01  -8.675734e-02  6.877954e-02  -1.166338e-01  -3.013809e-01  -1.910987e-01  -1.056589e-01  3.567088e-02  1.959233e-01  7.765450e-02  1.356506e-01  -1.000129e-01  2.098906e-01  1.713752e-01  1.541247e-01  -3.229114e-01  1.276827e-01  -3.964318e-02  1.915825e-01  1.733083e-01  -6.692629e-02  9.408964e-02  1.265410e-01  -1.611815e-01  1.318725e-01  6.657877e-04  1.193142e-01  -1.344806e+00  -3.893383e-02  9.092731e-02  1.793322e-01  4.622460e-01  -1.389280e-01  1.604688e-01  1.338731e-01  -8.490188e-02  -9.051716e-02  -4.982751e-01  -1.195067e-02  -3.632839e-01  -1.735515e-01  3.804695e-02  1.523077e-01  2.863792e-01  -1.498412e-01  -2.092293e-01  -3.327736e-01  -1.194988e-01  1.365459e-01  -1.568793e-01  2.054203e-01  8.956111e-02  -3.646035e-01  1.397438e-01  -6.712832e-01  -1.085252e-01  2.229352e-01  1.956294e-01  -1.663015e-01  -5.504990e-02  -2.828410e-01  -1.803769e-01  -2.638852e-01  1.251673e-02  -2.848201e-02  -9.148049e-02  1.367672e-01  -1.491164e-01  -2.097814e-01  -2.025746e-01  -5.409290e-02  2.484543e-02  1.442624e-01  3.287615e-02  1.088259e-02  -3.722065e-01  
      </Weights>
      <Biases Rows="50" Columns="1">
        1.233880e-01  4.892571e-02  4.040533e-02  -5.953449e-02  -4.237757e-02  7.239217e-02  -3.406406e-02  -7.479358e-02  -1.856433e-02  -4.976550e-02  9.726584e-02  -4.070907e-02  -1.051582e-02  1.040337e-01  1.228160e-02  1.002430e-01  -4.369772e-02  3.831145e-02  -3.254685e-02  1.744653e-02  1.608470e-02  -2.988356e-02  6.868305e-02  5.999655e-02  4.818805e-02  5.520664e-04  4.156604e-02  7.928079e-02  -3.733359e-02  1.088754e-01  1.024249e-01  1.051050e-01  9.276421e-02  -5.773845e-03  8.468290e-02  8.380111e-02  6.660135e-02  4.335527e-02  -4.640163e-02  9.188420e-03  -2.941370e-02  1.408513e-01  8.833636e-02  -1.955868e-02  -5.696514e-02  -3.725680e-02  1.241347e-01  -2.026781e-02  -1.848074e-02  -2.187865e-02  
      </Biases>
    </DenseLayer>
    <DenseLayer Width="6" ActivationFunction="0">
      <Weights Rows="6" Columns="50">
        -2.592930e-01  -2.829649e-01  2.733329e-01  3.821291e-01  -8.806474e-02  2.521424e-01  -4.347273e-02  5.755375e-01  2.382505e-03  -3.441711e-01  -3.196177e-01  1.421904e-02  3.527450e-02  -2.740940e-01  -1.117635e-04  -1.929021e-02  8.949349e-02  1.130865e-01  -9.698120e-02  3.358362e-02  4.487361e-01  3.157279e-01  3.225712e-01  4.748378e-02  3.783162e-01  1.328935e-01  -2.780373e-01  -2.080490e-01  -9.888226e-02  -3.025845e-01  1.712096e-03  -1.327208e-01  -1.039805e-01  2.184697e-01  1.701802e-01  -3.263600e-01  1.107313e-01  4.945511e-02  2.334227e-01  1.657724e-01  -2.769240e-01  -1.200769e-01  -1.667785e-01  1.479273e-01  2.243117e-01  4.842436e-01  -2.880332e-01  6.312407e-01  2.807814e-01  -3.656485e-02  -3.479134e-02  1.337274e-01  -5.066808e-01  5.792553e-01  -5.136391e-02  5.199161e-01  -2.617849e-01  -1.671024e-01  1.457800e-01  6.813177e-01  -4.010780e-01  -2.417080e-01  -8.063399e-01  3.927025e-01  8.890393e-02  3.233606e-02  -2.218010e-01  4.528819e-01  5.002304e-02  -1.889961e-01  -9.425087e-02  -3.267750e-01  -5.013306e-01  -3.045789e-01  -7.021472e-02  -5.016856e-01  -2.544838e-01  -2.386517e-01  2.240088e-01  -2.773316e-01  6.845471e-01  2.449686e-01  4.227557e-01  -1.772957e-01  -1.070568e-03  1.145654e-02  -2.918161e-01  -4.166475e-02  -4.573816e-02  1.555860e-01  -5.727082e-02  5.532305e-01  2.557766e-01  -1.890452e-01  2.215235e-01  -6.544065e-02  -5.956196e-02  -1.203445e-01  -3.519617e-01  5.759503e-01  1.177708e-01  -2.606576e-01  -1.641507e-01  2.017171e-01  -2.061096e-01  -1.562934e-01  2.452180e-01  9.712506e-03  -7.741814e-02  -7.602985e-02  2.397770e-01  -2.581688e-02  4.678078e-03  2.132105e-01  -2.851510e-01  1.647836e-01  -5.435125e-02  5.441064e-01  2.192747e-01  -9.430225e-02  4.529451e-02  -1.858257e-01  -1.005431e-01  1.749546e-01  1.662639e-01  4.409476e-01  2.487588e-02  -3.978705e-02  -2.748909e-01  2.001166e-01  -3.476217e-02  -4.998885e-02  -6.237986e-02  2.511522e-01  1.650974e-01  -3.285587e-01  2.408061e-02  -1.080983e-01  2.058625e-01  -3.169741e-01  -7.745203e-02  -1.211055e-01  1.207983e-01  8.206242e-02  1.183121e-01  -1.151616e-01  -1.370722e-01  -8.909892e-02  1.509055e-01  -5.800189e-01  1.229702e-01  -5.449589e-02  -1.069085e-01  1.802089e-02  7.191557e-02  7.237191e-03  2.603075e-02  7.774480e-02  -2.928758e-01  1.063065e-01  2.036029e-01  -3.007831e-01  -2.007665e-02  1.251909e-02  1.841618e-01  6.244117e-02  -1.020495e-01  -1.268966e-02  4.912824e-03  -1.495256e-03  3.261404e-02  5.124230e-04  -1.539084e-02  -8.226259e-02  3.633215e-02  -1.178587e-01  -2.458928e-02  -1.333563e-01  -2.034709e-01  -1.162687e-01  1.355612e-01  1.340315e-01  -1.778953e-02  1.511271e-02  7.812645e-02  6.950495e-02  1.532325e-01  -2.913974e-02  6.457724e-02  -5.975214e-02  -2.253999e-02  5.792127e-02  -3.446387e-02  3.410785e-02  -1.077326e-01  -5.404126e-02  -6.870639e-02  -1.150575e-02  -6.436442e-02  1.761299e-01  7.345685e-02  -1.179571e-01  -1.118429e-01  -7.309303e-02  6.361751e-02  3.570118e-01  -1.224148e-01  6.936955e-02  -2.072234e-01  1.473755e-01  2.306951e-01  -2.423305e-02  -6.466334e-02  1.362418e-01  1.620041e-01  -6.073438e-02  -4.543151e-02  1.343757e-01  -2.081477e-01  -2.723255e-01  -1.816607e-02  -1.185108e-01  2.327196e-01  9.549385e-02  1.462180e-01  -3.095549e-01  -1.811290e-01  -9.796943e-02  -1.044714e-01  1.232703e-01  9.849230e-02  -8.239216e-03  6.144141e-03  -5.234877e-02  2.509928e-02  2.278956e-01  1.344616e-01  2.006855e-01  -2.701203e-02  1.490345e-01  -8.023246e-03  -5.910190e-03  1.103853e-02  -1.106226e-01  8.358123e-03  -5.698442e-02  2.259768e-01  4.051540e-02  7.031189e-03  3.324575e-01  2.090771e-01  2.813681e-01  3.855521e-01  -4.327742e-01  -3.222738e-02  3.763306e-01  1.641406e-01  2.795635e-01  2.028303e-01  2.178325e-01  -3.263015e-01  6.611024e-02  -5.761520e-01  1.025603e-01  -1.492447e-01  -5.369664e-01  -8.715012e-02  6.310977e-01  -1.543972e-01  -5.496028e-01  5.281763e-01  2.280522e-01  -9.408338e-02  -3.602000e-01  5.668386e-01  6.647565e-03  -4.946792e-01  -7.514460e-03  -1.117864e-01  -4.976911e-02  2.112256e-01  3.827416e-01  1.394049e-01  9.441582e-01  -5.983912e-01  1.443590e-01  -2.528494e-01  -7.348703e-03  2.476462e-01  -1.832252e-01  6.404445e-01  1.106968e-01  1.648638e-02  9.920800e-02  -2.799501e-01  2.850168e-01  -1.919688e-01  1.210042e-02  7.902026e-02  -1.320087e-01  
      </Weights>
      <Biases Rows="6" Columns="1">
        -8.780790e-02  -3.460692e-02  -1.383922e-02  5.918382e-02  1.305215e-01  -4.526172e-02  
      </Biases>
    </DenseLayer>
  </Weights>
</MethodSetup>
