<?xml version="1.0"?>
<MethodSetup Method="DL::DNN_CPU">
  <GeneralInfo>
    <Info name="TMVA Release" value="4.2.1 [262657]"/>
    <Info name="ROOT Release" value="6.24/06 [399366]"/>
    <Info name="Creator" value="rshara01-local"/>
    <Info name="Date" value="Thu Sep 23 17:12:28 2021"/>
    <Info name="Host" value="Darwin christophers-mac-mini.home 20.6.0 Darwin Kernel Version 20.6.0: Wed Jun 23 00:26:27 PDT 2021; root:xnu-7195.141.2~5/RELEASE_ARM64_T8101 arm64"/>
    <Info name="Dir" value="/Users/rshara01-local/WORK/linacTune/tmva"/>
    <Info name="Training events" value="5000"/>
    <Info name="TrainingTime" value="1.36273813e+00"/>
    <Info name="AnalysisType" value="Regression"/>
  </GeneralInfo>
  <Options>
    <Option name="V" modified="Yes">True</Option>
    <Option name="VerbosityLevel" modified="No">Verbose</Option>
    <Option name="VarTransform" modified="Yes">N</Option>
    <Option name="H" modified="Yes">False</Option>
    <Option name="CreateMVAPdfs" modified="No">False</Option>
    <Option name="IgnoreNegWeightsInTraining" modified="No">False</Option>
    <Option name="InputLayout" modified="No">0|0|0</Option>
    <Option name="BatchLayout" modified="No">0|0|0</Option>
    <Option name="Layout" modified="Yes">RELU|50,RELU|50,RELU|50,LINEAR</Option>
    <Option name="ErrorStrategy" modified="Yes">SUMOFSQUARES</Option>
    <Option name="WeightInitialization" modified="Yes">XAVIERUNIFORM</Option>
    <Option name="RandomSeed" modified="No">0</Option>
    <Option name="ValidationSize" modified="No">20%</Option>
    <Option name="Architecture" modified="Yes">CPU</Option>
    <Option name="TrainingStrategy" modified="Yes">LearningRate=1e-3,Momentum=0.3,ConvergenceSteps=20,BatchSize=30,TestRepetitions=1,WeightDecay=0.0,Regularization=None,Optimizer=Adam</Option>
  </Options>
  <Variables NVar="3">
    <Variable VarIndex="0" Expression="RFQPAH_R" Label="RFQPAH_R" Title="RFQ phase" Unit="units" Internal="RFQPAH_R" Type="D" Min="1.28002930e+02" Max="1.90002441e+02"/>
    <Variable VarIndex="1" Expression="RFBPAH_R" Label="RFBPAH_R" Title="buncher phase" Unit="units" Internal="RFBPAH_R" Type="D" Min="2.15795898e+02" Max="2.58337402e+02"/>
    <Variable VarIndex="2" Expression="V5QSET_R" Label="V5QSET_R" Title="tank5 phase" Unit="units" Internal="V5QSET_R" Type="D" Min="-3.30000000e+01" Max="-2.85000000e+01"/>
  </Variables>
  <Spectators NSpec="6">
    <Spectator SpecIndex="0" Expression="RFQPAH_S" Label="RFQPAH_S" Title="RFQ phase Set" Unit="degrees" Internal="RFQPAH_S" Type="F" Min="1.28002930e+02" Max="1.90002441e+02"/>
    <Spectator SpecIndex="1" Expression="RFBPAH_S" Label="RFBPAH_S" Title="buncher phase Set" Unit="degrees" Internal="RFBPAH_S" Type="F" Min="2.14996277e+02" Max="2.56997131e+02"/>
    <Spectator SpecIndex="2" Expression="V5QSET_S" Label="V5QSET_S" Title="Tank 5 phase" Unit="degrees" Internal="V5QSET_S" Type="F" Min="-3.30000000e+01" Max="-2.85000000e+01"/>
    <Spectator SpecIndex="3" Expression="TO1IN_R" Label="TO1IN_R" Title="to1in" Unit="units" Internal="TO1IN_R" Type="F" Min="2.22277756e+01" Max="2.42592621e+01"/>
    <Spectator SpecIndex="4" Expression="TO5OUT_R" Label="TO5OUT_R" Title="to5out" Unit="units" Internal="TO5OUT_R" Type="F" Min="-4.08233719e+01" Max="3.42947617e+01"/>
    <Spectator SpecIndex="5" Expression="TO3IN_R" Label="TO3IN_R" Title="to3in" Unit="units" Internal="TO3IN_R" Type="F" Min="-1.02136169e+02" Max="1.00574913e+02"/>
  </Spectators>
  <Classes NClass="1">
    <Class Name="Regression" Index="0"/>
  </Classes>
  <Targets NTrgt="34">
    <Target TargetIndex="0" Expression="LMSM" Label="LMSM" Title="LMSM" Unit="" Internal="LMSM" Type="F" Min="1.34887695e+00" Max="3.99658203e+01"/>
    <Target TargetIndex="1" Expression="D7TOR_R" Label="D7TOR_R" Title="D7TOR_R" Unit="" Internal="D7TOR_R" Type="F" Min="2.41185451e+00" Max="2.93067665e+01"/>
    <Target TargetIndex="2" Expression="TO1IN_R" Label="TO1IN_R" Title="to1in" Unit="mA" Internal="TO1IN_R" Type="F" Min="2.22277756e+01" Max="2.42592621e+01"/>
    <Target TargetIndex="3" Expression="TO3IN_R" Label="TO3IN_R" Title="to3in" Unit="mA" Internal="TO3IN_R" Type="F" Min="-1.02136169e+02" Max="1.00574913e+02"/>
    <Target TargetIndex="4" Expression="TO5OUT_R" Label="TO5OUT_R" Title="to5out" Unit="mA" Internal="TO5OUT_R" Type="F" Min="-4.08233719e+01" Max="3.42947617e+01"/>
    <Target TargetIndex="5" Expression="D00LM_R" Label="D00LM_R" Title="d00lm" Unit="" Internal="D00LM_R" Type="F" Min="3.05175781e-03" Max="8.72802734e-01"/>
    <Target TargetIndex="6" Expression="D11LM_R" Label="D11LM_R" Title="d11lm" Unit="" Internal="D11LM_R" Type="F" Min="1.52587891e-02" Max="4.36401367e-01"/>
    <Target TargetIndex="7" Expression="D12LM_R" Label="D12LM_R" Title="d12lm" Unit="" Internal="D12LM_R" Type="F" Min="-3.35693359e-02" Max="1.09863281e-01"/>
    <Target TargetIndex="8" Expression="D13LM_R" Label="D13LM_R" Title="d13lm" Unit="" Internal="D13LM_R" Type="F" Min="-5.31005859e-01" Max="1.22680664e+00"/>
    <Target TargetIndex="9" Expression="D14LM_R" Label="D14LM_R" Title="d14lm" Unit="" Internal="D14LM_R" Type="F" Min="3.66210938e-02" Max="2.82287598e+00"/>
    <Target TargetIndex="10" Expression="D21LM_R" Label="D21LM_R" Title="d21lm" Unit="" Internal="D21LM_R" Type="F" Min="-7.78198242e-01" Max="2.07519531e+00"/>
    <Target TargetIndex="11" Expression="D22LM_R" Label="D22LM_R" Title="d22lm" Unit="" Internal="D22LM_R" Type="F" Min="-1.01318359e+00" Max="1.28479004e+00"/>
    <Target TargetIndex="12" Expression="D23LM_R" Label="D23LM_R" Title="d23lm" Unit="" Internal="D23LM_R" Type="F" Min="-3.78417969e-01" Max="2.17590332e+00"/>
    <Target TargetIndex="13" Expression="D24LM_R" Label="D24LM_R" Title="d24lm" Unit="" Internal="D24LM_R" Type="F" Min="-4.82177734e-01" Max="5.20324707e+00"/>
    <Target TargetIndex="14" Expression="D31LM_R" Label="D31LM_R" Title="d31lm" Unit="" Internal="D31LM_R" Type="F" Min="-1.19018555e-01" Max="5.14526367e+00"/>
    <Target TargetIndex="15" Expression="D32LM_R" Label="D32LM_R" Title="d32lm" Unit="" Internal="D32LM_R" Type="F" Min="-4.39453125e-01" Max="1.09558105e+00"/>
    <Target TargetIndex="16" Expression="D33LM_R" Label="D33LM_R" Title="d33lm" Unit="" Internal="D33LM_R" Type="F" Min="4.27246094e-02" Max="8.26721191e+00"/>
    <Target TargetIndex="17" Expression="D34LM_R" Label="D34LM_R" Title="d34lm" Unit="" Internal="D34LM_R" Type="F" Min="1.00708008e-01" Max="8.34045410e+00"/>
    <Target TargetIndex="18" Expression="D41LM_R" Label="D41LM_R" Title="d41lm" Unit="" Internal="D41LM_R" Type="F" Min="-8.36181641e-01" Max="2.24914551e+00"/>
    <Target TargetIndex="19" Expression="D42LM_R" Label="D42LM_R" Title="d42lm" Unit="" Internal="D42LM_R" Type="F" Min="-8.20922852e-01" Max="2.65502930e+00"/>
    <Target TargetIndex="20" Expression="D43LM_R" Label="D43LM_R" Title="d43lm" Unit="" Internal="D43LM_R" Type="F" Min="-7.14111328e-01" Max="8.05664062e+00"/>
    <Target TargetIndex="21" Expression="D44LM_R" Label="D44LM_R" Title="d44lm" Unit="" Internal="D44LM_R" Type="F" Min="-4.57763672e-02" Max="1.87988281e+00"/>
    <Target TargetIndex="22" Expression="D51LM_R" Label="D51LM_R" Title="d51lm" Unit="" Internal="D51LM_R" Type="F" Min="-9.30786133e-01" Max="2.29797363e+00"/>
    <Target TargetIndex="23" Expression="D52LM_R" Label="D52LM_R" Title="d52lm" Unit="" Internal="D52LM_R" Type="F" Min="-5.18798828e-02" Max="1.70898438e+00"/>
    <Target TargetIndex="24" Expression="D53LM_R" Label="D53LM_R" Title="d53lm" Unit="" Internal="D53LM_R" Type="F" Min="-2.44140625e-02" Max="3.40881348e+00"/>
    <Target TargetIndex="25" Expression="D54LM_R" Label="D54LM_R" Title="d54lm" Unit="" Internal="D54LM_R" Type="F" Min="6.10351562e-03" Max="1.06964111e+01"/>
    <Target TargetIndex="26" Expression="D61LM_R" Label="D61LM_R" Title="d61lm" Unit="" Internal="D61LM_R" Type="F" Min="-1.03759766e-01" Max="2.25219727e+00"/>
    <Target TargetIndex="27" Expression="D62LM_R" Label="D62LM_R" Title="d62lm" Unit="" Internal="D62LM_R" Type="F" Min="-7.32421875e-02" Max="1.02844238e+00"/>
    <Target TargetIndex="28" Expression="D63LM_R" Label="D63LM_R" Title="d63lm" Unit="" Internal="D63LM_R" Type="F" Min="-9.88769531e-01" Max="1.12823486e+01"/>
    <Target TargetIndex="29" Expression="D64LM_R" Label="D64LM_R" Title="d64lm" Unit="" Internal="D64LM_R" Type="F" Min="1.77001953e-01" Max="1.37634277e+00"/>
    <Target TargetIndex="30" Expression="D71LM_R" Label="D71LM_R" Title="d71lm" Unit="" Internal="D71LM_R" Type="F" Min="-3.05175781e-03" Max="2.04467773e-01"/>
    <Target TargetIndex="31" Expression="D72LM_R" Label="D72LM_R" Title="d72lm" Unit="" Internal="D72LM_R" Type="F" Min="2.44140625e-02" Max="9.32617188e+00"/>
    <Target TargetIndex="32" Expression="D73LM_R" Label="D73LM_R" Title="d73lm" Unit="" Internal="D73LM_R" Type="F" Min="-3.05175781e-02" Max="1.73950195e-01"/>
    <Target TargetIndex="33" Expression="D74LM_R" Label="D74LM_R" Title="d74lm" Unit="" Internal="D74LM_R" Type="F" Min="1.83105469e-02" Max="3.69262695e-01"/>
  </Targets>
  <Transformations NTransformations="1">
    <Transform Name="Normalize">
      <Selection>
        <Input NInputs="37">
          <Input Type="Variable" Label="RFQPAH_R" Expression="RFQPAH_R"/>
          <Input Type="Variable" Label="RFBPAH_R" Expression="RFBPAH_R"/>
          <Input Type="Variable" Label="V5QSET_R" Expression="V5QSET_R"/>
          <Input Type="Target" Label="LMSM" Expression="LMSM"/>
          <Input Type="Target" Label="D7TOR_R" Expression="D7TOR_R"/>
          <Input Type="Target" Label="TO1IN_R" Expression="TO1IN_R"/>
          <Input Type="Target" Label="TO3IN_R" Expression="TO3IN_R"/>
          <Input Type="Target" Label="TO5OUT_R" Expression="TO5OUT_R"/>
          <Input Type="Target" Label="D00LM_R" Expression="D00LM_R"/>
          <Input Type="Target" Label="D11LM_R" Expression="D11LM_R"/>
          <Input Type="Target" Label="D12LM_R" Expression="D12LM_R"/>
          <Input Type="Target" Label="D13LM_R" Expression="D13LM_R"/>
          <Input Type="Target" Label="D14LM_R" Expression="D14LM_R"/>
          <Input Type="Target" Label="D21LM_R" Expression="D21LM_R"/>
          <Input Type="Target" Label="D22LM_R" Expression="D22LM_R"/>
          <Input Type="Target" Label="D23LM_R" Expression="D23LM_R"/>
          <Input Type="Target" Label="D24LM_R" Expression="D24LM_R"/>
          <Input Type="Target" Label="D31LM_R" Expression="D31LM_R"/>
          <Input Type="Target" Label="D32LM_R" Expression="D32LM_R"/>
          <Input Type="Target" Label="D33LM_R" Expression="D33LM_R"/>
          <Input Type="Target" Label="D34LM_R" Expression="D34LM_R"/>
          <Input Type="Target" Label="D41LM_R" Expression="D41LM_R"/>
          <Input Type="Target" Label="D42LM_R" Expression="D42LM_R"/>
          <Input Type="Target" Label="D43LM_R" Expression="D43LM_R"/>
          <Input Type="Target" Label="D44LM_R" Expression="D44LM_R"/>
          <Input Type="Target" Label="D51LM_R" Expression="D51LM_R"/>
          <Input Type="Target" Label="D52LM_R" Expression="D52LM_R"/>
          <Input Type="Target" Label="D53LM_R" Expression="D53LM_R"/>
          <Input Type="Target" Label="D54LM_R" Expression="D54LM_R"/>
          <Input Type="Target" Label="D61LM_R" Expression="D61LM_R"/>
          <Input Type="Target" Label="D62LM_R" Expression="D62LM_R"/>
          <Input Type="Target" Label="D63LM_R" Expression="D63LM_R"/>
          <Input Type="Target" Label="D64LM_R" Expression="D64LM_R"/>
          <Input Type="Target" Label="D71LM_R" Expression="D71LM_R"/>
          <Input Type="Target" Label="D72LM_R" Expression="D72LM_R"/>
          <Input Type="Target" Label="D73LM_R" Expression="D73LM_R"/>
          <Input Type="Target" Label="D74LM_R" Expression="D74LM_R"/>
        </Input>
        <Output NOutputs="37">
          <Output Type="Variable" Label="RFQPAH_R" Expression="RFQPAH_R"/>
          <Output Type="Variable" Label="RFBPAH_R" Expression="RFBPAH_R"/>
          <Output Type="Variable" Label="V5QSET_R" Expression="V5QSET_R"/>
          <Output Type="Target" Label="LMSM" Expression="LMSM"/>
          <Output Type="Target" Label="D7TOR_R" Expression="D7TOR_R"/>
          <Output Type="Target" Label="TO1IN_R" Expression="TO1IN_R"/>
          <Output Type="Target" Label="TO3IN_R" Expression="TO3IN_R"/>
          <Output Type="Target" Label="TO5OUT_R" Expression="TO5OUT_R"/>
          <Output Type="Target" Label="D00LM_R" Expression="D00LM_R"/>
          <Output Type="Target" Label="D11LM_R" Expression="D11LM_R"/>
          <Output Type="Target" Label="D12LM_R" Expression="D12LM_R"/>
          <Output Type="Target" Label="D13LM_R" Expression="D13LM_R"/>
          <Output Type="Target" Label="D14LM_R" Expression="D14LM_R"/>
          <Output Type="Target" Label="D21LM_R" Expression="D21LM_R"/>
          <Output Type="Target" Label="D22LM_R" Expression="D22LM_R"/>
          <Output Type="Target" Label="D23LM_R" Expression="D23LM_R"/>
          <Output Type="Target" Label="D24LM_R" Expression="D24LM_R"/>
          <Output Type="Target" Label="D31LM_R" Expression="D31LM_R"/>
          <Output Type="Target" Label="D32LM_R" Expression="D32LM_R"/>
          <Output Type="Target" Label="D33LM_R" Expression="D33LM_R"/>
          <Output Type="Target" Label="D34LM_R" Expression="D34LM_R"/>
          <Output Type="Target" Label="D41LM_R" Expression="D41LM_R"/>
          <Output Type="Target" Label="D42LM_R" Expression="D42LM_R"/>
          <Output Type="Target" Label="D43LM_R" Expression="D43LM_R"/>
          <Output Type="Target" Label="D44LM_R" Expression="D44LM_R"/>
          <Output Type="Target" Label="D51LM_R" Expression="D51LM_R"/>
          <Output Type="Target" Label="D52LM_R" Expression="D52LM_R"/>
          <Output Type="Target" Label="D53LM_R" Expression="D53LM_R"/>
          <Output Type="Target" Label="D54LM_R" Expression="D54LM_R"/>
          <Output Type="Target" Label="D61LM_R" Expression="D61LM_R"/>
          <Output Type="Target" Label="D62LM_R" Expression="D62LM_R"/>
          <Output Type="Target" Label="D63LM_R" Expression="D63LM_R"/>
          <Output Type="Target" Label="D64LM_R" Expression="D64LM_R"/>
          <Output Type="Target" Label="D71LM_R" Expression="D71LM_R"/>
          <Output Type="Target" Label="D72LM_R" Expression="D72LM_R"/>
          <Output Type="Target" Label="D73LM_R" Expression="D73LM_R"/>
          <Output Type="Target" Label="D74LM_R" Expression="D74LM_R"/>
        </Output>
      </Selection>
      <Class ClassIndex="0">
        <Ranges>
          <Range Index="0" Min="1.2800292968750000e+02" Max="1.9000244140625000e+02"/>
          <Range Index="1" Min="2.1579589843750000e+02" Max="2.5833740234375000e+02"/>
          <Range Index="2" Min="-3.3000000000000000e+01" Max="-2.8500000000000000e+01"/>
          <Range Index="3" Min="1.3488769531250000e+00" Max="3.9965820312500000e+01"/>
          <Range Index="4" Min="2.4118545055389404e+00" Max="2.9306766510009766e+01"/>
          <Range Index="5" Min="2.2227775573730469e+01" Max="2.4259262084960938e+01"/>
          <Range Index="6" Min="-1.0213616943359375e+02" Max="1.0057491302490234e+02"/>
          <Range Index="7" Min="-4.0823371887207031e+01" Max="3.4294761657714844e+01"/>
          <Range Index="8" Min="3.0517578125000000e-03" Max="8.7280273437500000e-01"/>
          <Range Index="9" Min="1.5258789062500000e-02" Max="4.3640136718750000e-01"/>
          <Range Index="10" Min="-3.3569335937500000e-02" Max="1.0986328125000000e-01"/>
          <Range Index="11" Min="-5.3100585937500000e-01" Max="1.2268066406250000e+00"/>
          <Range Index="12" Min="3.6621093750000000e-02" Max="2.8228759765625000e+00"/>
          <Range Index="13" Min="-7.7819824218750000e-01" Max="2.0751953125000000e+00"/>
          <Range Index="14" Min="-1.0131835937500000e+00" Max="1.2847900390625000e+00"/>
          <Range Index="15" Min="-3.7841796875000000e-01" Max="2.1759033203125000e+00"/>
          <Range Index="16" Min="-4.8217773437500000e-01" Max="5.2032470703125000e+00"/>
          <Range Index="17" Min="-1.1901855468750000e-01" Max="5.1452636718750000e+00"/>
          <Range Index="18" Min="-4.3945312500000000e-01" Max="1.0955810546875000e+00"/>
          <Range Index="19" Min="4.2724609375000000e-02" Max="8.2672119140625000e+00"/>
          <Range Index="20" Min="1.0070800781250000e-01" Max="8.3404541015625000e+00"/>
          <Range Index="21" Min="-8.3618164062500000e-01" Max="2.2491455078125000e+00"/>
          <Range Index="22" Min="-8.2092285156250000e-01" Max="2.6550292968750000e+00"/>
          <Range Index="23" Min="-7.1411132812500000e-01" Max="8.0566406250000000e+00"/>
          <Range Index="24" Min="-4.5776367187500000e-02" Max="1.8798828125000000e+00"/>
          <Range Index="25" Min="-9.3078613281250000e-01" Max="2.2979736328125000e+00"/>
          <Range Index="26" Min="-5.1879882812500000e-02" Max="1.7089843750000000e+00"/>
          <Range Index="27" Min="-2.4414062500000000e-02" Max="3.4088134765625000e+00"/>
          <Range Index="28" Min="6.1035156250000000e-03" Max="1.0696411132812500e+01"/>
          <Range Index="29" Min="-1.0375976562500000e-01" Max="2.2521972656250000e+00"/>
          <Range Index="30" Min="-7.3242187500000000e-02" Max="1.0284423828125000e+00"/>
          <Range Index="31" Min="-9.8876953125000000e-01" Max="1.1282348632812500e+01"/>
          <Range Index="32" Min="1.7700195312500000e-01" Max="1.3763427734375000e+00"/>
          <Range Index="33" Min="-3.0517578125000000e-03" Max="2.0446777343750000e-01"/>
          <Range Index="34" Min="2.4414062500000000e-02" Max="9.3261718750000000e+00"/>
          <Range Index="35" Min="-3.0517578125000000e-02" Max="1.7395019531250000e-01"/>
          <Range Index="36" Min="1.8310546875000000e-02" Max="3.6926269531250000e-01"/>
        </Ranges>
      </Class>
    </Transform>
  </Transformations>
  <MVAPdfs/>
  <Weights NetDepth="4" InputDepth="1" InputHeight="1" InputWidth="3" BatchSize="1" BatchDepth="1" BatchHeight="30" BatchWidth="3" LossFunction="R" Initialization="F" Regularization="0" OutputFunction="I" WeightDecay="0.0000000000000000e+00">
    <DenseLayer Width="50" ActivationFunction="1">
      <Weights Rows="50" Columns="3">
        -1.496967e-02  4.221703e-03  1.847323e-02  -1.973762e-01  -1.703932e-01  3.702362e-01  -2.592624e-01  -1.234839e-01  -4.520268e-01  2.542832e-01  -4.448999e-01  2.818103e-01  1.258577e-01  -2.063189e-01  -1.305126e-01  2.520021e-01  -2.787786e-01  4.260687e-01  -2.823210e-01  1.533479e-01  4.524746e-01  4.075974e-01  -4.221875e-01  -3.719957e-01  -1.042418e-02  -4.239586e-01  7.533735e-02  -1.768438e-01  1.837867e-01  1.013355e-02  -4.926766e-02  1.062408e-01  5.882018e-01  -2.049255e-01  -2.925633e-01  3.577121e-01  3.975269e-01  -2.627237e-01  -3.064326e-02  -3.322567e-01  3.464049e-01  5.971337e-02  -6.768017e-02  -3.397695e-01  -4.175636e-01  1.483590e-01  -3.697533e-03  1.130297e-01  -4.352930e-01  3.378030e-01  -3.759206e-02  2.059473e-01  1.676034e-01  9.951466e-02  -3.389724e-01  -1.010253e-02  3.055038e-01  -2.491776e-01  2.256067e-01  -1.302068e-01  -1.634460e-01  1.693210e-01  -2.544188e-01  -3.049040e-04  -1.773690e-02  -4.631535e-01  3.967876e-01  1.997410e-01  -1.889278e-01  8.511305e-02  1.418872e-01  -3.790083e-01  2.173062e-01  -7.915945e-02  2.210852e-01  1.903625e-01  2.760325e-01  7.828879e-02  3.692108e-01  -3.621583e-01  -6.087538e-02  3.782784e-02  -6.876285e-02  9.194037e-03  3.262311e-01  -3.449462e-01  8.386489e-02  1.541836e-01  -1.994587e-01  8.771951e-02  -3.229768e-02  -5.365902e-01  5.574486e-02  1.217120e-01  2.167495e-01  7.718987e-01  -2.200509e-01  2.545305e-01  -6.726573e-02  2.735407e-02  -1.706513e-01  -5.342000e-01  -1.482103e-01  1.765310e-01  5.284585e-01  -2.332737e-01  4.832695e-01  -3.282119e-02  2.507218e-01  -1.222994e-01  -1.839195e-01  -3.107395e-02  2.279557e-02  -4.271483e-01  -3.173663e-01  1.659815e-01  -8.598911e-02  -3.229370e-01  4.554082e-01  4.090178e-01  -3.453944e-01  -2.978808e-01  1.297510e-01  -2.601008e-01  -3.800572e-01  -4.077584e-01  5.363311e-02  2.649674e-01  -6.911381e-03  2.174803e-01  5.205966e-03  -1.776536e-01  -2.703076e-01  3.497951e-01  -1.355219e-01  -1.629475e-01  1.543599e-01  3.836558e-01  -1.065525e-02  -4.513282e-02  2.341618e-01  -2.114535e-01  1.412355e-01  -4.291248e-02  1.781555e-01  2.944189e-01  -3.195717e-01  2.069091e-01  2.742649e-02  9.886900e-02  
      </Weights>
      <Biases Rows="50" Columns="1">
        -3.225025e-02  2.456018e-01  -2.600835e-01  9.539483e-02  1.817060e-01  8.875302e-02  -1.718288e-01  1.484413e-01  -3.398398e-01  2.800928e-01  -2.573810e-01  -1.485252e-02  1.379460e-01  1.179973e-01  1.615889e-01  3.332686e-02  -1.142194e-01  1.254764e-01  3.922215e-02  2.212666e-01  -4.392103e-03  -3.309822e-01  -2.022336e-01  -1.927229e-01  -2.121444e-02  6.569930e-02  -2.657766e-01  1.523275e-01  -9.492728e-02  1.251937e-01  -2.592126e-01  8.495075e-02  9.420345e-02  -6.547404e-02  2.718662e-01  9.501663e-02  -9.621878e-04  2.180230e-02  4.972399e-02  6.978870e-02  7.707565e-02  -2.054564e-02  2.502530e-01  9.284443e-02  5.313720e-02  1.749562e-01  1.784644e-01  2.511069e-01  -2.214493e-01  1.658454e-01  
      </Biases>
    </DenseLayer>
    <DenseLayer Width="50" ActivationFunction="1">
      <Weights Rows="50" Columns="50">
        2.431326e-01  1.701859e-01  -4.043691e-01  -4.350369e-02  3.164262e-01  1.027962e-01  9.176936e-02  1.393293e-01  -3.513668e-01  3.248010e-02  -2.047056e-01  -8.258060e-03  2.523253e-01  4.418514e-02  -3.547682e-01  -4.954792e-02  8.754032e-02  -1.318883e-01  2.317226e-01  -1.390775e-01  6.600904e-02  -3.502745e-01  -2.273007e-01  -3.030782e-01  -7.471488e-02  -1.630279e-01  -2.330815e-01  3.490996e-02  1.139558e-01  2.423922e-01  -4.263486e-01  -4.868091e-01  -1.547178e-01  -2.791141e-01  -2.013198e-02  2.624982e-01  2.854013e-01  1.943723e-01  1.264724e-01  -1.029259e-01  -1.776854e-01  1.019257e-01  2.791536e-01  -9.331003e-02  8.331737e-02  2.502359e-01  -6.020777e-03  9.511379e-02  -1.658403e-02  1.281006e-01  -9.731469e-02  -1.167068e-01  1.707759e-02  -6.467230e-02  2.226602e-01  -8.503321e-03  4.912088e-02  -1.691593e-01  -7.026225e-02  -6.291506e-02  2.316129e-01  1.331302e-01  9.177671e-02  -1.284041e-01  -2.726289e-02  -6.900869e-02  -4.015486e-02  9.910934e-02  -1.957504e-02  -1.677964e-01  9.831785e-02  1.773802e-01  -1.701925e-01  1.827266e-01  -7.054231e-02  1.105423e-01  -1.944997e-01  -8.874138e-02  9.019472e-02  -5.113241e-02  -2.351948e-01  1.631875e-01  -1.200659e-01  -1.332745e-01  -4.258572e-02  -1.746936e-01  3.726797e-02  -8.563019e-02  7.683276e-02  -2.435390e-01  -1.453924e-01  -2.502627e-02  1.545974e-01  -1.326333e-01  -7.982374e-02  -1.363617e-01  -1.097536e-01  7.830500e-02  1.475957e-01  -2.010228e-01  -1.461278e-01  -1.798734e-01  1.863639e-01  2.432688e-01  2.797197e-01  3.431165e-01  1.721951e-01  -1.404772e-01  4.710561e-01  1.224357e-01  -2.919511e-01  9.933559e-02  1.182590e-01  1.873170e-01  -1.492936e-01  1.399715e-02  -1.097517e-01  -1.349841e-01  -1.434609e-01  -8.494516e-03  -3.258801e-02  -4.688663e-01  7.846229e-02  -1.947016e-01  1.940212e-01  3.130187e-02  1.895034e-01  3.337650e-01  8.765960e-02  1.158836e-01  3.929239e-02  1.891673e-01  7.516287e-02  -1.467347e-01  -3.402081e-01  2.907254e-01  -1.270322e-01  -4.481274e-03  1.591166e-01  -6.851733e-01  9.596233e-02  1.975460e-01  -1.248070e-01  -9.644735e-02  -2.879521e-02  -2.838827e-01  1.476124e-03  -1.359822e-01  -3.174011e-01  1.354485e-01  -1.987189e-01  1.452198e-01  1.772238e-01  -2.459045e-01  -1.043527e-01  -8.725138e-02  1.161699e-01  3.250250e-01  -1.557375e-01  1.182290e-01  -1.563889e-01  -1.197228e-02  7.049835e-03  1.482208e-01  2.344417e-02  3.253145e-02  -2.196232e-01  -1.926000e-01  6.244499e-02  6.095717e-02  6.146783e-02  5.114265e-01  2.056568e-01  -2.093010e-01  -1.408933e-01  -7.451174e-02  -5.751260e-02  4.300249e-02  3.840480e-02  -1.553473e-01  -5.910027e-02  -2.671445e-02  2.851149e-01  -2.850693e-01  -1.333969e-01  -8.123759e-02  1.828141e-01  -7.267459e-02  -1.478622e-01  1.803993e-01  -1.961659e-01  -2.460417e-01  -6.122953e-03  -2.796600e-01  1.877185e-01  -1.059459e-01  1.627308e-01  -1.672572e-01  2.058979e-02  3.347007e-01  -2.859492e-02  -3.278409e-01  -9.974970e-02  -8.694957e-03  1.792717e-02  8.731432e-02  -7.486194e-02  -9.884351e-02  -8.321389e-01  -6.978305e-02  -5.956796e-01  1.770735e-01  -3.152383e-02  -5.808709e-02  1.229972e-01  -8.236385e-02  2.543295e-01  1.289530e-01  -5.956054e-01  -6.718215e-03  1.875154e-01  6.413677e-02  -1.747290e-01  -3.225448e-01  1.292004e-01  -6.940673e-02  -5.873972e-02  2.854629e-01  -2.503194e-01  -1.306552e-01  2.629679e-01  7.950602e-02  6.474016e-02  1.587832e-02  2.564586e-01  -2.730291e-01  7.531549e-02  -2.107113e-02  3.913296e-01  -2.365100e-02  2.517725e-01  -1.290877e-01  1.808106e-01  5.341554e-02  1.003362e-01  8.345526e-04  1.279308e-01  -8.197511e-02  8.542399e-02  -8.142552e-02  -2.532185e-02  -6.210274e-02  1.994773e-01  -4.329939e-01  1.524066e-03  -1.566376e-01  1.083268e-01  9.525602e-02  2.088963e-02  3.457286e-02  3.138325e-01  3.038531e-01  -1.234359e-02  -1.402178e-01  7.553189e-02  -2.326372e-01  -3.295662e-01  -8.473701e-02  5.151967e-02  -6.092432e-02  -2.023721e-02  5.277107e-01  -3.992797e-01  4.853244e-01  -2.666932e-01  1.992470e-01  -2.011890e-02  1.978885e-01  -9.418249e-01  -2.130564e-01  -1.897076e-01  -2.823026e-01  2.206342e-02  -1.106562e-01  3.664817e-01  1.644915e-01  1.012344e-02  2.483784e-01  -3.510055e-01  2.515176e-01  -1.927253e-01  1.507478e-01  1.629674e-01  -2.019052e-01  -1.132839e-01  6.368895e-02  1.959228e-01  6.684688e-02  2.950042e-01  1.206961e-01  -9.155105e-02  7.222550e-02  -4.489068e-02  3.155426e-02  -1.746618e-02  -1.226323e-01  -1.836210e-01  -1.283756e-01  9.282797e-01  -1.707137e-01  -3.522746e-01  -1.920504e-01  2.190102e-01  -2.226807e-01  -3.549618e-02  1.929537e-01  -3.187763e-01  -2.133158e-02  -5.507081e-02  -4.129323e-03  3.395779e-01  -1.355589e+00  2.196226e-01  1.500282e-01  2.421058e-01  8.940097e-04  2.506997e-01  2.215617e-01  -4.663111e-02  1.027764e-01  -1.768531e-01  6.522273e-02  2.194097e-01  1.837494e-01  9.583601e-02  -1.851574e-01  -9.333430e-02  -1.517098e-01  -1.097660e-01  1.442741e-01  1.602317e-01  -2.539320e-02  -1.158013e-01  5.821785e-02  1.633319e-01  6.619102e-02  -1.401955e-01  1.777006e-01  7.586853e-02  -4.900704e-02  1.731286e-01  -4.800018e-01  2.733350e-02  -1.788094e-01  1.106166e-01  -6.126092e-01  1.551437e-02  1.632714e-01  -2.756920e-01  -2.255293e-02  1.518928e-01  5.632746e-02  4.031878e-02  -7.754169e-02  3.901489e-01  -1.352787e-01  -4.493023e-01  3.455288e-01  -2.262291e-01  -1.132969e-01  4.732799e-02  -3.266063e-01  -3.962464e-01  1.465024e-02  2.755536e-02  3.282416e-01  2.123369e-01  1.761806e-01  -2.029780e-01  -3.030008e-01  -2.849256e-01  -2.615905e+00  -1.024341e-01  3.376455e-01  -3.039000e-01  -3.054722e-01  1.176490e-01  2.791842e-01  1.749258e-01  -3.693168e-02  2.100973e-01  1.827586e-01  -1.513791e-01  1.349730e-01  -2.037479e-01  -2.522770e-01  -2.737078e-01  1.887752e-01  -1.724621e-01  1.981984e-01  7.232407e-02  3.203917e-02  3.292555e-01  1.251552e-01  -2.426353e-02  2.120328e-01  -4.979254e-01  2.436231e-01  -1.485704e-01  7.957242e-02  6.043677e-01  3.781123e-01  3.267695e-01  8.606705e-02  -3.849299e-01  3.546174e-02  1.877769e-01  -4.525958e-01  -1.406475e-01  7.178233e-02  2.840569e-01  8.804857e-01  1.513793e-02  2.442852e-01  1.080544e-01  3.965607e-01  9.383306e-02  -5.621620e-01  2.394245e-01  7.952053e-02  7.754371e-01  1.101084e-01  2.967118e-01  3.243929e-01  5.560986e-02  2.227789e-01  6.909862e-02  6.547489e-03  -1.021117e-01  4.719311e-03  -5.812260e-01  -3.784599e-01  -3.174616e-01  -5.312582e-02  2.044879e-01  2.123827e-01  -2.157084e-01  -1.350020e-01  2.554254e-01  -3.292242e-01  -2.745054e-02  -2.395103e-01  -1.819842e-01  -6.681658e-04  -9.277353e-02  -1.824962e-01  4.935749e-01  3.995371e-01  6.392421e-01  1.386062e-01  2.445873e-01  -8.261909e-02  3.098158e-01  1.237753e-01  -9.210134e-02  -4.862333e-02  -1.549251e-02  5.223124e-02  -2.281725e-01  2.065296e-01  -1.823088e-02  -4.126511e-01  1.541331e-01  -2.886692e-01  3.881882e-01  -1.028344e-02  9.390408e-02  2.077356e-01  2.000167e-01  -1.126657e-01  1.301696e-01  -2.093368e-01  1.698514e-02  -1.498314e-01  1.397464e-01  -4.583418e-02  3.887354e-01  3.672996e-02  1.392602e-01  -2.298440e-01  -1.120448e-01  1.034355e-02  -1.671516e-01  8.834169e-02  1.264985e-01  1.858283e-01  6.256170e-02  -1.249596e-01  -1.443746e-02  -2.159403e-01  -8.836463e-03  3.757104e-02  2.192376e-01  -2.631649e-01  2.653272e-01  6.122114e-02  7.461762e-02  1.107766e-02  -2.509219e-01  -3.080093e-02  -1.993381e-01  -7.351202e-02  -1.283198e-02  2.538654e-01  3.523325e-02  2.036563e-01  7.920925e-03  -3.337802e-02  5.683545e-02  1.324244e-01  -1.927417e-01  -1.456610e-01  2.342502e-01  -2.000683e-01  3.670086e-01  -1.969039e-01  -1.652254e-02  3.187487e-01  -2.151021e-01  1.097247e-01  -3.947351e-02  -1.589891e-01  2.078849e-01  5.373321e-02  4.163093e-02  3.697355e-02  -1.665624e-01  -1.162434e-01  1.300256e-01  -4.257773e-01  9.846541e-02  -3.278649e-02  -2.818978e-01  -1.069159e-01  9.321176e-02  -7.515799e-02  1.887174e-01  1.995690e-01  -1.354331e-01  2.519650e-01  1.951458e-01  1.579952e-01  -3.373922e-02  1.743872e-01  1.496688e-01  -1.408513e-02  1.557464e-01  -1.029134e-01  -1.944578e-01  1.017985e-01  1.753006e-01  2.032320e-01  -1.908798e-01  1.762724e-01  -1.335219e-01  -4.409976e-02  -2.204410e-01  9.984084e-02  -2.361369e-01  -2.369727e-01  4.012810e-02  -2.269477e-01  6.950307e-02  1.152493e-01  -7.232390e-02  -2.089612e-01  1.903990e-01  1.179785e-01  -9.112530e-02  -1.996987e-01  1.714018e-01  -1.411416e-01  2.138794e-01  -1.259952e-02  -2.296057e-01  1.450344e-01  1.109852e-01  1.452443e-01  2.307951e-03  1.193097e-01  -1.218284e-01  -6.152709e-02  -1.195018e-01  -2.015148e-01  -4.638301e-02  -2.377642e-01  -1.351189e-01  -1.403901e-01  -2.391122e-01  -1.792899e-01  -6.271136e-03  -7.161615e-01  4.010973e-01  5.351502e-02  2.682525e-01  -1.734409e-01  1.144162e-02  1.469640e-01  -1.248285e+00  -2.106866e+00  1.395856e-01  -1.452591e-01  2.155742e-01  -9.047532e-02  1.056987e-02  3.073823e-02  2.331822e-01  1.705378e-01  -4.689288e-01  -1.764287e+00  -5.898626e-01  9.386500e-01  -2.986306e-01  7.906659e-02  -5.050144e-02  3.250580e-01  -1.086440e-01  -2.261440e-01  1.521731e-01  1.630219e-01  -3.460842e-01  -2.255140e+00  -3.890872e-01  -1.996728e-02  -1.527963e+00  -3.187073e-01  -1.591026e-01  2.086567e-01  7.442067e-01  -1.728889e-01  5.743241e-01  3.400082e-01  -1.951426e-01  -9.934658e-02  -1.231493e-01  -5.722690e-02  9.276472e-02  -9.896050e-01  4.510430e-01  -1.626725e-01  -3.533022e-02  -1.701532e-01  -7.125467e-02  1.059089e-01  -1.417642e-02  1.210426e-01  -1.487768e-01  -5.606746e-02  -1.778093e-01  1.959938e-01  2.009228e-01  -2.084173e-01  2.096565e-02  -5.559268e-02  -1.185392e-01  1.764355e-01  -4.099115e-02  -9.743762e-02  -9.711769e-02  1.084818e-03  -6.884121e-02  1.903436e-01  -1.075691e-01  1.353861e-01  -2.243464e-01  2.279470e-02  -1.177178e-01  -2.674936e-02  -3.247410e-02  -2.615396e-01  1.953440e-01  1.367982e-01  -1.999956e-01  -7.803005e-03  1.395711e-01  1.120789e-02  -2.521486e-01  -1.082145e-01  -1.561082e-01  -1.249771e-01  -1.136888e-01  1.181876e-02  -2.067004e-01  -2.450139e-01  -1.190778e-01  1.398970e-01  -1.180421e-01  -1.333113e-01  -8.960919e-02  -8.004307e-02  -1.369798e-02  1.736161e-02  -2.834384e-01  -9.289492e-02  2.891109e-01  -7.406177e-02  1.646901e-01  3.264018e-01  -4.549063e-02  1.591796e-03  9.167071e-02  -1.927779e-01  8.793605e-02  -2.930008e-01  2.196137e-01  1.173004e-01  1.322989e-01  -3.037941e-01  -3.931212e-02  1.999174e-01  -2.175149e-02  1.206695e-02  -4.527618e-01  -8.140491e-01  1.041001e-01  -1.557181e-01  -3.409610e-01  2.568671e-02  -2.335623e-01  1.098279e-01  -3.684714e-02  1.125837e-01  -8.502082e-02  3.160812e-02  5.550835e-02  -1.593693e-01  1.244289e-01  1.408935e-01  3.273926e-01  -7.015343e-02  -1.031449e-01  -4.271830e-01  1.772354e-02  1.388524e-01  -2.431598e-01  2.159697e-01  -7.167351e-03  1.527023e-02  -3.357710e-01  -2.040098e-02  -1.838674e-01  2.509741e-01  3.700664e-01  5.379823e-02  -4.311301e-02  -4.677209e-02  2.555544e-01  3.156418e-01  -2.021151e-02  1.235432e-01  -1.726200e-01  -2.721454e-01  -7.871277e-02  1.602761e-01  -1.216706e-01  -1.844248e-01  -2.133099e-01  2.265962e-02  1.338136e-01  -1.316413e-01  1.113299e-01  -6.141448e-01  -1.997029e-02  1.013062e-01  -7.677995e-02  -1.969616e-01  -4.714958e-01  -3.193569e-01  6.133819e-02  2.337856e-01  7.170437e-02  1.277439e-01  -3.374381e-02  2.083037e-01  -1.476633e-02  1.692050e-01  4.463275e-02  -6.805697e-02  -1.045001e-03  -5.219887e-02  -5.017096e-02  -2.215750e-01  1.375651e-01  -2.592763e-01  1.497551e-01  -6.386300e-03  1.318013e-01  -6.558093e-02  -2.866932e-01  -1.364181e-01  2.060297e-01  -4.170673e-01  2.100372e-01  -5.839812e-01  7.189400e-02  -2.543113e-01  -3.547746e-01  1.582818e-01  -4.243912e-01  2.326486e-02  -6.980444e-02  -1.286514e-01  2.112087e-01  -3.231302e-01  1.250986e-02  -1.237167e-01  1.937686e-02  -3.940284e-02  -5.061863e-02  3.497777e-01  3.001603e-01  -2.687821e-02  -2.634062e-01  2.340241e-01  -1.043363e-01  -2.462544e-01  1.233762e-01  2.823939e-01  -1.076883e-01  -2.398881e-01  -2.531438e-01  -1.676073e+00  1.411741e-01  -1.135791e-01  -5.063466e-01  -1.590854e-01  1.289508e-01  3.785360e-01  1.566129e-01  -7.903066e-01  3.801220e-01  2.132827e-01  6.411999e-02  2.233040e-01  3.246270e-01  -5.614787e-01  1.094474e-02  4.144059e-01  1.560710e-01  1.443758e-01  -3.112407e-02  -1.783161e-01  -1.929372e-01  -2.619831e-01  -9.000638e-01  3.231178e-01  9.866007e-02  6.634840e-01  -9.107465e-01  -3.115355e-01  4.188929e-01  1.571731e-01  -2.735545e-01  -1.456700e-01  2.614611e-01  -1.186686e-01  -1.102956e+00  1.909511e-01  -1.073439e-01  -3.639161e-01  5.026824e-01  -9.807968e-03  -1.163914e-01  -2.526534e-01  9.090409e-02  1.439519e-01  -6.532364e-01  -9.544888e-03  8.914306e-02  -3.060472e-02  -2.215126e-01  2.630118e-02  8.896993e-02  -2.848542e-01  7.805949e-02  -2.329803e-02  -2.134310e-01  3.072930e-01  -4.650293e-01  2.493461e-01  3.293817e-01  -1.757220e-01  5.239721e-02  -9.549822e-02  3.426447e-01  3.325443e-01  6.122217e-02  1.469947e-01  -1.147315e-01  2.308406e-02  7.795325e-02  1.731128e-01  7.605241e-02  1.198615e-01  -1.457568e-01  -1.399176e-01  3.071910e-02  1.232969e-01  6.020003e-01  -1.791223e-01  -5.083700e-01  -3.173713e-01  2.388075e-01  -6.776963e-02  -9.436061e-02  2.356608e-02  3.915097e-01  1.344184e-01  2.285870e-01  1.037123e-01  7.970531e-02  -2.131667e-01  -7.675108e-02  1.560587e-01  2.544802e-01  3.255422e-01  1.023875e-01  -4.232879e-03  1.803448e-01  -1.959647e-01  -1.234811e-01  9.769539e-03  2.615476e-01  -3.772382e-01  -3.982542e-01  1.183358e-01  2.143297e-01  -1.551597e-02  -8.436012e-02  1.097935e-01  1.882739e-01  3.677460e-02  -1.344710e-01  2.618303e-01  1.532860e-01  -3.001594e-02  -3.936503e-03  1.884502e-01  6.616761e-02  -2.271199e-01  1.092581e-01  -1.001883e-01  -2.085851e-01  -4.931522e-03  1.803162e-01  2.023992e-01  1.592185e-01  -9.385269e-02  1.373288e-01  -1.918414e-02  -2.416627e-01  -2.006920e-01  -1.968484e-01  -1.495066e-01  -2.403055e-01  -1.964776e-01  1.624458e-01  -1.853220e-01  4.173405e-02  2.431425e-02  -1.281601e-01  1.295354e-01  -1.977971e-01  -2.510876e-01  -1.460906e-01  -2.204898e-01  -7.779798e-02  1.057058e-02  -3.631854e-02  1.934533e-01  2.154316e-01  -1.451218e-01  3.781651e-02  5.517944e-02  -2.055982e-01  2.048873e-02  3.274348e-02  1.527408e-01  -1.539978e-02  -1.850583e-01  -1.734693e-01  -1.223643e-01  -2.581091e-01  2.037484e-01  4.029503e-02  1.180430e-01  1.517957e-01  1.770385e-01  2.165133e-01  -4.152728e-02  7.513069e-02  1.518812e-02  7.950571e-02  -7.011019e-02  1.817411e-01  7.367016e-02  2.818591e-01  9.628326e-02  -1.103936e-01  -1.430180e-01  1.383158e-03  -4.187482e-01  2.436295e-01  1.990572e-01  -4.293334e-02  2.914461e-02  -1.691784e-01  -1.675053e-01  -1.198222e-01  9.184781e-02  -1.073977e-02  -4.278322e-01  -3.322324e-02  -1.357268e-01  -1.001686e-01  -4.345232e-01  5.039165e-02  1.214031e-01  -3.315778e-01  2.525785e-01  -7.531182e-01  -1.433021e-01  -1.105341e-02  2.260659e-02  -1.268952e-01  -1.369560e-01  2.118840e-01  5.357703e-02  4.956720e-02  2.619181e-03  -6.355521e-02  1.419348e-02  2.290369e-01  -9.161441e-02  -2.474199e-01  1.899895e-01  4.590849e-01  7.841911e-02  2.682977e-01  1.623978e-01  4.379291e-02  -4.940706e-01  -5.248304e-02  -9.281565e-02  1.723891e-01  -7.087532e-01  1.533421e-01  8.880036e-02  -6.412135e-01  2.540811e-01  -1.344525e-01  1.499103e-02  1.884309e-01  1.525702e-01  -2.383034e-01  -2.004607e-01  1.401092e-01  3.403595e-01  -6.261923e-01  6.593432e-02  1.595348e-01  5.207894e-01  -2.776797e-01  -2.160386e-02  7.906535e-02  6.905381e-02  -1.337758e-01  5.049828e-03  -1.259757e-01  1.242285e-01  1.512331e-01  -1.471813e+00  -1.098872e-01  4.796771e-02  -2.832670e-01  -1.635002e-01  1.260122e-01  2.765389e-01  1.044739e-01  -3.621884e-01  2.181440e-01  3.184454e-01  -2.485834e-02  1.282854e-01  -3.544110e-02  -2.833074e-01  -1.214320e-01  3.821509e-01  -1.105472e-01  2.751143e-02  1.764657e-01  -1.140720e-01  -1.751332e-01  9.272152e-02  1.752094e-01  5.237476e-02  1.017103e-01  5.036559e-02  -2.710794e-01  1.477752e-01  -1.877018e-01  1.311739e-01  8.853398e-02  1.986111e-03  -2.656912e-02  -2.447615e-01  -3.151511e-02  -5.520257e-02  1.192090e-01  6.409479e-03  -1.902020e-01  -8.169771e-01  -6.961104e-02  1.880338e-01  6.569500e-02  -1.064180e-01  2.128297e-02  3.645801e-02  -1.155619e-01  -9.969678e-02  -1.239130e-01  -1.813019e-01  -1.900591e-01  9.927558e-02  3.548735e-02  2.108817e-01  -9.289876e-02  -9.387203e-02  -2.108134e-01  -1.122723e-01  -9.483878e-03  -2.447187e-02  1.501720e-01  1.286569e-01  2.515726e-01  -1.376555e-01  2.825598e-01  2.177678e-01  4.798504e-02  -1.914895e-01  2.373206e-01  -1.890402e-01  9.425571e-02  -1.564302e-01  1.392040e-01  5.756664e-02  -1.688608e-01  1.767778e-01  3.936683e-01  -2.592668e-01  1.396007e-02  2.866004e-01  -1.586065e-01  4.128367e-02  2.618353e-02  9.098133e-02  8.004292e-02  -2.472875e-02  -1.029989e-01  -1.815696e-03  2.871775e-01  -5.233434e-01  -3.825978e-02  -2.103204e-01  3.883707e-01  7.857991e-02  -1.756563e-01  -1.014216e-01  1.892356e-01  -1.957786e-01  -1.413039e-01  4.743354e-02  -1.953939e-01  -2.079052e-01  -7.374650e-01  8.076598e-02  -1.340071e-01  1.293765e-03  2.825969e-01  1.789073e-02  -3.230076e-02  2.641734e-01  1.915330e-01  7.819745e-02  1.139396e-01  -2.880054e-02  -5.067378e-02  1.677952e-01  1.994003e-02  -1.351726e-01  -6.896311e-02  -1.942140e-01  -2.545371e-01  -2.384915e-01  -3.117122e-02  2.261694e-01  -5.018746e-02  1.706496e-01  1.040815e-01  2.041297e-01  -1.811507e-02  2.197882e-01  -2.360849e-01  -1.769085e-01  2.830858e-02  1.151395e-01  -8.234680e-02  -1.635568e-01  -4.184567e-02  -2.315782e-01  7.040682e-02  -1.482028e-01  -1.045354e-02  1.497908e-01  -2.874473e-02  -2.477826e-01  -3.915692e-02  1.734641e-01  1.197404e-01  -1.983474e-01  3.069702e-02  -1.602960e-01  -2.258347e-01  -1.125662e-01  -1.687607e-01  -1.052408e-02  -2.149907e-01  -1.135839e-01  1.456852e-01  9.055459e-02  -5.499402e-02  -5.628588e-02  1.815591e-01  -2.445784e-01  1.261655e-01  -5.307310e-02  9.596841e-02  -1.543424e-01  1.208888e-01  -2.539649e-01  -6.335094e-02  -5.004880e-03  -2.541576e-01  -8.705574e-02  -7.733950e-02  -2.406079e-02  2.847030e-01  -1.600465e-01  1.692902e-01  -1.815834e-02  -4.707627e-01  7.502709e-02  2.054377e-01  2.409681e-02  2.664994e-01  -2.067202e-01  -2.049274e-01  -7.787455e-03  -1.812246e-02  1.469465e-02  8.019725e-02  -6.477151e-01  2.413612e-01  1.772821e-01  1.380237e-01  -4.872879e-02  3.497282e-02  9.104134e-02  -6.083673e-02  -3.407274e-01  -9.494220e-02  -4.901934e-02  2.070974e-01  4.898592e-01  -7.168619e-02  -5.498913e-03  2.626611e-02  3.110157e-02  -1.612442e-01  -6.115725e-02  -1.812020e-01  1.072590e-01  1.759103e-01  1.914960e-01  6.419505e-04  8.537664e-02  -2.795948e-01  1.496948e-01  1.300263e-02  -4.294746e-02  1.692760e-01  9.344896e-02  1.781464e-01  -6.667566e-02  1.447224e-01  1.387134e-01  -4.133456e-01  -3.404799e-01  5.654381e-02  1.150359e-01  -2.636484e-01  2.079614e-01  7.323395e-02  7.187656e-02  2.239144e-01  1.508048e-01  -3.224333e-03  1.160130e-01  -2.297793e-02  -7.977817e-02  -1.609227e-01  -6.118208e-01  1.563119e-01  3.430079e-01  -1.998873e-01  -2.955420e-02  -5.063666e-01  -5.096019e-02  -2.747509e-01  1.412616e-01  -4.934390e-02  1.119736e-01  -1.557188e-01  -7.103426e-03  -1.001063e-01  -2.357643e-01  -2.047839e-01  2.263626e-01  -3.192303e-02  -2.080613e-01  -5.386414e-02  2.584754e-01  2.799652e-01  3.563283e-01  -1.759722e-01  -5.889040e-02  2.122767e-01  -1.641457e-02  1.457129e-02  1.531409e-01  -1.735796e-01  -7.923025e-03  1.060173e-01  -1.000815e-01  1.497464e-01  -4.388219e-02  6.633627e-02  2.069410e-02  -1.374483e-01  -1.021713e-01  -2.424210e-01  1.511518e-01  5.151585e-02  -1.772550e-02  -3.366785e-02  -2.274484e-01  -1.901064e-01  -1.080048e-02  -4.681957e-02  -1.026497e-01  -1.626530e-01  1.559880e-01  -3.624632e-02  -1.278012e-01  -1.221612e-01  5.682926e-02  -5.716821e-02  7.907426e-02  -1.635471e-01  -1.248306e-02  -1.838942e-01  1.963201e-01  5.003949e-02  -1.446529e-01  -4.902700e-02  -1.878791e-01  -2.152413e-01  1.756640e-01  1.056542e-01  -2.644532e-02  -9.250583e-02  -1.796369e-02  -1.065082e-01  -1.399458e-01  -5.836898e-02  -3.117059e-02  -1.409537e-01  -2.621884e-01  4.859241e-02  -1.277842e-01  1.206109e-01  1.921087e-02  -9.345992e-02  -1.265140e-01  -1.555359e-01  2.457690e-01  -1.811733e-01  -2.016515e-02  1.113919e-01  -1.330427e-01  -8.856482e-02  1.858690e-01  -1.479815e-01  3.356455e-02  1.475596e-01  -2.528161e-01  1.573108e-01  -4.926125e-02  -4.291244e-02  5.722200e-03  1.049462e-01  -1.330290e-01  6.595215e-02  -3.344519e-01  -8.498795e-02  5.543289e-02  1.732807e-01  1.379921e-01  -8.430310e-02  -1.838609e-01  -1.074838e-02  1.776166e-01  -1.806043e-01  1.447386e-01  1.817878e-01  -4.793806e-02  4.390431e-03  1.093654e-01  1.685210e-01  3.220488e-03  -2.441121e-01  1.445897e-01  6.780166e-02  6.183687e-02  -1.914814e-01  9.490586e-02  1.679045e-01  -1.160818e-01  2.844236e-01  1.258324e-01  7.154345e-02  -1.277215e-01  -1.606637e-01  4.612900e-02  -1.548998e-01  -6.882957e-02  -1.820149e-01  1.539440e-01  -1.077074e-01  1.751374e-01  -2.023051e-01  -1.394248e-02  -1.528672e-01  1.401470e-01  -1.845745e-02  3.680582e-02  -1.963239e-01  -7.822514e-02  -1.461981e-01  1.576966e-01  -1.300741e-01  3.008497e-02  2.061810e-01  -3.870557e-02  1.877499e-01  -1.954213e-01  -7.027089e-02  1.366439e-01  1.502840e-01  -1.579182e-01  -1.315524e-02  -1.761089e-01  -1.631712e-01  -2.070629e-01  -2.430502e-01  -2.212715e-01  -1.902199e-01  -1.373362e-01  6.438738e-02  -1.523622e-01  8.579173e-02  -2.471998e-02  -1.868507e-01  1.979694e-01  1.544498e-01  2.237115e-01  -2.398389e-02  -2.203493e-01  -1.478136e-01  -1.654122e-01  1.904783e-01  1.130870e-01  1.221558e-01  -4.343185e-01  2.720869e-02  -2.383817e-01  2.114356e-01  4.441882e-01  4.941191e-01  -1.851195e-01  6.827010e-01  1.893604e-01  -1.945910e-01  -1.430295e-01  1.380561e-01  -2.409926e-01  1.311891e-01  2.563536e-01  -1.794130e-01  1.523520e-01  7.045427e-02  3.209220e-01  -1.227725e-01  3.687197e-01  -3.455421e-02  1.564623e-01  -2.590037e-01  -1.253554e-01  -1.692309e-01  -2.959991e-01  -1.346212e-01  2.293125e-02  -1.653743e-02  -6.571705e-02  -4.837732e-02  2.376138e-01  8.578045e-02  1.890495e-01  2.380477e-01  1.847877e-01  1.266979e-01  -5.352865e-02  -1.282188e-01  7.585943e-02  1.517832e-01  1.476038e-02  1.080013e-01  3.465038e-02  -8.565220e-02  -9.986455e-02  1.176205e-01  -9.352435e-03  -2.187847e-01  -2.376488e-01  6.390057e-02  8.989462e-02  2.795440e-02  -1.121868e-01  -5.226712e-02  -6.444097e-02  -2.738633e-01  2.918601e-01  2.747266e-01  1.230523e-01  9.825015e-02  2.147675e-02  -4.004462e-02  1.366880e-02  5.627126e-02  3.959660e-02  1.865199e-01  -4.583797e-01  -2.686513e-01  -4.492619e-01  -1.054427e-01  2.941287e-01  -4.309665e-02  2.721495e-01  -1.669953e-01  1.964668e-01  1.040535e-01  -3.001545e-01  -3.238659e-01  -6.136824e-02  4.556547e-02  -1.991046e-02  -1.031896e-01  1.795681e-01  -3.320599e-02  7.831993e-02  -4.902674e-02  -7.480209e-02  -9.745710e-02  -1.212213e-01  4.500728e-02  -4.560609e-02  6.249228e-03  1.608704e-01  1.956980e-01  1.738019e-01  -1.418567e-01  -3.357412e-01  4.066897e-01  4.269523e-01  -1.278511e-01  2.370260e-01  -1.768621e-01  1.208185e-01  1.054959e+00  2.447924e-01  1.657949e-01  -8.415450e-02  3.303322e-01  -2.900853e-02  -3.119927e-01  2.364871e-01  2.593630e-01  9.861961e-02  -1.317421e-01  1.880226e-01  -1.485069e-01  3.506536e-01  -5.525173e-02  -1.956282e-01  7.658547e-02  -7.336000e-02  -2.121669e-02  2.369446e-01  4.605335e-01  -6.936001e-02  1.798037e-01  -1.515005e-01  2.429922e-01  2.621210e-01  -3.708002e-01  1.711799e-01  1.530961e-01  3.489149e-01  1.307730e-02  -1.230412e-01  9.137379e-03  2.366278e-02  -3.958608e-01  3.771645e-02  2.568896e-01  -2.687823e-01  8.209963e-02  9.249244e-02  -2.455606e-01  3.814530e-02  1.618707e-01  1.112902e-01  2.145243e-01  -8.932570e-02  1.774297e-01  -4.245083e-03  2.622621e-01  -2.167844e-01  5.807786e-02  -2.284852e-01  -3.110130e-01  -8.678736e-02  -1.384273e-02  -7.009626e-01  -9.139068e-02  1.247046e-01  -8.100919e-01  9.027544e-02  5.278195e-02  -2.485033e-01  3.038023e-01  8.334915e-02  3.713195e-02  -2.414636e-01  -7.669365e-03  -6.132347e-02  -2.940325e-01  2.230025e-01  -1.570890e-01  5.406532e-02  1.564604e-01  6.484117e-02  -2.119198e-02  4.952503e-01  5.722918e-02  -2.918829e-01  -1.801087e-01  1.383602e-01  8.100661e-03  -3.238053e-02  6.516109e-02  2.188265e-01  1.846108e-01  2.523519e-01  3.286927e-01  2.120393e-02  -2.392101e-01  -1.498838e-01  -1.308284e-01  2.004377e-01  2.119743e-01  6.282163e-03  -4.963337e-02  1.112193e-01  -3.073352e-01  1.726423e-02  1.213689e-01  -2.186044e-01  -3.329732e-02  2.061937e-01  -2.138147e-01  1.379917e-01  -7.361825e-02  -3.580931e-02  -2.128055e-01  -1.535033e-01  5.991409e-02  -1.400302e-01  -1.252774e-01  -6.069905e-02  -1.613251e-01  1.400442e-01  -1.664237e-01  -5.371751e-02  -5.787807e-02  1.696924e-01  -1.269655e-01  8.440349e-02  -2.188916e-02  -6.843163e-02  -2.015140e-02  -2.012952e-01  -1.193603e-01  1.642445e-01  -2.589842e-01  -6.346738e-02  -1.109059e-01  7.939055e-02  1.536288e-01  -2.093430e-01  -8.711758e-02  -2.924039e-01  -8.505087e-02  2.287500e-01  2.077082e-01  5.725434e-02  -2.635896e-01  -1.016247e-01  -1.410522e-01  -1.470159e-01  -1.894451e-02  -1.669078e-01  -1.262876e-02  2.592985e-01  -2.410161e-03  -1.845131e-01  1.230324e-01  -3.117860e-02  1.791136e-01  -1.782603e-01  1.119627e-01  -3.789242e-01  2.565069e-01  -4.222542e-02  -4.093361e-02  -5.073834e-02  -3.062559e-02  3.089788e-02  2.478020e-01  7.437540e-02  1.056211e-01  -1.811097e-01  -4.693065e-02  -2.490495e-01  -8.022320e-02  -3.959284e-01  -4.995412e-01  -1.053482e-01  -1.589897e-01  3.641322e-01  -3.503681e-01  1.034156e-01  5.938902e-02  3.509217e-01  1.893763e-01  2.892938e-01  1.127171e-01  1.855096e-02  -2.255362e-01  9.434962e-02  6.588959e-02  1.530859e-01  -5.543729e-02  -6.454409e-02  1.736366e-01  3.302788e-01  2.540724e-02  -2.002880e-01  6.606720e-02  2.866383e-02  8.444513e-02  1.304072e-01  3.383929e-02  2.266663e-02  -4.599574e-02  -3.010314e-01  5.184045e-02  1.330952e-01  -2.424143e-01  -2.100521e-01  -1.616306e-01  1.050832e-02  -3.436982e-02  1.938601e-02  5.480048e-02  1.210327e-01  -4.869967e-02  6.193095e-02  -1.753372e-01  -1.933516e-01  1.115060e-01  -7.931866e-02  -3.492168e-02  6.889691e-02  9.449906e-02  -1.300866e-01  -4.501972e-01  2.681099e-01  -1.387112e-01  -1.210277e-01  -8.714829e-02  3.205144e-02  1.910608e-01  -1.215760e-01  3.301208e-01  -1.382935e-01  -1.410539e-01  2.144189e-01  -1.396162e-01  -2.715914e-01  1.412065e-01  5.892245e-03  2.560451e-01  1.732088e-01  -7.271627e-02  1.531997e-01  4.137238e-02  9.889752e-02  3.315974e-02  -1.107493e-02  -1.984616e-01  1.152862e-01  -1.590945e-02  3.122137e-02  1.640413e-04  9.023334e-02  -6.458862e-02  2.073345e-01  3.592312e-01  -5.773752e-02  2.277919e-01  -1.475309e-01  -2.619005e-01  -3.274840e-01  -6.286597e-02  2.938111e-01  6.152159e-02  1.502026e-01  -1.337793e-01  8.645482e-02  -1.443969e-01  9.905861e-01  7.316305e-02  -1.843849e-01  -4.596041e-02  8.644059e-02  -3.937817e-01  1.101455e-01  -2.929927e-01  -1.503101e-01  1.114109e-01  8.975882e-02  1.604539e-01  -8.030362e-02  -2.462518e-01  5.512794e-02  1.968267e-01  2.983435e-01  -2.969702e-01  4.721520e-02  3.599719e-01  4.353140e-02  6.909435e-02  2.733489e-02  1.115548e-01  1.340517e-01  -9.987388e-03  -1.145409e-01  2.470783e-01  2.988517e-01  8.047698e-02  -1.635530e-01  -5.962191e-02  -2.228422e-01  -2.104520e-01  8.525502e-02  -1.424015e-01  -2.144283e-01  1.960303e-01  2.012423e-01  8.591723e-02  -6.745559e-02  1.102403e-01  -1.797825e-01  -3.668024e-02  2.002281e-01  1.615867e-01  4.364832e-02  1.185942e-02  1.448494e-01  -4.536220e-02  -6.337972e-02  5.802659e-03  -4.551800e-02  9.590797e-02  -1.710023e-01  1.644858e-01  8.110251e-02  -1.223107e-01  -3.170547e-02  -4.581886e-02  -7.681025e-02  -3.391790e-02  -1.798807e-01  -2.540705e-01  1.755978e-01  2.223239e-01  6.456134e-02  1.452709e-01  -1.453139e-01  -1.510100e-01  2.262027e-01  -1.685850e-01  -2.133724e-01  -1.687393e-01  -9.063336e-02  -8.009189e-02  -2.206483e-01  -3.385922e-02  -2.117155e-02  -9.022366e-02  1.847959e-01  3.864638e-02  -2.014711e-01  2.616315e-01  -1.509765e-01  -1.357169e-01  -3.333834e-01  7.939177e-02  5.323216e-02  -4.914787e-02  -1.083793e-01  -9.993223e-02  1.375315e-01  -5.647679e-02  2.381328e-02  -2.096929e-01  8.505149e-02  -1.890450e-02  8.862673e-02  -1.891115e-01  -5.504038e-01  8.393588e-02  1.030737e-01  -2.824095e-01  -6.449141e-03  -1.276297e-01  3.154553e-01  6.043038e-02  2.715925e-01  -1.686462e-02  -3.874535e-03  -2.473992e-01  1.555433e-02  -1.908949e-02  -8.719052e-02  -1.589413e-01  2.267908e-01  -2.159733e-01  1.992805e-01  2.838144e-02  1.119696e-01  2.480302e-01  2.454997e-01  -1.059737e-01  2.503108e-01  5.839271e-02  1.138687e-01  -1.625627e-01  7.138753e-02  1.169018e-01  1.719167e-01  1.298795e-01  -1.924178e-01  9.920486e-02  -3.282267e-02  -3.325979e-01  9.207075e-02  6.295703e-01  9.326796e-02  -1.106860e+00  -1.888443e-01  2.067612e-01  -1.948125e-01  -1.568744e-01  -5.758294e-02  -8.897128e-02  -2.500191e-01  1.754760e-01  3.838729e-02  1.298259e-01  2.256695e-01  -4.471833e-01  5.253494e-01  -6.612540e-02  1.760238e-01  7.001569e-02  1.649043e-01  3.560643e-02  1.184347e-01  6.120520e-02  -9.406786e-04  1.588634e-01  -1.980705e-01  5.558186e-02  -7.143060e-04  2.488416e-01  -5.520314e-02  -1.317543e-01  -2.053875e-01  6.413611e-02  -1.739858e-01  2.592907e-01  1.481996e-01  -2.123170e-01  -2.318756e-01  3.849304e-01  1.672249e-03  3.604655e-01  -2.233138e-01  -2.684838e-02  1.563231e-01  -1.549854e-01  -1.229544e-01  2.184035e-03  -1.805557e-01  -2.412359e-01  1.254961e-01  -2.503902e-01  -2.008154e-01  1.465364e-01  -7.171043e-02  -9.662502e-02  7.108772e-02  -1.434216e-01  1.488648e-01  -1.719930e-01  3.563593e-02  1.401850e-01  6.150493e-02  1.334320e-01  -9.766015e-01  -2.440511e-02  -4.614024e-01  1.509741e-01  1.855166e-01  -5.781960e-01  3.343727e-01  2.121167e-01  1.042241e-01  -3.250279e-01  -2.074235e-01  2.893645e-02  1.850085e-01  -1.854797e-02  -1.875552e-01  -1.417600e-01  -5.622717e-02  1.659771e-01  2.724678e-01  1.036347e-01  1.291779e-01  1.581617e-01  2.260016e-01  -2.495751e-01  5.928754e-02  3.487290e-01  -1.805670e-01  -1.164836e-01  2.036093e-01  -2.485587e-01  2.311084e-01  -3.118100e-02  -7.312839e-02  -2.252006e-02  3.325923e-01  1.725840e-01  1.036345e-01  -2.131404e-01  -5.700307e-02  -8.118380e-01  -1.387100e-01  -3.866436e-03  3.235432e-01  2.541142e-01  3.493564e-02  1.925472e-01  -1.167393e-01  -2.570493e-01  2.264132e-01  4.983137e-02  -1.114138e+00  1.410126e-01  1.264506e-01  3.350000e-02  -1.330317e-01  -1.049024e-01  1.739932e-01  -1.272716e-01  -6.044572e-02  -7.752266e-01  2.725537e-01  5.396784e-02  1.560712e-01  -2.648658e-01  -5.881127e-02  4.697878e-02  -2.742941e-02  2.905647e-01  -2.375137e-02  3.660713e-02  -3.351181e-01  -1.415395e-01  -8.498950e-02  -2.734916e-01  5.176217e-02  1.069860e-02  -1.554534e-01  2.119972e-01  -5.818060e-02  1.253211e-01  -3.289249e-02  -3.429806e-02  5.867340e-02  -8.561845e-02  2.229444e-01  -7.060294e-01  -9.932498e-02  1.540046e-01  -6.111519e-02  -3.470122e-01  1.641057e-01  -2.174561e-02  -1.428478e-01  1.638073e-01  -1.384234e-01  -1.020826e-01  -1.112855e-01  -1.671688e-01  -8.862247e-02  1.692640e-01  -7.037172e-01  -1.323732e-02  2.282877e-01  -3.350106e-01  -2.594397e-02  -4.553596e-01  3.706773e-02  -3.036189e-01  2.747614e-01  2.260970e-01  1.418908e-01  -3.811724e-02  1.449720e-01  -2.375877e-02  3.113294e-01  1.057520e-01  -1.486434e-01  -4.286169e-02  1.465713e-01  2.331068e-02  -7.178931e-02  2.413495e-01  1.799569e-01  -1.854092e-01  -3.497895e-02  1.940403e-01  -1.669474e-01  1.494793e-01  -4.668189e-02  7.885035e-03  6.143037e-02  3.822222e-01  2.245462e-02  -1.095202e-01  -1.300646e-01  4.578336e-01  2.082094e-01  -8.978641e-01  -9.679274e-02  5.177086e-01  1.884373e-01  1.863454e-01  -2.034965e-01  1.932676e-01  -7.775933e-02  7.471617e-01  -6.251434e-02  -8.478494e-02  -5.803120e-01  -1.671912e-01  3.985951e-01  2.435383e-01  -4.230370e-01  -2.908830e-02  3.725645e-01  -2.846698e-01  2.562000e-01  3.716359e-02  9.838689e-02  -2.003592e-01  2.314171e-01  -2.656806e-01  1.438526e-01  3.210783e-01  -8.820438e-01  1.951625e-01  4.366196e-01  -9.356379e-02  2.153397e-01  -3.642494e-02  -7.722092e-02  -6.312169e-01  2.594707e-01  -4.269132e-01  -1.370160e-01  -1.494743e-01  -1.506217e-01  1.175416e-01  3.371323e-02  7.762775e-02  -1.291595e-01  1.524827e-01  -1.676628e-01  -2.126387e-01  -1.892837e-01  -9.486147e-02  -1.704254e-01  -1.885858e-01  3.885658e-02  -1.545642e-02  1.694453e-03  -2.822879e-02  -2.017855e-01  -2.130763e-01  5.725977e-02  1.148136e-01  8.656383e-02  -2.012331e-01  6.506678e-02  -2.326774e-01  -7.283016e-02  -1.694354e-01  8.709108e-02  -7.897174e-02  -1.465992e-01  -2.461981e-01  4.080330e-02  -2.387863e-01  3.358552e-03  2.011382e-01  -2.594431e-01  -1.802835e-01  1.459405e-02  1.041542e-01  2.713307e-02  -6.901354e-02  -9.478433e-02  -9.608754e-02  1.786900e-01  -1.229774e-01  6.055497e-02  2.203017e-01  2.118184e-01  8.738538e-02  -2.423151e-02  1.205905e-02  -2.472977e-01  -1.142285e-01  -9.265401e-02  1.374383e-01  -3.307218e-02  -1.244946e-01  -2.008731e-01  -5.404058e-02  -1.399437e-01  -1.636324e-01  5.346483e-02  4.173154e-02  -1.778477e-01  -2.211048e-01  -1.124973e-01  -1.925644e-01  8.535683e-02  1.652786e-01  -5.606263e-02  6.182144e-02  4.892062e-02  -6.245149e-02  1.051626e-01  7.981993e-02  -1.635489e-01  1.146387e-01  2.221283e-01  2.276491e-01  -2.570782e-01  2.169118e-01  -3.136944e-02  -2.203401e-01  -4.411178e-02  -1.418178e-02  -1.523180e-01  -1.197957e-01  -1.476634e-01  -2.499411e-02  1.974168e-01  1.124326e-01  -1.757905e-01  -6.484593e-02  -1.729180e-01  -8.614169e-02  6.151620e-02  -1.675212e-01  4.289903e-02  -1.581716e-01  -2.114955e-01  1.769532e-01  1.630734e-01  -1.274198e-01  -8.293678e-02  -8.281273e-02  8.975802e-03  -3.905417e-02  -1.411253e-01  2.477997e-02  3.028356e-01  1.116768e-02  1.306264e-01  2.430415e-01  1.710427e-01  2.782117e-01  -5.536221e-02  -5.167736e-02  -2.446952e-01  -1.198569e-02  2.062892e-01  -1.481264e-01  6.756015e-02  8.378902e-02  1.175189e-01  4.520362e-03  1.293240e-01  -7.594559e-02  -7.389849e-02  -6.609416e-02  -1.271501e-01  2.583249e-01  7.638038e-02  -1.430840e-02  3.203049e-02  -2.590273e-01  -3.227819e-02  9.681005e-02  -1.079255e-01  2.966281e-01  1.253494e-01  1.315070e-02  -5.107017e-02  -7.759701e-02  -6.840808e-02  -9.143724e-02  -1.423575e-02  7.480399e-02  -1.575859e-01  -2.034176e-01  1.639287e-01  1.796760e-01  2.145461e-01  -2.050583e-02  -5.017298e-02  -1.681808e-01  -2.591226e-01  -1.982576e-01  -1.318401e-01  -2.960230e-02  1.634821e-01  -1.370359e-01  -3.003996e-01  1.484425e-01  9.452353e-02  -1.495248e-01  1.044159e-01  -1.465829e-01  -3.637009e-02  2.043249e-01  -6.115742e-02  2.847596e-03  -1.050061e-01  -9.677090e-02  -2.411538e-01  -1.547832e-01  -1.775789e-02  -1.842228e-01  1.451375e-01  1.342973e-01  -4.369312e-02  -1.299613e-01  -2.641537e-01  -4.741564e-02  1.867833e-01  7.976378e-02  1.992482e-01  -1.074313e-03  -2.644676e-01  -1.575351e-01  1.702753e-01  -2.134714e-01  6.828439e-02  9.168253e-03  1.904249e-01  -1.109747e-01  1.677120e-01  -5.548822e-02  7.660324e-02  -4.979003e-02  -2.455996e-01  6.284408e-03  -1.512079e-01  5.121497e-02  -1.412855e-01  -1.640425e-01  1.486173e-02  3.612867e-01  1.932827e-01  -1.281655e-01  5.189656e-02  4.593635e-01  2.851118e-01  5.875881e-01  -2.608456e-01  -4.803230e-01  3.208627e-01  1.199190e-01  4.974233e-02  -9.332925e-02  1.272816e-01  -4.043970e-01  3.689476e-01  1.305275e-01  3.332630e-02  2.681927e-01  8.154921e-01  -1.235692e-01  -2.923183e-01  -1.633428e-01  5.382491e-03  -1.799141e-02  4.240474e-02  1.966413e-01  7.720757e-02  4.941000e-01  6.634719e-02  -5.832158e-01  2.347004e-02  -3.468027e-01  -3.235599e-01  3.290722e-01  -8.774844e-02  -1.433119e-01  -4.838091e-01  1.291022e-01  3.303860e-01  -6.045181e-02  3.237987e-01  -1.004277e-01  1.465793e-01  -2.725562e-01  -1.676931e-01  -1.022760e-01  -9.969286e-02  
      </Weights>
      <Biases Rows="50" Columns="1">
        1.351902e-01  0.000000e+00  1.511378e-01  1.927641e-01  9.792833e-02  1.137541e-01  1.283492e-01  1.551626e-01  -4.157867e-01  6.703357e-02  1.080097e-01  0.000000e+00  6.962924e-03  -1.601878e-02  2.413062e-01  4.507403e-03  5.297913e-02  -3.173377e-02  3.543787e-02  -2.506286e-02  1.835418e-01  5.480186e-02  1.827132e-01  1.146855e-01  -3.158245e-02  7.212172e-02  1.672356e-01  -2.981513e-02  3.791718e-02  0.000000e+00  -6.608907e-02  5.897056e-02  -1.045443e-01  2.004018e-01  -2.648432e-02  4.487535e-02  8.925323e-02  6.162297e-02  -1.876167e-02  1.627928e-01  6.938754e-02  2.163535e-01  6.890889e-02  1.865995e-01  5.722751e-03  -2.079497e-02  9.468141e-03  4.357197e-02  -4.143387e-02  -1.796354e-01  
      </Biases>
    </DenseLayer>
    <DenseLayer Width="50" ActivationFunction="1">
      <Weights Rows="50" Columns="50">
        -1.433992e-01  1.307316e-01  1.293997e-01  1.983907e-01  8.229245e-03  -1.468838e-01  -2.396676e-01  -1.763251e-01  -1.020898e+00  8.923241e-02  1.316837e-01  7.197129e-02  -1.667069e-01  -2.251130e-01  2.906088e-01  9.502003e-02  -1.205670e-01  -3.912822e-01  6.736783e-02  2.014872e-01  -4.606056e-01  -4.303489e-01  2.641338e-01  -3.985798e-02  -2.403258e-01  1.577447e-01  4.485814e-02  5.287350e-02  1.595941e-01  1.775068e-01  1.330198e-01  1.827285e-01  -5.022330e-01  4.447891e-01  -1.076887e-01  -8.597927e-02  6.429325e-02  1.611616e-01  -4.541396e-02  1.544243e-01  2.635639e-01  -2.042303e-01  -1.182112e-01  2.309461e-02  -4.886865e-02  -6.456217e-02  -3.970072e-02  8.878756e-02  6.060606e-02  -9.292775e-01  -9.241226e-02  -1.552212e-01  -2.525033e-02  -1.043383e-01  1.808458e-01  -1.785830e-01  -1.848724e-01  -1.641029e-01  -1.282321e-01  -1.627387e-01  1.389731e-01  5.050410e-02  -8.143900e-02  1.742968e-01  -1.281880e-01  -2.092990e-01  1.624565e-01  -1.535251e-01  -1.877485e-01  -1.560125e-01  1.722010e-01  5.696853e-02  1.384970e-02  -4.898907e-02  1.871516e-01  -1.867888e-02  -4.033875e-02  4.353413e-02  5.075542e-02  -2.349179e-01  -2.564924e-01  -1.846888e-01  -5.983552e-02  -1.979174e-01  -1.162162e-01  -1.307709e-01  -1.179868e-01  1.632642e-01  -5.022404e-03  1.047433e-01  -1.051322e-01  -1.456056e-01  -6.061947e-02  -2.540021e-01  -1.079449e-01  -2.097620e-01  -6.359175e-02  -1.347545e-01  -9.829375e-02  -4.140527e-02  2.902678e-01  1.750254e-01  1.092049e-01  -9.898752e-02  -1.700494e-02  3.897717e-01  2.913001e-01  -1.690042e+00  -5.209584e-02  2.973802e-01  8.942328e-02  1.706755e-01  4.380295e-01  1.320339e-01  -3.636658e-01  2.035152e-01  -1.831157e-01  5.290707e-01  2.195328e-01  5.190719e-02  1.311230e-01  -1.313838e-01  9.928497e-03  -2.114634e-01  -8.362427e-02  -3.733048e-01  -1.784279e-01  9.713610e-02  -6.779941e-02  2.382062e-01  5.530273e-02  -2.745173e-02  2.490312e-01  -4.145483e-02  1.863503e-01  2.154047e-01  1.746131e-01  2.364278e-01  4.692717e-02  1.044779e-01  5.449198e-01  1.082042e-01  -4.566477e-01  2.744831e-01  -1.372402e-01  1.845798e-01  1.589578e-01  1.962019e-01  -2.427754e-01  -6.788505e-02  1.187176e-01  7.489870e-02  -1.786302e-01  -2.049319e-01  -2.075205e-01  -2.827580e-02  9.489807e-02  1.250669e-01  8.432751e-02  1.209711e-01  1.402835e-01  2.255853e-01  2.716969e-02  1.719515e-01  3.365985e-01  -2.642492e-02  -9.148296e-02  2.184631e-01  7.952641e-02  -1.501155e-01  1.084990e-01  -3.608523e-01  2.197545e-01  2.344988e-01  -2.126607e-01  2.226816e-01  1.827156e-01  2.084199e-01  7.958694e-02  1.032789e-01  -2.130767e-01  1.630788e-01  -1.271090e-01  -4.439012e-01  -5.524538e-02  6.371539e-02  5.712878e-02  4.446100e-02  -9.316774e-02  2.201240e-01  1.322639e-01  -1.241814e-01  1.070096e-01  2.176843e-01  -3.513752e-02  -2.022293e-01  -7.041364e-02  -1.470588e-01  5.182557e-02  -1.677675e-01  3.176317e-01  2.083735e-01  -1.218050e-01  -2.044507e-01  1.108484e-01  3.374661e-01  -2.022062e-02  -1.815130e-01  3.645262e-02  9.422266e-02  -2.086675e-02  1.107873e-01  -1.821061e-01  -2.198298e-01  2.120982e-02  -4.864101e-02  -1.780639e-01  1.363057e-02  -1.184667e-01  1.172244e-01  -1.278462e-02  -7.012914e-02  1.644138e-02  2.138410e-01  5.157816e-02  -4.065211e-02  8.317497e-02  9.558432e-03  2.090337e-01  -1.450952e-01  -1.112263e-01  2.217414e-01  1.716469e-01  -1.754505e-01  4.004145e-02  -6.436767e-03  -9.967322e-02  1.438792e-01  -2.267230e-02  1.044614e-02  -6.635301e-02  2.360002e-01  -8.639516e-02  1.467843e-01  1.597019e-01  -1.140966e-01  1.303013e-01  2.541590e-01  4.672891e-02  7.553003e-02  -4.414011e-02  1.669687e-01  9.035674e-02  2.322937e-01  1.081653e-01  2.600225e-01  -2.359060e-01  -2.835956e-01  2.166770e-02  9.653073e-02  -1.345012e-01  9.736241e-02  6.134579e-01  9.958297e-02  2.951705e-01  -1.952064e-01  6.325915e-02  -3.221937e-01  1.611458e-01  2.137630e-02  -1.664386e-01  -1.723348e-01  2.134224e-01  -2.111841e-01  -2.056808e-03  1.956061e-02  1.921790e-02  1.388921e-01  1.187351e-01  -1.465648e-01  2.881593e-01  -9.443574e-02  -3.020904e-01  1.544050e-01  5.978869e-02  1.231281e-01  -1.101070e-02  -1.845308e-01  -3.765105e-02  -2.003353e-01  7.147410e-03  6.792574e-02  -1.715080e-02  6.540352e-02  -2.913332e-01  9.121644e-02  -1.060360e-01  -7.278159e-02  -4.037109e-02  2.775251e-01  3.244944e-01  1.072671e-01  -1.033984e-01  2.029692e-01  5.532180e-02  1.241529e-01  -8.259384e-02  -5.782499e-01  -1.941432e-02  6.587262e-02  2.850795e-02  5.659835e-02  -1.142803e+00  -2.377793e-01  1.774576e-01  2.566486e-01  1.784142e-01  4.774900e-01  1.215460e-01  -1.952106e-01  -1.505847e-03  2.577428e-02  1.148547e-01  -1.999082e-02  -1.899575e-01  -7.960242e-02  3.521404e-01  2.025098e-01  7.301731e-02  2.304311e-01  1.296832e-02  1.685283e-01  -2.411445e-01  -5.901653e-02  1.016317e-01  3.825131e-01  2.496891e-01  2.364929e-01  2.106167e-01  7.128028e-02  4.276031e-02  3.294590e-01  -1.007473e-01  4.304373e-01  2.230559e-01  -1.778740e-01  6.459064e-02  -8.331212e-02  4.137901e-02  -2.214926e-01  -1.850594e-01  1.470188e-01  -2.594259e-02  1.020392e-01  2.268065e-01  -2.555701e-01  9.987989e-02  3.447900e-01  -2.171059e-01  9.636074e-02  1.011423e-01  -6.567286e-02  -3.121689e-01  2.155033e-01  -3.548825e-02  -7.034157e-03  -1.140563e-02  1.480933e-01  -3.383090e-02  -1.408491e-01  2.740480e-01  -1.945469e-02  -1.605866e-01  -1.274252e-01  -1.979814e-01  2.614551e-01  3.374180e-01  -1.402207e-01  4.056398e-02  2.428357e-01  -3.120918e-02  -4.813693e-02  -5.611295e-02  -4.118055e-01  5.792581e-02  2.268717e-01  -1.664290e-01  -1.205765e-01  -2.988057e-02  2.386297e-01  2.161041e-02  -2.885407e-01  8.571704e-02  1.700680e-01  2.238776e-01  -1.932671e-02  1.169866e-02  -7.893097e-02  -9.493123e-02  2.352119e-01  2.291731e-01  -8.834632e-02  3.481342e-01  -2.940240e-02  4.270383e-01  -4.311910e-02  1.968182e-01  -5.078932e-01  -5.543580e-01  1.351531e-01  5.202857e-02  -1.974512e-02  4.023986e-01  6.293995e-02  1.717072e-03  7.843281e-02  -6.709028e-02  -2.516721e-01  1.373288e-01  1.657148e-01  -7.009109e-02  -2.174477e-01  1.571841e-02  -1.989906e-01  -1.006340e-01  -1.758073e-01  2.894265e-01  -9.012069e-03  1.201136e-01  -5.906406e-02  3.863620e-02  2.067188e-01  1.510323e-02  3.934000e-02  1.524142e-01  1.328610e-01  1.689455e-01  3.100201e-01  -3.308872e-02  2.671644e-01  -1.330561e-01  4.373214e-02  -3.553646e-04  2.177567e-01  -1.373259e-01  -9.160872e-02  -9.624088e-02  8.398258e-02  -8.434084e-02  1.013862e-02  -2.500550e-02  -2.414796e-01  -7.022220e-01  -5.737101e-01  2.664464e-01  -1.010748e+00  1.610823e-01  1.472069e-01  -2.672222e+00  -8.739160e-01  -6.409289e-01  -8.383591e-02  -1.792212e-01  -1.864303e-01  -3.162256e-02  -4.039833e-01  -3.590694e-02  6.571323e-02  -3.353357e-01  1.794944e-01  7.650456e-03  1.526818e-01  -2.651329e-01  6.044916e-02  1.559036e-01  -5.450395e-02  4.191417e-01  -2.156549e-01  2.482144e-01  1.459195e-01  -4.831626e-01  7.340970e-02  -1.030239e+00  3.589806e-01  1.487977e-01  4.244306e-02  1.905605e-01  -2.292847e-01  -9.820266e-02  4.133001e-01  -4.117030e-01  2.016524e-01  -1.090675e-01  7.959072e-02  5.479324e-01  -1.126164e-01  1.957299e-01  8.749878e-02  -9.759226e-02  -6.614209e-01  2.208185e-01  -6.400278e-02  3.377761e-01  -3.663625e-01  -6.061654e-02  1.425792e-02  -7.692697e-02  1.610965e-02  4.483915e-01  1.152843e-01  1.218249e-01  -2.120743e-01  6.341834e-02  1.464642e-01  -2.226494e-01  -1.586049e-01  7.881168e-02  1.383733e-01  -2.057373e-01  -2.116124e-02  -5.661578e-01  1.962866e-01  1.811308e-01  -1.311068e-02  -1.776037e-01  2.101683e-01  -2.249292e-01  1.307811e-01  -4.788465e-02  8.617032e-02  6.487156e-02  1.858783e-01  3.816794e-01  -2.437337e-01  -8.365256e-02  2.899676e-01  1.154263e-02  2.776469e-01  -2.349617e-01  -6.561429e-02  -2.204848e-01  -1.661164e-02  -6.640136e-01  -2.606110e-01  3.627635e-01  -8.903495e-02  -1.345154e-01  3.914738e-01  5.848527e-03  -8.938304e-01  3.342671e-02  -1.383077e-01  -4.386109e-01  -8.514748e-02  -2.406382e-01  -2.262001e-01  -2.644190e-01  5.890405e-01  -5.440274e-01  -1.490432e-01  1.236376e-01  1.131446e-01  -7.605874e-02  -6.121448e-02  -1.290225e-01  4.632261e-02  -8.447339e-01  2.120478e-01  5.434989e-02  -6.035105e-02  5.458832e-02  -2.878648e-01  8.223075e-03  7.944161e-02  -1.652055e-01  1.479792e-01  1.017359e-01  -7.683446e-02  1.833465e-01  -2.292591e-01  -1.261181e-01  5.472778e-02  -2.281736e-03  1.107114e-01  7.071858e-02  1.559955e-01  -8.676614e-02  1.019683e-01  -4.744384e-02  3.150078e-01  4.983513e-02  1.424690e-02  -3.798141e-01  3.341650e-02  3.049921e-01  -1.668866e-01  8.536659e-02  2.007446e-01  2.132205e-01  4.983705e-02  -3.449927e-02  4.148962e-02  2.277415e-01  -1.289763e-01  2.625269e-02  2.842111e-01  2.302309e-01  -8.055151e-02  -1.777956e-01  1.404501e-01  2.650234e-01  -1.341193e-01  -3.010793e-01  -3.380330e-02  -5.083738e-03  -1.238581e-01  6.239081e-02  -4.874780e-01  -7.160589e-03  -1.005873e-01  -7.203531e-02  -1.414893e-01  1.145966e-01  1.510926e-01  8.306296e-02  -7.224885e-02  -1.245735e-01  -2.225796e-01  8.706617e-02  2.214786e-01  -1.475921e-01  2.345403e-01  1.219463e-01  9.719300e-02  -2.332534e-01  -1.494594e-01  1.467445e-02  -2.818235e-01  1.468231e-01  -1.216674e-01  1.993121e-01  2.701484e-01  1.219889e-01  2.277237e-01  -2.645205e-01  -1.172781e-01  -4.833775e-02  8.891492e-02  5.229173e-02  -3.847474e-01  -5.528202e-02  -9.143709e-02  5.163150e-02  -1.293821e-01  1.763564e-01  -1.269640e-02  -1.552969e-01  -1.570856e-01  -2.349554e-01  5.671439e-02  -1.449979e-01  -8.293424e-02  2.109032e-01  1.476840e-01  1.534191e-01  8.490408e-02  -2.422832e-01  1.447946e-01  -1.441274e-01  1.602140e-01  8.023489e-02  1.953941e-01  1.572791e-01  -2.419484e-01  1.877295e-01  -2.342380e-01  1.321425e-01  1.549150e-01  -2.728388e-01  6.069629e-03  1.160579e-02  -2.932311e-01  1.604375e-01  -2.051849e-01  -1.449016e-01  -2.840166e-01  -2.113350e-01  6.918207e-02  -1.348240e-01  -1.423150e-01  -2.686558e-01  -2.906307e-01  -1.816484e-01  1.401752e-01  -3.089812e-01  -1.935033e-02  -2.413152e-01  -2.742797e-01  -9.177910e-02  1.612267e-01  2.712113e-01  5.799799e-02  -3.201258e-01  1.622554e-02  9.077206e-02  2.000757e-01  -1.032217e-01  2.355821e-02  2.039240e-01  -3.344252e-01  1.450896e-01  2.300880e-01  -4.235557e-01  8.657508e-02  1.636516e-01  -1.673073e-01  -2.985686e-01  -1.114310e-02  2.071064e-01  -1.671118e-01  -1.783122e-01  -3.440966e-02  -3.016321e-01  3.005815e-01  2.384951e-01  3.063595e-01  1.120530e-01  9.681886e-02  -3.379001e-02  1.105849e-01  -1.584840e-01  1.689970e-01  4.280924e-01  1.157696e-01  -1.216794e-01  -1.200375e-01  5.010585e-02  1.924122e-01  1.465715e-01  1.310660e-01  -8.610469e-02  -1.771536e-01  -8.794168e-02  1.417335e-01  4.636581e-02  -2.149818e-01  2.299061e-02  6.613533e-02  3.081428e-02  1.108828e-01  7.127389e-02  -1.952964e-01  -1.646823e-03  -1.979525e-01  1.389396e-01  -2.156779e-01  8.788794e-02  -1.648022e-01  4.047895e-02  -6.990225e-02  -1.712272e-01  -7.341652e-02  1.417409e-01  1.676580e-01  -1.101890e-01  -8.229726e-03  1.976660e-01  -5.885169e-02  1.266134e-01  -2.148192e-01  -2.052087e-01  -1.971229e-01  -2.108234e-01  6.204734e-02  -3.528947e-02  1.509449e-01  -2.229413e-01  -1.441566e-01  -2.266109e-01  -7.778588e-02  -1.829968e-01  -2.095926e-01  8.703469e-02  -7.178259e-02  1.305891e-01  -2.855680e-01  -2.611247e-01  1.852153e-01  -1.991271e-01  -3.627945e-02  2.790978e-02  -1.273987e-01  4.914547e-02  -2.392294e-01  -2.441414e-01  -1.978689e-01  2.248891e-01  -2.717873e-01  -1.082452e-01  9.998422e-03  -2.882713e-02  -2.119861e-01  -1.320154e-02  -9.183584e-02  -2.200102e-01  6.051317e-02  1.498910e-01  -4.226215e-01  -2.697113e-01  -9.789014e-02  -3.446564e-02  -6.773297e-02  -7.534603e-03  4.366611e-02  -1.504967e-01  3.931533e-01  1.917958e-01  4.737689e-01  -1.711808e-01  1.413147e-01  5.032253e-02  6.226010e-02  -3.298729e-01  -1.453122e-01  4.595818e-02  1.259673e-01  1.585024e-01  1.438533e-01  5.159115e-02  1.514557e-01  2.030157e-01  -1.218705e-01  1.954184e-01  -1.502070e-01  -1.286052e-01  3.436873e-01  1.185296e-01  -9.040882e-02  -1.986740e-01  3.602125e-01  -2.697439e-01  -1.851949e-03  -2.082617e-01  -4.589585e-02  4.126014e-01  8.583271e-02  2.728115e-01  2.367106e-01  -1.666422e-01  3.952069e-01  -1.488039e-01  1.704488e-01  2.201892e-01  7.694998e-02  -8.378513e-01  -2.227073e-01  9.858440e-02  -1.346174e+00  6.173578e-01  3.544429e-01  1.293087e-01  6.991923e-02  -3.694877e-01  -1.197975e-01  -2.038822e-01  -6.303048e-01  -3.976448e-02  2.331602e-02  3.796346e-01  2.052149e-01  2.076452e-01  -8.524274e-02  -3.250715e-01  -3.502129e-01  2.408985e-01  -1.005233e+00  -4.610440e-01  -2.508910e-01  -2.949710e-01  2.435432e-01  3.193723e-02  -3.048158e-01  5.645331e-01  -7.374600e-01  -7.735205e-02  -4.522518e-01  6.635580e-01  -1.141420e-01  1.110622e-02  1.284765e+00  1.653047e-01  -4.819597e-01  -3.340863e-01  -5.096501e-01  -3.871197e-03  1.131816e-01  -2.532114e-02  -1.135919e-01  1.614873e-01  2.353044e-01  1.904654e-02  -2.025814e-01  3.049526e-01  2.104528e-01  -9.926611e-02  2.403514e-01  5.741405e-02  -2.901678e-01  -8.067935e-01  2.884693e-01  8.844458e-02  -1.149176e-01  1.503311e-02  -2.244208e-01  2.811740e-02  9.841236e-02  3.941006e-01  2.228515e-01  5.431306e-02  -2.839727e-02  1.123627e-01  -7.205691e-02  1.496805e-01  7.966644e-02  8.455866e-02  1.352643e-01  -4.561551e-01  1.588801e-01  7.534373e-02  1.791579e-01  -4.187927e-02  -4.273344e-02  -3.513207e-01  1.947650e-01  -9.348761e-02  -1.812517e-01  1.660809e-03  -8.403766e-03  2.025716e-02  -2.644754e-02  -2.201582e-01  1.633310e-01  -2.067534e-01  2.541777e-01  -9.063964e-02  -9.331056e-02  1.908402e-01  9.163810e-02  7.815098e-03  4.114061e-03  1.087751e-01  -1.028900e-01  1.725101e-02  -1.339024e-01  1.448771e-01  1.719290e-01  -2.597073e-01  -5.183740e-02  -1.229640e-01  5.136467e-02  -1.061090e-01  2.068353e-01  -3.304462e-02  7.191798e-02  -9.763116e-02  -7.986993e-02  -2.613066e-01  -2.509074e-01  1.492620e-01  -1.301326e-01  -1.847601e-01  -7.795566e-02  1.776096e-02  -1.179564e-01  6.929401e-02  8.580641e-02  1.484480e-01  2.186751e-01  7.060188e-02  1.794981e-01  -2.613251e-01  -1.624390e-01  -3.875112e-03  -2.787525e-01  2.374226e-02  2.989476e-02  -2.003264e-01  8.093003e-04  -4.784088e-02  1.593400e-01  -2.172231e-01  -2.044309e-01  -2.293132e-01  -1.956760e-01  -1.741089e-02  -1.271756e-02  -1.058484e-01  -2.918741e-01  2.671771e-02  -1.951891e-01  3.343760e-01  -1.723335e-01  5.109976e-02  1.200550e-01  -1.153281e-01  -5.939869e-03  -1.677503e-01  -1.983090e-01  -5.415746e-01  -3.617580e-03  -1.401958e-01  4.815696e-02  -1.808413e-01  4.060795e-02  -7.721518e-02  2.205178e-02  7.556765e-02  -3.011413e-02  -8.995631e-02  -2.258757e-01  3.813309e-01  -5.410768e-02  1.906195e-01  1.946955e-01  -1.436972e-01  9.319950e-03  2.091142e-01  2.209874e-01  7.774825e-02  -1.215100e-01  -5.173513e-02  2.638043e-01  -6.821015e-02  2.125225e-01  1.255849e-01  -2.154710e-02  2.024796e-01  2.370949e-01  -7.946168e-02  3.193209e-01  -2.435730e-01  1.718971e-01  -2.780792e-02  -1.579776e-01  -3.047963e-01  -5.973569e-02  1.170328e-01  1.001720e-01  1.470870e-01  8.948851e-02  -5.995225e-02  9.437482e-02  -2.955105e-01  -2.910021e-01  -2.351643e-01  -3.533610e-02  4.224531e-01  2.216928e-01  -1.109194e+00  9.034177e-02  -1.896750e-01  -1.310793e-01  5.202029e-01  -5.932745e-03  3.835206e-01  -6.921958e-01  -7.033970e-02  -7.565951e-01  1.182540e-01  3.326005e-02  3.526274e-02  -2.113095e-01  7.861695e-02  2.585102e-01  -1.128024e-01  3.956207e-02  3.256297e-01  1.316819e-01  -9.395246e-02  5.484412e-03  3.574975e-01  -8.447307e-03  -2.690213e-01  1.294190e-01  1.742491e-01  2.897988e-03  -1.901279e-01  6.069224e-02  -1.180128e-01  -7.869536e-02  7.549509e-02  -1.048985e-01  5.000229e-03  2.778806e-01  1.481623e-01  9.495426e-02  -1.610120e-01  -1.378767e-01  -3.217678e-02  -3.525442e-01  -6.086126e-02  -5.829999e-02  -1.379877e-01  3.097492e-02  -1.756169e-01  8.589672e-02  3.502876e-01  2.915961e-02  -5.100119e-01  -2.339027e-02  6.961413e-02  -2.326836e-01  -3.898545e-02  2.133077e-01  1.451773e-01  1.140394e-01  -1.776979e-01  -3.259430e-01  2.082861e-01  6.856339e-02  -5.472747e-02  -1.884796e-01  3.323188e-01  7.794478e-02  2.142484e-01  4.153534e-01  1.948184e-01  -1.191139e-01  -1.907220e-01  1.431296e-01  -9.560988e-02  1.720029e-01  1.257025e-02  2.120888e-01  5.164880e-02  1.072106e-01  1.323421e-01  -1.931739e-01  1.530230e-01  1.976173e-01  7.510707e-02  5.327468e-02  1.170169e-02  -5.130523e-03  8.986275e-02  -8.457220e-02  -2.395069e-01  -2.046904e-01  -6.702783e-02  -1.485290e-01  -2.154716e-01  1.890774e-01  -2.661952e-02  1.718648e-02  2.573590e-01  -5.890199e-02  2.107453e-01  3.860155e-01  -3.220692e-02  -7.307109e-02  -1.708708e-01  -7.762263e-02  5.574806e-01  -1.669274e-01  -7.489281e-03  2.217945e-01  -4.889662e-01  -5.178258e-01  1.005946e-01  -1.752468e-01  -6.637874e-02  -1.122541e-01  2.724736e-01  -1.787221e-01  4.280306e-02  1.663630e-01  3.249393e-01  -3.361554e-02  -1.518440e-01  3.412857e-02  6.738845e-02  -1.560100e-01  -1.042348e-03  9.150660e-02  6.717091e-02  1.182322e-01  2.281387e-01  -2.629965e-01  1.290865e-01  1.373819e-01  -5.007856e-02  7.698610e-02  -1.893113e-01  5.193079e-02  8.732316e-02  2.602013e-01  -2.229317e-01  -7.962070e-02  -9.625122e-02  -1.458223e-01  1.353209e-01  2.347499e-01  9.396987e-02  3.194761e-01  -8.133328e-03  2.357005e-01  1.205111e-01  -3.187891e-01  1.034827e-01  -3.390065e-02  -1.243872e-01  -1.805632e-01  -1.065395e-01  -1.243907e-01  1.307766e-01  1.106308e-01  1.635779e-01  4.903984e-01  1.647128e-01  2.769750e-02  -1.204901e-01  7.625203e-02  -2.451890e-02  2.426954e-01  1.097754e-01  -2.500458e-01  -2.895621e-01  1.056668e-01  -2.095268e-02  -8.600912e-02  -1.646683e-01  -5.810140e-02  -2.596674e-01  2.703246e-01  -1.419584e-01  1.706856e-01  2.560985e-02  7.772605e-02  6.550300e-02  -2.804171e-01  -4.585011e-02  1.955814e-01  -9.387413e-02  1.821533e-01  -2.487444e-03  -2.008216e-01  -4.703755e-03  -1.623004e-01  -1.348088e-01  2.313267e-01  -1.989742e-02  3.006435e-02  -1.271771e-01  -3.569012e-01  -8.972906e-02  -9.204306e-02  -3.158985e-02  3.637071e-03  -1.498509e-01  5.949074e-02  2.013942e-01  1.246871e-01  2.611199e-01  -2.160419e-01  2.065646e-01  1.782567e-01  2.593647e-01  4.425392e-01  2.634133e-01  1.417604e-01  1.256082e-03  -1.941166e-01  1.132091e-01  -2.017495e-01  1.525881e-01  -2.533625e-01  -1.400659e-02  8.219053e-02  4.346303e-02  -1.531709e-01  -1.203936e-01  -8.686079e-02  -4.375350e-02  -7.321137e-03  -1.151194e-01  1.310253e-01  3.513800e-02  -1.391215e-01  5.187395e-02  1.121684e-01  2.780541e-01  -5.075707e-02  -1.237865e-02  1.280978e-01  6.239950e-03  6.414796e-02  3.919473e-02  -1.231358e-01  -8.150341e-02  -9.933725e-02  -1.399490e-01  5.952154e-03  1.538137e-01  -1.560214e-01  -1.923246e-02  1.966064e-02  1.217234e-01  -7.251459e-02  1.124579e-01  -2.959498e-02  2.879009e-02  3.034136e-02  -7.465782e-01  -2.314255e-02  -3.877601e-02  1.325410e-01  1.386651e-02  -7.629934e-02  3.452189e-02  1.194474e-02  2.037291e-02  1.586734e-01  1.910729e-01  -2.353320e-01  9.689820e-03  -8.042902e-02  -3.625063e-02  3.370532e-02  1.018885e-01  1.881511e-01  3.918659e-02  2.058870e-01  6.878828e-02  1.784851e-01  3.492977e-02  7.422187e-02  -3.561326e-02  -2.768857e-01  -1.558617e-01  4.378589e-01  -6.009400e-02  -7.204358e-02  2.255795e-03  3.463401e-02  1.546428e-01  -3.838464e-02  -6.694034e-02  1.952994e-01  4.922719e-02  1.500308e-02  2.525310e-02  2.159451e-01  1.984817e-01  -2.607977e-02  -2.233985e-01  -1.524038e-01  2.552482e-01  2.201125e-01  -3.097496e-02  2.860792e-01  2.300233e-01  4.199728e-02  -8.218558e-02  -1.780947e-01  1.577726e-01  1.251373e-02  -2.315120e-02  -3.712218e-01  1.094901e-02  -1.690648e-01  -2.518662e-02  -3.417578e-01  2.266161e-01  1.450996e-02  2.197861e-01  3.422920e-01  6.561379e-02  2.482288e-01  8.161516e-02  -1.935452e-01  2.365380e-01  -1.329222e-01  -1.639836e-01  -1.249022e-01  2.929047e-02  3.421011e-02  1.606910e-01  2.670511e-02  7.606290e-02  -2.527148e-02  -3.439537e-01  6.179674e-02  -2.416778e-01  -5.666532e-02  -2.806417e-01  -1.352591e-01  -2.617594e-01  1.951907e-01  -6.783611e-02  -2.387145e-01  1.430622e-01  -1.070957e-01  5.483875e-01  3.153529e-01  1.913083e-01  3.371292e-02  -2.576015e-01  -4.959354e-01  -8.384163e-03  3.005636e-01  1.900473e-01  -9.672602e-02  4.518682e-01  -1.642899e-01  -7.724916e-01  7.880507e-02  2.199098e-01  -2.592319e-01  -1.722480e-01  -1.775464e-01  7.614011e-02  5.246083e-01  1.994375e-02  1.712617e-01  1.970261e-01  -3.348434e-01  -2.111027e-01  -1.795536e-01  -1.064132e-01  -2.204485e-01  2.698247e-01  9.892996e-02  -5.266045e-02  7.665178e-02  -1.457645e-01  -5.934732e-02  -7.081183e-02  7.287036e-02  1.981929e-01  -2.445767e-01  1.013466e-01  2.086070e-02  -1.638773e-01  -3.864626e-01  -6.122807e-01  -1.279902e-01  2.099579e-01  1.168123e-01  2.699192e-02  -1.819124e-01  -1.400160e-01  -1.189053e-01  3.532350e-01  -2.533972e-01  3.061146e-01  1.324242e-01  -4.287260e-01  2.611157e-01  2.350392e-01  -1.162168e-01  1.768443e-01  8.810037e-02  7.695357e-02  1.089426e-01  -6.534572e-01  -3.566868e-03  2.000121e-01  -3.055283e-01  1.082026e-01  2.289125e-02  -5.366287e-01  4.167373e-01  -1.710821e-01  5.582787e-02  -1.683435e-01  -2.178816e-01  -2.202043e-01  1.467146e-01  -9.196750e-02  -1.401610e-01  4.042052e-01  2.317934e-01  4.411128e-01  7.460760e-02  7.182397e-02  -2.920012e-02  -1.316721e-02  -1.204014e-01  5.329970e-02  -1.268594e-01  -3.376092e-01  -8.616231e-01  1.657935e-03  -8.049902e-02  -1.356828e+00  4.294239e-02  8.039872e-02  -1.238604e-01  1.535300e-01  -5.124964e-01  2.193066e-01  6.019408e-02  -1.329539e-01  -1.204974e-01  3.429283e-01  -4.506536e-01  -1.741736e-01  3.582552e-01  -2.284424e+00  9.234267e-02  1.721916e-01  8.981117e-02  6.692249e-01  -1.368172e-01  -2.739383e-02  -1.638640e-01  -1.891744e-01  -3.310878e-01  -2.071881e-01  1.214815e-01  1.077411e-02  -6.060908e-01  -1.235394e-01  -1.387599e-01  -3.744849e-02  1.397783e-01  -1.320597e-01  4.787972e-02  1.310125e-01  -1.883053e-01  9.511763e-02  -5.292195e-02  -3.258407e-01  5.370512e-01  -2.347733e-01  2.729280e-01  2.337255e-01  3.752905e-01  5.851128e-02  -2.727885e-01  1.244130e-01  -5.177652e-02  -1.502327e-01  6.968930e-02  -1.039188e-02  1.621702e-01  1.242672e-01  -3.064119e-02  2.164919e-01  1.118907e-01  -8.309501e-02  -1.120256e-01  -2.736953e-01  1.573933e-01  -1.797582e-01  -1.388205e-01  -6.591467e-02  -2.195455e-01  -2.408967e-01  1.125569e-01  -2.409409e-01  -1.197838e-02  -1.525152e-01  3.610921e-02  1.024180e-02  1.794151e-01  1.056739e-01  -1.820016e-01  -1.701320e-02  5.662620e-02  -1.685867e-04  1.317013e-01  -2.480061e-01  -7.188807e-02  1.405017e-01  6.377071e-02  -8.030622e-03  -2.166943e-01  -2.008011e-01  -3.909499e-02  -2.671782e-01  -2.967239e-02  1.461159e-02  1.005071e-01  1.839516e-01  7.533220e-02  -1.311612e-01  7.214576e-02  -1.522370e-01  1.947205e-01  -1.614836e-01  6.000467e-02  4.601403e-02  -2.500981e-01  -1.772593e-01  -1.458111e-01  2.056849e-01  -5.961679e-02  1.196524e-01  -6.920983e-02  -2.048793e-01  -1.971615e-01  -5.266234e-03  1.235085e-01  -1.400635e-01  -5.612750e-02  1.581594e-01  -5.590104e-02  -2.447807e-01  8.994672e-02  3.432109e-02  -1.871421e-01  -1.339557e-01  -1.309177e-01  -1.078057e-01  -1.484102e-01  -4.586741e-02  -1.281256e-01  -1.194632e-01  -3.902167e-02  -9.272321e-02  -3.471696e-02  1.836042e-01  -2.002244e-01  -1.499787e-01  -6.309715e-02  2.461688e-03  -1.497562e-01  -6.829447e-02  2.342628e-01  7.603155e-02  1.979968e-01  -8.309213e-02  -1.308817e-01  -2.392267e-01  -2.432705e-01  2.762164e-02  -2.326810e-01  1.238516e-01  -2.058309e-01  -2.191451e-01  -3.252561e-02  1.724708e-01  5.360059e-02  -1.551378e-01  6.455266e-02  2.357357e-01  1.586023e-01  3.825252e-02  -2.105011e-01  1.503888e-01  1.527971e-01  1.180383e-01  -3.478421e-02  -5.769491e-02  -5.442860e-02  1.837316e-01  -9.265941e-01  -5.650201e-01  -3.289924e-01  -5.972198e-02  -1.804751e-02  -2.796147e-01  -1.783793e-01  1.329505e-01  -3.221678e-01  -4.720750e-01  -6.681222e-02  -1.654656e-01  2.487954e-01  2.170693e-01  9.086348e-02  -6.949926e-02  3.007741e-01  1.620155e-01  -2.657622e-02  3.171447e-01  -1.737548e-01  -1.083475e-01  9.113988e-02  -6.351005e-01  1.645708e-01  1.392252e-01  2.324741e-01  -1.247769e-01  2.602749e-01  -2.392277e-01  1.319071e-01  -2.940033e-03  -8.124523e-03  -9.410471e-02  1.288228e-01  -1.124058e-01  3.380471e-01  1.743414e-01  2.331319e-02  3.242105e-02  -1.193687e-02  1.988067e-01  -2.904405e-01  1.128096e-02  -1.746714e-01  9.598444e-03  1.774459e-01  -2.225895e-01  2.671643e-01  7.144084e-02  -2.054925e-02  -3.218233e-01  -4.013185e-02  1.327879e-01  2.020675e-01  -2.899341e-01  -2.782494e-02  2.795811e-01  1.004138e-01  -2.482232e-01  -3.202835e-01  1.679186e-01  -2.740242e-02  -2.630512e-01  2.176290e-01  -3.326862e-02  -4.101143e-01  -2.000680e-01  3.742700e-01  9.787621e-02  -1.776127e-01  -1.765206e-01  1.324125e-01  -2.600843e-01  -1.860418e-01  2.267485e-01  -3.976164e-02  2.484777e-02  1.269308e-01  1.665812e-01  1.634090e-01  5.000934e-02  -5.397619e-02  2.946343e-01  -3.733329e-02  1.515983e-01  -1.968473e-01  2.678441e-01  1.520146e-01  -2.236087e-02  -6.378970e-02  -1.002890e-01  1.566861e-01  2.886060e-01  -5.985399e-02  -3.850240e-01  -1.555810e-01  8.573384e-02  -4.057777e-02  3.756063e-02  2.691098e-01  6.606352e-01  -2.631980e-01  7.784000e-02  -4.646862e-02  -4.109000e-01  6.924611e-02  3.766081e-02  -4.991867e-02  6.282020e-02  1.408729e-01  2.435559e-02  -1.065390e-02  -2.406020e-01  2.717706e-01  -1.600894e-01  1.329520e-01  1.053044e-01  1.483561e-02  -7.446147e-02  -1.245406e-01  1.370115e-01  2.806694e-02  1.496411e-01  7.443352e-02  -1.029977e-01  3.380972e-01  2.421560e-01  -1.799484e-01  2.044099e-01  1.706998e-01  -1.746532e-01  1.088915e-02  7.029387e-02  2.655660e-01  6.937512e-02  1.268878e-01  3.932530e-01  1.769488e-01  -1.433263e-01  -1.382574e-01  -3.597315e-02  -2.715384e-01  -2.297149e-01  -1.105310e-01  7.016701e-02  -4.843846e-02  9.755403e-02  -2.728138e-01  1.114625e-01  2.954048e-01  -3.423057e-01  3.258500e-01  7.904564e-02  1.674086e-02  5.485495e-01  2.325958e-01  -6.189052e-03  7.321211e-02  -1.902479e-03  3.690674e-01  1.828995e-01  1.772357e-01  -2.055702e-01  -3.489676e-01  2.236214e-01  2.930716e-01  -3.502897e-02  8.972262e-02  -2.330158e-02  7.204505e-02  7.077172e-02  -3.332618e-02  -1.134988e-01  8.157653e-02  -1.305920e-01  -1.560340e-01  2.010066e-01  -2.908894e-02  8.283386e-02  -1.376816e-01  -1.544794e-01  -1.057037e-01  -1.338555e-01  -2.662743e-01  2.734408e-01  6.130994e-02  4.159100e-01  4.649837e-02  6.192034e-04  -6.610333e-02  2.281418e-02  -2.450199e-01  1.671374e-01  7.988440e-03  1.571855e-01  2.482109e-01  1.084933e-01  1.112627e-01  -4.677195e-02  8.459183e-02  -2.760505e-01  1.393152e-05  2.174041e-01  2.072104e-01  2.170469e-01  5.852684e-02  -1.046020e-01  2.180885e-01  -8.401515e-02  -5.526496e-02  -1.522546e-03  1.968727e-01  -1.466943e-01  -1.106337e-01  1.649992e-01  -7.912976e-02  1.876801e-01  4.287358e-02  3.775813e-01  -4.616094e-02  -1.676370e-01  -1.838351e-01  -1.986226e-01  -8.714150e-02  2.498730e-01  -3.803261e-01  -9.864380e-02  1.107708e-01  -1.896770e-01  3.108368e-02  2.978170e-02  -3.354997e-01  -1.182659e-01  1.908686e-01  -2.176402e-01  2.520524e-02  3.676436e-02  -1.661356e-02  -7.660679e-02  4.673677e-02  2.359816e-01  -4.187699e-02  3.886892e-03  1.455265e-01  2.379851e-01  2.637223e-01  2.746017e-03  -7.071369e-02  -7.320308e-02  7.439185e-02  -4.391648e-01  2.085076e-01  -1.027732e-02  8.532519e-02  -4.042388e-01  1.410704e-01  -1.874925e-01  3.039997e-01  -4.690850e-04  5.880187e-01  -2.844582e-01  8.858582e-02  1.547352e-01  -6.755244e-02  2.875322e-01  -8.004092e-02  2.039485e-01  -1.930915e-02  1.400397e-01  6.261757e-02  2.159016e-01  -1.958472e-01  -1.535291e-01  7.145743e-02  -1.355674e-01  -1.974942e-01  2.914821e-01  -2.170382e-02  -1.068410e-01  -1.470573e-02  -8.662842e-03  -5.702481e-02  6.310041e-02  3.275026e-01  -8.668928e-04  9.797549e-02  1.200671e-01  9.494182e-02  -2.379121e-01  1.900893e-01  2.547981e-01  -1.380595e-02  1.974194e-01  1.091628e-01  -2.120078e-01  2.065053e-01  1.523722e-01  -1.010606e-01  -6.531499e-02  5.930575e-02  -5.313398e-01  -2.260276e-01  1.192339e-01  8.189745e-02  2.235570e-01  5.344299e-02  2.679146e-01  -1.450482e-01  -1.175165e-01  1.222217e-02  3.572254e-01  -1.847843e-01  -5.757576e-02  1.503213e-01  -8.366880e-02  -3.512938e-02  2.900759e-02  1.215386e-01  2.458670e-01  1.834810e-01  -2.501063e-02  -2.880428e-02  -4.317776e-02  -2.566833e-02  -1.764784e-01  -1.675931e-01  1.777598e-02  7.986201e-02  1.670297e-01  -1.410046e-01  -1.302422e-01  -6.621715e-02  -2.114766e-02  -5.745509e-02  7.469801e-02  2.328119e-01  -1.090363e-01  -1.173143e-01  -5.620696e-02  -7.667096e-02  1.182027e-02  3.156437e-01  1.473288e-02  1.101174e-01  -1.138292e-01  2.447050e-01  -3.827693e-01  -1.836659e+00  1.486857e-01  1.446084e-02  -1.659836e-01  -2.325098e-02  2.209893e-01  -2.038159e-01  6.704804e-01  -1.593549e-01  9.865198e-02  1.502719e-01  -2.593326e-01  8.808864e-03  6.579302e-02  7.427409e-02  -1.919720e-01  1.647673e-01  1.207639e-01  -6.011296e-01  1.686924e-01  6.578000e-02  1.918086e-01  -2.517965e-02  -8.800201e-02  8.077644e-02  -4.298541e-01  -3.347664e-01  2.508624e-01  2.535416e-01  -1.297577e-01  -5.633831e-02  -9.377999e-01  -8.671937e-02  4.554265e-02  -6.961277e-01  -1.618287e-01  1.867037e-01  8.764785e-02  -3.702259e-02  1.876917e-01  -2.209637e-01  9.451658e-02  -2.962810e-01  -8.768687e-02  2.193407e-01  3.075528e-01  -1.703842e-01  9.808592e-03  -4.555774e-02  2.236037e-01  2.796361e-01  5.767412e-02  -3.325751e-01  -2.280493e-01  -8.872740e-02  2.880826e-01  -2.441842e-01  -2.610358e-01  1.319686e-01  -7.116280e-02  -1.137090e-01  9.268919e-02  -3.837098e-01  8.982103e-02  -4.864805e-02  2.228810e-01  2.004279e-01  1.860888e-01  1.217280e-01  -1.993112e-01  -2.231040e-01  2.328904e-01  5.597651e-03  -1.049540e-01  -6.072795e-02  8.630764e-02  2.101434e-01  -1.460036e-01  2.044891e-01  1.568105e-01  8.246131e-02  -2.304457e-02  -1.271737e-01  -1.327678e-01  1.265131e-01  6.386737e-02  3.964772e-02  1.623250e-01  -1.119503e-01  -1.154061e-01  2.018058e-01  2.297540e-01  -1.850016e-01  -6.208395e-02  3.824009e-01  1.732840e-01  -3.018093e-02  1.179585e-01  1.111180e-01  4.293316e-02  2.248621e-01  -2.237272e-01  -3.711381e-01  -6.296684e-03  5.676974e-02  2.496241e-01  2.633535e-02  1.227090e-01  3.275399e-02  -2.666936e-01  1.845626e-03  1.730257e-01  -1.401291e-01  -2.560851e-01  -1.634554e-01  -1.052941e-02  1.456884e-01  8.579283e-02  1.803670e-01  1.330922e-01  -2.622107e-02  -1.628378e-01  -7.627465e-02  2.180363e-01  -8.839604e-02  2.168505e-01  -1.259179e-01  -1.771260e-01  2.947200e-01  8.386131e-02  2.029797e-01  1.387493e-01  1.284460e-01  -7.205760e-02  5.193939e-02  2.138688e-02  -1.206782e-01  1.743837e-02  -2.122423e-01  1.150410e-01  -1.675864e-01  7.367311e-02  1.301114e-01  2.732379e-01  -2.050354e-01  1.010542e-01  -9.454714e-02  -5.898407e-02  -1.664106e-01  1.390435e-01  8.190340e-02  -3.847528e-02  -7.265241e-02  -1.307682e-01  -2.213002e-01  -2.122894e-01  8.706306e-02  1.629910e-01  -1.767559e-01  1.798898e-01  -1.225602e-01  -1.531738e-01  -9.424258e-02  -1.791761e-01  1.996893e-02  -1.425743e-01  -3.082457e-02  1.965408e-01  -2.280004e-01  2.198662e-01  1.038744e-01  -2.042517e-01  -6.680124e-02  1.270177e-01  -2.375785e-01  -3.513189e-02  -1.907994e-01  1.508797e-01  -1.496719e-01  6.504292e-03  -2.625393e-01  -6.874236e-02  -9.375549e-02  2.286934e-01  1.828993e-01  -8.512160e-02  -7.026545e-02  -1.346526e-01  1.562169e-01  -1.859379e-01  9.538306e-02  -1.823591e-01  -1.087627e-01  -1.873444e-01  -1.211342e-01  3.550109e-02  9.075018e-02  1.650328e-01  1.267578e-01  1.745744e-01  1.425310e-01  2.215567e-01  -8.567337e-02  -3.028288e-01  -7.022469e-02  -1.330963e-01  -2.274086e-01  3.881849e-02  -2.092110e-01  -9.106822e-02  -1.185403e-02  2.901272e-02  -6.175237e-01  4.725432e-02  1.217512e-01  2.621686e-01  -2.060193e-01  2.634921e-01  -2.160010e-01  1.719487e-01  2.054516e-01  9.119619e-02  -5.261133e-02  -1.595798e-01  2.112958e-01  7.515583e-02  5.391860e-02  1.230538e-01  1.915737e-01  -1.607975e-01  1.467289e-01  2.197328e-01  -7.817382e-02  6.269619e-02  1.590305e-02  5.858842e-02  -1.623845e-01  9.862863e-03  -9.790484e-03  -2.648236e-01  6.383865e-02  -8.864018e-03  1.634444e-01  -3.364351e-02  -1.068762e-01  -1.265842e-01  -1.996961e-01  -8.284709e-02  -8.257439e-02  4.139459e-02  -2.702696e-01  2.368679e-01  -1.578146e-01  6.833265e-01  -1.216980e-01  2.620012e-01  -3.117269e-02  5.628918e-01  2.385815e-01  8.782761e-02  -2.252794e-01  1.771197e-01  -5.415522e-01  -6.922500e-02  -1.234755e-01  7.062856e-03  -2.607936e-02  -2.081628e-01  -3.652371e-01  -1.474263e-01  7.489943e-02  6.361606e-02  -1.135626e-01  5.332132e-02  -2.063247e-01  -1.712793e-01  2.560108e-01  2.937134e-01  -1.961353e-01  -6.985894e-02  2.255344e-01  -8.079090e-02  2.133568e-02  9.367759e-02  -9.210353e-02  1.124776e-01  1.589410e-01  -1.192220e-01  1.182110e-01  2.646064e-01  2.283470e-01  -1.847982e-01  -6.256476e-02  2.259130e-01  9.106731e-02  2.400574e-01  -1.271451e-01  3.466888e-02  1.896091e-02  2.919584e-02  3.545364e-01  -2.783733e-01  -1.701457e-01  -1.296794e-02  1.114865e-01  8.333509e-02  -1.198908e-01  -1.990041e-01  -3.282775e-02  1.628572e-01  -7.252935e-02  -2.836995e-01  -5.447188e-02  7.813123e-02  1.937586e-01  2.493605e-01  -1.639513e-02  1.171909e-01  1.851831e-01  1.641650e-01  2.737815e-01  3.287655e-01  1.024500e-01  4.271505e-02  -1.969090e-01  -2.436419e-01  9.708759e-02  -1.254484e-02  -2.404870e-01  4.763370e-03  4.763257e-02  2.347376e-01  -2.221654e-01  -1.661108e-01  3.458197e-01  1.139494e-01  9.900670e-02  -6.810040e-02  -3.890830e-02  -1.674947e-01  -1.325713e-01  -1.192842e-01  -2.220329e-01  -1.659601e-01  1.725504e-01  1.431201e-01  8.978325e-02  1.009826e-02  2.912615e-01  1.692178e-01  1.325269e-02  1.514553e-01  8.922671e-01  -2.092345e-01  -4.159426e-02  -2.614709e-02  1.809006e-01  5.290779e-01  8.206139e-02  4.199091e-01  -6.183647e-02  -1.612430e+00  9.881712e-02  -5.271051e-02  2.343052e-01  -2.296032e-02  -1.237729e+00  -1.204609e-01  9.745614e-02  -1.798659e-01  5.306061e-02  2.916876e-01  2.224302e-01  5.140539e-02  9.865178e-02  -3.122923e-01  1.111015e-01  -5.276266e-01  -1.805140e-01  1.439516e-01  -1.774064e-01  -2.973741e-02  1.437466e-01  -3.826853e-02  1.642508e-01  -2.359559e-02  1.732723e-01  -1.147967e-01  3.655547e-01  -6.430612e-03  4.678741e-02  -1.249489e-01  9.694871e-02  -1.745117e-01  -2.014241e-01  2.483274e-02  2.240186e-01  1.086574e-01  -1.987982e-01  3.194350e-01  -4.457474e-02  -2.481864e-01  3.225424e-01  -8.258446e-01  -1.063815e-01  6.202869e-02  -8.855698e-03  -4.573304e-01  2.141830e-01  -5.454255e-02  -1.635096e-01  1.402313e-01  -7.866485e-01  -2.178103e-01  -1.330545e-01  -1.675155e-01  -9.073679e-02  -4.790204e-02  -1.177226e-01  5.872915e-02  -6.796983e-02  -2.006265e-04  7.134269e-02  -2.357891e-01  -7.982939e-03  -8.210352e-02  2.823211e-01  -1.643935e-01  1.162032e-01  9.977756e-02  -1.744817e-01  5.750589e-02  -3.719045e-02  -1.967914e-01  1.844276e-01  1.122648e-01  3.101999e-01  5.060375e-01  1.355423e-01  9.731402e-02  1.482605e-01  2.209982e-01  -2.171990e-01  7.732683e-02  1.211950e-01  -2.670079e-01  -1.129019e-02  -2.411831e-02  6.052231e-02  -1.741871e-01  -1.064580e-01  -1.366618e-02  -6.662264e-02  2.660052e-01  -1.976995e-01  -2.171254e-01  2.150614e-01  -5.783974e-02  -1.569441e-01  1.033517e-01  -1.445591e-01  2.792155e-01  -8.309940e-02  2.660072e-01  2.379382e-01  3.668993e-01  -1.984280e-01  9.185111e-02  2.720693e-01  -2.357107e-01  2.295551e-02  -2.694297e-01  1.020444e-01  9.790281e-02  1.140136e-01  -1.396257e-01  7.498673e-02  -3.385530e-01  3.993504e-01  2.529345e-01  -1.256360e-01  1.130866e-01  -5.205331e-02  -1.912254e-01  4.554538e-02  1.664579e-01  3.439337e-01  2.743569e-01  -5.228467e-02  -3.114240e-01  1.177339e-01  1.971305e-01  -5.807340e-02  3.742354e-02  2.682097e-01  
      </Weights>
      <Biases Rows="50" Columns="1">
        3.981912e-02  -5.112138e-02  2.180529e-02  3.532534e-02  1.543765e-01  1.694576e-01  3.967140e-02  1.176340e-01  1.838823e-01  -3.566337e-02  8.508966e-03  1.213887e-01  1.533419e-01  -6.596688e-02  8.945207e-02  -4.234841e-02  -3.495004e-02  -1.766221e-01  1.675249e-01  -3.528220e-02  -6.757340e-03  -3.306233e-02  1.173513e-03  1.160862e-01  1.268419e-01  1.150563e-01  5.997400e-02  1.284416e-01  1.184665e-01  -6.165573e-02  5.478467e-02  -3.837042e-02  -2.080569e-02  1.538765e-01  7.285013e-02  -5.985020e-02  1.485627e-01  6.940756e-02  1.676972e-01  2.537308e-02  5.809337e-03  7.293917e-02  1.350221e-01  -2.318772e-02  1.118327e-01  8.727753e-02  1.413463e-01  1.291614e-01  2.987629e-02  1.183823e-01  
      </Biases>
    </DenseLayer>
    <DenseLayer Width="34" ActivationFunction="0">
      <Weights Rows="34" Columns="50">
