<?xml version="1.0"?>
<MethodSetup Method="DL::DNN_CPU">
  <GeneralInfo>
    <Info name="TMVA Release" value="4.2.1 [262657]"/>
    <Info name="ROOT Release" value="6.24/00 [399360]"/>
    <Info name="Creator" value="ralitsa"/>
    <Info name="Date" value="Wed Jul  7 14:46:16 2021"/>
    <Info name="Host" value="Darwin macitois21.dyndns.cern.ch 18.7.0 Darwin Kernel Version 18.7.0: Tue Jan 12 22:04:47 PST 2021; root:xnu-4903.278.56~1/RELEASE_X86_64 x86_64"/>
    <Info name="Dir" value="/Users/ralitsa/linacTune"/>
    <Info name="Training events" value="2000"/>
    <Info name="TrainingTime" value="3.34720182e+00"/>
    <Info name="AnalysisType" value="Regression"/>
  </GeneralInfo>
  <Options>
    <Option name="V" modified="Yes">True</Option>
    <Option name="VerbosityLevel" modified="No">Verbose</Option>
    <Option name="VarTransform" modified="Yes">G</Option>
    <Option name="H" modified="Yes">False</Option>
    <Option name="CreateMVAPdfs" modified="No">False</Option>
    <Option name="IgnoreNegWeightsInTraining" modified="No">False</Option>
    <Option name="InputLayout" modified="No">0|0|0</Option>
    <Option name="BatchLayout" modified="No">0|0|0</Option>
    <Option name="Layout" modified="Yes">TANH|50,TANH|50,TANH|50,LINEAR</Option>
    <Option name="ErrorStrategy" modified="Yes">SUMOFSQUARES</Option>
    <Option name="WeightInitialization" modified="Yes">XAVIERUNIFORM</Option>
    <Option name="RandomSeed" modified="No">0</Option>
    <Option name="ValidationSize" modified="No">20%</Option>
    <Option name="Architecture" modified="Yes">CPU</Option>
    <Option name="TrainingStrategy" modified="Yes">LearningRate=1e-3,Momentum=0.3,ConvergenceSteps=20,BatchSize=50,TestRepetitions=1,WeightDecay=0.0,Regularization=None,Optimizer=Adam</Option>
  </Options>
  <Variables NVar="3">
    <Variable VarIndex="0" Expression="RFQPAH_R" Label="RFQPAH_R" Title="RFQ phase" Unit="units" Internal="RFQPAH_R" Type="D" Min="1.28002930e+02" Max="1.90002441e+02"/>
    <Variable VarIndex="1" Expression="RFBPAH_R" Label="RFBPAH_R" Title="buncher phase" Unit="units" Internal="RFBPAH_R" Type="D" Min="2.15844727e+02" Max="2.58264160e+02"/>
    <Variable VarIndex="2" Expression="V5QSET_R" Label="V5QSET_R" Title="tank5 phase" Unit="units" Internal="V5QSET_R" Type="D" Min="-3.30000000e+01" Max="-2.85000000e+01"/>
  </Variables>
  <Spectators NSpec="3">
    <Spectator SpecIndex="0" Expression="TO1IN_R" Label="spec1" Title="to1in" Unit="units" Internal="spec1" Type="F" Min="2.22277756e+01" Max="2.42592621e+01"/>
    <Spectator SpecIndex="1" Expression="TO5OUT_R" Label="spec2" Title="to5out" Unit="units" Internal="spec2" Type="F" Min="4.06023216e+00" Max="2.13956585e+01"/>
    <Spectator SpecIndex="2" Expression="D7TOR_R" Label="spec2" Title="d7tor" Unit="units" Internal="spec2" Type="F" Min="-9.76284714e+01" Max="9.64741821e+01"/>
  </Spectators>
  <Classes NClass="1">
    <Class Name="Regression" Index="0"/>
  </Classes>
  <Targets NTrgt="1">
    <Target TargetIndex="0" Expression="LMSM" Label="LMSM" Title="LMSM" Unit="" Internal="LMSM" Type="F" Min="-3.92456055e+00" Max="7.01812744e+01"/>
  </Targets>
  <Transformations NTransformations="1">
    <Transform Name="Gauss" FlatOrGauss="Gauss">
      <Selection>
        <Input NInputs="3">
          <Input Type="Variable" Label="RFQPAH_R" Expression="RFQPAH_R"/>
          <Input Type="Variable" Label="RFBPAH_R" Expression="RFBPAH_R"/>
          <Input Type="Variable" Label="V5QSET_R" Expression="V5QSET_R"/>
        </Input>
        <Output NOutputs="3">
          <Output Type="Variable" Label="RFQPAH_R" Expression="RFQPAH_R"/>
          <Output Type="Variable" Label="RFBPAH_R" Expression="RFBPAH_R"/>
          <Output Type="Variable" Label="V5QSET_R" Expression="V5QSET_R"/>
        </Output>
      </Selection>
      <Variable VarIndex="0">
        <CumulativePDF_cls0>
          <PDF Name="GaussTransform var0 cls0" MinNSmooth="0" MaxNSmooth="0" InterpolMethod="1" KDE_type="0" KDE_iter="1" KDE_border="1" KDE_finefactor="0.0000000000000000e+00">
            <Histogram Name="Cumulative_Var0_cls0_original" NBins="10" XMin="1.2800282287597656e+02" XMax="1.9000244140625000e+02" HasEquidistantBins="0">
              9.80543867e-02 1.96921051e-01 2.96251893e-01 3.97482872e-01 5.03000140e-01 6.10988081e-01 7.15978324e-01 8.15176189e-01 9.09720361e-01 1.00000000e+00 
            </Histogram>
            <HistogramBinning NBins="10">
              1.28002823e+02 1.28002930e+02 1.35754395e+02 1.43505859e+02 1.51251221e+02 1.59002686e+02 1.66754150e+02 1.74505615e+02 1.82250977e+02 1.90002441e+02 1.90002441e+02 
            </HistogramBinning>
          </PDF>
        </CumulativePDF_cls0>
      </Variable>
      <Variable VarIndex="1">
        <CumulativePDF_cls0>
          <PDF Name="GaussTransform var1 cls0" MinNSmooth="0" MaxNSmooth="0" InterpolMethod="1" KDE_type="0" KDE_iter="1" KDE_border="1" KDE_finefactor="0.0000000000000000e+00">
            <Histogram Name="Cumulative_Var1_cls0_original" NBins="165" XMin="2.1584461975097656e+02" XMax="2.5826416015625000e+02" HasEquidistantBins="0">
              0.00000000e+00 2.11422960e-03 6.25076611e-03 1.16435839e-02 1.75266583e-02 2.35322956e-02 2.95379329e-02 3.52678038e-02 4.04461324e-02 4.53486964e-02 5.02512567e-02 5.58279194e-02 6.27527907e-02 7.03517571e-02 7.81958550e-02 8.65302086e-02 9.51709747e-02 1.03944518e-01 1.12513788e-01 1.19816564e-01 1.25423864e-01 1.30326435e-01 1.35198355e-01 1.39998779e-01 1.45003468e-01 1.50539279e-01 1.56514272e-01 1.62765041e-01 1.69138372e-01 1.75756827e-01 1.82865545e-01 1.90219387e-01 1.97869435e-01 2.06152722e-01 2.14650482e-01 2.22494587e-01 2.29439884e-01 2.35598728e-01 2.40920052e-01 2.45822608e-01 2.50725180e-01 2.55627722e-01 2.60530293e-01 2.65555412e-01 2.71070808e-01 2.77199000e-01 2.83817470e-01 2.91784137e-01 3.02079499e-01 3.13753724e-01 3.24753851e-01 3.33701015e-01 3.40809733e-01 3.47183079e-01 3.52912933e-01 3.57723564e-01 3.62135887e-01 3.66548181e-01 3.70960504e-01 3.75863045e-01 3.81746143e-01 3.88119459e-01 3.94492775e-01 4.01356369e-01 4.09200490e-01 4.17534828e-01 4.25869197e-01 4.33958411e-01 4.41557378e-01 4.48298395e-01 4.53813791e-01 4.58716333e-01 4.63618904e-01 4.68521476e-01 4.73301470e-01 4.77795482e-01 4.82738912e-01 4.89316493e-01 4.97283161e-01 5.05709469e-01 5.14319539e-01 5.23021638e-01 5.31723678e-01 5.40058017e-01 5.47442496e-01 5.53907752e-01 5.59913397e-01 5.65796435e-01 5.71679533e-01 5.77470660e-01 5.83077967e-01 5.88838518e-01 5.95702112e-01 6.04036450e-01 6.13412619e-01 6.23728395e-01 6.34248495e-01 6.43216074e-01 6.50079668e-01 6.55564427e-01 6.60007358e-01 6.63929403e-01 6.67851448e-01 6.72141194e-01 6.77166343e-01 6.82559133e-01 6.87951982e-01 6.93344772e-01 6.98860168e-01 7.04620659e-01 7.10503757e-01 7.16386795e-01 7.22269893e-01 7.28459358e-01 7.35261679e-01 7.43013859e-01 7.52155066e-01 7.61704862e-01 7.69497871e-01 7.74788558e-01 7.78935313e-01 7.83245504e-01 7.87964225e-01 7.92866766e-01 7.97769308e-01 8.02671909e-01 8.07574451e-01 8.12476993e-01 8.17502141e-01 8.22772384e-01 8.28165233e-01 8.33803177e-01 8.40053916e-01 8.46825600e-01 8.53781104e-01 8.60736609e-01 8.67630839e-01 8.74126732e-01 8.79887223e-01 8.85280073e-01 8.90672863e-01 8.95820558e-01 9.00478005e-01 9.04890299e-01 9.09302592e-01 9.13714945e-01 9.18127239e-01 9.22539532e-01 9.26951826e-01 9.31364119e-01 9.35776472e-01 9.40311313e-01 9.45091307e-01 9.49993849e-01 9.54896450e-01 9.59798992e-01 9.64701533e-01 9.69604135e-01 9.74506676e-01 9.79409218e-01 9.84311819e-01 9.89091814e-01 9.93626654e-01 9.97548699e-01 1.00000000e+00 
            </Histogram>
            <HistogramBinning NBins="165">
              2.15844620e+02 2.15844727e+02 2.15881348e+02 2.15893555e+02 2.15905762e+02 2.15930176e+02 2.15942383e+02 2.15954590e+02 2.15966797e+02 2.15979004e+02 2.15991211e+02 2.16003418e+02 2.16015625e+02 2.16027832e+02 2.16040039e+02 2.16052246e+02 2.16064453e+02 2.16076660e+02 2.16088867e+02 2.16101074e+02 2.16113281e+02 2.16125488e+02 2.16149902e+02 2.20898438e+02 2.20947266e+02 2.20971680e+02 2.20996094e+02 2.21020508e+02 2.21032715e+02 2.21044922e+02 2.21057129e+02 2.21069336e+02 2.21081543e+02 2.21093750e+02 2.21105957e+02 2.21118164e+02 2.21130371e+02 2.21142578e+02 2.21154785e+02 2.21166992e+02 2.26379395e+02 2.26403809e+02 2.26428223e+02 2.26452637e+02 2.26464844e+02 2.26477051e+02 2.26489258e+02 2.26501465e+02 2.26513672e+02 2.26525879e+02 2.26538086e+02 2.26550293e+02 2.26562500e+02 2.26574707e+02 2.26586914e+02 2.26599121e+02 2.26611328e+02 2.26623535e+02 2.31469727e+02 2.31518555e+02 2.31530762e+02 2.31555176e+02 2.31567383e+02 2.31579590e+02 2.31591797e+02 2.31604004e+02 2.31616211e+02 2.31628418e+02 2.31640625e+02 2.31652832e+02 2.31665039e+02 2.31677246e+02 2.31689453e+02 2.31726074e+02 2.36926270e+02 2.36962891e+02 2.36975098e+02 2.36987305e+02 2.36999512e+02 2.37011719e+02 2.37023926e+02 2.37036133e+02 2.37048340e+02 2.37060547e+02 2.37072754e+02 2.37084961e+02 2.37097168e+02 2.37109375e+02 2.37145996e+02 2.41870117e+02 2.41967773e+02 2.42004395e+02 2.42016602e+02 2.42028809e+02 2.42041016e+02 2.42053223e+02 2.42065430e+02 2.42077637e+02 2.42089844e+02 2.42102051e+02 2.42114258e+02 2.42126465e+02 2.42138672e+02 2.42150879e+02 2.42175293e+02 2.42187500e+02 2.42224121e+02 2.47412109e+02 2.47436523e+02 2.47460938e+02 2.47473145e+02 2.47485352e+02 2.47497559e+02 2.47509766e+02 2.47521973e+02 2.47534180e+02 2.47546387e+02 2.47558594e+02 2.47570801e+02 2.47583008e+02 2.47595215e+02 2.47607422e+02 2.47619629e+02 2.47631836e+02 2.47656250e+02 2.47668457e+02 2.52490234e+02 2.52539062e+02 2.52551270e+02 2.52563477e+02 2.52587891e+02 2.52600098e+02 2.52612305e+02 2.52624512e+02 2.52636719e+02 2.52648926e+02 2.52661133e+02 2.52673340e+02 2.52685547e+02 2.52697754e+02 2.52709961e+02 2.52722168e+02 2.52734375e+02 2.52746582e+02 2.52758789e+02 2.57897949e+02 2.57934570e+02 2.57958984e+02 2.58007812e+02 2.58020020e+02 2.58032227e+02 2.58044434e+02 2.58068848e+02 2.58081055e+02 2.58093262e+02 2.58105469e+02 2.58117676e+02 2.58129883e+02 2.58142090e+02 2.58154297e+02 2.58166504e+02 2.58178711e+02 2.58203125e+02 2.58215332e+02 2.58239746e+02 2.58264160e+02 
            </HistogramBinning>
          </PDF>
        </CumulativePDF_cls0>
      </Variable>
      <Variable VarIndex="2">
        <CumulativePDF_cls0>
          <PDF Name="GaussTransform var2 cls0" MinNSmooth="0" MaxNSmooth="0" InterpolMethod="1" KDE_type="0" KDE_iter="1" KDE_border="1" KDE_finefactor="0.0000000000000000e+00">
            <Histogram Name="Cumulative_Var2_cls0_original" NBins="9" XMin="-3.3000099182128906e+01" XMax="-2.8500000000000000e+01" HasEquidistantBins="0">
              1.10075913e-01 2.20151827e-01 3.30227733e-01 4.40303653e-01 5.50379574e-01 6.61231875e-01 7.73636997e-01 8.86818469e-01 1.00000000e+00 
            </Histogram>
            <HistogramBinning NBins="9">
              -3.30000992e+01 -3.30000000e+01 -3.22500000e+01 -3.15000000e+01 -3.07500000e+01 -3.01000004e+01 -3.00000000e+01 -2.92500000e+01 -2.85000000e+01 -2.85000000e+01 
            </HistogramBinning>
          </PDF>
        </CumulativePDF_cls0>
      </Variable>
    </Transform>
  </Transformations>
  <MVAPdfs/>
  <Weights NetDepth="4" InputDepth="1" InputHeight="1" InputWidth="3" BatchSize="1" BatchDepth="1" BatchHeight="50" BatchWidth="3" LossFunction="R" Initialization="F" Regularization="0" OutputFunction="I" WeightDecay="0.0000000000000000e+00">
    <DenseLayer Width="50" ActivationFunction="3">
      <Weights Rows="50" Columns="3">
        3.766705e-01  -5.222625e-01  -3.479927e-02  -3.308902e-01  5.269368e-01  2.391587e-02  -3.097312e-01  -1.365291e-01  1.566757e-02  3.599609e-02  -4.535697e-03  2.214288e-01  7.375932e-02  -4.706071e-01  5.327229e-01  -1.425619e-02  9.404191e-02  -2.049806e-01  -1.810203e-01  4.132818e-01  6.385069e-03  8.139236e-02  -1.021806e-01  2.270618e-01  -4.896211e-02  -2.576239e-03  2.958323e-01  2.441708e-02  5.992107e-02  1.201686e-01  4.049909e-02  -7.707674e-02  2.581173e-01  -7.399750e-01  -2.601850e-01  2.183731e-02  4.817533e-01  -2.174952e-01  -6.027318e-01  -7.729170e-02  5.239380e-01  8.529406e-02  -7.982424e-01  -2.147042e-01  -1.798083e-01  -4.442236e-01  1.896600e-02  -3.749648e-01  -1.082688e-02  4.738005e-02  -5.961971e-01  -3.828496e-02  1.018546e-01  -1.778230e-01  2.763572e-01  -1.251526e-01  4.460940e-01  5.686619e-01  3.811763e-02  -2.771044e-01  2.425851e-01  -3.433959e-01  -9.570324e-02  -3.421652e-01  2.818379e-01  6.245166e-02  3.297128e-02  1.217313e-01  1.682762e-01  4.410616e-01  -3.636325e-01  3.577437e-02  2.436708e-01  -5.902004e-01  2.877592e-01  -2.355101e-01  6.639785e-01  -4.206093e-01  -8.780172e-01  2.642945e-01  -1.192782e-01  1.081534e-01  3.063831e-01  7.432427e-01  6.618611e-02  -9.845970e-01  -1.771494e-01  -3.216479e-02  -3.290679e-01  -1.764959e-01  -7.454234e-02  -2.691104e-02  -1.946207e-01  -7.300264e-02  1.556048e-02  6.710492e-01  -1.424344e-01  -1.602135e-01  -1.256099e-01  -2.556121e-01  -2.891422e-01  2.454915e-01  6.734591e-02  -3.489872e-02  -6.496735e-01  -1.158887e-01  2.301442e-01  -1.118396e-01  1.326527e-01  7.306397e-03  1.166030e-01  -1.230566e-03  -1.439349e-02  5.615093e-01  -4.476141e-01  -2.062689e-01  2.294217e-01  -9.355813e-02  -1.605175e-01  -8.484641e-02  -1.992708e-01  -9.846505e-02  -7.492821e-02  1.548055e-01  -1.002189e-03  -2.323092e-01  3.370263e-02  -1.998757e-01  1.269146e-01  5.226402e-02  5.210301e-01  9.393615e-02  -1.418305e-01  2.551655e-03  6.825292e-01  -7.111613e-03  -1.200281e+00  -1.281264e-01  3.271050e-01  -1.855369e-01  -9.701872e-02  5.163175e-01  -1.409615e-01  -1.754972e-01  2.921294e-01  1.561184e-01  2.295786e-01  7.817627e-02  4.120266e-02  1.646661e-01  
      </Weights>
      <Biases Rows="50" Columns="1">
        1.660508e-01  -1.032275e-02  2.555369e-01  5.424729e-01  -4.926352e-02  -2.938611e-01  2.523331e-01  4.518491e-01  1.933383e-01  2.782131e-01  4.349009e-01  -3.186123e-02  -1.733506e-02  -2.087082e-01  -4.958233e-02  1.154778e-01  -8.582286e-02  -2.240517e-01  -4.833240e-02  -3.129271e-01  1.854471e-01  -2.453608e-01  1.418488e-01  -4.671920e-02  -3.074107e-01  4.371681e-01  -1.118737e-01  1.134006e-01  -1.194535e-01  1.814199e-01  -2.690162e-01  4.711701e-02  -7.146352e-02  -7.646246e-02  -1.425123e-01  -2.237250e-01  2.383208e-01  8.272908e-02  -1.885238e-01  -2.372887e-01  -2.357371e-01  -2.209576e-01  2.025673e-01  -2.169531e-01  1.576964e-01  -2.976079e-01  2.515607e-01  2.442328e-01  2.901935e-02  3.828464e-01  
      </Biases>
    </DenseLayer>
    <DenseLayer Width="50" ActivationFunction="3">
      <Weights Rows="50" Columns="50">
        -3.681195e-02  3.264607e-01  1.479586e-01  6.243702e-01  -2.493136e-02  -1.717160e-01  -3.578009e-02  -5.123108e-02  4.373266e-01  2.126166e-01  2.057031e-01  2.410238e-01  -7.254919e-01  1.460790e-01  2.240949e-01  -7.582624e-02  -6.100914e-01  -3.712537e-01  8.384139e-02  -2.629605e-01  -2.931889e-01  3.223494e-01  6.409352e-01  5.505055e-02  -1.810206e-01  -2.105074e-01  2.834224e-01  4.504173e-01  -6.247051e-01  -4.161940e-01  -2.450999e-01  4.458236e-01  -7.022937e-02  2.247410e-01  -3.407249e-01  -1.359221e-01  3.662209e-01  5.465068e-01  6.248279e-02  -3.785921e-01  1.090485e-02  -2.696840e-01  2.020494e-01  -4.865336e-02  6.216149e-01  -3.399899e-01  -4.034685e-01  -2.580230e-01  2.973474e-01  4.871957e-01  1.049854e-01  -1.990225e-01  -2.163153e-01  -5.055835e-02  -8.381705e-02  4.545306e-02  -1.184609e-01  -5.714199e-02  -1.974615e-01  8.397518e-03  -4.498879e-02  -1.790073e-01  -1.065020e-02  2.311441e-01  2.205102e-01  -1.696233e-01  -1.675190e-01  2.408690e-01  2.156206e-01  1.991679e-01  -1.729878e-01  5.352229e-02  -3.584207e-01  2.176268e-01  1.103677e-01  -4.158822e-03  3.352185e-01  3.518484e-01  -1.934902e-01  1.368451e-01  6.719923e-02  -9.403317e-02  1.796515e-01  7.515276e-02  2.221498e-01  6.264582e-02  -1.618293e-01  1.545194e-01  2.703518e-01  2.665783e-01  3.439693e-01  5.913923e-03  -4.173375e-01  -3.407060e-02  -1.979015e-02  -1.931072e-03  -6.572684e-03  -2.512802e-01  1.698840e-01  -2.844647e-01  -5.750154e-02  -1.246177e-01  1.124963e-01  -6.622273e-02  -2.412142e-01  -2.632402e-01  -2.701058e-02  3.123179e-01  -2.779843e-02  2.782021e-01  -1.665073e-01  6.118257e-02  4.316060e-02  1.550615e-01  -2.027079e-02  -2.223113e-01  -3.172139e-02  -3.354068e-01  -5.765879e-02  3.271402e-02  -8.923224e-05  -8.318279e-02  1.945340e-01  3.793138e-02  6.340463e-02  7.731678e-02  -1.466822e-01  8.376676e-03  3.051591e-01  -1.009776e-01  -3.607990e-01  -2.698082e-01  -3.032826e-01  -6.711463e-02  -1.412030e-01  1.132470e-01  -3.660600e-02  -7.779582e-02  -2.699019e-02  -9.462003e-02  2.110631e-02  1.325821e-02  2.025205e-01  2.065689e-01  1.132771e-02  -6.949623e-03  3.137771e-02  -1.245533e-01  1.271386e-01  -1.453800e-01  -9.984835e-02  3.800279e-03  1.766314e-01  -5.423064e-01  1.694679e-01  5.234484e-01  -6.975179e-02  -4.761688e-01  -3.171440e-01  -1.876111e-02  -3.255279e-01  2.526422e-02  -3.076877e-01  1.962274e-01  7.408522e-03  -1.136950e-01  2.528370e-01  1.125293e-01  2.147516e-01  1.148041e-01  -4.823638e-01  2.151852e-01  -3.606354e-02  2.190408e-02  8.876263e-02  -2.849697e-01  1.518132e-01  -1.560541e-01  1.324029e-01  -1.435833e-01  2.814319e-01  -1.385207e-01  3.964697e-01  3.383131e-02  3.519930e-01  4.200272e-01  -3.774788e-01  -2.730655e-02  1.076133e-01  1.979812e-01  1.718821e-01  3.005915e-01  -3.652219e-01  3.843227e-01  -3.088432e-01  -2.231808e-01  -5.495259e-01  -3.963967e-01  -1.392557e-01  -4.057284e-01  -4.020251e-02  -1.685181e-02  -1.070822e-01  -2.880630e-01  2.509705e-01  -1.193529e-01  1.584531e-01  -6.134745e-02  -2.651953e-01  2.965916e-02  -2.401584e-01  -3.213529e-01  -1.124180e-01  2.305923e-02  2.839823e-02  -2.945609e-01  2.593120e-02  1.504134e-01  1.470516e-01  2.677184e-01  -2.947299e-02  1.692712e-01  -2.092293e-01  2.201522e-01  -1.861247e-01  -9.294895e-02  -2.652940e-01  2.376806e-01  1.878930e-01  3.364512e-01  3.516657e-01  1.981853e-01  -9.376620e-02  -1.997814e-01  -9.049009e-02  6.177659e-02  -3.560541e-01  8.401521e-02  -3.133950e-01  3.232179e-01  1.109381e-01  2.662772e-01  -2.478994e-01  -6.050337e-02  -2.237054e-01  2.451739e-01  1.167498e-01  -5.346166e-02  8.967401e-02  -2.416610e-01  2.399183e-02  -2.672837e-01  -4.730836e-01  -4.853493e-01  1.680274e-01  2.861809e-01  -5.661680e-01  -4.357100e-01  -4.870520e-01  -4.014936e-01  -5.833835e-02  -2.778885e-01  3.804364e-01  2.323509e-02  -4.260255e-01  -3.165173e-01  4.515506e-01  3.222513e-01  -1.739090e-01  4.243713e-01  1.273298e-01  -4.785809e-02  -3.701206e-01  4.691506e-01  2.737794e-01  -2.043432e-01  -2.223164e-01  1.040710e-01  6.789350e-01  6.314200e-02  4.762347e-01  -4.505725e-01  1.106539e-01  -1.577319e-01  5.004637e-01  -8.981379e-02  -5.829178e-02  -1.062676e-01  1.709854e-01  3.959479e-01  1.498271e-01  5.568595e-01  -3.363760e-01  1.775357e-01  -4.486294e-01  4.637090e-01  -1.293906e-01  9.603552e-02  1.522812e-01  -4.242280e-01  9.090438e-02  -2.433414e-01  -1.933965e-03  -2.718658e-01  -4.275654e-01  1.166686e-01  -2.585542e-01  -2.714951e-01  -3.821196e-01  -1.703287e-01  -2.715714e-01  -7.868347e-02  3.602107e-01  5.241487e-02  3.093065e-01  2.602280e-01  6.268327e-01  3.954780e-01  2.378118e-02  4.014432e-02  3.095272e-01  1.953682e-01  -3.029759e-01  1.144704e-02  -5.122241e-02  2.575933e-01  1.028651e-02  -5.972127e-01  4.544696e-01  3.687983e-01  4.402232e-01  -6.321636e-01  3.656008e-01  1.848389e-02  5.155356e-01  5.407144e-02  -3.000868e-01  -5.327827e-01  -2.675301e-02  6.631000e-02  7.152121e-02  9.540420e-02  -6.936342e-02  1.753764e-01  -3.282019e-01  -2.658053e-01  -1.638827e-01  -5.668934e-02  -8.447413e-03  -2.014396e-01  2.757311e-01  -4.492083e-01  -4.487020e-01  1.149170e-02  6.546121e-02  7.922041e-02  -3.010957e-01  -9.654601e-02  -3.078598e-01  -2.243612e-01  -6.981426e-03  -6.794750e-01  3.588719e-01  -2.449469e-02  -5.178116e-01  -1.656130e-01  -1.568888e-01  1.625033e-01  1.993576e-01  4.711885e-01  4.393812e-01  -1.427763e-01  -1.106298e-01  1.584741e-01  -3.777355e-02  1.414320e-01  -3.465085e-01  -1.247386e-01  5.940294e-02  3.161590e-01  1.869667e-01  -2.649933e-01  -9.936564e-03  -3.231193e-01  2.233397e-02  -1.358040e-01  2.200513e-01  -2.189424e-02  -3.260629e-01  1.546305e-01  -2.143152e-01  3.648343e-01  -1.946222e-02  -6.700969e-02  -3.356060e-01  -4.333520e-01  2.875612e-01  6.050534e-01  1.134378e-01  2.258920e-01  -4.271255e-02  1.283287e-01  -1.596667e-02  9.728193e-02  -4.694975e-01  4.548141e-01  6.705316e-02  3.465455e-02  -6.733629e-03  1.968854e-01  3.933068e-02  -6.655261e-02  -4.055912e-02  6.694464e-01  -1.426342e-01  -1.294274e-01  1.900871e-01  3.170261e-01  1.359405e-01  2.451544e-01  -5.640504e-02  3.560860e-01  9.276114e-02  -2.823217e-01  -2.419775e-01  4.238669e-01  1.346442e-01  4.968963e-01  -5.411192e-01  -3.348281e-01  -2.078511e-02  -1.239302e-01  -5.205258e-02  -4.871263e-02  1.041391e-01  3.204339e-01  2.805308e-02  1.098200e-01  4.036231e-02  -2.738934e-01  -1.713113e-01  3.321558e-02  -3.855796e-01  1.121257e+00  -1.109892e-01  -5.614005e-01  -9.371726e-02  1.040767e-02  2.439217e-01  2.562477e-02  -2.548190e-01  1.506611e-01  -4.210484e-01  -4.237887e-01  -2.573363e-01  3.131510e-01  -2.126245e-01  -1.577298e-01  -5.036439e-01  -3.423223e-01  -2.775508e-01  -5.537208e-01  2.330627e-01  -2.111853e-03  -1.652276e-01  -5.774180e-02  8.606752e-02  2.867186e-01  -3.199677e-01  4.869302e-02  -1.061871e-01  5.089366e-02  -1.548240e-02  1.922469e-01  5.598321e-03  2.099665e-01  -1.650265e-01  9.621571e-02  1.930964e-01  -9.732106e-02  4.798809e-02  -4.570334e-01  -1.676159e-01  -4.501995e-01  2.175052e-01  4.105765e-02  8.811949e-03  -4.947795e-01  -4.609064e-02  -1.362518e-01  -1.263331e-01  2.666388e-01  -5.544065e-01  2.643223e-01  -4.282665e-01  -1.841917e-01  -4.924075e-02  -1.091267e-01  6.104365e-03  -4.378962e-02  -1.602069e-01  3.589524e-01  2.754984e-01  5.604517e-02  3.119687e-01  8.366595e-03  -9.167793e-02  -2.854254e-01  1.154081e-01  -2.322723e-01  -8.187567e-02  4.367151e-01  -7.270353e-03  -1.322429e-01  -5.029200e-02  1.195955e-01  -6.959084e-02  1.593719e-02  2.333719e-02  -3.110069e-01  -5.297501e-01  5.102889e-01  1.751738e-01  -3.258761e-01  -6.691376e-02  -2.434881e-01  -2.654013e-02  2.715382e-01  -2.192191e-03  3.466591e-02  8.940092e-02  7.929316e-03  1.587565e-01  2.163118e-01  -2.099843e-01  -1.188250e-01  -1.462804e-01  2.662929e-02  4.234778e-01  -7.038726e-02  2.712173e-01  2.012534e-02  -1.698062e-01  1.435685e-01  1.147153e-01  -1.803438e-01  -5.262411e-01  -4.948866e-01  -7.065786e-02  -2.962098e-01  2.959889e-02  -1.128323e-01  1.590688e-01  3.075301e-01  3.739963e-01  -1.121242e-01  -1.943933e-01  1.789580e-01  6.148120e-01  -9.873607e-02  4.352489e-01  2.645352e-01  -1.324260e-02  -1.733368e-01  -7.909023e-02  1.321038e-02  -2.523244e-01  -8.255774e-02  9.759733e-03  -2.235554e-01  -3.537699e-02  1.803096e-01  -2.424998e-02  -1.047441e-01  2.231825e-01  -1.792510e-01  2.688324e-01  2.292016e-01  5.795217e-02  -3.825592e-01  -2.948978e-02  4.424342e-01  -2.145063e-01  2.157462e-01  -1.460556e-01  -1.352273e-03  1.027461e-01  4.957484e-01  4.653843e-01  -2.654026e-01  -2.688125e-01  -2.379235e-01  6.591767e-02  1.505760e-01  6.106294e-01  2.601485e-01  -3.483849e-01  -4.051526e-01  1.580263e-01  2.495215e-01  1.679896e+00  -1.161523e+00  -2.856835e-02  9.938469e-02  5.849456e-02  -1.904073e-01  -6.925089e-01  -1.365426e-01  -2.086922e-01  -1.428856e-01  5.894962e-02  -1.759254e-01  9.781928e-02  -7.301907e-01  -4.880990e-01  -4.100866e-01  -1.494594e-02  -1.774542e-01  -1.034950e-01  1.029642e-01  4.545691e-01  -5.968864e-01  1.296722e-01  9.544847e-01  8.168286e-02  -2.117103e-01  -8.375971e-01  4.457631e-02  1.465273e-01  1.112680e-01  -2.914654e-01  -1.272032e-01  -5.460471e-03  -4.913718e-02  1.007866e-01  -2.921275e-01  2.724040e-01  1.834520e-01  -2.453925e-02  8.102580e-02  -2.973090e-02  2.382161e-01  1.032826e-01  -2.529914e-01  -1.505295e-01  5.566503e-01  3.704864e-01  1.476377e-01  3.320328e-01  -1.171750e-01  -1.179352e-01  1.538891e-01  7.300804e-02  2.071497e-01  -2.937219e-01  1.580961e-01  -1.023436e-01  2.682702e-01  -2.384795e-01  1.493007e-01  -1.399907e-01  -9.494750e-02  -1.579459e-01  1.004594e-01  -1.498830e-01  -4.515971e-02  -7.494851e-02  -7.590409e-02  -1.477709e-01  -3.037676e-01  1.778736e-01  2.975252e-02  -2.576154e-02  -2.107628e-01  -2.315267e-01  1.789014e-01  9.676456e-02  1.921673e-01  -2.595801e-01  2.894469e-01  -1.211941e-02  -1.157842e-01  -1.745688e-02  -1.798721e-01  2.962201e-01  1.691185e-01  -2.259515e-01  -1.764934e-01  -6.627818e-02  2.490402e-01  -6.888348e-02  1.959660e-01  -2.775106e-01  -7.810739e-02  1.244678e-01  6.696896e-02  2.361643e-01  -9.876587e-02  1.529490e-01  2.337352e-01  8.541894e-02  -3.162954e-01  2.555023e-01  -1.633866e-02  1.764753e-01  2.831104e-02  -1.708108e-01  -8.380986e-03  2.061018e-01  -1.956273e-03  -3.353617e-02  3.081172e-01  4.729872e-01  -2.457986e-01  2.650075e-01  -5.619778e-02  -1.940366e-02  -4.487365e-01  2.799442e-01  1.328434e-01  1.613702e-01  1.295874e-01  2.362159e-01  3.727859e-02  5.783331e-01  -3.080544e-01  -2.868106e-01  -7.132027e-01  4.709927e-01  -3.610060e-02  1.568558e-02  -6.720516e-02  1.401565e-02  1.436752e-01  2.708740e-01  -4.266185e-01  -3.759209e-02  1.237100e-01  2.963663e-02  3.434334e-01  1.226669e-01  1.105493e-01  6.747245e-01  -5.597017e-01  -2.036436e-01  6.786993e-01  3.267564e-02  7.526782e-02  -2.188600e-01  -5.605070e-02  -1.272376e-01  -1.428303e-01  4.991560e-01  2.099293e-01  -2.710425e-02  -4.560303e-02  1.004228e-02  1.787436e-01  1.660382e-01  -1.920945e-01  7.876670e-02  7.029359e-01  2.402288e-01  -6.107115e-01  3.236743e-01  2.983698e-01  3.564873e-02  6.944796e-02  -1.815546e-01  9.244039e-02  3.495642e-01  1.756370e-01  -2.478585e-01  2.948033e-02  2.959805e-01  -2.489666e-01  9.758563e-03  -3.129333e-01  3.758583e-01  2.739345e-01  2.761734e-01  -3.819724e-01  3.080597e-01  -9.955744e-02  1.641053e-01  -4.403287e-02  -8.065889e-02  -2.084165e-01  1.211375e-01  -1.374270e-02  2.314477e-01  3.582686e-02  6.673425e-02  -9.971111e-01  8.951213e-02  3.344989e-01  9.217774e-02  -1.676951e-01  -1.027618e-01  2.072460e-01  -1.162307e-01  3.045140e-02  -2.509074e-01  -6.512594e-01  -2.723213e-01  5.249241e-01  -3.544265e-01  -3.271637e-01  -4.171434e-01  -1.362690e-01  -5.290180e-01  -2.086830e-01  -1.138453e-02  2.536116e-01  3.151824e-03  1.198448e-01  4.562173e-01  5.144317e-01  -1.428845e-01  1.932045e-01  2.016269e-01  -4.727552e-02  -4.888166e-01  2.367478e-01  5.384146e-02  -1.728090e-01  7.389519e-02  -2.921109e-01  2.843367e-01  -8.637640e-02  4.857953e-01  -2.368012e-01  1.099393e-02  4.000449e-02  5.343522e-01  3.404902e-02  -2.099306e-01  -4.961739e-01  1.013389e-01  9.103475e-02  2.729704e-01  2.456749e-01  -2.953857e-01  2.432630e-01  -5.742563e-01  -3.336996e-01  2.513614e-01  -8.492756e-02  -3.432162e-01  -2.483442e-01  7.163946e-02  -8.750451e-02  1.524473e-01  -3.253882e-02  -1.874570e-01  2.447757e-01  -8.803709e-02  -3.433304e-01  -1.433498e-02  -7.537997e-02  -1.009053e-01  8.757381e-02  -2.579015e-01  -6.200185e-02  -1.941696e-03  3.507962e-01  1.219376e-01  3.576780e-02  -4.184057e-02  -3.214445e-01  -1.139077e-01  2.481081e-01  4.801786e-02  -1.354226e-01  -3.187952e-03  2.332491e-01  -1.818618e-01  2.671328e-01  1.123196e-01  3.017636e-01  1.627840e-01  1.570686e-01  1.450906e-02  3.244381e-02  -1.288277e-01  2.316608e-02  -3.077834e-01  -9.640843e-02  -4.161199e-02  5.672604e-02  3.246554e-01  1.395873e-01  -1.834542e-01  -2.547595e-01  3.200735e-01  3.684376e-02  -6.781288e-02  -3.014361e-01  2.859924e-03  -5.039693e-02  1.067761e-01  5.534278e-02  -3.710674e-01  -4.913749e-01  -2.123757e-01  5.541657e-01  -2.977925e-01  -5.430325e-01  -5.121092e-01  -5.058023e-01  -6.698345e-01  -2.215080e-01  2.027003e-01  -3.745602e-02  7.496160e-02  6.713846e-02  4.535663e-01  4.280524e-01  -2.093878e-01  1.689714e-01  1.773763e-01  1.107265e-01  -4.453121e-01  3.453368e-02  1.498244e-01  -1.739971e-01  7.894807e-02  -8.736000e-02  2.902340e-01  1.255104e-01  3.332908e-01  -3.486437e-01  1.034913e-01  -2.298237e-01  5.644115e-01  3.832926e-01  -4.358359e-01  -5.411758e-01  -3.333709e-01  7.921581e-02  1.319153e-01  2.471336e-01  -1.968170e-01  1.252622e-01  -3.238098e-01  1.008652e-01  9.791642e-02  3.581615e-02  -8.024150e-02  -4.442394e-01  -7.529418e-01  -2.304481e-02  -1.990958e-01  -2.849770e-01  1.775535e-01  -3.514492e-03  -1.041409e-02  -9.436407e-02  -1.668880e-02  -1.170634e-01  7.318676e-02  -2.405161e-01  1.588055e-01  8.996710e-01  -2.790239e-01  3.829768e-02  1.231184e-01  -1.215759e-01  2.027725e-01  3.707305e-01  -3.427892e-01  6.818625e-01  1.596912e-01  -3.869618e-01  1.326581e-01  -1.974986e-01  6.331177e-01  1.825760e-01  -4.875983e-02  -3.806803e-01  2.118284e-01  3.097170e-01  -2.561254e-01  -2.087978e-01  -1.983629e-01  -6.604173e-02  -2.605271e-04  2.391326e-01  1.102028e-01  1.433869e-01  1.371724e-01  1.395044e-01  -1.150620e-01  4.893287e-01  -1.468624e-01  -1.642503e-02  2.194103e-02  7.462735e-02  2.769843e-01  9.660172e-02  4.556619e-01  -2.392305e-01  1.200449e-01  -1.869808e-01  2.273798e-01  6.958012e-02  -2.769018e-01  -1.780468e-01  -1.712145e-01  8.691971e-02  -6.896655e-02  -1.268322e-01  -4.636301e-02  -5.548850e-01  -1.646934e-01  7.535946e-02  -2.277073e-01  1.440338e-01  9.894916e-02  -2.742140e-01  -3.317863e-02  1.174453e-01  -2.859649e-01  2.615253e-01  -3.075930e-01  5.709994e-02  -3.382644e-01  2.714102e-01  3.056512e-01  2.057428e-01  1.832542e-01  2.747495e-01  4.782466e-02  -1.147487e-01  6.421329e-02  5.056306e-02  -7.056132e-02  1.476394e-01  4.242172e-02  1.925328e-01  -5.905782e-02  -1.950081e-01  3.553324e-02  -4.938822e-01  1.471484e-01  5.794637e-01  1.364541e-01  -1.591837e-01  -1.650366e-01  -7.139789e-02  -2.176318e-01  1.536556e-01  -3.239453e-01  -7.458110e-01  -9.000177e-02  8.503784e-01  -3.040935e-01  -7.670931e-01  -2.634496e-01  -5.498559e-01  -1.049986e+00  -1.843067e-01  8.276422e-02  5.561085e-01  3.041786e-01  -6.086944e-02  1.963756e-01  4.466036e-01  -1.003871e-01  1.576648e-01  -4.109574e-01  6.169491e-01  -4.605120e-01  -8.795675e-02  1.066893e-01  -1.482443e-01  3.693106e-01  -2.804952e-01  9.239599e-02  -2.828565e-02  8.882443e-01  1.343637e-01  3.332585e-01  -2.047211e-01  5.566297e-03  5.698019e-01  -7.974109e-01  -3.874507e-01  1.758687e-01  7.045026e-01  5.942824e-01  3.057244e-01  -5.117754e-01  4.924912e-01  -2.650357e-02  -1.552197e-01  -5.338703e-01  -4.246469e-01  -3.451227e-01  -6.059683e-01  4.493736e-02  -4.812566e-01  -2.237142e-01  1.295359e-01  1.839539e-01  2.917601e-01  -4.800837e-01  -2.001094e-01  -1.460215e-01  -1.850638e-01  -2.291501e-01  3.932404e-02  -1.701775e-01  -2.361952e-01  -4.285841e-01  -4.066090e-03  3.136078e-02  1.811925e-01  2.581643e-01  2.052498e-01  1.211597e-01  1.169705e-01  -1.297986e-01  2.115242e-01  1.082453e-01  -1.040306e-01  -5.025581e-01  -9.827680e-02  3.154641e-01  2.842999e-02  9.763245e-02  1.664703e-01  5.459761e-02  2.893775e-01  1.707062e-02  2.684286e-02  1.267520e-01  1.994736e-01  2.592690e-01  7.658575e-02  1.259002e-01  -1.475418e-01  -1.092375e-01  -2.455815e-01  -2.793870e-02  5.006284e-01  -2.638573e-01  -1.967770e-01  2.363509e-01  -1.252933e-01  -1.075660e-01  -4.065237e-02  -1.997652e-01  -9.255059e-02  2.802006e-01  2.857603e-01  -9.994736e-02  -2.959739e-01  -1.412416e-01  -7.327661e-02  -7.666234e-02  -1.282520e-01  -4.119967e-01  4.259694e-01  1.408456e-01  2.769513e-01  3.650092e-02  3.756197e-01  1.569893e-01  -2.084992e-02  -6.942485e-03  5.834006e-03  -5.358451e-03  -1.912510e-02  -3.198421e-01  2.468267e-01  9.511808e-02  4.401921e-01  -2.655126e-01  -1.038230e-01  3.305902e-01  -5.040453e-03  -6.276150e-02  2.352929e-02  -1.253175e-01  1.239048e-01  -1.204061e-01  2.892841e-01  -1.337007e-01  3.539041e-01  2.392241e-01  1.413294e-02  -2.976988e-01  2.521891e-01  3.930820e-01  -2.587075e-01  -3.671307e-02  2.801482e-02  2.222918e-02  -2.036086e-01  5.389102e-02  -3.090504e-01  -4.376644e-01  3.703234e-01  -8.328598e-02  2.082919e-01  3.015357e-02  2.153190e-01  -2.966015e-01  3.145787e-02  1.299448e-01  -4.922533e-01  4.821503e-01  -3.293588e-01  -2.081727e-01  -1.326721e-02  -2.520742e-01  1.211124e-01  -7.230607e-02  2.572184e-01  3.938218e-01  -7.283802e-01  -3.808085e-02  8.080817e-02  -1.172897e-01  1.925375e-01  -4.682642e-01  2.636910e-01  2.211784e-01  2.869232e-01  -2.814618e-02  1.194397e-01  5.556953e-02  -4.448362e-01  -5.118069e-02  -7.175325e-02  1.504910e-01  -3.278960e-02  -3.471210e-01  -2.851048e-01  -5.324477e-01  3.363565e-01  -8.750455e-02  -1.260936e-01  -2.018084e-01  -2.525387e-01  9.325982e-01  1.077602e+00  1.031466e-01  1.275788e-01  1.245346e-01  -1.151452e-01  2.174528e-01  -2.756903e-01  5.958368e-02  -1.396089e-01  -1.320253e-01  -1.847728e-01  -1.109546e-01  -2.929888e-01  -1.586297e-01  -1.282916e-01  -1.411794e-01  4.469413e-02  -2.686566e-01  4.866638e-02  -3.299083e-01  2.698756e-01  -3.552705e-02  5.397514e-02  -2.811051e-01  3.022003e-01  -3.042216e-01  -1.158748e-01  -2.227593e-01  1.455736e-02  -3.336027e-02  2.179337e-01  -4.513709e-02  1.323414e-01  2.746631e-01  3.295650e-01  -2.633364e-02  3.473916e-01  5.108910e-02  2.551325e-01  -3.257543e-01  -1.462957e-01  1.533263e-02  2.539896e-01  7.609916e-02  2.902826e-02  -1.967443e-01  1.202094e-01  5.758710e-02  2.314404e-01  1.088397e-02  3.493374e-02  -7.350300e-02  -1.302120e-02  1.850708e-01  -2.528417e-01  -3.539056e-02  -3.483785e-01  -7.643355e-02  3.324578e-01  -2.199519e-01  -1.580500e-01  1.130168e-01  -3.976477e-01  -3.839576e-01  7.297867e-03  3.538465e-02  -1.550489e-01  -1.955521e-01  -1.407825e-01  5.289678e-02  -6.510495e-02  1.702084e-01  2.432010e-01  1.749189e-01  2.217355e-01  -2.086933e-01  -1.647533e-01  1.592508e-01  7.075568e-02  -2.257657e-01  4.368100e-01  -1.156332e-01  1.870371e-02  1.619317e-01  -8.877983e-02  -1.108161e-01  -5.061535e-02  3.649697e-02  2.109266e-01  -3.051037e-01  8.811006e-02  1.669360e-01  3.537571e-02  -1.226442e-01  -3.669426e-02  -1.470087e-01  2.353195e-01  -2.763086e-01  7.242078e-02  -2.694536e-01  -2.455503e-01  -1.799546e-01  -2.536744e-02  -1.230500e-01  6.420701e-02  1.527393e-01  2.130101e-02  9.532524e-02  -4.067615e-02  1.479289e-01  -8.350268e-02  -7.015273e-02  -1.426703e-02  -1.367615e-02  1.591408e-01  2.037176e-01  -1.062840e-01  -7.873479e-03  9.818487e-02  -2.010635e-01  -2.535889e-01  2.621661e-02  2.546465e-01  -1.022223e-01  1.956753e-02  6.149520e-02  -1.090039e-01  2.014264e-01  4.997093e-02  1.751850e-01  -1.555324e-01  9.742564e-02  1.300129e-01  -7.618956e-02  -1.957143e-01  -3.583353e-01  -1.289469e-02  1.725871e-01  -2.071516e-01  2.039119e-01  1.794455e-01  -3.258428e-02  -2.401046e-01  -3.222070e-01  -1.920753e-01  6.864846e-02  1.212575e-01  -2.946095e-01  3.162989e-01  -1.749875e-01  2.506056e-01  2.307506e-01  3.033667e-01  1.984277e-01  2.041602e-01  2.601907e-01  3.403473e-01  6.424241e-02  -4.866296e-02  2.369055e-01  3.551850e-02  -2.639163e-02  2.153344e-01  2.545477e-01  2.253274e-01  1.392439e-01  6.198883e-02  3.064940e-01  1.312617e-01  1.062937e-01  3.810970e-02  -2.382531e-01  -1.184625e-01  2.052177e-02  -1.044470e-01  3.856496e-01  -7.557575e-02  -1.621843e-01  -2.447348e-02  3.091637e-02  1.747102e-01  1.632568e-01  -1.568198e-01  -3.261663e-01  -1.748487e-01  -3.405054e-01  -1.093819e-01  -1.912077e-01  -2.185902e-01  3.294001e-01  2.365366e-01  1.959024e-01  2.581263e-02  -6.995474e-02  -8.414327e-02  3.002228e-01  1.156436e-01  -1.704854e-01  1.029637e-01  4.775766e-02  9.107607e-02  -2.263296e-02  2.576084e-01  7.706301e-01  -3.327043e-01  9.850863e-02  3.657209e-01  -2.970616e-01  -3.644680e-01  -1.842181e-01  1.362714e-03  2.079279e-01  3.219875e-01  1.385348e-01  -7.169887e-02  3.037079e-02  -4.544345e-01  3.560784e-02  9.056556e-02  8.618782e-02  -3.558472e-01  -2.231042e-01  2.557245e-01  1.370098e-01  -4.496980e-01  -4.884325e-02  1.444653e-01  1.414175e-01  1.286108e-01  -5.657855e-01  -3.274881e-01  2.141857e-01  8.647846e-02  -3.265662e-01  -3.482552e-01  2.059598e-02  -1.402348e-01  7.310218e-02  -3.802480e-02  2.244446e-01  -6.558977e-02  -1.041254e-01  -1.928352e-01  -9.116020e-02  -1.060709e-01  1.726364e-01  -5.102075e-01  -2.865267e-01  -5.631115e-04  5.230312e-01  5.917399e-02  -3.484968e-02  1.757456e-01  -3.252002e-01  5.000275e-02  -1.566478e-01  -6.625502e-01  -1.923886e-02  6.153401e-01  -2.909955e-01  -5.074635e-01  -1.628015e-01  -1.840447e-01  -4.668798e-01  -9.298977e-02  -2.811718e-01  6.043503e-01  3.630987e-01  6.470034e-02  -2.326695e-01  6.072469e-01  2.735381e-02  2.008163e-01  -3.666206e-01  3.139746e-01  -2.593601e-01  -1.898388e-01  -4.954806e-02  -1.178036e-02  6.986228e-02  1.884019e-01  -1.199811e-01  -1.305535e-01  5.575021e-01  -4.604128e-02  2.299919e-01  1.788931e-01  -2.310312e-01  6.093913e-01  -8.727469e-01  8.490972e-02  4.291514e-01  1.456535e-01  3.790902e-01  -3.285672e-02  -3.579271e-01  4.576013e-01  7.644669e-02  -2.534756e-01  -6.679793e-01  -5.364789e-01  -2.677406e-01  -4.402572e-01  -3.154153e-02  3.418136e-02  -1.379639e-01  1.548953e-01  3.436982e-02  1.793391e-01  -1.381093e-01  -1.231439e-01  6.421577e-02  1.522011e-01  -5.277174e-02  5.227745e-02  1.426171e-01  4.741622e-02  -2.867775e-01  3.078839e-01  -1.934611e-01  -1.659209e-01  -1.693275e-02  1.047106e-01  -5.757431e-02  4.923716e-02  -7.189648e-02  -2.227483e-01  -3.893393e-01  2.817166e-01  4.876111e-02  -1.399401e-03  7.013765e-02  3.161031e-01  1.752229e-01  -9.121632e-02  3.417213e-02  2.092155e-01  7.043003e-02  -1.029492e-01  7.046564e-02  -1.098957e-01  -1.379668e-01  2.557885e-01  1.762142e-02  -1.955291e-01  -2.249780e-01  9.023426e-02  3.925356e-02  -3.742337e-01  3.564830e-01  -7.019789e-03  1.380432e-01  2.459525e-01  1.477629e-01  -1.662880e-01  3.147567e-01  3.471726e-01  6.934772e-02  -4.098601e-01  -8.789980e-02  1.180485e-01  3.921601e-01  7.201514e-03  2.822254e-01  2.087618e-01  -5.366835e-02  -2.369634e-01  -5.800895e-02  9.225128e-02  1.162673e-01  -2.205210e-01  -4.776317e-02  -1.488941e-01  1.566279e-01  1.217093e-01  1.915809e-01  3.287113e-03  -1.119210e-01  -2.164807e-01  5.893607e-02  5.014593e-04  2.888213e-01  1.919152e-01  -3.594995e-01  5.484842e-02  -1.917131e-01  9.277073e-02  -1.452330e-02  2.738935e-02  1.962674e-01  5.254247e-02  -1.441312e-01  -1.319602e-01  -2.485168e-01  -2.252480e-01  1.556364e-01  -1.402628e-02  1.003652e-01  -9.606586e-02  9.317921e-03  -1.806923e-01  1.976468e-01  -8.676367e-02  6.750242e-02  1.762552e-01  -2.410054e-01  -5.235997e-01  -3.790396e-01  3.195635e-01  -1.926912e-01  -4.431612e-01  -2.711907e-01  -1.055187e-01  -4.414393e-01  1.829883e-01  3.752848e-01  7.796942e-02  7.435875e-02  2.085682e-01  4.119060e-01  2.806258e-01  -1.468613e-01  1.077641e-01  -1.070999e-01  -1.623135e-01  -1.356344e-01  1.767049e-02  -2.139040e-02  1.054660e-01  -1.560958e-01  -2.051689e-01  1.184577e-01  2.337161e-02  4.680624e-01  -4.726101e-01  1.342459e-01  -1.799878e-01  3.941777e-01  2.391651e-01  -2.405296e-01  -4.394107e-01  -2.607904e-01  -1.941394e-02  2.101370e-01  1.591311e-01  -8.375440e-02  1.591807e-01  -4.051527e-01  -2.678048e-01  -4.976958e-02  1.928239e-01  -1.770214e-01  -3.782491e-01  -8.825383e-02  -1.260014e-01  -1.844262e-01  -8.777141e-02  -5.874200e-02  -1.078217e-01  1.901472e-01  -9.805273e-02  -5.021419e-02  -6.646100e-02  7.637636e-02  1.016098e-02  -2.011453e-01  2.381074e-01  2.831722e-01  -1.431527e-01  5.492376e-02  -1.453977e-01  -2.249255e-01  -8.310370e-02  1.046998e-01  -1.998133e-01  2.606557e-01  -1.021543e-03  -4.458587e-02  9.380371e-02  2.289902e-01  1.337072e-01  1.287674e-01  -9.208755e-02  -1.315852e-01  1.243459e-02  -1.459852e-01  1.852979e-01  -8.666418e-02  4.039254e-02  -5.993615e-02  1.936315e-01  -1.807170e-01  -4.062746e-01  -3.791561e-01  -8.193731e-02  -1.009498e-01  1.454871e-01  -1.815938e-01  -8.373121e-02  1.002049e-02  1.976861e-02  1.063443e-01  3.238228e-01  -7.444376e-02  2.495966e-01  8.908830e-02  7.342639e-01  2.521563e-01  -2.718121e-01  3.773963e-01  5.611636e-01  1.652012e-01  2.726429e-01  4.315681e-01  -3.522757e-01  -1.660540e-01  -1.640730e-01  -3.695312e-01  -1.864071e-01  2.648772e-02  -1.259314e-01  2.278581e-01  -3.213155e-02  -4.744058e-02  -3.270701e-01  4.378289e-01  2.876041e-02  -7.877227e-02  1.873979e-01  -2.782238e-01  9.416845e-02  -4.115860e-01  -3.866301e-02  -6.577084e-01  3.121635e-01  -7.933038e-02  -4.654362e-02  -1.430696e-01  1.086818e-02  4.376949e-01  -3.420172e-02  -2.841570e-01  -5.519775e-01  -3.197678e-01  -5.873417e-02  3.248209e-01  -3.494947e-01  3.432456e-01  -1.120611e-01  1.398153e-01  1.863949e-01  2.720512e-01  6.015675e-01  -4.167038e-01  2.052241e-01  1.012429e-02  1.476838e-02  -5.941976e-01  1.865312e-01  2.152840e-01  2.141923e-01  -1.011338e-02  1.296509e-01  -2.647801e-02  6.440771e-02  -1.251347e-01  1.683571e-01  -5.398313e-02  5.149230e-01  3.574280e-01  2.143516e-01  -6.060939e-01  -3.561221e-01  -6.411555e-02  1.058822e-01  3.139388e-01  -3.421601e-01  -5.874605e-01  6.998988e-01  3.396493e-01  -1.004303e-01  -1.632796e-01  5.298010e-02  -1.867443e-01  -3.465516e-02  2.984098e-02  -4.672119e-01  1.892823e-01  -3.006041e-02  -1.386954e-01  -2.455361e-01  -4.033194e-01  -3.296063e-01  1.324137e-01  -3.459176e-01  -8.344354e-02  7.608192e-02  -3.372608e-01  -4.281672e-01  9.724194e-02  -2.204902e-03  -4.636622e-02  -6.867369e-03  3.510789e-02  3.754393e-01  -7.224731e-02  1.235857e-01  -2.369367e-01  -2.297951e-01  3.764711e-01  8.818463e-02  2.955267e-01  3.317865e-01  3.162405e-01  1.921984e-01  1.058981e-01  1.661043e-01  -3.414829e-02  1.994611e-02  2.677317e-01  -1.895232e-01  -1.479985e-01  4.979258e-02  8.603861e-02  1.879591e-02  2.330547e-01  1.300305e-01  4.634782e-03  -1.046909e-01  -3.868319e-02  2.887786e-01  -3.637479e-01  9.245779e-02  4.934483e-02  -2.249403e-01  -4.156189e-01  -2.593419e-01  -1.758384e-01  1.296992e-01  4.128399e-01  -1.506703e-01  1.579831e-01  -3.524432e-01  -1.294815e-01  9.766153e-02  2.000480e-01  -1.505792e-01  1.857245e-01  -3.380060e-01  -5.625943e-02  2.486749e-01  -2.163755e-02  -9.825186e-02  -9.564631e-02  -1.246516e-01  -1.109854e-01  4.065922e-01  -1.373179e-01  -4.923858e-02  2.233870e-01  8.850683e-02  1.038902e-01  3.754288e-01  2.184180e-01  1.973346e-01  7.717030e-02  -4.299517e-02  2.224741e-01  9.266005e-02  -2.382817e-02  -2.116426e-01  2.431695e-01  -5.013461e-03  -1.243244e-01  -2.417836e-01  2.010070e-01  7.199467e-03  -7.005327e-03  -4.972419e-02  -2.799241e-02  -3.365728e-01  -3.468352e-03  -1.446957e-01  3.342330e-02  -1.551807e-01  -1.972481e-01  -1.702068e-01  -8.593626e-03  1.019612e-01  2.533806e-01  1.647484e-01  -1.775541e-01  -1.280400e-01  -1.153457e-01  -1.960982e-01  1.406743e-01  -2.765343e-01  -5.950381e-02  3.221444e-01  2.638676e-02  3.048013e-01  6.528085e-02  2.425367e-01  2.017743e-01  -1.986738e-01  -5.713927e-02  -2.542793e-01  6.608884e-02  8.281277e-03  -2.703295e-01  -1.205787e-02  -2.460138e-01  -2.049349e-01  -1.794848e-01  -5.184060e-01  4.899034e-02  1.130581e-01  -1.884803e-01  -1.560446e-01  4.983980e-02  2.766469e-01  3.255835e-01  3.839454e-01  -1.272277e-03  -1.462641e-01  -2.380312e-01  1.968912e-01  1.034271e-01  4.468350e-02  -2.597983e-01  2.751744e-01  -4.665038e-02  -1.252708e-01  8.034059e-02  -2.596585e-01  3.295315e-02  1.657548e-01  -9.538659e-02  1.969105e-01  -2.259448e-01  -2.913974e-01  -2.357120e-01  3.562690e-01  7.029200e-02  3.039744e-01  -3.620750e-01  8.953364e-02  -2.301207e-01  -1.073322e-01  1.646500e-01  -2.304972e-01  7.051396e-02  -3.516062e-01  1.080689e-03  1.016975e-01  -1.560448e-01  -1.382489e-01  -9.236242e-02  -2.915370e-01  1.753369e-01  -4.993509e-02  -1.148719e-01  2.170964e-01  9.152105e-02  1.358364e-02  3.008410e-01  3.179989e-02  1.630867e-01  -1.566482e-02  9.017684e-02  6.208795e-02  1.279321e-01  2.468740e-01  -1.331056e-01  -2.210091e-01  6.505338e-02  -9.873143e-02  2.418193e-01  -2.298476e-01  -1.446176e-01  -3.220862e-01  -1.965267e-01  6.002787e-02  -2.966931e-01  8.269624e-02  -1.493582e-01  2.529205e-02  2.327622e-01  -3.060873e-01  4.596078e-01  1.041957e-01  -2.942751e-01  -9.109645e-02  -1.556037e-01  -7.023754e-02  1.143065e-01  2.100556e-01  -4.915597e-02  -9.897238e-03  1.005581e-01  -4.664732e-02  2.045144e-01  3.589334e-01  1.556392e-01  8.208980e-02  -5.111797e-02  1.944069e-02  -9.726808e-02  -5.336729e-02  -6.877302e-02  -2.308457e-01  2.107289e-02  -5.592754e-02  -1.451497e-01  -1.980739e-01  -7.620374e-02  -2.747826e-02  -2.469149e-01  -2.821902e-01  9.459116e-02  2.087791e-01  1.439694e-01  2.476119e-01  -1.444853e-01  5.306336e-02  -2.754324e-01  -9.911543e-02  -2.315950e-01  -1.905812e-01  -5.888396e-02  -1.454508e-01  -2.459160e-03  1.671039e-01  8.645257e-02  1.780952e-01  2.406293e-01  1.956180e-02  2.236338e-02  1.760637e-01  -3.528309e-01  -4.785377e-02  -1.108819e-01  2.095499e-01  2.051324e-01  8.191220e-02  7.893511e-02  -2.718849e-02  2.103743e-01  5.599168e-02  1.703289e-02  4.476700e-02  -1.957536e-01  1.025366e-01  6.619342e-02  2.872835e-02  5.057553e-02  -3.936199e-02  -1.670714e-01  -8.312064e-02  -1.750258e-01  2.314943e-02  -1.996708e-01  -2.309169e-01  -5.366983e-02  7.971397e-03  -2.467722e-01  3.917595e-03  -1.354663e-01  2.461938e-01  -2.434952e-01  2.462631e-01  -6.198345e-02  -1.534784e-01  -4.772085e-02  -1.599587e-01  -2.978100e-01  3.606548e-02  -4.684823e-02  -1.028598e-02  -6.071540e-02  3.918004e-02  1.179456e-01  2.390205e-01  -1.114589e-01  2.596841e-01  1.342316e-01  4.870692e-02  -1.069629e-01  1.199435e-01  -5.799121e-02  -6.888494e-02  -2.234545e-01  -4.177067e-02  2.769379e-02  2.258650e-01  3.448229e-02  -2.131757e-01  1.829492e-01  -5.704452e-02  -2.965625e-01  -5.620879e-02  -2.411540e-01  -2.003535e-01  1.103211e-01  -7.141753e-02  -1.958500e-01  2.550522e-02  1.595237e-01  1.941984e-01  -2.289587e-01  -6.760500e-02  -2.705207e-01  -2.271026e-01  -2.221425e-01  -1.168088e-01  -2.256206e-01  -5.233244e-02  5.284571e-02  -7.301880e-02  1.099151e-01  -9.070023e-02  -1.490774e-01  -2.517175e-01  -1.924842e-01  -1.969050e-01  -4.438153e-01  1.831356e-01  3.466667e-01  -2.990423e-01  -5.252364e-02  1.470364e-01  -9.418204e-02  1.869062e-01  -5.430879e-02  8.967603e-02  4.361671e-02  4.413256e-02  2.515314e-01  1.699314e-01  -9.831065e-02  3.148154e-02  -2.484540e-02  6.813373e-02  3.250509e-01  3.743912e-01  9.613270e-02  2.315312e-01  -8.944974e-02  -3.293247e-01  1.869015e-01  -9.463328e-02  -1.573614e-01  -2.026377e-01  5.031659e-02  -2.089442e-02  1.023018e-01  1.484690e-01  4.272446e-03  -3.529192e-01  -1.665041e-01  -9.955168e-02  -7.720388e-02  3.409168e-01  1.651768e-01  2.813479e-01  1.602123e-01  2.563805e-01  3.505738e-01  6.999635e-02  1.594100e-01  -2.643149e-01  -1.817843e-01  -2.544771e-01  -1.135451e-01  -1.057503e-02  3.167663e-01  -1.529588e-01  1.733433e-01  -2.159872e-01  -3.344290e-02  1.027464e-01  -1.489560e-01  -2.146335e-02  -2.154276e-01  -1.150050e-01  2.222706e-01  2.978359e-01  -1.319962e-01  2.779664e-02  9.576727e-02  7.781307e-02  -1.944311e-01  -4.007182e-02  -6.074335e-02  -3.566191e-01  1.000903e-01  1.272263e-01  1.950895e-01  -4.803684e-02  -1.451597e-01  -2.365401e-01  -3.237530e-01  2.060918e-01  -5.174074e-02  -2.060054e-01  1.604154e-01  2.491614e-01  1.101111e-01  -2.653663e-01  2.247614e-01  2.996498e-01  -1.629391e-01  2.638417e-01  1.525116e-01  8.655367e-03  1.021360e-01  -1.146849e-01  7.993671e-02  6.774730e-02  8.572099e-02  -3.409179e-01  -7.546514e-02  8.376016e-02  1.967129e-01  -4.660268e-02  1.277380e-01  -2.270285e-01  -1.602916e-01  1.770734e-01  9.783942e-02  -9.560691e-02  -2.709342e-01  -2.391645e-01  -1.489529e-01  -8.681504e-02  -2.652052e-01  1.357152e-02  -1.128856e-02  -2.286212e-01  1.896352e-01  2.442871e-02  7.657738e-02  8.264288e-03  -2.533559e-01  -2.321299e-02  1.348480e-01  2.613453e-02  -2.505966e-02  -2.591521e-01  1.511737e-01  -1.167613e-01  -3.570931e-03  3.135937e-01  1.431579e-01  1.536229e-01  1.948746e-01  2.225715e-01  9.437942e-02  -2.908860e-01  -1.645800e-01  1.768331e-01  1.569963e-02  2.588751e-01  -1.348707e-02  -1.462858e-02  -9.979083e-02  6.111052e-02  2.789632e-01  -1.933495e-01  5.802806e-03  -1.681428e-01  2.148297e-01  -8.920866e-02  1.132784e-01  -2.627864e-01  3.957032e-01  -1.985241e-02  -1.594880e-01  1.396051e-01  1.402125e-02  -2.546081e-01  1.027078e-01  -6.817918e-02  -3.127772e-01  8.993001e-02  -1.997934e-01  -2.151721e-01  7.207505e-02  -2.319511e-01  3.673261e-01  -1.061669e-01  -1.244548e-01  -1.498047e-01  5.035329e-02  -2.651325e-01  9.839065e-02  -2.824777e-01  -2.197723e-01  3.000898e-01  1.159356e-01  -9.397593e-02  -1.324768e-01  2.650054e-01  -1.510075e-01  -8.600977e-02  -1.293095e-02  -9.080584e-02  1.390065e-01  4.505381e-02  1.811103e-01  -4.439479e-02  -4.492324e-02  -1.541241e-01  6.224228e-02  -2.162527e-01  1.196069e-01  1.404537e-01  -2.454098e-01  -2.127028e-01  -3.369749e-01  1.614631e-01  1.091010e-01  3.351441e-01  -4.440548e-01  5.381361e-02  -2.814566e-02  -1.502061e-01  -7.661358e-02  -3.006615e-01  1.848704e-01  -2.956853e-02  -2.128371e-01  -2.606088e-01  1.529586e-02  8.885294e-02  9.132108e-03  -1.812982e-01  -2.101481e-01  -1.028294e-01  -3.557473e-01  2.139246e-01  1.039498e-01  -1.985884e-01  1.524856e-01  -2.468786e-01  -1.994090e-01  3.262860e-01  1.644633e-01  -1.540203e-01  -5.075577e-01  -2.941490e-01  7.338838e-02  -6.013190e-02  -5.734281e-02  2.529986e-01  -1.419772e-01  3.006092e-01  -5.066710e-02  -2.415691e-02  -5.321804e-02  -9.101682e-02  1.108479e-01  2.271678e-01  5.665210e-03  9.715161e-02  2.510493e-01  4.823558e-02  -9.949533e-02  2.346653e-01  2.764957e-01  1.032594e-01  -5.802920e-02  -2.044035e-01  3.906111e-02  -2.945557e-01  1.633921e-01  2.544024e-02  -2.749563e-01  -1.150073e-01  2.091492e-01  -2.965815e-02  -2.587996e-01  -1.346217e-01  -2.048271e-01  -6.384249e-02  -3.987113e-02  6.232124e-03  -7.419847e-02  -1.637505e-01  4.126329e-01  2.113983e-01  2.894953e-02  -3.102599e-01  1.298926e-02  1.013364e-01  1.213548e-01  -1.121420e-01  1.686177e-02  -3.210602e-01  3.490674e-01  2.631342e-01  1.975526e-01  1.711640e-01  -2.735421e-01  2.239428e-01  -4.796487e-01  -3.112313e-01  4.702298e-01  3.104075e-02  -1.302803e-02  9.357209e-02  1.851176e-01  -1.778395e-01  -1.916792e-01  -9.976470e-02  -1.362856e-01  5.382614e-03  -4.625362e-01  -6.352289e-01  -4.465798e-01  -1.216134e-01  2.773575e-01  2.914984e-01  -5.149180e-01  9.745829e-02  9.371597e-02  -1.968711e-02  7.043852e-01  -5.060265e-01  -1.276956e-01  9.811531e-03  3.622372e-01  -2.276929e-01  -2.099202e-01  2.157795e-01  -3.248010e-01  5.889968e-02  -3.768246e-01  3.038049e-02  -1.054494e-01  3.731829e-01  -1.167898e-01  -2.393771e-02  -3.850751e-02  1.497513e-01  1.483263e-01  -6.179146e-02  1.322578e-01  6.317104e-01  -4.699863e-01  -5.048553e-01  2.908964e-01  -2.167525e-01  
      </Weights>
      <Biases Rows="50" Columns="1">
        7.068629e-02  -2.382299e-01  7.713488e-02  -2.347772e-01  -1.124070e-01  -2.437769e-01  -1.389857e-02  -5.989062e-02  -8.287514e-02  -1.360232e-01  -1.019005e-01  6.070322e-04  -3.047270e-02  2.555846e-02  5.550795e-02  1.566332e-01  -1.160378e-01  -5.811850e-02  -1.171905e-01  -2.277041e-01  -9.532580e-02  -5.527515e-01  -2.117258e-01  -1.249341e-01  1.530033e-01  -1.542283e-01  -1.835037e-01  1.021883e-01  1.305984e-01  2.496999e-01  -3.534321e-01  2.479482e-02  1.311381e-01  -1.270622e-02  9.960345e-02  1.147629e-01  2.008884e-01  1.658539e-01  1.487185e-01  -1.907893e-01  1.222717e-01  -1.123362e-01  -4.537960e-02  -1.385136e-01  9.705207e-02  1.535316e-01  1.405533e-01  -1.533194e-01  1.334868e-01  -1.405884e-01  
      </Biases>
    </DenseLayer>
    <DenseLayer Width="50" ActivationFunction="3">
      <Weights Rows="50" Columns="50">
        -5.325019e-01  -2.887960e-01  3.929150e-01  1.417809e-01  5.802925e-02  1.513690e-01  4.196918e-01  4.379769e-02  1.560728e-01  8.901180e-02  -2.693355e-01  -2.751460e-01  -3.452500e-01  1.328829e-02  3.080573e-01  -3.063721e-01  6.825693e-01  -1.196866e-01  4.408188e-01  6.342360e-01  -2.139158e-01  1.937579e-02  -1.287252e-01  -3.891464e-01  4.315867e-02  -1.618674e-01  -2.631388e-01  3.859543e-01  -6.751489e-02  -4.350164e-01  -3.300776e-02  -2.796584e-01  3.502942e-02  6.603899e-01  1.855679e-01  -1.337091e-01  4.362501e-02  2.027399e-01  3.586110e-03  2.253380e-01  3.326956e-01  -1.763168e-02  -4.732195e-01  -3.671936e-01  1.306827e-02  2.477023e-01  1.427648e-01  -2.479594e-02  3.251098e-01  3.700449e-01  -1.398477e-01  1.866620e-01  8.532775e-03  3.081755e-01  1.318894e-04  3.249446e-02  5.988071e-04  -3.265756e-01  -2.669792e-01  1.964636e-01  4.475779e-01  -1.310726e-01  -8.197017e-01  -6.938666e-02  3.033611e-01  1.265970e-01  1.143318e-01  3.558473e-01  2.882779e-01  5.116224e-01  -9.248309e-02  9.409681e-01  -1.219405e-02  2.487071e-01  -4.755808e-01  -8.821265e-02  -1.022138e-01  1.868144e-01  1.589070e-01  -9.305298e-01  4.599471e-01  -2.688804e-01  -4.898091e-02  2.029085e-01  8.729456e-02  -3.942631e-01  -1.457226e-01  1.489441e-01  -8.577250e-02  5.590979e-02  3.008283e-02  -8.274218e-02  1.344422e-01  -1.392072e-01  3.008286e-01  1.085466e-01  -1.750599e-01  2.953298e-01  -1.503574e-01  6.120231e-01  5.151897e-02  1.831229e-01  -1.785546e-02  4.926966e-02  2.771717e-01  3.988932e-01  1.525048e-02  2.746321e-01  5.189613e-02  1.178401e-01  3.646035e-01  -1.219089e-02  -2.254234e-02  -3.622989e-02  -2.397604e-01  -6.099587e-02  -8.294708e-02  2.624168e-01  5.038610e-03  -5.895436e-03  1.896412e-01  2.361064e-01  -3.351445e-02  2.092987e-01  6.459520e-02  2.879360e-01  3.093264e-01  -1.746882e-01  -2.466357e-01  -3.079091e-01  1.246406e-01  -3.690287e-02  -3.272874e-01  -3.484947e-01  -2.560358e-01  2.271372e-02  -3.167976e-01  -1.690351e-01  -1.952740e-01  1.445308e-01  -3.086366e-01  2.494836e-01  2.748362e-03  4.468086e-01  -2.785158e-01  -2.350620e-01  -5.408642e-02  1.073686e-01  -3.961110e-01  2.354270e-01  -1.169149e-01  1.588637e-02  3.701118e-01  -3.684556e-01  -5.283010e-02  -1.867431e-01  -1.091714e-01  -1.555271e-01  9.063955e-02  -1.275962e-01  6.637848e-02  -2.013195e-01  2.531853e-01  -1.266923e-01  8.627882e-02  2.091865e-01  2.014583e-01  -3.062645e-01  7.423408e-02  -2.581520e-01  -1.517180e-01  5.696754e-02  -8.697799e-02  -1.893140e-02  9.698026e-02  -1.424304e-01  -2.055819e-01  3.608365e-01  1.671464e-01  -2.576353e-02  -4.923757e-02  1.278388e-02  2.502353e-01  3.078783e-01  3.886835e-01  8.681570e-03  2.851688e-01  3.775690e-01  3.552098e-01  -4.165491e-01  1.935204e-01  -3.872222e-01  -6.203773e-02  -3.171344e-02  3.653546e-01  4.039059e-01  1.239759e-01  -1.697927e-01  4.528735e-01  1.229634e-01  -2.678334e-01  -1.662586e-01  1.108844e-01  -3.447332e-01  1.324411e-02  -8.461491e-02  3.540704e-02  -1.054784e-01  7.803990e-02  -1.432418e-01  -1.402395e-01  1.898774e-02  4.371252e-02  -1.266267e-01  2.273400e-01  -4.818790e-02  3.548070e-01  -2.157877e-01  2.845116e-01  -1.726683e-02  -1.473474e-01  1.209045e-01  -1.825915e-01  -2.229588e-01  6.031628e-02  -9.588049e-02  -1.236001e-01  1.530971e-01  2.513286e-01  -1.840338e-01  1.584328e-01  7.285683e-02  1.313471e-01  1.255091e-01  4.744758e-02  1.320973e-01  2.711753e-01  -1.725663e-02  6.782918e-02  -1.604780e-01  2.846159e-01  -3.378598e-01  -2.887187e-01  -1.921166e-01  2.037574e-01  3.410127e-01  1.207959e-01  -4.586362e-04  3.021409e-01  2.395544e-01  -4.614728e-01  -1.376311e-01  2.159512e-01  -2.821997e-01  -9.028524e-03  7.624824e-02  -4.956484e-02  2.438209e-01  -2.686769e-01  1.431911e-01  -4.627073e-01  -8.055934e-02  -6.097598e-01  2.236441e-02  5.106409e-01  -1.229981e-01  4.060595e-01  -2.769550e-01  1.206018e-01  4.481363e-02  -2.044351e-01  1.747411e-02  -2.849184e-01  -2.464262e-01  4.845490e-01  -1.195774e-01  1.533966e-01  5.142251e-02  2.284913e-01  -1.330790e-01  -5.206367e-01  8.887082e-02  7.177763e-03  3.304417e-01  3.035646e-01  -1.891349e-01  -1.755176e-01  1.379901e-01  1.466320e-01  -2.780336e-03  3.372375e-01  -1.463138e-01  7.314100e-03  1.727194e-01  -1.877050e-01  -7.401250e-02  1.772796e-01  -1.016352e-01  -9.938747e-02  2.949439e-01  -3.262553e-01  3.651060e-01  -8.544886e-02  4.130124e-01  -6.942499e-02  -1.814296e-01  3.640154e-01  -4.204277e-01  4.718535e-01  9.071708e-01  -1.030803e-02  -2.872987e-01  -4.772421e-01  6.617221e-02  -4.370595e-01  -2.273728e-02  7.856685e-01  1.055719e-01  6.086190e-01  9.391731e-02  -1.819095e-02  1.016589e+00  -5.896531e-02  1.031520e-01  1.156218e-01  1.095298e-03  3.346420e-01  -2.771552e-01  -3.816190e-01  -3.248411e-01  3.277345e-01  5.974673e-02  -6.251122e-01  6.699562e-01  2.039060e-01  -4.766575e-01  -7.952334e-02  1.928684e-01  -2.046496e-01  -1.727683e-01  -1.226461e-02  -2.948085e-03  -2.598749e-01  -2.389438e-02  -1.471453e-01  5.818387e-02  1.024455e-02  9.812334e-02  3.367187e-02  2.116995e-01  -2.276270e-01  4.671712e-01  -3.447210e-01  3.172621e-01  7.552128e-02  3.510982e-01  3.396034e-01  -5.768602e-01  -2.987521e-01  -2.135503e-02  2.413609e-01  -1.199726e-01  -3.430632e-01  -5.689682e-02  1.340687e-01  5.207596e-02  6.119910e-01  3.185143e-02  4.722407e-01  3.845015e-01  1.678097e-01  1.398357e+00  1.067716e-01  3.362584e-01  -6.605340e-01  -8.298365e-02  1.527451e-01  3.615375e-02  1.278555e-01  -5.732195e-01  8.322692e-01  1.630558e-01  -8.306320e-02  4.621325e-01  6.079973e-02  -6.082916e-01  1.962007e-01  -1.174471e-01  -3.853033e-01  3.565014e-02  -3.111547e-01  -1.013904e-01  -9.028294e-03  3.418504e-01  9.647918e-02  -3.507625e-01  -2.579953e-01  -2.934149e-01  -3.761123e-01  -4.854896e-02  3.297030e-01  -1.128922e-02  -2.004046e-01  2.375147e-01  3.012693e-01  1.900405e-02  -3.219880e-01  -1.700871e-01  -4.634561e-01  -9.670904e-02  2.475702e-01  -1.234298e-01  1.824277e-01  -2.225923e-01  8.380098e-02  7.386926e-01  -4.893823e-01  2.374490e-01  -4.453761e-01  -6.868075e-01  5.124037e-01  -2.479810e-01  3.045138e-01  1.787069e-01  -1.104640e-01  1.499571e-01  2.759476e-01  -1.123304e-01  -3.257644e-01  3.526971e-01  3.528216e-01  2.211021e-01  3.744490e-03  -5.354021e-01  -1.092315e-01  3.760923e-01  2.982745e-02  -2.573617e-01  -1.473615e-01  3.041127e-01  4.728048e-02  3.502298e-01  8.733813e-02  2.642570e-01  -3.629644e-01  1.411715e-01  -1.257890e-01  -4.192942e-02  -2.484027e-01  1.078260e-01  -1.911658e-01  1.924931e-01  -2.379135e-02  -3.266250e-02  2.258758e-01  3.110023e-01  -4.616458e-01  -2.556144e-02  6.163022e-02  5.108389e-01  1.604326e-01  -4.567955e-02  1.236432e-01  1.668188e-02  -2.769414e-01  -1.449576e-01  -3.032773e-01  -2.887707e-02  -1.343093e-01  -6.686683e-02  6.574561e-02  6.756038e-02  3.963192e-01  -7.803233e-02  3.023351e-01  9.802803e-02  2.232081e-01  1.255942e-01  -5.192523e-02  -2.751448e-01  1.700509e-01  -3.234228e-01  -1.223542e-01  7.593925e-03  -6.102332e-02  1.689146e-01  -3.025564e-01  -3.044697e-01  -2.258249e-01  3.920138e-01  -3.445411e-01  -1.185667e-01  2.273670e-01  4.789457e-01  -3.716300e-01  -2.434623e-01  6.052544e-02  2.381393e-01  -1.141490e-01  -2.994535e-02  7.610572e-02  -1.427218e-01  1.798744e-01  -3.708724e-01  -3.365586e-02  -4.209737e-01  2.937134e-01  -2.016295e-01  -6.612103e-02  -1.105989e-01  -7.893997e-02  -1.874553e-01  2.364431e-01  1.637235e-01  -1.244934e-01  1.394459e-01  1.089984e-01  5.240835e-02  2.590705e-02  -1.790613e-01  -8.218253e-02  8.943263e-02  -1.806055e-01  -1.126608e-01  -1.136092e-01  -3.616161e-01  -4.497243e-01  8.216020e-02  8.255321e-02  2.712028e-01  -7.115843e-02  -1.250321e-01  1.039070e-01  -1.066369e-01  2.604440e-01  1.347654e-01  3.610825e-02  2.125705e-01  5.387645e-01  -2.860590e-01  1.290150e-01  -1.382711e-01  -3.434251e-01  -2.773043e-01  3.624985e-01  4.740534e-01  1.092912e-01  -2.476653e-01  2.316764e-01  -1.593323e-01  8.586612e-03  -3.815753e-01  2.872590e-01  -3.145165e-02  -4.551892e-01  -2.414748e-01  -7.087815e-02  -2.713514e-01  -2.920345e-02  -2.984220e-01  -1.620079e-01  -1.722847e-01  -6.797218e-03  -7.501045e-02  -5.201045e-02  -6.171289e-02  2.376852e-02  -4.012741e-01  2.061714e-01  -1.638239e-01  -3.872282e-01  -1.682348e-01  -5.586758e-02  -3.609185e-01  -2.532772e-01  -4.423606e-01  -4.517329e-01  4.022902e-01  4.095836e-01  3.243234e-01  -1.869842e-01  2.177291e-01  9.324431e-02  4.987561e-03  4.298290e-01  -2.236606e-01  3.898469e-01  4.702500e-01  2.181447e-01  -5.166732e-02  1.576682e-01  -1.231693e-02  -6.298754e-02  -2.162310e-01  3.654146e-01  1.401156e-01  1.562157e-01  -7.781620e-02  1.028091e-01  2.017128e-02  -4.395101e-01  -1.996197e-01  -1.205771e-02  -8.272230e-02  -4.370833e-01  -2.631633e-01  4.893094e-01  -2.033581e-01  3.810763e-01  -1.425328e-01  -3.137013e-01  -1.713506e-02  -5.740614e-01  1.019925e-01  2.259499e-01  -2.699751e-01  4.440668e-01  2.110831e-01  2.877542e-01  1.993018e-01  -7.415246e-01  7.400588e-02  -7.300819e-01  -2.913100e-01  2.114448e-01  -4.746238e-02  -2.141700e-01  7.057825e-02  3.554221e-01  -2.462718e-01  -2.250160e-01  6.088264e-02  2.991661e-01  2.306063e-01  2.822431e-01  -2.370655e-01  1.409575e-01  3.129867e-01  -5.547773e-02  -1.001184e-01  -1.963151e-01  -1.493165e-01  2.178186e-03  3.363320e-02  1.312567e-01  3.367841e-01  7.474665e-02  -1.582155e-01  2.255091e-01  -3.603891e-01  -1.575277e-01  1.625374e-01  -3.391119e-01  -5.233322e-02  1.320545e-01  6.550072e-01  -4.782039e-01  -2.957273e-02  -7.901723e-02  2.664374e-01  7.983604e-02  4.266914e-02  1.631972e-01  9.866054e-02  6.616854e-02  -1.844157e-01  -5.263420e-01  2.273972e-01  -1.588085e-01  -1.192806e-01  3.848454e-01  2.098843e-01  2.806759e-01  -1.836761e-01  1.925359e-01  -1.258909e-01  2.869085e-01  -1.781481e-02  -6.380127e-02  2.138705e-03  3.316150e-01  8.003471e-02  7.522895e-02  -4.528959e-01  -9.481628e-02  3.003934e-01  -1.656115e-01  -2.527563e-01  -2.896772e-01  3.805443e-01  1.167188e-02  -6.818830e-02  7.820334e-02  4.033936e-01  -1.271864e-02  -3.722280e-01  -2.981134e-01  -2.226050e-01  -2.011868e-01  6.595011e-02  -3.036877e-01  1.643722e-01  9.610688e-02  -3.809233e-02  -2.042170e-01  -3.534412e-01  -1.602501e-02  -4.333931e-01  1.746151e-01  1.602856e-01  -1.681267e-01  1.251484e-01  -8.937508e-01  -1.592634e-01  1.002504e-02  -1.058332e-01  4.511218e-01  2.062442e-01  3.376968e-01  1.895409e-01  -1.910235e-01  6.696572e-01  -1.332340e-01  1.363769e-01  5.725101e-02  3.977825e-02  -8.546703e-02  -2.060410e-01  1.234476e-01  -5.916544e-01  2.993553e-01  -2.937908e-01  8.189164e-02  2.933787e-01  8.123605e-02  -1.320444e-02  1.344473e-02  -1.590987e-01  2.536666e-01  -7.428309e-02  2.307019e-02  -2.662560e-01  4.271486e-03  1.044344e-01  3.224520e-01  2.624187e-01  -7.119885e-02  2.440622e-02  3.062899e-01  5.120442e-01  -1.644052e-01  1.589573e-01  -1.459395e-02  6.917045e-02  -2.760186e-01  -4.473644e-01  1.786182e-01  -3.697377e-01  -1.307199e-01  -1.595849e-01  -8.284377e-02  -1.584732e-01  2.690281e-02  -3.576028e-01  5.333669e-01  1.897419e-01  4.161455e-01  1.919388e-01  1.938114e-01  9.565897e-02  -4.728635e-03  7.311919e-01  1.092337e-02  -8.356583e-02  -4.195247e-01  1.345764e-01  -6.244798e-02  -6.793294e-02  -7.288526e-02  -1.993707e-01  -1.777775e-01  -9.189011e-02  -2.243350e-01  2.466498e-01  2.484172e-01  -3.717016e-01  -5.237607e-01  -7.365451e-03  3.200496e-01  -1.427603e-01  1.070266e-01  -2.103144e-01  -2.600611e-01  -3.457351e-02  1.692208e-01  -9.423507e-02  1.538759e-02  2.029021e-02  8.010516e-02  6.472787e-01  2.674190e-02  2.382184e-01  -1.809298e-01  1.594052e-01  2.903063e-01  2.445302e-01  -1.446404e-01  2.693583e-01  1.426017e-01  1.805501e-01  2.502646e-01  4.127160e-01  -6.744189e-02  1.866833e-01  -2.058263e-01  -3.504561e-01  -1.129951e-01  3.277386e-01  -3.272412e-01  -2.021343e-03  6.585208e-02  4.403651e-01  3.558005e-01  3.562066e-01  8.510076e-02  2.254348e-01  4.086832e-01  -4.579178e-01  -2.805976e-01  -2.728309e-01  -4.227108e-02  1.445374e-01  -3.251525e-01  -2.939852e-01  -3.331555e-02  8.592808e-02  -2.527002e-01  -3.151111e-01  -4.916671e-01  1.060822e-01  -4.454506e-01  7.298090e-02  5.540571e-02  4.264788e-01  -5.604514e-02  -2.143728e-01  -3.113644e-01  -1.007350e-01  -3.756573e-01  3.651314e-02  -1.481141e-01  -2.443627e-01  1.408611e-01  -4.882018e-01  -2.147156e-01  -2.299630e-01  3.337725e-01  6.259523e-02  1.137611e-01  -1.657020e-01  7.076390e-02  -2.348284e-01  -1.536867e-02  1.699428e-01  8.018402e-02  2.090928e-01  -3.728844e-02  -3.346720e-01  3.485516e-01  -1.529496e-01  -2.648578e-01  -1.617531e-01  -2.830303e-01  -2.530844e-01  -2.374007e-01  -1.551791e-01  -1.786513e-01  2.774950e-01  3.129581e-02  8.744767e-02  -3.323242e-01  -1.473318e-01  2.074107e-01  1.706786e-01  1.535983e-01  8.099429e-02  3.335002e-01  7.218805e-02  4.976400e-01  -2.944752e-02  1.460380e-01  -3.964378e-01  -3.754921e-01  -2.072779e-01  3.869404e-01  2.867776e-01  2.729862e-01  -2.124946e-01  4.477749e-01  7.828163e-02  -1.840468e-01  2.132803e-01  -2.591845e-01  1.348548e-01  -8.711537e-02  3.863256e-02  3.079548e-01  -4.506013e-01  -2.826543e-01  -2.183513e-01  3.755694e-01  1.962600e-02  -8.226408e-01  -1.625954e-01  6.829507e-01  4.270087e-01  4.393300e-01  -1.515801e-01  2.444650e-01  4.489272e-01  -2.763444e-01  5.948915e-01  -2.403002e-01  -8.008507e-02  -3.518782e-01  1.910774e-01  -1.380538e-01  7.883777e-02  5.915881e-02  -5.028939e-01  6.287584e-02  -2.391181e-01  -1.349998e-01  3.296201e-01  -2.446405e-01  -5.397773e-01  -1.104662e-01  4.471685e-02  -1.546154e-01  -2.985525e-01  4.222581e-02  1.080375e-01  4.822240e-02  -4.544701e-02  1.936992e-01  -7.747737e-02  -1.687418e-01  3.070035e-01  -2.718127e-01  3.550456e-01  -9.715158e-02  -1.601852e-01  2.465672e-01  -6.722304e-02  -7.153520e-02  -2.297845e-01  2.222317e-01  -1.536954e-01  3.620353e-01  -6.755707e-02  -2.316593e-01  -3.440391e-01  -2.628526e-01  1.499055e-01  -4.354740e-02  -4.242681e-01  4.808585e-01  4.846429e-02  4.767510e-01  3.297756e-01  -4.677958e-01  -7.505873e-02  -6.558107e-01  -1.307274e-01  6.287278e-02  -3.494999e-01  3.983478e-02  2.914604e-01  2.138258e-01  1.093732e-01  -2.228106e-01  1.893906e-01  -9.542784e-02  5.579864e-01  2.867581e-01  -4.471860e-01  1.881340e-01  2.881851e-02  -7.077488e-02  -3.806685e-01  6.066690e-02  -1.133201e-01  -3.284512e-01  -1.753174e-01  3.116747e-01  2.546647e-02  2.951096e-01  1.846756e-01  3.771982e-01  7.130183e-02  -4.280054e-01  -1.763705e-01  1.742743e-01  9.444071e-02  -2.451747e-01  -1.263304e-02  3.330022e-01  -2.673216e-01  -3.207316e-01  -1.412323e-01  -2.492922e-03  1.256833e-01  1.305607e-02  4.762631e-02  9.073067e-01  2.482520e-01  4.047335e-01  2.942549e-02  1.695157e-01  3.834945e-01  1.231625e-01  3.789692e-01  1.236567e-01  1.002232e-01  1.232992e-01  -2.085764e-01  -1.696520e-01  7.694257e-03  -2.234883e-01  -1.630509e-01  -3.662843e-02  -3.593304e-01  6.621247e-02  3.452299e-01  -4.121349e-02  -3.392017e-01  -2.579773e-01  -2.895386e-01  -2.444611e-02  -2.855957e-01  -9.866966e-02  -1.518200e-01  -1.050614e-01  -7.161150e-02  2.220157e-01  1.713590e-01  1.868942e-01  -1.025582e-02  -1.495200e-01  6.603485e-01  8.711295e-01  -2.860486e-01  1.487526e-01  -3.222037e-01  -3.122512e-01  -4.661645e-01  -6.017329e-01  -1.075188e-01  -4.721494e-01  -2.410234e-01  2.560323e-01  4.426384e-01  1.050735e-01  3.082923e-02  1.167049e-01  7.375553e-02  -6.802343e-01  3.028787e-01  -5.127530e-01  1.415218e-01  7.677056e-02  -7.409502e-01  -4.326554e-02  2.323164e-01  -3.337457e-03  -9.333841e-02  -4.650367e-01  -2.315074e-01  1.118248e-01  -2.442154e-01  -3.111796e-01  -1.085753e-01  2.785426e-02  -4.493729e-01  1.940354e-02  4.384298e-01  -9.068139e-02  1.372112e-01  2.734799e-01  -3.700442e-02  -2.488163e-02  4.513872e-02  -1.292187e-01  -3.468155e-01  1.513180e-01  1.811176e-01  1.311333e-01  2.451537e-01  -1.722066e-01  3.052731e-01  2.539653e-01  -2.518733e-01  7.240772e-02  1.290508e-01  1.564054e-01  -4.443282e-01  1.052689e-01  -4.196829e-01  -1.075901e-01  -2.701844e-01  -2.211907e-01  -5.378936e-02  -1.299300e-02  -1.089380e-01  3.769841e-01  2.897796e-01  2.640782e-01  -1.481604e-01  3.325970e-02  -4.267904e-01  -8.919988e-02  4.677770e-01  1.810056e-01  -1.141199e-01  -1.773395e-01  -3.209714e-01  -2.762410e-01  1.234504e-02  2.402302e-02  2.120066e-01  -1.168948e-01  1.740836e-01  2.590694e-01  3.186839e-01  -4.677954e-02  -2.102658e-01  2.115309e-01  -7.337183e-02  2.544057e-01  -4.820425e-02  -4.909959e-02  -2.308383e-02  2.220807e-01  -3.851589e-02  1.185040e-01  1.013394e-01  1.427861e-01  6.604859e-02  1.107197e-01  4.241275e-01  -1.915054e-02  -5.062521e-02  3.281670e-03  4.267173e-01  3.960620e-01  -2.749471e-02  6.736712e-02  7.820537e-02  5.251275e-02  1.386206e-01  1.987459e-01  1.777865e-01  2.857493e-02  1.201567e-01  -3.302341e-02  8.882993e-02  6.116807e-02  1.795044e-01  -2.590484e-01  1.127547e-01  1.314896e-01  5.114718e-02  8.169533e-02  -1.007449e-01  1.308520e-01  4.002773e-01  4.708146e-01  -1.305656e-01  -1.590057e-01  1.517832e-01  -3.658383e-02  2.408927e-01  -3.932017e-01  -2.318539e-01  -9.075492e-02  -4.365820e-02  -2.961326e-01  -3.642814e-01  -4.590847e-01  2.338398e-01  -3.974703e-01  1.800090e-01  3.200873e-01  1.310311e-01  -2.459771e-01  -2.078546e-01  -3.256266e-01  3.073871e-01  -3.562276e-01  2.333041e-01  2.724539e-01  -1.689036e-02  2.403730e-01  -1.387334e-01  -2.357217e-01  -5.610949e-01  -2.208077e-04  -5.460400e-01  -3.113039e-01  -4.589061e-01  -1.053856e-02  2.513759e-01  -4.769293e-02  -2.373354e-01  1.180744e-01  1.324832e-01  2.827358e-01  -1.430176e-01  3.922030e-02  1.706706e-01  -1.818303e-02  3.254963e-01  2.434071e-01  1.899906e-01  -4.241951e-01  -3.614831e-01  -2.969667e-01  2.011214e-01  3.713568e-01  -2.099363e-01  2.170694e-01  -1.043422e-01  3.961444e-01  -5.073787e-02  2.497708e-01  -4.312452e-01  -2.689394e-01  1.345093e-01  9.542966e-02  5.372313e-03  1.143477e-01  -2.203449e-01  1.812697e-01  7.540828e-02  1.726131e-01  1.644270e-01  2.054863e-02  4.111108e-02  4.718854e-02  1.625767e-01  -3.667699e-01  3.600676e-02  2.774041e-01  -1.091950e-02  -8.215308e-02  1.570297e-01  3.261105e-01  2.097556e-01  -1.113038e-01  1.263797e-01  -2.563771e-01  -1.885003e-01  -2.895642e-01  -8.307716e-03  2.693121e-01  -1.514311e-01  3.546550e-01  -2.930240e-01  4.931018e-01  6.591675e-01  -3.589997e-01  -1.142877e-02  1.573885e-01  -2.456592e-01  4.535949e-01  8.502021e-02  -1.693487e-01  3.609798e-01  1.925058e-01  -2.781947e-02  -4.577668e-01  -2.642542e-01  1.659213e-01  1.741753e-01  7.491165e-02  -3.452035e-01  -1.574640e-01  8.169570e-02  1.225724e-01  -1.804072e-02  3.801806e-01  9.031300e-02  -4.674505e-02  -1.317008e-01  -7.610633e-02  1.248668e-01  -2.462850e-02  -9.936793e-02  7.789338e-02  4.830694e-01  1.518847e-01  4.880051e-02  -2.481605e-01  -4.120024e-02  -2.134327e-01  3.325708e-03  -3.151167e-01  -1.182061e-01  3.047052e-01  -3.657443e-02  7.359135e-02  2.385520e-01  1.200470e-01  3.170338e-01  -4.940347e-01  6.752995e-02  -5.834600e-01  1.978795e-01  -6.940858e-01  -4.252665e-02  -1.697939e-01  -3.553000e-01  1.890170e-01  2.488880e-02  8.523434e-02  1.114206e-02  1.229299e-02  -2.197416e-01  2.488107e-01  -2.260869e-02  2.026960e-01  1.798194e-01  7.068346e-02  -4.142648e-01  7.955474e-02  8.222645e-03  -8.504665e-02  -9.195048e-02  5.122753e-03  8.187627e-02  -1.205892e-01  1.264158e-02  1.019223e-01  1.445869e-01  2.212828e-01  1.235604e-01  1.886874e-01  -5.202648e-02  4.464518e-02  -1.990579e-01  -6.709871e-01  1.618796e-01  7.507174e-02  3.067091e-01  6.566797e-02  -2.897459e-02  3.217417e-01  6.443839e-02  4.956682e-01  3.339973e-01  -8.046184e-02  -2.356333e-01  -4.077039e-01  -1.480972e-01  -5.197175e-01  1.658473e-01  7.634365e-01  -2.928627e-01  4.468095e-01  -1.731763e-01  -4.306274e-01  7.701480e-01  2.275509e-01  -1.326336e-01  -3.507180e-02  -5.674275e-02  3.085884e-01  -9.311219e-02  -2.590881e-01  8.902757e-02  2.757733e-01  -4.091999e-02  -2.609025e-01  5.220352e-01  -1.836806e-01  -6.085663e-01  -1.809598e-01  1.306738e-01  -2.979706e-01  5.470986e-01  2.060006e-01  1.128108e-02  -4.181437e-02  7.097138e-01  -1.120482e-01  1.157256e-01  1.256438e-01  -2.685124e-01  2.405663e-01  -8.546242e-02  5.113805e-02  -2.873973e-01  5.641335e-02  4.676079e-02  -2.114160e-02  -3.869404e-01  -1.488256e-03  -1.678427e-01  -6.566113e-01  -3.845545e-02  -1.594721e-01  -1.308649e-02  -3.984118e-01  -3.388348e-01  7.385992e-01  4.700989e-01  -1.825337e-01  3.700291e-02  -7.779448e-02  -6.523450e-02  -1.490119e-01  3.124141e-01  -2.033179e-01  -4.606118e-02  -1.201220e-01  -5.640264e-02  -4.496796e-01  2.123490e-01  4.055650e-01  9.865101e-02  1.373477e-01  4.946309e-02  1.213822e-01  -1.585527e-01  1.323565e-01  -9.370117e-02  -1.260512e-01  -1.158676e-02  7.352193e-02  -6.300798e-01  3.977483e-01  -1.226649e-01  6.499539e-02  -1.050625e-01  2.698132e-01  3.825105e-01  3.010944e-01  1.539103e-01  4.587188e-01  1.468261e-01  -4.047871e-02  2.451702e-01  -1.219499e-01  3.397833e-01  1.448332e-01  3.049931e-01  -2.370623e-01  3.823993e-01  2.988006e-01  3.152517e-01  2.671316e-01  -2.131818e-01  -8.034524e-02  -2.780918e-02  -4.878534e-01  7.079410e-02  9.366073e-02  1.852144e-01  -8.418496e-02  2.880942e-01  -2.015063e-01  -8.288659e-02  1.580797e-01  -1.374676e-01  2.136979e-01  -5.907061e-02  2.878119e-01  1.316032e-02  -1.279868e-01  3.115809e-01  1.992431e-01  2.728309e-01  -3.659337e-01  -1.234778e-02  -1.449006e-01  1.260284e-01  1.343121e-02  -2.466787e-01  -1.950945e-01  9.599080e-02  -1.810442e-01  1.031835e-01  2.869826e-02  7.221310e-02  -1.874218e-01  -1.739004e-01  -2.055328e-01  6.720163e-02  -1.099547e-03  5.244136e-02  3.725772e-01  2.988198e-01  -4.580472e-02  -6.565616e-02  -1.851562e-02  8.716571e-02  -3.384238e-01  -7.213929e-02  1.935139e-01  -1.618638e-01  3.341937e-01  3.216356e-01  6.045732e-01  -6.671163e-02  -1.021138e-01  -3.929619e-01  -5.170884e-02  1.454617e-01  -2.000121e-01  3.292955e-01  2.394972e-01  -1.018147e-01  4.207869e-01  1.809767e-01  -5.031520e-01  2.249236e-01  2.413494e-01  -1.284926e-01  -9.548286e-02  9.177057e-02  2.074039e-01  7.365960e-02  -1.417928e-01  -2.933043e-01  -1.673365e-01  1.460717e-01  1.142628e-01  -3.356820e-01  -2.453445e-01  1.859415e-01  -9.863731e-03  2.156996e-01  1.857323e-01  2.772114e-01  1.156694e-01  -1.943693e-01  -2.684712e-01  5.068897e-01  4.794905e-02  -2.401386e-01  6.094093e-03  -2.840982e-01  -1.285658e-01  -3.360385e-01  -1.304118e-01  -2.672184e-03  -9.234688e-02  -2.979034e-01  -8.367667e-01  -6.611440e-01  1.202470e-01  -1.186852e-01  -5.061593e-02  -4.264249e-01  7.312040e-01  3.148818e-01  -3.535494e-01  -6.552166e-02  -4.028154e-01  -3.229479e-01  3.067340e-01  6.466803e-02  -1.248989e-01  -2.076249e-01  -1.547857e-01  -2.215215e-02  -4.219292e-01  1.532643e-01  2.966915e-01  -7.681233e-02  6.396851e-02  -3.136470e-01  5.343720e-01  -4.707966e-02  6.713127e-02  3.358204e-01  1.099979e-01  -9.145042e-03  3.426810e-01  -1.379095e-01  1.156867e-01  1.793102e-01  2.020183e-01  -2.892627e-01  1.295301e-01  3.655517e-01  3.737268e-01  2.615241e-01  -9.231576e-02  3.978006e-01  -2.616493e-01  -2.849630e-02  -2.066449e-01  2.005135e-01  2.552690e-02  -1.387728e-01  2.530632e-01  -2.665462e-01  -1.958610e-01  -4.767584e-01  3.863573e-01  -8.463597e-02  -7.198226e-01  -2.329175e-01  3.645186e-01  5.252566e-01  2.442515e-02  -4.003307e-02  2.897184e-01  2.654987e-02  -1.809119e-01  6.967608e-01  -2.535007e-01  -2.671731e-01  -5.299470e-01  3.248726e-02  8.033897e-02  5.712873e-02  -3.605673e-02  -4.570011e-01  1.358193e-01  3.967516e-03  8.655190e-03  2.140633e-01  -1.899025e-01  -5.417245e-01  -1.536681e-01  -1.188967e-01  6.189109e-02  -2.285350e-02  1.944475e-02  -1.092421e-01  -1.397295e-01  2.564297e-01  1.279499e-01  5.064084e-02  1.412265e-01  -2.683323e-01  -1.105416e-01  1.956676e-01  -5.686444e-01  -5.695296e-02  3.123879e-01  2.197405e-02  -5.798518e-02  1.123562e-01  3.441678e-01  1.062130e-01  -3.274449e-01  -1.529625e-02  -2.938601e-01  -3.958211e-02  -1.233463e-01  -1.098097e-01  8.993322e-02  -1.096373e-01  4.080643e-01  -4.362968e-01  4.025270e-01  6.618566e-01  -3.181546e-01  3.120952e-02  -1.900767e-01  -3.411131e-01  4.943481e-01  -2.236818e-01  -1.287093e-01  7.083858e-02  1.772118e-02  7.343721e-02  -1.405135e-01  -2.915340e-01  4.410189e-02  2.423624e-01  1.308553e-02  -2.776459e-01  -7.129411e-02  6.624759e-02  2.080800e-01  -1.619982e-02  2.093899e-01  -8.301628e-02  -3.963600e-01  -1.810067e-01  -2.357610e-01  -7.117147e-02  -8.657422e-02  2.323133e-01  2.799270e-01  4.680696e-01  -3.113858e-01  -1.620619e-01  5.813137e-02  -8.266247e-02  -1.050494e-01  -1.717269e-02  -1.129632e-01  -4.857428e-01  -3.628898e-01  -2.396547e-01  1.160384e-01  2.585472e-01  2.514470e-01  -1.989404e-01  1.627574e-01  4.088466e-01  1.697305e-01  -2.403420e-01  4.386131e-01  -3.195872e-01  4.762136e-02  -5.391813e-03  -1.873590e-01  9.483100e-02  -2.486133e-01  -1.621407e-01  -1.893998e-01  2.411389e-01  3.036307e-01  -3.228271e-01  1.305125e-01  -8.480357e-02  4.533847e-01  -1.054334e-01  1.346064e-02  3.128853e-02  2.587610e-01  4.615230e-01  3.563398e-01  -2.532099e-01  2.662693e-01  -1.324569e-01  -4.391564e-02  -2.747183e-01  4.850651e-01  4.574803e-01  3.509120e-01  -3.578959e-02  3.464032e-01  5.394696e-02  1.236555e-01  1.278901e-02  7.320782e-02  3.153716e-01  6.017029e-02  3.150916e-01  -1.501337e-01  3.554757e-01  3.011686e-01  6.883214e-02  3.134525e-01  2.680474e-01  -5.691178e-02  -2.042242e-01  5.051833e-02  1.364710e-01  1.855677e-01  2.267156e-01  -6.450881e-03  -1.694933e-01  3.250549e-01  2.560378e-01  3.575421e-01  1.189411e-01  1.037613e-01  3.401181e-01  1.410729e-01  -2.382647e-01  -3.790329e-01  -1.945649e-01  2.932975e-01  -3.655046e-02  -2.130420e-01  -7.316431e-03  -3.226346e-01  1.868459e-01  -1.242799e-01  -5.388965e-01  -7.377501e-02  4.678798e-01  -2.960862e-01  1.077635e-01  1.542851e-01  3.265563e-01  -4.533193e-01  -8.313409e-02  -9.583513e-02  1.939130e-01  -4.401818e-01  -5.895300e-03  -1.325215e-01  -5.561225e-02  2.875617e-01  2.138241e-02  4.072453e-02  2.203689e-01  4.402710e-01  2.064771e-01  -2.544153e-01  -9.496575e-03  -1.420743e-01  -2.034557e-01  -4.241531e-01  -2.294849e-01  1.710222e-01  -2.627372e-01  5.003109e-01  -1.579654e-01  2.015742e-01  5.235907e-01  -3.521250e-01  -1.249289e-01  -2.251907e-01  -3.493835e-01  4.930888e-01  -3.179888e-01  1.685041e-01  1.940470e-01  2.467523e-01  1.959447e-02  -3.323117e-01  -2.602196e-02  4.242645e-02  4.400510e-01  8.780958e-03  -2.569491e-01  1.474780e-02  1.322306e-01  1.633763e-01  1.545827e-02  3.835027e-02  -6.629825e-02  -2.024229e-01  -2.186433e-01  2.409849e-01  -1.279498e-01  7.696509e-02  -1.284511e-01  1.024404e-01  4.559163e-01  2.757473e-01  2.367875e-01  8.319708e-02  2.737860e-01  3.152452e-01  3.494056e-01  -5.228960e-01  2.462654e-01  -3.425583e-01  1.218089e-01  2.693156e-01  1.775080e-01  3.623073e-01  -2.209066e-01  -7.300727e-02  2.004114e-01  -1.589676e-01  -1.065502e-01  -3.288049e-01  -1.690981e-01  2.778538e-01  -2.078059e-03  7.498623e-01  3.594020e-02  -2.500083e-01  -7.122339e-02  -6.269936e-02  2.894850e-01  -1.829862e-01  1.209372e-01  2.888082e-01  -2.729696e-01  -1.767640e-01  -2.114987e-01  -3.531896e-01  2.584075e-01  -4.646683e-02  -2.470394e-01  -2.404072e-01  3.059431e-01  -2.099418e-01  9.102738e-02  -7.164225e-02  5.377759e-03  -2.526788e-01  -3.867425e-01  -2.475350e-01  6.385612e-02  -1.821543e-01  1.398341e-01  2.150477e-01  4.377504e-01  -9.196232e-02  3.360281e-01  3.937331e-01  1.698104e-01  -4.399735e-01  1.470361e-01  1.786651e-01  -2.798618e-01  -2.993195e-03  6.906687e-01  -8.615213e-02  3.273227e-02  -1.489972e-01  -1.053034e+00  -6.595596e-02  2.395351e-01  -2.023852e-01  1.014660e+00  2.644498e-01  -4.950706e-02  2.112132e-01  3.786450e-01  -2.608780e-01  8.261266e-02  3.218595e-01  -5.575206e-01  3.834264e-02  -3.446658e-01  1.169388e-01  8.847232e-02  4.606321e-02  -5.596181e-01  -1.192860e-01  8.188473e-02  -1.024288e-01  -2.918994e-01  -5.195058e-01  3.400049e-01  -3.676713e-01  8.819779e-02  4.025569e-01  4.389493e-02  7.512833e-02  -7.121921e-02  -3.221296e-01  5.989918e-01  -1.343505e-03  -3.170404e-01  3.907612e-02  1.327381e-01  -1.507187e-01  7.723096e-02  -3.724852e-01  -2.525325e-01  3.839869e-01  -8.295425e-01  -3.274744e-01  -2.458206e-01  5.236964e-01  3.028349e-01  -5.021936e-01  -1.286100e-01  5.752811e-01  -1.450141e-02  1.113994e-01  -6.010971e-02  2.471985e-02  1.909025e-01  9.122313e-02  4.037363e-01  -7.076429e-02  3.042077e-01  -7.580512e-01  2.387644e-02  6.900739e-02  4.303092e-02  2.987037e-01  -5.400623e-01  2.563556e-01  -3.563586e-01  2.126737e-01  -1.118028e-01  3.079668e-01  -5.246345e-01  1.511880e-01  -1.722610e-01  1.595169e-01  -1.259115e-01  -1.839922e-01  -7.840660e-02  -1.553335e-01  1.022279e-01  7.220589e-02  2.528461e-01  1.861409e-01  -1.608777e-01  2.716685e-01  2.732419e-01  4.675115e-01  -1.898844e-02  -2.087812e-01  2.231642e-01  -1.059981e-01  3.582837e-01  -4.019555e-01  -1.906449e-01  1.662989e-01  2.086128e-01  1.553677e-01  3.545837e-02  6.252222e-01  2.987450e-02  2.267112e-02  -1.263310e-01  -2.033370e-01  3.794833e-01  -2.658993e-01  1.166861e-01  4.467525e-01  2.579647e-02  2.602356e-02  3.062231e-01  -3.383848e-01  2.974202e-01  3.063578e-01  -2.119191e-01  -2.104321e-01  1.346795e-01  -3.468738e-02  -2.385896e-01  4.573832e-02  -3.032323e-01  3.933196e-02  2.151778e-01  -1.328540e-01  8.100663e-02  -1.350235e-01  -4.715345e-02  5.937795e-02  2.671124e-01  -1.418068e-01  8.617503e-02  7.812165e-02  -2.289283e-01  -6.105866e-02  2.136765e-01  -3.313374e-01  -3.390264e-01  -4.645798e-01  -1.999096e-01  -3.857378e-02  -1.201740e-01  -2.268827e-01  -3.964185e-01  6.095048e-01  -4.189640e-01  2.022709e-01  -2.674781e-01  4.091949e-02  7.811720e-02  -1.340070e-01  2.178860e-02  4.144444e-01  -1.324042e-01  2.035327e-01  3.736501e-03  9.279609e-02  3.139344e-01  -4.887990e-02  4.382538e-01  1.539184e-01  1.951756e-01  -1.147079e-02  3.492874e-02  -5.262497e-02  -1.845856e-01  2.476275e-01  -2.870485e-01  2.190249e-01  -2.351439e-01  1.586483e-01  1.086983e-01  1.143346e-02  -4.743383e-01  -1.450874e-01  3.020806e-01  1.743010e-01  -2.260548e-01  -7.577936e-02  -3.158449e-01  -1.491890e-01  2.679844e-01  3.257582e-01  6.920528e-03  9.387603e-02  1.245956e-01  1.929214e-01  3.645865e-01  -5.408573e-01  8.864787e-02  3.378515e-02  -2.005143e-02  1.407704e-01  -1.387855e-01  1.596864e-01  -1.422620e-01  -4.488611e-01  -1.602502e-01  -1.358492e-01  1.784152e-01  1.488212e-01  -4.597768e-01  7.477238e-01  2.085310e-02  5.592527e-01  1.305524e-01  5.002797e-01  8.130930e-02  3.232610e-01  4.218810e-01  -5.775980e-02  -2.276120e-01  5.660683e-02  4.104048e-02  1.291218e-01  6.930533e-02  2.732434e-01  3.657663e-01  -3.824130e-01  -1.745996e-01  3.198330e-01  1.306534e-01  -1.982930e-01  -5.320823e-01  -4.822943e-01  -3.724852e-01  1.744086e-01  -9.551241e-02  -1.166636e-02  -1.072266e-01  1.581274e-01  -1.128934e-01  2.563515e-01  -1.078146e-01  3.274306e-01  3.086316e-01  8.033437e-02  6.784669e-01  1.052649e-01  2.354974e-01  -2.619930e-02  9.118609e-02  3.515505e-01  4.727591e-01  6.380318e-02  1.237352e-01  -4.278468e-02  4.020104e-01  2.840557e-01  -6.077424e-03  -2.228191e-01  -2.590472e-01  1.562378e-02  -1.072761e-01  7.442615e-02  6.570403e-02  1.721227e-02  4.050698e-02  4.528658e-01  3.897129e-02  1.776772e-01  1.678509e-01  2.546460e-01  2.396182e-01  3.615822e-01  -2.917979e-01  -1.695268e-01  -2.542869e-01  3.996629e-01  -7.848526e-02  -2.252292e-01  2.793274e-02  -6.203000e-01  1.899357e-01  -3.944938e-01  -6.520380e-01  -2.606410e-01  2.536677e-01  -1.386476e-01  5.125316e-01  5.397204e-02  3.580577e-01  -8.899981e-02  -1.707725e-01  -3.531313e-01  -2.796982e-02  -1.919498e-01  2.183059e-01  1.044157e+00  3.878466e-02  -1.938490e-01  1.902849e-01  -1.186998e-01  -3.794969e-02  -3.720044e-01  -2.345096e-01  3.184935e-01  1.197909e-01  2.941733e-01  -1.222082e-01  -1.734356e-02  1.543569e-01  -3.127117e-01  9.255399e-03  -3.264889e-01  3.895315e-01  -5.341219e-01  1.664322e-02  -2.388178e-01  -2.235189e-01  -2.119589e-01  6.244905e-01  3.449189e-02  1.314590e-01  2.086374e-01  -4.013008e-01  -3.411348e-01  -3.243034e-01  5.537818e-01  7.623127e-02  -1.623960e-01  -5.591847e-01  9.653203e-03  3.535558e-02  2.452663e-01  -2.725267e-01  -3.599116e-01  1.756534e-01  -3.698623e-01  2.732767e-01  2.342745e-01  1.702586e-01  1.020461e-01  -5.167062e-02  -1.581088e-01  -5.119717e-02  -3.326823e-01  -5.724615e-01  -8.112665e-02  3.067849e-01  -2.018778e-01  1.476168e-01  2.323533e-01  -2.459477e-02  -3.742486e-01  -3.059776e-02  -8.790010e-02  1.085086e-01  3.817295e-01  4.363520e-01  1.583387e-01  -3.824812e-01  -2.800082e-01  -4.544187e-01  -4.128443e-01  5.119485e-02  -2.093030e-02  1.942284e-01  1.685769e-01  3.232380e-01  2.701235e-01  1.155976e-01  -2.561031e-02  1.326841e-01  9.843925e-02  -4.428640e-02  -9.217570e-02  -4.565319e-01  8.559510e-03  5.642335e-02  -2.506612e-01  -3.228591e-01  -1.958769e-01  3.441913e-01  -1.321320e-02  -3.300343e-01  1.676764e-02  -8.701085e-02  -3.967445e-01  1.029761e-01  4.253417e-01  2.359757e-01  -2.508181e-01  -7.688036e-02  -1.551000e-01  -2.627414e-01  -3.809966e-01  -3.340948e-01  -2.676456e-01  -8.614121e-02  -2.706968e-01  -1.486717e-03  -1.712193e-01  -4.284692e-01  2.588619e-01  -1.182318e-01  2.528818e-02  -2.795096e-01  9.959813e-02  2.373885e-01  -1.562392e-01  -2.582364e-01  -2.121287e-01  -9.366761e-02  1.928673e-01  1.889012e-01  4.056085e-01  8.237828e-02  -3.671745e-01  5.919707e-01  5.981352e-02  3.064499e-01  5.034619e-02  -1.170685e-01  -9.213879e-02  1.644004e-01  2.333293e-01  2.416925e-02  2.485220e-01  -1.686805e-01  2.753747e-01  -7.461075e-03  1.558906e-01  -4.097458e-01  -3.490758e-01  3.183222e-01  -4.561854e-02  -1.747707e-01  2.091249e-01  -1.289789e-01  -1.022892e-01  2.722686e-01  2.666288e-01  2.795486e-01  2.572906e-02  -5.945462e-02  3.164385e-01  5.284063e-01  1.461959e-01  2.019520e-01  -6.133530e-02  1.577183e-01  2.155646e-01  1.082051e-01  -4.500376e-01  -1.964254e-01  -2.732999e-01  -8.770904e-02  -7.019998e-02  4.255354e-01  4.915312e-01  -1.020827e-01  1.051202e-01  3.663289e-01  -4.069092e-01  5.758970e-01  -2.212335e-01  -4.093947e-01  6.363742e-01  -4.139960e-01  1.082171e-01  2.413100e-01  -6.603022e-02  4.498805e-02  3.017802e-02  -1.015646e-01  6.636745e-02  2.174946e-01  1.055214e-01  1.652010e-01  -2.096860e-01  -6.198369e-01  -9.548036e-02  2.232777e-01  3.374945e-01  -1.542236e-01  -6.148746e-02  -2.650820e-01  -5.159911e-01  2.490295e-02  3.127837e-01  -9.422901e-02  -2.549497e-01  -1.542829e-01  9.494625e-02  -2.113782e-01  7.935345e-02  -5.865341e-01  2.844609e-01  3.130241e-01  -3.719493e-01  2.154037e-01  3.475370e-01  3.433150e-01  -1.240943e-01  -1.077850e-01  1.885461e-01  4.917288e-01  2.028398e-01  3.164177e-01  -2.847575e-02  -1.620398e-01  -4.335455e-02  -3.008067e-01  -3.983668e-01  2.622595e-01  -4.225356e-01  2.000200e-01  2.274224e-01  3.850350e-01  2.074519e-01  -6.429358e-02  1.637596e-01  4.135200e-01  4.406501e-01  -8.828814e-02  -8.049721e-02  -3.040775e-01  1.422301e-01  -5.244238e-02  3.186455e-02  -1.071161e-01  -1.978952e-02  5.417133e-02  -6.937850e-04  -9.640432e-02  -4.015338e-01  4.006021e-02  -1.174199e-01  3.875856e-01  1.504782e-01  3.496649e-01  9.068945e-03  -4.912793e-01  -4.334001e-01  -4.331708e-02  -6.802809e-02  -2.304484e-02  -6.858250e-02  -3.368315e-01  1.306475e-01  -3.631804e-01  -4.691795e-01  -1.575160e-01  -4.642111e-02  -1.593993e-02  -1.502099e-01  -1.621255e-01  -3.069695e-01  -3.047699e-01  1.533126e-01  -2.614734e-01  -1.793693e-01  2.352078e-01  1.138886e-01  -2.409924e-01  5.854830e-02  -1.114163e-01  -3.830291e-01  -4.830807e-02  -3.155100e-01  -3.391316e-01  -2.563710e-02  -1.505661e-01  -4.209403e-01  7.973109e-03  2.555133e-01  -1.474064e-01  -8.502701e-02  -1.446396e-01  1.384085e-01  8.369527e-02  2.521547e-01  5.195699e-02  3.191742e-01  4.581582e-01  3.199248e-02  -3.146906e-01  3.231028e-01  -4.495465e-01  -2.614020e-01  -4.109889e-02  6.429841e-02  4.072475e-01  1.766714e-01  -1.561218e-01  2.342921e-01  -2.717546e-01  
      </Weights>
      <Biases Rows="50" Columns="1">
        1.451600e-01  -8.009660e-03  -1.432912e-01  1.282452e-01  1.603620e-01  4.250317e-02  -4.384762e-02  5.271751e-03  -1.408951e-01  -1.185247e-01  1.323513e-01  1.223895e-01  2.136395e-01  -1.078398e-01  4.609583e-02  5.257627e-02  -2.002471e-01  1.543772e-01  2.541379e-02  1.462838e-01  4.008260e-02  -3.694912e-03  1.004243e-01  -1.025852e-01  1.457380e-01  3.720184e-02  -1.859002e-02  3.280065e-02  2.141901e-01  -1.175632e-01  -1.124478e-01  1.440535e-01  7.671627e-02  4.972114e-02  1.826217e-01  -1.017815e-01  5.448653e-02  -1.411682e-01  -1.762018e-01  6.525256e-02  -1.282572e-01  8.579987e-02  2.732070e-02  -1.340535e-01  -1.691958e-01  -7.954608e-02  1.052452e-01  -5.273498e-02  -1.542208e-01  1.077412e-01  
      </Biases>
    </DenseLayer>
    <DenseLayer Width="1" ActivationFunction="0">
      <Weights Rows="1" Columns="50">
        9.230013e-01  1.315629e+00  -9.665797e-01  9.739397e-01  9.371992e-01  1.044823e+00  1.012119e+00  1.039290e+00  -8.829706e-01  -1.006724e+00  1.058974e+00  8.816951e-01  9.414266e-01  -7.619250e-01  1.210026e+00  9.739197e-01  -7.473963e-01  7.975401e-01  1.352478e+00  9.811728e-01  1.011286e+00  -8.174364e-01  9.843902e-01  -9.389135e-01  1.081260e+00  9.304851e-01  -7.593439e-01  1.072395e+00  9.315122e-01  -9.178758e-01  -9.264024e-01  1.027374e+00  1.040699e+00  1.085118e+00  8.181844e-01  -9.157678e-01  8.834524e-01  -1.060668e+00  -1.100193e+00  1.045231e+00  -1.031647e+00  1.059108e+00  1.263179e+00  -8.506314e-01  -1.055637e+00  -8.061916e-01  1.051202e+00  -1.134337e+00  -7.929221e-01  8.482043e-01  
      </Weights>
      <Biases Rows="1" Columns="1">
        3.680738e-01  
      </Biases>
    </DenseLayer>
  </Weights>
</MethodSetup>
