<?xml version="1.0"?>
<MethodSetup Method="DL::DNN_CPU">
  <GeneralInfo>
    <Info name="TMVA Release" value="4.2.1 [262657]"/>
    <Info name="ROOT Release" value="6.24/06 [399366]"/>
    <Info name="Creator" value="rshara01-local"/>
    <Info name="Date" value="Tue Oct 12 16:51:14 2021"/>
    <Info name="Host" value="Darwin christophers-mac-mini.home 20.6.0 Darwin Kernel Version 20.6.0: Wed Jun 23 00:26:27 PDT 2021; root:xnu-7195.141.2~5/RELEASE_ARM64_T8101 arm64"/>
    <Info name="Dir" value="/Users/rshara01-local/WORK/linacTune/tmva"/>
    <Info name="Training events" value="5000"/>
    <Info name="TrainingTime" value="1.22830391e+00"/>
    <Info name="AnalysisType" value="Regression"/>
  </GeneralInfo>
  <Options>
    <Option name="V" modified="Yes">True</Option>
    <Option name="VerbosityLevel" modified="No">Verbose</Option>
    <Option name="VarTransform" modified="Yes">N</Option>
    <Option name="H" modified="Yes">False</Option>
    <Option name="CreateMVAPdfs" modified="No">False</Option>
    <Option name="IgnoreNegWeightsInTraining" modified="No">False</Option>
    <Option name="InputLayout" modified="No">0|0|0</Option>
    <Option name="BatchLayout" modified="No">0|0|0</Option>
    <Option name="Layout" modified="Yes">RELU|50,RELU|50,RELU|50,LINEAR</Option>
    <Option name="ErrorStrategy" modified="Yes">SUMOFSQUARES</Option>
    <Option name="WeightInitialization" modified="Yes">XAVIERUNIFORM</Option>
    <Option name="RandomSeed" modified="No">0</Option>
    <Option name="ValidationSize" modified="No">20%</Option>
    <Option name="Architecture" modified="Yes">CPU</Option>
    <Option name="TrainingStrategy" modified="Yes">LearningRate=1e-3,Momentum=0.3,ConvergenceSteps=20,BatchSize=30,TestRepetitions=1,WeightDecay=0.0,Regularization=None,Optimizer=Adam</Option>
  </Options>
  <Variables NVar="34">
    <Variable VarIndex="0" Expression="LMSM" Label="LMSM" Title="LMSM" Unit="cnt" Internal="LMSM" Type="D" Min="1.34887695e+00" Max="3.99658203e+01"/>
    <Variable VarIndex="1" Expression="D7TOR_R" Label="D7TOR_R" Title="D7TOR" Unit="mA" Internal="D7TOR_R" Type="D" Min="2.41185451e+00" Max="2.93067665e+01"/>
    <Variable VarIndex="2" Expression="TO1IN_R" Label="TO1IN_R" Title="TO1IN" Unit="mA" Internal="TO1IN_R" Type="D" Min="2.22277756e+01" Max="2.42592621e+01"/>
    <Variable VarIndex="3" Expression="TO3IN_R" Label="TO3IN_R" Title="TO3IN" Unit="mA" Internal="TO3IN_R" Type="D" Min="-1.02136169e+02" Max="1.00574913e+02"/>
    <Variable VarIndex="4" Expression="TO5OUT_R" Label="TO5OUT_R" Title="TO5OUT" Unit="mA" Internal="TO5OUT_R" Type="D" Min="-4.08233719e+01" Max="3.42947617e+01"/>
    <Variable VarIndex="5" Expression="D00LM_R" Label="D00LM_R" Title="D00LM" Unit="cnt" Internal="D00LM_R" Type="D" Min="3.05175781e-03" Max="8.72802734e-01"/>
    <Variable VarIndex="6" Expression="D11LM_R" Label="D11LM_R" Title="D11LM" Unit="cnt" Internal="D11LM_R" Type="D" Min="1.52587891e-02" Max="4.36401367e-01"/>
    <Variable VarIndex="7" Expression="D12LM_R" Label="D12LM_R" Title="D12LM" Unit="cnt" Internal="D12LM_R" Type="D" Min="-3.35693359e-02" Max="1.09863281e-01"/>
    <Variable VarIndex="8" Expression="D13LM_R" Label="D13LM_R" Title="D13LM" Unit="cnt" Internal="D13LM_R" Type="D" Min="-5.31005859e-01" Max="1.22680664e+00"/>
    <Variable VarIndex="9" Expression="D14LM_R" Label="D14LM_R" Title="D14LM" Unit="cnt" Internal="D14LM_R" Type="D" Min="3.66210938e-02" Max="2.82287598e+00"/>
    <Variable VarIndex="10" Expression="D21LM_R" Label="D21LM_R" Title="D21LM" Unit="cnt" Internal="D21LM_R" Type="D" Min="-7.78198242e-01" Max="2.07519531e+00"/>
    <Variable VarIndex="11" Expression="D22LM_R" Label="D22LM_R" Title="D22LM" Unit="cnt" Internal="D22LM_R" Type="D" Min="-1.01318359e+00" Max="1.28479004e+00"/>
    <Variable VarIndex="12" Expression="D23LM_R" Label="D23LM_R" Title="D23LM" Unit="cnt" Internal="D23LM_R" Type="D" Min="-3.78417969e-01" Max="2.17590332e+00"/>
    <Variable VarIndex="13" Expression="D24LM_R" Label="D24LM_R" Title="D24LM" Unit="cnt" Internal="D24LM_R" Type="D" Min="-4.82177734e-01" Max="5.20324707e+00"/>
    <Variable VarIndex="14" Expression="D31LM_R" Label="D31LM_R" Title="D31LM" Unit="cnt" Internal="D31LM_R" Type="D" Min="-1.19018555e-01" Max="5.14526367e+00"/>
    <Variable VarIndex="15" Expression="D32LM_R" Label="D32LM_R" Title="D32LM" Unit="cnt" Internal="D32LM_R" Type="D" Min="-4.39453125e-01" Max="1.09558105e+00"/>
    <Variable VarIndex="16" Expression="D33LM_R" Label="D33LM_R" Title="D33LM" Unit="cnt" Internal="D33LM_R" Type="D" Min="4.27246094e-02" Max="8.26721191e+00"/>
    <Variable VarIndex="17" Expression="D34LM_R" Label="D34LM_R" Title="D34LM" Unit="cnt" Internal="D34LM_R" Type="D" Min="1.00708008e-01" Max="8.34045410e+00"/>
    <Variable VarIndex="18" Expression="D41LM_R" Label="D41LM_R" Title="D41LM" Unit="cnt" Internal="D41LM_R" Type="D" Min="-8.36181641e-01" Max="2.24914551e+00"/>
    <Variable VarIndex="19" Expression="D42LM_R" Label="D42LM_R" Title="D42LM" Unit="cnt" Internal="D42LM_R" Type="D" Min="-8.20922852e-01" Max="2.65502930e+00"/>
    <Variable VarIndex="20" Expression="D43LM_R" Label="D43LM_R" Title="D43LM" Unit="cnt" Internal="D43LM_R" Type="D" Min="-7.14111328e-01" Max="8.05664062e+00"/>
    <Variable VarIndex="21" Expression="D44LM_R" Label="D44LM_R" Title="D44LM" Unit="cnt" Internal="D44LM_R" Type="D" Min="-4.57763672e-02" Max="1.87988281e+00"/>
    <Variable VarIndex="22" Expression="D51LM_R" Label="D51LM_R" Title="D51LM" Unit="cnt" Internal="D51LM_R" Type="D" Min="-9.30786133e-01" Max="2.29797363e+00"/>
    <Variable VarIndex="23" Expression="D52LM_R" Label="D52LM_R" Title="D52LM" Unit="cnt" Internal="D52LM_R" Type="D" Min="-5.18798828e-02" Max="1.70898438e+00"/>
    <Variable VarIndex="24" Expression="D53LM_R" Label="D53LM_R" Title="D53LM" Unit="cnt" Internal="D53LM_R" Type="D" Min="-2.44140625e-02" Max="3.40881348e+00"/>
    <Variable VarIndex="25" Expression="D54LM_R" Label="D54LM_R" Title="D54LM" Unit="cnt" Internal="D54LM_R" Type="D" Min="6.10351562e-03" Max="1.06964111e+01"/>
    <Variable VarIndex="26" Expression="D61LM_R" Label="D61LM_R" Title="D61LM" Unit="cnt" Internal="D61LM_R" Type="D" Min="-1.03759766e-01" Max="2.25219727e+00"/>
    <Variable VarIndex="27" Expression="D62LM_R" Label="D62LM_R" Title="D62LM" Unit="cnt" Internal="D62LM_R" Type="D" Min="-7.32421875e-02" Max="1.02844238e+00"/>
    <Variable VarIndex="28" Expression="D63LM_R" Label="D63LM_R" Title="D63LM" Unit="cnt" Internal="D63LM_R" Type="D" Min="-9.88769531e-01" Max="1.12823486e+01"/>
    <Variable VarIndex="29" Expression="D64LM_R" Label="D64LM_R" Title="D64LM" Unit="cnt" Internal="D64LM_R" Type="D" Min="1.77001953e-01" Max="1.37634277e+00"/>
    <Variable VarIndex="30" Expression="D71LM_R" Label="D71LM_R" Title="D71LM" Unit="cnt" Internal="D71LM_R" Type="D" Min="-3.05175781e-03" Max="2.04467773e-01"/>
    <Variable VarIndex="31" Expression="D72LM_R" Label="D72LM_R" Title="D72LM" Unit="cnt" Internal="D72LM_R" Type="D" Min="2.44140625e-02" Max="9.32617188e+00"/>
    <Variable VarIndex="32" Expression="D73LM_R" Label="D73LM_R" Title="D73LM" Unit="cnt" Internal="D73LM_R" Type="D" Min="-3.05175781e-02" Max="1.73950195e-01"/>
    <Variable VarIndex="33" Expression="D74LM_R" Label="D74LM_R" Title="D74LM" Unit="cnt" Internal="D74LM_R" Type="D" Min="1.83105469e-02" Max="3.69262695e-01"/>
  </Variables>
  <Spectators NSpec="3">
    <Spectator SpecIndex="0" Expression="RFQPAH_S" Label="RFQPAH_S" Title="RFQ phase set point" Unit="deg" Internal="RFQPAH_S" Type="F" Min="1.28002930e+02" Max="1.90002441e+02"/>
    <Spectator SpecIndex="1" Expression="RFBPAH_S" Label="RFBPAH_S" Title="buncher phase set point" Unit="deg" Internal="RFBPAH_S" Type="F" Min="2.14996277e+02" Max="2.56997131e+02"/>
    <Spectator SpecIndex="2" Expression="V5QSET_S" Label="V5QSET_S" Title="Tank 5 phase set point" Unit="deg" Internal="V5QSET_S" Type="F" Min="-3.30000000e+01" Max="-2.85000000e+01"/>
  </Spectators>
  <Classes NClass="1">
    <Class Name="Regression" Index="0"/>
  </Classes>
  <Targets NTrgt="3">
    <Target TargetIndex="0" Expression="RFQPAH_R" Label="RFQPAH_R" Title="RFQ phase" Unit="deg" Internal="RFQPAH_R" Type="F" Min="1.28002930e+02" Max="1.90002441e+02"/>
    <Target TargetIndex="1" Expression="RFBPAH_R" Label="RFBPAH_R" Title="buncher phase" Unit="deg" Internal="RFBPAH_R" Type="F" Min="2.15795898e+02" Max="2.58337402e+02"/>
    <Target TargetIndex="2" Expression="V5QSET_R" Label="V5QSET_R" Title="Tank 5 phase" Unit="deg" Internal="V5QSET_R" Type="F" Min="-3.30000000e+01" Max="-2.85000000e+01"/>
  </Targets>
  <Transformations NTransformations="1">
    <Transform Name="Normalize">
      <Selection>
        <Input NInputs="37">
          <Input Type="Variable" Label="LMSM" Expression="LMSM"/>
          <Input Type="Variable" Label="D7TOR_R" Expression="D7TOR_R"/>
          <Input Type="Variable" Label="TO1IN_R" Expression="TO1IN_R"/>
          <Input Type="Variable" Label="TO3IN_R" Expression="TO3IN_R"/>
          <Input Type="Variable" Label="TO5OUT_R" Expression="TO5OUT_R"/>
          <Input Type="Variable" Label="D00LM_R" Expression="D00LM_R"/>
          <Input Type="Variable" Label="D11LM_R" Expression="D11LM_R"/>
          <Input Type="Variable" Label="D12LM_R" Expression="D12LM_R"/>
          <Input Type="Variable" Label="D13LM_R" Expression="D13LM_R"/>
          <Input Type="Variable" Label="D14LM_R" Expression="D14LM_R"/>
          <Input Type="Variable" Label="D21LM_R" Expression="D21LM_R"/>
          <Input Type="Variable" Label="D22LM_R" Expression="D22LM_R"/>
          <Input Type="Variable" Label="D23LM_R" Expression="D23LM_R"/>
          <Input Type="Variable" Label="D24LM_R" Expression="D24LM_R"/>
          <Input Type="Variable" Label="D31LM_R" Expression="D31LM_R"/>
          <Input Type="Variable" Label="D32LM_R" Expression="D32LM_R"/>
          <Input Type="Variable" Label="D33LM_R" Expression="D33LM_R"/>
          <Input Type="Variable" Label="D34LM_R" Expression="D34LM_R"/>
          <Input Type="Variable" Label="D41LM_R" Expression="D41LM_R"/>
          <Input Type="Variable" Label="D42LM_R" Expression="D42LM_R"/>
          <Input Type="Variable" Label="D43LM_R" Expression="D43LM_R"/>
          <Input Type="Variable" Label="D44LM_R" Expression="D44LM_R"/>
          <Input Type="Variable" Label="D51LM_R" Expression="D51LM_R"/>
          <Input Type="Variable" Label="D52LM_R" Expression="D52LM_R"/>
          <Input Type="Variable" Label="D53LM_R" Expression="D53LM_R"/>
          <Input Type="Variable" Label="D54LM_R" Expression="D54LM_R"/>
          <Input Type="Variable" Label="D61LM_R" Expression="D61LM_R"/>
          <Input Type="Variable" Label="D62LM_R" Expression="D62LM_R"/>
          <Input Type="Variable" Label="D63LM_R" Expression="D63LM_R"/>
          <Input Type="Variable" Label="D64LM_R" Expression="D64LM_R"/>
          <Input Type="Variable" Label="D71LM_R" Expression="D71LM_R"/>
          <Input Type="Variable" Label="D72LM_R" Expression="D72LM_R"/>
          <Input Type="Variable" Label="D73LM_R" Expression="D73LM_R"/>
          <Input Type="Variable" Label="D74LM_R" Expression="D74LM_R"/>
          <Input Type="Target" Label="RFQPAH_R" Expression="RFQPAH_R"/>
          <Input Type="Target" Label="RFBPAH_R" Expression="RFBPAH_R"/>
          <Input Type="Target" Label="V5QSET_R" Expression="V5QSET_R"/>
        </Input>
        <Output NOutputs="37">
          <Output Type="Variable" Label="LMSM" Expression="LMSM"/>
          <Output Type="Variable" Label="D7TOR_R" Expression="D7TOR_R"/>
          <Output Type="Variable" Label="TO1IN_R" Expression="TO1IN_R"/>
          <Output Type="Variable" Label="TO3IN_R" Expression="TO3IN_R"/>
          <Output Type="Variable" Label="TO5OUT_R" Expression="TO5OUT_R"/>
          <Output Type="Variable" Label="D00LM_R" Expression="D00LM_R"/>
          <Output Type="Variable" Label="D11LM_R" Expression="D11LM_R"/>
          <Output Type="Variable" Label="D12LM_R" Expression="D12LM_R"/>
          <Output Type="Variable" Label="D13LM_R" Expression="D13LM_R"/>
          <Output Type="Variable" Label="D14LM_R" Expression="D14LM_R"/>
          <Output Type="Variable" Label="D21LM_R" Expression="D21LM_R"/>
          <Output Type="Variable" Label="D22LM_R" Expression="D22LM_R"/>
          <Output Type="Variable" Label="D23LM_R" Expression="D23LM_R"/>
          <Output Type="Variable" Label="D24LM_R" Expression="D24LM_R"/>
          <Output Type="Variable" Label="D31LM_R" Expression="D31LM_R"/>
          <Output Type="Variable" Label="D32LM_R" Expression="D32LM_R"/>
          <Output Type="Variable" Label="D33LM_R" Expression="D33LM_R"/>
          <Output Type="Variable" Label="D34LM_R" Expression="D34LM_R"/>
          <Output Type="Variable" Label="D41LM_R" Expression="D41LM_R"/>
          <Output Type="Variable" Label="D42LM_R" Expression="D42LM_R"/>
          <Output Type="Variable" Label="D43LM_R" Expression="D43LM_R"/>
          <Output Type="Variable" Label="D44LM_R" Expression="D44LM_R"/>
          <Output Type="Variable" Label="D51LM_R" Expression="D51LM_R"/>
          <Output Type="Variable" Label="D52LM_R" Expression="D52LM_R"/>
          <Output Type="Variable" Label="D53LM_R" Expression="D53LM_R"/>
          <Output Type="Variable" Label="D54LM_R" Expression="D54LM_R"/>
          <Output Type="Variable" Label="D61LM_R" Expression="D61LM_R"/>
          <Output Type="Variable" Label="D62LM_R" Expression="D62LM_R"/>
          <Output Type="Variable" Label="D63LM_R" Expression="D63LM_R"/>
          <Output Type="Variable" Label="D64LM_R" Expression="D64LM_R"/>
          <Output Type="Variable" Label="D71LM_R" Expression="D71LM_R"/>
          <Output Type="Variable" Label="D72LM_R" Expression="D72LM_R"/>
          <Output Type="Variable" Label="D73LM_R" Expression="D73LM_R"/>
          <Output Type="Variable" Label="D74LM_R" Expression="D74LM_R"/>
          <Output Type="Target" Label="RFQPAH_R" Expression="RFQPAH_R"/>
          <Output Type="Target" Label="RFBPAH_R" Expression="RFBPAH_R"/>
          <Output Type="Target" Label="V5QSET_R" Expression="V5QSET_R"/>
        </Output>
      </Selection>
      <Class ClassIndex="0">
        <Ranges>
          <Range Index="0" Min="1.3488769531250000e+00" Max="3.9965820312500000e+01"/>
          <Range Index="1" Min="2.4118545055389404e+00" Max="2.9306766510009766e+01"/>
          <Range Index="2" Min="2.2227775573730469e+01" Max="2.4259262084960938e+01"/>
          <Range Index="3" Min="-1.0213616943359375e+02" Max="1.0057491302490234e+02"/>
          <Range Index="4" Min="-4.0823371887207031e+01" Max="3.4294761657714844e+01"/>
          <Range Index="5" Min="3.0517578125000000e-03" Max="8.7280273437500000e-01"/>
          <Range Index="6" Min="1.5258789062500000e-02" Max="4.3640136718750000e-01"/>
          <Range Index="7" Min="-3.3569335937500000e-02" Max="1.0986328125000000e-01"/>
          <Range Index="8" Min="-5.3100585937500000e-01" Max="1.2268066406250000e+00"/>
          <Range Index="9" Min="3.6621093750000000e-02" Max="2.8228759765625000e+00"/>
          <Range Index="10" Min="-7.7819824218750000e-01" Max="2.0751953125000000e+00"/>
          <Range Index="11" Min="-1.0131835937500000e+00" Max="1.2847900390625000e+00"/>
          <Range Index="12" Min="-3.7841796875000000e-01" Max="2.1759033203125000e+00"/>
          <Range Index="13" Min="-4.8217773437500000e-01" Max="5.2032470703125000e+00"/>
          <Range Index="14" Min="-1.1901855468750000e-01" Max="5.1452636718750000e+00"/>
          <Range Index="15" Min="-4.3945312500000000e-01" Max="1.0955810546875000e+00"/>
          <Range Index="16" Min="4.2724609375000000e-02" Max="8.2672119140625000e+00"/>
          <Range Index="17" Min="1.0070800781250000e-01" Max="8.3404541015625000e+00"/>
          <Range Index="18" Min="-8.3618164062500000e-01" Max="2.2491455078125000e+00"/>
          <Range Index="19" Min="-8.2092285156250000e-01" Max="2.6550292968750000e+00"/>
          <Range Index="20" Min="-7.1411132812500000e-01" Max="8.0566406250000000e+00"/>
          <Range Index="21" Min="-4.5776367187500000e-02" Max="1.8798828125000000e+00"/>
          <Range Index="22" Min="-9.3078613281250000e-01" Max="2.2979736328125000e+00"/>
          <Range Index="23" Min="-5.1879882812500000e-02" Max="1.7089843750000000e+00"/>
          <Range Index="24" Min="-2.4414062500000000e-02" Max="3.4088134765625000e+00"/>
          <Range Index="25" Min="6.1035156250000000e-03" Max="1.0696411132812500e+01"/>
          <Range Index="26" Min="-1.0375976562500000e-01" Max="2.2521972656250000e+00"/>
          <Range Index="27" Min="-7.3242187500000000e-02" Max="1.0284423828125000e+00"/>
          <Range Index="28" Min="-9.8876953125000000e-01" Max="1.1282348632812500e+01"/>
          <Range Index="29" Min="1.7700195312500000e-01" Max="1.3763427734375000e+00"/>
          <Range Index="30" Min="-3.0517578125000000e-03" Max="2.0446777343750000e-01"/>
          <Range Index="31" Min="2.4414062500000000e-02" Max="9.3261718750000000e+00"/>
          <Range Index="32" Min="-3.0517578125000000e-02" Max="1.7395019531250000e-01"/>
          <Range Index="33" Min="1.8310546875000000e-02" Max="3.6926269531250000e-01"/>
          <Range Index="34" Min="1.2800292968750000e+02" Max="1.9000244140625000e+02"/>
          <Range Index="35" Min="2.1579589843750000e+02" Max="2.5833740234375000e+02"/>
          <Range Index="36" Min="-3.3000000000000000e+01" Max="-2.8500000000000000e+01"/>
        </Ranges>
      </Class>
    </Transform>
  </Transformations>
  <MVAPdfs/>
  <Weights NetDepth="4" InputDepth="1" InputHeight="1" InputWidth="34" BatchSize="1" BatchDepth="1" BatchHeight="30" BatchWidth="34" LossFunction="R" Initialization="F" Regularization="0" OutputFunction="I" WeightDecay="0.0000000000000000e+00">
    <DenseLayer Width="50" ActivationFunction="1">
      <Weights Rows="50" Columns="34">
        -3.403210e-03  -1.099221e+00  4.135041e-02  -1.194636e-01  -3.107122e-01  1.314643e-01  -1.261898e-01  3.585719e-02  9.429035e-02  -4.176378e-01  9.794284e-02  1.362805e-01  1.890854e-01  -3.948540e-02  -2.149642e-01  2.357372e-01  2.571386e-01  3.718962e-01  8.529816e-02  2.666402e-01  -2.800069e-01  2.786123e-01  -2.267728e-01  -1.843214e-01  -2.551310e-01  -2.654740e-02  -7.114263e-02  -3.683687e-02  -1.390852e-01  -1.125813e-01  2.510685e-02  -2.390927e-01  1.656389e-02  -7.367616e-02  -3.007317e-01  6.783906e-02  3.525671e-02  6.975519e-02  2.373662e-01  1.236921e-01  -2.763061e-01  -1.363329e-02  1.798787e-01  2.419125e-01  -4.927568e-02  -1.898503e-01  2.475970e-01  2.883033e-01  -3.047113e-01  1.673816e-01  -1.544781e-01  6.591203e-02  -2.014086e-01  -8.377720e-02  -2.694037e-02  -1.501430e-01  4.625054e-02  2.695177e-01  -2.664356e-01  -3.589236e-01  1.388105e-01  1.574777e-01  7.283898e-02  2.906352e-01  5.769990e-03  7.109702e-02  4.986334e-02  -5.909777e-02  6.857086e-02  -6.608751e-02  4.296931e-02  -4.397597e-01  -2.946365e-01  1.269429e-02  -3.570883e-01  -3.243861e-01  2.293896e-01  2.982463e-01  -4.208887e-02  -5.639400e-01  -6.404176e-02  -3.273087e-01  -4.222266e-03  -1.910090e-01  5.933958e-01  1.166959e-01  -3.836222e-01  -1.605426e-01  1.930747e-01  2.403597e-01  -1.099830e-01  -3.277860e-05  -3.311064e-01  2.365276e-01  -1.156034e-01  2.919073e-01  8.445803e-02  2.484995e-01  6.127129e-02  -1.512311e-01  -4.833822e-02  -4.383633e-02  -4.192585e-02  -3.614658e-01  6.812408e-02  1.044906e-01  -1.482141e-02  -2.227276e-02  2.150970e-01  -2.597306e-03  2.185223e-01  -3.989513e-01  4.991729e-01  -2.342606e-01  -1.157133e-01  5.141023e-01  -3.419080e-02  1.120686e-01  -2.140717e-01  -4.407855e-02  1.585169e-01  -1.385344e-02  3.835013e-01  -2.350759e-01  1.458460e-01  3.541749e-01  -8.064575e-02  3.116811e-02  -1.757532e-01  9.623028e-02  5.726803e-02  2.115517e-01  1.403874e-01  -2.115236e-01  -4.805422e-02  1.196478e-01  -1.054063e-01  -1.991468e-01  1.434437e-01  1.037913e-01  -2.177403e-01  3.767462e-01  1.495928e-01  4.003550e-02  2.694530e-01  4.712945e-01  -2.776724e-02  -1.210823e-01  -1.315051e-01  -4.723480e-02  -4.421266e-01  -1.480623e-01  -6.321169e-02  -3.888157e-01  -1.428841e-01  -2.277871e-01  -5.321015e-03  4.734353e-02  -1.094170e-01  -1.879660e-01  -2.128733e-01  2.720723e-01  -6.254116e-02  -4.174347e-02  2.206442e-01  -2.311726e-02  -9.773988e-02  -1.027829e-01  -5.023220e-02  1.841840e-01  -1.649632e-01  -3.808282e-02  1.526648e-01  1.684152e-01  2.615395e-01  1.803930e-01  2.516942e-01  3.714889e-02  9.966520e-03  3.140171e-01  2.246358e-01  -4.020331e-01  -4.076028e-02  -6.422623e-02  -2.727377e-01  -1.243839e-01  3.459160e-01  1.275976e-01  5.245493e-02  9.902855e-02  3.194036e-01  -1.798168e-01  -1.354980e-01  -6.941168e-03  -2.093249e-01  -2.274147e-01  9.314939e-02  -6.472743e-02  2.115815e-01  1.156631e-01  -1.006835e-01  -3.242625e-02  1.709055e-02  -2.980985e-01  -2.302465e-01  2.222851e-01  -1.892722e-01  1.008056e-01  -6.762117e-02  8.835613e-02  7.776024e-02  7.807004e-02  -1.047498e-01  -4.178358e-01  4.697229e-01  -1.652238e-01  1.672530e-01  -2.449080e-02  2.279827e-01  -8.971924e-02  1.892203e-01  1.726844e-01  -1.637208e-01  -2.921524e-02  -1.369984e-01  -7.088428e-02  -1.288965e-01  2.000024e-02  1.096999e-01  4.102227e-02  -4.180958e-01  -3.641908e-02  1.062347e-01  3.147972e-01  1.149120e-02  9.459978e-02  6.665272e-02  -4.961275e-02  5.875908e-03  3.129822e-01  3.424857e-03  2.190355e-02  -2.514279e-01  4.294316e-02  -3.025789e-01  -8.693560e-03  -3.091145e-01  3.804684e-01  -1.717688e-01  6.286883e-01  9.154249e-02  1.012673e-01  -7.247265e-02  -2.525778e-01  -2.481829e-01  6.752246e-02  -2.154257e-01  -1.384737e-01  -3.358502e-01  -2.369352e-01  1.445646e-01  -1.295742e-01  -1.710631e-01  -1.091835e-02  2.272345e-01  8.208435e-02  8.931813e-02  -3.646322e-01  1.798394e-03  -6.297396e-02  -1.118429e-01  -3.817518e-03  4.212025e-01  1.717903e-01  3.969161e-03  2.831578e-02  1.838786e-01  -1.477565e-01  -8.165762e-02  1.565430e-04  -3.943229e-01  2.080465e-01  -6.039812e-01  -6.922014e-01  3.219742e-01  3.661139e-02  2.105507e-01  1.444955e-01  2.741532e-01  9.912269e-02  -9.405181e-02  2.707244e-01  -2.276177e-02  2.314916e-01  -1.167955e-01  -2.832130e-01  -2.359957e-01  -2.248493e-01  -2.564786e-01  -1.141671e-01  2.714692e-01  4.424129e-01  3.973908e-02  3.136389e-02  1.453530e-02  -3.290251e-01  -5.173440e-02  -3.050237e-01  1.637030e-01  -5.485151e-01  1.318203e-01  3.041021e-01  -8.342180e-03  1.454354e-01  3.996705e-01  -5.391895e-02  2.204749e-01  -2.450422e-01  2.383165e-01  -3.623638e-01  -2.406694e-01  3.828693e-01  3.139999e-01  -9.921861e-03  -4.454035e-01  2.294591e-01  1.603435e-01  1.128043e-01  -1.919590e-01  1.194331e-01  3.100438e-01  -8.466170e-02  -8.122618e-02  1.019371e-01  3.705968e-01  -2.832544e-01  8.524425e-02  1.155862e-01  -2.767257e-02  -2.150524e-02  1.515087e-01  -3.656648e-01  5.130529e-02  -2.646524e-02  -5.200429e-02  -8.563084e-02  8.432030e-02  -4.644721e-02  5.935619e-01  6.438382e-01  -6.387500e-01  8.949209e-03  1.229569e-01  4.941195e-02  9.177285e-02  -1.307739e-01  5.638649e-02  -1.781021e-01  1.729885e-01  -3.407767e-01  1.067084e-01  -2.553114e-01  -2.582187e-01  -1.390676e-01  2.012383e-01  -2.277428e-01  -2.214789e-01  6.749000e-02  -7.467166e-02  -2.032714e-01  5.467124e-02  1.446217e-01  -5.025977e-02  1.554226e-01  5.992679e-01  -6.986741e-01  5.892122e-02  1.740267e-01  2.451309e-01  7.712901e-02  -2.662323e-02  -1.645527e-01  -4.020382e-01  1.864849e-02  4.317619e-01  2.333900e-01  -4.627880e-02  -3.259245e-02  -1.731381e-01  -2.392953e-01  1.669528e-01  4.175613e-01  9.326913e-02  -1.053762e-02  3.795433e-01  5.682590e-02  -1.840370e-01  1.709854e-01  -1.865952e-02  -1.913031e-01  -1.763258e-01  -2.281905e-02  -1.970346e-01  7.572965e-02  -1.486643e-01  4.358749e-02  -9.312062e-02  -9.905862e-02  -1.378290e-02  5.282610e-02  4.937546e-02  7.777552e-02  -1.319007e-01  1.569332e-01  2.817475e-01  -3.410555e-02  3.022635e-01  -4.655159e-02  -5.279255e-01  2.128557e-01  2.390526e-01  -3.889101e-01  2.573182e-02  -5.004393e-02  2.200462e-01  2.667272e-01  -6.934824e-02  -1.349354e-01  2.765862e-01  -2.290802e-01  -1.415702e-01  -9.645211e-02  -2.355821e-01  -2.065429e-01  -1.566451e-01  6.194402e-02  -1.320490e-01  -1.169740e-01  8.521378e-02  2.488317e-01  -9.881601e-02  2.914257e-01  1.515977e-01  1.047278e-01  9.729449e-02  2.053459e-01  3.077323e-01  -1.376428e-01  2.019469e-01  -2.160371e-01  6.363891e-02  -2.799101e-01  8.715089e-02  -6.505322e-02  -4.309843e-02  6.143509e-02  2.130647e-01  6.518711e-02  2.323612e-01  3.070543e-01  1.932681e-01  -4.300384e-02  -1.671193e-01  -3.627552e-02  2.805337e-01  2.744126e-01  -2.024741e-01  -2.639839e-02  -7.028805e-02  -1.394483e-01  1.635909e-01  3.511532e-01  -1.449811e-01  -3.091037e-01  -1.255805e-01  6.666473e-02  -1.823580e-02  -2.461739e-01  7.045961e-02  -8.097497e-02  1.644762e-01  -2.240724e-01  2.762732e-01  -4.810677e-02  1.055901e-01  1.594371e-01  4.168494e-01  -3.539117e-01  -8.561051e-03  1.840235e-01  -5.211289e-02  -1.722782e-01  -1.159494e-01  -1.485905e-01  2.715789e-01  -1.290079e-01  -2.299414e-02  -2.669215e-01  9.784508e-02  4.655793e-02  4.130092e-02  7.973969e-02  -4.467861e-02  1.788797e-01  1.420384e-01  3.757763e-01  -1.029040e-01  -1.517386e-01  -5.657935e-02  -8.610409e-02  2.574474e-01  9.679735e-02  -2.758612e-02  -5.483933e-02  -1.695913e-01  -8.511113e-02  -1.052667e-02  -5.536610e-03  -1.491489e-01  -2.795031e-01  6.914822e-02  2.231924e-01  4.009139e-02  -3.930194e-01  3.211250e-01  4.763956e-02  7.905431e-02  2.992299e-01  -1.022817e-01  7.922490e-02  -7.960254e-02  8.935762e-02  -2.268055e-01  2.251924e-01  1.734158e-01  -7.602432e-02  -1.421765e-01  -2.338851e-01  -4.921937e-02  -1.811480e-03  4.115156e-05  -4.016800e-01  -3.586178e-02  2.350789e-03  -2.188381e-02  5.767096e-01  -4.668285e-02  2.177991e-01  -5.338420e-02  -3.181205e-01  2.283233e-01  3.401588e-02  -3.645868e-02  2.045044e-01  -2.996990e-01  4.577596e-01  1.242416e-02  -1.247350e-01  -3.243663e-02  -2.097596e-01  -1.487636e-01  8.107537e-02  2.906419e-01  2.797006e-01  -1.335986e-01  8.996161e-02  2.505724e-01  1.462648e-01  -2.079796e-01  1.416401e-01  2.220175e-01  -2.828955e-02  1.353686e-01  4.506259e-01  2.409864e-01  -2.034350e-01  4.669135e-02  3.923595e-01  1.394273e-01  3.928090e-01  -5.559826e-02  -2.507466e-03  2.027199e-02  -2.464124e-01  -5.495086e-02  6.130023e-04  5.632540e-01  -7.669402e-03  -5.812295e-01  -1.205634e-01  -6.352063e-02  1.146658e-01  4.429750e-01  1.858412e-01  -2.388982e-01  -1.748502e-01  1.758445e-01  -1.022274e-01  6.256066e-02  4.151911e-02  -2.096684e-01  -1.172614e-01  -2.789254e-01  2.474564e-01  3.060189e-02  -3.286593e-01  8.886158e-02  3.570599e-02  -4.967099e-02  1.525791e-01  -3.608133e-02  -3.816742e-01  9.269620e-02  2.578263e-01  6.866802e-02  2.341096e-02  -1.642162e-01  3.403718e-01  -1.789932e-02  3.500989e-02  -3.343413e-01  -4.007054e-01  3.107769e-01  3.337535e-01  -1.348820e-01  -3.291869e-01  4.289885e-01  -8.958992e-02  -2.727256e-01  -1.115371e-01  1.401308e-01  2.474094e-01  -2.041365e-01  4.753739e-02  -2.204707e-01  -7.479388e-02  4.925194e-02  1.618891e-01  7.178035e-02  1.382664e-01  1.869513e-01  1.226640e-01  2.615223e-02  -3.030095e-01  9.222744e-03  1.773906e-02  -1.987091e-01  1.556452e-02  1.183963e-02  -2.187623e-01  2.667492e-01  1.603149e-01  1.648842e-01  -4.190315e-02  -5.333967e-02  -3.542863e-01  -1.736137e-01  3.037791e-01  -2.029802e-01  -3.453663e-02  3.241918e-01  -1.640366e-01  1.843306e-01  3.465561e-01  8.806900e-02  -1.534105e-01  -2.877661e-01  1.274856e-01  -1.902204e-01  3.266488e-02  3.148548e-01  -2.208901e-01  1.315526e-01  6.468885e-02  2.696601e-02  3.669725e-01  -1.153222e-02  -2.051006e-01  -7.503486e-02  -2.423964e-01  -1.451672e-01  -3.886327e-01  -1.400559e-01  -3.224158e-03  -2.227866e-01  1.898795e-01  -8.465911e-02  -2.847110e-02  1.938587e-01  -4.246792e-01  1.221882e-01  -5.992464e-01  2.929647e-01  2.060139e-01  -2.897275e-01  -2.951990e-01  -1.996202e-01  -2.680976e-01  7.111321e-02  5.839999e-02  -1.246269e-01  2.358941e-01  -1.350088e-01  2.506983e-02  1.207931e-02  -1.470296e-01  7.203563e-03  3.710255e-02  4.324143e-02  2.819250e-01  1.599248e-01  -1.136017e-01  -6.021354e-02  1.449354e-02  1.071880e-02  2.125380e-01  -5.746727e-02  -1.311542e-01  -1.866294e-01  -3.701508e-01  1.362830e-01  5.487548e-02  5.550644e-02  1.117182e-01  -9.050217e-02  -1.397948e-02  -1.591127e-01  1.749637e-02  -1.241908e-01  1.222675e-01  1.433830e-01  -1.912083e-01  -2.182496e-01  6.643341e-02  -1.682272e-01  -7.051623e-02  -2.770366e-01  2.368929e-01  1.398041e-01  -3.669421e-03  -2.760536e-01  -1.399146e-01  7.654344e-02  5.197528e-01  6.109332e-02  -5.498888e-02  1.005985e-01  1.956128e-01  5.620610e-02  1.571061e-01  -1.996081e-01  -2.693620e-03  5.471520e-02  -5.893284e-02  3.982523e-02  -1.428222e-02  3.932235e-01  -5.263762e-01  1.497124e-01  1.882526e-01  4.570293e-02  -4.436412e-01  2.188622e-01  -1.800806e-01  -6.462438e-03  1.212387e-01  -6.683201e-02  -1.224889e-01  2.232958e-02  1.603040e-01  9.995525e-02  -1.432067e-02  4.075279e-01  -2.208921e-01  2.453817e-01  -1.816517e-01  2.361617e-01  -4.020275e-01  6.261184e-02  -1.042323e-01  4.104638e-02  1.011192e-01  1.823106e-01  -2.223301e-01  8.992065e-02  -1.208154e-01  -3.073709e-01  -8.402365e-02  -1.318097e-01  -9.365877e-02  4.088405e-01  2.392803e-01  1.478527e-01  -1.993146e-01  -1.954445e-01  -6.081960e-02  -2.784916e-01  2.634566e-02  1.030387e-01  -8.546994e-02  -2.498911e-02  -5.797906e-01  2.207176e-01  1.271352e-01  -3.518670e-01  -1.235683e-01  6.036658e-01  9.495605e-02  6.312548e-02  -1.375904e-01  2.528297e-01  -4.306595e-01  2.680942e-02  1.788896e-01  -8.624044e-02  -3.005126e-01  -1.089001e-01  3.672840e-01  9.628959e-02  2.394573e-01  3.130504e-01  2.144616e-01  -1.877080e-02  4.293641e-02  5.141060e-02  -1.345395e-01  7.100874e-02  2.791242e-03  -1.486250e-01  -2.061624e-01  1.931487e-01  2.212503e-01  8.249053e-02  1.388999e-01  -4.930339e-02  6.431391e-01  -1.145508e-01  5.509206e-02  2.992589e-02  -6.497408e-03  -1.536112e-01  -2.189914e-01  -1.101854e-01  4.933001e-02  -5.689287e-02  -1.732977e-01  -3.283188e-02  6.392554e-02  7.570659e-02  1.876672e-01  1.945571e-01  1.737502e-01  -5.571212e-01  -2.053236e-02  -7.990787e-03  -2.731931e-02  4.127356e-02  2.270586e-01  -3.032270e-01  -1.328032e-01  4.425031e-01  -7.903019e-01  -1.636139e-02  2.289635e-01  1.612675e-01  3.753809e-02  -6.161471e-02  -8.603939e-02  -1.980807e-01  5.386286e-01  7.582004e-02  9.745017e-02  4.398974e-01  3.417993e-01  3.434800e-01  -6.873802e-02  -9.579068e-02  2.521560e-01  2.395218e-01  -9.506273e-02  1.515482e-01  -2.460285e-01  -7.470141e-02  -1.066622e-01  -1.379434e-01  -2.222373e-01  -3.731107e-02  2.220286e-01  2.868512e-01  1.990328e-01  5.841596e-03  -7.382493e-02  -5.044276e-01  2.036591e-01  2.731285e-01  1.874416e-01  -2.410521e-01  9.067340e-02  -2.672743e-01  2.269496e-02  4.519351e-02  -4.069335e-01  2.332810e-01  1.125336e-01  3.511416e-01  -8.676533e-02  4.947848e-02  -2.311534e-01  8.958673e-02  1.670633e-01  -1.185291e-01  1.922248e-01  2.552941e-01  4.694738e-02  1.838557e-02  -1.478956e-01  5.728697e-02  -3.815839e-01  4.816379e-02  2.857843e-01  -5.760385e-03  1.344096e-01  7.674077e-03  2.453924e-01  -1.520259e-02  4.370846e-02  1.547808e-01  -1.752814e-01  -5.617908e-02  1.627218e-01  6.645338e-02  -2.991575e-01  3.569060e-01  6.343207e-04  2.233332e-01  2.586180e-01  1.658126e-01  -1.846810e-01  -1.534075e-01  -8.412284e-02  2.653455e-01  -3.355630e-02  3.182556e-01  -2.334825e-01  -1.932788e-01  -1.058805e-01  -9.752690e-02  -3.043798e-01  -5.704694e-02  -2.631641e-01  1.515618e-01  -7.291613e-03  2.071985e-01  2.722134e-01  6.989953e-03  -7.120288e-02  2.426739e-01  -2.742395e-01  2.355147e-01  -6.722998e-02  1.398909e-01  2.865425e-01  -1.979027e-01  -3.414812e-01  1.495891e-01  7.383962e-02  -5.376568e-02  -1.619690e-01  -9.320933e-02  -2.577159e-01  -1.176052e-01  1.857592e-03  3.158946e-01  -9.906991e-02  -1.228655e-01  1.683371e-01  -3.906293e-02  1.050998e-01  1.286344e-03  -2.784841e-01  -1.047420e-01  2.334819e-01  -3.397054e-02  -3.398223e-03  9.874473e-02  1.802052e-01  -7.052226e-02  5.978501e-01  -1.231089e-02  -2.438229e-01  2.996879e-01  1.867751e-01  2.329665e-02  -2.796907e-02  2.448597e-02  -2.833775e-01  -2.313696e-01  4.985826e-03  -7.048363e-02  8.041795e-02  -3.678953e-02  7.087357e-02  -1.654890e-01  -5.189336e-02  -3.536408e-02  2.542682e-02  4.672615e-01  -1.369274e-01  -2.166394e-01  -1.711734e-01  -1.019357e-01  8.648921e-02  -1.512011e-01  2.403507e-01  3.195552e-01  -6.306306e-01  -6.272616e-02  5.083405e-02  -1.491277e-02  -1.356101e-01  -1.707161e-01  5.340330e-01  -1.343247e-01  1.962570e-01  1.326978e-01  1.077164e-01  2.987937e-02  6.938214e-03  -1.343161e-01  -4.187703e-01  1.336732e-01  3.241250e-01  -3.004880e-02  -2.531407e-01  8.623847e-02  -1.502988e-01  -5.198756e-02  -6.002159e-02  -1.606824e-01  2.536827e-02  -1.198280e-03  2.278603e-01  2.394312e-01  -1.005008e-01  2.008002e-01  -1.325156e-01  -1.619165e-01  2.559205e-01  1.790480e-01  1.934782e-02  -1.008578e-01  1.418986e-01  -1.897856e-01  -1.907568e-01  7.065753e-02  -1.316260e-01  -6.122082e-01  -2.033992e-01  8.981351e-03  1.915320e-01  -1.182307e-01  1.543308e-01  -3.411984e-01  4.652383e-01  2.049811e-01  -1.669873e-01  2.126688e-01  4.796290e-01  6.673284e-01  -1.013596e-01  -2.587977e-01  9.013394e-02  -2.016166e-01  2.886409e-01  -2.079823e-01  9.613106e-02  -9.100800e-02  -4.177633e-02  -1.549026e-01  4.677260e-02  4.389673e-01  -7.716659e-02  1.170034e-01  -2.824544e-01  -3.496597e-01  -1.729938e-01  -9.529860e-02  3.306937e-01  -1.440793e-01  -2.519469e-01  1.709286e-01  5.418845e-02  -2.489967e-01  -1.076772e-01  -6.137982e-02  2.441826e-02  1.868234e-01  -5.473298e-01  5.506748e-01  -7.175256e-01  1.209198e-01  2.054308e-01  4.028251e-02  -1.508110e-01  4.621532e-03  -1.925716e-01  -1.877004e-01  7.530698e-02  -3.010457e-01  -1.517067e-02  1.390358e-01  3.413559e-01  3.478996e-01  -2.577650e-01  -7.491668e-02  -5.373080e-02  4.178817e-02  3.630303e-02  -1.804487e-01  3.174873e-02  -9.688646e-02  -1.193056e-02  -3.297401e-01  -5.154681e-01  3.856841e-02  -1.512778e-01  -2.888308e-01  -3.390436e-02  -2.282462e-03  -7.091891e-02  4.072128e-01  -1.863194e-01  7.944563e-01  9.348991e-02  -1.314991e-01  -2.242073e-01  -2.302199e-01  9.220681e-02  -1.052354e-01  -1.502950e-01  1.633648e-01  -5.454760e-01  -1.617512e-01  3.670509e-02  3.031940e-02  1.198635e-01  -2.224591e-01  4.294747e-02  7.810939e-02  2.552933e-02  2.619993e-01  3.118770e-01  3.484175e-02  2.466548e-01  3.320035e-02  -8.344449e-02  9.751985e-02  4.140200e-02  3.476935e-02  3.625717e-02  -4.289678e-02  -1.095563e-01  -6.768183e-02  -5.660700e-02  -2.286091e-01  -2.322021e-01  -6.659809e-02  1.884353e-02  -9.104478e-02  7.724503e-02  -1.859855e-01  1.020015e-01  -3.025954e-01  5.051003e-01  -1.141528e-01  2.961715e-01  -2.178164e-01  7.757877e-02  1.803856e-01  -6.996460e-02  1.390189e-01  -6.169051e-02  -1.270445e-01  2.551062e-01  -1.631717e-01  -1.638291e-01  -6.956071e-02  -1.814172e-01  3.227362e-03  7.286384e-02  -1.742735e-01  -1.451763e-01  8.223372e-03  1.300826e-01  7.236123e-02  4.229482e-01  2.463730e-02  -3.255711e-02  -1.609004e-01  -1.508676e-01  -7.169784e-02  6.324326e-02  1.643593e-01  -3.742514e-01  1.268766e-01  2.423686e-01  -1.744685e-01  5.114601e-03  1.440056e-01  3.894603e-01  -3.271956e-01  1.361279e-01  -7.046341e-02  -5.755742e-02  -3.329437e-01  -2.652607e-02  9.168004e-02  1.970341e-01  -2.874182e-01  -4.831136e-01  -9.915752e-02  3.151270e-01  5.372925e-02  -1.387628e-02  1.532692e-01  2.692512e-01  6.342894e-03  5.158946e-02  -1.690835e-03  1.538231e-01  -6.922603e-04  -2.816970e-02  -1.983381e-01  -7.645962e-02  2.715050e-01  -1.286496e-01  -8.226971e-02  6.941354e-02  3.512166e-01  1.096196e-01  -9.043688e-02  3.709431e-01  -1.777455e-01  -4.770827e-02  -2.571160e-01  1.867030e-01  1.569292e-01  -9.771371e-02  -1.343297e-01  -1.640176e-01  -1.517013e-01  -1.945858e-01  -8.752296e-02  -2.180957e-01  8.664359e-02  -4.226457e-02  -3.543589e-02  -1.422656e-01  -1.205244e-01  -6.147287e-03  2.889548e-01  1.722752e-01  2.200529e-02  -8.701964e-02  -2.817136e-01  4.873271e-02  -3.998685e-01  2.586206e-01  -1.151715e-01  3.725861e-01  -1.661121e-01  1.601084e-01  -4.728137e-01  9.283821e-02  1.080267e-01  -1.197463e-02  9.346523e-02  7.578604e-02  1.518736e-01  -1.104836e-01  6.517660e-02  -3.061698e-02  -9.391469e-02  2.053115e-01  -8.713592e-03  8.623264e-02  2.741740e-01  1.163158e-01  -1.136481e-02  -2.993948e-01  -9.038073e-02  -1.616866e-01  7.561918e-02  1.885550e-01  3.512354e-02  -1.468113e-02  -3.681201e-02  3.654736e-01  -4.079199e-02  -5.912351e-03  -1.819962e-01  1.488514e-01  4.622861e-01  -9.034436e-02  2.137975e-01  4.371263e-02  3.596402e-01  1.516655e-01  3.889634e-01  1.290381e-01  4.804937e-02  7.600184e-02  -3.529469e-01  -7.019316e-02  -1.249642e-01  -3.057619e-01  2.154194e-01  -2.588637e-01  -3.172837e-01  -1.021859e-01  -5.237707e-02  2.332744e-01  1.464261e-02  -2.773100e-01  -5.098459e-02  2.309819e-02  1.172890e-01  7.919315e-03  -7.619982e-02  -1.470983e-01  -1.002169e-01  -8.996327e-02  -1.825197e-02  3.674058e-02  8.492856e-02  1.203219e-01  3.134613e-01  -1.350132e-01  -1.901651e-01  -2.510692e-01  -5.371222e-01  -4.142151e-02  1.441214e-01  3.054241e-01  -1.427065e-01  2.001172e-02  2.118236e-01  -2.341324e-01  -6.730257e-03  2.096584e-01  2.306714e-01  -1.263091e-01  -2.299681e-01  -1.163079e-01  -1.952561e-01  3.297706e-01  -4.354546e-02  2.045216e-01  2.009204e-02  4.043285e-02  -2.932099e-01  -4.337697e-01  -1.999944e-02  -1.440067e-01  -3.265955e-01  -3.201852e-01  2.121827e-01  3.368560e-02  5.491665e-02  -1.226563e-01  -3.575429e-01  4.461148e-01  -1.443262e-01  1.133870e-02  1.958493e-01  1.331664e-01  1.783143e-01  -4.160908e-03  -9.207895e-02  -8.711243e-02  -1.398684e-01  2.196904e-01  7.588217e-02  -1.141414e-01  -1.694370e-01  -6.772904e-03  1.831975e-01  -6.748729e-02  -2.020690e-01  -3.093598e-01  5.070277e-02  -1.112027e-01  1.262280e-01  1.813061e-01  1.201700e-01  -3.658544e-01  -1.222081e-01  1.509829e-01  1.991406e-02  1.730641e-01  6.350255e-02  -4.152310e-02  8.949148e-02  -2.458979e-01  3.384548e-01  -8.729067e-02  -2.515333e-01  -1.455462e-01  -2.227683e-01  1.348777e-01  4.567995e-02  -1.149448e-01  -4.198886e-01  -6.154440e-02  1.652552e-01  1.979611e-01  4.484237e-01  2.508742e-01  -3.999892e-01  -1.363040e-01  1.021387e-01  5.112530e-01  7.016708e-02  1.853677e-01  2.801231e-01  1.705233e-01  1.273521e-01  -1.698662e-02  -2.506880e-01  -2.807887e-01  1.589383e-01  2.336261e-01  2.719444e-02  -1.815548e-01  1.313167e-01  -6.537220e-02  -3.286008e-01  8.937919e-02  5.031611e-01  -1.641065e-01  -9.212706e-03  3.511303e-01  -2.043364e-02  -2.115989e-01  1.174643e-01  -1.261723e-01  -2.094344e-01  1.202134e-01  3.928874e-01  -2.636569e-01  2.144677e-01  2.511106e-02  -2.677442e-01  -2.465638e-01  -2.221951e-01  2.222488e-01  1.830090e-01  -3.346115e-01  -6.184872e-02  7.624586e-02  -3.634947e-04  1.607249e-01  -2.461337e-01  -7.136968e-01  1.981027e-01  -2.743636e-01  -3.868640e-01  2.308146e-01  -3.391262e-01  9.878443e-02  -1.322401e-01  -2.846996e-02  -1.698277e-01  1.273254e-01  -4.178235e-02  2.512132e-02  -1.145993e-01  -3.189387e-02  1.008853e-01  2.150110e-01  -1.012455e-01  2.760898e-01  -3.164048e-01  -1.510015e-01  1.272043e-01  -1.572171e-01  -1.354577e-02  -1.382112e-01  -2.371020e-01  1.342946e-01  1.377243e-01  -2.267509e-01  -3.126812e-02  -2.741009e-02  6.340434e-02  -1.097300e-01  4.701988e-01  4.673352e-01  1.213016e-03  -8.661616e-02  -8.760659e-02  1.474810e-01  3.260761e-02  -1.304268e-01  5.210443e-02  -3.557321e-01  -4.047250e-02  -2.948614e-01  2.585349e-01  2.510222e-01  -7.457123e-02  4.567074e-01  2.417841e-02  -8.667963e-02  -4.963841e-02  5.685023e-01  -2.673363e-02  2.571172e-01  1.798194e-01  -6.720921e-03  -7.930192e-02  9.875339e-03  -1.905800e-01  4.916132e-01  -1.285024e-01  2.324755e-01  1.350080e-01  -6.260515e-02  -2.089939e-01  9.159771e-02  -2.053319e-02  1.963505e-01  2.295708e-01  -2.161175e-01  -2.165192e-01  2.614098e-01  -1.283245e-01  -4.196545e-02  5.689815e-02  5.716770e-02  1.359453e-01  2.114626e-01  2.145955e-01  1.749045e-01  -3.901633e-02  1.795795e-01  -1.419017e-01  -8.804936e-02  -2.571879e-01  -7.331128e-02  -1.027904e-01  2.039818e-01  2.212765e-01  -1.596806e-01  -7.503077e-02  4.816950e-02  -3.070471e-02  1.556625e-01  2.650240e-01  2.062805e-02  -3.308399e-02  1.269800e-01  9.006487e-02  2.134452e-02  -2.336662e-01  -1.849414e-01  1.398275e-01  3.456894e-03  2.278832e-01  -2.557091e-01  -3.861153e-02  -4.455202e-02  9.111243e-02  -4.915619e-01  5.554954e-02  1.080387e-01  -5.021211e-03  -1.534468e-01  2.728794e-01  2.317689e-02  1.408869e-01  3.718914e-02  2.625590e-02  3.774489e-01  -3.193269e-02  2.843244e-01  2.685607e-01  -4.169746e-02  -9.263461e-02  -1.370393e-01  1.658119e-01  -3.319972e-03  1.095592e-02  -1.518863e-01  -1.260760e-01  -2.868406e-01  -4.017477e-02  6.070676e-03  -6.782880e-02  -1.340372e-01  -2.467065e-02  2.519132e-01  -1.134606e-01  -6.710433e-02  4.044078e-02  3.467461e-02  -4.968503e-01  -2.567469e-01  6.687106e-02  2.106657e-01  -2.580633e-01  1.327332e-01  -1.783104e-01  1.332874e-01  -6.004504e-02  2.804265e-01  1.735651e-01  2.120918e-01  2.111982e-01  -2.361177e-01  2.067777e-01  1.233193e-01  -2.530478e-02  2.514968e-02  6.953052e-02  1.020933e-02  -2.283763e-02  -6.462973e-01  3.776375e-02  -7.390577e-02  -6.594462e-02  1.673755e-01  5.478027e-02  -9.975407e-03  -1.165392e-01  1.037473e-01  -1.995820e-01  -2.043689e-01  -2.228966e-01  -1.218240e-01  2.593034e-01  1.750404e-01  -3.108521e-01  3.222897e-03  9.174147e-02  2.760611e-01  -2.311316e-01  5.476244e-02  3.349518e-02  -2.864705e-01  -8.487678e-02  -3.796362e-02  5.985690e-02  -1.973138e-01  -2.180686e-01  -2.332557e-01  -2.656792e-02  1.775178e-02  2.237135e-01  1.835776e-01  7.972695e-03  2.282228e-01  -9.412418e-02  -7.427654e-02  -1.983357e-02  1.726869e-02  -7.391730e-03  4.094336e-02  4.154943e-02  -1.003950e-01  3.352127e-02  -2.911074e-01  -2.481535e-01  1.095026e-01  4.289489e-01  -2.141584e-01  7.338144e-01  -1.275446e-01  -1.727852e-01  -1.471750e-01  1.075580e-01  -3.105629e-02  -1.121744e-01  -5.854051e-03  1.527779e-01  -8.138967e-02  -2.509717e-01  -4.796182e-02  -1.967017e-02  -1.694172e-01  1.110542e-01  7.505124e-03  1.822056e-01  1.324589e-01  4.518316e-02  -3.941503e-01  -3.288964e-02  2.860217e-01  2.567006e-02  2.947815e-01  
      </Weights>
      <Biases Rows="50" Columns="1">
        2.469963e-02  -2.201222e-02  -7.438074e-02  7.068513e-03  -3.569011e-02  -8.029764e-03  1.181024e-04  -3.498151e-02  6.932301e-02  -4.516637e-03  4.534448e-02  1.457384e-01  -9.036043e-02  9.998425e-03  2.872190e-03  2.378369e-02  -1.164113e-02  -2.049867e-02  5.762906e-03  -6.479935e-03  -1.091031e-02  6.233800e-02  3.367009e-02  3.417143e-02  -2.361978e-02  2.094551e-02  -6.118496e-03  2.924079e-03  -1.999301e-02  -8.043893e-02  2.924545e-02  -5.602287e-02  1.304907e-03  3.827725e-02  1.385733e-02  -6.580355e-02  2.476191e-02  5.464682e-02  -3.246902e-02  2.547358e-02  -2.518609e-02  6.017035e-02  -3.228518e-02  -1.932819e-02  7.999481e-02  -2.518986e-02  -1.951962e-02  3.240819e-02  -9.115948e-03  2.450424e-02  
      </Biases>
    </DenseLayer>
    <DenseLayer Width="50" ActivationFunction="1">
      <Weights Rows="50" Columns="50">
        -5.097381e-02  -8.847572e-02  1.003642e-01  -2.357549e-01  -6.085448e-02  1.358374e-01  2.320562e-01  2.671767e-01  -2.235920e-01  -1.339398e-01  -7.617148e-01  1.806350e-01  2.112285e-01  1.084094e-01  -5.903176e-03  -1.766912e-02  5.706439e-02  -1.072477e-01  2.620543e-01  -1.085648e-01  -3.104008e-01  -1.651046e-01  2.178110e-01  2.044630e-01  2.618071e-01  -1.298149e-01  5.907705e-02  2.519971e-01  -5.804851e-02  2.614260e-01  9.059688e-03  1.583914e-01  -3.223638e-01  -3.658674e-01  3.076480e-01  -6.737485e-03  2.489393e-01  2.232622e-01  2.504867e-01  5.696845e-02  -1.766430e-01  -2.077688e-01  1.743211e-01  3.719388e-03  8.935107e-02  6.887709e-02  -1.770930e-01  -4.664215e-02  -2.819683e-01  -1.042854e-02  1.954891e-01  -2.369150e-01  -1.775912e-01  -5.468403e-01  5.844652e-02  1.799757e-02  -1.475799e-01  9.487462e-02  -6.240497e-01  2.345231e-01  1.709882e-01  -1.778291e-01  1.320418e-01  -1.238876e-01  -1.084876e-02  4.099645e-01  -2.660944e-01  -3.333297e-01  1.506865e-01  -3.960382e-02  -4.977169e-02  3.003827e-01  3.034832e-01  3.534395e-01  -3.670829e-01  1.158865e-01  7.319774e-02  2.513103e-01  -8.064251e-02  -1.421589e-02  -6.014145e-02  1.604944e-01  1.690353e-01  -1.436209e-01  1.215144e-02  -2.261395e-01  1.729752e-01  7.137755e-02  9.303545e-02  4.623968e-02  7.715123e-02  3.006738e-01  -2.318429e-01  3.350796e-01  2.253277e-01  -2.057005e-01  -3.998308e-01  -2.585227e-01  1.002256e-01  -1.168398e-01  3.357142e-02  -3.191618e-01  -1.578683e-02  1.298661e-02  -1.135281e-01  4.728939e-01  3.701331e-01  1.146833e-01  1.656978e-01  -1.351076e-01  5.454482e-01  -1.155883e+00  -2.286314e-01  3.057927e-01  8.572792e-02  -7.805527e-02  2.246307e-01  2.622171e-01  -6.697477e-01  -8.792215e-01  -6.829415e-01  -5.616937e-01  -8.129848e-03  -6.593429e-01  -2.102847e-01  -1.566456e-02  -1.569415e-01  -1.659349e-01  -8.258160e-02  -2.891744e-01  -5.004264e-01  -2.967707e-02  -6.615996e-01  -1.153909e-02  -8.949895e-02  1.185775e-01  3.084677e-01  1.120166e-02  -1.809970e-02  -4.852513e-02  5.547107e-02  2.885821e-03  -1.770781e-01  4.389513e-01  5.790998e-01  2.000377e-01  -1.099222e-01  3.792843e-01  8.389152e-02  2.065791e-01  -5.104558e-03  7.593275e-02  -7.578042e-02  1.704813e-01  -1.231290e-01  -2.002748e-01  -7.277256e-02  -2.345809e-01  -1.423910e-01  1.917568e-01  -1.383441e-01  -2.080550e-01  1.753063e-02  -2.270379e-01  -1.833838e-02  5.137745e-02  -1.247259e-01  1.869287e-01  1.167535e-01  -1.973205e-01  -7.694580e-02  1.016927e-01  -1.255629e-01  -1.113529e-01  -1.196387e-01  -8.331405e-02  -1.067876e-01  -4.770281e-02  -1.602179e-01  4.087190e-03  -1.247928e-03  -1.732428e-01  -4.702761e-02  -2.398238e-01  -1.914872e-01  -1.343565e-01  1.681383e-01  1.354944e-01  -9.652156e-02  -1.170577e-01  -1.699506e-01  1.322119e-01  1.753132e-01  -2.128931e-01  1.557011e-01  -1.474909e-01  -8.515482e-02  -1.796067e-01  8.607084e-02  -3.557603e-02  -2.485064e-01  -8.780117e-02  1.285424e-01  -9.856258e-02  2.952767e-01  6.176651e-02  -1.941479e-01  1.477229e-01  -9.370812e-02  -8.241193e-01  6.962282e-02  -1.116737e-01  1.554373e-01  -3.764893e-02  -6.497022e-03  1.620320e-01  -1.447566e-01  7.733318e-02  -3.100682e-01  -3.026586e-01  -1.185779e-01  2.257232e-01  7.410313e-02  -2.628971e-01  -1.599176e-01  -1.126541e+00  2.738733e-01  -5.697497e-02  2.293791e-01  -7.891205e-02  1.396700e-01  7.983618e-02  2.946711e-01  2.135222e-01  -2.464404e-01  -1.949179e-01  -9.038709e-02  4.340976e-02  1.424873e-01  4.804627e-01  -2.057312e-02  -5.142224e-01  -8.678074e-02  -1.955408e-01  -6.568782e-01  1.934061e-01  -7.865314e-02  -1.553790e-02  2.108274e-01  -1.618676e-01  -2.061098e-01  -1.264549e-01  -1.423526e-01  -4.221417e-01  1.013819e-01  -6.051952e-02  -7.975821e-02  -1.160022e-01  1.750819e-01  -4.916893e-02  -1.096361e-01  -1.047090e-01  -7.251815e-02  -5.965204e-03  1.695051e-02  2.139988e-01  -4.387121e-01  1.536041e-01  -3.776486e-02  1.274212e-01  1.114167e-01  2.712394e-01  -2.067102e-01  -1.325165e-01  1.244614e-01  9.355904e-02  -1.869835e-01  -6.616832e-03  -1.257053e-01  2.400036e-01  8.323576e-02  -2.169584e-01  1.265994e-01  -2.552499e-01  1.433413e-01  -1.674753e-01  -4.155082e-02  -2.553959e-01  1.120813e-01  -3.535613e-01  -6.885040e-02  -1.710957e-01  3.066565e-01  5.607522e-02  7.496923e-04  -2.092708e-01  2.173474e-01  2.262996e-01  1.452583e-03  3.221896e-01  -3.988924e-01  5.366740e-01  2.872198e-01  4.087738e-02  -2.522255e-01  -3.833067e-01  -2.138673e-02  1.379735e-01  6.411339e-02  3.688155e-01  -3.751906e-01  -7.509255e-02  -5.903232e-01  -2.306779e-01  -1.059343e-01  -5.825704e-01  8.802652e-02  2.559043e-01  1.458129e-01  1.148379e-01  2.668515e-01  -1.719444e-01  2.746398e-01  -1.465527e-01  -1.344612e-01  1.759019e-01  2.360581e-01  -4.290088e-01  3.728532e-02  -1.370198e-01  -5.977499e-01  -7.950425e-01  1.213343e-01  2.263940e-01  -6.515389e-01  2.682817e-01  -3.056731e-02  1.850953e-01  -2.064719e-01  -4.442435e-01  7.728782e-02  2.901227e-01  -1.515261e+00  2.784120e-01  2.647369e-01  2.487548e-01  3.388531e-01  -4.874856e-01  8.846164e-02  1.288557e-01  2.392487e-01  -1.445969e-01  -5.300342e-02  -1.087941e-01  9.030356e-02  -8.457023e-02  -7.526563e-02  4.795005e-02  -7.648697e-02  4.787038e-03  -1.253417e-02  -1.477193e-01  -5.256571e-02  -1.615982e-01  -1.716834e-01  3.339063e-01  1.626578e-01  -8.434566e-02  1.234778e-01  -1.190949e-01  -1.390033e-01  2.764606e-01  -1.238861e-01  -3.908601e-02  9.216177e-02  1.223092e-02  2.704915e-01  -3.323250e-02  2.970615e-01  1.605508e-01  1.706287e-01  -5.048656e-01  -7.126828e-03  -1.602203e-01  7.994972e-03  -2.577459e-01  -4.729117e-01  1.455784e-01  -2.616780e-01  -3.345424e-01  -1.627490e-02  2.147585e-01  -2.438889e-01  -6.710900e-02  -3.447772e-01  2.535406e-02  2.392120e-01  -1.527008e-02  6.252563e-02  4.391321e-02  4.380535e-02  -9.718680e-03  1.404165e-01  -1.025385e-01  -7.899102e-01  -1.340741e-01  -3.325819e-01  -2.212179e-01  -2.029452e-01  1.968907e-01  -5.410606e-01  3.092288e-01  2.817928e-02  -2.742389e-01  -2.603771e-01  -2.195600e-01  9.421815e-02  2.928204e-02  6.439302e-03  1.183702e-01  1.324314e-02  -3.523552e-01  -2.799816e-01  3.213076e-02  -4.641842e-01  -4.811229e-01  2.381460e-01  -1.307646e-02  5.149642e-03  1.341881e-01  4.641177e-01  -1.776226e-01  -6.530125e-01  4.764282e-02  -1.435961e-01  -7.324503e-02  -3.604501e-01  1.141219e-01  -3.486932e-02  -2.821942e-01  -3.455471e-02  6.268718e-01  -9.422843e-02  -1.198950e-01  3.125826e-01  -2.149267e-01  3.886240e-02  2.282421e-01  -1.045395e-01  4.384298e-01  2.850468e-01  -2.459924e-01  -1.035801e-01  2.942921e-01  -3.060952e-01  4.666478e-02  -3.258749e-02  -3.747954e-01  -2.198948e-01  2.656178e-01  1.363035e-01  -2.823814e-02  2.053262e-01  -1.248111e-01  2.509668e-02  -1.308793e-02  -1.697771e-01  1.309086e-01  -3.552330e-01  4.936462e-01  2.124882e-01  -5.547855e-01  2.482457e-01  3.883411e-01  1.955284e-01  7.055027e-02  -1.421636e-01  2.993223e-01  -4.272833e-01  -2.083443e-01  -2.728011e-01  1.588196e-01  1.853617e-01  7.299401e-02  -1.983106e-01  2.838297e-01  -1.559097e-01  -8.328748e-02  -8.033616e-01  -1.041836e-01  -3.057500e-01  -1.641557e-02  -7.227035e-02  1.981908e-01  -2.569758e-01  -2.219191e-01  2.766686e-01  -1.708172e-02  -7.570889e-04  -1.315125e-01  5.445122e-02  8.716343e-02  9.828550e-02  -3.207226e-01  9.290627e-02  -3.215092e-01  5.039678e-02  8.274470e-02  1.478313e-01  -2.919702e-01  -2.553943e-01  -2.322018e-01  -1.199028e-01  2.716745e-02  -6.019627e-02  1.049196e-01  2.733538e-02  -1.569910e-01  2.239008e-02  1.193527e-01  4.076347e-02  1.833583e-01  -1.390297e-01  -1.641845e-01  -6.998211e-03  -1.768327e-01  -9.454954e-02  2.222736e-01  -1.057677e-02  -3.542507e-02  2.014581e-01  -9.084170e-02  -3.569493e-02  1.201965e-01  2.980255e-01  2.976857e-01  1.822659e-01  -1.088165e-01  2.612426e-02  -2.912466e-01  -1.241400e-02  4.139729e-01  -2.704771e-01  1.954589e-01  1.502582e-01  1.834517e-02  2.222481e-01  -5.019662e-03  -1.273218e-01  -2.795817e-01  4.409306e-01  1.705647e-01  3.061536e-01  -4.743631e-01  -1.476378e-01  -1.546524e-01  1.547228e-01  1.114185e-01  -1.267536e-01  -5.049422e-01  -2.928626e-01  4.275393e-02  -1.446472e-02  6.480129e-02  9.427126e-02  9.872223e-02  7.219182e-02  1.457043e-01  2.772408e-01  1.113324e-01  -1.929943e-01  -1.159096e-01  1.271510e-01  -1.721608e-01  2.448617e-01  -1.024343e-01  -7.202925e-02  1.223072e-01  2.706085e-01  2.280078e-01  8.525596e-02  1.844120e-01  -9.708531e-03  -6.755671e-01  -2.116853e-01  2.296899e-01  3.719516e-01  -1.207681e-01  -9.623183e-02  -3.888310e-01  2.935636e-02  -1.686376e-01  3.048310e-02  3.604460e-01  -1.017761e+00  -1.663647e-01  -1.492385e-01  -9.262350e-02  1.095478e-01  -2.006175e-01  -1.400711e-01  -1.302509e-01  2.323880e-01  4.339982e-01  2.412470e-02  6.490563e-02  -2.026973e-01  4.606168e-02  1.843052e-01  -1.099171e-01  2.489434e-01  -1.166666e-01  2.959934e-02  1.766830e-01  1.549650e-01  1.884219e-01  -3.317665e-02  2.833283e-01  8.012571e-02  2.643180e-02  -7.183955e-02  -1.474125e-01  -1.859160e-01  -5.411048e-03  7.617628e-02  1.545784e-01  1.435540e-01  -1.433821e-02  9.658126e-02  -9.399810e-03  -3.754773e-01  -8.260103e-02  9.513924e-02  -2.090005e-02  1.951119e-01  3.842907e-02  -1.130532e-01  2.251571e-01  -1.532104e-01  4.262997e-01  2.376019e-02  1.406365e-01  8.203281e-02  -2.149866e-01  -2.044582e-01  -1.611367e-01  -3.339556e-01  3.147270e-01  -1.451526e-01  2.890385e-01  -5.462487e-02  4.623297e-02  -4.525112e-01  9.253422e-02  -1.845469e-01  -2.037556e-01  1.023712e-01  1.647483e-01  1.978433e-01  -6.198521e-01  1.213563e-01  -4.044078e-02  1.661863e-01  1.898770e-01  -1.485739e-02  2.001674e-01  -1.607099e-02  -4.296204e-02  -3.077992e-01  2.042469e-01  -9.935614e-02  3.582121e-02  2.788721e-02  3.595280e-01  1.901881e-01  -5.026501e-01  -3.618960e-02  3.157940e-02  -3.065521e-01  -3.031374e-01  1.151744e-02  -6.761593e-02  1.604647e-01  -2.735983e-01  1.521837e-01  1.517113e-01  2.421329e-01  -2.136928e-01  -8.652812e-02  2.937778e-01  2.104658e-01  -3.322026e-01  -5.775788e-02  1.995176e-01  -5.649704e-02  -2.268123e-01  8.153822e-02  1.982073e-01  -1.184892e-01  -1.462312e-03  1.401030e-02  1.525097e-01  3.966729e-01  7.872011e-03  -8.591613e-02  2.172032e-01  -4.510866e-03  -1.991931e-01  -1.545591e-01  8.556931e-02  7.931750e-02  -1.662094e-01  2.014946e-02  1.919988e-01  1.445204e-01  2.463514e-01  3.043122e-01  -3.248693e-01  -1.465332e-01  -3.314649e-01  7.368568e-03  1.495007e-01  -9.597836e-03  9.195045e-02  1.780518e-01  1.942054e-01  2.185199e-01  6.769903e-02  -1.724081e-01  -1.401390e-01  2.699049e-01  -1.138100e-01  5.682510e-02  1.801269e-02  1.348877e-01  1.416036e-01  3.137269e-04  2.088769e-01  3.640206e-01  1.734881e-01  -3.182906e-01  -3.463528e-01  1.152204e-01  -1.022515e-02  -7.865062e-02  2.125003e-02  5.077878e-02  1.286282e-01  -2.130495e-02  -1.766301e-01  -2.124755e-01  1.895257e-01  -1.653500e-02  5.085701e-02  6.376695e-03  -3.505603e-01  -2.836399e-01  2.093556e-01  -4.201834e-02  -1.363495e-01  -8.152052e-01  -5.419825e-01  -3.473521e-02  1.055931e-01  -8.036616e-02  1.039590e-01  1.163130e-01  -2.578612e-01  -4.675233e-03  1.826094e-01  1.251946e-01  1.610184e-01  4.727725e-01  -3.462800e-01  7.370035e-02  -2.703916e-01  -2.228632e-01  1.493655e-01  -2.041307e-01  -5.385247e-02  1.044300e-01  -8.082883e-01  -2.063301e-02  -1.337855e-02  2.556134e-01  3.568891e-01  2.037333e-01  -2.491072e-01  1.249267e-01  -2.241700e-01  -2.790129e-01  -1.631618e-01  -1.314991e-03  1.047038e-01  3.275868e-01  -7.121587e-02  1.609297e-01  1.655980e-01  -2.116262e-01  -1.386688e-03  1.771420e-01  4.780635e-02  6.350258e-01  1.972562e-01  1.210576e-01  -8.516418e-02  -1.351770e-01  1.752238e-01  2.069502e-01  2.771085e-01  -2.142462e-01  -1.891437e-02  1.118060e-01  -1.798416e-01  -2.377477e-01  1.462653e-01  2.160803e-01  1.911834e-01  3.333631e-01  2.450563e-01  -1.490622e-01  5.512555e-02  3.054596e-02  -6.114861e-02  7.437753e-02  -2.898031e-01  -2.997803e-02  -2.731953e-01  -5.420380e-02  -6.212013e-02  -2.033768e-01  -1.062540e-01  2.505443e-02  1.063748e-01  -8.527227e-02  -3.051167e-01  2.514782e-03  -4.951649e-02  3.201956e-01  -4.818164e-02  -1.754092e-01  3.036683e-03  -2.450985e-02  1.228918e-01  -2.401254e-02  2.346253e-01  -2.003723e-02  2.590458e-01  -1.939467e-01  1.952358e-02  5.379197e-01  1.652401e-02  2.465402e-01  1.567795e-01  -5.771770e-02  -1.754205e-01  -7.353442e-02  5.314321e-02  -9.472790e-02  4.357524e-01  -2.767379e-01  -1.815542e-01  -7.290844e-02  7.316568e-02  -1.907095e-01  1.345864e-02  2.160914e-01  2.490045e-01  2.014281e-01  -1.693542e-01  1.314209e-01  -6.671331e-02  -1.237415e-01  -1.694837e-01  -9.315937e-02  -1.384870e-01  1.050901e-02  -1.027093e-01  -4.580795e-01  -6.441084e-02  2.309080e-02  -3.739387e-01  -1.737156e-01  1.462664e-01  1.374604e-01  4.122129e-02  3.389339e-01  2.764923e-02  8.519360e-02  -1.994963e-01  1.211723e-01  -1.438911e-01  1.131032e-01  -1.294009e-01  2.722487e-02  8.608775e-03  1.660860e-01  1.036766e-01  5.308498e-02  -7.213276e-02  -1.580527e-01  -1.152542e-01  -1.977703e-01  -1.800799e-01  -5.183922e-02  -1.511047e-01  -1.219239e+00  1.384741e-01  -1.007564e+00  9.176846e-02  2.048087e-01  -1.153927e-01  -7.941644e-01  -6.289076e-01  1.918700e-01  -2.033064e-01  -1.770913e-01  4.815890e-01  -2.182843e-02  -1.147355e-01  -2.901750e-01  -1.550409e-01  4.095540e-01  6.331486e-01  -4.538949e-02  -1.928606e-01  -1.248250e-01  2.625964e-01  -1.093811e-01  1.222794e-01  2.429665e-01  -1.008444e-01  -9.271674e-02  -2.499336e-01  -2.964348e-01  -4.686465e-02  -1.842915e-01  2.273075e-01  -3.999648e-02  -2.916324e-01  1.021679e-02  -5.852322e-01  -7.388108e-02  1.935836e-01  -1.588762e-01  -4.107501e-02  -2.039235e-01  -3.599558e-01  2.598806e-01  1.398750e-01  -2.193042e-01  2.994084e-01  5.382080e-02  3.811522e-02  -2.188898e-01  4.056100e-01  2.645524e-01  -3.122270e-01  3.460117e-01  8.070942e-02  -2.951288e-01  -4.246423e-03  8.012495e-02  7.348607e-02  6.595668e-02  2.745498e-01  9.367279e-02  -4.970745e-01  4.301346e-01  1.454266e-01  2.151502e-01  -1.126541e-01  2.699451e-01  1.068854e-01  1.132412e-01  -1.732264e-01  1.318953e-01  8.798913e-02  5.032797e-02  6.739362e-02  2.551483e-01  -2.448948e-01  2.019012e-01  4.977426e-01  -1.820897e-02  2.293862e-02  -2.560903e-01  -1.122115e-02  1.926005e-01  2.309960e-01  -4.875696e-01  -1.501502e-01  -1.917206e-01  -5.444417e-02  -5.750412e-02  -1.887886e-01  -8.603526e-02  -2.433573e-01  -1.510303e-01  1.093552e-01  5.647882e-01  -6.398850e-02  -9.864140e-02  -1.322179e-01  -2.361753e-01  2.716192e-02  2.371109e-01  -1.788222e-01  4.673010e-02  1.359135e-01  -3.130775e-01  1.655142e-01  7.659920e-02  1.400958e-01  8.101301e-03  2.133603e-01  1.389523e-02  3.055745e-01  -1.702134e-01  4.169761e-01  1.919774e-01  1.150667e-01  2.228156e-01  -1.095260e-01  -1.915948e-01  -2.473335e-01  -3.273289e-01  2.317810e-01  1.565595e-01  -8.512644e-02  8.673432e-02  5.469135e-02  8.062387e-02  -5.715055e-01  9.759325e-02  -3.221405e-01  1.582443e-01  -2.133017e-01  -8.479101e-03  -1.885411e-01  1.161654e-01  2.152877e-01  -2.044270e-01  4.433332e-01  4.871485e-02  -1.243809e-01  6.317019e-02  -5.404119e-02  2.772322e-02  -3.383362e-01  -5.083640e-01  5.248451e-01  -1.087278e-01  -3.723898e-01  2.559906e-01  3.300045e-01  -2.746160e-01  1.284533e-01  2.680995e-01  -1.148545e-01  -1.589442e-01  -3.630798e-01  3.120202e-02  4.672500e-01  1.909284e-01  -3.747666e-01  -1.349105e-01  1.078697e-02  -1.441064e-01  -1.276855e+00  -2.005041e-01  -4.242550e-01  -2.103824e-01  -1.976297e-01  -2.137759e-01  -6.703893e-02  2.413921e-01  -2.680306e-01  -3.266264e-01  1.815981e-01  -3.304408e-02  3.704755e-01  1.463203e-02  3.402502e-01  -2.078171e-01  2.439486e-01  2.694026e-01  1.675121e-01  -3.601088e-01  -3.322663e-01  -1.245587e-01  -7.900411e-02  4.335160e-01  -1.440388e-01  3.408092e-01  2.211888e-01  -6.281944e-03  -8.799070e-02  -2.732919e-01  1.700603e-01  -1.163375e-01  -2.428026e-01  1.881701e-01  4.784854e-01  6.089255e-02  2.061913e-01  2.237975e-01  -2.992694e-01  -1.260437e-01  6.383242e-02  -4.288345e-01  -5.143322e-02  2.102965e-01  -1.218873e-01  1.453117e-01  -1.598154e-01  -1.251749e-01  5.319078e-02  -4.118124e-01  -1.060813e-01  -1.684420e-01  1.697466e-01  -1.529393e-01  -1.484071e-01  -2.649087e-01  -4.660981e-02  2.787204e-01  -4.582014e-01  8.356030e-02  3.991543e-01  1.904253e-01  9.528822e-02  -1.276905e-01  2.070010e-01  1.676176e-01  -1.821403e-02  -2.314717e-01  2.529531e-01  -3.655089e-01  6.624888e-02  -4.962134e-02  -4.775456e-01  2.533576e-01  5.189695e-02  2.177639e-02  1.614157e-01  -5.683878e-02  2.128969e-01  1.736552e-01  -2.493400e-02  2.013033e-02  1.534377e-01  4.764702e-01  3.326581e-01  2.205214e-02  1.945374e-01  -2.870877e-01  7.061750e-02  -3.686478e-01  2.152964e-01  3.560052e-01  1.010852e-02  1.066454e-01  1.061550e-01  1.086220e-01  -7.962772e-02  -3.374238e-03  1.598434e-01  -2.156125e-01  -4.393617e-01  1.766330e-01  2.295843e-01  -5.650216e-01  -3.112069e-01  1.734239e-01  -4.073659e-02  2.772486e-01  -4.259011e-01  2.439967e-01  -1.981818e-01  -1.925257e-01  -3.280491e-02  -2.773065e-01  -1.509465e-01  2.016803e-01  -2.100219e-01  -1.649533e-01  1.444078e-01  -7.176728e-02  3.705286e-01  1.081073e-02  -2.387512e-01  2.307642e-01  2.794425e-01  -2.370326e-02  2.181216e-01  -1.984888e-01  -9.984542e-02  -5.909395e-02  -1.434865e-01  3.840765e-01  -6.505281e-02  -9.092040e-02  -5.694181e-01  -2.870685e-02  -4.401760e-02  2.727616e-02  1.505159e-02  1.270976e-01  2.377610e-01  1.122664e-01  1.210833e-01  3.801821e-01  1.658887e-01  -6.102635e-02  -9.137119e-02  -5.544372e-01  -1.781589e-01  -3.638755e-01  -1.068382e-01  2.531312e-01  -6.616021e-02  -2.895710e-01  2.096177e-01  -2.006368e-01  1.868289e-01  2.018337e-01  -1.340468e-02  -4.316047e-01  -1.905960e-01  -9.353408e-02  -3.738829e-02  -1.114894e-01  -1.354514e-01  -8.564502e-02  2.540260e-01  -7.851672e-02  9.260253e-02  -1.006510e-01  6.928887e-02  3.787307e-01  2.987172e-01  1.204943e-01  2.477390e-01  -2.693006e-01  4.762438e-02  2.336500e-01  3.742180e-01  -1.188539e-01  -8.759826e-02  3.788600e-02  -1.004907e-01  -2.428791e-01  2.512035e-01  -1.365872e-01  -3.201543e-01  1.476522e-01  4.294732e-02  2.944999e-01  -5.064214e-02  1.026427e-02  -2.070305e-02  3.152677e-01  2.067269e-01  1.007420e-01  2.193548e-01  2.724075e-01  2.862566e-01  2.594128e-01  -4.160687e-02  6.396110e-02  -3.063126e-01  3.538718e-02  2.339163e-01  -5.135083e-02  -2.974948e-02  -2.040253e-02  3.121844e-01  7.849643e-02  2.817878e-01  1.333808e-01  2.493684e-01  2.098948e-01  2.307835e-01  -1.620076e-01  2.417040e-01  -2.303492e-01  -1.000640e-01  -1.800078e-01  -2.800182e-01  6.293350e-02  5.776763e-02  -2.855180e-01  1.897604e-01  -1.131106e-01  -6.469101e-02  3.255963e-03  2.358024e-01  9.988769e-02  1.314769e-01  -1.864613e-01  2.394237e-01  -2.198578e-01  -5.544103e-02  2.251499e-01  2.823187e-01  -7.661938e-02  -4.066172e-02  -3.785998e-02  3.172344e-01  3.439669e-01  -1.730985e-01  -2.358532e-01  -2.800752e-01  1.604353e-01  -4.664478e-01  1.093676e-01  2.777939e-01  1.262071e-01  -6.747764e-02  9.668103e-02  7.290323e-02  6.623748e-03  -1.308368e-01  4.186234e-02  3.170095e-01  -1.214147e-01  -3.695459e-01  1.739827e-01  5.085174e-02  4.793347e-02  1.745831e-01  1.319023e-01  1.871311e-01  -1.962834e-01  2.271412e-01  1.683174e-01  1.098989e-01  1.497645e-01  2.170944e-01  -7.024491e-02  -1.868526e-01  -1.140663e-01  2.069812e-01  -2.280625e-01  -2.126383e-01  -3.592877e-01  -3.252153e-01  -1.422114e-01  1.571283e-01  2.297042e-01  -1.943610e-01  -1.562354e-01  1.906331e-01  -2.035700e-01  1.804813e-01  1.152905e-01  -1.179752e-01  9.812935e-02  -5.242150e-02  -4.714423e-01  1.823322e-01  -1.489810e-01  2.054244e-01  -2.761008e-01  2.297132e-01  -2.793464e-01  7.736044e-03  7.765233e-02  -4.981898e-04  2.592585e-01  2.068655e-01  3.123728e-01  -6.028639e-01  5.801321e-02  5.230503e-02  -3.247096e-01  1.487571e-01  6.796852e-02  2.070640e-01  1.199682e-01  -1.087992e+00  1.827148e-01  2.604912e-01  6.992906e-02  -1.630573e-01  3.482103e-02  -3.256731e-02  -2.306969e-01  -1.187961e-01  4.303553e-02  -2.728046e-01  -6.182823e-02  -2.174434e-02  -1.416076e-01  9.948242e-02  3.198719e-01  1.640205e-01  -1.402730e-01  -5.501770e-02  7.047671e-02  -5.353762e-02  -1.355171e-01  -9.173831e-02  2.817478e-01  -1.603240e-01  -1.279332e-01  3.260211e-01  2.416958e-01  5.223300e-02  3.711870e-02  3.952614e-01  3.793155e-02  2.263483e-02  7.683982e-02  -3.323960e-01  -7.473594e-02  4.767396e-02  -2.585770e-01  -1.338048e-02  -8.518726e-02  2.438969e-01  -2.838392e-01  2.271640e-01  1.979466e-01  5.697079e-02  -3.389963e-01  5.874666e-03  1.253193e-01  9.676706e-02  -6.883058e-02  -4.218860e-01  -2.599472e-01  -8.714303e-02  8.990330e-02  -5.697270e-03  2.816211e-01  -3.656765e-01  3.319870e-02  -2.722590e-01  2.162875e-01  9.968446e-02  2.371151e-01  -2.599670e-01  -5.437269e-01  -6.594009e-02  -1.194485e-01  -1.884906e-01  8.430806e-02  1.332137e-01  -4.626732e-02  -4.047161e-02  9.294234e-02  -6.148997e-01  -2.981886e-01  -1.571400e-01  -1.099993e-01  1.509514e-01  -1.759426e-01  1.251872e-01  -2.735701e-01  -6.897631e-02  -2.150319e-01  4.415115e-01  -8.823692e-02  2.062526e-01  8.164594e-02  1.283696e-01  -1.413334e-02  1.446843e-01  -1.506048e-01  1.346796e-02  -6.395313e-02  -2.634045e-01  1.469624e-01  -2.576512e-01  1.167880e-01  7.573448e-02  -3.527338e-01  1.785408e-01  9.556071e-02  2.164328e-01  8.866256e-02  -1.479267e-01  3.491761e-01  1.123230e-01  2.002730e-01  -1.264278e-01  -1.985068e-01  9.919108e-02  1.582045e-01  1.664163e-01  1.953370e-01  -1.207620e-01  8.578028e-02  -2.196442e-01  3.842829e-01  3.217049e-01  -1.016381e-01  9.833270e-02  2.499908e-01  2.219715e-01  -6.623206e-02  1.881977e-01  2.025722e-01  -5.100524e-01  7.810326e-02  -2.867004e-01  2.397975e-02  -1.033757e+00  -5.207591e-02  -2.784408e-01  2.285008e-01  3.553962e-01  -2.372372e-01  1.177476e-02  1.631142e-01  1.770012e-02  3.850883e-02  2.217984e-01  5.043187e-02  8.451447e-02  6.368163e-02  3.537944e-01  -2.136817e-02  -2.879844e-01  -3.310322e-01  7.577864e-02  -2.334637e-01  -1.584243e-01  1.377332e-02  1.360897e-01  1.667050e-01  -2.196007e-01  4.642226e-02  2.666853e-01  3.454549e-01  -3.158395e-01  -2.600824e-02  -1.272703e-02  1.293716e-01  -6.322097e-02  1.890602e-01  1.587854e-01  1.469609e-01  -1.560475e-02  1.749877e-02  4.690928e-02  1.160698e-01  -1.972545e-02  -1.944139e-01  -3.259500e-01  2.961769e-01  -3.140253e-01  1.225840e-02  -2.957885e-01  -1.802159e-01  -1.753497e-01  -4.137553e-01  1.477174e-01  -4.321011e-01  1.948139e-01  -8.792873e-03  4.822630e-02  2.104577e-01  4.807662e-01  8.677465e-02  2.454814e-02  1.473090e-01  1.661509e-01  1.655242e-01  1.681389e-01  3.886963e-02  4.524149e-02  1.234115e-02  3.464513e-01  -1.061094e-02  1.058591e-01  -2.017372e-01  -1.244599e-01  2.486244e-01  -1.344922e+00  -6.306444e-02  9.293552e-02  -1.815962e-01  -3.593655e-01  4.171604e-02  5.197886e-02  -1.408319e-01  -1.858188e-01  1.587392e-01  1.140711e-01  2.130158e-01  7.424982e-02  8.863823e-02  1.189416e-01  2.651819e-01  2.469769e-01  -2.114332e-01  1.209956e-01  1.495190e-01  7.681218e-01  2.804049e-01  1.581970e-01  -2.340085e-01  1.169349e-01  -2.725024e-01  -1.690920e-02  1.994044e-01  -2.686462e-01  1.794859e-01  2.015431e-01  2.050269e-01  -9.081995e-02  1.005094e-01  1.986994e-01  -2.483808e-01  -1.547460e-01  7.668710e-01  -1.475393e-02  -4.178611e-01  -3.361017e-01  5.104345e-02  4.413492e-01  -2.746024e-01  3.683002e-02  -2.825132e-01  4.083245e-01  -1.605248e-01  3.113972e-01  -1.584501e-01  9.189182e-02  -2.717683e-01  -3.619280e-02  1.658040e-01  5.208360e-02  -1.050527e-01  3.191901e-01  -2.609669e-01  1.264677e-01  -5.879685e-03  -1.212388e-01  -4.284118e-01  1.730138e-01  -8.458385e-02  1.162305e-01  -2.580183e-01  2.274205e-01  1.847548e-01  -2.843854e-01  -2.671908e-01  2.454360e-01  1.265257e-02  4.504076e-01  -2.360378e-01  -1.977626e-01  5.935514e-02  -1.977792e-01  -5.112693e-03  2.414588e-01  1.115620e-01  -2.472695e-01  1.509092e-02  7.407163e-02  -9.550312e-03  -3.806356e-02  5.195655e-02  1.298301e-02  -2.121568e-02  4.403759e-02  2.225629e-01  2.063326e-02  3.336720e-01  3.027056e-01  2.077010e-02  1.439565e-02  -1.438784e-01  -7.411378e-02  2.012607e-01  2.183668e-01  7.011377e-03  -2.201891e-01  2.414056e-01  -2.173031e-01  7.567678e-02  -1.750166e-01  -2.513389e-01  7.611404e-02  7.669207e-02  2.703775e-01  1.761154e-01  -2.021131e-01  2.460162e-02  -7.547072e-02  2.513774e-01  -1.457560e-01  1.249541e-02  -2.382145e-03  3.350184e-02  2.425718e-01  1.616595e-01  -3.169281e-01  -6.284803e-01  -3.267487e-01  -1.030360e-01  -6.763247e-02  -1.014720e-01  1.629952e-02  1.771678e-01  -2.977400e-01  3.175253e-01  -2.284834e-01  7.378811e-02  -4.268331e-02  3.854861e-02  3.454978e-01  3.067112e-01  1.270154e-01  1.515940e-01  1.779460e-01  -1.695320e-01  -4.269704e-02  3.392623e-01  2.902006e-01  2.624116e-01  -9.868438e-01  -9.452941e-02  3.393211e-01  -4.007187e-01  7.678246e-02  1.926083e-01  -1.519845e-01  -4.362389e-02  1.810353e-03  2.022487e-01  3.210998e-01  -4.319128e-02  -1.898792e-01  -4.633761e-02  1.595601e-02  -1.080298e-01  1.862573e-02  3.151560e-02  -2.283209e-02  1.692034e-01  -2.297965e-02  1.006516e-01  -9.590394e-02  -1.500875e-01  5.062931e-02  -1.716142e-01  -3.307511e-01  1.384777e-01  -5.946836e-01  2.968363e-01  1.400068e-01  -7.760324e-02  1.808814e-01  9.580024e-02  1.934791e-02  1.103374e-01  1.585619e-01  8.413262e-03  1.303306e-01  1.653105e-01  2.321209e-01  -7.313527e-01  -5.895324e-02  1.900873e-01  3.879314e-02  -1.030989e-01  4.968027e-02  8.455135e-02  3.301030e-01  -2.226818e-01  -3.353041e-01  2.499002e-01  -1.667513e-01  -4.983545e-02  -2.527567e-01  -1.579226e-01  -5.266963e-02  -2.908288e-01  3.844729e-01  1.013412e-01  -2.385793e-01  -3.871492e-01  2.588150e-01  1.107452e-01  5.222226e-02  1.284725e-01  1.991588e-01  -1.605159e-01  1.043006e-01  -2.739618e-01  -2.240828e-01  -2.933158e-02  -1.439522e-01  2.377103e-01  -5.226237e-03  1.126470e-01  -1.034827e-01  1.290687e-01  2.017194e-01  1.446098e-01  1.523426e-01  1.471758e-01  -3.791445e-02  -2.603093e-02  -3.697812e-02  -4.607130e-01  -2.322949e-01  3.888562e-02  1.026735e-01  -2.062301e-01  2.144043e-02  -1.240535e-01  -2.063188e-01  -1.309128e-01  -2.791486e-01  2.709026e-01  -1.789785e-01  6.697790e-02  -1.061016e-01  -2.262971e-01  -1.479996e-01  3.093333e-01  6.948754e-02  1.282245e-01  2.986784e-01  -2.711464e-02  -8.584629e-02  -3.241496e-02  -3.550021e-01  1.251178e-01  -9.623215e-02  -2.741613e-01  -2.744261e-02  -2.100435e-01  6.915109e-02  -1.766117e-01  2.482344e-02  2.183033e-01  6.995932e-02  -9.010749e-02  -1.117997e-01  -9.876644e-02  2.871617e-01  2.205884e-01  -4.113768e-02  -1.059153e-01  2.051173e-01  8.537350e-02  4.348447e-01  1.872826e-01  9.746879e-02  8.699843e-02  -2.752132e-01  -1.375936e-02  1.382617e-01  -9.039590e-02  1.826249e-01  1.637065e-02  -2.614072e-01  8.509844e-02  -1.827669e-01  -1.112322e-01  -5.594758e-02  2.599145e-02  1.322325e-01  2.021768e-01  9.902609e-02  1.707730e-01  5.972148e-02  2.193942e-01  1.722101e-01  -2.563160e-01  -4.854735e-02  -1.374989e-01  3.115829e-01  -3.659164e-02  3.471281e-01  3.615019e-01  1.091500e-01  2.533495e-01  7.291774e-02  3.864086e-03  2.871031e-02  1.843418e-01  4.506264e-02  -2.427312e-01  -4.880725e-01  2.697253e-01  -3.058503e-01  -5.459622e-01  -1.145726e-01  2.022343e-01  9.651203e-02  -2.548864e-01  -1.877376e-01  -1.935615e-01  4.760370e-02  1.792230e-01  5.942519e-01  6.343206e-02  4.323800e-01  -1.742704e-01  1.150523e-01  -5.510350e-02  2.363040e-02  1.159216e-01  -6.477731e-03  2.248150e-01  -3.706098e-01  4.379184e-02  -5.299494e-02  1.873702e-01  -2.712401e-01  -3.224947e-01  -2.534059e-02  -1.788508e-02  4.264052e-02  -2.898756e-01  1.876718e-01  -7.757579e-02  -1.559573e-01  -4.893604e-02  -1.939058e-01  2.987405e-01  -1.876353e-01  1.152240e-01  -2.671053e-01  -1.826951e-02  -1.578557e-01  2.173830e-01  8.608231e-03  -1.816371e-02  7.341691e-02  -1.265271e-01  4.884917e-01  -1.560758e-01  1.376443e-01  -2.134025e-01  9.118841e-02  -7.730464e-01  -9.795780e-02  1.145694e-01  1.223266e-02  3.556354e-02  2.816848e-01  -4.221114e-01  -1.325855e-01  1.186029e-02  -3.534518e-01  -4.325256e-02  -4.753730e-01  -5.178072e-03  2.917973e-01  3.328734e-01  3.303601e-01  -4.184422e-01  -8.092210e-02  1.079503e-02  -1.073747e-01  2.955698e-02  1.753626e-01  -3.116320e-02  -2.025080e-02  4.226267e-01  2.607932e-01  -7.419087e-02  -1.255938e-01  4.163992e-01  3.593746e-01  -1.048512e-01  -5.115256e-01  2.276107e-01  1.873272e-01  -4.000681e-02  1.468310e-01  6.052212e-02  3.839790e-01  6.671724e-02  2.800471e-02  -4.334649e-02  -1.435335e-01  3.474659e-01  -4.625885e-01  1.217458e-01  -6.046519e-01  1.328011e-01  -5.594006e-01  1.482222e-01  -1.862910e-01  -3.352902e-01  -1.269668e-01  -1.857135e-01  -1.791806e-01  9.733880e-02  2.143945e-01  3.109327e-01  -3.546138e-01  -2.368430e-02  3.258139e-02  -3.318415e-01  -1.438361e-02  -3.373264e-02  -2.286758e-02  -1.904986e-01  2.534720e-01  -2.996897e-01  2.882819e-01  1.223723e-01  1.478213e-01  4.803690e-02  4.041067e-01  -1.505705e-01  1.662873e-01  1.730459e-01  -2.463461e-01  -9.404498e-02  1.119147e-01  -3.231751e-01  -8.707350e-01  -2.351781e-01  8.173089e-02  -7.917613e-03  -3.912718e-02  -1.640126e-01  -1.725746e-01  4.745512e-02  -1.873042e-01  -1.513170e-01  1.794192e-01  -5.385729e-02  -5.069696e-01  2.045133e-01  2.054899e-01  -2.645243e-01  1.549499e-01  1.042633e-01  -1.474394e-02  -1.804437e-01  1.674490e-01  1.890312e-01  1.902677e-01  -1.398098e-01  1.319471e-01  -8.470558e-04  1.332764e-01  3.342896e-01  -1.150041e-01  1.180268e-01  1.486566e-01  -2.317838e-01  -8.556173e-02  -3.661763e-02  -2.064830e-01  3.047883e-01  1.254192e-01  3.046760e-01  2.142846e-01  -6.070039e-02  8.483754e-02  -5.533224e-02  3.617653e-01  2.991037e-02  2.553650e-01  -2.490979e-03  -3.510939e-02  -1.166259e-01  -2.660117e-01  2.713191e-01  6.973824e-02  1.877159e-01  -2.473937e-01  -3.796171e-01  2.907723e-01  -9.443253e-02  1.837474e-01  -1.673752e-02  -2.795749e-01  6.735027e-02  -1.997490e-01  1.326659e-02  -7.793110e-03  1.561326e-01  -2.660883e-01  2.673593e-01  -2.726879e-01  1.698703e-01  -2.004702e-01  -2.119408e-01  -2.536357e-01  -1.491134e-01  -1.546020e-01  4.021163e-01  -1.267289e-01  -3.446312e-01  2.207433e-01  -5.024042e-01  2.707603e-01  5.158862e-01  -6.131633e-01  8.635911e-02  2.620274e-01  -1.675696e-01  1.550520e-01  4.327351e-02  -2.006877e-01  -2.762420e-01  1.290409e-01  1.253020e-01  -8.092522e-03  -2.677110e-01  5.003521e-02  -8.691642e-01  -1.882944e-01  -3.894336e-01  1.355418e-01  -2.056569e-01  -1.751664e-01  -1.703146e-01  -6.396556e-01  1.074110e-01  1.034010e-01  -1.230021e-02  2.515989e-01  -2.004767e-01  2.716739e-01  1.907995e-01  5.113198e-01  -9.916199e-01  -4.388089e-01  5.422735e-02  3.223702e-01  1.588566e-02  1.410225e-01  1.040411e-01  2.576489e-01  -2.063464e-01  -1.821132e-01  2.598900e-03  -3.916858e-01  9.650329e-02  -4.821884e-02  -5.787986e-02  9.411265e-02  -6.724896e-02  -1.036411e-01  -1.161650e-01  1.046943e-02  1.265471e-01  -1.976988e-01  -7.052685e-02  -9.129230e-02  -4.959991e-02  -2.534342e-01  -2.709907e-02  -2.346451e-01  -1.010562e-01  -1.698332e-01  -1.844808e-01  -1.968251e-01  -1.728043e-01  1.807665e-01  8.310974e-02  -3.010610e-01  -2.671763e-01  -2.420220e-01  -1.862025e-01  -1.340462e-01  -1.157499e-01  7.304116e-02  1.443890e-01  -2.756572e-02  -1.379932e-01  -1.912921e-01  8.757942e-02  -2.499298e-01  -2.662161e-01  -2.395635e-02  7.864653e-02  1.564068e-01  -2.322887e-01  5.688555e-02  6.529086e-02  -5.400705e-02  -7.278469e-02  3.272282e-02  -2.755455e-01  1.921595e-01  6.610905e-02  -1.980985e-01  1.000438e-01  -1.810880e-01  -5.377629e-02  -5.283081e-02  1.076667e-01  -6.059192e-03  3.046940e-01  1.078844e-01  -1.322354e-01  5.699440e-02  -1.469159e-02  -6.299480e-01  1.325945e-01  -6.840624e-02  -8.045882e-02  -9.619015e-02  -2.395943e-01  4.071687e-01  1.217548e-01  -6.797456e-02  5.574411e-02  -1.461697e-01  -3.356230e-01  7.520058e-02  3.505150e-01  1.117804e-01  2.521926e-01  2.760939e-01  -1.868528e-01  -4.921803e-01  -5.553589e-02  -1.296482e-01  -4.259611e-01  -3.428698e-01  6.426984e-02  1.444688e-01  9.277406e-02  -2.770149e-01  5.879059e-03  4.666923e-01  -8.840144e-02  3.381114e-01  -1.324319e-01  -2.523339e-01  -3.658388e-01  -8.780450e-02  2.064868e-01  -6.073561e-02  -9.846274e-02  -5.580641e-01  2.252417e-01  1.820354e-01  -5.534157e-02  -2.150953e-01  -1.641237e-02  2.028171e-01  9.315641e-02  5.863604e-02  -2.146426e-02  -4.854647e-02  -4.013770e-01  -1.230631e-01  1.785509e-01  -2.513956e-01  -8.428978e-01  2.038091e-01  -3.150336e-01  2.235474e-02  -4.941412e-01  2.278887e-01  1.583117e-01  3.430062e-01  5.672970e-01  -2.025128e-01  -2.394915e-01  8.320180e-02  -5.773825e-02  1.278477e-01  1.467231e-01  -1.320627e-01  -2.405114e-01  -6.020901e-02  -6.657692e-02  8.762828e-02  1.900019e-01  -4.280108e-01  2.061582e-01  -4.154355e-01  3.262427e-01  9.561417e-02  -7.170999e-02  2.040270e-01  -2.926501e-02  1.030672e-01  -2.003929e-01  1.078114e-01  1.808075e-01  -1.518154e-01  1.273688e-01  7.998805e-02  1.556675e-02  -2.030260e-01  1.079344e-01  1.685973e-01  3.444621e-02  3.011736e-01  -7.576863e-01  2.795123e-01  4.622122e-01  2.238725e-01  4.120629e-02  2.247733e-01  5.163225e-02  2.836167e-01  1.937641e-01  2.558254e-01  -1.171651e-02  -5.650137e-01  -1.542353e-02  -6.601363e-02  2.494996e-01  -1.684770e-01  3.876797e-02  2.339544e-01  1.284114e-01  -2.789529e-01  2.952664e-02  9.116299e-02  -5.722399e-01  -1.125404e+00  3.962248e-01  -4.760071e-01  6.708707e-03  -1.052392e-01  2.453765e-02  9.924000e-02  -6.689872e-03  -2.914179e-01  -4.668167e-01  5.253267e-02  -2.983141e-01  4.306307e-02  -4.442343e-02  3.013597e-01  -1.192578e-01  -3.499774e-01  1.473049e-01  -2.351150e-01  -3.419408e-01  -1.455507e-01  -9.430726e-01  -1.539931e-01  4.257710e-02  1.782366e-02  7.482267e-02  -3.751671e-02  -1.653084e-02  -1.186692e-02  1.106597e-01  2.239705e-01  -1.620515e-01  5.440244e-03  -1.686535e-01  -2.273189e-01  2.766798e-02  -1.803569e-02  1.576938e-01  -3.048158e-04  2.882857e-02  -2.053298e-01  -8.792157e-02  -1.932342e-01  -2.175800e-01  -1.518342e-01  1.701869e-01  4.358560e-02  -2.136785e-01  1.636521e-01  1.048600e-01  -7.202395e-02  -1.117980e-02  1.071654e-01  -1.324445e-01  -1.223311e-01  -4.142429e-02  -1.412972e-01  -2.359741e-01  -1.787031e-01  7.161477e-02  -2.349168e-01  2.718394e-02  -1.618014e-01  -1.723873e-01  -1.291485e-01  3.855444e-03  -7.200924e-02  4.010392e-02  2.323935e-01  1.122632e-01  -1.109472e-01  -7.716003e-02  2.449328e-01  -8.216026e-02  1.607630e-01  -1.639384e-01  3.550214e-03  -6.671898e-01  -6.216508e-01  5.971511e-02  1.152254e-01  -1.817321e-01  -4.600871e-01  3.918511e-02  -3.679720e-01  -5.128126e-01  -2.625268e-01  -8.061833e-01  -5.590671e-01  -1.450404e-01  3.088265e-02  4.001857e-02  3.866249e-01  -2.200114e-01  -2.680168e-01  2.602279e-01  4.578449e-01  -1.757347e-01  2.491039e-01  3.737983e-01  3.898297e-02  2.099591e-01  1.090667e-01  3.262865e-01  1.841406e-01  2.913178e-03  -1.173218e-01  -4.358429e-02  9.544301e-02  -6.980148e-02  -8.426649e-02  2.262407e-01  -3.899705e-01  1.113114e-01  1.791116e-01  4.356249e-01  3.714133e-01  -3.037800e-01  -6.473287e-01  -3.567780e-01  -3.442656e-01  2.151269e-01  2.360944e-01  -4.582784e-01  8.708419e-02  -2.826166e-01  -1.469007e-01  -7.497411e-02  6.871371e-02  -1.917134e-01  -2.062817e-02  2.628879e-01  1.706786e-01  1.282017e-01  2.531879e-01  -5.561093e-01  -3.392792e-01  1.816315e-01  -5.425677e-01  1.463474e-02  2.795340e-01  -2.560958e-01  -3.876357e-01  -2.977290e-01  -3.038551e-01  -8.395200e-02  5.176978e-01  1.458168e-01  3.749624e-02  -2.372547e-01  2.233807e-01  -5.374166e-02  9.305974e-02  -1.983500e-01  1.546741e-01  3.181084e-02  -2.164242e-01  -1.406088e-01  -2.880895e-01  -2.870442e-01  6.850564e-02  1.812529e-01  3.671323e-01  1.332592e-01  -4.247505e-02  -3.020407e-01  3.809951e-01  1.212696e-02  -2.851386e-01  -1.079985e-01  1.508746e-01  -1.662061e+00  -6.223890e-02  9.306322e-03  -2.860659e-01  2.204306e-01  5.391455e-02  
      </Weights>
      <Biases Rows="50" Columns="1">
        -3.013800e-02  -3.785501e-02  1.924744e-04  -3.100958e-02  5.699643e-02  -5.836819e-03  -1.293490e-02  6.527805e-02  -2.034203e-02  -9.180222e-02  5.290968e-02  -4.212710e-02  1.018670e-02  3.276994e-02  7.055865e-02  -4.196972e-02  -5.986683e-02  3.742253e-02  5.957345e-02  1.131976e-02  -4.968506e-03  -9.166443e-02  9.583220e-03  7.948960e-02  1.918000e-02  2.539883e-02  1.718906e-02  2.583891e-04  8.714090e-02  -1.304746e-02  -3.829250e-03  -2.858497e-02  -6.623071e-02  3.058630e-03  -8.474125e-04  1.322632e-02  4.724769e-02  8.637378e-03  -1.381299e-02  -2.292746e-02  9.183764e-03  1.204471e-02  5.768830e-02  -8.160419e-02  2.794908e-02  -2.406733e-02  1.327912e-01  0.000000e+00  -2.158392e-03  8.311713e-02  
      </Biases>
    </DenseLayer>
    <DenseLayer Width="50" ActivationFunction="1">
      <Weights Rows="50" Columns="50">
