<?xml version="1.0"?>
<MethodSetup Method="DL::DNN_CPU">
  <GeneralInfo>
    <Info name="TMVA Release" value="4.2.1 [262657]"/>
    <Info name="ROOT Release" value="6.24/06 [399366]"/>
    <Info name="Creator" value="rshara01-local"/>
    <Info name="Date" value="Wed Sep 22 15:01:08 2021"/>
    <Info name="Host" value="Darwin christophers-mac-mini.home 20.6.0 Darwin Kernel Version 20.6.0: Wed Jun 23 00:26:27 PDT 2021; root:xnu-7195.141.2~5/RELEASE_ARM64_T8101 arm64"/>
    <Info name="Dir" value="/Users/rshara01-local/WORK/linacTune/tmva"/>
    <Info name="Training events" value="5000"/>
    <Info name="TrainingTime" value="3.37958503e+00"/>
    <Info name="AnalysisType" value="Regression"/>
  </GeneralInfo>
  <Options>
    <Option name="V" modified="Yes">True</Option>
    <Option name="VerbosityLevel" modified="No">Verbose</Option>
    <Option name="VarTransform" modified="Yes">G</Option>
    <Option name="H" modified="Yes">False</Option>
    <Option name="CreateMVAPdfs" modified="No">False</Option>
    <Option name="IgnoreNegWeightsInTraining" modified="No">False</Option>
    <Option name="InputLayout" modified="No">0|0|0</Option>
    <Option name="BatchLayout" modified="No">0|0|0</Option>
    <Option name="Layout" modified="Yes">TANH|50,TANH|50,TANH|50,LINEAR</Option>
    <Option name="ErrorStrategy" modified="Yes">SUMOFSQUARES</Option>
    <Option name="WeightInitialization" modified="Yes">XAVIERUNIFORM</Option>
    <Option name="RandomSeed" modified="No">0</Option>
    <Option name="ValidationSize" modified="No">20%</Option>
    <Option name="Architecture" modified="Yes">CPU</Option>
    <Option name="TrainingStrategy" modified="Yes">LearningRate=1e-3,Momentum=0.3,ConvergenceSteps=20,BatchSize=30,TestRepetitions=1,WeightDecay=0.0,Regularization=None,Optimizer=Adam</Option>
  </Options>
  <Variables NVar="3">
    <Variable VarIndex="0" Expression="RFQPAH_R" Label="RFQPAH_R" Title="RFQ phase" Unit="units" Internal="RFQPAH_R" Type="D" Min="1.28002930e+02" Max="1.90002441e+02"/>
    <Variable VarIndex="1" Expression="RFBPAH_R" Label="RFBPAH_R" Title="buncher phase" Unit="units" Internal="RFBPAH_R" Type="D" Min="2.15795898e+02" Max="2.58337402e+02"/>
    <Variable VarIndex="2" Expression="V5QSET_R" Label="V5QSET_R" Title="tank5 phase" Unit="units" Internal="V5QSET_R" Type="D" Min="-3.30000000e+01" Max="-2.85000000e+01"/>
  </Variables>
  <Spectators NSpec="6">
    <Spectator SpecIndex="0" Expression="RFQPAH_S" Label="RFQPAH_S" Title="RFQ phase Set" Unit="degrees" Internal="RFQPAH_S" Type="F" Min="1.28002930e+02" Max="1.90002441e+02"/>
    <Spectator SpecIndex="1" Expression="RFBPAH_S" Label="RFBPAH_S" Title="buncher phase Set" Unit="degrees" Internal="RFBPAH_S" Type="F" Min="2.14996277e+02" Max="2.56997131e+02"/>
    <Spectator SpecIndex="2" Expression="V5QSET_S" Label="V5QSET_S" Title="Tank 5 phase" Unit="degrees" Internal="V5QSET_S" Type="F" Min="-3.30000000e+01" Max="-2.85000000e+01"/>
    <Spectator SpecIndex="3" Expression="TO1IN_R" Label="TO1IN_R" Title="to1in" Unit="units" Internal="TO1IN_R" Type="F" Min="2.22277756e+01" Max="2.42592621e+01"/>
    <Spectator SpecIndex="4" Expression="TO5OUT_R" Label="TO5OUT_R" Title="to5out" Unit="units" Internal="TO5OUT_R" Type="F" Min="-4.08233719e+01" Max="3.42947617e+01"/>
    <Spectator SpecIndex="5" Expression="TO3IN_R" Label="TO3IN_R" Title="to3in" Unit="units" Internal="TO3IN_R" Type="F" Min="-1.02136169e+02" Max="1.00574913e+02"/>
  </Spectators>
  <Classes NClass="1">
    <Class Name="Regression" Index="0"/>
  </Classes>
  <Targets NTrgt="3">
    <Target TargetIndex="0" Expression="LMSM" Label="LMSM" Title="LMSM" Unit="" Internal="LMSM" Type="F" Min="1.34887695e+00" Max="3.99658203e+01"/>
    <Target TargetIndex="1" Expression="D7TOR_R" Label="D7TOR_R" Title="D7TOR_R" Unit="" Internal="D7TOR_R" Type="F" Min="2.41185451e+00" Max="2.93067665e+01"/>
    <Target TargetIndex="2" Expression="D00LM_R" Label="D00LM_R" Title="d00lm" Unit="" Internal="D00LM_R" Type="F" Min="3.05175781e-03" Max="8.72802734e-01"/>
  </Targets>
  <Transformations NTransformations="1">
    <Transform Name="Gauss" FlatOrGauss="Gauss">
      <Selection>
        <Input NInputs="3">
          <Input Type="Variable" Label="RFQPAH_R" Expression="RFQPAH_R"/>
          <Input Type="Variable" Label="RFBPAH_R" Expression="RFBPAH_R"/>
          <Input Type="Variable" Label="V5QSET_R" Expression="V5QSET_R"/>
        </Input>
        <Output NOutputs="3">
          <Output Type="Variable" Label="RFQPAH_R" Expression="RFQPAH_R"/>
          <Output Type="Variable" Label="RFBPAH_R" Expression="RFBPAH_R"/>
          <Output Type="Variable" Label="V5QSET_R" Expression="V5QSET_R"/>
        </Output>
      </Selection>
      <Variable VarIndex="0">
        <CumulativePDF_cls0>
          <PDF Name="GaussTransform var0 cls0" MinNSmooth="0" MaxNSmooth="0" InterpolMethod="1" KDE_type="0" KDE_iter="1" KDE_border="1" KDE_finefactor="0.0000000000000000e+00">
            <Histogram Name="Cumulative_Var0_cls0_original" NBins="10" XMin="1.2800282287597656e+02" XMax="1.9000244140625000e+02" HasEquidistantBins="0">
              9.32159051e-02 1.88889652e-01 2.87180543e-01 3.88270646e-01 4.90589648e-01 5.92908680e-01 6.95045650e-01 7.96818435e-01 8.98409247e-01 1.00000000e+00 
            </Histogram>
            <HistogramBinning NBins="10">
              1.28002823e+02 1.28002930e+02 1.35754395e+02 1.43505859e+02 1.51251221e+02 1.59002686e+02 1.66754150e+02 1.74505615e+02 1.82250977e+02 1.90002441e+02 1.90002441e+02 
            </HistogramBinning>
          </PDF>
        </CumulativePDF_cls0>
      </Variable>
      <Variable VarIndex="1">
        <CumulativePDF_cls0>
          <PDF Name="GaussTransform var1 cls0" MinNSmooth="0" MaxNSmooth="0" InterpolMethod="1" KDE_type="0" KDE_iter="1" KDE_border="1" KDE_finefactor="0.0000000000000000e+00">
            <Histogram Name="Cumulative_Var1_cls0_original" NBins="215" XMin="2.1579579162597656e+02" XMax="2.5833740234375000e+02" HasEquidistantBins="0">
              1.19632459e-03 2.39264918e-03 3.58897378e-03 5.13422629e-03 7.72626325e-03 1.15146246e-02 1.59509946e-02 2.05369052e-02 2.51228176e-02 2.96588819e-02 3.40329446e-02 3.82325426e-02 4.23698314e-02 4.65071201e-02 5.14544211e-02 5.80217429e-02 6.53990805e-02 7.28262588e-02 8.03531408e-02 8.79423246e-02 9.55564305e-02 1.03170536e-01 1.10161558e-01 1.15196094e-01 1.18137054e-01 1.20330319e-01 1.22523583e-01 1.24816537e-01 1.27308875e-01 1.29900917e-01 1.32492959e-01 1.35016456e-01 1.37386248e-01 1.39888987e-01 1.43480033e-01 1.48826107e-01 1.55405894e-01 1.62783220e-01 1.71300814e-01 1.80840254e-01 1.90728620e-01 2.00754076e-01 2.11010069e-01 2.20717743e-01 2.28780463e-01 2.35061169e-01 2.39634618e-01 2.42637902e-01 2.44694084e-01 2.46417955e-01 2.48108596e-01 2.49981999e-01 2.52175272e-01 2.54617751e-01 2.57259637e-01 2.60051072e-01 2.63291121e-01 2.67428398e-01 2.72276014e-01 2.77397782e-01 2.83479095e-01 2.91786909e-01 3.01889211e-01 3.11991483e-01 3.20876688e-01 3.28812718e-01 3.36566001e-01 3.43804181e-01 3.49339247e-01 3.52766216e-01 3.54959488e-01 3.56803805e-01 3.58598292e-01 3.60392779e-01 3.62424046e-01 3.65078390e-01 3.68318439e-01 3.72156650e-01 3.77141327e-01 3.83459419e-01 3.91084611e-01 4.00133193e-01 4.09851968e-01 4.18849319e-01 4.26666975e-01 4.33795065e-01 4.40474540e-01 4.46854949e-01 4.52549934e-01 4.56874162e-01 4.59964663e-01 4.62157935e-01 4.63952422e-01 4.65647221e-01 4.67142612e-01 4.68638033e-01 4.70532209e-01 4.73037004e-01 4.76364285e-01 4.80850488e-01 4.86645192e-01 4.94035006e-01 5.02882838e-01 5.12254000e-01 5.21625221e-01 5.30996442e-01 5.39968848e-01 5.47857165e-01 5.54424465e-01 5.59490144e-01 5.63180923e-01 5.66206992e-01 5.68776190e-01 5.70907176e-01 5.72901011e-01 5.74894905e-01 5.76689422e-01 5.78039408e-01 5.79084098e-01 5.80397427e-01 5.83649278e-01 5.90221405e-01 5.99129498e-01 6.08760297e-01 6.18108690e-01 6.26779974e-01 6.35104358e-01 6.43129706e-01 6.49958730e-01 6.55092955e-01 6.59167945e-01 6.62619829e-01 6.65760219e-01 6.68738544e-01 6.71392858e-01 6.73785508e-01 6.75978780e-01 6.77972674e-01 6.79725647e-01 6.81362271e-01 6.83239818e-01 6.85482919e-01 6.87875569e-01 6.90517485e-01 6.93720102e-01 6.97346509e-01 7.01184690e-01 7.05172420e-01 7.09459245e-01 7.14394093e-01 7.20363259e-01 7.27670014e-01 7.35828280e-01 7.43720651e-01 7.50749111e-01 7.56830394e-01 7.62014449e-01 7.66799748e-01 7.71086633e-01 7.74226964e-01 7.76569784e-01 7.78762996e-01 7.80956268e-01 7.83149540e-01 7.85461187e-01 7.88163304e-01 7.91380525e-01 7.94948697e-01 7.98884511e-01 8.03634524e-01 8.09290051e-01 8.15682948e-01 8.22910726e-01 8.30686808e-01 8.38562667e-01 8.46413493e-01 8.53716075e-01 8.59996796e-01 8.65779042e-01 8.71561229e-01 8.77144098e-01 8.82328153e-01 8.87013793e-01 8.90702426e-01 8.93003702e-01 8.94341290e-01 8.95620704e-01 8.97315443e-01 8.99309337e-01 9.01552439e-01 9.03994977e-01 9.06549573e-01 9.09228861e-01 9.11970437e-01 9.14811730e-01 9.18001890e-01 9.21653211e-01 9.25578654e-01 9.29566383e-01 9.33554113e-01 9.37641561e-01 9.42339659e-01 9.48009729e-01 9.54190731e-01 9.60421622e-01 9.66652453e-01 9.72808540e-01 9.78815079e-01 9.84148681e-01 9.88285959e-01 9.91538525e-01 9.94167924e-01 9.96311307e-01 9.98205543e-01 1.00000000e+00 
            </Histogram>
            <HistogramBinning NBins="215">
              2.15795792e+02 2.15795898e+02 2.15844727e+02 2.15869141e+02 2.15881348e+02 2.15893555e+02 2.15905762e+02 2.15917969e+02 2.15930176e+02 2.15942383e+02 2.15954590e+02 2.15966797e+02 2.15979004e+02 2.15991211e+02 2.16003418e+02 2.16015625e+02 2.16027832e+02 2.16040039e+02 2.16052246e+02 2.16064453e+02 2.16076660e+02 2.16088867e+02 2.16101074e+02 2.16113281e+02 2.16125488e+02 2.16137695e+02 2.16149902e+02 2.16162109e+02 2.20886230e+02 2.20910645e+02 2.20947266e+02 2.20959473e+02 2.20971680e+02 2.20983887e+02 2.20996094e+02 2.21008301e+02 2.21020508e+02 2.21032715e+02 2.21044922e+02 2.21057129e+02 2.21069336e+02 2.21081543e+02 2.21093750e+02 2.21105957e+02 2.21118164e+02 2.21130371e+02 2.21142578e+02 2.21154785e+02 2.21166992e+02 2.21191406e+02 2.26354980e+02 2.26391602e+02 2.26403809e+02 2.26416016e+02 2.26428223e+02 2.26440430e+02 2.26452637e+02 2.26464844e+02 2.26477051e+02 2.26489258e+02 2.26501465e+02 2.26513672e+02 2.26525879e+02 2.26538086e+02 2.26550293e+02 2.26562500e+02 2.26574707e+02 2.26586914e+02 2.26599121e+02 2.26611328e+02 2.26623535e+02 2.26635742e+02 2.26672363e+02 2.31469727e+02 2.31494141e+02 2.31506348e+02 2.31518555e+02 2.31530762e+02 2.31542969e+02 2.31555176e+02 2.31567383e+02 2.31579590e+02 2.31591797e+02 2.31604004e+02 2.31616211e+02 2.31628418e+02 2.31640625e+02 2.31652832e+02 2.31665039e+02 2.31677246e+02 2.31689453e+02 2.31701660e+02 2.31713867e+02 2.31726074e+02 2.36877441e+02 2.36914062e+02 2.36926270e+02 2.36950684e+02 2.36962891e+02 2.36975098e+02 2.36987305e+02 2.36999512e+02 2.37011719e+02 2.37023926e+02 2.37036133e+02 2.37048340e+02 2.37060547e+02 2.37072754e+02 2.37084961e+02 2.37097168e+02 2.37109375e+02 2.37121582e+02 2.37133789e+02 2.37145996e+02 2.37158203e+02 2.37182617e+02 2.41955566e+02 2.41967773e+02 2.41979980e+02 2.41992188e+02 2.42004395e+02 2.42016602e+02 2.42028809e+02 2.42041016e+02 2.42053223e+02 2.42065430e+02 2.42077637e+02 2.42089844e+02 2.42102051e+02 2.42114258e+02 2.42126465e+02 2.42138672e+02 2.42150879e+02 2.42163086e+02 2.42175293e+02 2.42187500e+02 2.42199707e+02 2.42211914e+02 2.42236328e+02 2.47387695e+02 2.47412109e+02 2.47424316e+02 2.47436523e+02 2.47448730e+02 2.47460938e+02 2.47473145e+02 2.47485352e+02 2.47497559e+02 2.47509766e+02 2.47521973e+02 2.47534180e+02 2.47546387e+02 2.47558594e+02 2.47570801e+02 2.47583008e+02 2.47595215e+02 2.47607422e+02 2.47619629e+02 2.47631836e+02 2.47644043e+02 2.47656250e+02 2.47668457e+02 2.47680664e+02 2.47790527e+02 2.52502441e+02 2.52539062e+02 2.52551270e+02 2.52563477e+02 2.52575684e+02 2.52587891e+02 2.52600098e+02 2.52612305e+02 2.52624512e+02 2.52636719e+02 2.52648926e+02 2.52661133e+02 2.52673340e+02 2.52685547e+02 2.52697754e+02 2.52709961e+02 2.52722168e+02 2.52734375e+02 2.52746582e+02 2.52758789e+02 2.52770996e+02 2.52783203e+02 2.52856445e+02 2.57910156e+02 2.57922363e+02 2.57934570e+02 2.57946777e+02 2.57958984e+02 2.57971191e+02 2.57983398e+02 2.57995605e+02 2.58007812e+02 2.58020020e+02 2.58032227e+02 2.58044434e+02 2.58056641e+02 2.58068848e+02 2.58081055e+02 2.58093262e+02 2.58105469e+02 2.58117676e+02 2.58129883e+02 2.58142090e+02 2.58154297e+02 2.58166504e+02 2.58178711e+02 2.58190918e+02 2.58203125e+02 2.58215332e+02 2.58227539e+02 2.58251953e+02 2.58337402e+02 
            </HistogramBinning>
          </PDF>
        </CumulativePDF_cls0>
      </Variable>
      <Variable VarIndex="2">
        <CumulativePDF_cls0>
          <PDF Name="GaussTransform var2 cls0" MinNSmooth="0" MaxNSmooth="0" InterpolMethod="1" KDE_type="0" KDE_iter="1" KDE_border="1" KDE_finefactor="0.0000000000000000e+00">
            <Histogram Name="Cumulative_Var2_cls0_original" NBins="8" XMin="-3.3000099182128906e+01" XMax="-2.8500000000000000e+01" HasEquidistantBins="0">
              1.10597238e-01 2.31799692e-01 3.59540701e-01 4.89753604e-01 6.20066166e-01 7.49621272e-01 8.77202749e-01 1.00000000e+00 
            </Histogram>
            <HistogramBinning NBins="8">
              -3.30000992e+01 -3.30000000e+01 -3.22500000e+01 -3.15000000e+01 -3.07500000e+01 -3.00000000e+01 -2.92500000e+01 -2.85000000e+01 -2.85000000e+01 
            </HistogramBinning>
          </PDF>
        </CumulativePDF_cls0>
      </Variable>
    </Transform>
  </Transformations>
  <MVAPdfs/>
  <Weights NetDepth="4" InputDepth="1" InputHeight="1" InputWidth="3" BatchSize="1" BatchDepth="1" BatchHeight="30" BatchWidth="3" LossFunction="R" Initialization="F" Regularization="0" OutputFunction="I" WeightDecay="0.0000000000000000e+00">
    <DenseLayer Width="50" ActivationFunction="3">
      <Weights Rows="50" Columns="3">
        -1.498990e-01  -6.813874e-01  -1.184284e-01  3.190824e-02  3.334977e-01  -4.812633e-01  -1.550094e-02  3.360996e-01  3.846115e-01  -7.008646e-02  4.466532e-02  -3.505851e-01  3.986572e-02  -1.221836e-01  -3.814847e-01  -1.964491e-02  1.019646e-01  -1.128529e+00  -3.906662e-02  3.047895e-01  4.094799e-01  8.468115e-02  -1.184092e-01  -7.089391e-01  5.734534e-01  -9.263168e-02  2.147387e-01  6.328090e-02  2.151450e-02  -1.289596e+00  5.787772e-02  -1.885430e-02  -9.110449e-01  -1.494823e+00  -6.544545e-01  -5.425297e-01  -8.853029e-03  -3.108322e-02  9.905487e-01  -1.545127e-02  6.839356e-01  8.280629e-01  -1.495748e+00  -2.007826e-01  -5.555802e-02  -3.249150e-01  4.666126e-02  -3.233784e-01  -5.725336e-03  -3.309901e-01  -2.776191e-01  -2.904171e-02  -4.668601e-01  -3.426989e-01  -8.725208e-01  -3.449727e-02  9.348060e-01  -5.236503e-02  6.610551e-01  -3.429137e-01  2.403616e+00  -2.673077e-01  -6.736489e-02  -6.618559e-02  -4.094674e-02  6.102444e-01  3.291682e-02  -8.622447e-02  -1.124125e+00  2.055945e-03  8.272851e-01  3.616351e-01  -1.685084e-02  6.057390e-01  -2.399629e-01  -2.780172e-01  6.774075e-02  1.103831e-01  -3.142178e-01  5.677807e-01  4.608317e-01  -1.782533e-01  1.117799e-01  -3.062609e-01  9.176608e-02  -6.058672e-01  -1.078537e-01  -3.846259e-01  5.614540e-01  4.210942e-01  1.779316e+00  6.592549e-02  -6.020290e-02  -1.012912e-02  5.493736e-01  -1.687436e-01  -5.882602e-01  -1.084814e-01  2.195324e-01  -2.319791e-01  5.142394e-01  -7.152116e-01  9.792398e-02  1.019284e-01  2.863708e-01  1.866526e-02  7.215564e-01  1.807419e-01  -9.462468e-02  -4.472377e-01  -2.845239e-01  4.466912e-02  -7.344350e-01  -2.153923e-01  -7.042284e-02  1.092971e-01  -3.809443e-01  8.736073e-01  1.033583e-01  -3.621383e-01  -1.395015e+00  8.533171e-01  3.675247e-02  1.115354e-01  -8.037289e-03  -1.424384e+00  3.478930e-03  -5.469549e-01  4.959719e-01  4.530985e-02  -5.575268e-01  -5.058682e-02  -3.066108e-01  -1.767116e-01  3.763171e-01  -1.785508e-01  4.899271e-01  -8.154077e-01  3.460273e-02  -3.980327e-01  -7.283513e-01  -1.362399e-01  -9.106879e-02  -5.081877e-02  -1.124471e-01  3.861031e-01  -7.228908e-01  -7.237663e-01  -2.354147e-01  6.538628e-01  
      </Weights>
      <Biases Rows="50" Columns="1">
        -3.040547e-01  -4.530408e-01  2.910587e-01  -3.489265e-01  -3.547770e-01  2.443173e-01  2.994451e-01  -3.799588e-01  3.222129e-01  2.754583e-01  -5.150234e-03  2.567323e-01  1.988313e-01  -4.312452e-01  3.960387e-01  -3.564483e-01  -3.193102e-01  -2.548161e-01  3.304727e-01  6.604056e-01  -1.313849e-02  4.377107e-01  -2.013213e-01  6.248825e-01  6.721303e-01  -2.749766e-01  -5.829395e-01  -3.260559e-01  3.751568e-01  -5.438399e-01  -1.418097e-01  -4.214796e-01  -3.154816e-01  1.921744e-01  2.318401e-01  -4.437462e-01  4.446988e-01  5.970663e-01  -3.422038e-01  2.474366e-01  4.801199e-01  4.282253e-02  5.562384e-01  4.280254e-01  4.052435e-01  2.095871e-01  -2.924357e-01  -3.517721e-01  1.192438e-01  3.534915e-01  
      </Biases>
    </DenseLayer>
    <DenseLayer Width="50" ActivationFunction="3">
      <Weights Rows="50" Columns="50">
        2.873987e-03  2.277107e-01  -2.191307e-01  1.817739e-01  3.773156e-01  2.438530e-01  -3.191556e-01  2.939098e-01  1.387701e-01  -1.636946e-02  1.863819e-01  -5.573708e-01  2.533645e-02  3.093043e-01  -3.594000e-01  -4.093232e-02  2.993667e-01  -7.879026e-02  5.497467e-02  1.348937e-01  3.315861e-01  -6.338023e-01  1.068177e-01  -2.829718e-01  -3.473402e-01  1.593634e-01  1.249071e-01  -4.985832e-02  -2.362580e-01  2.028457e-01  2.988082e-01  3.381470e-01  3.248823e-01  -1.004653e-01  -8.537363e-02  2.719511e-01  -3.908510e-02  -6.764947e-02  4.590246e-01  2.501319e-01  1.044267e-02  1.279549e-01  4.448456e-02  -4.205354e-01  -3.663868e-01  2.859423e-01  7.283457e-02  3.162080e-01  -1.587750e-01  -2.759574e-01  -9.604641e-02  -2.681633e-01  1.889312e-01  -4.578648e-01  -2.849442e-01  4.025193e-02  4.112790e-01  1.796694e-02  3.007425e-01  2.684091e-01  4.173764e-01  -9.264673e-01  -5.924270e-01  -2.328105e-01  8.171231e-03  -6.369930e-02  -2.362961e-01  -3.425030e-01  -2.315099e-01  -4.412563e-01  -2.498686e-01  -1.944858e-01  4.370835e-01  2.592832e-01  -3.127446e-01  -7.594235e-02  1.880731e-01  -5.192877e-02  2.728857e-01  3.216486e-01  -3.333089e-02  -2.070156e-01  -2.536198e-01  2.458460e-01  4.419242e-01  -3.075208e-01  -6.653202e-01  -2.230990e-01  -2.918854e-01  1.430998e-01  3.560235e-01  2.938907e-01  1.802166e-01  2.098359e-01  3.094868e-02  2.792188e-02  -8.543300e-03  -3.841622e-01  9.935395e-02  -5.594295e-01  -2.692596e-01  4.834336e-01  1.081517e-01  1.420941e-01  4.851297e-03  4.043004e-03  6.039001e-02  -3.605226e-01  -5.243170e-01  -6.728488e-02  -2.632739e-01  8.413652e-02  1.102121e-01  1.238743e+00  -4.636349e-02  2.321792e-01  2.758975e-01  2.421731e-02  3.892033e-01  2.165003e-02  -4.305553e-01  -3.098134e-01  -3.839312e-01  -5.149256e-02  -2.758123e-01  5.450501e-01  1.152711e+00  3.542873e-01  -1.070345e+00  8.058629e-01  -2.204123e-01  6.314737e-01  6.673106e-02  -8.553950e-02  -1.379229e-01  1.292226e+00  -6.217863e-01  -2.214411e+00  2.583019e-01  -2.416541e-01  -1.074394e-01  -1.288935e-01  -3.469023e-01  -1.286476e+00  -1.619755e-01  -1.763101e-01  -4.126680e-01  3.032959e-01  1.675634e-01  -4.075180e-01  -8.580997e-01  -9.757189e-02  5.268466e-04  -3.481050e-01  -1.494165e-02  -5.042898e-02  2.970162e-01  1.052542e-01  5.438804e-02  1.531543e-01  1.011107e-02  -1.281733e-01  -1.965270e-01  -1.497546e-01  1.156319e-02  -3.031005e-01  -6.353243e-02  8.840836e-02  -2.408901e-01  3.179978e-01  -1.029723e+00  2.992407e-02  1.174147e-01  -2.286137e-01  4.055911e-01  -9.240588e-01  -5.484501e-01  -9.582414e-02  -2.380457e-01  -6.560587e-01  -7.010587e-01  -3.463363e-01  -4.411631e-01  2.434175e-02  3.141846e-01  3.725870e-01  -4.573119e-02  -2.938367e-02  -6.372471e-02  6.860875e-01  6.966705e-01  -2.242132e-02  1.080452e-01  -5.904222e-02  1.851125e-01  1.037056e-01  2.534008e-01  -8.512817e-01  9.973068e-02  1.179488e-01  1.753349e-01  1.438774e-01  -4.398474e-01  4.080895e-01  4.744220e-01  1.032311e+00  -5.009794e-01  6.251218e-01  -8.780558e-03  9.677727e-01  6.483253e-01  1.972627e-01  -7.735845e-01  -1.047899e+00  -2.572140e-03  1.425864e-01  3.248119e-01  3.288030e-01  -6.677672e-02  -3.827331e-03  4.192202e-01  -6.328455e-01  1.936641e+00  -5.691636e-02  2.961850e-01  2.540314e-01  -1.956650e-01  1.986855e-01  4.250730e-01  3.713309e-02  2.809495e-01  -1.700190e-01  -2.402824e-01  6.162470e-01  -4.171261e-01  -2.587521e-01  7.969445e-01  7.361830e-01  4.331699e-01  2.519260e-01  -1.690477e-02  8.267277e-01  1.830958e-01  6.449673e-01  1.699290e-01  4.411565e-01  3.803738e-01  2.550566e-01  2.830272e-01  -2.140239e-01  -3.258740e-01  -1.634635e-02  3.234361e-01  -4.182326e-01  -4.815499e-01  5.020654e-02  -1.151666e-01  -5.157873e-03  2.065165e-01  8.644512e-02  1.204342e-01  1.831798e-02  8.421656e-02  -2.759457e-01  -2.439843e-02  -2.580717e-01  -1.947989e-01  -5.699829e-02  -9.642431e-02  2.080649e-01  -3.527800e-01  2.379390e-01  2.619091e-01  9.560229e-02  2.646352e-01  -5.156152e-01  -4.024535e-01  -9.022237e-02  -1.290160e-03  -2.595786e-01  1.358224e-01  -4.643132e-01  -7.691157e-02  -1.756941e-01  1.645477e-02  -2.760241e-01  2.358620e-01  1.581727e-01  -3.348275e-02  3.623472e-01  2.895676e-01  -1.877949e-01  3.234477e-01  2.102243e-01  3.419739e-02  9.522664e-02  -6.784330e-02  -4.997938e-01  -2.721382e-02  6.295890e-02  -1.430386e-01  5.382890e-01  1.793242e-01  2.808426e-01  -3.282035e-01  -1.782302e-02  3.573587e-01  -1.927183e-01  -5.601498e-01  8.554044e-02  2.725198e-01  2.774310e-01  9.147208e-02  3.390278e-01  8.106015e-01  5.222192e-01  -3.261466e-01  -3.781089e-01  -8.549514e-02  1.206309e-01  -1.019850e+00  1.517949e-04  1.590630e-01  5.437886e-01  3.952900e-01  7.835546e-01  4.230163e-01  2.875759e-01  -6.633004e-01  9.309358e-01  -7.804772e-01  4.460544e-01  4.799316e-01  4.232902e-01  -1.199922e-01  4.438425e-01  -1.362789e-01  -7.311549e-01  2.302688e-01  -3.263401e-01  1.273205e+00  -2.252226e-01  -6.368447e-01  -6.719147e-01  -2.055674e-01  2.595209e-01  -1.509151e-01  2.370276e-02  2.086016e-01  -1.045122e-01  2.627153e-01  7.995216e-01  -4.255520e-01  1.686981e-01  4.595204e-01  5.056261e-01  -1.095604e-01  8.862612e-01  -2.803588e-01  1.426338e-01  3.684394e-01  3.180780e-01  -6.742972e-01  3.095656e-01  1.303449e-01  3.473166e-01  2.358285e-01  2.525213e-01  -3.300512e-01  9.709677e-02  1.734799e-01  -1.202223e+00  7.973387e-01  -3.748340e-01  -1.798926e-01  -3.418337e-02  2.123933e-01  1.784355e-01  -9.816293e-02  2.206966e-01  1.923335e-01  5.081718e-01  3.110052e-02  2.633287e-01  -4.535647e-01  4.375224e-01  -2.368277e-01  -4.973824e-01  4.686008e-01  3.409555e-02  -2.270069e-01  4.094429e-01  -6.275416e-01  -5.692021e-01  -2.347715e-01  4.466714e-02  -3.795874e-02  1.604654e-01  3.423995e-01  -4.704795e-01  -6.132412e-01  1.211079e-01  7.709891e-01  -3.790886e-02  -4.560146e-01  1.024407e-01  5.279580e-01  -7.524412e-01  3.011738e-01  1.750192e-02  5.322692e-03  4.877067e-01  -1.250759e-01  2.519086e-02  3.205463e-01  -2.668168e-01  -7.965878e-01  -3.776452e-01  4.151619e-01  8.062803e-01  -6.628133e-02  1.452583e-01  -1.300597e-01  8.430229e-01  1.272077e+00  -9.715001e-02  -6.131529e-01  -1.060813e-01  3.671917e-01  -2.871917e-01  -4.091771e-01  1.841152e-03  1.758376e-02  1.476221e-01  1.043254e-01  1.268399e-01  2.066380e-01  3.951706e-01  -1.442980e-01  -3.101387e-02  -4.949330e-02  6.335764e-02  4.491089e-02  1.129455e-01  4.960715e-01  1.250701e-01  -6.637574e-01  -5.286884e-01  6.260779e-01  6.560834e-01  2.217930e-01  5.124735e-01  -7.464580e-02  2.629769e-01  1.344438e-01  6.880084e-01  -1.512278e-01  6.624815e-01  -4.071029e-01  4.795140e-01  5.444805e-01  2.194168e-01  -6.811211e-01  -2.059729e-01  -4.300873e-02  4.496120e-01  3.906106e-01  1.425999e-01  -3.275923e-01  2.037763e-01  3.858265e-01  -8.047938e-01  5.240799e-01  -1.946142e-01  -9.253374e-02  6.955227e-02  -1.937470e-01  1.761531e-01  -3.382271e-01  -3.209789e-01  8.723526e-02  3.812073e-01  -8.026163e-02  3.201241e-01  -1.973983e-01  2.685470e-01  3.271810e-01  9.185433e-02  5.512462e-01  2.062702e-01  -1.020686e-01  5.322263e-01  -6.940711e-01  -2.548234e-01  -2.195310e-01  4.924166e-01  2.943920e-01  6.242701e-02  6.032020e-01  -1.945628e-01  1.433718e-02  3.969360e-01  -3.397392e-01  3.004027e-01  3.649622e-01  1.739914e+00  -4.739988e-01  5.781975e-01  -3.390057e-02  1.755957e+00  9.710535e-01  2.821271e-01  -1.696036e+00  -6.989931e-01  3.333046e-01  3.295089e-01  4.986439e-01  5.079265e-01  -5.515268e-01  1.489417e-01  6.545593e-02  -6.658597e-01  2.553202e+00  -4.820703e-01  1.439712e-01  -2.824437e-01  -5.492547e-01  5.381021e-02  9.401923e-04  -1.618203e-01  -2.926943e-02  3.701817e-01  -4.439807e-01  1.077060e+00  -4.388766e-01  2.328548e-01  6.722329e-01  -1.430525e-01  2.683102e-01  3.910610e-01  1.088893e-01  1.712619e+00  -8.230461e-01  -3.643240e-01  -2.057577e-01  1.089163e+00  6.953607e-01  -2.380533e-01  7.837279e-01  -1.283582e-01  1.362268e+00  -1.412058e-01  -6.151557e-01  9.675145e-02  3.203036e-01  1.212163e-01  -5.715900e-01  3.419130e-01  2.906100e-01  1.188895e-01  2.303623e-02  -1.059357e+00  2.026689e-01  -4.193334e-01  -8.399149e-01  -1.162720e-03  4.663166e-01  4.418867e-01  -3.167930e-01  -6.750808e-01  2.380140e-01  2.016281e-02  -2.603934e-01  -7.012086e-01  -8.673106e-01  3.994914e-01  3.203586e-01  -1.907765e-01  2.666439e-01  5.844132e-01  5.075419e-01  -2.268224e-01  5.309377e-01  -3.474847e-01  8.396844e-02  -3.637499e-01  1.132355e-01  3.122097e-01  1.524173e-01  -7.866678e-01  -5.729058e-01  1.121801e-01  1.639241e-01  2.204499e-01  2.506230e-01  -4.008078e-01  1.612536e-01  8.822335e-01  -5.536541e-01  -1.666920e-01  -2.457337e-01  -3.342400e-01  6.849586e-01  -3.613490e-01  -7.531444e-01  -3.539116e-01  6.881613e-01  -8.132024e-01  9.607957e-02  -7.725470e-01  -5.503967e-01  -6.177341e-01  4.007972e-01  9.681640e-01  -2.032033e-01  -9.292138e-02  -6.378379e-01  -4.119014e-01  5.031816e-01  -7.139129e-02  3.745615e-01  8.338936e-01  -1.164679e+00  6.921137e-01  1.098252e-02  5.429672e-02  3.507456e-01  -4.115530e-01  -1.010474e-01  5.684594e-02  4.085247e-01  -2.877157e-01  1.004779e-01  -2.224457e-01  3.243252e-01  -5.141050e-02  -5.369231e-01  -1.837805e-01  -1.445447e-01  1.337658e-02  3.005165e-01  -8.215398e-01  3.448159e-01  1.655092e-01  3.673488e-01  -3.931212e-01  -4.855790e-01  -2.633109e-01  -4.218720e-01  2.898897e-01  3.079823e-01  1.550817e-01  -9.058393e-01  4.010079e-01  5.181813e-01  2.335471e-01  -9.397931e-01  7.619533e-01  -7.204901e-02  2.919612e-01  1.473067e-01  -4.821802e-01  -3.945788e-01  -8.135190e-01  -6.209306e-01  2.927558e-01  5.261622e-01  8.166353e-01  -1.723578e-01  5.316529e-02  5.718291e-01  -1.632234e-01  5.146374e-01  -9.121518e-01  1.067975e-01  -1.059055e-01  -5.365179e-01  6.746587e-02  3.732838e-01  -3.158886e-01  3.319606e-01  -3.096384e-01  4.878912e-01  -2.416788e-01  -5.751849e-01  -5.069607e-01  1.825859e-01  2.340594e-01  3.903642e-01  -3.735970e-01  -3.826879e-02  2.648275e-01  1.586237e-01  5.282987e-01  -1.261483e-01  -9.061906e-02  1.129732e+00  4.179307e-01  -2.576188e-01  -1.478174e-01  -1.443510e-02  1.228788e+00  1.691471e-01  5.256019e-01  2.342400e-01  -1.856572e-01  -1.661467e-01  3.130872e-01  -7.296538e-01  6.864230e-02  -1.231633e-01  1.246147e-01  -1.984681e-01  -1.727244e-03  4.842458e-01  2.446069e-01  -1.498610e-01  1.529096e-01  -3.479506e-01  -1.501917e-03  -7.324215e-01  -8.035932e-01  1.208388e-02  -1.285204e-01  1.490826e-01  2.881839e-01  5.274811e-01  7.477286e-01  -8.295099e-01  4.604107e-01  -4.864324e-01  7.255812e-01  -8.514458e-02  1.058721e-01  -3.330742e-01  5.675821e-01  1.730731e-01  -2.545838e-01  9.496644e-01  -6.066801e-02  1.303565e-01  -2.058804e-01  -8.336217e-01  -6.986359e-01  -7.748099e-01  -1.416918e-01  -9.473345e-02  1.999332e-01  -4.566541e-02  -6.032741e-01  -2.441854e-01  -4.198969e-01  -8.109155e-02  -9.967269e-01  -3.097634e-01  1.104718e-01  2.597929e-01  -5.143405e-01  6.626465e-01  1.891297e-01  -1.903100e-01  -2.110759e-01  6.002939e-02  -2.296037e-01  -1.442885e-01  -6.884686e-01  -1.349180e-01  -2.556671e-01  2.456055e-01  3.168827e-01  3.785488e-02  8.806887e-01  -1.122889e-01  5.503603e-02  4.070633e-01  -7.470489e-01  -4.987125e-01  -5.200841e-01  5.046895e-01  -6.893537e-01  -5.308452e-02  -1.787778e-01  -6.472526e-01  1.135918e-01  5.678545e-01  -6.541632e-01  2.029340e-01  3.824740e-01  -6.599718e-01  5.424404e-01  -1.500850e-02  -2.111020e-01  4.493434e-01  6.770082e-01  1.893866e-01  4.220179e-02  -2.053847e-01  -4.613887e-01  -1.016482e-01  -4.362531e-02  -2.000387e-01  1.249423e-01  1.036653e-01  -3.014356e-02  -1.945249e-02  -3.998750e-01  -9.216594e-02  8.101078e-02  4.645231e-01  -1.926635e-01  -1.080528e-01  -8.009154e-01  -1.269188e-01  -2.921316e-01  -3.870752e-01  -4.624615e-01  -2.309542e-01  -1.342862e-01  7.877655e-03  -8.798106e-02  9.733157e-01  -1.892235e-01  7.007039e-02  1.643689e-01  5.253814e-02  -8.746070e-02  -3.991922e-01  -4.160618e-01  -2.372044e-01  -2.093509e-01  6.496959e-01  -1.494713e-01  1.822571e-01  -2.226045e-01  3.410008e-01  -2.407019e-02  -1.703042e-01  9.524643e-02  -2.697578e-01  2.482801e-01  -1.323291e-01  -3.738330e-02  3.068719e-01  1.331473e-01  -2.611563e-01  -5.471992e-01  4.169783e-02  7.027116e-02  -5.077561e-01  -1.160995e-02  -2.026960e-01  -1.580709e-03  1.996341e-01  -2.330943e-02  -2.782119e-01  -3.297809e-02  1.191388e-01  -3.220564e-01  2.363573e-02  -3.126532e-01  1.416680e-01  7.852741e-01  5.826940e-02  -1.919791e-01  4.277188e-01  3.113740e-02  -1.155054e-01  -1.927680e-01  1.467347e-01  3.583949e-01  7.624760e-02  2.909964e-01  -1.191078e-01  1.017928e-01  4.444804e-01  3.386644e-02  -2.371185e-01  -2.341933e-01  1.645510e-01  -3.058799e-01  -1.188997e-01  -2.100482e-01  2.233475e-01  2.403442e-01  3.793792e-02  1.686280e-02  -2.373615e-01  -7.736409e-02  1.492661e-01  9.357322e-02  -2.958525e-01  -3.263665e-01  -1.081552e-02  2.263636e-01  3.702243e-01  -1.021188e-01  3.249839e-02  -2.129485e-02  1.239500e-01  1.714966e-01  6.528473e-02  -1.121084e-01  -1.771736e-02  -6.653375e-01  -3.276796e-01  -4.107098e-02  2.509021e-01  -3.621034e-01  4.448896e-01  -6.415763e-02  -2.185995e-01  -5.922171e-01  -1.417594e-02  -2.303821e-01  -5.526302e-01  -6.205139e-01  -1.830028e-01  -4.643464e-02  -4.452996e-02  1.216713e-01  4.532468e-01  2.194709e-01  9.435963e-02  -1.685279e-01  1.889929e-01  5.674911e-02  -5.307018e-02  -5.741435e-01  1.553833e-01  -1.095884e-02  3.308569e-01  -4.492273e-01  -2.297055e-02  -2.636643e-01  2.431084e-03  -2.093708e-01  -5.819402e-02  2.140577e-01  -2.058372e-01  1.385974e-02  -1.375347e-01  2.765346e-01  4.644199e-01  2.720243e-01  -1.763480e-01  2.214391e-02  -3.455873e-02  -3.013376e-01  7.397388e-02  8.179110e-02  3.426018e-01  3.418672e-01  -3.230117e-01  3.190843e-01  6.665356e-01  1.194575e-01  -5.775211e-01  7.139714e-01  -2.699955e-01  -7.816248e-02  2.789195e-01  2.011570e-01  -5.217809e-01  2.683106e-02  2.943551e-01  3.523258e-01  1.572024e-01  4.348380e-02  -2.761520e-01  -2.419662e-01  -1.876674e-01  -7.330694e-01  4.777920e-01  -2.065724e-01  -1.936323e-01  2.502791e-01  5.301666e-02  -1.444816e-03  -2.014257e-02  -2.637225e-02  1.057039e-01  2.031224e-01  2.215581e-01  2.613981e-02  -1.873698e-01  1.236756e-01  9.701911e-02  -1.604134e-01  2.078013e-01  -2.768985e-02  -5.699484e-01  6.386751e-02  -7.486742e-01  -2.276840e-01  -1.905073e-01  9.743467e-02  2.433006e-01  2.279486e-01  1.837744e-02  -2.550993e-01  -4.988668e-02  -2.411638e-02  -5.316801e-02  -4.597485e-02  -8.132472e-02  5.695903e-01  -2.752108e-02  -2.616944e-01  5.262672e-02  6.338242e-01  3.150297e-01  3.457390e-01  -3.961148e-01  -3.663899e-01  4.533570e-01  -1.767642e-01  -2.561710e-01  -5.392027e-02  1.095927e-01  6.627529e-01  -9.051308e-02  4.339373e-01  1.674121e-02  4.144140e-01  9.122682e-01  7.293374e-02  -4.070759e-01  -1.000014e-01  2.259821e-01  -2.746664e-01  -6.672988e-01  3.531463e-02  -1.778301e-01  2.989873e-01  2.371002e-01  -5.552662e-01  5.262386e-01  7.889014e-01  -3.428139e-01  1.262594e-01  1.757361e-01  2.844978e-01  4.458311e-01  7.068266e-01  2.923048e-01  2.563753e-01  -3.637829e-01  -3.014305e-01  2.366853e-01  -5.320495e-02  -1.839759e-01  -3.483383e-01  -1.370710e-03  3.410390e-02  4.397623e-01  -2.180311e-02  1.592076e-01  6.428636e-02  -2.667073e-01  -4.141317e-02  -4.052078e-01  -2.764718e-01  3.818593e-01  4.596707e-01  1.632164e-01  -2.843999e-02  3.088585e-01  -4.462105e-02  -2.337085e-01  -4.950962e-02  5.506635e-02  4.564108e-02  -3.134663e-01  -2.846282e-02  -1.289407e-01  4.341191e-01  4.239382e-01  2.374668e-01  -5.226123e-01  3.790477e-01  -2.954378e-01  7.317383e-02  6.218445e-01  -2.759725e-01  -4.104404e-01  3.186164e-01  -2.356547e-02  -2.120707e-01  2.047019e-02  -9.772529e-01  -1.765047e-01  2.726893e-02  5.091164e-02  -2.081537e-01  7.613596e-02  -4.287533e-02  -1.683446e-01  3.596177e-01  -1.726626e-01  5.462989e-01  3.833543e-01  3.398274e-01  -4.920367e-01  1.524851e-01  1.942334e-01  -9.387860e-02  -5.008228e-01  6.011316e-01  1.867689e-01  -1.279080e-01  -2.039816e-02  -7.504177e-01  -1.554566e-01  -3.340771e-01  -3.343855e-01  -1.434790e-01  2.199889e-01  1.510904e-01  -4.825038e-01  -7.871608e-02  -9.760516e-03  -4.972242e-01  5.055144e-02  -4.110222e-01  -1.180127e-01  -1.162087e-01  1.979962e-01  3.798551e-01  -2.192441e-01  2.147700e-01  2.407580e-01  3.014383e-01  -2.216048e-01  6.432388e-02  -2.585831e-01  -1.359515e-01  3.496250e-01  -3.902823e-04  1.639792e-01  2.907154e-01  -2.565341e-01  1.692185e-02  -3.607164e-01  -3.738035e-01  -1.931310e-01  -1.663579e-01  3.605450e-01  3.614727e-01  5.000628e-03  -2.891996e-01  4.525221e-01  -8.009001e-02  -3.794512e-01  2.709528e-01  1.772547e-01  -4.055227e-01  -4.310861e-01  2.380718e-01  6.696440e-02  -3.454940e-01  -1.655852e-01  -4.480247e-01  -9.407938e-02  -2.993692e-02  -3.926058e-01  -1.374254e-01  4.995354e-01  4.314703e-01  -4.842114e-01  -2.813483e-02  3.492886e-01  -1.262118e-01  -9.710998e-03  3.670470e-03  2.217287e-01  1.728074e-01  9.430008e-02  1.194506e-01  -2.350749e-02  4.043344e-01  2.410336e-01  1.501480e-01  8.671775e-02  -4.066651e-01  -2.127403e-01  -2.890787e-02  1.430236e-01  -2.591963e-01  2.980828e-01  9.311830e-02  2.240754e-01  -2.840706e-01  2.557365e-01  7.336830e-02  -1.927655e-01  -5.679784e-01  -1.927038e-01  2.994487e-01  -4.146829e-01  -5.691139e-01  6.698436e-01  -2.987435e-01  -6.606649e-01  1.651825e-01  2.652546e-01  -4.313195e-01  -5.854113e-01  1.030533e-01  -2.587472e-01  -3.088263e-01  -4.133985e-01  -4.680612e-01  2.258365e-01  -4.150601e-02  -5.352315e-01  3.496568e-01  7.976954e-01  6.573527e-01  3.118350e-02  -2.618690e-01  4.153953e-01  2.103926e-02  1.087410e-01  -5.383597e-01  -6.990502e-01  4.139735e-01  5.744551e-02  8.071100e-02  -1.069951e-01  2.545260e-01  4.398904e-01  -1.842742e-01  1.657897e-01  -1.317778e-01  -4.062053e-01  1.548476e-01  1.150214e-01  5.432637e-02  3.843201e-01  1.412639e-01  2.464177e-01  -1.130283e-01  1.407131e-01  -2.540832e-01  -3.190781e-02  -1.149537e-01  7.174576e-02  6.331859e-01  -4.579078e-01  -2.069670e-01  1.256755e-01  2.761208e-01  -3.849993e-02  -9.073583e-02  1.627322e-01  -5.849660e-02  -2.376322e-01  -1.348103e-01  1.026491e-01  2.893763e-01  -1.752107e-01  -7.295931e-01  -2.316294e-01  -3.054811e-01  -5.781521e-01  -1.794448e-01  -1.975981e-01  2.681528e-01  -1.497474e-01  4.313076e-02  -3.462123e-02  -2.832910e-01  7.254476e-02  1.740515e-01  5.619478e-02  1.921563e-01  -1.161442e-01  8.555274e-02  -3.910161e-01  -1.011917e-01  5.141047e-01  4.605957e-02  -1.931866e-01  1.110777e-01  -8.165469e-02  2.558910e-01  -2.004353e-03  1.717375e-02  1.707408e-01  4.127775e-01  2.985320e-01  4.289535e-02  1.529449e-01  -1.236106e-01  -3.590719e-01  2.802579e-01  -2.734170e-01  -5.768554e-03  -2.169973e-02  -3.827169e-01  3.242781e-01  5.015096e-01  -1.123494e-01  5.512087e-01  4.096221e-01  2.032949e-01  -1.955094e-01  1.140995e-01  -1.002660e-02  -8.825999e-02  -2.134398e-01  -4.663493e-01  -3.355556e-01  5.517557e-01  -5.330655e-01  2.215296e-01  1.237448e-01  1.611457e-01  -2.316403e-01  1.258674e-01  4.294390e-01  -5.119475e-01  3.452234e-01  -1.230378e-01  -4.294508e-01  2.741569e-01  3.357933e-01  4.513225e-01  -3.535743e-01  2.604811e-01  5.185364e-01  2.058362e-01  1.090376e-02  -9.697589e-02  5.211749e-02  5.167161e-01  -3.421873e-01  -4.752124e-01  1.975947e-01  -1.996876e-01  -7.830746e-02  -2.483325e-02  -4.343574e-01  -5.707732e-01  -2.285256e-01  -1.569143e-01  -1.015531e-01  4.437754e-01  -1.854461e-01  -3.455576e-01  -9.046606e-03  9.249130e-01  -1.349085e-01  5.051989e-01  2.411161e-01  -2.010855e-02  2.172482e-01  3.505490e-01  -1.885257e-01  2.465982e-02  2.294140e-01  1.064029e-01  -2.555392e-01  4.968874e-01  -2.743886e-01  2.938092e-01  -1.499461e-01  -2.562678e-01  -4.865449e-01  4.387657e-02  -4.572007e-02  -9.488012e-01  2.897520e-01  1.850215e-02  8.083414e-03  1.278986e-01  4.055771e-01  4.995816e-01  -7.030281e-01  3.788179e-01  3.312175e-01  1.109536e+00  -1.660592e-01  1.748684e-01  -4.961931e-02  1.308668e+00  -5.043498e-01  -1.709542e+00  6.862410e-01  2.525499e-01  1.286122e-01  -9.283070e-02  -7.729709e-01  -1.942244e+00  -6.514161e-01  2.127359e-01  -4.488309e-02  2.555677e-01  -1.894286e-01  -3.859333e-01  1.523576e+00  1.707763e-01  -6.978735e-01  2.277888e-01  7.834592e-01  -3.060600e-01  -9.494832e-01  5.545892e-01  -1.709186e-01  -1.689490e-02  1.953878e-02  -6.216640e-02  1.324253e-01  -1.922293e-01  2.030053e-01  3.010668e-01  8.409085e-01  1.106000e+00  -5.996290e-01  -1.383010e+00  2.004620e-01  -5.185471e-01  -4.154491e-02  -1.193432e+00  -1.110729e+00  3.636094e-01  2.105459e-01  1.387095e-01  2.864210e-01  4.052333e-01  -3.089638e-02  -1.308308e-01  3.973482e-01  -9.079040e-01  -5.683264e-01  -3.571726e-01  1.245114e-01  -2.515492e-01  -1.546339e-01  -2.839582e-01  -2.635607e-01  2.628292e-01  2.613449e-01  7.299221e-02  -3.554128e-01  -7.584367e-01  6.308879e-01  7.449144e-01  -3.668300e-01  -2.692623e-01  -6.343814e-01  9.991934e-01  -2.171633e-02  1.382730e-01  1.294299e-01  -1.452179e-02  -3.656492e-02  2.567692e-01  2.188489e-01  -2.420269e-01  -1.473432e-01  1.685623e-01  -2.474621e-01  4.771141e-01  1.763876e-01  -2.394939e-01  -3.089665e-01  -2.411719e-01  8.513621e-02  5.909339e-01  -9.274580e-02  -9.495645e-01  1.040275e-01  5.339939e-01  5.180254e-01  1.999670e-01  5.813477e-01  6.912658e-02  -6.486732e-01  4.573230e-01  -2.780313e-01  1.518626e+00  2.058546e-02  4.943231e-01  2.523541e-01  1.085016e+00  -3.725990e-01  -5.965176e-01  2.199161e-01  1.964661e-01  2.406985e-02  1.472522e-02  -1.156585e+00  -1.407972e+00  -6.989808e-01  3.556427e-01  -1.126657e-01  -8.535560e-02  1.758130e-01  -2.401356e-01  -1.453668e-01  5.804138e-01  -3.579047e-02  3.073608e-01  1.205705e-01  -4.970315e-01  1.538063e-01  2.985831e-01  4.852147e-02  -3.484058e-01  -1.993555e-01  -3.537266e-01  1.010796e-01  8.888649e-01  2.247288e-01  7.826407e-02  5.295027e-02  -7.040364e-02  -8.392559e-01  -3.363493e-01  -3.585938e-01  -4.386865e-01  -2.661000e-01  2.002548e-01  -2.324082e-01  3.634005e-01  3.779991e-01  -9.322928e-02  -5.809918e-01  3.326094e-01  -2.253401e-01  5.953674e-01  6.341388e-02  -3.885756e-01  2.499494e-01  1.134766e+00  -7.254280e-01  -2.144167e+00  3.228652e-01  5.608171e-01  4.226009e-01  -4.709054e-01  -3.758746e-01  -5.913835e-01  -5.859507e-01  -1.190256e-01  1.341305e-01  9.142053e-02  -1.404047e-01  -8.867452e-01  1.734360e-01  4.453624e-01  -1.659146e-01  5.163566e-01  4.733252e-01  7.748783e-02  -5.555639e-01  7.932565e-01  -2.303746e-01  -1.816873e-01  7.312630e-02  9.675045e-02  -2.316909e-01  -1.017250e-01  4.629993e-02  2.575579e-01  4.255424e-01  2.120209e-01  -1.728234e-01  -9.806148e-02  -8.156677e-02  -9.984531e-01  1.784407e-01  -2.254686e-01  -3.850710e-01  2.345944e-01  -1.570117e-01  4.160990e-01  7.472661e-02  1.726514e-02  -5.424237e-02  2.688392e-02  -9.600426e-02  -1.136377e-01  -5.177195e-01  1.889986e-01  9.023198e-02  -2.382220e-01  5.448559e-01  3.749329e-02  3.422613e-01  1.443536e-01  -2.232956e-01  -1.889697e-01  -6.070911e-01  1.845076e-01  2.529698e-01  4.544696e-01  1.470457e-02  -5.596672e-01  3.288654e-01  3.223576e-02  -2.687258e-01  6.034665e-01  5.085330e-02  -2.066404e-02  -9.673978e-03  1.478597e-01  -9.440754e-01  -2.364681e-01  7.571278e-02  4.375038e-01  -1.018971e-01  3.703969e-01  5.917612e-01  5.338273e-01  9.909115e-02  -1.549380e-01  8.649337e-01  5.893169e-02  -8.493155e-01  8.341536e-02  1.933168e-01  -1.141174e-01  4.531138e-02  6.024290e-01  4.818668e-01  6.197249e-01  -2.260380e-01  2.585747e-01  -7.487102e-01  1.938943e-01  7.357424e-01  -1.827475e-01  -5.267733e-01  3.317163e-01  -8.977344e-02  -4.201916e-01  4.705817e-01  -8.020792e-01  3.637885e-01  -9.407638e-03  -3.326858e-01  -1.779240e-01  7.502148e-02  -2.844274e-01  -1.546179e-01  2.219345e-01  6.994662e-02  6.818671e-01  9.974104e-02  4.845960e-01  -1.455729e-02  4.537578e-01  2.220176e-01  1.079785e+00  -2.634452e-01  5.761308e-01  4.154951e-02  6.484196e-01  8.042247e-01  9.715972e-02  -9.759784e-01  -3.714299e-01  -8.591146e-02  1.245388e-01  3.039957e-01  1.820452e-01  -1.593421e-01  5.008456e-01  1.120683e-02  -3.563162e-01  1.354460e+00  -1.195803e-01  3.536768e-01  -2.095854e-01  -4.282886e-01  4.860941e-01  1.175168e-01  -1.674290e-01  2.082273e-01  9.433807e-02  -2.181730e-01  6.862796e-01  -1.146040e-01  -1.133148e-01  3.027949e-01  9.997535e-02  3.364646e-01  3.701418e-01  -7.362902e-02  1.041144e+00  -5.031578e-01  -1.324739e-01  -2.946923e-01  7.974442e-01  4.812043e-01  2.273173e-01  6.086428e-01  -2.448191e-01  2.246076e-01  6.408340e-02  -7.058148e-02  -2.346240e-01  -2.813842e-01  3.251070e-01  -7.576335e-02  1.886676e-01  6.239865e-02  5.505005e-02  3.682749e-01  5.498766e-01  -2.549324e-02  -2.947863e-01  4.925568e-01  -9.753938e-02  -2.297094e-02  1.722981e-01  3.424760e-01  4.391104e-01  -3.245998e-01  1.299570e-01  2.981293e-03  -1.836327e-01  3.141747e-01  -2.639388e-01  1.327575e-01  -2.843126e-01  1.898547e-01  1.791860e-01  -6.514386e-01  -1.709151e-01  -3.860841e-01  2.985902e-01  3.183552e-02  -5.354084e-01  5.192873e-01  1.098252e+00  -3.075715e-02  1.375572e-01  3.102801e-01  2.581023e-01  1.554799e-01  2.156309e-01  -8.709949e-02  1.516817e-01  -4.635860e-02  -5.124769e-02  2.586239e-01  2.629488e-01  5.771365e-01  8.295553e-02  1.142902e-01  5.880652e-03  -1.638977e-01  -4.403434e-01  1.892995e-01  -2.876709e-01  -3.376858e-01  3.059682e-02  -2.041699e-01  3.558084e-01  -9.133928e-02  -2.966639e-01  -1.975388e-02  5.085054e-01  9.069691e-02  3.571349e-01  6.162854e-01  -3.077590e-01  3.596274e-03  2.622532e-01  2.828077e-02  6.878239e-02  -3.997877e-01  2.824971e-01  1.573233e-01  2.616471e-01  -1.994244e-01  4.469615e-01  5.553140e-02  2.902497e-02  1.472917e+00  5.998049e-02  1.159520e-03  5.231404e-02  3.220744e-02  1.506475e-01  1.564644e-02  -1.398102e+00  -5.684134e-01  -2.429888e-01  -2.069652e-01  1.009749e-02  2.742883e-01  -3.279099e-01  3.571658e-02  2.891932e-01  -8.234157e-02  4.842381e-01  -4.619265e-02  3.956721e-01  -2.018689e-01  5.388331e-01  3.829535e-01  -3.137639e-01  1.154016e-01  9.042033e-02  -2.711414e-01  -1.685339e-02  -9.586996e-03  2.808992e-01  -1.157808e-01  3.570072e-01  1.472058e-01  5.120419e-01  8.776931e-02  -1.808189e-03  -1.824073e-01  2.812487e-02  -1.417888e-01  -3.767897e-01  1.892651e-01  3.747941e-01  -2.652399e-01  8.162324e-02  5.216926e-01  4.674276e-01  -2.108467e-01  4.950090e-01  -3.823100e-01  3.014900e-01  1.384971e-01  -8.617096e-02  -3.576798e-01  4.396338e-01  1.410470e-01  -3.322546e-01  2.106869e-01  -3.696518e-01  1.208976e-01  2.201307e-02  -2.374616e-01  -4.599581e-01  4.021071e-02  3.869587e-03  8.678343e-03  1.834944e-01  -1.128431e-01  1.330486e-01  -2.143580e-01  -2.978261e-01  -1.207727e-01  -4.154286e-01  -4.249840e-01  1.439243e-01  -1.027651e-01  1.240628e-01  6.019472e-01  3.399597e-01  3.705297e-01  -3.470927e-01  -1.783830e-01  -4.132180e-01  -2.702673e-01  -2.318489e-01  2.285792e-02  9.665767e-02  -3.074305e-02  1.750758e-01  -1.302575e-01  3.189570e-01  4.973838e-02  7.199328e-02  4.189359e-01  -1.047193e+00  -6.101282e-01  -1.241317e-01  5.447335e-01  -8.087873e-01  2.383966e-01  -4.651525e-01  -7.880929e-01  2.808422e-01  8.847138e-02  -4.438953e-01  1.978829e-01  2.059142e-01  -3.810047e-01  3.837597e-01  2.555386e-01  6.476884e-02  2.318490e-01  3.907418e-01  -9.050029e-03  1.692571e-01  5.790994e-02  -4.561977e-01  1.963279e-01  -1.091989e-01  2.905459e-01  2.448290e-01  -2.170854e-01  2.586517e-01  4.594733e-01  -1.147742e-01  -1.298001e-01  4.473899e-01  -8.290098e-01  1.853877e-01  1.401896e-01  4.715208e-01  -1.846087e-01  9.148133e-02  2.284246e-01  3.669551e-01  4.931341e-01  7.339700e-02  1.013413e-01  -3.113460e-01  -1.579082e-01  -1.480587e-01  3.958405e-01  1.022272e-01  6.559006e-02  6.097769e-01  -1.268032e-01  4.263804e-01  -1.363686e-01  2.077996e-01  -2.351003e-01  3.395234e-01  4.856909e-01  4.452897e-03  -6.418047e-01  1.960155e-01  1.051094e-01  1.781996e-01  4.664649e-01  -5.574332e-01  1.559972e-01  9.993362e-02  1.865779e-02  -5.845933e-02  -3.518880e-03  5.358410e-03  3.510747e-02  4.264156e-01  -2.014557e-01  3.313400e-01  8.412842e-01  -4.850570e-01  -6.422861e-01  -8.236478e-02  2.198872e-01  3.861621e-02  -2.044382e-01  1.831948e-01  -1.793797e-01  4.252100e-01  -2.017420e-01  -6.243759e-01  2.147684e-01  -7.475500e-01  -4.910257e-01  2.660381e-01  5.379052e-01  4.831654e-01  3.387135e-02  1.899378e-01  6.745075e-01  3.555279e-01  6.678481e-02  -2.916369e-01  1.811809e-01  3.882218e-01  -1.020227e-01  1.323841e-01  2.151437e-01  2.199753e-01  6.293177e-01  -2.433145e-01  3.711400e-01  -3.526842e-01  -3.565121e-01  -3.686193e-01  4.864539e-01  4.405377e-01  -2.251345e-01  -1.998981e-01  -4.401188e-01  4.290879e-01  4.675734e-01  5.220382e-01  5.937586e-01  -2.241762e-01  1.961792e-01  1.033625e-01  -3.399604e-01  1.795683e-01  -5.778930e-02  9.227323e-02  -1.375333e-01  -1.700535e-01  3.167758e-02  5.850583e-01  1.139053e-01  2.936047e-01  1.298541e-01  6.059228e-01  3.503837e-01  -3.510119e-01  -2.106964e-01  -1.245454e-01  -2.999661e-01  3.137242e-02  -2.353540e-01  -5.658517e-02  -3.915314e-01  1.435821e-01  2.245907e-01  1.196600e-01  5.646464e-01  -1.430446e-01  3.432282e-01  -1.139556e+00  -5.923536e-01  -2.565536e-01  2.430093e-01  -5.966468e-01  1.653420e-01  -1.584750e-02  -1.518547e+00  2.426103e-01  -1.565228e-01  4.471969e-02  5.252320e-02  1.833929e-03  -2.925534e-01  1.440200e+00  -1.947455e-01  7.825266e-01  -7.595416e-02  7.144732e-02  -4.023300e-01  1.163776e-01  4.136560e-01  -6.261699e-01  2.590772e-01  -2.925147e-01  1.412739e-01  -9.113959e-02  -3.990617e-01  2.659159e-01  3.121285e-01  -8.523446e-02  -4.294085e-01  4.108010e-01  -9.487164e-02  -2.970706e-01  -9.988829e-02  -1.536978e-01  -2.082160e-01  3.409271e-01  -7.274379e-01  -1.400567e-01  3.963141e-01  2.517070e-01  -4.561985e-01  -8.576763e-01  4.641308e-01  -2.170118e-01  -2.173835e-01  -3.081000e-01  -7.447430e-01  -2.238188e-01  1.359905e-01  -1.675992e-02  3.797936e-02  -2.000089e-01  9.054130e-01  2.314264e-01  -4.563090e-02  -6.096319e-01  -1.198032e-01  3.978031e-01  -4.490871e-01  -3.632131e-01  -3.359303e-02  1.926746e-01  -1.007179e+00  -7.254233e-02  2.539490e-01  -2.227923e-01  -4.898913e-01  -2.941723e-01  -8.490837e-02  5.915260e-01  -3.826172e-01  -5.109154e-01  7.217015e-01  -2.239183e-01  -3.040374e-01  8.891165e-02  3.020174e-01  1.425419e-01  -3.420063e-01  3.023619e-01  2.944126e-01  6.908581e-02  1.406922e-02  -1.134260e-01  4.274271e-02  -3.469008e-01  -3.295474e-01  2.635894e-01  2.827896e-01  4.452649e-01  -5.081977e-01  1.475867e-01  7.744524e-01  1.410217e-01  -1.763774e-01  -3.045212e-01  3.259331e-01  2.980388e-01  8.488127e-02  -6.092943e-02  -1.180100e-01  6.221635e-02  4.539456e-01  -4.903857e-02  4.588529e-01  -1.922079e-01  -1.661449e-01  -5.405874e-01  2.862576e-01  4.056244e-01  1.622796e-01  -4.161794e-01  -8.391619e-01  -9.980900e-04  5.024130e-01  9.589297e-02  3.058158e-01  -2.512242e-02  1.516658e-01  4.542816e-01  -2.020905e-01  -2.053475e-01  -4.661457e-02  -2.210915e-01  2.059826e-01  6.442139e-02  -3.341592e-02  9.852501e-02  3.945566e-01  -4.910947e-01  8.436579e-03  -5.033235e-02  -8.500163e-02  6.204945e-01  -2.056914e-01  4.651453e-01  5.401875e-01  -1.818435e-01  -8.980723e-02  2.678099e-02  1.559447e-01  5.483984e-01  4.258199e-02  3.959419e-01  -5.530018e-02  3.603475e-03  1.242760e-01  -2.859032e-01  -3.246586e-01  1.854108e-01  -5.475793e-02  -4.403817e-01  -3.623422e-02  -5.604848e-02  1.841001e-01  2.040143e-01  1.856108e-01  2.529003e-02  -2.352009e-01  -3.675869e-02  -2.429060e-01  -7.458877e-02  6.036931e-02  1.175763e-01  2.729653e-01  2.462159e-01  5.544604e-01  3.698090e-01  -1.423225e-01  -3.231005e-01  -7.186647e-03  3.181501e-01  2.852435e-01  2.503771e-01  -4.812153e-01  2.092500e-01  4.472976e-01  1.509019e-01  -6.044726e-01  2.843076e-01  5.125074e-01  4.848920e-01  3.714489e-01  -7.584003e-01  -8.542217e-02  8.968014e-02  -8.287547e-01  -1.754133e-01  5.031404e-01  3.331400e-01  -8.763018e-01  9.575977e-02  4.554283e-01  -3.815493e-01  2.477503e-01  -4.072236e-01  9.200733e-02  -1.956206e-01  -3.071050e-01  1.275099e-01  -1.216011e-01  4.852257e-02  7.015063e-01  8.330582e-02  -1.558169e-01  -1.597157e-01  -3.701536e-01  2.454138e-01  -3.324769e-01  -1.067294e-01  3.147621e-01  5.026076e-01  -1.290471e-01  3.695684e-01  7.655426e-02  -8.347140e-02  -5.755923e-01  -1.746729e-01  2.865876e-01  -1.557918e-01  -1.672153e-01  -6.786999e-01  3.224474e-01  -9.094235e-02  -6.830483e-01  -1.000340e-02  5.777742e-01  -9.220322e-02  -5.838807e-01  2.459863e-01  -1.567932e-01  1.726372e-01  1.797336e-01  -3.696159e-01  3.277976e-02  3.227614e-02  -9.761997e-01  3.199021e-02  6.020064e-01  3.485103e-01  -4.725509e-01  -1.029718e+00  2.063189e-01  -2.187543e-01  1.999479e-01  -9.932783e-01  -1.077456e+00  1.215846e-01  5.161913e-01  -3.883842e-02  8.456762e-02  6.874384e-01  7.493069e-01  -1.719352e-01  2.610523e-01  -2.508148e-01  3.357130e-02  -2.399488e-01  -1.182068e-01  -1.390617e-01  -2.759108e-02  -1.917206e-01  -3.070310e-01  4.113985e-01  3.700245e-01  9.058422e-02  -1.832056e-01  -3.782621e-01  3.709726e-01  5.421315e-01  -2.477191e-01  -1.530853e-01  -6.102769e-01  8.422311e-02  2.584312e-01  -1.976378e-01  -3.048444e-01  2.725094e-01  5.047264e-01  -2.343009e-01  -8.157086e-02  1.509004e-01  2.609913e-01  2.907523e-01  -1.989708e-02  3.767874e-02  4.685748e-01  4.599745e-02  -5.529358e-01  -3.799755e-01  1.592445e-01  4.701124e-02  -7.462267e-01  1.058050e-01  1.966068e-01  4.470413e-01  7.120035e-03  -4.338259e-01  -7.865211e-02  -3.529626e-01  4.246368e-01  -5.363751e-01  -7.035019e-01  -1.575420e-02  -2.656336e-01  4.485066e-01  2.747815e-01  6.931134e-02  -1.814595e-02  2.619526e-01  -2.871663e-01  2.559893e-03  3.865458e-01  1.566487e-01  -2.228569e-01  6.495441e-02  -3.838983e-02  4.947396e-01  -3.266996e-01  -5.846058e-01  2.166194e-01  -1.030616e-01  -5.184432e-01  -5.942459e-02  5.508835e-02  8.754309e-02  -2.884480e-01  7.338767e-01  1.980763e-01  -1.459254e-01  -1.436503e-02  1.317705e+00  9.105357e-01  -3.449628e-03  -5.145209e-01  -7.936475e-01  2.099633e-01  -1.067021e-01  -1.023756e-01  -8.309336e-02  3.752530e-01  8.774696e-01  1.631836e-01  1.089535e-01  5.587837e-01  -3.459197e-02  8.867704e-01  -4.876769e-01  -5.067137e-01  1.392471e-01  3.127711e-01  -4.009235e-03  -2.139140e-01  -2.348869e-02  -6.177111e-01  6.733590e-01  1.604284e-01  -4.119790e-01  6.645289e-01  4.783766e-01  1.517090e-01  2.865850e-01  -2.432854e-02  9.222092e-01  -5.154462e-02  4.846848e-01  1.301673e-01  7.956518e-01  -1.959706e-02  -5.119085e-01  5.770827e-01  3.400230e-01  -4.500174e-01  -5.425324e-01  4.767551e-01  -4.235294e-01  -5.161120e-01  -5.496374e-01  6.159227e-01  -1.455148e+00  1.385241e-01  -5.719350e-01  -5.118064e-01  -1.914169e-01  3.357582e-01  4.204646e-01  -1.637477e-01  -2.376669e-01  -4.560724e-01  -6.307787e-01  4.809856e-01  4.265141e-01  2.959329e-02  7.430801e-01  -7.979290e-01  6.720884e-01  2.248012e-01  -9.052301e-02  -1.683911e-01  -8.223182e-02  -1.037434e-01  1.425465e-01  2.066286e-01  5.657051e-02  1.134890e-02  -2.178677e-01  2.013602e-01  1.742361e-01  -2.478577e-01  1.967683e-01  -1.234947e-01  4.228131e-02  2.174500e-01  -5.475383e-01  3.455124e-01  -2.041552e-02  3.881935e-01  -6.683863e-02  -7.842760e-01  -8.641651e-02  -2.407287e-01  3.684454e-01  -2.926231e-01  -8.227122e-01  2.859555e-01  -2.583687e-01  -6.095649e-02  -7.194006e-01  2.648190e-01  -6.904151e-01  2.822573e-01  -7.792121e-01  -5.223758e-01  2.060506e-01  9.558641e-01  9.054398e-03  -2.103783e-02  -4.583873e-01  -1.233906e-01  -5.060277e-02  3.024205e-01  1.137987e-02  9.620339e-02  7.142524e-01  -1.116869e+00  2.822214e-01  2.044700e-01  1.402703e-02  3.157085e-01  -6.498360e-01  2.776731e-01  2.015637e-01  -1.263201e-01  -3.462622e-01  -2.773919e-02  -3.161397e-01  2.094946e-01  -2.502426e-01  -1.235331e-01  1.420496e-01  -6.668944e-01  -5.352469e-01  9.625987e-02  -8.960115e-01  7.639054e-01  2.839994e-01  3.423082e-01  -2.854055e-01  -2.493223e-01  -1.976296e-01  -3.509888e-01  6.290869e-01  
      </Weights>
      <Biases Rows="50" Columns="1">
        -3.045042e-01  1.426279e-02  -4.513785e-01  3.074437e-01  -5.975240e-02  3.651467e-01  1.186258e-01  -1.809858e-01  5.199345e-01  -1.964386e-01  3.320858e-01  -3.141192e-01  6.310661e-02  -1.006263e-01  -1.841041e-01  2.932786e-01  -1.701747e-02  1.373016e-01  1.802578e-01  -2.757692e-01  4.424518e-01  -2.722570e-01  -2.430113e-01  -1.933726e-01  -3.002053e-01  -5.145402e-02  -3.392311e-01  -3.173575e-01  -4.380048e-01  -8.192995e-02  -3.701573e-01  -4.085321e-01  -1.561432e-01  8.710670e-02  3.417579e-01  -6.590772e-02  -2.313132e-01  3.188628e-01  -2.084382e-01  1.483182e-01  2.528969e-01  -4.478607e-01  -4.880279e-02  2.306539e-01  -1.187881e-01  -4.219858e-01  2.621587e-01  4.558682e-01  2.255918e-01  7.796866e-02  
      </Biases>
    </DenseLayer>
    <DenseLayer Width="50" ActivationFunction="3">
      <Weights Rows="50" Columns="50">
        8.162255e-02  -1.371065e-01  -4.723589e-01  -3.767141e-01  -2.120610e-01  -1.376377e-01  7.016075e-01  1.936210e-01  -2.974229e-01  7.008484e-01  1.070974e+00  4.401307e-01  6.885712e-01  -4.735375e-01  -4.066523e-01  -4.745734e-01  5.454253e-01  -3.914779e-01  1.304602e-01  -1.946362e-01  2.006923e-01  3.852220e-01  -2.196923e-01  1.918665e-01  5.972719e-01  3.987087e-01  6.172869e-01  1.199575e+00  3.638871e-01  1.095854e+00  1.060407e+00  3.800834e-01  -4.188868e-01  5.223531e-01  1.108627e-01  3.750291e-01  -4.427349e-02  3.863147e-02  -3.092773e-01  -1.783901e+00  8.133559e-02  2.419805e-01  -2.606611e-01  -3.698063e-01  -2.370368e-01  6.053966e-02  -3.903539e-01  2.722801e-01  4.016019e-01  -1.305617e+00  2.942631e-02  8.440719e-01  -4.151723e-01  1.445720e+00  1.733479e-01  9.668357e-01  -2.070781e-01  -3.479202e-01  5.448003e-01  -6.727393e-02  1.193966e-01  -7.198198e-02  8.907674e-02  -3.140990e-01  -1.093729e-01  3.375082e-01  -1.210892e-01  4.157150e-01  1.692892e-02  -1.885083e-01  6.491277e-01  -3.656535e-01  -6.272910e-01  -5.122612e-01  -7.473332e-01  -1.591779e-01  -8.713490e-01  -4.025308e-01  -4.217487e-01  -2.884334e-01  -1.723915e-01  -5.531547e-01  -1.291060e-01  1.705074e-01  6.708551e-01  -7.680497e-01  -5.818485e-01  4.935178e-01  -6.985989e-01  -1.097331e-01  7.759369e-01  -2.845974e-01  -3.530018e-01  4.074595e-01  -2.299409e-01  1.547523e-01  4.499833e-01  1.262753e-01  2.409971e-01  5.575483e-02  6.741724e-01  -1.008535e+00  4.038350e-01  -1.161131e+00  1.422498e-02  -1.117710e+00  7.422509e-02  1.694021e-01  -6.113625e-01  -1.428346e-01  1.499601e-01  -3.530368e-02  6.272311e-02  3.575455e-01  1.350703e-01  -9.075821e-01  -1.008065e-01  -3.951879e-01  -3.336788e-01  2.869195e-01  -1.119801e+00  5.602552e-01  3.969997e-01  2.800722e-01  7.041276e-01  1.260329e-01  1.039487e+00  5.599393e-02  1.435541e-01  2.418537e-01  3.556103e-01  2.276408e-01  2.134777e-01  -5.622346e-02  -7.030014e-01  6.498235e-01  2.662147e-01  -2.163474e-01  5.185864e-01  1.900192e-01  -5.448979e-01  5.453271e-02  1.786046e-01  -6.970155e-01  2.347329e-01  2.873051e-01  -4.759496e-01  -3.867954e-01  -1.180627e-01  1.467909e-01  9.464077e-03  8.821012e-01  -2.100846e-01  9.509499e-01  1.849258e-01  6.777979e-01  -4.322466e-02  -5.009907e-01  4.780019e-01  4.379654e-02  -1.355783e-01  2.877215e-02  -1.066272e-01  -1.815109e-01  -1.325010e-01  5.774146e-01  -3.394156e-01  6.128242e-03  2.219552e-01  -1.442641e-01  5.361822e-01  -4.824024e-01  -4.020174e-01  -3.822097e-01  -5.508707e-01  2.064674e-01  -5.917407e-01  -2.938476e-01  -4.082654e-01  -2.136968e-01  -6.514175e-02  -4.519146e-01  -1.827135e-01  -1.826230e-01  4.526299e-01  -4.117441e-01  -2.225195e-01  2.549491e-01  -1.049968e-01  -1.101115e-01  4.629479e-01  -5.113066e-01  -1.598584e-01  1.859506e-01  -4.848534e-01  2.727903e-03  7.542346e-01  4.101321e-02  4.340250e-01  -2.617281e-01  -2.050342e-01  -1.672311e-01  5.161776e-01  -3.594375e-01  1.498699e-01  -2.351664e-01  3.465663e-01  7.276432e-01  -5.907360e-01  8.233798e-01  7.200398e-02  5.757561e-01  -1.888227e-01  8.055980e-02  6.034884e-01  -4.826327e-01  -7.459512e-01  1.696957e-01  -7.990956e-01  5.358645e-01  3.009361e-02  -5.696417e-02  -8.326398e-02  4.085382e-01  3.832712e-01  -1.039941e-02  -2.483058e-01  1.319544e+00  4.412678e-01  -9.380113e-02  1.007541e-01  6.238562e-01  8.180108e-01  2.174218e-01  8.559576e-02  -1.788173e-01  2.968256e-01  -7.946929e-02  6.194761e-01  2.851160e-01  3.972928e-01  4.371089e-01  2.483619e-01  -9.322733e-02  -1.551201e-01  2.530050e-01  -3.942808e-01  1.369641e-01  -1.126142e-01  -5.728616e-01  3.293655e-01  -5.065665e-01  2.998810e-01  -3.646342e-01  -6.272053e-01  -6.765459e-01  2.218353e-01  1.092763e-01  -3.847004e-01  -1.262635e-01  -1.842454e-01  6.924543e-02  4.777278e-01  3.677048e-01  3.228467e-01  -1.112640e+00  -1.003556e-01  -2.449894e-01  2.731325e-02  -1.492584e-01  -3.836603e-01  7.087620e-01  1.095707e-01  2.645345e-01  6.153600e-01  1.328170e-01  5.335013e-01  2.627796e-01  3.336787e-01  8.186418e-02  4.801369e-01  2.359713e-01  3.324991e-01  -2.195168e-01  -2.902707e-01  1.914681e-01  3.729049e-02  -4.175502e-01  7.395395e-01  3.042142e-01  -7.305922e-01  3.390957e-01  2.561028e-01  -1.730381e-01  1.905084e-01  2.455755e-01  -2.639134e-01  4.578197e-01  -1.429277e-01  4.404223e-01  2.818742e-01  -2.493050e-01  -1.497895e-01  -3.178159e-01  3.382012e-01  -3.735184e-01  1.141979e-03  -3.504971e-01  -1.823123e-01  -4.782718e-01  6.334474e-01  1.390569e-01  3.413432e-01  -4.151900e-01  -4.365131e-02  1.183841e-01  -1.152517e-01  -7.737283e-02  2.494031e-02  -6.194158e-01  4.812223e-01  -1.086464e-01  -1.763117e-01  3.090184e-03  -9.306323e-02  1.511760e-01  1.964890e-01  -1.244956e-01  4.213757e-02  9.013984e-01  -8.135201e-02  -2.927965e-01  3.964956e-01  2.736767e-01  6.826011e-01  -4.160040e-01  3.803722e-01  -2.052757e-01  -5.453555e-01  -8.230989e-01  1.528449e-01  -3.026842e-01  -1.991935e-01  -2.985939e-01  -1.503053e-01  1.905696e-01  2.076147e-01  9.932380e-01  1.712565e-01  -7.436029e-02  -7.757781e-01  2.107527e-01  -9.110386e-01  1.344530e-01  -3.164541e-01  7.759937e-02  4.493056e-02  -2.357305e-01  3.114144e-01  -1.777628e-01  -4.552292e-02  -2.866383e-01  1.308446e-02  -3.697242e-01  -1.689022e-01  3.864051e-01  -7.743683e-01  7.676525e-01  -1.806417e-01  -4.388892e-01  -7.221231e-02  -5.437809e-03  -2.918149e-01  -7.003822e-02  -1.038287e-01  -4.223303e-01  -8.635600e-01  -4.688278e-01  -4.824170e-01  -4.550543e-01  -4.067098e-01  -7.081082e-01  -6.968099e-02  1.390627e-01  6.813002e-02  -2.146805e-01  -3.762170e-01  3.364502e-01  1.718695e-01  -9.800796e-02  3.658502e-01  1.585444e-01  -2.705465e-01  2.429731e-01  -4.538908e-01  -1.524091e-01  4.971044e-01  1.534397e-01  2.048865e-01  1.193706e-01  -2.877416e-01  8.229105e-01  -2.646331e-01  1.309460e+00  3.795579e-01  1.262602e+00  -2.474188e-01  -2.627868e-01  6.350030e-01  1.021710e-01  -6.901648e-03  -2.065287e-01  -2.039390e-02  -2.061729e-01  -3.908644e-01  5.288203e-01  6.520391e-02  4.985024e-01  6.167803e-02  -2.893350e-01  7.171940e-01  -6.642419e-01  -6.372532e-01  -5.291317e-01  -7.953923e-01  -8.403667e-02  -9.276523e-01  -2.617142e-01  -2.313676e-01  -1.994276e-02  -3.504299e-01  -3.263941e-01  8.855393e-03  6.315237e-02  5.181053e-01  -5.737800e-01  -3.932589e-01  2.087192e-01  -6.926681e-01  -1.058925e-01  6.330684e-01  -1.853457e-01  4.059354e-02  4.646427e-01  -2.075936e-01  -3.172742e-01  9.183092e-02  8.438581e-02  1.572864e-01  -7.187928e-02  4.317303e-01  -1.005195e+00  3.380063e-02  -1.029926e+00  2.843953e-02  -9.699609e-01  -1.481900e-01  4.559953e-01  -1.277096e-01  1.535664e-01  -1.969988e-01  -4.228928e-01  8.494775e-02  7.146723e-01  4.119147e-01  -4.607553e-01  3.187287e-01  -3.505183e-01  -3.914991e-01  5.578897e-02  -6.408693e-01  6.140707e-01  7.545447e-01  4.912343e-01  2.249318e-01  2.390871e-01  7.142924e-01  2.507048e-01  4.180671e-01  3.156289e-01  -1.514295e-01  4.484048e-01  1.375223e-02  -1.220613e-01  -5.474826e-01  6.326556e-01  6.067425e-02  -4.669873e-01  5.479383e-01  3.400066e-01  -1.677661e-01  1.975074e-02  1.119360e-01  -5.738308e-02  2.636231e-01  -3.544177e-01  -3.143866e-01  8.339019e-02  -7.397334e-02  2.562546e-01  -4.268863e-02  -1.217967e-01  3.787643e-01  3.569951e-01  -4.337918e-01  2.142494e-01  3.585908e-01  7.387111e-01  2.958929e-02  8.085993e-01  -4.446807e-01  -5.246853e-01  -5.690598e-01  7.114787e-01  -6.698399e-02  -1.608307e-01  3.762797e-02  1.128064e-01  1.644366e-01  3.993880e-01  -7.683173e-01  -6.769475e-02  -2.327158e-01  -3.564758e-01  -2.365890e-01  -3.217933e-01  -2.913214e-01  -3.644443e-02  -5.527261e-01  -8.392813e-01  1.243406e+00  -1.008979e-01  2.974163e-01  -3.245626e-01  -4.974896e-01  5.064885e-02  -8.766803e-02  2.869950e-01  6.229974e-01  7.889875e-01  6.800150e-03  4.446488e-01  2.498361e-01  1.501808e-01  -1.889159e-01  6.501495e-01  4.151458e-02  -1.130243e+00  -4.397031e-01  -1.059401e-01  7.131306e-01  -4.830464e-01  1.145978e+00  -3.250952e-01  6.172480e-02  -1.802926e-01  1.350387e-01  4.291142e-02  -2.650119e-01  1.888145e-01  -2.706553e-01  1.664972e-01  1.428361e-01  1.062058e-02  3.671719e-01  -8.833658e-01  -9.832641e-02  -2.250187e-01  -3.582079e-01  2.484645e-01  6.171291e-02  1.982359e-01  8.245507e-03  3.909370e-01  3.876740e-01  4.781627e-01  9.325864e-01  1.921363e-01  3.524782e-01  1.970224e-01  1.669995e-01  2.022360e-01  2.498235e-01  7.219504e-02  -2.007561e-01  2.905218e-01  7.878435e-01  4.924322e-02  -5.517787e-01  -3.053916e-02  -1.347955e-01  4.785192e-02  9.206772e-02  -2.877108e-01  7.284849e-01  1.226602e-01  -3.471142e-01  -1.938031e-01  1.060286e-01  5.298167e-02  -7.562080e-02  5.922038e-02  -4.597369e-01  -5.370235e-02  -3.996448e-04  6.955943e-02  -9.377423e-02  -6.977899e-01  1.608619e-01  -6.461840e-01  -4.120777e-01  -6.839732e-01  2.589162e-01  -6.856470e-01  -4.045501e-01  5.988453e-01  2.326781e-01  2.227746e-01  5.706304e-01  -5.381492e-01  6.325744e-02  -2.779707e-01  -4.214137e-01  -3.912204e-01  1.371324e-01  4.445544e-03  5.491120e-03  -5.361065e-01  5.012892e-02  2.613305e-01  -3.172407e-01  -5.894652e-01  -1.127044e-01  -5.474036e-01  -2.092874e-01  -3.014954e-01  -2.687517e-01  3.158911e-01  -4.448668e-01  -1.714653e-01  2.936697e-01  -3.231557e-01  4.636821e-01  2.519898e-01  -2.642271e-01  1.163696e-01  1.449433e-01  -2.375693e-01  3.310174e-01  5.635633e-01  6.887848e-01  -1.068727e+00  4.307286e-01  -1.020578e+00  -4.387764e-02  -1.014292e+00  -1.289793e-01  2.020012e-01  -3.407348e-01  -1.449416e-01  -1.784050e-01  -1.451073e-01  7.775737e-02  4.093720e-01  1.681387e-01  -8.260909e-01  3.073735e-02  -5.349395e-01  -1.488261e-01  1.644757e-01  -9.346243e-01  2.862278e-01  6.208532e-01  3.435804e-01  5.198974e-01  8.158582e-02  6.743996e-01  2.106566e-01  3.387294e-01  -6.077168e-02  1.215107e-01  2.767555e-01  1.649120e-01  -1.127467e-01  -6.440120e-01  5.625559e-01  5.350310e-01  -4.097439e-01  8.243887e-01  2.823125e-01  -6.004220e-01  1.040664e-01  1.561162e-01  -4.916888e-01  2.046113e-01  -9.263340e-02  -3.633363e-01  -6.167048e-02  -2.940002e-02  3.509648e-02  4.218162e-01  -2.165022e-01  6.735744e-01  -1.973062e-02  3.535633e-02  -3.205643e-01  -2.083485e-01  -8.219149e-02  -2.048323e-02  -1.271711e-01  -1.040609e+00  2.240962e-01  8.860530e-01  -1.006203e+00  4.110419e-01  -3.088041e-01  2.410338e-01  -5.928524e-02  -3.190527e-01  6.131952e-02  -6.024624e-02  -1.900627e-01  4.562886e-01  4.106569e-01  5.183290e-01  4.483119e-01  2.641530e-01  6.156470e-01  3.117200e-01  -2.060952e-01  6.554784e-02  -1.495829e-01  4.982140e-02  -3.192528e-01  -1.902559e-01  1.575545e-02  1.352575e-01  -1.405050e-01  1.667432e-01  8.949533e-01  -2.273056e-01  7.654895e-01  3.855864e-01  -4.024138e-01  1.070267e+00  7.711485e-01  -9.064903e-01  -1.031666e+00  6.684331e-01  2.815540e-01  -7.188365e-02  -9.997132e-01  2.968572e-01  -1.204214e+00  9.825110e-02  -1.017072e+00  1.639702e-02  3.643847e-01  -3.333749e-01  -1.775974e-02  -2.999525e-01  -3.540795e-02  -6.865667e-02  3.465416e-01  3.212552e-01  -3.946115e-01  4.530666e-01  -4.179110e-01  -3.333511e-01  5.568882e-01  -5.872412e-01  5.845138e-01  7.544411e-01  5.133925e-01  7.889068e-01  1.142185e-01  8.750867e-01  5.107861e-02  1.174451e-01  9.429490e-02  3.183814e-01  2.016304e-01  2.360155e-01  7.913906e-02  -5.113405e-01  7.476523e-01  3.391018e-01  -3.591536e-01  6.124052e-01  2.816806e-03  -4.384615e-01  3.920282e-01  4.307505e-01  -8.856972e-02  3.193790e-01  2.319070e-01  -6.525712e-01  -4.378889e-02  5.615734e-02  -1.073234e-01  1.237546e-01  -4.177241e-01  6.380488e-01  -2.220011e-01  -1.237488e+00  2.143593e-01  8.269768e-01  -2.431396e-01  2.878535e-01  -1.634112e-01  -1.015109e+00  5.741662e-01  2.097193e-01  4.294166e-01  -7.728467e-01  1.642079e-01  9.407727e-01  1.548292e-01  4.872765e-01  -3.999465e-01  -2.131821e-01  1.854505e-01  1.776185e-01  -1.590727e-01  -3.206244e-01  3.296905e-02  -2.730592e-02  8.471162e-01  -2.835652e-01  -6.190240e-01  1.224021e+00  -7.812130e-01  -1.959885e-01  -1.130816e+00  -6.288934e-01  3.845353e-01  -3.883583e-01  2.092432e-01  -7.680581e-02  4.535795e-01  -6.309062e-01  7.097480e-01  1.357310e-01  -1.614397e-01  6.732246e-01  7.366010e-01  2.047505e-01  -5.090343e-02  1.111546e-01  1.129487e+00  1.118039e-01  -1.762731e-01  -1.374655e-01  2.377439e-01  2.336764e-01  1.609857e-01  -3.175525e-01  -2.962585e-01  9.098644e-02  -1.375265e-01  4.779023e-01  1.758957e-01  2.786365e-01  -4.808333e-01  -3.792045e-01  -9.941243e-02  -4.739646e-01  3.774804e-04  7.437988e-02  -3.833926e-02  3.655037e-01  -1.118849e-01  -2.034373e-01  1.542957e-01  2.116014e-01  1.303200e-01  4.236681e-02  3.108070e-01  5.860014e-01  4.173380e-01  -6.990713e-01  -2.243895e-01  1.950294e-03  1.869055e-01  1.580189e-01  -3.750841e-02  -2.748660e-01  -1.362278e-01  -2.866119e-01  -1.602122e-02  1.610893e-01  -2.566072e-01  4.097963e-01  -2.707059e-01  2.971040e-01  1.189930e-01  1.826187e-02  7.570890e-01  8.727556e-02  -2.250839e-03  6.850909e-01  -2.513103e-01  1.371421e+00  -5.075586e-01  2.252925e-02  -3.233643e-01  -5.806857e-02  2.916716e-01  -1.249116e-01  2.375370e-01  4.846097e-02  3.619801e-01  -2.101513e-02  3.396624e-02  2.146493e-01  -7.825198e-01  -4.322948e-02  -5.746455e-01  -2.593843e-01  2.992803e-01  -3.756068e-02  3.325636e-01  3.693901e-02  1.148662e-01  2.045631e-01  4.933417e-01  5.994060e-01  3.094418e-01  3.598138e-01  5.044844e-01  3.002280e-01  9.647127e-02  1.559980e-01  -9.855057e-02  -1.936253e-01  2.363205e-01  8.727634e-01  1.102147e-02  -5.248876e-01  1.819962e-01  -4.125971e-01  5.671375e-02  2.100012e-01  -6.359351e-02  9.123903e-01  3.821144e-01  -2.113731e-01  -2.858666e-01  1.158345e-01  1.555694e-01  8.351827e-01  -3.682856e-01  1.189927e+00  -4.121147e-01  -3.991707e-02  -2.542711e-01  7.340061e-02  4.312262e-02  -4.951019e-02  7.521182e-02  -9.946419e-02  3.128136e-01  -5.004862e-03  -1.121916e-01  1.334731e-01  -7.476884e-01  -3.341096e-01  -7.623190e-01  -4.093395e-01  1.524891e-01  -3.192470e-01  1.901922e-01  2.537946e-01  3.184738e-01  4.623407e-01  5.404797e-01  1.095463e+00  2.221334e-01  2.739658e-01  2.308056e-01  5.049704e-01  2.344950e-01  4.333200e-01  -6.429732e-02  1.135655e-01  3.349315e-01  5.599095e-01  -2.377729e-02  -3.033182e-01  1.467806e-01  -3.184057e-01  1.981975e-01  3.313743e-01  -3.127623e-02  7.216381e-01  -1.573955e-01  -3.482521e-01  -8.630873e-02  -1.312731e-01  1.814709e-01  2.807049e-01  -3.822372e-02  8.298793e-02  -8.125660e-01  8.153176e-01  -4.379571e-01  8.620101e-03  -4.544371e-01  -1.459414e-01  -3.472625e-01  -7.391757e-01  8.921674e-01  4.217031e-01  -3.355560e-01  -3.556915e-02  -4.101008e-01  5.958130e-01  -2.489161e-01  1.466144e-01  -4.608769e-01  -4.423083e-01  1.691513e-01  1.073268e-01  -2.916918e-01  -2.572861e-01  4.448271e-01  2.684931e-01  9.263998e-02  6.503068e-01  1.164653e-02  9.881993e-02  -2.314865e-01  -1.086653e-01  -1.607821e-01  -5.943635e-01  7.772663e-01  -1.095366e-01  -1.802193e-02  -1.295674e-01  1.681006e-01  -4.502262e-01  6.254003e-01  5.201053e-01  -2.928041e-01  4.534476e-01  9.877018e-01  -1.371562e-01  3.685151e-01  4.447664e-01  3.108555e-01  -2.470576e-01  -2.103803e-01  3.750062e-03  6.126319e-01  1.001580e-01  4.929869e-01  1.969612e-01  -1.135022e-01  4.043598e-02  -4.213000e-02  9.680311e-01  -1.040453e+00  -8.597737e-01  -3.315973e-01  -4.251934e-01  1.230475e-01  -5.927384e-01  2.752746e-01  3.040786e-01  -1.106394e-01  3.206629e-01  -6.344876e-01  -1.593944e-02  -1.367140e-01  -4.276690e-01  1.042661e-01  -4.479115e-01  -2.787159e-01  5.955767e-01  5.538364e-02  7.262663e-03  -1.010659e-01  1.688459e-01  6.824865e-01  -6.516618e-02  -1.515218e-01  -1.523252e-01  5.218439e-02  1.631585e-01  -5.403739e-01  -1.837728e-01  -2.129576e-01  -8.590160e-01  1.926673e-01  -7.808255e-02  -8.372089e-01  6.826820e-01  -1.079855e+00  -6.426049e-01  -3.533358e-01  8.662415e-01  -2.610147e-01  1.167189e+00  -5.352297e-01  -2.150312e-01  -1.846965e-01  1.465730e-02  2.531618e-01  -4.805802e-01  1.848099e-01  -1.780613e-01  1.832278e-02  -2.512882e-02  -7.160366e-02  3.941442e-01  -9.461924e-01  -1.646592e-01  -3.955218e-01  -4.641772e-01  2.290372e-01  -1.869968e-01  2.809934e-01  2.797709e-01  3.431884e-01  4.700005e-01  3.304658e-01  6.425045e-01  -3.626784e-02  1.324598e-01  1.470465e-01  5.617821e-01  -3.808010e-02  2.250272e-01  -1.273383e-01  -1.663395e-03  2.871418e-01  7.387686e-01  -1.523845e-02  -3.115839e-01  1.323980e-02  -1.309324e-01  2.225188e-01  1.976917e-01  -3.044858e-01  8.881777e-01  1.415649e-01  3.505287e-02  -1.187464e-01  6.557816e-02  3.768325e-02  1.158393e-02  7.908351e-01  -3.749359e-01  2.129949e-01  6.834095e-01  4.817875e-01  5.364928e-02  -4.508787e-01  2.375474e-01  -1.605964e-01  2.214541e-03  1.749876e-02  -1.054286e+00  -5.087746e-01  -2.872446e-01  1.238695e+00  3.042447e-01  -4.953288e-02  3.626276e-01  1.149862e-01  -2.763312e-01  -6.409503e-01  -4.150562e-01  -2.302631e-02  -2.312673e-01  -1.533227e-01  -8.979075e-02  -6.539139e-01  -3.730339e-01  -5.549874e-01  -4.879787e-01  2.560294e-01  -2.283629e-01  1.581126e-01  -1.607448e-02  -7.088691e-01  -2.975920e-01  1.171667e+00  1.737725e-01  1.118683e-02  4.810677e-01  2.513019e-02  -2.014780e-01  3.046190e-01  -1.978591e-01  -3.517407e-01  4.304954e-01  3.851603e-01  -6.819351e-01  2.595062e-01  4.835879e-01  -1.228857e+00  1.134473e-02  -1.275313e+00  1.233715e-02  -1.129046e+00  2.380769e-01  1.587085e-01  -6.725317e-01  -1.616324e-02  -2.139448e-01  1.686607e-01  2.835798e-01  3.848087e-02  1.475691e-01  -7.353554e-01  1.843071e-01  -5.134088e-01  -3.727947e-01  2.163110e-01  -9.761372e-01  5.590913e-01  3.826308e-01  4.627756e-01  7.250742e-01  2.341983e-01  1.187675e+00  2.542197e-01  4.133832e-01  2.209244e-01  1.912058e-01  4.452116e-01  2.148917e-01  8.476022e-02  -6.048658e-01  8.436619e-01  3.738042e-01  -3.947863e-01  8.046855e-01  -1.844028e-01  -4.288310e-01  2.606412e-01  2.546932e-01  -6.676350e-01  1.251485e-01  6.143679e-02  -3.799167e-01  -2.805099e-01  -2.693683e-01  1.052399e-01  -3.176326e-01  -2.946651e-01  7.887883e-01  -1.633923e-01  2.146321e-01  -1.824376e-01  1.750920e-01  4.006366e-01  -4.847172e-02  5.786837e-01  2.512665e-01  2.003610e-01  6.301241e-02  4.381055e-01  4.814912e-01  -7.980511e-01  -1.254255e-01  -9.149151e-02  -4.077025e-01  4.309801e-01  -3.353896e-01  4.458809e-01  -2.778902e-02  2.705306e-01  9.370340e-02  -1.671363e-01  -2.801192e-02  -2.732422e-01  -1.630435e-01  -3.615960e-01  6.732449e-01  3.152010e-01  9.414241e-01  3.841060e-01  1.919888e-01  2.701224e-01  6.309303e-01  -6.506408e-01  9.943039e-01  1.214397e+00  -2.293619e-01  4.613103e-01  -5.889004e-02  -3.700270e-01  -2.539405e-01  1.587681e-01  -3.010377e-01  8.270462e-02  5.841685e-02  -5.347846e-02  -9.422868e-02  -4.220327e-01  2.342717e-02  -1.417617e-01  2.465769e-01  -4.617968e-02  2.671719e-01  -2.325158e-01  9.151760e-01  -7.174409e-01  -4.790367e-01  5.152990e-02  8.129736e-01  -6.380338e-01  6.564215e-01  5.888238e-02  3.584450e-01  4.158600e-01  9.983017e-02  -4.386442e-01  1.291150e-01  1.514697e-01  -4.653417e-01  -1.801282e-01  -4.140254e-01  -3.828465e-01  -9.550037e-02  2.248376e-01  -8.638168e-01  3.011162e-01  -5.687525e-02  -6.345740e-03  1.458448e-01  -3.646288e-01  -5.602471e-01  2.556817e-01  1.447722e-01  -2.771857e-02  3.969423e-02  -7.711948e-01  -4.043092e-01  6.045089e-01  -9.650260e-02  6.540889e-01  1.702211e-01  5.386397e-01  1.744171e-01  -2.143085e-01  2.505385e-01  2.841502e-01  -6.830672e-01  9.346419e-01  -8.543202e-02  9.145938e-01  2.144750e-01  1.355584e+00  -2.801366e-01  -3.675642e-01  4.963732e-01  -2.157309e-02  1.954691e-01  -1.351983e-01  -1.706401e-01  -4.453656e-01  -4.404506e-01  7.195047e-01  -1.710801e-02  6.033146e-01  4.100113e-01  -3.312858e-01  1.001463e+00  -8.358802e-01  -2.991574e-01  -3.540403e-01  -3.791664e-01  6.303420e-03  -1.196641e+00  -7.952835e-02  -2.515077e-01  -1.587633e-02  -3.170619e-01  -2.506278e-01  -1.793855e-01  1.379111e-01  5.157667e-01  -7.103968e-01  -4.916919e-01  4.403411e-01  -8.454206e-01  -8.607823e-02  3.910367e-01  -3.736824e-01  -4.419657e-01  3.523039e-01  -5.623433e-01  -3.832024e-01  5.968480e-01  1.038025e-01  1.384051e-01  -2.573905e-01  7.625221e-01  -4.014345e-01  -6.372373e-01  -4.255959e-02  3.951246e-01  -1.418386e-01  7.975116e-01  7.597720e-01  1.620141e-01  8.729051e-01  9.675198e-01  -2.459259e-01  -9.160655e-01  -3.088408e-01  -9.023957e-01  2.972504e-01  -7.403501e-01  -2.168260e-02  -1.437010e-01  -3.203937e-01  2.703663e-01  2.920912e-01  -6.022898e-02  -1.281330e-01  -7.080945e-02  2.105121e-01  -5.051507e-02  7.586678e-01  2.166193e-01  2.757238e-01  5.745180e-01  1.829799e-01  -9.556928e-02  2.335842e-01  -1.404341e-01  1.440590e-01  7.548259e-02  -4.183854e-01  -2.553269e-01  -1.265365e+00  -5.085356e-01  2.143079e-02  -6.530240e-01  2.066072e-01  6.819787e-01  -2.420794e-01  -1.380791e-01  -1.954181e-01  -3.411445e-01  -9.705775e-01  2.475693e-01  2.741532e-01  3.332790e-01  -7.185816e-01  9.709504e-01  -4.379454e-01  8.238157e-02  1.723735e-01  1.933518e-02  -3.422129e-01  -1.074616e+00  1.194869e+00  1.310913e+00  -1.129126e-01  5.275103e-02  -4.221714e-01  5.890003e-02  -9.680711e-02  -1.641510e-01  -1.420621e-02  -5.816596e-01  4.384098e-01  -1.017687e-01  4.028240e-01  4.380287e-01  3.631122e-01  1.427684e-01  3.020611e-01  5.463665e-01  1.702995e-01  2.727200e-02  5.933285e-02  1.025573e-01  -3.692814e-01  -8.371550e-01  -4.978491e-02  1.888898e-01  -5.155147e-01  -1.029264e-01  5.139396e-01  1.103757e-01  8.531016e-01  4.092451e-01  -2.580253e-01  1.116447e+00  9.703010e-01  -6.766059e-01  -1.154728e-01  8.701259e-01  2.233996e-02  -4.208922e-01  5.671381e-02  6.906557e-02  -3.392038e-01  1.195530e-01  -9.489059e-02  -8.276156e-01  6.121346e-01  -3.438500e-01  5.716788e-01  2.481271e-01  -6.483893e-01  -8.651857e-01  2.686297e-01  -6.097426e-02  -4.561244e-01  -6.148120e-01  2.734632e-01  -6.926996e-01  5.105338e-01  -9.058060e-02  4.578620e-02  -2.276007e-01  2.217820e-01  1.805020e-01  -1.512252e-01  -1.879109e-01  -4.245842e-01  -3.209688e-01  -4.410921e-01  -1.577520e-01  4.900678e-01  5.127369e-01  2.013262e-01  9.924626e-02  -2.168618e-01  6.441011e-01  -2.174546e-01  5.506904e-01  1.006242e+00  5.907970e-02  -1.023187e-01  -7.944085e-02  -2.985562e-01  -8.930632e-02  -6.307639e-01  1.757014e-01  -1.546797e-02  -8.336683e-01  -4.768752e-01  6.520924e-02  -7.357441e-01  -5.480412e-02  -2.853082e-01  -1.678205e-01  -4.523442e-01  -4.194202e-01  2.468458e-01  -3.543025e-01  -2.080304e-02  -8.053003e-01  1.463115e-01  1.160261e+00  1.280527e-01  3.382193e-01  -5.108479e-01  2.457174e-01  -4.722925e-01  -1.557552e-01  -1.938143e-01  -7.450716e-03  1.775359e-01  6.063563e-01  3.818569e-01  -1.448936e-01  -9.352820e-02  2.061636e-01  -1.610414e-01  -4.770166e-01  -4.355870e-01  1.299245e-02  3.264978e-02  -2.549667e-01  -5.335778e-01  -2.649025e-01  5.906943e-01  5.410289e-01  3.711843e-02  1.716422e-01  9.874069e-01  7.367867e-02  4.056485e-01  7.319308e-02  -6.103265e-01  6.869791e-02  -1.647881e-01  -4.736745e-01  6.680034e-01  9.075012e-01  2.501345e-01  -7.815593e-01  4.290049e-01  -5.877662e-01  1.071375e+00  -9.241032e-02  8.430126e-01  -1.596610e-02  -2.954191e-01  2.788597e-01  1.549578e-01  2.197766e-01  -5.506099e-03  -2.091092e-02  -3.026645e-01  -3.981067e-01  7.993414e-01  1.832823e-01  3.111386e-01  3.624753e-01  -2.759656e-01  7.618390e-01  -6.280788e-01  -4.850267e-01  -4.987239e-01  -4.967112e-01  -1.234454e-01  -7.088233e-01  5.041837e-02  -5.315002e-01  -2.276406e-01  -1.891569e-01  -2.479783e-01  -5.416628e-02  1.647458e-02  8.673785e-01  -3.959506e-01  -1.752951e-01  4.867982e-01  -4.455847e-01  -7.646772e-02  7.622089e-01  -1.460128e-01  -2.947880e-01  5.778187e-01  -2.354534e-01  2.317849e-03  3.447288e-01  4.179701e-01  1.941514e-01  -1.847972e-01  -5.039485e-01  -3.001076e-02  3.982733e-01  -7.231276e-02  4.783539e-02  -1.043693e-01  6.369299e-01  -1.969726e-01  -1.811540e-01  -4.668208e-01  -1.080874e+00  -1.927103e-01  9.297162e-01  3.395989e-01  1.611013e-01  -3.230270e-01  2.530486e-01  -1.019705e-02  -5.167346e-01  2.016364e-01  4.613646e-01  6.370408e-02  3.939564e-01  4.567600e-01  1.004300e-01  1.335421e-01  -2.303951e-01  1.074369e-01  -3.498361e-01  -2.537820e-01  1.361675e-01  -2.469677e-02  1.182193e-01  -8.387671e-01  -8.177020e-02  -3.678786e-01  4.202736e-01  1.097869e-01  -8.153665e-02  2.723017e-01  -1.770948e-01  1.982557e-01  1.511633e-01  -4.611392e-01  1.833765e-01  2.761085e-01  -7.705693e-01  -8.130978e-03  7.256529e-01  8.797477e-02  6.447679e-01  -8.283647e-01  2.061239e-01  -7.871642e-01  -2.196156e-01  -1.149783e+00  2.749223e-01  2.532158e-01  -6.004871e-01  -8.953710e-02  -1.745246e-01  3.087974e-02  -1.931826e-01  1.337907e-01  2.013202e-02  -7.634398e-01  -1.066572e-01  -3.058118e-01  -2.799311e-01  3.587873e-01  -9.678171e-01  6.644399e-01  4.169679e-01  2.790467e-01  6.568773e-01  1.647069e-01  1.135894e+00  1.041645e-01  8.544854e-02  2.299038e-01  -2.978824e-02  4.303543e-01  4.236471e-01  -2.458323e-01  -6.469425e-01  6.247873e-01  5.658882e-01  -1.511390e-01  5.815444e-01  2.346482e-01  -5.708766e-01  2.128239e-01  3.406767e-01  -4.813058e-01  3.318535e-01  2.535193e-01  -4.828425e-01  -3.925523e-01  -1.392678e-01  1.043947e-01  -1.393819e-01  4.044909e-01  -2.326624e-01  6.109316e-01  5.771932e-01  9.012107e-01  -2.127844e-01  -5.093116e-02  4.778443e-01  -1.624701e-02  -1.127597e-01  -2.603187e-01  -1.449693e-01  -4.139056e-01  -4.521106e-01  8.179069e-01  -2.563156e-01  4.361027e-01  2.394884e-01  -4.760645e-02  5.627346e-01  -5.795128e-01  -3.944690e-01  -4.704813e-02  -3.957873e-01  7.802481e-02  -2.691105e-01  -4.726419e-01  -2.689056e-01  -8.878081e-02  7.652748e-02  -3.648704e-01  -7.716140e-02  1.648515e-01  2.875217e-01  -1.886229e-01  -5.600618e-01  2.991701e-01  -7.741988e-01  -1.119185e-01  5.638407e-01  6.922825e-02  -3.558644e-01  5.062800e-01  -5.280050e-02  -3.472548e-01  4.629278e-01  -3.450780e-01  -2.351064e-01  -5.537449e-01  6.602724e-01  -7.555068e-01  4.320866e-01  -9.351804e-01  -2.331964e-01  -9.745684e-01  4.217876e-02  1.406108e-01  -4.988797e-01  1.713758e-01  -2.132291e-01  2.139631e-02  -1.576802e-01  1.462278e-01  3.158467e-01  -6.626143e-01  -4.335623e-03  -2.341002e-01  -2.217219e-01  3.451203e-01  -7.941915e-01  4.719017e-01  4.225805e-01  1.377149e-01  6.566977e-01  9.685255e-02  7.917597e-01  -6.158591e-02  2.901878e-01  1.412003e-01  2.119783e-01  4.288445e-01  1.531064e-01  -1.304587e-01  -8.212248e-01  6.383750e-01  3.420109e-01  -4.255225e-01  6.867616e-01  -4.475226e-02  -7.165647e-01  1.408492e-01  4.200785e-01  -5.022262e-01  5.296698e-01  3.397239e-02  -4.829040e-01  -8.102708e-02  -2.709088e-03  3.040748e-01  1.261584e-01  3.091881e-01  3.966125e-01  2.300542e-01  -2.943914e-01  2.548821e-01  -7.332276e-01  -1.422610e-01  -7.468321e-02  -8.357387e-01  -1.423551e-01  -1.953551e-01  2.474397e-01  2.123668e-01  -2.143028e-01  1.160219e-01  2.452289e-01  3.475180e-01  1.129956e-01  -2.806129e-01  -1.364944e-01  -3.043367e-01  3.744251e-01  3.385741e-02  5.614704e-02  -4.993345e-01  -2.733769e-01  -2.087409e-01  5.511096e-02  -9.579267e-01  3.526654e-01  -5.569557e-01  -2.835307e-01  3.756847e-02  -5.613222e-01  -4.076475e-01  -3.524057e-01  2.503366e-01  6.855728e-02  7.716855e-01  4.996049e-02  2.307162e-01  4.408642e-01  1.109150e-01  1.642784e-01  -2.975075e-01  -1.901539e-01  6.660961e-02  1.288424e-01  5.861009e-01  4.694768e-01  -1.086466e+00  4.609598e-01  -1.213002e+00  -4.833812e-02  -9.824907e-01  9.841141e-02  2.647924e-01  -6.789066e-01  -6.704843e-02  -1.100423e-02  1.166116e-01  4.692147e-02  7.580594e-02  1.782449e-01  -5.188777e-01  -1.138716e-02  -5.512527e-01  -3.530585e-01  2.873748e-01  -9.586656e-01  6.676905e-01  4.909175e-01  3.125191e-01  7.135124e-01  6.074823e-02  1.097528e+00  1.575774e-01  2.625346e-01  9.523952e-03  9.277596e-02  4.974478e-01  3.674514e-01  -1.311626e-01  -6.189718e-01  4.843710e-01  2.208077e-01  -1.942126e-01  7.207984e-01  -2.687587e-02  -5.429879e-01  2.260369e-01  -4.127533e-02  -5.444869e-01  3.109410e-01  1.468669e-02  -4.661857e-01  -3.991428e-01  8.287036e-02  3.147220e-02  -3.703336e-01  3.625477e-02  -2.963792e-01  4.212591e-01  -1.451685e-01  5.274349e-01  -2.284593e-01  -3.482778e-01  1.203986e+00  -3.119671e-01  9.132427e-02  -2.299297e-01  -6.011000e-02  -3.225465e-01  -6.601697e-02  5.523132e-02  -4.723584e-01  1.787721e-01  1.077937e-01  -2.586404e-01  2.611308e-01  -3.717054e-01  -2.460240e-01  -7.575200e-01  -4.493015e-01  -7.810796e-02  -4.604999e-01  -3.392349e-01  -1.980150e-02  -7.927312e-01  5.137107e-02  -5.936683e-01  -8.871126e-02  -1.052255e-01  1.833336e-02  -3.593047e-01  -5.254816e-01  8.696006e-02  -2.897729e-01  2.832388e-02  4.986143e-01  -3.829031e-01  -6.138742e-02  5.059862e-01  2.264029e-02  -4.326583e-02  1.057034e+00  3.156293e-01  2.451507e-01  2.068824e-01  -9.012736e-02  -7.964104e-02  -1.185857e-01  3.185954e-02  1.726541e-01  -9.004857e-02  -7.562435e-01  -8.024631e-01  -1.903197e-01  -8.361334e-01  2.352038e-01  4.133969e-01  7.780569e-01  3.256218e-02  5.588040e-01  -3.899437e-02  -4.208690e-01  -1.827547e-01  1.013494e-01  -4.500868e-01  6.936207e-01  3.197468e-01  2.297126e-01  1.538324e-01  1.910708e-01  4.524781e-01  -8.352645e-02  -1.004896e-01  7.383976e-01  4.182696e-01  -3.592099e-01  1.208528e-02  3.578460e-01  7.300929e-02  5.119058e-01  -2.479859e-01  1.336529e-03  -1.141645e-01  -5.237705e-01  2.749391e-01  -2.061454e-03  -6.643057e-01  -1.384292e-01  -1.263398e-01  8.959053e-02  2.215881e-02  -1.638781e-01  6.758653e-02  4.094201e-01  2.196396e-01  1.620879e-01  -3.274691e-02  9.095474e-02  -2.543029e-01  1.055737e-01  8.046763e-02  -2.622347e-01  -1.387230e-01  -4.101166e-03  -1.612806e-01  -6.006231e-01  1.004304e+00  4.569164e-01  2.434708e-02  -1.115845e-01  -2.536837e-01  -1.925549e-01  1.277852e-01  -1.865575e-02  -4.071743e-01  -1.550651e-01  4.527504e-01  3.062919e-01  3.075849e-01  -4.049141e-02  7.358966e-01  9.763502e-02  2.058868e-01  9.901328e-01  -2.167022e-01  -2.036171e-01  -3.177432e-01  1.098692e-01  1.151069e-01  -1.293905e-01  2.863493e-01  2.226283e-02  -1.499203e-01  -4.418187e-01  9.806015e-01  -8.450062e-01  6.498374e-01  5.034512e-01  -1.185118e-01  7.924129e-01  2.987342e-01  -3.389561e-01  -3.168828e-01  3.636925e-01  -1.403682e-01  -8.235386e-02  -1.520950e-01  3.319722e-01  -1.878602e-01  -2.888289e-01  -2.551267e-01  -2.487792e-02  7.206751e-02  -3.272640e-01  -4.445162e-01  -5.741645e-01  3.963562e-01  6.318854e-01  2.075254e-01  1.385800e-01  -6.914109e-02  1.135465e-01  -3.364611e-01  -3.190037e-01  -4.866538e-01  4.986313e-02  7.342954e-03  2.676181e-01  5.067448e-01  1.175022e-01  -2.915865e-01  -1.136007e-01  2.457283e-01  -1.153788e-01  -5.639035e-01  1.373781e-01  -2.225369e-01  -2.888842e-01  -1.511439e-01  1.891838e-01  1.666281e-01  1.683124e-01  5.319819e-02  -4.658868e-01  1.071665e+00  1.639541e-01  -6.689135e-01  -1.034617e-01  -3.202847e-01  1.584026e-01  5.636264e-01  -5.798207e-01  1.419838e-01  7.114357e-01  6.913016e-01  1.165746e-02  7.083961e-02  2.887059e-01  5.899060e-01  -4.997561e-01  -8.828468e-02  2.838672e-01  1.242851e+00  -6.078708e-01  4.672857e-01  -2.411453e-01  -3.178462e-02  -1.793409e-01  2.502481e-01  -7.568621e-02  -3.165427e-01  3.195155e-02  -8.159120e-02  2.730697e-01  8.620575e-02  3.488351e-02  -3.328165e-01  1.230174e-01  -2.261222e-01  2.161268e-02  -2.309283e-02  1.685615e-01  9.747547e-01  2.701960e-01  -7.836401e-01  -1.355308e-01  -5.736713e-01  1.146805e-03  1.918882e-01  -1.104984e-01  -9.841017e-02  -1.706679e-01  -5.202442e-02  2.409462e-01  7.230531e-01  4.215034e-02  3.858613e-01  -5.430518e-01  1.645806e-01  -2.288571e-02  -4.355930e-02  1.555001e-01  1.064921e-01  6.351851e-01  2.538335e-01  5.575160e-01  -3.601894e-01  1.159485e+00  -6.184629e-01  -1.434981e-01  -8.184273e-02  1.456487e-02  -1.196253e-01  -3.359396e-01  1.595447e-01  1.991359e-01  -5.114816e-02  -1.180668e-01  1.425853e-01  3.177970e-01  -6.934540e-01  -3.237593e-01  -5.049581e-01  -1.900422e-01  -1.566449e-01  -8.169899e-02  1.078158e-01  1.665295e-01  1.125670e-01  4.968375e-01  3.117031e-01  6.218123e-01  3.386985e-01  8.956534e-02  1.462120e-01  2.725918e-01  3.571355e-01  2.994947e-01  -5.518409e-02  -9.264022e-02  1.318653e-01  6.898726e-01  9.302611e-03  -3.765153e-01  2.303136e-01  -3.735466e-01  1.128126e-01  3.608842e-02  9.870238e-03  7.725899e-01  2.512210e-01  -1.381920e-01  -1.434221e-01  2.716327e-02  2.597169e-01  -2.233672e-01  9.985675e-01  -6.231205e-01  -2.105823e-01  1.188352e+00  4.019198e-01  1.387179e-01  -1.613024e-01  2.184667e-01  -2.473342e-01  -8.840212e-02  -2.187341e-02  -7.015266e-01  -5.307978e-01  -4.708641e-01  3.711430e-01  7.908902e-01  -1.470970e-02  1.597279e-01  5.559125e-02  -3.323735e-01  -5.358215e-01  -2.144175e-01  -4.570217e-01  -3.372279e-01  -3.341026e-02  -9.315578e-02  -4.632008e-01  -2.799789e-01  -4.937552e-01  -3.909593e-01  2.367933e-01  -4.488595e-01  1.724045e-01  -1.477500e-01  9.247249e-02  -4.489142e-01  8.507323e-01  8.719317e-01  2.978773e-01  1.230671e+00  -1.361773e-01  -3.274276e-01  1.772280e-01  -1.422407e-01  -1.760224e-01  6.982796e-02  -4.500105e-02  -9.201311e-02  -7.086794e-02  6.302123e-01  -9.166287e-01  2.884751e-01  -1.358487e+00  -1.347619e-01  -9.455960e-01  -3.906509e-02  4.461957e-01  -6.275198e-01  1.134125e-01  -2.926859e-01  -1.885659e-01  -1.086234e-01  2.224840e-01  1.167659e-01  -4.645796e-01  1.345041e-01  -2.614398e-01  -2.440766e-01  3.870393e-01  -6.822067e-01  5.460486e-01  6.577561e-01  2.590021e-01  6.432067e-01  1.324951e-01  1.015005e+00  4.102989e-01  5.048252e-01  3.426551e-02  -1.753090e-02  4.074480e-01  3.562680e-01  2.520964e-02  -6.992999e-01  5.410573e-01  4.498447e-01  -3.356038e-01  6.865422e-01  -8.001823e-02  -6.233910e-01  1.184413e-01  1.403166e-01  -3.685751e-01  1.577143e-01  1.256201e-01  -4.159365e-01  -4.075694e-01  1.522424e-01  2.320709e-01  -2.743743e-01  2.397213e-01  4.589001e-01  -1.401007e-01  3.060239e-02  -1.913133e-01  8.516359e-01  5.539634e-01  -4.819181e-01  5.969290e-01  3.401678e-01  2.811065e-01  -1.645273e-01  5.041351e-01  8.311845e-01  -1.021567e-01  -1.089339e-01  6.327862e-02  -5.358797e-01  4.794141e-01  8.463599e-02  -2.907977e-02  1.413845e-02  1.811645e-01  6.359875e-01  -2.196217e-02  -5.266840e-02  1.256740e+00  1.867650e-01  -1.627755e-02  2.828555e-01  5.870301e-01  9.974708e-01  2.901519e-01  3.339621e-01  -3.844604e-01  3.759051e-01  -2.301213e-01  9.971659e-02  1.617271e-01  -2.255301e-01  3.276216e-01  9.658757e-02  6.721951e-02  4.711689e-02  1.939623e-01  -5.301020e-01  1.258139e-01  -2.816629e-01  -4.020867e-01  -5.164370e-01  3.239158e-01  -2.469385e-01  3.095610e-01  1.967080e-01  6.038971e-01  7.232549e-01  6.054160e-02  -9.986580e-02  2.879818e-01  4.453326e-01  -1.899654e-01  -3.002540e-01  -1.571390e-01  -5.600351e-02  2.788729e-01  4.540761e-01  3.010238e-01  -1.232132e-01  -3.812430e-02  2.989713e-01  -4.533800e-01  -1.709923e-01  -1.466772e-01  -5.958529e-01  -4.655328e-01  -4.914316e-01  -4.880933e-01  -3.577554e-01  6.190919e-02  -1.668943e-01  -2.750618e-01  -8.027295e-01  6.303950e-02  -8.677457e-02  -3.710939e-01  -1.671594e-02  2.328518e-01  -1.114490e+00  -3.628573e-01  6.202359e-01  1.508941e-01  -2.093472e-01  4.802364e-01  -9.684859e-02  2.589948e-02  -1.329176e-01  1.190101e-01  -2.699194e-01  -1.259757e-01  1.115333e-02  1.544905e-01  -1.476697e-01  5.300492e-01  -2.438735e-01  8.194270e-01  -8.420113e-02  -1.072152e-01  8.494699e-01  1.121038e-01  6.487500e-01  -2.786038e-01  -6.078502e-01  -3.934593e-01  -2.473997e-01  6.783121e-01  3.936237e-02  6.162880e-01  2.879673e-01  -7.355228e-02  1.229465e-01  -3.174475e-01  -1.084194e+00  -6.112728e-01  -4.527673e-01  -4.878766e-01  -5.953745e-01  -2.475078e-01  -7.885675e-01  -3.018832e-01  -1.351231e-01  1.665262e-01  2.100043e-03  7.225391e-01  2.609353e-01  -2.721148e-01  -2.490616e-01  4.023943e-01  -5.171015e-01  -2.235519e-01  3.140181e-01  -3.765247e-01  -3.984243e-01  5.369793e-01  -7.137867e-01  -3.252695e-01  3.781044e-01  -3.134416e-01  -4.594441e-01  -4.204072e-01  
      </Weights>
      <Biases Rows="50" Columns="1">
        -4.137805e-01  7.032312e-01  -9.540176e-01  5.089825e-01  -1.509120e-02  -3.478848e-01  -2.433730e-01  1.683161e-01  8.897492e-01  -6.839881e-01  1.074455e-01  -2.852660e-01  3.725006e-03  -8.352512e-01  -2.394638e-01  -5.933679e-01  1.280092e-01  1.535916e-02  -2.957909e-01  -2.123232e-01  -1.637414e-01  3.374569e-01  -2.296284e-01  2.194597e-01  -7.422202e-01  -1.482877e-01  -9.304879e-02  7.247070e-01  -1.411194e-02  -2.952788e-01  -1.962431e-01  -3.408042e-01  8.630508e-01  -2.807289e-01  -8.789684e-01  3.816079e-01  -8.993597e-01  -2.415469e-02  -8.712673e-01  2.588026e-01  -1.814420e-01  -7.629529e-02  -8.978809e-02  1.118343e-01  -2.501105e-01  2.349465e-01  -8.745419e-01  -1.684573e-01  3.010188e-01  4.133127e-01  
      </Biases>
    </DenseLayer>
    <DenseLayer Width="3" ActivationFunction="0">
      <Weights Rows="3" Columns="50">
        3.342125e-02  7.609698e-01  -6.314892e-01  8.139240e-01  1.409929e+00  -8.625216e-01  -1.059439e+00  9.008903e-01  8.147240e-01  -8.009203e-01  2.924427e+00  -6.804116e-01  -1.412888e+00  -8.777450e-01  -5.203012e-01  -7.592079e-01  -1.034059e+00  -1.498375e+00  -6.798746e-01  -6.167070e-01  3.904286e-01  7.445758e-02  -6.428004e-01  1.208346e+00  -7.739182e-01  1.712600e+00  -1.013549e+00  8.957812e-01  -2.895116e-01  1.632562e-01  1.459400e+00  4.492437e-01  6.722566e-01  6.319071e-01  -8.709527e-01  6.376955e-01  -9.045095e-01  -1.244314e+00  -8.389195e-01  6.669438e-01  -1.080122e+00  -6.288088e-01  -6.918141e-01  -8.114166e-01  -8.791453e-01  1.215094e+00  -6.997072e-01  1.396732e+00  8.591166e-01  9.388515e-01  -2.090555e+00  4.583126e-01  -5.177445e-01  5.119703e-01  -1.559049e-01  -4.184422e-01  -5.838901e-01  4.306030e-01  4.288615e-01  -2.971465e-01  -9.831985e-01  -4.133168e-01  2.804469e-01  -3.060242e-01  -1.077843e+00  -4.158813e-01  2.662184e+00  1.814513e-01  -2.992459e-01  -4.212022e-01  -1.022262e+00  8.789759e-01  -4.542129e-01  3.769417e-01  -6.406699e-01  1.783095e-01  -2.230147e+00  4.470001e-01  -1.977334e+00  -1.085412e+00  -8.243035e-01  -8.254848e-01  5.416085e-01  -1.076068e+00  -6.321379e-01  3.748119e-01  -5.769203e-01  5.709062e-01  -6.231333e-01  3.061261e-01  -1.160030e+00  -7.727325e-01  -9.359279e-01  2.431136e+00  -5.181448e-01  2.918304e-01  -5.405383e-01  -6.392525e-01  2.146402e-01  -1.185789e+00  -4.149257e-02  -1.552895e-01  -3.235879e-01  -3.136389e-01  8.849140e-03  -6.607878e-03  8.964077e-03  -3.432584e-02  -1.808485e-02  -2.959551e-01  -2.333401e-02  5.701887e-02  -4.964641e-03  -1.241551e-01  -5.971074e-02  1.801308e-01  -1.575426e-02  2.863144e-02  -3.695246e-01  8.718804e-02  3.391270e-02  8.312133e-02  -6.852144e-02  1.091768e-02  6.050339e-02  2.151533e-02  -7.650114e-02  2.676252e-01  -1.489823e-02  -4.141315e-02  -6.996211e-03  -8.445866e-03  3.599539e-01  4.480648e-02  5.698836e-02  -1.589950e-01  1.516343e-01  2.390257e-02  2.853737e-01  7.820816e-02  -1.356160e-02  5.520931e-02  -2.816047e-02  5.434388e-02  2.233523e-01  2.578264e-03  2.204258e-01  -2.456588e-02  8.559642e-02  1.085363e-01  
      </Weights>
      <Biases Rows="3" Columns="1">
        3.762485e-01  2.275583e-01  7.751454e-02  
      </Biases>
    </DenseLayer>
  </Weights>
</MethodSetup>
