<?xml version="1.0"?>
<MethodSetup Method="MLP::MLP">
  <GeneralInfo>
    <Info name="TMVA Release" value="4.2.1 [262657]"/>
    <Info name="ROOT Release" value="6.24/00 [399360]"/>
    <Info name="Creator" value="rshara01-local"/>
    <Info name="Date" value="Tue Sep 21 15:02:48 2021"/>
    <Info name="Host" value="Darwin christophers-mac-mini.home 20.3.0 Darwin Kernel Version 20.3.0: Thu Jan 21 00:06:51 PST 2021; root:xnu-7195.81.3~1/RELEASE_ARM64_T8101 arm64"/>
    <Info name="Dir" value="/Users/rshara01-local/WORK/linacTune/tmva"/>
    <Info name="Training events" value="8000"/>
    <Info name="TrainingTime" value="1.35828575e+02"/>
    <Info name="AnalysisType" value="Regression"/>
  </GeneralInfo>
  <Options>
    <Option name="NCycles" modified="Yes">2000</Option>
    <Option name="HiddenLayers" modified="Yes">N+10,10,10</Option>
    <Option name="NeuronType" modified="Yes">tanh</Option>
    <Option name="RandomSeed" modified="No">1</Option>
    <Option name="EstimatorType" modified="No">MSE</Option>
    <Option name="NeuronInputType" modified="No">sum</Option>
    <Option name="V" modified="Yes">False</Option>
    <Option name="VerbosityLevel" modified="No">Default</Option>
    <Option name="VarTransform" modified="Yes">Norm</Option>
    <Option name="H" modified="Yes">False</Option>
    <Option name="CreateMVAPdfs" modified="No">False</Option>
    <Option name="IgnoreNegWeightsInTraining" modified="No">False</Option>
    <Option name="TrainingMethod" modified="Yes">BFGS</Option>
    <Option name="LearningRate" modified="No">2.000000e-02</Option>
    <Option name="DecayRate" modified="No">1.000000e-02</Option>
    <Option name="TestRate" modified="Yes">6</Option>
    <Option name="EpochMonitoring" modified="No">False</Option>
    <Option name="Sampling" modified="Yes">3.000000e-01</Option>
    <Option name="SamplingEpoch" modified="Yes">8.000000e-01</Option>
    <Option name="SamplingImportance" modified="No">1.000000e+00</Option>
    <Option name="SamplingTraining" modified="No">True</Option>
    <Option name="SamplingTesting" modified="No">False</Option>
    <Option name="ResetStep" modified="No">50</Option>
    <Option name="Tau" modified="No">3.000000e+00</Option>
    <Option name="BPMode" modified="No">sequential</Option>
    <Option name="BatchSize" modified="No">-1</Option>
    <Option name="ConvergenceImprove" modified="Yes">1.000000e-06</Option>
    <Option name="ConvergenceTests" modified="Yes">15</Option>
    <Option name="UseRegulator" modified="Yes">False</Option>
    <Option name="UpdateLimit" modified="No">10000</Option>
    <Option name="CalculateErrors" modified="No">False</Option>
    <Option name="WeightRange" modified="No">1.000000e+00</Option>
  </Options>
  <Variables NVar="3">
    <Variable VarIndex="0" Expression="RFQPAH_R" Label="RFQPAH_R" Title="RFQ phase" Unit="degrees" Internal="RFQPAH_R" Type="D" Min="1.28002930e+02" Max="1.90002441e+02"/>
    <Variable VarIndex="1" Expression="RFBPAH_R" Label="RFBPAH_R" Title="buncher phase" Unit="degrees" Internal="RFBPAH_R" Type="D" Min="2.15795898e+02" Max="2.58337402e+02"/>
    <Variable VarIndex="2" Expression="V5QSET_R" Label="V5QSET_R" Title="Tank 5 phase" Unit="degrees" Internal="V5QSET_R" Type="D" Min="-3.30000000e+01" Max="-2.85000000e+01"/>
  </Variables>
  <Spectators NSpec="3">
    <Spectator SpecIndex="0" Expression="RFQPAH_S" Label="RFQPAH_S" Title="RFQ phase Set" Unit="degrees" Internal="RFQPAH_S" Type="F" Min="1.28002930e+02" Max="1.90002441e+02"/>
    <Spectator SpecIndex="1" Expression="RFBPAH_S" Label="RFBPAH_S" Title="buncher phase Set" Unit="degrees" Internal="RFBPAH_S" Type="F" Min="2.14996277e+02" Max="2.56997131e+02"/>
    <Spectator SpecIndex="2" Expression="V5QSET_S" Label="V5QSET_S" Title="Tank 5 phase" Unit="degrees" Internal="V5QSET_S" Type="F" Min="-3.30000000e+01" Max="-2.85000000e+01"/>
  </Spectators>
  <Classes NClass="1">
    <Class Name="Regression" Index="0"/>
  </Classes>
  <Targets NTrgt="6">
    <Target TargetIndex="0" Expression="TO1IN_R" Label="TO1IN_R" Title="to1in" Unit="mA" Internal="TO1IN_R" Type="F" Min="2.21435204e+01" Max="2.42592621e+01"/>
    <Target TargetIndex="1" Expression="TO3IN_R" Label="TO3IN_R" Title="to3in" Unit="mA" Internal="TO3IN_R" Type="F" Min="-1.02136169e+02" Max="1.00574913e+02"/>
    <Target TargetIndex="2" Expression="TO5OUT_R" Label="TO5OUT_R" Title="to5out" Unit="mA" Internal="TO5OUT_R" Type="F" Min="-4.08233719e+01" Max="3.42947617e+01"/>
    <Target TargetIndex="3" Expression="D7TOR_R" Label="D7TOR_R" Title="d7tor" Unit="mA" Internal="D7TOR_R" Type="F" Min="2.41185451e+00" Max="2.93067665e+01"/>
    <Target TargetIndex="4" Expression="LMSM" Label="LMSM" Title="dlmsm" Unit="" Internal="LMSM" Type="F" Min="1.34887695e+00" Max="3.99658203e+01"/>
    <Target TargetIndex="5" Expression="D00LM_R" Label="D00LM_R" Title="d00lm" Unit="" Internal="D00LM_R" Type="F" Min="3.05175781e-03" Max="8.91113281e-01"/>
  </Targets>
  <Transformations NTransformations="1">
    <Transform Name="Normalize">
      <Selection>
        <Input NInputs="9">
          <Input Type="Variable" Label="RFQPAH_R" Expression="RFQPAH_R"/>
          <Input Type="Variable" Label="RFBPAH_R" Expression="RFBPAH_R"/>
          <Input Type="Variable" Label="V5QSET_R" Expression="V5QSET_R"/>
          <Input Type="Target" Label="TO1IN_R" Expression="TO1IN_R"/>
          <Input Type="Target" Label="TO3IN_R" Expression="TO3IN_R"/>
          <Input Type="Target" Label="TO5OUT_R" Expression="TO5OUT_R"/>
          <Input Type="Target" Label="D7TOR_R" Expression="D7TOR_R"/>
          <Input Type="Target" Label="LMSM" Expression="LMSM"/>
          <Input Type="Target" Label="D00LM_R" Expression="D00LM_R"/>
        </Input>
        <Output NOutputs="9">
          <Output Type="Variable" Label="RFQPAH_R" Expression="RFQPAH_R"/>
          <Output Type="Variable" Label="RFBPAH_R" Expression="RFBPAH_R"/>
          <Output Type="Variable" Label="V5QSET_R" Expression="V5QSET_R"/>
          <Output Type="Target" Label="TO1IN_R" Expression="TO1IN_R"/>
          <Output Type="Target" Label="TO3IN_R" Expression="TO3IN_R"/>
          <Output Type="Target" Label="TO5OUT_R" Expression="TO5OUT_R"/>
          <Output Type="Target" Label="D7TOR_R" Expression="D7TOR_R"/>
          <Output Type="Target" Label="LMSM" Expression="LMSM"/>
          <Output Type="Target" Label="D00LM_R" Expression="D00LM_R"/>
        </Output>
      </Selection>
      <Class ClassIndex="0">
        <Ranges>
          <Range Index="0" Min="1.2800292968750000e+02" Max="1.9000244140625000e+02"/>
          <Range Index="1" Min="2.1579589843750000e+02" Max="2.5833740234375000e+02"/>
          <Range Index="2" Min="-3.3000000000000000e+01" Max="-2.8500000000000000e+01"/>
          <Range Index="3" Min="2.2143520355224609e+01" Max="2.4259262084960938e+01"/>
          <Range Index="4" Min="-1.0213616943359375e+02" Max="1.0057491302490234e+02"/>
          <Range Index="5" Min="-4.0823371887207031e+01" Max="3.4294761657714844e+01"/>
          <Range Index="6" Min="2.4118545055389404e+00" Max="2.9306766510009766e+01"/>
          <Range Index="7" Min="1.3488769531250000e+00" Max="3.9965820312500000e+01"/>
          <Range Index="8" Min="3.0517578125000000e-03" Max="8.9111328125000000e-01"/>
        </Ranges>
      </Class>
    </Transform>
  </Transformations>
  <MVAPdfs/>
  <Weights>
    <Layout NLayers="5">
      <Layer Index="0" NNeurons="4">
        <Neuron NSynapses="13">
          -7.4342981268318772e-02 6.4294507559032099e-01 -1.1059196962433928e+00 5.0234250167261840e-01 -7.7729248896636294e-01 -5.2384330147333225e-01 4.8409327991515705e-02 -9.9900233879062203e-02 -8.1663684462339614e-01 2.3610717835975681e-01 -8.6049509767400967e-01 -6.4962035981249722e-01 -1.2866508310943259e+00 
        </Neuron>
        <Neuron NSynapses="13">
          1.7680597841493448e-01 -6.5484240163668794e-01 1.3419987738054195e+00 -6.4602371304077297e-02 1.0851963312495321e+00 5.4936005380386332e-01 -4.7064069535162351e-01 2.0413570991056348e-01 7.9598315117781437e-01 -1.5852205985403864e-01 5.8810982215767948e-01 5.7205894820927783e-01 1.4387507412658982e+00 
        </Neuron>
        <Neuron NSynapses="13">
          1.2571819252092924e+00 -1.5771043687624233e+00 -1.0164902845087964e+00 -7.2794648309778456e-02 4.4847163147329333e-01 2.1454284162655011e+00 -1.3706309789026538e-01 -2.1315718255868460e-01 2.4712250487729312e-01 2.0723949194808439e-03 -2.5916813538345589e+00 1.0321852695500990e+00 4.0100306178566009e-01 
        </Neuron>
        <Neuron NSynapses="13">
          -1.9439664437576179e-01 6.6822131918000949e-01 2.2641704483329725e+00 3.4476633043773770e+00 1.1142062388454961e-01 -1.4287050746408889e-01 -2.9222366459620517e+00 3.3064298237247463e+00 4.5265168073769452e-01 2.3872672168235498e+00 8.0429996022278583e-01 1.3062064771905963e+00 1.9616862337130481e+00 
        </Neuron>
      </Layer>
      <Layer Index="1" NNeurons="14">
        <Neuron NSynapses="10">
          -1.6731184547559204e+00 1.8421510709111655e+00 -1.4649603531322950e+00 -4.1791679721534147e-01 -6.8225277240214655e-01 -1.4546058213916500e+00 1.6070137302424832e+00 8.9349487960563756e-01 -7.1746006974332543e-01 -6.2000379232472069e-01 
        </Neuron>
        <Neuron NSynapses="10">
          -7.4738168078709777e-01 1.2685519796117481e+00 2.2456405876390324e+00 5.1599878652249687e-01 6.9239995586845027e-01 9.2827985355006226e-01 5.5907511044387193e-01 -9.1400345180922782e-01 -2.8588120013809606e+00 -1.0686134009070003e+00 
        </Neuron>
        <Neuron NSynapses="10">
          3.2633313917513708e-02 1.6400448344470320e+00 2.4797370137409565e+00 -2.4458476574090310e-01 -5.2647596534126384e-01 -7.0494313468458181e-01 6.5292834475245753e-01 7.8165578981488260e-01 2.7527671512320411e+00 8.4835319419533151e-01 
        </Neuron>
        <Neuron NSynapses="10">
          6.6340258687265297e-01 2.0091124473889060e-01 -2.7264820128350103e-01 -4.6888345389632152e-01 1.6086401611742613e+00 -1.3879587256696666e+00 -1.9110583245985977e+00 -1.8472325184207412e+00 -5.0539990387863798e-01 -6.8569589488765392e-01 
        </Neuron>
        <Neuron NSynapses="10">
          5.0217946437955030e-01 -9.1442436595309429e-01 -6.7868021217882535e-01 8.1974993603242441e-01 -1.0494962472615870e+00 -1.6385996258988769e+00 -1.4366422351623693e+00 6.0567879372690914e-01 -1.1287916987326003e+00 -1.2204913986948593e+00 
        </Neuron>
        <Neuron NSynapses="10">
          5.2505456012631313e-01 1.2148417445369175e+00 -4.5953012726123216e-01 2.1117803132823521e+00 -1.1897651685853905e+00 -1.0096489091896093e+00 2.5405227911696804e-01 4.2478362432585126e-02 -2.6702991748707077e+00 7.0898013901776413e-01 
        </Neuron>
        <Neuron NSynapses="10">
          6.7672092111217252e-01 -4.1998788352602223e-01 -1.9458973165598585e+00 1.7854511083812867e+00 3.1146613968602133e-01 -8.3403521781691281e-01 1.0828226095228795e+00 -7.2517486401809150e-01 -1.3842040138658958e+00 5.3294689357539338e-01 
        </Neuron>
        <Neuron NSynapses="10">
          -5.9832091811236476e-01 2.3745709628082299e+00 1.7208393520797320e+00 -4.2725947210052179e-01 -1.9191945923768219e-01 4.0161624647614358e-01 -1.8999962290527541e+00 9.5036281903583453e-01 -3.6928429821456699e-01 -1.9577731217679739e+00 
        </Neuron>
        <Neuron NSynapses="10">
          -7.2342564165352163e-01 -1.4910322475719804e+00 -7.3515622621996435e-01 2.0647573193622253e+00 1.6061039707608753e+00 -1.8315014331873689e+00 6.4802329024684802e-01 1.1113663670794405e-01 2.4438786111014608e+00 -1.7763461834082868e+00 
        </Neuron>
        <Neuron NSynapses="10">
          -1.0092747204199213e+00 7.5485532109934228e-01 -1.1558813117468776e+00 1.0977031268074382e+00 1.6496270927232459e+00 -7.7248890241268520e-01 -7.6168386300644153e-01 -1.2864954636221110e-02 -1.3149023835430746e+00 4.0221210635512927e-02 
        </Neuron>
        <Neuron NSynapses="10">
          6.2454620306738068e-02 1.7913877840152795e-01 -2.2431110529726334e-01 6.3306400333004678e-02 1.0054247913595942e+00 -2.3668259849832296e+00 5.1706079060021426e-01 -1.0306183663001540e+00 -1.3147422796174710e-01 3.6246385458240360e-01 
        </Neuron>
        <Neuron NSynapses="10">
          8.7287356258234639e-01 1.2202223793576266e+00 1.3115652567694127e+00 -8.5704266816429475e-01 -4.3161646273658938e-01 1.9600080548805849e+00 -9.1550580357501632e-01 -8.5223642432461744e-01 -9.2865815091457460e-01 3.1389896789344163e-01 
        </Neuron>
        <Neuron NSynapses="10">
          5.0083926111512256e-01 2.2497463325786184e+00 1.2856848304254336e+00 -2.7792902016808618e+00 1.0697742427089483e+00 -1.2278817756604927e+00 3.7018388315468644e-02 -2.9753530889442552e+00 -1.3401584141694360e+00 9.6981552649402558e-01 
        </Neuron>
        <Neuron NSynapses="10">
          1.6459021050653659e+00 -6.5731821096569143e-01 1.7211655098902087e-01 -1.0816638641991394e+00 8.4825318654322357e-01 1.3769603767960821e+00 -8.2235967971789581e-01 -6.1952346838538641e-01 -1.2756683931873669e+00 1.8776704355462467e-01 
        </Neuron>
      </Layer>
      <Layer Index="2" NNeurons="11">
        <Neuron NSynapses="10">
          2.8156887064288596e+00 2.9120995631650776e-01 1.5909971309070396e+00 -3.9158958218141304e-01 -2.0964305865646526e+00 1.8433544836000690e+00 5.0245791930459782e-01 -5.2384368205202458e-01 4.8190257976525402e-02 6.1970611756517668e-01 
        </Neuron>
        <Neuron NSynapses="10">
          -5.3002497285586987e-02 -1.4807273792547146e+00 1.2336034324510552e+00 1.5010085160652773e+00 -5.6724844210581171e-01 2.5850436406189098e-01 1.5646181757453117e+00 6.2702410065313463e-01 1.7790607898647048e-01 -1.2089019467611968e+00 
        </Neuron>
        <Neuron NSynapses="10">
          -2.6889724696124486e+00 -1.4932026955723774e+00 1.5515520669406524e+00 -1.4614404088560629e-01 6.1465591899008709e-01 1.7012119415870855e-01 1.5908628112256802e+00 -2.8678388909418899e+00 -1.3901620000298878e+00 -7.5742505370850022e-01 
        </Neuron>
        <Neuron NSynapses="10">
          -1.0192203372431188e+00 1.6822767431025951e+00 1.6610334471609420e+00 7.2783225822747633e-01 6.1685954463680392e-01 1.2945212427740898e+00 -1.1839696155685606e+00 -1.6500776966785700e+00 1.0355206464763949e+00 -1.0322660597882594e+00 
        </Neuron>
        <Neuron NSynapses="10">
          1.4504996113469186e+00 -1.5564741281302761e+00 1.9111007405176275e+00 -1.5200404728486505e+00 1.2127502237808698e+00 1.1964427212192669e-01 -2.0781515897566631e+00 -1.4193282737324695e+00 -2.2375112307004437e+00 -8.9753069288859977e-01 
        </Neuron>
        <Neuron NSynapses="10">
          -1.6360383467694711e-01 -8.8907925462048920e-01 -2.1789018751115456e+00 6.2086755652888938e-02 -9.5462270139210326e-01 -1.2504458306205601e-01 3.5820928446922062e-01 -4.4740182599553613e-01 -4.5137447934767944e-01 -4.7441576650444589e-01 
        </Neuron>
        <Neuron NSynapses="10">
          -1.5639654128646072e-01 2.6355875502743986e+00 1.0043387299001763e+00 -8.6902531875655131e-01 -1.9063555502948575e+00 -1.0338179072092974e+00 -1.0491392697419613e+00 -1.0978476872769551e+00 5.1134553444890141e-01 7.1229617107971266e-01 
        </Neuron>
        <Neuron NSynapses="10">
          1.8998661281949532e+00 4.7622790080516747e-01 -1.4655480128448304e+00 -1.4543615325489287e+00 -2.3368985381137808e+00 1.8832426539677765e+00 1.2301177571683806e+00 -9.7819188941770319e-01 -1.0465745594989908e+00 1.5901844042004472e+00 
        </Neuron>
        <Neuron NSynapses="10">
          2.1107114770872998e-01 9.0567606714618953e-01 3.6272586044657978e-01 1.9796999303672874e-02 7.4927030381494408e-01 2.5499191794205376e+00 2.2230408155577530e+00 -3.7332988863905450e+00 -5.0025329927916373e-01 -5.6630870726318028e+00 
        </Neuron>
        <Neuron NSynapses="10">
          3.6435958147599207e-01 -5.7691737736372173e-01 -7.4776677764950439e-01 -9.3303585988931137e-01 -1.3243099622368613e+00 2.4739639855656375e+00 -1.6329781207325142e+00 1.2523098612769903e+00 -1.3986501687320245e+00 4.7049648143130107e-01 
        </Neuron>
        <Neuron NSynapses="10">
          -4.7840963526478014e-01 -3.7024401481402913e-01 1.1886135571577852e+00 -1.5645069285868101e+00 8.1530710492914149e-01 5.4915655488970583e-01 -1.7979509184362936e+00 -2.0295253977537069e+00 -1.9302979017428803e+00 -1.0891477470292095e+00 
        </Neuron>
      </Layer>
      <Layer Index="3" NNeurons="11">
        <Neuron NSynapses="6">
          6.5391585819519948e-01 -1.2866792679393191e-01 -2.9836075827503322e-01 -7.7891090540729890e-01 -4.4624985923680582e-02 -7.7688845313928306e-02 
        </Neuron>
        <Neuron NSynapses="6">
          -3.9086168443017455e-01 -1.1060573122346067e+00 7.8567549333640796e-01 -1.3936294149101875e+00 -1.4465300635635407e+00 2.0836427482639674e+00 
        </Neuron>
        <Neuron NSynapses="6">
          5.1674691023669028e-01 -4.1428296628465396e-03 1.2813318492996117e+00 -1.2158356823692100e+00 1.9412575007339221e+00 4.9571412883184007e-01 
        </Neuron>
        <Neuron NSynapses="6">
          -5.3266569193275226e-01 -5.4500207136361709e-02 -1.1081268751399062e-01 -4.1518982886431272e-01 -4.2536530123109079e-01 4.0753207059614676e+00 
        </Neuron>
        <Neuron NSynapses="6">
          1.2500915845064133e+00 9.6337358512751659e-01 -8.5451888103358531e-01 1.9188572411654115e-01 -2.0163174573944889e+00 -3.3366162659722053e-02 
        </Neuron>
        <Neuron NSynapses="6">
          2.7909161295361024e-01 3.7347229466921296e-02 5.4390178160758362e-02 8.6324861542427331e-03 2.8075936960729919e+00 -2.9628104962381513e-01 
        </Neuron>
        <Neuron NSynapses="6">
          1.3249575067715771e-01 -7.0172043213362831e-02 -1.8632188018800608e-01 -4.6528141003455903e-01 1.2583504049255416e+00 -8.3917012979159622e-01 
        </Neuron>
        <Neuron NSynapses="6">
          1.3967789687933876e-01 -2.6740873034658724e-01 -6.5793216791133891e-01 -1.7296100259233043e+00 9.6570770148548046e-01 -2.9911147242375749e+00 
        </Neuron>
        <Neuron NSynapses="6">
          3.3171390396635930e-01 9.0209179935039507e-01 2.2609470079749605e-01 -7.1417818899949193e-01 -1.7071088590010168e+00 -7.4224128426238478e-01 
        </Neuron>
        <Neuron NSynapses="6">
          -1.8143233774380035e-01 2.0279394455155522e-01 4.9139419541368745e-01 1.3020223730476226e+00 -1.4662780951532114e-01 1.9276544212890259e+00 
        </Neuron>
        <Neuron NSynapses="6">
          -9.2641258251603276e-01 -9.9928272683890285e-01 1.0656143615757054e+00 -1.2501805108533934e+00 -8.9621432797125455e-01 -1.5773011700649746e+00 
        </Neuron>
      </Layer>
      <Layer Index="4" NNeurons="6">
        <Neuron NSynapses="0"/>
        <Neuron NSynapses="0"/>
        <Neuron NSynapses="0"/>
        <Neuron NSynapses="0"/>
        <Neuron NSynapses="0"/>
        <Neuron NSynapses="0"/>
      </Layer>
    </Layout>
  </Weights>
</MethodSetup>
