<?xml version="1.0"?>
<MethodSetup Method="DL::DNN_CPU">
  <GeneralInfo>
    <Info name="TMVA Release" value="4.2.1 [262657]"/>
    <Info name="ROOT Release" value="6.24/00 [399360]"/>
    <Info name="Creator" value="rshara01-local"/>
    <Info name="Date" value="Tue Sep 21 15:02:51 2021"/>
    <Info name="Host" value="Darwin christophers-mac-mini.home 20.3.0 Darwin Kernel Version 20.3.0: Thu Jan 21 00:06:51 PST 2021; root:xnu-7195.81.3~1/RELEASE_ARM64_T8101 arm64"/>
    <Info name="Dir" value="/Users/rshara01-local/WORK/linacTune/tmva"/>
    <Info name="Training events" value="8000"/>
    <Info name="TrainingTime" value="3.38611317e+00"/>
    <Info name="AnalysisType" value="Regression"/>
  </GeneralInfo>
  <Options>
    <Option name="V" modified="Yes">True</Option>
    <Option name="VerbosityLevel" modified="No">Verbose</Option>
    <Option name="VarTransform" modified="Yes">G</Option>
    <Option name="H" modified="Yes">False</Option>
    <Option name="CreateMVAPdfs" modified="No">False</Option>
    <Option name="IgnoreNegWeightsInTraining" modified="No">False</Option>
    <Option name="InputLayout" modified="No">0|0|0</Option>
    <Option name="BatchLayout" modified="No">0|0|0</Option>
    <Option name="Layout" modified="Yes">TANH|50,TANH|50,TANH|50,LINEAR</Option>
    <Option name="ErrorStrategy" modified="Yes">SUMOFSQUARES</Option>
    <Option name="WeightInitialization" modified="Yes">XAVIERUNIFORM</Option>
    <Option name="RandomSeed" modified="No">0</Option>
    <Option name="ValidationSize" modified="No">20%</Option>
    <Option name="Architecture" modified="Yes">CPU</Option>
    <Option name="TrainingStrategy" modified="Yes">LearningRate=1e-3,Momentum=0.3,ConvergenceSteps=20,BatchSize=10,TestRepetitions=1,WeightDecay=0.0,Regularization=None,Optimizer=Adam</Option>
  </Options>
  <Variables NVar="3">
    <Variable VarIndex="0" Expression="RFQPAH_R" Label="RFQPAH_R" Title="RFQ phase" Unit="degrees" Internal="RFQPAH_R" Type="D" Min="1.28002930e+02" Max="1.90002441e+02"/>
    <Variable VarIndex="1" Expression="RFBPAH_R" Label="RFBPAH_R" Title="buncher phase" Unit="degrees" Internal="RFBPAH_R" Type="D" Min="2.15795898e+02" Max="2.58337402e+02"/>
    <Variable VarIndex="2" Expression="V5QSET_R" Label="V5QSET_R" Title="Tank 5 phase" Unit="degrees" Internal="V5QSET_R" Type="D" Min="-3.30000000e+01" Max="-2.85000000e+01"/>
  </Variables>
  <Spectators NSpec="3">
    <Spectator SpecIndex="0" Expression="RFQPAH_S" Label="RFQPAH_S" Title="RFQ phase Set" Unit="degrees" Internal="RFQPAH_S" Type="F" Min="1.28002930e+02" Max="1.90002441e+02"/>
    <Spectator SpecIndex="1" Expression="RFBPAH_S" Label="RFBPAH_S" Title="buncher phase Set" Unit="degrees" Internal="RFBPAH_S" Type="F" Min="2.14996277e+02" Max="2.56997131e+02"/>
    <Spectator SpecIndex="2" Expression="V5QSET_S" Label="V5QSET_S" Title="Tank 5 phase" Unit="degrees" Internal="V5QSET_S" Type="F" Min="-3.30000000e+01" Max="-2.85000000e+01"/>
  </Spectators>
  <Classes NClass="1">
    <Class Name="Regression" Index="0"/>
  </Classes>
  <Targets NTrgt="6">
    <Target TargetIndex="0" Expression="TO1IN_R" Label="TO1IN_R" Title="to1in" Unit="mA" Internal="TO1IN_R" Type="F" Min="2.21435204e+01" Max="2.42592621e+01"/>
    <Target TargetIndex="1" Expression="TO3IN_R" Label="TO3IN_R" Title="to3in" Unit="mA" Internal="TO3IN_R" Type="F" Min="-1.02136169e+02" Max="1.00574913e+02"/>
    <Target TargetIndex="2" Expression="TO5OUT_R" Label="TO5OUT_R" Title="to5out" Unit="mA" Internal="TO5OUT_R" Type="F" Min="-4.08233719e+01" Max="3.42947617e+01"/>
    <Target TargetIndex="3" Expression="D7TOR_R" Label="D7TOR_R" Title="d7tor" Unit="mA" Internal="D7TOR_R" Type="F" Min="2.41185451e+00" Max="2.93067665e+01"/>
    <Target TargetIndex="4" Expression="LMSM" Label="LMSM" Title="dlmsm" Unit="" Internal="LMSM" Type="F" Min="1.34887695e+00" Max="3.99658203e+01"/>
    <Target TargetIndex="5" Expression="D00LM_R" Label="D00LM_R" Title="d00lm" Unit="" Internal="D00LM_R" Type="F" Min="3.05175781e-03" Max="8.91113281e-01"/>
  </Targets>
  <Transformations NTransformations="1">
    <Transform Name="Gauss" FlatOrGauss="Gauss">
      <Selection>
        <Input NInputs="3">
          <Input Type="Variable" Label="RFQPAH_R" Expression="RFQPAH_R"/>
          <Input Type="Variable" Label="RFBPAH_R" Expression="RFBPAH_R"/>
          <Input Type="Variable" Label="V5QSET_R" Expression="V5QSET_R"/>
        </Input>
        <Output NOutputs="3">
          <Output Type="Variable" Label="RFQPAH_R" Expression="RFQPAH_R"/>
          <Output Type="Variable" Label="RFBPAH_R" Expression="RFBPAH_R"/>
          <Output Type="Variable" Label="V5QSET_R" Expression="V5QSET_R"/>
        </Output>
      </Selection>
      <Variable VarIndex="0">
        <CumulativePDF_cls0>
          <PDF Name="GaussTransform var0 cls0" MinNSmooth="0" MaxNSmooth="0" InterpolMethod="1" KDE_type="0" KDE_iter="1" KDE_border="1" KDE_finefactor="0.0000000000000000e+00">
            <Histogram Name="Cumulative_Var0_cls0_original" NBins="10" XMin="1.2800282287597656e+02" XMax="1.9000244140625000e+02" HasEquidistantBins="0">
              8.65230486e-02 1.81861550e-01 2.82466412e-01 3.84787381e-01 4.87862051e-01 5.92224717e-01 6.97331488e-01 8.01537931e-01 9.02972817e-01 1.00000000e+00 
            </Histogram>
            <HistogramBinning NBins="10">
              1.28002823e+02 1.28002930e+02 1.35754395e+02 1.43505859e+02 1.51251221e+02 1.59002686e+02 1.66754150e+02 1.74505615e+02 1.82250977e+02 1.90002441e+02 1.90002441e+02 
            </HistogramBinning>
          </PDF>
        </CumulativePDF_cls0>
      </Variable>
      <Variable VarIndex="1">
        <CumulativePDF_cls0>
          <PDF Name="GaussTransform var1 cls0" MinNSmooth="0" MaxNSmooth="0" InterpolMethod="1" KDE_type="0" KDE_iter="1" KDE_border="1" KDE_finefactor="0.0000000000000000e+00">
            <Histogram Name="Cumulative_Var1_cls0_original" NBins="234" XMin="2.1579579162597656e+02" XMax="2.5833740234375000e+02" HasEquidistantBins="0">
              0.00000000e+00 4.03367594e-04 1.15580333e-03 2.35814904e-03 4.15778905e-03 6.91154879e-03 1.06426990e-02 1.47384312e-02 1.88341644e-02 2.29609255e-02 2.71807704e-02 3.14937010e-02 3.58376615e-02 4.01816182e-02 4.45255786e-02 4.96142134e-02 5.61922081e-02 6.35148808e-02 7.08685815e-02 7.82843456e-02 8.58358517e-02 9.36329961e-02 1.01543918e-01 1.08642928e-01 1.13770351e-01 1.16873175e-01 1.18703842e-01 1.20061330e-01 1.21445969e-01 1.22768551e-01 1.23761453e-01 1.24634124e-01 1.25948951e-01 1.27934754e-01 1.30292907e-01 1.32775173e-01 1.35412574e-01 1.38585210e-01 1.42898142e-01 1.48266032e-01 1.54440656e-01 1.61615953e-01 1.69822931e-01 1.78821132e-01 1.88129619e-01 1.97484642e-01 2.06932753e-01 2.15837866e-01 2.23470822e-01 2.30048820e-01 2.35222787e-01 2.38195032e-01 2.39590019e-01 2.40622997e-01 2.41736129e-01 2.42961749e-01 2.44342506e-01 2.45979249e-01 2.47972816e-01 2.50330955e-01 2.53061444e-01 2.56040186e-01 2.59546369e-01 2.63890326e-01 2.68761754e-01 2.74036586e-01 2.80278414e-01 2.88288891e-01 2.97721475e-01 3.07071358e-01 3.15317094e-01 3.22668225e-01 3.29742670e-01 3.36289644e-01 3.41556698e-01 3.45349908e-01 3.47832143e-01 3.49352539e-01 3.50407511e-01 3.51346105e-01 3.52300227e-01 3.53518099e-01 3.55340987e-01 3.57869804e-01 3.61019164e-01 3.64835650e-01 3.69800180e-01 3.76106679e-01 3.83514673e-01 3.91706139e-01 4.00207877e-01 4.08818245e-01 4.17583734e-01 4.26240623e-01 4.34525162e-01 4.42096055e-01 4.48053479e-01 4.52211291e-01 4.55127954e-01 4.57116336e-01 4.58613455e-01 4.59895939e-01 4.60971594e-01 4.61964518e-01 4.63029802e-01 4.64250267e-01 4.65677559e-01 4.67539251e-01 4.70362812e-01 4.74613696e-01 4.80509073e-01 4.88167673e-01 4.97076869e-01 5.06516993e-01 5.16327798e-01 5.26132703e-01 5.35089552e-01 5.42718589e-01 5.48985004e-01 5.53701341e-01 5.57083428e-01 5.59813917e-01 5.62141001e-01 5.64033747e-01 5.65523088e-01 5.66784918e-01 5.68057060e-01 5.69486082e-01 5.71035802e-01 5.72528183e-01 5.73973119e-01 5.75886965e-01 5.79540133e-01 5.85803986e-01 5.94053626e-01 6.03362083e-01 6.13227129e-01 6.23114169e-01 6.32577121e-01 6.40936017e-01 6.47228956e-01 6.51745498e-01 6.55765593e-01 6.59929216e-01 6.63916349e-01 6.67076707e-01 6.69421315e-01 6.71455562e-01 6.73414886e-01 6.75199449e-01 6.76649570e-01 6.77901506e-01 6.79463267e-01 6.81643009e-01 6.84156299e-01 6.86762631e-01 6.89679325e-01 6.93247557e-01 6.97436392e-01 7.01857924e-01 7.06310451e-01 7.10902631e-01 7.16115415e-01 7.22648144e-01 7.30591834e-01 7.39080191e-01 7.46818960e-01 7.53179967e-01 7.58749306e-01 7.64219582e-01 7.69732237e-01 7.74769187e-01 7.78544307e-01 7.81243742e-01 7.83318758e-01 7.84796476e-01 7.85913527e-01 7.86883116e-01 7.87785530e-01 7.88778424e-01 7.89983392e-01 7.91684747e-01 7.94130802e-01 7.97237515e-01 8.00874293e-01 8.05202782e-01 8.10601652e-01 8.17055583e-01 8.24305832e-01 8.32011163e-01 8.39703619e-01 8.47200811e-01 8.54341209e-01 8.60736907e-01 8.66442204e-01 8.71903181e-01 8.77022862e-01 8.81552994e-01 8.85403752e-01 8.88224065e-01 8.90154958e-01 8.91659141e-01 8.92791510e-01 8.93659174e-01 8.94551039e-01 8.95729482e-01 8.97447646e-01 8.99716616e-01 9.02198851e-01 9.04681146e-01 9.07163382e-01 9.09645677e-01 9.12496388e-01 9.16091800e-01 9.20028508e-01 9.23825562e-01 9.27420974e-01 9.30938840e-01 9.35015142e-01 9.40177500e-01 9.46072876e-01 9.52278495e-01 9.58608270e-01 9.64938045e-01 9.71267819e-01 9.77597594e-01 9.83446419e-01 9.88209248e-01 9.91839588e-01 9.94445920e-01 9.96447265e-01 9.98107255e-01 9.99255300e-01 1.00000000e+00 
            </Histogram>
            <HistogramBinning NBins="234">
              2.15795792e+02 2.15795898e+02 2.15832520e+02 2.15844727e+02 2.15869141e+02 2.15881348e+02 2.15893555e+02 2.15905762e+02 2.15917969e+02 2.15930176e+02 2.15942383e+02 2.15954590e+02 2.15966797e+02 2.15979004e+02 2.15991211e+02 2.16003418e+02 2.16015625e+02 2.16027832e+02 2.16040039e+02 2.16052246e+02 2.16064453e+02 2.16076660e+02 2.16088867e+02 2.16101074e+02 2.16113281e+02 2.16125488e+02 2.16137695e+02 2.16149902e+02 2.16162109e+02 2.16198730e+02 2.20874023e+02 2.20910645e+02 2.20922852e+02 2.20935059e+02 2.20947266e+02 2.20959473e+02 2.20971680e+02 2.20983887e+02 2.20996094e+02 2.21008301e+02 2.21020508e+02 2.21032715e+02 2.21044922e+02 2.21057129e+02 2.21069336e+02 2.21081543e+02 2.21093750e+02 2.21105957e+02 2.21118164e+02 2.21130371e+02 2.21142578e+02 2.21154785e+02 2.21166992e+02 2.21179199e+02 2.21191406e+02 2.21228027e+02 2.26354980e+02 2.26391602e+02 2.26403809e+02 2.26416016e+02 2.26428223e+02 2.26440430e+02 2.26452637e+02 2.26464844e+02 2.26477051e+02 2.26489258e+02 2.26501465e+02 2.26513672e+02 2.26525879e+02 2.26538086e+02 2.26550293e+02 2.26562500e+02 2.26574707e+02 2.26586914e+02 2.26599121e+02 2.26611328e+02 2.26623535e+02 2.26635742e+02 2.26647949e+02 2.26684570e+02 2.31457520e+02 2.31481934e+02 2.31494141e+02 2.31506348e+02 2.31518555e+02 2.31530762e+02 2.31542969e+02 2.31555176e+02 2.31567383e+02 2.31579590e+02 2.31591797e+02 2.31604004e+02 2.31616211e+02 2.31628418e+02 2.31640625e+02 2.31652832e+02 2.31665039e+02 2.31677246e+02 2.31689453e+02 2.31701660e+02 2.31713867e+02 2.31726074e+02 2.31762695e+02 2.36877441e+02 2.36914062e+02 2.36926270e+02 2.36938477e+02 2.36950684e+02 2.36962891e+02 2.36975098e+02 2.36987305e+02 2.36999512e+02 2.37011719e+02 2.37023926e+02 2.37036133e+02 2.37048340e+02 2.37060547e+02 2.37072754e+02 2.37084961e+02 2.37097168e+02 2.37109375e+02 2.37121582e+02 2.37133789e+02 2.37145996e+02 2.37158203e+02 2.37170410e+02 2.37207031e+02 2.41943359e+02 2.41955566e+02 2.41967773e+02 2.41979980e+02 2.41992188e+02 2.42004395e+02 2.42016602e+02 2.42028809e+02 2.42041016e+02 2.42053223e+02 2.42065430e+02 2.42077637e+02 2.42089844e+02 2.42102051e+02 2.42114258e+02 2.42126465e+02 2.42138672e+02 2.42150879e+02 2.42163086e+02 2.42175293e+02 2.42187500e+02 2.42199707e+02 2.42211914e+02 2.42224121e+02 2.47338867e+02 2.47387695e+02 2.47399902e+02 2.47424316e+02 2.47436523e+02 2.47448730e+02 2.47460938e+02 2.47473145e+02 2.47485352e+02 2.47497559e+02 2.47509766e+02 2.47521973e+02 2.47534180e+02 2.47546387e+02 2.47558594e+02 2.47570801e+02 2.47583008e+02 2.47595215e+02 2.47607422e+02 2.47619629e+02 2.47631836e+02 2.47644043e+02 2.47656250e+02 2.47668457e+02 2.47680664e+02 2.47717285e+02 2.52453613e+02 2.52502441e+02 2.52514648e+02 2.52526855e+02 2.52539062e+02 2.52551270e+02 2.52563477e+02 2.52575684e+02 2.52587891e+02 2.52600098e+02 2.52612305e+02 2.52624512e+02 2.52636719e+02 2.52648926e+02 2.52661133e+02 2.52673340e+02 2.52685547e+02 2.52697754e+02 2.52709961e+02 2.52722168e+02 2.52734375e+02 2.52746582e+02 2.52758789e+02 2.52770996e+02 2.52783203e+02 2.52795410e+02 2.57812500e+02 2.57897949e+02 2.57910156e+02 2.57922363e+02 2.57934570e+02 2.57946777e+02 2.57958984e+02 2.57971191e+02 2.57983398e+02 2.57995605e+02 2.58007812e+02 2.58020020e+02 2.58032227e+02 2.58044434e+02 2.58056641e+02 2.58068848e+02 2.58081055e+02 2.58093262e+02 2.58105469e+02 2.58117676e+02 2.58129883e+02 2.58142090e+02 2.58154297e+02 2.58166504e+02 2.58178711e+02 2.58190918e+02 2.58203125e+02 2.58215332e+02 2.58227539e+02 2.58239746e+02 2.58264160e+02 2.58337402e+02 
            </HistogramBinning>
          </PDF>
        </CumulativePDF_cls0>
      </Variable>
      <Variable VarIndex="2">
        <CumulativePDF_cls0>
          <PDF Name="GaussTransform var2 cls0" MinNSmooth="0" MaxNSmooth="0" InterpolMethod="1" KDE_type="0" KDE_iter="1" KDE_border="1" KDE_finefactor="0.0000000000000000e+00">
            <Histogram Name="Cumulative_Var2_cls0_original" NBins="8" XMin="-3.3000099182128906e+01" XMax="-2.8500000000000000e+01" HasEquidistantBins="0">
              9.66052935e-02 2.14750111e-01 3.44644904e-01 4.76431847e-01 6.07474327e-01 7.38349319e-01 8.69174659e-01 1.00000000e+00 
            </Histogram>
            <HistogramBinning NBins="8">
              -3.30000992e+01 -3.30000000e+01 -3.22500000e+01 -3.15000000e+01 -3.07500000e+01 -3.00000000e+01 -2.92500000e+01 -2.85000000e+01 -2.85000000e+01 
            </HistogramBinning>
          </PDF>
        </CumulativePDF_cls0>
      </Variable>
    </Transform>
  </Transformations>
  <MVAPdfs/>
  <Weights NetDepth="4" InputDepth="1" InputHeight="1" InputWidth="3" BatchSize="1" BatchDepth="1" BatchHeight="10" BatchWidth="3" LossFunction="R" Initialization="F" Regularization="0" OutputFunction="I" WeightDecay="0.0000000000000000e+00">
    <DenseLayer Width="50" ActivationFunction="3">
      <Weights Rows="50" Columns="3">
        1.492580e-01  -3.871415e-01  8.640470e-02  1.238461e+00  1.671297e-01  8.292819e-03  4.678442e-01  4.463231e-01  -7.776226e-01  7.841534e-02  -1.215913e+00  -1.537091e-01  -2.838101e-02  9.210157e-01  1.188591e+00  1.569563e-01  -5.028792e-01  -8.250434e-01  -6.923568e-02  -1.592843e-01  -1.585620e-01  -1.020815e-01  5.781854e-01  -4.847715e-02  9.167248e-02  -1.138232e+00  -9.030227e-02  2.631867e-02  -6.293090e-01  -1.169832e-02  -4.135534e-02  3.542517e-01  7.324830e-01  7.661113e-02  -7.991178e-02  -1.141394e+00  7.343602e-02  7.963159e-01  2.579668e-01  -7.717521e-01  -2.623667e-01  4.344276e-01  8.277243e-01  -5.578205e-02  3.347161e-01  -5.314916e-02  -2.748863e-01  -9.034368e-02  1.251270e+00  -3.391370e-01  -1.000557e-01  4.953710e-02  -1.514049e-02  3.217824e-01  8.177551e-03  -3.909624e-01  -5.309086e-01  2.087910e-03  -1.112956e-01  -7.949437e-01  1.006840e+00  7.976761e-02  7.466833e-02  -3.993757e-03  -1.068773e-01  -5.951799e-01  -7.647212e-02  -7.405559e-01  1.003479e-01  -3.327696e-02  -5.234025e-01  -1.704895e+00  1.198838e-02  1.161916e-01  6.403536e-01  -4.631836e-02  2.447588e-02  -8.162240e-01  4.591154e-02  6.589301e-01  2.812168e-01  -6.141647e-01  -1.748319e-01  2.925643e-01  -1.134951e-01  9.502454e-01  -7.565245e-01  -3.814338e-02  -8.943735e-01  -3.328024e-01  2.948234e-02  3.476092e-03  -7.429478e-01  2.665226e-01  9.950925e-02  -7.241091e-01  8.889881e-02  -3.869504e-01  -1.057056e+00  -4.863862e-01  -2.807034e-01  1.718853e-01  1.629924e-01  -9.786468e-02  4.413484e-01  -3.974811e-01  1.951253e-01  -1.392748e-02  2.930809e-02  -7.383732e-01  4.971991e-01  -1.100482e+00  -2.476403e-01  -5.744768e-01  -1.629068e-01  2.169016e-01  -7.218255e-02  -5.245667e-02  -2.026074e-01  -2.323309e+00  2.103331e-02  2.128283e-01  -6.802264e-01  3.675628e-03  9.069186e-01  2.620803e-01  4.353535e-03  1.895351e-03  -1.401419e+00  1.066650e-01  8.897617e-01  -2.254405e+00  -1.872623e+00  -1.631111e-02  3.237310e-02  1.454664e-02  3.249919e-01  2.723158e-01  4.519630e-02  1.438125e-01  4.217723e-01  -3.876631e-02  -6.446530e-01  -2.185449e+00  -8.488698e-01  5.300710e-02  5.004051e-01  -1.651112e+00  -3.171334e-01  -1.358154e-02  
      </Weights>
      <Biases Rows="50" Columns="1">
        4.850586e-01  -3.139653e-01  -4.573483e-01  -4.989838e-01  -5.313809e-01  1.026202e-01  -3.844509e-01  -5.676151e-01  1.955316e-01  4.576930e-01  2.182563e-01  -5.446205e-01  -5.854585e-01  -5.771160e-02  3.550781e-01  -2.206968e-01  -1.350617e-01  4.373011e-01  4.592878e-01  -1.863623e-01  -4.725311e-01  -3.614880e-01  -4.064812e-01  3.118609e-01  3.066438e-01  5.963765e-01  -5.550171e-01  -1.208544e-01  4.814304e-01  6.814616e-01  -3.610643e-01  2.901932e-01  -3.381483e-01  -4.693381e-02  3.879533e-01  5.652662e-01  -5.167114e-01  5.576956e-02  -5.018635e-01  -1.241678e-01  -4.243059e-01  -5.833340e-01  -2.860174e-01  -1.608843e-01  -7.467404e-02  4.321106e-01  2.967927e-01  3.273546e-01  -2.909774e-01  1.570940e-01  
      </Biases>
    </DenseLayer>
    <DenseLayer Width="50" ActivationFunction="3">
      <Weights Rows="50" Columns="50">
        -9.276564e-02  6.485575e-01  -8.101860e-02  3.148256e-01  -4.254898e-01  1.778674e-01  3.531685e-01  2.108473e-01  1.426919e-01  -2.540849e-01  -3.644745e-01  2.011399e-01  -2.198815e-01  -4.115030e-02  2.191463e-01  4.137276e-01  3.624171e-01  -3.919250e-01  2.475231e-01  -1.559516e-01  3.812577e-01  3.296704e-01  1.344981e-01  2.014825e-01  -1.200326e-01  9.449452e-02  7.321316e-02  8.700407e-02  -2.974504e-01  1.480320e-02  4.158292e-01  -2.251173e-01  2.741313e-01  -6.288608e-02  -8.359673e-02  -4.987243e-01  6.303713e-02  -3.835759e-01  3.224238e-01  -1.528213e-01  2.899156e-01  1.202031e-01  1.411645e-01  -2.184122e-01  -1.815975e-01  -5.603934e-01  -2.373579e-01  2.422349e-01  7.005884e-02  -6.655552e-01  3.548865e-01  1.119741e-01  -1.452667e-01  4.758863e-01  -2.062734e+00  3.813327e-01  1.979434e-01  -4.773670e-01  8.631305e-01  4.609926e-01  -4.946176e-01  6.832158e-02  -6.815163e-01  1.283541e-01  -1.851078e-01  1.858663e-01  4.531094e-01  -2.577581e-01  6.908163e-01  3.617682e-01  3.602765e-01  3.826146e-01  3.754440e-01  1.088446e+00  -2.699546e-01  4.267585e-01  -1.084028e+00  2.171379e-01  -1.648357e-01  1.596116e+00  1.905307e-01  3.276235e-01  6.509562e-01  1.656487e-01  1.417323e-01  1.475395e-01  -1.780777e-01  4.226022e-01  -1.344791e-01  9.873251e-01  1.992405e-01  -1.028553e+00  4.627436e-01  -2.721635e-01  -4.777297e-02  -1.402034e-03  -1.708373e-01  1.608445e+00  -7.526610e-02  2.856564e-01  1.121979e-01  2.241008e-01  -3.515835e-01  1.100530e+00  2.980924e-02  2.229749e-01  5.928552e-01  -4.390696e-02  3.336048e-01  -7.531195e-02  -4.222838e-01  -2.100606e-01  -3.363881e-01  2.694461e-01  -2.306854e-01  7.289156e-01  4.920380e-01  -6.340091e-02  -4.069046e-01  -1.782255e-01  3.311540e-01  1.488911e-01  2.137833e+00  -5.620889e-02  -8.206262e-02  -6.298962e-01  4.672494e-02  3.503738e-01  -1.468836e+00  -1.250963e-01  4.714852e-02  -1.390298e-01  4.714941e-01  3.840732e-01  -1.950537e-01  -4.688406e-01  1.530463e+00  -9.919160e-02  3.929081e-01  -4.615638e-02  -2.035370e-01  -4.798883e-02  -5.431370e-03  -4.800918e-01  -1.803307e-01  -6.375728e-01  -2.458718e-01  3.024615e-01  8.113106e-02  -1.559272e-01  2.487498e-01  3.995131e-02  -1.229791e-01  -3.375148e-01  -6.729091e-01  6.542159e-01  -2.060048e-01  -1.028186e-01  -1.102830e-01  2.853277e-01  -1.553093e-01  5.222278e-02  -4.043149e-01  -4.038777e-01  2.572630e-01  -2.105436e-01  -6.130041e-02  2.695775e-02  1.198429e+00  3.478132e-01  -3.800994e-01  2.044673e-02  -2.079424e-01  6.057437e-01  2.206081e-02  1.100587e+00  -6.088334e-01  -5.780692e-01  3.965511e-01  4.567884e-01  -1.003596e-01  5.899249e-01  -2.267767e-01  -3.047926e-01  -2.007659e-02  5.976818e-01  -3.467007e-01  -2.211979e-01  -3.132192e-01  1.067770e-01  -1.646702e-01  -1.241762e-01  2.972506e-01  5.729699e-02  -2.016397e-01  1.882784e-01  2.141984e-01  4.523556e-01  -6.615802e-01  -2.269361e-01  4.368498e-01  -4.763761e-02  -1.959424e-01  4.246172e-02  -3.251739e-01  -9.949584e-03  -1.083946e+00  -5.425150e-01  2.998291e-02  1.994110e-01  4.202171e-01  -1.944874e-01  -8.490019e-02  -5.144920e-03  4.704010e-01  -7.306454e-01  -1.730937e-01  1.538575e+00  3.034470e-01  5.037408e-02  -5.839505e-01  -8.001140e-01  5.084908e-02  2.057240e-01  3.843644e-01  5.994826e-01  -3.441423e-01  -1.894955e-01  3.746562e-01  3.256725e-01  -5.722625e-01  6.287087e-01  -6.057022e-02  -3.120695e-01  5.452300e-01  8.292524e-01  -3.773586e-01  3.828762e-01  -6.129367e-01  2.528600e-01  -2.044028e-01  -1.759659e-01  7.425405e-02  5.037187e-01  1.598995e-01  6.781067e-01  4.812955e-01  3.152067e-01  -2.959758e-01  3.833580e-02  -4.334876e-01  6.256292e-01  2.727514e-01  5.422548e-01  2.286345e-01  -1.943645e-01  3.547518e-01  3.426584e-01  -5.686203e-02  -2.137583e-01  -1.663551e-01  2.948366e-01  2.190379e-01  -2.515367e-02  2.544096e-01  1.455052e-01  -5.808869e-02  -6.964853e-01  -1.134306e-01  -8.277457e-02  3.434041e-01  1.796507e-01  -9.184069e-02  3.875040e-01  -1.516188e-01  -6.487568e-03  -1.245988e-01  1.147631e-02  1.961458e-01  -2.839704e-01  5.691899e-01  -6.138140e-02  4.477634e-01  8.317121e-02  -4.358542e-01  -9.894685e-03  1.744176e-01  -4.487630e-01  4.421299e-01  -1.029627e-01  3.412469e-01  -1.087492e-01  5.101267e-01  7.381132e-03  -7.173438e-01  -2.199065e-01  -2.225777e-01  -7.461443e-02  1.168280e-01  -6.561780e-01  4.255130e-01  2.596104e-01  -1.252848e-01  2.053109e-02  -1.679881e-01  2.838930e-01  -3.038751e-01  -3.713268e-01  5.629715e-01  3.717611e-01  1.103243e-01  -8.949633e-02  -1.603227e-01  -4.031107e-01  6.453128e-01  -1.192621e-01  4.439822e-01  4.603633e-01  1.913581e-02  -3.821982e-01  2.091764e-01  -2.987273e-01  -1.367913e-01  3.113299e-01  2.288779e-01  -1.112241e-01  -3.216471e-01  -4.801276e-02  -4.177964e-02  2.129426e-01  -3.926341e-01  4.362793e-02  -1.274569e-01  -1.483360e-01  1.836891e-01  -1.244361e-01  -1.016343e-02  -4.053075e-01  -3.932593e-01  -1.065090e-01  -4.417110e-01  -2.341306e-01  -1.219149e-01  -1.276212e-02  -5.691057e-01  3.111596e-01  2.198389e-01  3.735707e-01  -1.574285e-01  -4.069565e-01  9.520928e-01  4.472597e-01  1.566297e-01  8.754756e-02  -8.670076e-01  6.877277e-01  -3.274603e-01  -7.135838e-01  1.583622e-01  8.043438e-01  -2.501837e-01  2.143081e-01  -7.325248e-01  -3.193702e-01  8.835360e-01  -1.842664e-01  5.347074e-02  7.135184e-01  3.485224e-01  1.263860e-01  2.594825e-01  -9.358434e-02  -1.002978e-01  3.026077e-01  2.150477e-01  -1.641142e-01  -6.076419e-01  -1.111583e-01  8.106216e-02  9.525423e-01  -1.795961e-01  1.743813e-01  9.819032e-02  -6.300671e-02  4.732102e-01  1.682146e-01  1.768941e-01  -5.726084e-01  -1.239260e+00  2.530803e-01  -2.810280e-01  -8.117318e-01  -1.868946e-01  1.164758e-01  -5.582378e-01  2.620035e-01  3.226367e-01  1.369246e-01  -3.692088e-01  -7.532291e-01  -3.499742e-01  -5.801551e-02  9.606893e-02  5.047401e-01  -2.240213e-01  -1.759095e-01  2.546186e-01  1.462805e-02  2.336679e-01  -1.007874e-01  -3.563129e-01  4.169928e-01  -2.583140e-01  3.055852e-01  -3.330180e-01  6.678527e-02  2.570356e-01  -4.929998e-01  4.593420e-02  4.427684e-01  -2.915962e-01  5.505764e-01  2.489680e-01  -2.814588e-02  -3.331470e-01  -2.050939e-02  -3.226761e-02  1.674107e-01  5.162895e-02  2.349640e-01  3.049155e-01  4.339314e-02  5.223243e-01  7.956389e-02  -7.028587e-01  -5.599413e-02  -5.985397e-02  3.234261e-01  1.188364e-01  2.312936e-01  3.943309e-01  -1.177910e-01  5.046772e-01  2.818268e-01  4.548209e-01  -3.033262e-01  -5.852214e-01  -4.899522e-02  3.456644e-01  2.843036e-01  -6.119721e-02  4.818534e-01  2.832645e-01  -6.337120e-02  1.996907e-01  1.145869e-01  3.346086e-01  -2.438926e-01  4.783435e-01  2.350201e-01  -1.505979e-01  5.125927e-02  2.894835e-01  -1.419803e-01  2.184409e-01  -1.142749e-01  1.020144e-01  -2.471674e-03  -3.536058e-01  -1.106687e-01  1.098173e+00  1.325882e-01  1.827332e-01  -2.222193e-01  1.028608e-01  -1.486361e-01  7.358959e-01  3.124352e-01  8.278216e-02  -5.723374e-01  -1.540797e-02  1.376746e-01  5.629826e-02  1.727195e-01  2.445072e-01  -6.850959e-01  3.354602e-01  -7.690173e-01  2.049535e-01  2.236908e-01  -6.293661e-02  4.159865e-01  2.399808e-01  3.750234e-01  -5.686773e-01  1.395580e-01  2.562960e-01  -7.227100e-02  2.288945e-01  -2.674445e-01  -2.882102e-01  -3.755816e-01  5.634473e-01  -4.812791e-01  -7.944160e-01  -2.374289e-02  8.826149e-02  1.114370e-01  -2.465445e-01  2.100163e-01  -5.223509e-01  5.734801e-01  -7.188245e-03  -4.428759e-01  -3.017624e-01  -5.091505e-02  -1.546459e-01  -4.594521e-01  4.137279e-01  6.118431e-01  -1.991948e-01  7.010710e-01  -4.573542e-01  1.079437e+00  -4.614395e-01  5.703387e-01  -4.881513e-01  -1.377051e-01  6.133189e-01  2.767899e-01  9.660590e-01  2.511332e-01  1.238454e+00  -3.372853e-01  -5.259737e-01  -6.989782e-02  -4.702253e-01  5.399147e-01  9.203024e-02  2.997574e+00  6.168711e-01  -1.843541e-01  1.987669e+00  1.368783e+00  4.946535e-01  -1.029367e-01  -4.058357e-01  1.835219e+00  -4.026042e-01  1.741364e-01  3.846470e-01  -1.620478e-01  2.069320e-01  -7.830855e-02  -8.000490e-01  7.395455e-01  -6.720202e-02  -2.093078e-01  3.259131e-01  5.843477e-01  2.117524e-03  1.146768e-02  -9.716249e-01  -7.004950e-01  -1.313085e-02  -1.090717e-01  -2.373298e-01  4.014538e-01  3.145089e-01  1.627564e-01  -4.350388e-01  -1.525748e-01  5.568579e-02  3.283797e-01  -2.320810e-01  -1.023853e-01  -1.435965e+00  -4.540219e-01  -1.446876e-01  1.507722e+00  -5.165760e-02  5.227386e-01  5.256038e-01  -1.064553e-01  3.186927e-01  -3.549623e-04  2.350653e-01  -1.277453e-01  -6.082979e-01  -1.337667e-01  -3.444491e-01  -1.238110e+00  1.380890e-01  -3.478548e-01  2.308026e-01  -1.244842e-01  2.223603e-01  -1.093242e-01  -8.432369e-01  3.326106e-01  -2.332784e-02  -6.651822e-01  7.954271e-03  -1.055749e+00  5.671114e-01  2.858159e-01  1.462765e-01  1.990455e-01  -5.341973e-01  3.379231e-02  9.900403e-02  -4.033990e-01  3.882964e-01  -3.186220e-01  -2.723613e-01  -1.034508e-02  -9.337459e-01  3.813019e-03  1.962519e-01  -3.541951e-01  -5.425101e-01  -2.180323e-01  -4.647502e-01  1.846741e-02  2.754769e-01  -6.549153e-02  2.383201e-03  -1.719621e-01  3.380097e-01  -1.983780e-01  -3.455037e-02  -9.738083e-02  -1.879527e-01  -3.261377e-01  -3.679812e-02  5.820299e-03  3.969102e-02  3.116786e-01  5.814452e-02  -3.809792e-01  -2.717921e-01  5.072299e-01  -3.502126e-01  1.772311e-01  9.848707e-01  -1.807888e-01  7.285239e-02  -1.778633e-01  -2.128623e-01  6.618444e-01  1.055159e-01  -7.137674e-01  2.507031e-01  -4.544526e-01  -1.718682e-01  3.034357e-01  -2.336704e-01  -1.959909e-01  -9.520055e-02  -3.903576e-02  8.394207e-02  -2.710905e-01  -5.498195e-02  -9.220885e-02  3.744340e-01  -7.501241e-02  -5.588939e-01  1.417325e-01  3.445470e-01  -3.275797e-02  -5.414917e-01  -3.539554e-01  -6.041484e-01  3.826723e-01  2.217042e-01  2.188497e-01  2.246425e-01  1.898730e-01  3.884964e-01  1.633310e-01  -1.562827e-01  5.141094e-02  -4.723808e-01  -1.164660e-01  1.955062e-01  6.214058e-01  -3.687496e-01  -5.156442e-02  7.982452e-02  2.125442e-01  2.108299e-01  -2.198045e-02  -1.112088e-01  -2.689360e-01  4.382520e-01  5.232312e-01  4.896610e-01  2.548480e-01  -1.501374e-01  5.705566e-01  4.079994e-02  -3.821567e-01  -5.467244e-01  1.770326e-01  9.936606e-01  -3.210170e-01  -3.211972e-01  1.640412e-01  -3.147851e-01  -1.120196e-01  6.921681e-01  -5.120108e-01  6.126651e-01  8.533775e-01  -9.398413e-03  -5.048152e-01  -2.436592e-01  5.438547e-01  -4.049645e-01  -7.363847e-01  -1.276175e-01  -5.949373e-01  1.074856e-02  -1.223665e+00  9.727058e-01  8.450690e-02  4.383366e-01  3.641135e-01  -1.595994e-01  -5.422834e-01  -4.755895e-01  -2.548465e-01  -1.043911e+00  4.822403e-01  6.568109e-01  -2.290105e-01  -3.276283e-02  1.079463e-01  -3.246149e-01  -9.326136e-01  -2.074294e-01  8.078715e-01  -4.712963e-01  -4.725818e-01  3.505879e-01  4.135800e-01  5.864113e-01  -1.477275e+00  9.922709e-01  7.004810e-01  2.549286e-01  1.087508e-01  4.493593e-01  -3.253847e-01  -1.921109e+00  5.310946e-01  -5.765056e-02  -2.528417e-01  4.602432e-02  3.044075e-01  -3.924524e-01  2.325809e-01  -2.570118e-01  1.731737e-01  2.832145e-02  1.322186e-01  9.676402e-01  -7.663071e-02  8.292282e-01  6.036872e-01  5.073733e-01  5.874033e-01  1.292173e-01  3.514108e+00  -3.077688e-01  1.367228e-01  -1.233655e+00  -3.540832e-02  5.203759e-01  1.313372e+00  4.967906e-01  1.790675e-02  7.085081e-01  1.430122e-01  -1.080826e-01  1.552155e-01  -2.429344e-01  2.253373e-01  -4.247265e-01  1.571620e+00  -3.776631e-02  -7.348539e-01  1.032371e+00  7.960060e-01  -3.526004e-02  -3.074082e-01  -2.575912e-01  3.702329e+00  -2.135288e-01  4.063499e-02  -8.068299e-02  -1.840185e-01  5.781211e-01  -6.262213e-01  -8.672581e-01  2.629016e-01  -8.612937e-02  3.865434e-02  -2.334056e-01  -1.548846e-01  -4.335546e-01  6.571675e-01  1.747778e-01  -2.236339e-01  1.678707e-02  -9.226783e-02  -3.283365e-01  -4.355059e-01  3.007415e-01  6.054954e-01  -3.172861e-02  6.383755e-01  -3.086640e-01  1.058075e+00  -3.911955e-01  2.646363e-01  -4.209430e-01  -2.971231e-01  5.173187e-01  2.729329e-01  1.136904e+00  4.819149e-01  6.815716e-01  -8.511844e-02  -4.918218e-01  1.990943e-01  -3.539185e-01  5.007727e-01  -4.007604e-02  2.128452e+00  7.338278e-01  -4.346678e-03  2.115259e+00  1.137496e+00  2.966976e-01  1.610226e-01  -3.514866e-01  1.976780e+00  -9.557614e-02  1.313973e-01  -4.931324e-01  1.392117e-02  4.862610e-01  -3.879851e-01  9.002705e-01  -2.682244e-01  -1.621991e-01  3.497739e-01  -3.891946e-01  -1.705577e-01  -4.096282e-02  5.732415e-01  1.446097e+00  -2.554321e-01  -2.818902e-01  -1.881203e-01  -2.493819e-01  5.349077e-02  -7.919067e-01  1.140954e-01  -2.475726e-01  3.270633e-01  1.029149e-01  -2.074218e-01  -1.927170e-01  -6.527703e-01  1.841499e+00  3.993789e-02  -5.790572e-01  -2.678665e+00  2.052138e-01  -2.261777e-01  3.371393e-01  -1.264574e-01  -2.693940e-01  -4.913774e-01  4.530886e-01  3.967102e-01  -5.534397e-02  3.654588e-01  3.310430e-01  1.425701e+00  1.837996e-01  -4.116296e-01  3.448837e-01  -1.621601e-01  9.496941e-02  2.133681e-01  -1.845185e-01  8.138466e-02  -1.548866e-01  7.520806e-01  5.398064e-02  1.720914e-01  -6.975819e-01  2.272184e-01  2.285299e-02  -9.255382e-02  9.090027e-02  5.975331e-02  -3.950751e-01  -1.445623e-01  -1.779739e-01  -2.226457e-02  4.878612e-01  2.366955e-01  5.347689e-01  -6.555060e-01  2.461730e-01  -6.181660e-02  2.106740e-01  2.429116e-01  -1.386453e-01  2.653467e-01  -2.290336e-01  -1.406215e-01  -5.619104e-01  -2.861621e-01  3.195893e-01  2.930891e-01  3.023515e-01  2.881041e-01  1.742927e-01  -1.176546e-01  2.200157e-01  3.245676e-02  -2.445663e-01  -3.678451e-01  3.234392e-01  3.853789e-01  -1.143659e-01  -9.182303e-02  1.122756e-01  -1.767548e-01  -1.040060e+00  -6.078162e-01  -3.377069e-01  3.078964e-01  -3.980524e-01  -9.076286e-01  -1.081264e+00  -5.230622e-01  1.607653e-01  -3.250768e-01  2.059705e-01  -5.411376e-01  1.494781e-01  6.931056e-01  -1.216768e-01  -4.784030e-01  -7.015053e-02  -5.970777e-01  5.739302e-01  1.517367e-01  -9.175981e-01  -1.101704e-01  -3.819606e-01  -2.163813e-01  1.220577e-01  1.017044e-01  -3.080436e-01  3.606786e-01  -3.194849e-01  -3.673959e-01  -4.633421e-02  9.155609e-02  4.662977e-01  1.213584e-01  -7.645404e-02  -4.180607e-01  -4.986008e-02  -1.776655e-01  -1.629646e-01  -3.288583e-01  -4.256704e-01  -1.812031e-01  1.365657e-01  8.112807e-01  9.426849e-01  -6.645694e-01  -2.014694e-02  9.111802e-01  -5.086293e-01  -1.607174e-01  5.016654e-01  -1.444816e-01  -3.316525e-01  -4.419633e-01  4.902737e-01  4.515335e-01  5.697660e-01  -1.759200e-01  -2.554415e-01  -3.558670e-02  -3.176260e-01  -1.987324e-01  1.447936e-01  -2.891591e-01  2.395426e-01  6.284637e-01  1.462598e-01  -7.333476e-01  -3.204482e-01  9.058272e-02  4.734539e-01  -1.273968e-01  -6.518906e-02  5.090145e-01  2.159883e-01  -6.229218e-01  -2.373744e-01  -7.548199e-01  -6.349143e-03  1.732627e-02  7.007368e-01  -5.971130e-03  -5.451046e-01  2.671068e-02  4.252300e-02  4.423500e-01  -1.866267e+00  4.222000e-02  -4.391730e-01  1.722611e-01  5.717221e-01  2.371844e-01  3.097133e-01  -4.017668e-01  -3.040215e-01  -4.529073e-01  -1.249454e+00  -4.179537e-01  -1.056916e+00  -4.022074e-01  1.603503e-02  3.910414e-01  3.541184e-01  -2.877884e-01  -5.016425e-02  1.006904e-01  2.548342e-01  -9.579791e-02  -4.850820e-01  6.783140e-01  -8.113704e-01  7.120776e-02  -7.220578e-02  -4.112828e-01  1.358469e+00  4.728764e-01  3.346616e-01  -5.356057e-01  -4.777564e-01  -8.605763e-02  2.617405e-01  1.446310e-01  1.852126e-01  3.213069e-01  1.311753e-01  -1.875236e-01  4.726809e-02  -8.519077e-02  4.981672e-01  -8.897658e-02  2.531519e-01  -9.664276e-03  -3.707134e-01  2.016357e-01  -1.711525e-01  1.056665e+00  -5.429219e-01  -1.148487e-01  -2.877754e-01  -5.866060e-02  1.769502e-01  6.748663e-02  5.490080e-01  -1.895665e-01  -2.872487e-01  -2.112758e-01  -7.024888e-01  -1.254036e+00  -5.755404e-01  -4.654154e-02  -2.606849e-01  -7.778411e-02  6.062130e-03  4.924248e-01  -9.575492e-03  4.842259e-02  2.922002e-01  -5.921711e-01  3.875339e-01  -8.485586e-01  1.120429e-01  9.931836e-02  -5.136380e-01  -3.397871e-01  -3.577828e-01  -6.384838e-02  2.252590e-01  -1.990412e-01  9.579614e-02  9.305878e-02  1.263837e-02  -3.574581e-01  -3.939396e-01  3.265644e-01  2.679863e-01  -2.858742e-01  -5.093162e-01  -2.429747e-01  -1.076015e+00  -1.673938e-01  6.844933e-02  5.015707e-01  -1.555200e-01  -3.316004e-02  2.203040e-01  1.510627e-01  -1.073779e-01  6.127561e-01  -1.952189e-01  -2.356004e-01  2.151870e-01  3.630969e-01  -2.679648e-01  2.666992e-01  2.021393e-01  -4.367827e-01  -1.225604e-01  -4.061358e-02  -2.714743e-01  -7.408099e-02  4.872786e-01  3.492121e-01  3.056946e-01  -1.600903e-02  -1.701382e-01  3.536254e-01  1.571146e-01  -4.095495e-01  1.795089e-01  -1.518217e-01  -5.120431e-01  6.826084e-01  -6.642967e-01  1.493139e-01  -4.011210e-01  -1.813069e-01  3.109012e-02  7.529502e-02  1.241429e-01  -1.925574e-01  -2.229673e-01  -3.374481e-02  5.982966e-02  3.580361e-01  9.438052e-01  3.240696e-01  -5.625823e-01  -2.399040e-01  -3.046213e-01  6.713470e-01  -2.804962e-01  1.428602e+00  -3.194119e-01  -1.599576e-01  8.622301e-01  2.541338e-01  -5.103809e-02  4.917508e-01  -2.722204e-01  8.208928e-02  1.480743e-01  7.897741e-01  -4.230483e-01  6.102213e-01  -4.082780e-01  -5.331041e-03  -7.378656e-02  -1.186299e-01  9.828715e-02  6.431566e-01  3.838445e-01  3.644024e-01  1.264851e-01  6.093137e-01  -2.610857e-01  3.365746e-01  2.954007e-01  -3.463551e-01  -4.258049e-01  -4.533433e-01  6.229137e-01  -2.270023e-01  -2.671777e-01  -1.517742e-01  -6.789491e-02  -2.728726e-02  -1.935272e-01  -2.545696e-01  1.045723e-01  -4.795623e-01  -3.433514e-02  -3.374904e-01  -1.285025e-01  3.748435e-01  2.362836e-02  1.596007e-01  -5.602863e-01  -1.563685e-01  -2.316856e-01  9.010281e-02  -1.603999e-01  1.048950e-01  6.276573e-02  -1.718254e-01  5.368320e-01  -2.534329e-01  3.611245e-02  -5.969424e-02  -3.535808e-01  -4.424502e-01  -2.254756e-01  -6.753972e-02  -6.662169e-01  7.387943e-01  -5.086223e-01  9.816728e-02  -2.375786e-02  1.552613e-01  6.021349e-02  2.827312e-01  7.145038e-01  3.488225e-01  -1.898369e-01  4.549094e-01  -5.066180e-01  4.194762e-01  6.140974e-02  -1.683710e-01  1.251451e-01  3.367110e-01  -1.307391e+00  7.102589e-01  1.145097e-01  -1.205509e-01  1.694178e-02  4.163438e-02  -6.443851e-01  6.247413e-01  -4.351496e-01  4.474602e-02  -4.092071e-01  -4.855388e-02  1.666815e-01  -1.988368e-01  8.343642e-01  7.614267e-01  -1.278074e-01  5.807235e-01  2.181736e-01  2.182750e+00  -5.810669e-01  4.322247e-01  -9.759164e-01  6.517677e-02  -1.103623e-02  9.876301e-01  6.204425e-01  5.241985e-01  1.131359e+00  8.708744e-02  -2.675565e-01  -1.313858e-01  -1.807031e-01  5.025073e-01  -2.542837e-01  1.205950e+00  1.558896e-01  -7.883345e-01  1.155165e+00  4.750581e-01  3.906683e-01  -3.752391e-02  -5.394138e-01  3.638654e+00  -2.287854e-01  7.887430e-01  1.271072e+00  4.480667e-01  -4.085006e-01  -1.753454e-01  -8.541057e-01  3.237175e-01  -4.157670e-01  -8.947847e-01  1.730540e-01  6.877026e-01  1.027142e-01  -5.541183e-01  -9.522921e-01  2.504291e-02  3.805976e-01  1.240497e-02  3.599725e-01  8.789288e-01  6.827779e-01  2.882184e-02  -8.023583e-02  -2.540036e-01  -1.401438e-01  2.758081e-01  3.904789e-01  3.068314e-01  -8.885956e-01  1.373677e-03  2.075324e-01  1.164429e+00  -6.485202e-01  4.553782e-02  1.997362e-02  -2.122927e-01  4.562404e-01  1.865167e-01  4.339865e-02  -1.693972e-01  -1.295573e+00  -2.451909e-01  -2.414563e-01  -1.064798e+00  -9.586699e-02  -4.018810e-02  -6.580629e-01  2.908415e-01  4.169531e-01  2.555434e-01  -5.083908e-01  -2.866880e-01  -4.184098e-01  -2.378930e-01  -1.318354e-01  -8.587228e-01  -2.489546e-01  3.876899e-03  -4.119069e-02  5.828573e-01  -9.209489e-01  -5.258358e-01  6.042192e-02  -5.759791e-01  -9.310021e-02  1.725983e-01  -2.077441e-01  3.759716e-01  -1.557473e-02  -1.391311e-01  7.058848e-02  5.059578e-01  -1.665241e-01  1.034018e-01  -2.362970e-01  3.874997e-01  -1.161391e-01  5.405243e-02  -1.670155e-01  9.565307e-02  -1.203992e-01  1.973249e-01  2.276873e-01  1.702367e-02  1.620008e-01  -4.553236e-02  -4.666512e-01  1.429029e-01  -1.855467e-02  4.819999e-01  5.796810e-01  1.869092e-01  -2.721273e-01  3.836195e-01  -6.160968e-02  -9.269924e-02  4.009765e-01  -3.866136e-02  -1.775814e-01  3.396863e-01  3.726233e-01  4.374718e-02  3.600932e-01  -3.419156e-01  -9.937964e-02  6.230981e-01  3.880988e-01  -6.058544e-02  -3.357527e-01  -4.264209e-01  5.818157e-01  6.107140e-01  2.853798e-01  -3.141806e-01  -9.941923e-01  -9.749740e-02  -1.693702e-01  -3.930597e-01  -3.984757e-01  7.943750e-01  -7.609932e-02  -4.621506e-01  -5.350466e-01  -6.353580e-01  -1.090081e-01  5.264675e-03  6.135172e-01  2.274377e-01  -4.716168e-01  -4.621981e-01  2.324528e-01  5.198207e-01  -6.680415e-01  5.628047e-01  -2.778136e-01  7.869354e-02  3.594887e-01  1.709597e-01  -1.246357e-01  5.821689e-01  -3.433597e-01  3.178306e-01  -2.122031e-01  -6.708074e-01  1.915047e-02  5.875897e-01  -3.879965e-02  4.011119e-01  4.391483e-01  1.472873e-02  -1.239675e-01  3.717061e-01  -3.362986e-01  -5.935443e-01  1.022793e-01  -1.587713e+00  -1.802310e-01  -1.022847e-01  -4.346370e-01  -6.137660e-02  -4.834591e-01  -1.624795e-01  1.770345e-01  -3.996692e-01  -4.201692e-03  -3.130272e-01  2.136069e-01  -5.472690e-01  -3.809030e-01  2.697693e-02  2.576325e-01  -1.703079e-01  -2.249576e-01  -2.437190e-01  -1.425192e+00  2.412037e-01  2.880418e-01  3.443460e-01  -2.740317e-01  -3.238978e-01  1.186574e+00  1.724064e-01  -1.748763e-01  -9.921159e-03  -3.128699e-01  -3.831730e-01  3.216810e-01  5.088572e-01  -1.036069e+00  1.521442e-01  -1.352322e-01  1.261399e-01  3.813861e-01  2.027623e-01  -2.596402e-01  2.195189e-01  7.363743e-01  6.594228e-01  4.656213e-01  3.145016e-01  1.041916e-01  4.272267e-01  2.979060e-01  -5.323716e-01  6.369334e-02  -3.698741e-01  -1.874765e-01  4.769939e-01  -4.267962e-01  -3.731455e-02  7.755553e-02  -4.567395e-03  1.336281e-01  -5.028658e-01  -3.686452e-01  -9.229431e-01  -1.114779e-01  -4.939720e-01  -3.747824e-01  1.833567e-01  2.458560e-01  -2.148445e-01  -4.679130e-01  -3.026354e-01  -3.644693e-01  3.076594e-01  1.070995e-01  6.304463e-01  -5.543966e-01  -1.196167e+00  1.797294e-01  5.140403e-01  -1.184679e-01  4.930382e-01  -3.271897e-01  -9.375156e-01  6.106192e-02  -3.015769e-02  -3.691497e-01  6.065482e-01  -5.571131e-01  -8.119076e-03  -9.708203e-02  -2.056834e-01  -4.515966e-01  -2.297040e-01  4.201165e-01  3.030948e-01  1.742568e-01  2.209453e-01  -1.109880e+00  6.525914e-01  2.292873e-01  -1.173035e-02  8.033909e-02  -4.540274e-01  -1.619527e-02  -8.580276e-02  -2.871808e-01  2.325053e-03  -4.290016e-01  2.286047e-01  3.328797e-01  -3.376873e-01  1.236945e-01  -5.591148e-01  8.334743e-01  -3.431470e-01  5.385508e-01  8.784355e-01  9.572032e-02  -1.534956e-01  2.878877e-01  -5.953808e-01  -9.066695e-02  2.620993e-01  3.249108e-01  4.458225e-01  7.602756e-02  -5.340906e-01  4.115131e-01  -2.792898e-01  -3.343501e-01  9.920608e-02  -1.044003e-01  -3.571128e-01  5.699773e-01  -1.150365e-01  -4.455468e-02  -9.703289e-02  -6.990039e-01  5.153481e-02  -2.691081e-01  2.911130e-01  -1.017046e-01  8.066283e-02  -1.031634e-01  1.856496e-01  6.190709e-01  1.124740e-02  -6.792069e-01  -3.535965e-01  1.721834e-01  -6.934734e-02  4.315952e-01  6.945905e-01  -3.888622e-01  5.344664e-01  4.032914e-01  8.704357e-02  6.375534e-01  3.856186e-01  -2.350764e-01  3.890278e-01  -1.942434e-01  -6.101219e-02  -1.724389e-01  4.984348e-01  4.688677e-01  -2.159799e-01  1.047664e-01  8.109563e-02  5.948720e-02  8.991846e-02  3.677694e-01  1.812481e-01  -1.338094e-01  -4.038768e-01  -9.863511e-02  -1.641337e-04  7.488154e-02  5.941178e-01  2.830290e-01  2.371084e-01  4.373308e-01  2.134142e-01  -2.199587e-01  -4.410765e-01  2.489147e-01  4.876038e-02  -7.284556e-02  1.735322e-01  3.687151e-01  -4.710955e-01  -7.645012e-02  9.295465e-02  -3.040624e-01  -4.309675e-01  -3.316154e-01  -1.218349e-01  -2.028603e-01  6.729001e-02  4.430714e-01  3.280976e-01  3.920614e-01  4.863528e-01  2.718797e-01  4.389063e-01  -2.949564e-02  -2.949361e-01  4.064186e-01  2.909531e-01  3.527757e-02  9.236382e-01  8.457417e-02  -1.130058e+00  4.955862e-01  -5.956885e-01  -2.377236e-01  -2.685890e-02  -1.985761e-01  7.601163e-02  7.871215e-02  1.696095e-01  -3.329352e-01  -5.490497e-02  -1.444489e-01  4.093744e-01  1.816255e-01  -6.535557e-01  3.536659e-01  9.073807e-02  3.445841e-01  9.163912e-01  4.481441e-01  -1.080990e+00  2.042239e-01  7.085314e-02  -3.641387e-01  -2.619296e-01  -4.822897e-01  5.434252e-01  8.484933e-02  -2.374132e-01  4.023237e-01  6.248240e-01  1.943787e-02  1.728595e-01  -1.812801e-01  -2.278518e-01  -1.106086e+00  -4.616983e-01  -5.127257e-01  1.807389e-01  4.235436e-02  1.354533e-02  4.269660e-03  -3.072535e-01  7.202679e-01  5.332236e-01  2.300650e-02  -2.317038e-01  -4.039168e-01  3.216374e-01  4.567412e-01  3.648496e-01  -3.481824e-01  4.108234e-01  3.420492e-01  -9.741103e-01  -1.353068e-01  1.394079e-01  4.254739e-01  6.431583e-01  -3.502057e-02  -6.278477e-02  -1.258560e-01  -2.530726e-01  4.549260e-01  4.849509e-01  -2.399168e-01  -3.789130e-01  4.835039e-01  -5.466893e-01  3.527372e-01  5.347827e-01  -4.570680e-01  -5.787115e-01  3.261242e-01  -1.614045e-01  7.223660e-01  -1.081404e-01  2.464824e-01  4.531294e-01  -1.677664e-01  -4.396832e-01  -9.286000e-02  -8.801553e-01  -5.836073e-01  -4.607434e-01  1.723760e-01  -1.266356e-01  1.276718e-01  -4.014662e-02  -1.313551e-01  4.083490e-01  2.179741e-01  -9.396266e-01  3.127799e-01  -5.485791e-02  -5.312719e-02  -3.422621e-01  3.216147e-01  -2.591943e-01  -1.901087e-01  4.398441e-01  -1.458106e-01  1.322687e-01  1.409532e-01  -2.085733e-01  -6.917270e-01  -2.868373e-01  4.253761e-01  8.263388e-02  6.516542e-01  -7.300152e-01  9.770884e-02  -1.919074e+00  6.004138e-01  5.107807e-01  -9.480209e-01  -4.239951e-01  -2.183483e-01  -7.133589e-01  -2.496944e-01  2.939586e-01  1.536815e-02  -6.256244e-01  8.899752e-01  -4.838006e-01  3.015916e-01  -5.151557e-01  -2.803289e-01  2.734500e-01  -3.302253e-01  -5.587481e-01  -6.113031e-02  -3.419533e-01  9.068005e-02  -1.520095e-01  3.640931e-01  -4.175804e-01  1.776806e-03  -1.458339e-01  -3.674020e-01  -4.922398e-01  1.583861e-01  -8.371447e-02  -2.279744e-01  -2.291114e-01  -5.658688e-01  -9.916737e-02  6.589684e-01  -5.470852e-01  2.635462e-01  8.872363e-02  2.260306e-01  -3.295261e-01  -1.446177e-02  4.885524e-01  7.383314e-02  -6.071422e-01  -2.865385e-01  -9.209147e-01  -2.626489e-01  -5.055873e-02  6.010220e-01  1.299524e-01  -8.924371e-02  -6.484746e-02  -1.217374e-01  2.016434e-01  -1.020914e+00  8.890357e-02  -7.460299e-01  -2.746471e-01  5.369517e-01  3.690124e-01  1.150005e-01  1.363903e-01  -3.926525e-01  -2.072883e-01  -2.856658e-01  3.576335e-02  -7.714568e-01  -2.003698e-02  1.120019e-02  4.038209e-01  7.172534e-01  -8.803073e-02  -2.732371e-02  1.297202e-01  3.231646e-01  -1.182902e+00  -4.081284e-01  -1.009528e-01  -2.609313e-01  -1.830358e-01  1.020233e-01  -2.389943e-01  1.891136e-02  1.180688e-01  -2.190873e-01  -3.643899e-01  -4.108605e-01  2.157414e-01  -2.337661e-01  -4.147970e-03  -6.211056e-01  1.062161e-01  2.678985e-01  -1.181953e-01  -8.483555e-01  -1.493749e-01  2.615562e-01  -1.765771e-01  -1.715983e-01  6.582440e-03  -5.452303e-01  2.308816e-01  -2.889158e-01  5.408092e-01  -2.469967e-02  -1.176767e-02  7.504334e-02  3.319485e-01  1.014029e-01  5.491141e-01  2.454372e-02  4.418132e-01  -1.537444e-01  2.061850e-02  1.483274e-02  -3.890258e-01  1.323847e-01  -4.507402e-01  6.771818e-01  2.806893e-01  -4.852806e-02  -4.052404e-03  3.324659e-01  9.128836e-01  -5.780245e-01  -4.240013e-01  2.385475e-01  4.226407e-02  1.637013e-01  -9.213673e-02  6.643198e-02  1.510763e-01  -4.052038e-01  -6.897695e-02  -2.894690e-01  1.838045e-01  3.503236e-01  -5.050835e-02  -2.350415e-01  2.082092e-01  -2.530357e-02  -4.328099e-01  -4.317366e-02  1.859153e-01  1.786097e-01  6.156881e-01  -1.201476e-01  -6.866597e-03  -1.982196e-01  -3.722596e-01  3.980278e-01  -6.706799e-02  -2.190629e-02  -4.517585e-01  2.001853e-01  -7.143604e-02  1.552250e-01  1.771903e-01  -4.078043e-01  -1.950242e-01  3.875526e-01  2.900164e-01  3.093899e-01  -1.955643e-01  3.566746e-01  2.591074e-01  1.026892e-01  -2.081167e-01  6.383644e-01  -3.278570e-01  -1.411558e-01  -4.182636e-01  8.875263e-02  7.567679e-01  -1.306783e-02  -6.049429e-01  -2.424397e-01  -4.191435e-01  2.791983e-01  1.804757e-01  -1.033623e-01  -1.765701e-01  -5.489434e-02  1.271263e-02  3.266348e-01  -3.799024e-01  -1.701133e-01  3.885758e-02  -4.837791e-02  5.496091e-02  -4.538240e-01  5.247472e-01  4.352197e-01  -9.459121e-03  -9.143035e-01  -4.569857e-01  -3.766040e-01  -2.237302e-02  4.001406e-01  4.932553e-01  -2.215085e-01  -2.086022e-01  2.123881e-01  2.740976e-01  -9.819834e-02  2.724013e-01  -6.261538e-01  3.312841e-01  3.650538e-01  9.441546e-01  -3.807323e-01  2.392532e-01  -6.043532e-02  -1.779077e-01  6.876190e-02  -2.889952e-02  -3.804502e-01  1.089395e-01  3.083090e-01  3.851658e-01  4.030933e-02  -8.048068e-02  -1.742830e-01  4.546585e-01  3.623511e-01  -1.397181e-01  2.437063e-01  2.692272e-01  -1.381408e-01  8.744280e-02  -1.539174e-01  1.225856e-01  1.035657e-01  -1.760761e-01  -7.382784e-02  8.854066e-02  -6.224386e-01  -7.968244e-01  3.742135e-01  -3.208418e-01  -5.608500e-01  4.434315e-01  8.754940e-02  -2.852201e-01  -7.086850e-01  -2.138543e-01  -7.355858e-02  8.490570e-02  3.124011e-01  3.627496e-01  -4.816917e-01  -5.350707e-01  3.745136e-01  5.030604e-01  -3.925822e-02  4.758233e-01  -2.617666e-02  -4.710029e-01  9.613287e-02  2.551878e-01  -3.987067e-01  -4.280712e-01  -3.465368e-01  -1.035242e-01  -3.057302e-02  -5.531616e-01  -3.467631e-01  -9.473527e-02  6.144256e-01  1.983240e-01  3.996882e-01  -1.499993e-01  -9.574750e-01  4.962338e-01  4.220472e-01  8.405709e-02  4.122601e-01  -2.196069e-01  -3.334626e-01  1.961539e-01  -7.519723e-02  9.195412e-02  7.118650e-03  -2.011438e-01  -3.725568e-01  5.428838e-01  3.867632e-01  5.674042e-02  -4.543683e-01  3.992715e-02  -9.251802e-03  -1.784955e-01  4.094046e-01  5.450941e-01  2.560412e-01  1.817931e-01  -2.053380e-01  6.247827e-01  -2.981044e-01  5.984303e-01  1.982522e-01  7.454448e-02  9.896384e-01  -1.957316e-01  2.736028e-01  2.145648e-01  6.042130e-01  3.572097e-02  -1.305293e-01  2.997243e-02  -7.953018e-01  6.885944e-02  -3.995194e-01  2.087566e+00  6.090065e-01  4.175426e-01  1.017157e+00  1.287407e+00  2.699363e-02  -2.866873e-02  -4.631075e-01  1.098538e+00  -8.384288e-02  -9.519679e-02  -4.934776e-01  9.575427e-02  9.514867e-01  -8.877525e-02  6.656604e-01  2.993357e-01  1.047596e-01  5.236280e-01  -6.254789e-02  -2.214916e-01  -2.607642e-01  6.915120e-01  5.532995e-01  -2.262560e-01  1.315399e-01  -1.894670e-01  1.823867e-01  -5.862931e-01  2.043064e-01  1.066554e+00  3.349278e-02  5.440649e-01  -1.565971e-01  1.747554e-01  -5.956303e-01  1.226275e-01  3.136678e-01  -4.675693e-01  1.373446e-01  -4.911352e-01  1.218949e+00  3.181419e-01  3.973673e-01  -4.085134e-01  -5.580515e-01  -1.598565e-02  -3.568116e-01  2.115458e-01  -2.937289e-01  9.191961e-01  1.343852e+00  3.678886e-01  1.714913e+00  5.892006e-01  -1.072421e-01  -2.414799e-01  -2.659930e-01  4.178062e-01  -5.611899e-01  -1.793635e-01  8.268937e-02  1.154497e-01  -4.288537e-02  7.770631e-02  -3.630544e-01  3.005644e-01  -5.878329e-01  -3.430833e-01  -6.705245e-02  4.079012e-02  5.196770e-01  -4.661716e-01  -2.078863e-01  -3.152196e-01  4.619607e-02  -5.113253e-01  -3.542123e-01  1.052074e+00  1.737963e-01  -3.688630e-01  -2.274408e-01  -7.689791e-01  -4.031394e-01  3.170044e-01  3.745316e-01  4.665982e-02  -5.275062e-01  -2.897218e-01  3.106080e-01  4.294761e-01  -3.758955e-01  -3.635955e-03  -1.000487e-01  -4.625288e-01  2.986539e-01  1.436422e-01  -2.207647e-01  -1.392281e-02  -5.701480e-01  9.642766e-02  -2.289628e-01  -4.000770e-01  9.040481e-02  3.067977e-01  -6.518678e-03  4.424820e-01  3.681925e-01  1.690535e-01  -2.191409e-01  -2.860930e-02  -5.817562e-01  2.315910e-02  1.389029e-01  -1.310702e-01  3.384982e-01  -1.508344e-01  7.618121e-01  5.035472e-01  -2.511681e-01  -4.570617e-01  -2.635553e-01  1.179690e-01  3.229987e-01  2.642065e-01  -5.934556e-01  5.683585e-01  2.998413e-01  -1.105156e+00  -3.351119e-01  3.949934e-01  2.540066e-01  4.498891e-01  2.931175e-01  -5.714081e-01  -5.849915e-01  2.546940e-03  4.708087e-01  7.551682e-01  -3.493760e-02  -6.637504e-01  3.880268e-01  -4.561839e-01  1.901269e-01  5.904774e-01  -8.426898e-01  -4.668138e-01  3.062322e-01  2.040543e-01  6.884169e-01  -1.166804e-01  4.788884e-01  5.816333e-01  2.505892e-01  -3.981225e-01  -9.543676e-02  -3.407060e-01  -7.196902e-01  -3.247425e-01  6.071391e-01  2.686311e-01  3.250811e-01  -1.035718e-01  -3.673787e-01  2.446225e-01  -1.041805e-01  -1.111574e-01  -5.484040e-01  -4.104331e-01  5.043897e-01  3.700947e-01  4.609167e-01  -6.451905e-01  -4.579414e-01  -4.681412e-01  3.831081e-01  -8.602248e-02  2.065686e-01  7.438994e-01  2.466674e-01  -4.620756e-01  -1.794479e-01  -8.119285e-01  -3.204301e-01  1.615711e-01  5.824879e-01  4.890528e-02  -2.435839e-01  -2.034525e-01  3.155010e-01  2.652905e-01  -5.107782e-01  1.218956e-01  -6.429417e-01  -4.722320e-01  7.913955e-01  1.427087e-01  -3.139140e-01  -2.384563e-02  -4.368008e-01  -1.044982e-01  -6.186913e-01  -3.138340e-01  -2.965321e-01  9.398002e-02  1.951218e-01  2.877352e-01  4.467646e-01  1.872170e-02  -2.710050e-01  -5.409303e-02  5.759554e-01  -6.429860e-01  7.302108e-02  1.596443e-01  -2.321284e-02  2.988885e-01  -2.669625e-01  -4.189340e-01  3.152138e-01  3.231691e-01  4.743359e-01  -1.706612e-01  -3.137673e-01  -1.585679e-01  1.039280e-02  -2.830051e-01  5.809913e-02  3.447119e-02  9.808441e-02  -3.392807e-01  -8.156015e-03  -2.302714e-01  -3.554811e-01  -2.335346e-02  4.100689e-01  -1.385595e-01  -2.691192e-02  1.545278e-01  5.479565e-01  4.880572e-01  -3.931767e-01  1.480602e-01  -4.505139e-01  4.050344e-03  -3.599321e-02  3.197763e-01  -6.102664e-01  3.559791e-01  -1.271727e-01  -3.200274e-01  1.266694e-01  -2.204951e-01  -1.718675e-01  5.469433e-01  6.130264e-01  1.507276e-01  4.280996e-02  -4.650406e-01  1.317290e-01  6.633955e-01  2.502156e-01  3.894723e-01  -5.716293e-01  6.267487e-01  1.085532e+00  -5.565718e-01  -2.352255e-02  2.466783e-02  2.053178e-01  -2.918692e-01  5.889926e-01  -8.627698e-01  1.535819e-01  1.811013e-01  3.217538e-01  -2.249376e-01  -2.191248e-01  2.139616e-01  -5.506890e-01  -8.732583e-01  3.107890e-01  -6.344525e-01  1.939362e-01  -1.246366e+00  4.060924e-01  -5.343441e-01  1.564497e-01  1.778154e-01  -4.443084e-01  -1.743641e-01  -6.618885e-01  -2.439288e-01  -1.003601e+00  -7.549747e-04  5.927271e-01  -2.290889e-02  5.306876e-01  -3.894767e-01  9.212075e-02  -2.123007e+00  -5.770091e-01  3.739478e-01  -1.416079e+00  -1.189796e+00  -6.290421e-01  -1.206046e-01  4.187721e-01  -2.018911e+00  9.819158e-02  -4.132117e-01  8.166728e-01  1.288431e-01  7.119154e-02  1.553386e-02  -2.696694e-01  1.456259e-01  -3.149362e-01  -3.253763e-01  1.703790e-01  4.409895e-01  3.130715e-01  -3.238009e-01  -7.301838e-01  -2.384885e-01  1.157542e-01  -4.337718e-01  -2.067660e-01  5.480530e-01  3.051296e-01  -2.472537e-01  1.833017e-01  -6.324725e-01  -7.499672e-02  5.565836e-02  4.217204e-01  2.503840e-01  -7.893887e-01  -1.498020e-01  3.553129e-02  1.097699e+00  -2.759171e-01  3.057001e-01  -1.693383e-01  -9.407362e-03  3.657341e-01  9.807234e-02  -3.188496e-01  -6.395654e-02  -7.794706e-01  2.481757e-01  5.804817e-02  -7.530580e-01  -2.198219e-01  -6.147377e-02  -4.767994e-01  5.001512e-01  5.526470e-01  3.427836e-01  -4.087944e-01  -5.568016e-01  -4.529665e-01  2.469188e-01  8.553882e-02  5.814008e-02  -2.131639e-01  -6.077288e-02  1.359249e+00  5.351274e-01  -1.876055e-01  -2.404868e-01  -6.567372e-01  -1.219792e-01  3.161040e-01  5.600827e-01  -9.061375e-01  9.579251e-01  -3.612123e-02  -8.958141e-01  -4.111442e-01  6.856360e-02  1.912369e-01  7.263999e-01  4.181880e-01  -3.977231e-01  -5.070529e-01  -4.916066e-01  4.086326e-01  8.053270e-01  -6.913961e-01  -3.170906e-01  3.224865e-01  -4.656345e-01  5.245384e-01  4.087324e-01  -6.668738e-01  -5.155606e-01  7.280139e-01  -2.877980e-01  7.550389e-01  -3.160741e-01  1.250453e-01  5.079089e-01  1.224507e-01  -7.133536e-01  4.908992e-02  -1.047851e+00  -6.244319e-01  -2.220405e-01  9.491371e-01  2.084425e-01  
      </Weights>
      <Biases Rows="50" Columns="1">
        -4.879963e-01  1.975456e-01  -5.760993e-01  5.566643e-01  1.150005e+00  -3.614223e-01  3.471269e-01  4.511749e-01  -2.604340e-01  -3.470270e-01  1.781583e-02  3.868767e-01  1.732496e-01  3.845078e-01  3.732130e-01  2.644099e-02  -8.497451e-02  -2.516291e-01  -2.527092e-01  -3.718610e-01  2.953324e-01  9.921911e-02  4.065109e-01  6.064762e-01  4.943273e-01  2.189477e-01  4.533338e-01  -3.236772e-01  5.527083e-01  4.238294e-01  5.829998e-01  4.859636e-01  -2.804203e-01  1.982136e-01  -1.035032e+00  -4.119119e-01  4.483000e-01  3.353765e-01  -4.895005e-01  4.739107e-01  5.365258e-01  2.022369e-01  -2.306175e-01  5.300354e-01  -7.138466e-01  5.080134e-01  3.585624e-01  1.506822e-02  5.608881e-01  -9.406227e-01  
      </Biases>
    </DenseLayer>
    <DenseLayer Width="50" ActivationFunction="3">
      <Weights Rows="50" Columns="50">
        -8.433000e-01  -1.321980e-01  1.931998e-01  5.536547e-01  1.098747e+00  -4.996553e-01  1.138319e-01  1.602831e-01  -4.387769e-01  3.632549e-01  2.605234e-01  1.703193e-01  1.310320e-02  3.771549e-01  -3.837402e-01  2.214748e-03  1.801175e-01  -5.695252e-02  -6.036236e-01  -1.414367e-01  1.864596e-01  -4.266200e-02  2.691456e-01  8.394241e-02  2.864130e-01  2.157637e-01  3.382482e-01  4.105737e-02  7.557067e-01  4.124897e-01  3.715136e-01  7.571089e-01  -3.571559e-01  1.647582e-01  -8.552163e-01  -2.736953e-01  1.515721e-01  9.158611e-02  -4.137218e-01  2.150061e-01  6.064478e-01  1.727988e-01  -1.138272e-01  7.596754e-01  -8.748654e-01  3.559046e-01  6.169870e-01  -2.990608e-01  3.354462e-01  -9.464207e-01  -5.622736e-01  -3.158776e-01  -4.100288e-01  5.418274e-01  5.156463e-01  -2.114305e-01  4.143685e-02  4.501647e-01  -3.915249e-01  2.961630e-01  1.708603e-01  1.327120e-01  2.563041e-01  2.508616e-01  -2.416582e-01  4.505349e-02  -2.198451e-01  -4.363003e-01  -4.016458e-01  -2.939141e-01  1.051466e-01  3.146895e-01  1.700601e-01  4.038410e-01  6.445441e-01  4.788815e-02  3.208966e-01  7.865211e-02  6.027140e-01  4.590812e-01  2.458510e-01  8.682011e-01  -2.198984e-01  2.758081e-01  -4.163307e-01  -2.051025e-01  -1.043323e-01  -3.324535e-01  -3.410846e-01  4.021353e-01  3.927967e-01  2.446688e-01  -1.985392e-01  4.416553e-02  -4.809837e-01  3.676108e-01  8.159650e-01  -3.111795e-02  2.393491e-01  -4.351195e-01  -2.867532e-01  -8.052875e-01  -5.079671e-02  1.411465e-01  2.599315e-01  -3.238032e-01  2.515389e-01  2.100185e-01  2.382184e-01  -4.906595e-01  1.084532e+00  1.618959e-01  8.980985e-01  2.838060e-01  3.951237e-01  7.487231e-01  8.921435e-01  -1.977901e-02  -2.941413e-01  1.202779e-01  2.437938e-01  9.525468e-02  6.186993e-01  4.091993e-01  2.577625e-01  -6.773405e-01  -7.654284e-02  6.790849e-02  -3.549125e-02  6.910534e-01  2.109551e-01  1.769068e-03  -2.314255e-01  1.548773e-01  -6.665233e-02  2.263754e-01  4.131977e-01  5.383624e-01  -1.216212e-01  8.918533e-02  3.264394e-01  4.949637e-01  -3.396470e-02  9.213069e-02  -4.494018e-01  1.122404e-01  5.613146e-02  -6.903629e-01  2.734680e-01  -2.388732e-01  -2.807016e-01  1.185505e-01  -1.523594e-01  3.525943e-01  6.986476e-01  -2.818525e-01  3.304702e-02  4.828740e-01  -2.992800e-01  2.456836e-01  1.861362e-01  4.590232e-01  3.007913e-01  -8.125598e-02  -3.393344e-01  1.896608e-02  1.639059e-01  -2.396069e-01  -2.387899e-01  -1.202442e-01  -1.752700e-01  4.225613e-01  -5.041461e-02  2.025407e-01  1.107698e-01  -1.859350e-02  4.625376e-01  -1.892425e-01  4.867911e-01  1.963953e-01  7.362422e-02  3.512596e-01  -3.816380e-01  2.538105e-01  -6.103150e-01  -7.309552e-01  1.144724e-01  1.427144e-01  1.023735e-01  2.396683e-01  3.670295e-01  3.747179e-01  -6.781135e-02  1.784937e-01  -9.887965e-02  7.978918e-02  5.442982e-01  -2.277701e-01  3.979641e-01  -6.731985e-01  -4.881684e-01  -8.445386e-02  -3.270422e-01  1.245010e-01  5.447212e-01  -5.850658e-01  2.012777e-01  8.200571e-02  -3.949260e-01  1.332619e-01  9.126285e-02  8.741440e-02  1.940385e-01  2.315831e-01  -3.776294e-01  2.263842e-01  -6.378864e-02  -1.768511e-01  -4.045982e-01  -3.789788e-01  7.326986e-02  9.902507e-02  4.875874e-01  2.783004e-01  3.240502e-01  -4.702278e-02  4.720427e-01  -1.491538e-03  6.344984e-01  6.916045e-02  3.773052e-01  7.530888e-01  -2.800148e-01  2.968180e-01  -5.026150e-01  -3.440797e-01  2.554677e-01  -4.096053e-01  -3.201494e-01  3.925232e-01  5.974395e-01  4.086291e-01  -6.078805e-02  4.046777e-01  -5.266294e-01  2.141625e-01  7.557648e-01  -3.114487e-01  5.758889e-01  -7.649851e-01  -6.250523e-01  -3.204254e-01  -1.819215e-01  1.143066e-01  7.042397e-01  -2.664331e-01  4.515062e-02  1.337336e-01  -1.413865e-01  3.438351e-01  3.755312e-01  1.579169e-01  5.229192e-01  2.100976e-01  -3.741239e-01  -1.071950e-01  1.336042e-01  -1.053590e-01  -5.588662e-01  3.992707e-03  -1.125221e-01  1.339167e-03  8.985415e-01  3.161944e-01  4.159261e-01  -2.085422e-01  6.713534e-02  -3.709736e-02  4.753406e-01  2.681547e-01  2.747477e-01  3.457097e-01  -4.777361e-01  -5.030980e-01  -5.345196e-01  -4.302921e-01  -3.653784e-03  -8.151591e-01  -3.577210e-01  2.419674e-01  7.708969e-02  4.118829e-01  -2.671884e-02  4.176152e-01  -3.072160e-01  3.049988e-01  -7.829373e-02  -1.607848e-01  1.947535e-01  -6.970835e-01  -6.571531e-01  -1.655631e-01  -2.167803e-01  2.836687e-01  9.494771e-01  -3.504572e-01  2.422074e-01  1.300508e-01  -4.138713e-01  6.566617e-02  1.266562e-01  1.324146e-01  1.453260e-01  1.830575e-01  -3.363681e-01  1.455824e-01  -1.226923e-01  -3.919242e-02  -4.379251e-01  -3.654830e-01  -3.425128e-02  2.070180e-01  4.362832e-01  1.464507e-01  4.050712e-02  -6.587573e-02  3.914697e-01  -1.364567e-01  4.049133e-01  1.476601e-01  6.787423e-01  5.910243e-01  -6.198013e-01  4.147270e-01  -7.983085e-01  -5.168271e-01  2.366197e-01  -1.558753e-02  -1.202894e-01  4.443640e-01  6.176803e-01  3.480239e-01  -7.332051e-02  8.253164e-01  -7.577386e-01  3.389841e-01  7.165959e-01  7.500885e-02  6.113633e-01  -6.355889e-01  4.704499e-01  5.043263e-01  -1.473653e-01  3.141000e-01  1.940418e-01  -4.327061e-01  2.663490e-02  3.746733e-01  4.474392e-01  2.695753e-01  -7.321218e-01  -1.329161e-01  -2.211443e-01  -3.384007e-01  4.462834e-01  -1.509544e+00  -7.850782e-01  1.065337e+00  -1.375823e-01  -5.142924e-01  2.909081e-01  4.082765e-01  -1.729079e-01  9.868725e-02  -2.582147e-01  3.378178e-01  4.527792e-01  -5.399040e-01  3.471253e-01  -3.312827e-01  8.539674e-02  -4.411346e-02  5.712339e-01  3.007628e-01  -3.767520e-01  -4.005667e-01  6.488045e-02  -2.570062e-01  -5.336467e-01  -2.494634e-01  3.785874e-01  -2.182478e-01  -3.913320e-01  4.617391e-02  -1.902127e-01  -5.268861e-01  8.779839e-02  5.931305e-01  4.880591e-01  -3.630219e-01  2.543072e-01  -2.186514e-01  3.145081e-01  3.884379e-01  2.617233e-01  5.657073e-02  4.686452e-01  1.387444e-01  -7.189848e-01  5.218844e-01  -2.817789e-01  3.413633e-01  6.172960e-01  -2.214449e-01  7.676277e-01  -4.389509e-01  -1.069700e+00  -2.286892e-01  4.690809e-01  7.174040e-02  9.116869e-01  -7.713203e-01  -5.219956e-01  -3.130332e-02  -2.591792e-01  -3.390790e-01  2.018407e-01  2.367848e-01  2.223210e-01  3.370729e-01  -1.181694e-01  1.316709e-02  -5.224369e-01  -3.529641e-01  -4.405802e-02  -2.792242e-02  5.640299e-01  -6.416029e-02  -2.031995e-01  -7.750513e-02  1.445264e-01  -1.031999e-01  -1.094117e+00  3.162031e-01  -4.456983e-01  4.104423e-01  1.412737e-01  2.911088e-01  -8.635874e-02  -2.511849e-01  -1.228951e-01  -3.636384e-02  4.156745e-01  1.335171e-01  3.756311e-01  -2.052924e-01  -1.176034e-01  2.712412e-01  -6.461960e-01  6.737921e-01  3.426135e-02  1.309859e-01  6.498539e-02  1.772361e-01  -8.577114e-01  1.038487e+00  -3.124551e-01  -5.181693e-01  6.315535e-02  -6.819201e-02  9.022641e-02  -2.865794e-01  -9.815775e-02  -4.602261e-01  5.852126e-02  8.850828e-01  4.994238e-01  -9.938511e-01  -4.852488e-02  -3.863640e-02  -2.321802e-01  -4.417669e-02  -6.972297e-02  6.905683e-01  -4.518920e-01  -2.519134e-01  1.950669e-01  2.606092e-01  -6.353395e-01  7.806377e-03  4.336711e-02  5.002727e-02  -1.933547e-01  5.199796e-01  -2.787193e-02  -3.067411e-02  9.645201e-02  -3.021791e-01  9.286785e-01  -2.090596e-01  -4.234495e-01  -4.070520e-01  -1.441113e-01  4.221485e-01  6.443406e-01  -3.886697e-01  3.021985e-01  3.735601e-01  -2.407119e-01  1.383476e-01  1.501285e-01  2.741549e-01  1.012913e-01  3.253141e-01  -3.567631e-01  -1.747662e-01  1.414602e-01  -9.517293e-02  -4.185165e-01  -3.554680e-01  -1.236631e-01  3.621368e-01  2.735685e-01  2.950630e-01  2.987289e-01  4.541486e-02  1.338617e-01  4.854656e-02  6.390495e-01  4.423668e-01  6.266669e-01  7.861372e-01  -5.706886e-01  2.003773e-01  -8.957764e-01  -4.674885e-01  2.653332e-01  -6.401542e-02  -4.592845e-01  3.416268e-01  5.000703e-01  -3.437341e-02  -1.772813e-01  7.200806e-01  -5.813460e-01  3.104256e-01  8.587423e-01  -1.792738e-01  3.843270e-01  -6.115736e-01  3.089743e-01  -1.077085e-01  -1.533072e-01  -3.438790e-01  -2.901371e-01  5.818290e-01  -2.263442e-01  -2.782441e-01  2.767722e-01  -2.131959e-01  -1.011659e-01  -2.117757e-01  -1.088401e-01  -4.180620e-01  1.225205e-01  -2.229153e-01  2.533963e-01  2.273228e-01  2.683543e-01  7.015672e-02  -3.473538e-01  1.927281e-01  -4.700983e-01  -2.963436e-01  7.477594e-02  -1.191825e-01  -5.569945e-02  -1.796112e-01  -7.255042e-02  -1.035288e-01  -2.889048e-01  -5.709796e-01  3.322919e-01  -4.167069e-02  2.950149e-01  2.726040e-01  -3.675969e-01  3.073535e-01  1.682325e-02  -4.706210e-01  -6.337178e-01  6.335512e-02  -1.172831e-01  -2.515464e-01  5.059951e-01  -2.875440e-01  -2.769665e-01  3.420151e-01  -2.777021e-02  5.630506e-01  -2.328056e-01  -7.274051e-01  2.423142e-01  2.127364e-02  -2.682776e-01  3.600151e-02  -7.425781e-01  -5.233217e-01  -3.995732e-02  -1.514766e-01  8.778668e-01  1.317622e-01  1.961684e-01  4.534362e-02  -5.269933e-01  1.105184e+00  5.873066e-01  -6.033731e-01  -4.408643e-02  3.028544e-01  9.075511e-02  -8.570843e-01  -2.415947e-01  -2.847169e-01  -1.414455e-01  -1.057846e+00  -3.915266e-01  1.000669e+00  4.449872e-02  5.951082e-02  -3.610308e-01  8.692600e-02  -2.490309e-01  2.508456e-02  1.747315e-01  1.445396e-01  1.310500e-01  1.374353e-01  2.683416e-01  1.033923e-02  -8.846939e-02  6.457238e-01  2.947506e-01  -5.611417e-03  8.525008e-03  -2.356846e-01  1.972041e-01  -7.073753e-01  -2.790016e-01  3.927996e-02  5.757095e-01  -1.626036e-01  2.455980e-01  -3.308692e-01  -4.896990e-01  2.288039e-01  -3.140028e-02  -3.057387e-01  2.528364e-01  7.574522e-01  -7.408196e-02  -2.204265e-01  -1.971747e-01  -7.871605e-01  -7.528269e-02  5.183548e-02  1.578344e-01  1.109845e-01  4.166953e-01  5.493472e-01  -4.095636e-01  -1.366210e-01  -9.038994e-01  -1.714402e-01  -9.237429e-01  4.520491e-02  -1.586369e-01  1.245151e-01  -2.474195e-01  -1.085868e+00  -1.893813e-01  -4.694828e-01  3.414740e-01  -2.121081e-01  1.949135e-01  -7.657187e-02  -6.581053e-01  -5.168785e-01  3.855111e-01  -3.705936e-01  -2.649395e-01  -1.687331e-01  1.831332e-01  -3.330137e-01  3.873076e-01  -2.472041e-01  -8.221530e-01  -1.934317e-01  -5.558048e-01  4.134142e-01  8.974075e-01  6.621670e-02  4.760845e-01  -2.743609e-01  -6.684188e-01  1.843476e-01  1.884423e-02  -7.364132e-02  8.658857e-02  -3.729015e-01  1.387943e-01  -2.321867e-01  -2.654343e-01  -4.345974e-01  2.941280e-01  1.372779e-01  2.944173e-01  -8.135943e-02  5.974254e-01  -5.440453e-02  -1.293629e-01  4.537145e-02  -2.767925e-01  -3.968639e-01  -3.757652e-01  2.655470e-02  -3.360702e-01  1.959767e-01  -7.001886e-01  -3.986936e-02  3.355368e-03  -8.833025e-01  5.047652e-01  -6.036629e-03  6.328853e-01  4.013473e-01  -2.604830e-01  6.096787e-01  3.319307e-01  -7.042039e-01  -4.325501e-01  -1.691578e-01  7.684310e-03  -3.445936e-01  4.788622e-01  -1.837181e-01  -1.016492e+00  4.513607e-02  -2.689675e-01  2.958681e-01  2.795004e-01  2.664711e-01  3.175080e-01  -3.698812e-01  -8.476431e-01  5.344704e-01  -5.264024e-02  -4.543033e-01  3.455779e-01  -5.226842e-02  -2.634029e-01  -1.226403e-01  -2.160456e-01  -1.426984e-01  2.562150e-01  -6.352324e-02  -8.994836e-02  3.507389e-01  1.643334e-01  2.437257e-01  -5.544227e-02  -4.493769e-02  -3.885183e-01  6.712204e-02  -4.320478e-01  -6.334368e-02  -1.262274e-01  2.620055e-01  -7.476432e-01  -2.483495e-01  -4.835778e-01  -8.288270e-01  4.550447e-01  -3.106796e-01  9.738407e-01  1.451955e-01  -1.506674e-01  -3.408484e-02  4.604982e-01  -3.216040e-01  -3.747113e-01  -2.414797e-01  1.976527e-03  -1.008542e+00  4.122953e-01  -1.610916e-01  -6.635286e-01  1.421494e-01  -2.275855e-01  8.399045e-01  8.627530e-02  2.333110e-02  -9.073439e-01  -7.603818e-03  -1.337222e-02  1.095642e-01  8.020260e-01  6.086983e-01  -7.222964e-01  5.089832e-01  -2.914162e-01  9.663130e-02  -4.298465e-01  4.410342e-01  1.261644e-01  1.526671e-01  -2.769199e-01  -3.135538e-01  -1.683727e-01  -5.116634e-01  7.837939e-01  2.497199e-01  9.366366e-02  -1.041439e-01  -1.468801e-01  6.440649e-01  4.744818e-01  -7.902129e-01  -7.919936e-02  6.806924e-01  -3.546206e-02  2.002119e-01  -4.849601e-01  -4.016924e-01  7.426105e-02  8.910763e-02  6.768208e-01  -4.615042e-01  -5.018443e-01  3.297650e-01  -9.003416e-02  -4.559647e-02  -5.752627e-01  3.042204e-01  -1.784586e-01  5.684519e-01  1.292276e-01  2.799889e-01  2.448184e-01  -1.637064e-01  6.696231e-01  1.042879e-02  3.047038e-02  -5.839609e-01  -9.179150e-01  4.563581e-01  -2.136369e-01  9.358544e-03  5.252593e-01  -2.237239e-02  -1.177674e-01  -4.269142e-02  8.907102e-04  -4.016163e-01  1.739999e-01  -6.347474e-02  -2.037791e-01  2.930374e-01  2.913438e-01  4.619895e-01  -6.754062e-02  -2.373562e-01  -4.293201e-01  -4.939697e-01  -1.481632e-01  1.001251e-01  -8.477865e-02  1.934941e-01  -5.438776e-01  -4.242269e-01  -5.331119e-01  -7.342082e-01  2.880695e-01  -1.176897e-01  6.840139e-01  4.647201e-01  -2.305355e-01  3.633640e-01  9.282420e-02  -4.981967e-01  -4.639740e-01  3.357116e-02  1.430469e-01  -7.968189e-01  4.825363e-01  -4.618523e-01  -6.255538e-01  3.482092e-01  -3.228677e-01  7.372032e-01  2.923668e-01  5.278082e-01  3.437991e-01  2.755753e-01  -4.238497e-02  1.159889e-01  -1.440350e-01  5.282305e-02  -2.850196e-01  2.645864e-01  -1.258592e+00  -1.671067e-01  -9.053928e-01  -4.531341e-01  -2.567334e-01  -7.239714e-01  -7.959112e-01  2.790453e-01  2.731787e-01  4.905651e-01  2.699353e-01  2.900917e-01  -5.610102e-01  -4.086201e-01  -1.016767e-02  5.668103e-01  1.803448e-01  -4.244238e-01  2.524563e-01  -1.313118e-01  -2.329174e-01  2.980079e-01  -4.770075e-01  2.866486e-02  5.166392e-02  1.827097e-01  1.450163e-02  8.828301e-02  -7.674857e-02  -4.955478e-01  -3.105944e-01  -2.018351e-01  -7.639712e-02  1.375574e-01  3.358851e-01  -1.972935e-01  7.511023e-02  7.690066e-02  6.575558e-02  2.319043e-01  5.195192e-01  7.270558e-02  6.828786e-01  -6.028271e-01  -2.191735e-01  4.563216e-01  -4.308695e-01  -3.150841e-01  -1.508681e-02  5.338739e-01  -1.073047e+00  2.980056e-01  -2.718476e-01  -8.725679e-01  -5.631273e-01  5.292961e-02  -3.367581e-01  5.790539e-01  -1.875576e-01  3.642326e-01  -5.877597e-02  2.667489e-02  -1.060366e+00  -1.978965e-02  4.254409e-01  -1.189971e-01  -4.729562e-01  -5.642276e-02  -4.999695e-01  -4.682515e-03  3.910531e-01  -7.597854e-02  -1.622074e-01  4.704864e-01  2.483519e-01  -4.292743e-01  2.067004e-01  -5.655869e-01  3.256357e-01  -1.193424e+00  6.402203e-03  -4.260201e-01  -2.658184e-01  -5.298577e-01  2.230731e-01  -4.455741e-01  -4.537682e-01  5.084769e-01  -3.164723e-01  2.375276e-01  5.202108e-01  3.955060e-01  3.572089e-01  -5.598716e-01  -4.370548e-01  4.342081e-01  -2.155690e-01  -1.915241e-02  2.625500e-01  -2.027090e-01  -3.287215e-01  -3.174429e-01  -3.575597e-01  -8.168444e-02  9.084374e-02  1.880766e-02  4.083655e-02  5.162081e-01  1.617619e-01  3.084419e-01  -4.299446e-01  -9.056190e-02  -1.399882e-01  -3.166357e-01  -5.257607e-01  -1.136070e-01  -5.018283e-01  -1.247602e-01  -5.791507e-01  -3.804207e-01  -4.332056e-01  -4.945584e-01  5.441281e-01  -4.086853e-01  4.701235e-01  2.636882e-01  -1.596298e-01  1.739023e-01  2.931662e-01  -1.163386e-01  -4.061272e-01  1.063518e-01  -3.158750e-05  -3.277022e-01  6.882452e-01  -4.287272e-01  -4.430725e-01  2.652971e-01  -1.587634e-01  6.318691e-01  5.216886e-01  4.148737e-01  3.432358e-01  -5.970803e-01  -9.754342e-01  5.561751e-01  -2.032171e-01  -4.107411e-01  2.010898e-01  -4.198325e-02  -1.094776e-01  -2.561631e-01  -2.934613e-01  -2.435135e-01  2.108363e-01  -2.197094e-01  -3.850012e-02  3.999521e-01  3.826167e-01  4.750034e-01  -1.879819e-01  -1.505537e-01  -2.901984e-01  -3.526540e-01  -2.623533e-01  1.350362e-02  -2.509737e-01  2.648621e-01  -4.251105e-01  -4.446280e-01  -4.061576e-01  -4.929766e-01  4.157795e-01  -2.175717e-01  9.451213e-01  3.069004e-01  -1.625248e-01  1.304067e-02  4.330199e-01  -1.830403e-01  -3.590688e-01  1.874232e-02  1.620144e-01  -5.505253e-01  5.958120e-01  -2.366044e-01  -5.889545e-01  3.764447e-01  -3.167244e-01  7.453087e-01  -1.027538e-01  -3.081306e-01  6.074250e-01  -4.513258e-01  6.555039e-02  -4.300424e-01  -2.120372e-01  8.398871e-02  -4.561018e-01  1.536275e-01  6.920742e-01  6.334087e-02  5.853958e-02  1.047606e-01  1.207747e-01  2.478270e-01  5.277787e-01  -1.727346e-01  -4.991353e-01  3.365818e-01  -1.730195e-01  -2.459030e-01  -1.686800e-01  -7.665048e-01  5.760837e-01  -1.183907e-01  -2.497477e-01  2.884441e-01  1.355878e-01  5.523059e-01  -3.059386e-01  1.480944e-01  -5.732747e-01  -5.614733e-02  -3.224057e-01  1.786613e-01  -2.234193e-01  -2.010997e-01  -2.053858e-01  3.571247e-01  3.001217e-02  6.366842e-01  -9.228138e-02  -8.333373e-02  -1.617981e-01  1.319894e-01  6.880722e-02  -3.862996e-01  2.300655e-01  -3.451020e-01  1.374200e-01  6.355011e-01  5.447082e-04  4.981288e-02  -6.038820e-01  4.326709e-01  -1.190773e-01  -1.173409e-01  2.943917e-01  -2.387825e-01  -1.522761e-01  -1.146451e+00  -5.910431e-02  -6.968717e-03  -1.644899e-01  1.386653e-01  9.890661e-02  4.692124e-01  1.456778e-01  3.607632e-01  -1.479037e-01  -8.629970e-02  -2.726713e-01  -2.273522e-01  -3.318266e-02  -1.630031e-01  -4.832431e-01  7.023320e-02  -1.877165e-01  -2.752352e-01  -3.176277e-01  -7.512523e-01  4.019839e-02  -1.496827e-02  1.896693e-01  3.678143e-01  -3.466687e-01  1.320478e-01  4.688677e-01  -2.649452e-01  -3.818212e-01  -2.252177e-01  2.566419e-01  6.834132e-02  4.824246e-01  -2.642335e-01  -2.877508e-01  1.431667e-01  -5.674224e-01  5.007007e-01  -1.028769e-01  -7.461051e-01  6.710687e-02  -1.504326e-01  -1.928618e-01  -7.535271e-02  -3.314124e-01  -8.254209e-01  -4.464426e-01  -8.351864e-02  1.098756e+00  1.563713e-01  -2.616366e-01  -1.893738e-01  -1.663774e-01  1.324780e+00  8.321887e-01  -5.560078e-01  -6.690928e-01  8.520700e-01  9.465674e-01  -4.337806e-01  1.238663e-01  -1.677268e-01  5.347060e-02  -1.055223e+00  -5.636933e-01  1.798944e-01  -2.879029e-03  9.361679e-02  -7.602630e-03  2.168701e-02  -6.230808e-01  -1.908278e-01  4.190452e-01  4.129809e-01  4.251210e-01  2.899297e-01  2.434942e-01  -4.424199e-02  -3.759413e-01  5.146148e-01  3.485261e-01  -3.742049e-01  2.484934e-01  3.015254e-02  5.746322e-02  -8.147479e-01  -2.783481e-01  1.905869e-01  4.348645e-01  4.297204e-01  1.006407e+00  -2.331920e-01  4.389031e-02  3.105156e-01  -6.945233e-02  -2.032209e-01  7.317596e-02  -3.256989e-01  -9.386325e-01  -1.940856e-01  -4.941233e-01  -7.965063e-01  2.828698e-02  -9.362421e-02  -5.840877e-01  3.522535e-01  2.375076e-01  2.226260e-01  -4.729762e-01  -5.204631e-03  -6.311918e-01  -3.152442e-01  -4.001295e-01  1.219973e+00  -1.272290e-01  1.422857e-01  -1.386679e-01  -8.962178e-01  -1.713586e-01  9.958948e-02  4.215781e-01  -3.893607e-01  3.999608e-02  4.825209e-01  -2.572363e-01  -7.041438e-01  1.385774e-01  -8.939143e-01  -8.510371e-02  -6.027734e-01  -4.419600e-01  -3.819161e-01  3.718613e-01  -2.235165e-01  -1.695293e-01  8.332121e-01  -3.718517e-01  4.325123e-01  -4.286415e-01  -1.811671e-02  -4.182798e-01  2.058706e-01  6.850838e-01  -4.453715e-01  1.790453e-01  7.990264e-02  -4.461954e-01  3.279521e-01  3.778449e-01  3.687615e-02  2.062134e-01  4.599931e-01  -3.047325e-02  4.879509e-03  2.042481e-01  -2.498087e-01  -6.716346e-01  3.149511e-02  2.700836e-01  2.130763e-01  4.193366e-01  4.015426e-01  3.753105e-01  -8.038022e-02  3.120642e-01  1.244151e-01  7.539361e-01  1.798277e-01  4.873281e-01  9.428515e-01  -4.134482e-01  2.679493e-01  -7.885979e-01  -3.033215e-01  2.276521e-01  -4.209860e-01  -2.608133e-01  3.864265e-01  2.224296e-01  2.504972e-02  -2.371494e-02  6.809708e-01  -6.958317e-01  5.317274e-01  1.074271e+00  -7.311373e-02  1.823615e-01  -3.047980e-01  2.933742e-01  -2.601171e-01  8.319537e-02  3.965586e-01  3.690166e-02  4.333038e-01  2.347075e-01  2.035969e-01  -7.815879e-01  -2.223203e-01  1.381958e-01  1.604214e-01  4.199457e-01  6.393751e-01  -3.940741e-01  7.660521e-02  1.120008e-02  -9.865445e-01  2.725261e-01  -4.197904e-01  9.804221e-01  -9.311017e-01  5.306216e-01  8.096098e-01  -4.406214e-01  -6.200005e-01  2.000662e-01  3.475340e-01  -3.469585e-01  -9.156433e-01  -2.086468e-02  4.171382e-01  -4.616912e-01  -1.039654e-01  1.176922e-01  -6.573100e-01  2.867058e-01  -1.216574e-01  7.888099e-02  2.989544e-01  -6.518131e-02  1.410307e-01  -6.049820e-02  -3.734810e-02  2.746733e-01  1.531124e-01  -2.738729e-01  5.352648e-02  -6.164574e-02  1.595187e-01  7.015606e-01  4.169066e-01  3.664099e-01  -6.050861e-01  -7.326081e-01  5.733159e-01  -3.514270e-01  -3.230503e-02  3.442248e-01  4.149805e-02  6.888572e-02  -1.303743e-01  2.725574e-03  2.791081e-02  1.875283e-01  6.730778e-02  -1.236500e-01  2.974809e-01  3.258240e-01  2.219701e-01  9.391744e-02  -3.233068e-01  -2.829230e-01  -4.805053e-01  -1.122901e-01  -2.488460e-01  -3.524555e-01  -7.200334e-02  -8.233812e-01  -4.387490e-01  -6.812893e-01  -6.669906e-01  5.025768e-01  -3.158979e-01  8.401503e-01  2.418212e-01  -8.038764e-02  7.754786e-02  4.766787e-01  -3.410337e-01  -5.764170e-01  -1.687455e-01  5.459988e-02  -7.580209e-01  6.968651e-01  -1.938941e-01  -5.992486e-01  3.396416e-02  -2.608463e-01  8.136575e-01  -5.224847e-01  -4.019444e-01  -1.960675e-01  4.302271e-01  6.459268e-01  -3.045054e-01  7.030225e-02  1.194520e-01  -3.851313e-01  3.268122e-01  -7.781684e-02  3.023521e-01  2.285259e-01  6.241620e-02  -2.024142e-01  -3.025212e-02  6.071188e-02  -2.382019e-01  -4.304917e-01  -4.163832e-01  2.559978e-02  2.372949e-01  3.275969e-01  5.272413e-02  8.521472e-02  2.379541e-01  6.037573e-01  -2.607630e-02  6.424130e-01  3.484499e-01  5.741732e-01  3.793103e-01  -4.263726e-01  2.818912e-01  -7.824336e-01  -5.151824e-01  4.355944e-01  -1.593862e-02  -3.675053e-01  4.882634e-01  4.126055e-01  2.118250e-01  8.367446e-02  7.825052e-01  -5.498685e-01  1.988088e-01  3.837396e-01  1.387616e-01  2.639125e-01  -9.108536e-01  -5.531460e-01  3.848829e-02  -1.052093e-04  2.700357e-01  6.893122e-01  -2.782606e-01  2.732956e-01  3.751504e-01  -4.044623e-01  3.642423e-01  2.312789e-01  6.353910e-03  3.951224e-01  2.737491e-01  -2.173473e-01  1.372307e-01  -1.515213e-01  -1.376072e-01  -2.307731e-01  -1.644537e-01  -2.656325e-03  1.176153e-01  4.722828e-01  3.253945e-01  2.621297e-01  1.044307e-01  4.030574e-01  9.006080e-05  4.340978e-01  -1.615491e-01  5.642816e-01  7.119378e-01  -3.565151e-01  4.577429e-01  -5.446065e-01  -3.729240e-01  2.735640e-01  8.011863e-02  -3.436795e-01  3.624462e-01  4.545768e-01  1.851673e-02  8.684492e-03  8.232948e-01  -3.928572e-01  3.687613e-01  8.633994e-01  -3.886932e-01  3.186221e-01  -6.925848e-01  -4.898069e-01  -4.954291e-01  -3.628222e-01  3.685203e-01  6.220108e-01  -3.228149e-01  2.985065e-01  5.324875e-01  -1.264039e-01  -2.290755e-01  2.839244e-01  7.126694e-01  -1.015471e-01  1.168935e-02  -1.055801e-01  -6.204636e-02  -4.740145e-02  -1.749484e-01  -4.573192e-01  -3.686547e-01  3.820450e-02  1.517986e-01  2.366673e-01  3.794387e-01  2.769172e-01  -9.571340e-02  6.116204e-01  -1.449861e-01  2.379583e-01  7.710680e-02  2.535918e-01  3.814783e-01  -4.687336e-01  3.634715e-01  -6.369618e-01  -1.948062e-01  2.180848e-01  4.628668e-01  -5.986587e-01  8.476260e-02  9.943403e-02  1.882172e-01  1.855315e-02  1.499818e-01  -3.356725e-01  3.539215e-01  5.887102e-01  7.626644e-02  6.272978e-01  -3.911061e-01  2.190388e-02  -1.961916e-02  2.218980e-01  -4.612672e-01  -3.670795e-01  3.881958e-01  -4.666949e-02  -1.584496e-01  9.294459e-02  -5.435244e-02  -3.567259e-02  8.999142e-02  -1.356488e-01  -4.983603e-01  7.290718e-03  9.234428e-02  3.266743e-02  -7.565597e-03  4.191236e-02  1.702272e-01  -2.878750e-01  -1.065904e-01  -8.414229e-01  2.931168e-02  -3.150072e-01  -2.679054e-01  -2.971973e-01  -6.767201e-02  -3.565921e-01  -1.543772e-01  -9.489962e-01  -2.180134e-01  1.225277e-01  -5.064006e-01  4.145144e-01  5.380510e-02  -7.709948e-02  -2.217437e-01  3.899675e-01  -1.103450e+00  -4.608265e-01  -8.650072e-03  2.080050e-01  -9.054711e-02  1.009647e-01  -2.818650e-01  -1.206914e-02  7.799825e-02  -3.258198e-01  4.556166e-01  -5.779679e-01  1.367759e-02  4.155068e-02  3.134476e-01  7.074225e-01  -4.888895e-01  2.273285e-02  3.056273e-01  -3.276926e-01  5.082519e-03  3.311394e-01  1.042588e-01  3.195291e-01  3.333769e-01  -5.604793e-01  1.555063e-01  4.339620e-02  -2.524908e-01  -4.911781e-01  -2.495047e-01  1.641087e-01  1.595338e-01  3.634599e-01  4.118448e-01  2.326903e-01  1.177276e-01  5.740243e-01  -2.670587e-01  3.913148e-01  1.723433e-01  3.541584e-01  7.457343e-01  -3.825848e-01  5.173261e-01  -6.281968e-01  -8.038185e-02  2.991951e-01  -2.478305e-01  -5.648704e-01  4.174013e-01  6.164362e-01  2.369850e-01  -1.357843e-01  7.271467e-01  -5.765569e-01  3.324300e-01  7.092098e-01  -7.314580e-02  1.684186e-01  -9.877110e-01  -4.458144e-01  -5.641108e-01  -8.731606e-02  -4.610981e-01  2.628867e-01  -2.397035e-01  -2.505212e-02  6.169740e-02  1.048298e-01  -5.147375e-01  9.997995e-01  3.278180e-01  4.209311e-01  -5.801809e-02  5.494133e-01  8.580125e-01  6.771095e-01  4.351031e-01  -4.934187e-01  9.050652e-02  2.434341e-01  -1.376932e-01  -8.278717e-02  2.827814e-01  1.132991e+00  -6.758940e-01  9.424080e-02  -3.192782e-02  2.297602e-01  2.542642e-01  8.236731e-01  -2.194099e-02  -2.274783e-01  3.695315e-01  -4.437140e-01  3.245013e-01  2.815416e-01  4.808348e-01  7.334855e-02  -3.315715e-02  3.000349e-01  7.473130e-01  2.256043e-01  1.487815e-01  3.668197e-03  2.891493e-01  5.407373e-01  -5.033066e-01  2.387576e-01  -1.950400e-01  -3.454565e-01  -4.509014e-01  -2.736303e-01  5.526088e-01  9.258564e-01  -4.012696e-01  8.929852e-02  3.853885e-01  -3.850558e-01  -6.495892e-02  2.527324e-01  2.544064e-01  1.112622e-01  2.445545e-01  -9.652343e-02  -3.077760e-03  -2.650130e-02  -2.095445e-01  -4.612420e-01  -2.271853e-01  -4.736701e-02  3.044919e-01  4.164000e-01  1.234728e-01  7.943778e-02  2.224976e-01  2.423696e-01  -1.542674e-01  4.469904e-01  3.788852e-01  4.816731e-01  4.335537e-01  -4.655972e-01  1.807621e-01  -9.654639e-01  -4.912759e-01  1.533657e-01  -2.837945e-01  -3.246581e-01  1.765866e-01  6.570235e-01  1.800759e-01  7.470267e-02  4.703935e-01  -7.572849e-01  2.637095e-01  8.974158e-01  1.226696e-01  4.732163e-01  -9.668517e-01  -2.062048e-01  -2.170357e-01  -1.452645e-01  -7.328297e-02  2.732130e-02  -1.661678e-01  2.208734e-01  1.251294e-01  -1.363541e-01  1.902223e-01  2.757256e-02  3.104191e-01  8.237609e-01  3.169922e-01  -1.187593e+00  3.885997e-01  -1.558169e-01  -2.609281e-02  1.424301e-01  8.256098e-02  2.018465e-01  1.731013e-01  3.848946e-01  5.909476e-01  7.224490e-01  2.159980e-01  2.645853e-01  5.297424e-02  4.678221e-01  1.311533e-01  7.793183e-01  2.207179e-01  -1.047738e+00  8.222870e-01  -3.376802e-02  -4.225589e-01  2.700616e-01  -5.245255e-02  -2.834932e-01  4.549010e-01  3.298028e-01  2.834629e-01  -2.755928e-01  1.345754e-01  -2.749265e-01  2.289069e-01  4.036324e-01  -2.444270e-01  1.313894e-01  -4.744920e-01  -2.680404e-01  -1.548783e-01  1.187212e-01  -4.946630e-02  1.246850e-01  -6.816299e-01  2.537551e-01  -8.928715e-02  -4.381204e-01  1.104009e-01  -1.900016e-01  -3.171038e-02  8.242925e-02  -2.743888e-01  2.033706e-01  -3.154490e-01  -7.904451e-01  -2.278337e-02  -2.556814e-02  2.160165e-01  3.688393e-01  -7.731995e-01  -3.706831e-01  1.901268e-01  -1.428699e-01  2.612008e-01  3.373094e-01  -4.165016e-01  3.156985e-01  -3.166754e-01  3.017159e-01  5.746022e-01  -8.636431e-01  -7.957565e-01  -3.247884e-01  -2.738615e-01  5.457564e-01  -4.912758e-02  -2.151702e-02  -2.309519e-01  3.121808e-02  -8.146443e-02  -1.332852e-01  2.477642e-01  -4.234853e-01  4.202816e-01  2.937498e-01  6.147167e-02  2.354364e-01  -7.423317e-02  4.981941e-02  1.227446e-01  4.404407e-02  -3.169259e-01  -3.247913e-01  6.430677e-01  -4.617638e-01  -4.767386e-02  3.376692e-01  -4.903198e-01  -1.496225e-01  -2.392058e-01  2.433472e-01  -2.182179e-01  -1.059168e-02  -1.426455e-01  2.162984e-01  6.409311e-01  2.575425e-01  1.009417e-01  1.156741e-01  -4.842740e-01  -1.489451e-01  -2.498997e-01  -3.563157e-01  7.132233e-02  -7.062961e-01  2.774452e-01  -4.678246e-01  -2.836584e-01  -2.571018e-01  1.632803e-02  -1.679753e-01  -2.754756e-01  3.476949e-01  2.898360e-01  -3.901051e-01  -1.139870e+00  4.050505e-02  9.841201e-02  -4.063175e-01  -3.452342e-01  -1.791433e-01  -2.612140e-01  4.249788e-01  -4.318236e-01  -7.106016e-01  -2.374672e-02  -1.249012e-01  4.732281e-01  3.918147e-01  -9.239100e-01  -3.535736e-02  -2.911154e-01  -4.325457e-01  -3.377161e-01  -3.806923e-02  -1.613282e-01  -3.923371e-01  -9.332640e-02  4.987949e-01  1.801112e-01  5.553794e-01  -1.422089e-01  -1.245528e+00  2.136416e-01  7.042028e-01  1.101692e-01  2.519566e-01  -9.971189e-02  1.114239e-01  -9.783097e-01  1.489439e-02  -1.490810e-01  -3.986334e-02  -9.426523e-01  -7.006335e-01  4.342840e-01  -3.719590e-01  2.242445e-03  -3.250848e-01  -3.948752e-01  -3.305416e-01  6.809648e-01  1.962247e-01  1.545593e-01  -5.189243e-01  -3.489168e-01  -3.678415e-02  -2.106918e-01  -7.883862e-02  1.846451e-02  8.238461e-01  -2.381637e-01  3.452365e-01  -3.119931e-01  -5.892953e-02  -5.786355e-01  1.245599e-01  5.077768e-01  1.811066e-02  -2.789517e-01  1.796091e-01  8.105536e-02  -1.793863e-01  -6.203269e-01  -2.960815e-01  -6.893639e-01  -1.272281e-01  2.919042e-01  9.838746e-02  2.799340e-01  -1.263227e-01  -8.323956e-02  -6.707737e-01  9.702798e-01  2.647841e-01  -8.661194e-01  -9.553599e-01  3.990932e-01  7.261273e-01  -7.899912e-01  1.547475e-01  -1.463616e-02  7.806733e-02  -5.299246e-01  -1.974586e-01  1.189256e-01  3.596918e-01  2.096453e-01  -3.415945e-02  -1.083379e-01  -2.894506e-01  -1.371757e-02  2.319373e-01  2.675811e-01  2.906559e-01  1.680134e-01  5.083012e-01  -4.199490e-03  -4.448819e-01  1.338698e-01  5.573897e-03  1.366316e-01  6.272666e-02  1.360370e-01  7.222804e-01  -2.459421e-01  -1.380585e-01  1.622878e-01  2.631113e-01  1.798013e-01  4.103268e-01  -4.776298e-01  -5.598801e-01  3.707222e-01  -6.036559e-02  -1.902023e-01  5.204154e-01  -1.746905e-02  -2.337308e-01  -1.771849e-01  3.985441e-02  -3.379270e-01  -1.261703e-02  2.404049e-02  3.634674e-02  3.878588e-01  5.019774e-01  3.187475e-01  -2.246525e-01  -2.015483e-01  -3.558719e-01  -3.622791e-01  -3.753967e-01  -1.622595e-01  -1.438310e-01  -4.082991e-02  -4.584842e-01  -2.182406e-01  -3.269558e-01  -8.187613e-01  3.196327e-01  -2.464256e-01  4.767572e-01  3.610606e-01  8.143029e-02  1.298208e-01  3.427705e-01  -4.793422e-01  -6.561864e-01  3.144322e-02  2.268153e-01  -4.403730e-01  4.145007e-01  -4.289764e-01  -6.086103e-01  2.259272e-01  -4.898774e-01  6.287339e-01  -7.375463e-01  1.105137e-01  -2.214314e-01  3.850134e-01  1.069492e+00  -4.566644e-01  4.618909e-01  1.489246e-01  -2.175635e-01  -4.314673e-03  -1.029256e-02  2.815579e-01  1.732709e-01  3.813339e-01  -2.381128e-01  2.050694e-01  -5.931923e-02  -2.530785e-01  -6.287022e-01  -2.527026e-01  2.822556e-01  1.916276e-01  3.499795e-01  3.045211e-01  1.993869e-01  2.634826e-01  3.935330e-01  -2.488981e-01  7.973648e-01  1.369385e-01  3.783227e-01  5.316545e-01  -6.560288e-01  1.924448e-01  -7.406189e-01  -3.310413e-01  -1.356142e-01  1.317024e-01  -5.742990e-01  2.097170e-01  5.480183e-01  3.747522e-01  1.258268e-01  5.799858e-01  -8.107843e-01  3.206825e-01  7.659450e-01  -2.241016e-01  3.098283e-01  -1.045728e+00  -6.020699e-01  -2.147326e-01  7.328483e-02  2.301863e-01  7.135571e-01  -3.366351e-01  1.480752e-02  2.620714e-01  -5.506931e-01  1.470990e-01  3.111260e-01  9.069039e-02  1.429271e-01  3.223195e-01  -1.144679e-01  3.435377e-01  -1.538053e-01  -3.385722e-01  -4.044045e-01  -3.390976e-01  1.122947e-01  9.467365e-02  1.442729e-01  2.061095e-01  3.533018e-01  -7.227034e-03  3.110757e-01  9.848209e-03  6.604836e-01  1.381461e-01  7.149476e-01  6.487670e-01  -4.765681e-01  5.605106e-01  -8.812254e-01  -4.484166e-01  2.835186e-01  8.046196e-02  -2.369612e-01  4.183110e-01  5.678994e-01  2.687573e-01  1.970938e-02  7.653631e-01  -8.531669e-01  2.157982e-01  5.519472e-01  -6.453159e-02  4.106986e-01  -9.501878e-01  -9.453541e-01  -2.483552e-01  -4.466873e-01  5.303200e-01  2.750495e-01  -8.408462e-02  8.134980e-02  3.797484e-01  4.183320e-02  -1.440149e-01  8.196536e-01  -1.248030e-01  3.585982e-01  1.497093e+00  -8.008922e-03  2.974538e-01  6.773419e-01  -7.200122e-01  3.500534e-01  -3.872885e-01  1.033939e-01  3.187753e-01  2.167329e+00  3.740829e-01  -5.011708e-02  -6.159511e-01  4.787908e-01  -1.356801e-01  3.401779e-01  3.566468e-01  -2.616067e-01  3.043373e-01  -3.966949e-01  -3.537238e-01  -1.786337e-01  -5.022982e-01  1.036753e-01  1.713350e-01  -1.847739e-01  6.545764e-01  -2.345169e-01  6.354896e-01  -1.201519e-02  4.546166e-01  -4.488377e-01  2.534714e-01  3.270539e-01  -3.932965e-01  4.700171e-01  -6.281945e-01  7.606848e-02  8.229582e-01  -8.057079e-02  -3.331313e-01  -2.294441e-02  1.256895e-03  -3.093641e-01  -2.777043e-01  -2.333304e-02  4.129055e-01  -1.233823e+00  -4.613128e-01  -9.669770e-01  -9.651926e-02  -5.144175e-01  -1.190446e+00  -8.194062e-01  -3.356982e-01  1.634970e-01  -3.252793e-01  -2.681357e-01  3.576393e-01  -2.175658e-01  -6.268681e-02  -6.465042e-01  1.243006e+00  -2.476254e-01  2.404163e-01  -2.144937e-01  -5.609757e-01  -4.444962e-01  1.815718e-02  -1.994614e-01  -2.080949e-01  3.815041e-02  -3.006915e-01  -3.927996e-02  -6.151147e-01  1.394531e-01  -2.454331e-01  -3.109988e-01  -5.774580e-01  -4.288647e-01  -2.717907e-01  2.927526e-01  -2.016578e-01  3.195691e-02  6.826845e-01  2.615449e-02  1.191170e-02  -3.996263e-01  -1.178301e-01  -3.651373e-01  2.816237e-01  8.852125e-01  -5.744983e-01  3.660779e-01  7.256466e-02  -4.389758e-01  -2.710136e-03  9.151588e-02  -3.242614e-02  1.555158e-01  4.310879e-01  -2.645389e-01  2.732066e-01  -3.747789e-02  -4.054914e-01  -2.439604e-01  -4.372517e-01  -3.850672e-02  -5.469237e-02  9.392372e-02  1.687320e-01  3.725787e-01  1.296424e-01  3.221159e-01  5.449694e-02  7.116570e-01  2.989017e-01  3.262924e-01  7.199546e-01  -3.049047e-01  4.306951e-01  -9.243631e-01  -3.657029e-01  3.655424e-01  6.154492e-02  -3.371478e-01  1.746209e-01  6.627855e-01  1.520364e-01  -5.202077e-02  1.015546e+00  -4.997188e-01  2.418177e-01  4.883612e-01  -1.550339e-02  2.369004e-01  -8.064339e-01  1.952988e-01  7.156774e-01  2.661456e-01  -1.063331e-01  -2.251325e-01  -1.355731e-01  -8.146922e-01  -2.041307e-01  6.361567e-01  1.745057e-01  -2.814038e-03  1.897650e-01  5.221786e-01  -1.291757e-01  -2.481487e-02  -9.735268e-02  4.756166e-01  9.921933e-02  -4.785365e-01  -1.889354e-01  -8.387846e-01  4.799823e-01  1.542191e-01  -3.011015e-01  -2.618782e-01  1.418829e-01  -4.699105e-01  9.501231e-01  -4.581315e-01  -2.284816e-01  -4.006313e-01  -4.239000e-01  8.929914e-01  2.455857e-01  2.721222e-01  6.186559e-01  -7.339033e-01  3.172452e-01  2.766340e-01  -3.059189e-01  -1.870124e-01  7.097491e-02  2.281316e-01  -2.858542e-01  5.561934e-01  -1.805959e-01  -3.157374e-03  1.535812e-01  -1.666871e-01  2.625599e-01  6.776967e-01  4.553416e-01  7.511139e-01  1.249414e-01  -7.601412e-02  4.428950e-01  -2.181209e-01  -7.417182e-02  -7.217075e-03  1.986135e-01  -9.431449e-01  -6.381274e-01  -5.465433e-01  -4.257288e-01  -4.534433e-01  -1.169750e-01  -4.017983e-01  -3.084124e-02  3.649206e-01  1.369562e-01  -5.162202e-01  -1.859576e-01  -6.517003e-01  -5.374717e-01  -7.790271e-01  5.931160e-01  -1.098987e-01  -4.082424e-02  -2.190741e-01  -4.671158e-01  -7.211204e-01  -3.149387e-01  6.452879e-01  1.980162e-01  2.735264e-01  1.478653e-02  -6.206255e-02  -2.950342e-01  9.074768e-02  -1.805560e-01  -4.355186e-01  -3.528489e-01  -2.741647e-01  -3.068431e-01  4.266694e-01  -1.793406e-01  -6.329877e-02  9.109315e-01  -2.763817e-01  1.938687e-01  4.944194e-01  8.588777e-01  2.989608e-01  5.802603e-01  -3.287293e-01  2.628762e-01  -3.113976e-02  -3.569866e-01  1.072263e-01  2.696595e-01  -1.215045e+00  -1.092000e-01  -2.511174e-01  -3.779415e-01  -2.066297e-01  -5.933354e-01  -6.914735e-01  -1.332619e-01  4.359134e-01  2.318953e-01  -9.553324e-02  -2.079033e-01  1.729634e-03  -3.429697e-01  -8.791314e-01  1.144434e+00  -2.873893e-01  1.455176e-01  -1.252133e-01  -5.844003e-01  -6.573986e-01  9.552305e-02  3.623573e-01  -6.238604e-01  2.868657e-01  7.093662e-02  4.187584e-02  -8.683688e-01  -4.953150e-02  -4.813066e-01  -2.661901e-01  -7.926205e-01  -2.300934e-01  -1.810712e-01  5.015718e-02  -2.952234e-01  -4.454761e-01  5.763291e-01  -3.239934e-01  2.817636e-01  
      </Weights>
      <Biases Rows="50" Columns="1">
        6.020706e-01  3.376268e-01  2.619643e-01  2.403652e-01  4.657666e-01  3.108543e-01  6.531987e-01  2.964232e-01  2.079716e-01  1.625708e-01  6.594104e-01  -3.435720e-01  -1.951723e-01  -2.976625e-01  -2.958924e-01  -6.293148e-01  4.464464e-02  -6.114635e-01  -1.832478e-01  -3.124261e-01  -5.845287e-01  -6.677936e-01  2.259339e-01  -2.292825e-01  -1.984241e-01  -3.000168e-01  3.448685e-01  -1.965271e-01  -7.313634e-01  5.968633e-01  5.278762e-01  3.011757e-01  -1.991978e-01  6.625031e-01  2.255236e-01  5.887884e-01  2.133112e-01  2.570377e-01  -2.428675e-01  -3.488339e-01  -4.994368e-02  -5.963531e-01  7.199064e-01  7.325110e-01  3.998973e-01  -1.916885e-01  7.533494e-01  -3.035543e-01  -2.525291e-01  -2.566446e-01  
      </Biases>
    </DenseLayer>
    <DenseLayer Width="6" ActivationFunction="0">
      <Weights Rows="6" Columns="50">
        1.088983e+00  1.047394e+00  1.056018e-01  9.159495e-01  9.373838e-01  7.621793e-01  6.740286e-01  -1.041222e-01  -2.398717e-02  -1.163106e-01  9.064298e-01  -1.063718e+00  6.658861e-02  -2.521020e-02  -7.798031e-01  -1.062412e+00  -2.659248e-02  -8.491592e-01  -5.965007e-02  -1.790325e-01  -8.811268e-01  -1.050523e+00  1.010952e-02  -5.189061e-01  -2.400174e-02  3.478311e-03  9.474826e-01  -9.170385e-03  -1.082588e+00  9.000057e-01  1.000128e+00  8.656788e-01  -4.707143e-01  7.932333e-01  -3.715141e-02  9.265186e-01  3.166026e-02  -1.627099e-02  2.755460e-02  1.514823e-02  1.019654e-01  -9.272018e-01  9.030072e-01  8.261944e-01  -3.051180e-01  -3.593479e-02  8.434877e-01  1.693592e-02  3.874706e-02  1.222617e-01  6.520852e-02  1.120199e-01  8.873715e-01  -1.076577e-01  3.937342e-01  2.520616e-01  4.448347e-01  1.165633e+00  1.610534e-02  2.891617e-01  2.772417e-01  -5.048909e-01  -7.089385e-01  8.599477e-02  -3.285876e-01  -4.065392e-01  9.806553e-02  -2.502287e-01  -8.291702e-01  -3.653933e-01  -3.347408e-01  -1.591240e-01  5.779281e-01  -4.118515e-01  -1.910272e+00  -9.591395e-01  -4.832586e-02  -1.759297e-01  -6.442282e-02  4.041442e-01  9.423785e-02  2.057122e-01  -2.921551e-01  2.928389e-01  1.078978e+00  1.952116e-01  4.959188e-01  2.954918e-01  9.210367e-03  -2.264658e+00  -9.450233e-01  -4.517732e-01  -1.254233e-01  2.264860e-01  3.965596e-01  -8.728334e-01  4.005368e-01  1.328055e-02  -1.040778e+00  -9.047744e-01  4.229784e-01  -9.560106e-02  1.749878e+00  5.205612e-01  -7.634368e-02  -1.781332e-01  5.753726e-02  1.412385e+00  -1.070601e-01  8.133386e-01  6.546942e-02  -2.369743e-01  -1.119509e+00  8.275596e-02  -3.932552e-01  -2.830184e-01  3.630688e-01  -3.942828e-01  -6.852813e-01  -9.458409e-01  -1.014087e-03  -2.829971e-02  3.992932e-01  -1.483733e-01  -1.205280e+00  -1.364532e+00  1.110323e-01  -2.344711e-01  -3.872547e-01  9.902983e-04  1.377365e-01  -1.819145e-03  -2.812329e-01  4.684163e-01  1.942979e-01  1.897396e-01  4.783008e-01  2.985353e-01  -2.333322e-01  -1.678042e+00  -6.988498e-01  -6.506351e-02  3.934143e-01  5.294932e-01  1.330941e+00  -1.420680e+00  2.973809e-01  5.819277e-01  -3.949372e-01  -5.527857e-01  1.125018e-01  3.936450e-01  2.526734e-01  5.630267e-01  6.036731e-01  3.317980e-01  3.674199e-01  1.415589e+00  -1.049943e-01  8.426383e-01  2.650480e-01  -2.532110e-01  -1.009174e+00  -4.444704e-01  -4.579985e-01  -1.393399e-01  3.486724e-01  -1.680903e-01  -8.199337e-01  2.253946e+00  -4.418307e-01  -2.581752e-01  4.013303e-01  -7.139124e-02  -1.108496e+00  -6.747341e-01  6.074450e-01  -1.986525e-01  -6.062415e-01  4.232228e-01  6.626018e-01  2.532550e-01  -8.686002e-01  6.142408e-01  1.481457e+00  6.810244e-01  8.325835e-01  3.493595e-01  -4.909601e-01  -1.482861e+00  -7.188417e-01  -2.165854e-01  4.135848e-01  5.903991e-01  -2.581883e+00  -7.393372e-01  2.442147e-01  5.666394e-01  -1.190348e+00  -1.410939e+00  8.501984e-01  6.745957e-01  -3.347989e-01  5.428703e-01  7.941329e-01  8.350866e-01  6.157962e-01  2.035063e-01  -2.471191e+00  1.124026e+00  7.877724e-01  -2.468401e-01  1.871559e+00  -9.403518e-01  -7.676334e-01  -6.387381e-01  -2.040254e+00  -5.229189e-01  1.715940e+00  -7.015482e-01  -5.384613e-01  -8.041500e-01  1.940698e+00  -6.448833e-01  -8.639265e-01  1.912282e-01  7.046000e-01  -3.752028e+00  -7.925879e-01  9.050421e-01  4.143480e-01  9.209517e-01  -3.451056e-01  5.085268e-01  9.064601e-02  7.545874e-01  -3.492164e-01  -2.119078e+00  -6.285601e-01  -5.488989e-01  2.431148e-02  -7.147326e-01  8.963927e-01  7.426412e-01  1.397653e-01  -5.184991e-01  4.849016e-01  2.541684e+00  -1.286586e-01  8.626727e-02  -8.084027e-04  -3.977303e-02  -7.576739e-02  3.434927e-01  1.979775e-01  -1.438671e-01  2.233651e-01  -3.503136e-02  -9.409836e-02  -1.622543e-02  1.173308e-01  2.054502e-01  -8.727270e-02  1.507527e-02  3.126923e-01  -2.757154e-01  1.502462e-02  -7.225311e-02  2.648239e-02  8.345447e-03  -2.858305e-02  -8.634540e-02  -4.979470e-02  -3.447238e-02  -7.762049e-03  -2.736368e-02  1.413262e-01  3.348497e-03  2.660508e-02  -1.737769e-01  -4.744348e-03  2.437044e-02  9.157714e-02  -3.286530e-02  5.335071e-02  2.549202e-01  7.873000e-03  1.460603e-02  -3.184220e-02  -1.403307e-02  5.468571e-03  9.515371e-02  -1.653310e-01  -3.201248e-01  6.945588e-02  -9.901248e-02  -4.231059e-02  1.954110e-02  -4.290303e-03  -6.694154e-02  
      </Weights>
      <Biases Rows="6" Columns="1">
        5.700833e-01  6.157121e-02  1.037617e-01  2.781128e-01  5.116380e-01  1.792573e-04  
      </Biases>
    </DenseLayer>
  </Weights>
</MethodSetup>
