<?xml version="1.0"?>
<MethodSetup Method="DL::DNN_CPU">
  <GeneralInfo>
    <Info name="TMVA Release" value="4.2.1 [262657]"/>
    <Info name="ROOT Release" value="6.24/06 [399366]"/>
    <Info name="Creator" value="rshara01-local"/>
    <Info name="Date" value="Thu Sep 23 13:05:51 2021"/>
    <Info name="Host" value="Darwin christophers-mac-mini.home 20.6.0 Darwin Kernel Version 20.6.0: Wed Jun 23 00:26:27 PDT 2021; root:xnu-7195.141.2~5/RELEASE_ARM64_T8101 arm64"/>
    <Info name="Dir" value="/Users/rshara01-local/WORK/linacTune/tmva"/>
    <Info name="Training events" value="5000"/>
    <Info name="TrainingTime" value="9.16306973e-01"/>
    <Info name="AnalysisType" value="Regression"/>
  </GeneralInfo>
  <Options>
    <Option name="V" modified="Yes">True</Option>
    <Option name="VerbosityLevel" modified="No">Verbose</Option>
    <Option name="VarTransform" modified="Yes">N</Option>
    <Option name="H" modified="Yes">False</Option>
    <Option name="CreateMVAPdfs" modified="No">False</Option>
    <Option name="IgnoreNegWeightsInTraining" modified="No">False</Option>
    <Option name="InputLayout" modified="No">0|0|0</Option>
    <Option name="BatchLayout" modified="No">0|0|0</Option>
    <Option name="Layout" modified="Yes">RELU|50,RELU|50,RELU|50,LINEAR</Option>
    <Option name="ErrorStrategy" modified="Yes">SUMOFSQUARES</Option>
    <Option name="WeightInitialization" modified="Yes">XAVIERUNIFORM</Option>
    <Option name="RandomSeed" modified="No">0</Option>
    <Option name="ValidationSize" modified="No">20%</Option>
    <Option name="Architecture" modified="Yes">CPU</Option>
    <Option name="TrainingStrategy" modified="Yes">LearningRate=1e-3,Momentum=0.3,ConvergenceSteps=20,BatchSize=30,TestRepetitions=1,WeightDecay=0.0,Regularization=None,Optimizer=Adam</Option>
  </Options>
  <Variables NVar="3">
    <Variable VarIndex="0" Expression="RFQPAH_R" Label="RFQPAH_R" Title="RFQ phase" Unit="units" Internal="RFQPAH_R" Type="D" Min="1.28002930e+02" Max="1.90002441e+02"/>
    <Variable VarIndex="1" Expression="RFBPAH_R" Label="RFBPAH_R" Title="buncher phase" Unit="units" Internal="RFBPAH_R" Type="D" Min="2.15795898e+02" Max="2.58337402e+02"/>
    <Variable VarIndex="2" Expression="V5QSET_R" Label="V5QSET_R" Title="tank5 phase" Unit="units" Internal="V5QSET_R" Type="D" Min="-3.30000000e+01" Max="-2.85000000e+01"/>
  </Variables>
  <Spectators NSpec="6">
    <Spectator SpecIndex="0" Expression="RFQPAH_S" Label="RFQPAH_S" Title="RFQ phase Set" Unit="degrees" Internal="RFQPAH_S" Type="F" Min="1.28002930e+02" Max="1.90002441e+02"/>
    <Spectator SpecIndex="1" Expression="RFBPAH_S" Label="RFBPAH_S" Title="buncher phase Set" Unit="degrees" Internal="RFBPAH_S" Type="F" Min="2.14996277e+02" Max="2.56997131e+02"/>
    <Spectator SpecIndex="2" Expression="V5QSET_S" Label="V5QSET_S" Title="Tank 5 phase" Unit="degrees" Internal="V5QSET_S" Type="F" Min="-3.30000000e+01" Max="-2.85000000e+01"/>
    <Spectator SpecIndex="3" Expression="TO1IN_R" Label="TO1IN_R" Title="to1in" Unit="units" Internal="TO1IN_R" Type="F" Min="2.22277756e+01" Max="2.42592621e+01"/>
    <Spectator SpecIndex="4" Expression="TO5OUT_R" Label="TO5OUT_R" Title="to5out" Unit="units" Internal="TO5OUT_R" Type="F" Min="-4.08233719e+01" Max="3.42947617e+01"/>
    <Spectator SpecIndex="5" Expression="TO3IN_R" Label="TO3IN_R" Title="to3in" Unit="units" Internal="TO3IN_R" Type="F" Min="-1.02136169e+02" Max="1.00574913e+02"/>
  </Spectators>
  <Classes NClass="1">
    <Class Name="Regression" Index="0"/>
  </Classes>
  <Targets NTrgt="3">
    <Target TargetIndex="0" Expression="LMSM" Label="LMSM" Title="LMSM" Unit="" Internal="LMSM" Type="F" Min="1.34887695e+00" Max="3.99658203e+01"/>
    <Target TargetIndex="1" Expression="D7TOR_R" Label="D7TOR_R" Title="D7TOR_R" Unit="" Internal="D7TOR_R" Type="F" Min="2.41185451e+00" Max="2.93067665e+01"/>
    <Target TargetIndex="2" Expression="D00LM_R" Label="D00LM_R" Title="d00lm" Unit="" Internal="D00LM_R" Type="F" Min="3.05175781e-03" Max="8.72802734e-01"/>
  </Targets>
  <Transformations NTransformations="1">
    <Transform Name="Normalize">
      <Selection>
        <Input NInputs="6">
          <Input Type="Variable" Label="RFQPAH_R" Expression="RFQPAH_R"/>
          <Input Type="Variable" Label="RFBPAH_R" Expression="RFBPAH_R"/>
          <Input Type="Variable" Label="V5QSET_R" Expression="V5QSET_R"/>
          <Input Type="Target" Label="LMSM" Expression="LMSM"/>
          <Input Type="Target" Label="D7TOR_R" Expression="D7TOR_R"/>
          <Input Type="Target" Label="D00LM_R" Expression="D00LM_R"/>
        </Input>
        <Output NOutputs="6">
          <Output Type="Variable" Label="RFQPAH_R" Expression="RFQPAH_R"/>
          <Output Type="Variable" Label="RFBPAH_R" Expression="RFBPAH_R"/>
          <Output Type="Variable" Label="V5QSET_R" Expression="V5QSET_R"/>
          <Output Type="Target" Label="LMSM" Expression="LMSM"/>
          <Output Type="Target" Label="D7TOR_R" Expression="D7TOR_R"/>
          <Output Type="Target" Label="D00LM_R" Expression="D00LM_R"/>
        </Output>
      </Selection>
      <Class ClassIndex="0">
        <Ranges>
          <Range Index="0" Min="1.2800292968750000e+02" Max="1.9000244140625000e+02"/>
          <Range Index="1" Min="2.1579589843750000e+02" Max="2.5833740234375000e+02"/>
          <Range Index="2" Min="-3.3000000000000000e+01" Max="-2.8500000000000000e+01"/>
          <Range Index="3" Min="1.3488769531250000e+00" Max="3.9965820312500000e+01"/>
          <Range Index="4" Min="2.4118545055389404e+00" Max="2.9306766510009766e+01"/>
          <Range Index="5" Min="3.0517578125000000e-03" Max="8.7280273437500000e-01"/>
        </Ranges>
      </Class>
    </Transform>
  </Transformations>
  <MVAPdfs/>
  <Weights NetDepth="4" InputDepth="1" InputHeight="1" InputWidth="3" BatchSize="1" BatchDepth="1" BatchHeight="30" BatchWidth="3" LossFunction="R" Initialization="F" Regularization="0" OutputFunction="I" WeightDecay="0.0000000000000000e+00">
    <DenseLayer Width="50" ActivationFunction="1">
      <Weights Rows="50" Columns="3">
        1.441099e-01  -1.582051e-01  3.160522e-01  2.762769e-01  9.287065e-02  3.575252e-01  2.541156e-01  -3.163082e-01  -4.193366e-01  -3.106004e-01  -5.860227e-02  4.092814e-01  -1.747754e-01  4.596487e-01  3.732174e-01  1.699158e-03  2.922367e-01  -3.530411e-01  2.453464e-01  -3.579266e-01  1.330095e-01  -1.855931e-01  -1.267318e-01  1.776404e-01  -3.498748e-01  4.037650e-01  1.202044e-01  -1.367217e-01  5.908581e-02  1.981419e-01  -2.864214e-01  2.219079e-01  -5.273511e-01  -8.303805e-02  -5.897897e-02  -4.715244e-01  -3.763189e-03  -1.846333e-01  6.440801e-02  -2.067157e-01  -1.180821e-01  2.770149e-01  5.681623e-02  2.969626e-01  4.868562e-01  4.011140e-01  -3.955246e-01  2.124708e-01  -8.189917e-02  -2.512218e-01  -2.316760e-01  2.613584e-01  -1.295151e-01  -6.198770e-02  2.618979e-01  -3.620957e-01  -1.883339e-02  -2.407412e-01  -4.317311e-01  -1.111757e-01  -3.014660e-01  -3.285698e-01  3.852112e-02  -2.956864e-01  -2.200628e-01  -1.270922e-01  -4.424407e-01  -1.426104e-01  2.970788e-01  -9.037165e-03  3.428582e-01  4.399733e-01  -2.916873e-01  -1.175243e-01  -2.823465e-01  -1.473927e-01  -4.887434e-02  -2.362591e-01  3.943905e-01  3.319814e-01  1.698430e-01  -2.278314e-02  -1.650728e-01  1.022293e-01  -1.646267e-01  2.416316e-01  3.323508e-03  -5.985456e-02  1.398493e-01  5.523918e-01  -3.595821e-01  3.103106e-01  -4.065523e-02  2.083433e-01  2.375674e-01  -1.330004e-01  7.537800e-03  -3.736941e-02  -2.773515e-01  -3.545402e-01  3.480829e-01  -5.057609e-03  2.156983e-01  -9.853302e-02  -3.276983e-01  2.710767e-01  3.543673e-01  -3.212354e-01  1.109060e-01  -1.471103e-01  5.842769e-01  3.652320e-01  -2.387602e-01  -6.513425e-02  8.392564e-03  1.950850e-01  -1.429474e-02  -3.129600e-01  -3.766428e-01  3.572389e-01  -3.016897e-01  1.216772e-01  2.105136e-01  1.828119e-01  7.045487e-02  -8.801714e-02  -3.185945e-01  2.097280e-01  -2.514152e-01  2.214789e-03  -1.029955e-01  -3.350499e-01  2.838795e-02  1.210023e-01  -3.770699e-01  1.036675e-01  1.424266e-01  -4.557260e-03  8.463310e-02  -2.192083e-01  2.632351e-01  -2.853390e-01  -3.010612e-01  3.337610e-01  2.619615e-01  1.359754e-01  2.247258e-01  -1.045083e-01  4.335652e-01  2.771969e-01  
      </Weights>
      <Biases Rows="50" Columns="1">
        -5.423963e-02  -1.775503e-01  -2.234586e-02  1.103843e-01  -7.599407e-02  -5.561865e-02  -1.106029e-01  2.085616e-01  1.548794e-01  1.264314e-01  -8.286922e-02  -1.472781e-02  6.549867e-02  1.738348e-01  -4.213646e-03  -2.147553e-01  6.849059e-02  6.448927e-02  -8.989789e-02  -4.400218e-02  -5.344430e-02  -1.935752e-01  -2.204310e-02  -3.579033e-02  -9.292994e-02  1.166236e-01  -2.100541e-01  9.436963e-02  3.087531e-01  1.221053e-01  -7.763647e-02  -1.104717e-01  -2.701812e-02  -1.453538e-02  -7.366758e-02  -7.171611e-02  -3.449780e-02  -8.092282e-02  6.187827e-02  -9.914652e-02  6.921956e-02  5.282043e-02  2.941560e-02  -8.748182e-02  -1.043879e-01  2.926778e-01  -1.036635e-01  -5.036144e-02  6.908999e-03  4.845990e-02  
      </Biases>
    </DenseLayer>
    <DenseLayer Width="50" ActivationFunction="1">
      <Weights Rows="50" Columns="50">
        -1.095065e-01  -1.489081e-01  -2.885573e-01  -3.202145e-01  9.428065e-02  2.796412e-01  1.245936e-01  1.999648e-02  -2.312474e-01  -5.618091e-01  1.612539e-01  2.334909e-01  -7.427848e-01  -5.573288e-02  -1.004911e-01  6.822768e-02  -2.070611e-01  -4.906390e-01  -6.950464e-01  5.587308e-01  1.925073e-01  -8.587739e-02  1.058357e-01  -4.168787e-01  -5.280999e-02  2.811624e-02  6.885471e-02  -8.847302e-01  -5.832976e-02  1.002704e-01  3.207766e-02  2.661055e-01  1.581550e-01  1.494289e-01  -3.260224e-03  9.603211e-02  4.478785e-02  -3.743512e-01  -4.362651e-02  -5.487317e-01  -1.111357e-01  -3.345913e-02  4.856586e-03  1.873648e-01  2.312440e-01  3.642915e-03  5.453494e-02  -9.407372e-01  2.172890e-01  -6.001205e-01  -2.101412e-01  -1.721085e-01  1.306462e-01  -3.016106e-01  -8.607188e-02  2.246436e-01  -1.326416e-01  -6.277016e-02  3.167754e-01  3.520457e-02  -2.803039e-01  -2.152737e-01  -4.982016e-02  1.951463e-01  -1.406611e-01  2.218966e-02  9.397122e-02  -4.229949e-02  -1.288872e-01  1.747573e-01  5.946023e-02  -5.209048e-02  8.913650e-02  -1.962189e-02  -4.177187e-02  1.993156e-01  -1.143057e-01  1.635753e-01  -6.541293e-02  -7.681091e-02  -1.149315e-01  -9.675884e-02  -2.426066e-01  9.968080e-02  -2.359846e-02  5.875377e-02  -3.621106e-01  -3.847368e-02  -6.295911e-02  -1.089121e-01  1.996917e-01  6.360619e-02  -1.158388e-02  -3.760560e-02  -2.331660e-01  1.142207e-01  3.853740e-01  -2.574778e-01  1.314961e-01  -2.001329e-01  1.954459e-01  1.602140e-01  -9.410133e-02  -1.803460e-01  2.030889e-02  8.588484e-02  -1.161277e-01  1.533885e-01  1.312325e-01  -1.729721e-01  3.166677e-01  1.549952e-01  2.525719e-01  -4.209141e-01  1.441118e-01  1.473263e-01  5.575892e-02  -9.261572e-02  -2.683859e-01  -2.671989e-01  2.804432e-01  5.248981e-01  2.343297e-01  -2.419344e-01  1.313317e-01  -7.158045e-02  8.806045e-02  -1.620367e-01  -1.876868e-01  4.291908e-01  -1.217055e-01  -1.759643e-01  -7.053232e-02  1.914030e-02  1.732156e-02  3.392561e-02  -1.456817e-01  1.871472e-01  -2.240407e-01  -5.600708e-01  -2.608677e-01  9.747464e-02  3.629590e-02  -2.130923e-02  2.695835e-01  2.562542e-01  -1.828614e-01  -3.703180e-01  4.511470e-01  1.298510e-01  -4.825502e-02  6.338604e-02  -1.418705e-01  -1.199325e-01  8.065801e-02  -2.964554e-02  -2.632574e-01  -2.485234e-01  -9.720915e-02  1.094382e-02  -2.986486e-02  3.137886e-01  -3.120016e-01  -3.530465e-01  3.230631e-01  1.762142e-02  2.960362e-01  -7.972719e-02  3.707749e-02  -3.041668e-02  8.413563e-03  1.171966e-01  -1.156878e-01  1.000469e-01  -4.551367e-02  2.119262e-01  -1.701726e-01  -2.147932e-01  6.167820e-02  -6.788664e-03  1.851919e-01  -8.012034e-02  2.598298e-01  4.570915e-02  2.929772e-01  2.129279e-01  -1.098102e-01  -1.514509e-01  4.090513e-02  2.240300e-01  1.790400e-01  1.436761e-01  1.444499e-02  1.529191e-01  1.020472e-01  -1.108977e-02  -3.338871e-01  3.341769e-01  -9.498820e-03  -2.516007e-01  1.780332e-01  -1.296922e-01  2.502027e-01  1.223423e-01  3.010591e-01  -1.146736e+00  1.901759e-01  -3.318866e-02  1.321239e-01  -1.745607e-02  1.514009e-01  -2.188586e-01  -2.311934e-03  -1.240003e-01  3.061590e-01  1.579217e-01  -7.764236e-02  -1.563622e-01  1.313788e-01  2.492791e-01  -2.088739e-01  -9.474681e-02  1.189805e-01  8.587287e-02  -7.376763e-02  -3.915329e-01  4.265823e-02  -1.315745e-02  8.912119e-02  1.650468e-01  -3.667046e-01  -1.580053e-01  -8.473240e-02  -8.324636e-02  3.131157e-01  -2.109817e-01  2.648439e-02  -2.063230e-01  8.020326e-02  1.297391e-01  -5.697898e-02  -7.888860e-02  -4.118867e-01  -1.782442e-02  -1.067549e-01  -7.725023e-02  -2.693653e-02  1.572796e-01  1.774254e-01  1.068048e-01  9.404120e-02  1.632841e-01  -3.452838e-01  -5.565656e-01  2.473718e-01  3.206823e-01  3.268655e-01  -2.088272e-01  2.635353e-01  -3.859124e-01  -4.256091e-02  -9.597498e-01  4.376407e-01  -1.856230e-01  2.075429e-01  8.388615e-02  -2.514938e-01  -1.806671e-02  2.726702e-01  -1.131528e+00  -7.959411e-01  -1.300352e-01  1.912018e-01  2.128569e-01  -1.546588e+00  -5.353093e-01  2.128037e-01  5.420174e-02  -8.444600e-02  9.773486e-02  1.726151e-01  9.491456e-02  -3.121888e-01  3.673482e-01  -4.634559e-01  1.640268e-01  5.194414e-03  -9.672549e-02  -1.413874e-01  -7.054443e-01  -2.632424e-01  -6.187409e-02  -1.263709e-01  9.303197e-02  2.436592e-01  -1.187045e-01  3.604577e-01  -6.604613e-01  -2.980310e-02  -5.973388e-03  1.611175e-01  9.962796e-02  1.818031e-01  -2.699214e-01  3.341835e-01  2.709697e-01  2.946569e-02  -4.022083e-01  2.107519e-01  -1.464419e-01  -2.273503e-01  -2.423082e-01  1.020947e-01  -3.261078e-01  1.397124e-01  3.121364e-01  -1.154672e-01  -1.275578e-01  2.049213e-01  3.049185e-01  3.648498e-01  1.418405e-01  1.068000e-01  1.230842e-01  -8.791610e-02  -1.673906e-02  5.727343e-02  1.780049e-02  1.345043e-01  3.662406e-02  -1.168732e-01  2.241226e-01  -6.788688e-02  1.133482e-01  5.424553e-02  3.725517e-01  3.647461e-01  -1.136719e-01  -9.375516e-03  2.103699e-01  6.000166e-02  -1.864206e-01  6.374703e-02  1.671886e-01  2.655489e-01  -1.194264e-01  2.144468e-01  2.923222e-01  -2.060614e-01  1.108307e-01  5.451249e-02  -4.045091e-01  1.534611e-01  1.674654e-01  -1.059348e-01  -6.581253e-02  -2.168250e-01  3.121874e-01  -1.336350e-01  2.854718e-01  -2.532785e-01  -1.008074e-01  -1.297936e-01  -1.145860e-01  1.415490e-01  -1.550014e-01  -1.615673e-01  2.231814e-01  3.158045e-01  1.293876e-01  2.571771e-01  1.021621e+00  5.047392e-01  -6.022064e-03  -4.708567e-02  -1.892725e-01  2.438900e-02  -2.576163e-01  -3.445797e-01  4.599084e-01  9.298536e-02  -7.967879e-02  1.535002e-01  2.330618e-01  -1.439837e-01  2.596593e-01  -6.831816e-01  3.077289e-01  2.501586e-01  -2.102877e+00  -4.640675e-01  3.817383e-02  -3.971754e-01  2.028317e-01  -8.481289e-02  -4.362208e-02  -1.384484e-01  -2.152559e+00  2.313077e-01  -3.570001e-01  1.068569e-01  -5.471194e-01  2.341138e-01  1.848266e-01  3.212575e-01  -3.742645e-01  -2.479012e-01  1.998402e-02  2.533406e-01  -6.440032e-02  1.186608e-01  -1.104272e-01  -7.797975e-03  1.580185e-01  -6.123634e-01  -1.945886e-01  -1.743677e-01  -1.490840e-02  2.408408e-01  6.688158e-02  1.808288e-01  -1.210662e-01  3.994640e-02  -5.124009e-01  -6.379094e-02  1.268275e-01  1.568213e-01  5.466858e-02  1.157065e-02  -2.137087e-01  -1.222948e-01  -7.619825e-02  -5.120625e-01  2.987875e-01  -2.739411e+00  -7.146792e-01  -5.486467e-02  -9.841330e-02  -4.135924e-01  2.640146e-02  2.505659e-01  -7.899668e-01  -2.014415e-01  -1.769342e-01  -8.228090e-02  -7.801744e-02  -3.429256e-01  1.378710e-01  -8.668181e-01  -1.881837e-01  -1.653904e-02  -4.266834e-01  3.140706e-01  1.215651e-01  3.359206e-01  8.798300e-02  -2.593436e-01  -9.776229e-02  3.580122e-02  3.068640e-01  9.532933e-02  2.425375e-01  -1.626999e-01  -6.966493e-02  8.155188e-02  1.144094e-01  -7.241005e-02  -3.404323e-01  -2.159089e-01  3.078616e-01  3.029000e-01  2.042534e-01  3.571785e-03  -1.814237e-01  4.165700e-02  -2.099345e-01  -3.580315e-02  -4.838105e-02  -7.233543e-02  3.871514e-02  1.743504e-01  -9.479830e-02  2.318686e-01  1.597627e-01  -4.131815e-02  1.260846e-01  1.197815e-02  2.059262e-01  7.310981e-02  1.183601e-01  5.017737e-02  1.189232e-02  -1.309173e-01  4.578499e-02  2.125781e-01  -1.364108e-01  6.674475e-02  -7.843247e-02  1.200606e-01  1.183048e-01  1.548675e-01  -2.060649e-01  6.723621e-02  -3.490872e-02  -2.174497e-01  -9.872626e-02  3.810463e-03  -2.045966e-01  -1.911234e-01  -2.457639e-01  -4.981603e-02  -6.878231e-02  -5.671118e-02  -6.341617e-02  8.009667e-02  8.183829e-02  -9.100615e-02  1.095128e-01  -2.090675e-01  -2.352676e-02  -5.960804e-02  1.433496e-01  -6.426081e-02  -8.568819e-02  -9.151702e-02  -1.074078e-01  -1.418575e-01  -9.820841e-02  1.894630e-02  -1.037733e-01  -1.902222e-01  4.360567e-02  1.230826e-01  2.194513e-01  -2.276611e-01  1.702704e-02  -1.009583e-01  -1.246850e-01  8.712621e-02  -2.256713e-02  -1.188422e-01  -2.067959e-01  6.341885e-02  -1.924584e-01  5.024413e-02  -5.088434e-02  1.512796e-01  2.286763e-01  1.602711e-01  2.266604e-03  1.267361e-02  -6.465700e-02  1.398421e-01  1.608449e-01  1.640625e-01  -4.218990e-02  -3.259000e-01  2.921139e-01  -2.701847e-01  2.955683e-01  1.828433e-01  1.494295e-01  -1.064913e-01  -9.463848e-02  -2.120221e-01  -2.212265e-01  -8.560142e-02  2.290939e-01  3.093341e-02  -7.809070e-02  1.838046e-02  5.070395e-02  -2.179365e-01  -3.571499e-01  2.422567e-01  1.982631e-02  5.067563e-01  1.228707e-01  -1.210570e-01  3.641693e-02  2.827753e-01  -4.025060e-01  -1.426387e-01  2.386802e-02  -4.784071e-02  -2.825538e-01  -8.525904e-02  1.473605e-01  -2.703745e-01  -1.947914e-02  -1.169243e-01  3.018834e-02  1.676598e-01  -8.264231e-02  -3.996658e-02  -8.570281e-02  -1.377039e-01  -1.393688e-01  3.513797e-01  1.077233e-01  3.391314e-02  -8.125514e-01  3.213122e-01  -3.420504e-01  -1.669655e-01  -1.434805e-01  -6.166801e-01  -1.278117e-04  1.515028e-01  -2.225205e-01  1.054062e-01  3.166103e-01  -1.846671e-01  -3.808237e-01  1.947343e-01  -4.260159e-01  -8.253641e-02  2.476584e-01  1.367689e-01  2.035959e-01  3.051840e-02  -7.273559e-02  3.271539e-01  -1.173886e-01  2.942391e-01  9.134605e-02  4.092281e-02  -2.609957e-02  2.265573e-01  -4.706462e-01  7.672319e-02  -3.796911e-02  3.178270e-01  -7.570315e-02  -8.600441e-02  2.133795e-01  -2.016012e+00  1.101112e-01  9.746724e-02  -2.263331e-01  6.854579e-02  -6.837875e-02  -1.721778e-01  8.855382e-02  1.125220e-02  -6.830645e-02  -4.630455e-01  -1.920699e-01  -1.405206e-01  1.912933e-01  1.753289e-01  -3.150717e-01  2.239609e-01  6.890428e-02  -1.791810e-01  4.699033e-01  6.597731e-02  -2.266925e-04  -3.038803e-01  -4.952349e-02  -3.483595e-01  -1.089463e-01  -2.323306e-01  4.900729e-02  -4.195979e-01  -1.755470e-02  1.166207e-01  4.141942e-02  2.389847e-01  -8.904973e-02  1.620336e-01  3.936095e-01  1.147755e-01  -3.309759e-01  -2.083347e-02  -9.522321e-02  -5.523200e-01  8.469033e-02  -1.328951e+00  -1.949854e-01  -2.399500e-01  1.422051e-01  3.248519e-03  -8.189434e-01  -7.575095e-02  -6.201326e-03  -1.982123e-01  1.973992e-02  -9.089127e-01  3.430832e-01  3.208350e-01  1.449877e-01  -8.361456e-01  -1.428328e-01  1.386675e-01  -7.453504e-04  2.316167e-01  1.970008e-01  -1.859039e-01  -6.560777e-01  2.866288e-01  8.247711e-02  6.860282e-02  -6.926039e-02  -1.296594e-01  3.132614e-01  2.301551e-01  -1.873552e-01  -3.272505e-01  -1.261650e-01  1.132054e-01  1.816646e-01  1.203137e-01  -8.129153e-03  -4.415264e-01  3.683737e-01  -4.267605e-02  -7.794227e-02  -1.015253e-02  -7.888861e-02  -4.755919e-01  3.874313e-01  -1.305324e+00  5.151119e-02  4.505551e-01  1.065722e-02  -1.737238e-01  -1.012709e-01  1.612857e-01  -2.529438e-01  -6.999418e-01  1.146158e-01  1.012740e-01  -4.468312e-01  3.265655e-01  2.823853e-01  -1.314859e-01  8.421560e-02  3.061921e-01  5.379292e-02  -2.498544e-01  -1.052596e-01  3.703694e-02  3.853898e-02  1.754865e-01  -2.962694e-01  3.871723e-01  1.393816e-01  1.247889e-01  -1.301616e-01  1.643986e-03  -1.216349e-01  -1.131194e-01  2.436817e-02  -4.229590e-02  -6.890588e-02  -2.944617e-01  -6.859829e-02  -2.198755e-01  3.330019e-02  -1.125720e-01  -1.385474e-01  7.711579e-03  -4.826739e-02  -1.279888e-01  -3.733298e-01  1.573662e-01  -5.837136e-02  -1.874412e-01  1.307206e-01  -6.931556e-02  -1.235233e-01  -1.967620e-01  -6.152799e-02  -2.717206e-01  2.097862e-01  -4.533853e-02  1.635725e-01  4.128592e-02  3.179046e-01  -6.247434e-02  -2.024976e-02  1.053282e-01  -8.279063e-02  1.340721e-01  9.657586e-02  -3.676239e-02  -2.257964e-01  -1.155211e-01  4.936967e-02  9.691834e-02  2.871869e-01  4.265751e-02  5.447713e-02  -1.615993e-02  3.354453e-01  -8.649461e-02  2.878431e-01  -1.244954e-02  6.414514e-02  9.971276e-02  -1.958327e-01  2.137844e-01  3.007672e-01  -1.540217e-01  2.035971e-01  6.378275e-02  8.538677e-02  -1.385901e-01  -1.912577e-01  -2.444102e-01  -8.065313e-02  -1.919498e-01  8.141130e-02  2.938941e-01  -7.916330e-03  2.607577e-01  -9.342190e-02  -3.204168e-02  -9.129957e-01  -1.477633e+00  2.286161e-01  -5.973769e-01  2.656604e-01  -3.918355e-01  -2.299032e-01  -7.975914e-02  5.765767e-02  1.387559e-01  -2.510141e-02  2.220970e-01  3.428521e-01  2.247350e-01  3.968495e-01  2.181396e-01  3.488708e-01  2.290165e-01  9.435054e-02  -2.347688e-01  3.344581e-02  -1.291879e-01  1.859533e-01  -1.799530e-01  4.197269e-01  9.009860e-02  -7.226414e-03  2.684638e-01  -1.063797e-01  8.523099e-02  -4.568431e-02  4.847753e-03  2.182285e-02  -4.394737e-01  1.524382e-01  5.589639e-02  2.114763e-01  -3.405617e-01  3.526404e-02  -1.433064e-01  -1.397070e-01  1.017116e-01  -8.930746e-02  -3.158514e-02  1.540640e-01  2.530545e-01  -1.072312e+00  -1.337944e-02  -1.234735e-01  -2.612661e-01  1.983220e-01  -1.167354e-02  1.056274e-01  -6.400885e-02  8.794753e-02  1.205476e-02  8.465681e-02  -1.451376e-01  -1.407477e-01  1.668121e-01  -2.507013e-01  1.035096e-01  2.087999e-01  2.264148e-01  -2.444050e-01  -8.013416e-02  2.243626e-02  2.673642e-01  -9.255483e-01  -6.587900e-02  1.858790e-01  -1.154407e-01  2.515845e-01  4.621877e-03  -3.659514e-01  3.662637e-01  2.216402e-01  -9.219386e-02  -1.513129e-01  1.550055e-02  -4.357094e-03  -3.623606e-02  -2.850826e-01  -1.074875e-01  -1.607259e-01  -2.505888e-01  6.809297e-02  -2.095914e-01  5.008895e-02  -1.125591e-02  -8.295396e-02  -1.879590e-01  -1.857726e-01  3.741525e-02  1.907437e-01  -1.392907e-01  -3.487797e-01  -7.935655e-03  6.266126e-02  -6.427028e-02  -3.075488e-01  8.013227e-02  -1.856310e-01  -1.103237e-01  -1.744671e-01  -2.343101e-01  1.630170e-01  -1.337095e-02  1.356622e-01  1.996523e-01  1.776106e-01  1.049622e-03  1.152529e-01  1.177443e-02  7.049818e-02  2.551713e-02  -4.797351e-02  1.358940e-01  1.411906e-01  -1.241860e-02  1.199122e-01  -7.026650e-02  2.197163e-01  7.969683e-02  -2.430485e-01  -7.119516e-02  6.289424e-03  -3.159773e-02  -7.633710e-02  1.006965e-01  -1.313065e-01  6.861455e-03  -3.301554e-02  -2.848980e-01  1.810956e-01  -1.355885e-02  2.439557e-01  6.404018e-02  -2.550303e-02  2.497906e-01  1.697786e-01  1.418913e-01  -9.991094e-02  1.639535e-01  -1.150362e-01  7.647099e-02  -2.386627e-01  2.862495e-01  -2.095799e-01  2.816913e-01  1.937168e-01  -7.695237e-02  7.397376e-02  1.410463e-01  2.556352e-01  -1.490340e-01  -1.659822e-01  1.205137e-01  2.687911e-01  -2.693365e-01  2.531956e-03  -3.024037e-01  -1.798952e-01  1.323502e-01  -3.371141e-01  1.916127e-01  1.538748e-01  -1.988760e-01  -2.856804e-01  2.135681e-01  1.276436e-01  -6.451846e-02  3.776143e-02  -1.416168e-01  1.126006e-01  2.724018e-01  -9.194712e-02  1.413170e-02  -1.620182e-01  -3.442224e-01  2.073898e-02  -1.813392e-01  6.655540e-02  -2.895450e-02  -2.522784e-01  -2.030387e-02  2.551314e-01  1.689372e-01  -1.909035e-02  2.599930e-03  -6.392860e-03  3.977644e-02  -3.807723e-02  1.029454e-01  4.126947e-02  5.556375e-02  2.118039e-01  -1.750921e-01  1.579920e-01  -4.265426e-02  1.749579e-02  1.553988e-01  -2.275648e-01  1.741059e-01  -1.303024e-01  -2.194311e-01  -3.977121e-02  -7.189299e-02  6.464130e-02  -1.524778e-01  -8.162841e-02  6.768494e-02  1.873667e-01  -1.108330e-01  -2.413314e-01  -2.653762e-01  1.228256e-01  6.236096e-02  -2.938515e-01  -1.620903e-01  2.751816e-01  8.451870e-02  1.183121e-01  1.384411e-01  2.827564e-01  -2.732836e-01  2.145356e-01  -1.822881e-01  1.689993e-01  7.237756e-02  1.874929e-01  -3.005002e-01  -1.366165e-01  -6.652238e-01  3.675644e-01  -2.830926e-01  -3.139670e-01  -2.192524e-01  1.631873e-01  2.386929e-02  5.921660e-02  1.487519e-01  -7.959945e-02  -8.402882e-02  -3.820015e-02  1.681684e-01  -6.045813e-01  2.043531e-02  8.737126e-01  -1.853839e-01  -4.044105e-01  -1.126510e-02  -5.867581e-01  1.645758e-01  3.055160e-01  2.291531e-03  -8.459240e-02  5.124851e-02  -1.194274e-01  1.504764e-01  -9.629628e-02  1.114000e-01  -3.654030e-01  1.376689e-01  -1.369028e-01  3.865196e-01  -3.893667e-01  -1.917650e-01  -4.670019e-01  -4.532880e-02  -2.492918e-01  9.947491e-02  -2.803234e-01  1.682709e-01  2.427947e-01  -2.607348e-01  2.083742e-01  -1.829522e-01  -7.819252e-03  -1.065793e-01  -5.458689e-02  -3.331227e-01  -3.024828e-02  2.005874e-01  -1.249741e-01  -5.639742e-02  2.592362e-01  8.498842e-03  1.543253e-01  4.091178e-02  4.990404e-02  -2.455215e-01  -1.768679e-01  -8.480933e-02  -1.510706e-01  4.728456e-02  -1.658542e-01  1.343578e-01  7.182313e-02  -1.210339e-01  2.225047e-01  -1.460234e-01  -9.023305e-02  3.039243e-02  1.588207e-01  8.813947e-02  6.990868e-02  -2.204856e-01  9.204946e-02  -2.230090e-01  2.263070e-01  -8.228460e-02  1.694063e-01  -2.490151e-02  1.080089e-01  -5.436461e-02  -4.144950e-01  6.288794e-02  6.585927e-02  -1.539215e-01  -1.322735e-01  1.122568e-01  1.604961e-01  1.541347e-01  -2.267943e-01  -3.270659e-01  7.698051e-02  -9.646107e-02  -2.530549e-01  1.557367e-01  2.005968e-01  -6.049235e-01  5.068201e-01  1.765309e-01  1.582947e-01  2.027906e-01  1.477887e-02  -1.351482e-01  -1.804639e-01  2.323747e-02  1.180755e-01  2.875471e-01  1.788401e-01  -3.628372e-01  -2.675231e-01  9.630635e-04  1.730444e-01  1.796825e-01  -8.817146e-01  4.935207e-01  1.321379e-01  -1.795762e-01  3.503291e-02  1.464183e-01  4.573978e-02  -1.191327e-01  3.635931e-02  -4.238375e-01  -5.024711e-01  8.435913e-02  3.259691e-02  2.576289e-01  8.782941e-02  2.980576e-01  1.651575e-01  -1.569671e-01  7.426963e-02  2.414518e-01  -7.349572e-01  2.019636e-01  2.526601e-01  1.149116e-01  -1.227255e-01  2.525987e-01  -2.482706e-01  -8.625954e-02  -1.769992e-01  -9.995390e-02  -1.642643e-01  -2.757041e-01  -8.793603e-02  1.535484e-01  -1.630342e-01  -4.925990e-01  2.337133e-01  1.119668e-01  2.865754e-02  2.534122e-01  2.083461e-01  8.262488e-02  1.748018e-01  1.752251e-01  -3.726306e-01  -9.759327e-02  2.551543e-01  -3.625833e-02  1.833701e-02  -2.191244e-02  -1.235191e-01  8.712775e-02  1.772694e-01  2.674813e-01  -3.238267e-01  -2.162203e-01  -1.345981e-01  9.436959e-02  -1.340297e-01  2.347069e-01  4.764426e-02  -5.316744e-02  1.391979e-01  9.418261e-02  1.032497e-01  -4.161226e-01  5.793214e-02  -2.576773e-01  -6.459451e-02  2.116479e-02  -2.132267e-01  1.259032e-01  -9.950515e-02  -2.823514e-01  -9.830377e-02  2.667195e-01  -7.019328e-01  -1.893950e-01  1.362799e-01  -1.480835e-01  -8.836444e-03  6.928699e-02  -2.231602e-01  -1.821164e-01  7.141063e-02  2.560379e-01  -1.745345e-01  3.289024e-01  1.239251e-01  1.057580e-01  -2.080730e-01  5.516402e-02  2.736251e-02  -2.905464e-02  -1.480601e-01  -2.680787e-01  1.702758e-01  1.799601e-01  3.837277e-01  -2.637645e-01  1.169046e-01  2.872954e-01  -1.329007e-01  6.193924e-02  1.872860e-01  9.815451e-02  -2.189932e-01  9.355248e-02  -4.223425e-02  1.513354e-01  -2.028503e-02  2.085302e-01  1.945343e-01  2.113357e-01  -2.402512e-01  -3.454643e-02  1.691672e-01  -2.248045e-02  -1.623679e-01  4.548419e-03  4.398814e-01  -5.438871e-02  4.362731e-02  2.552732e-01  -1.387717e-01  1.519067e-01  -2.006687e-01  3.433822e-01  -1.317957e-01  1.413852e-01  8.471967e-03  -1.370094e-01  2.214077e-01  -9.182040e-02  8.278520e-02  2.437820e-01  -1.149410e-01  -8.366671e-02  1.070386e-01  -1.274829e-01  -2.335088e-01  -1.693888e-01  -2.211904e-01  3.105223e-01  3.247208e-01  1.212041e-01  -2.406686e-01  -1.136627e+00  9.357201e-03  -1.117337e-01  1.438487e-01  -5.191407e-02  1.804968e-01  2.431200e-01  1.735767e-01  -4.569425e-03  -1.702898e+00  -8.144040e-02  3.361030e-01  -3.166377e-01  -1.849812e-01  -1.788532e-01  -1.642493e+00  -1.777003e-01  2.475590e-01  3.076721e-01  -1.328666e-02  1.055601e-03  1.848942e-01  -1.046841e+00  2.183588e-01  -1.193817e-01  -2.118592e-01  -1.390336e-01  9.056769e-02  2.299533e-01  -2.289540e-01  -1.152369e-01  3.582141e-02  -2.297225e-01  3.902103e-02  -2.674679e-02  1.299167e-01  7.786100e-02  -1.311698e-01  6.101209e-02  -1.127617e-01  -1.968142e-01  -1.628810e-01  1.403535e-01  -2.293069e-01  1.932837e-01  5.017266e-02  4.583136e-02  -9.323509e-02  -3.332909e-02  8.309054e-02  -1.076177e-01  2.181437e-01  -1.615567e-01  2.009800e-01  -1.524217e-01  1.790485e-01  3.293897e-02  -1.668633e-01  -2.181202e-01  -1.624803e-01  -1.453295e-01  -2.077275e-01  7.284057e-02  -8.057438e-02  -1.243191e-01  -5.850072e-02  1.572177e-01  -2.237765e-01  -9.574541e-02  1.520242e-01  -2.445338e-01  -1.042143e-01  1.754133e-01  -1.436301e-01  5.835002e-02  -1.446562e-01  -1.228254e-01  -1.645978e-01  2.799525e-02  1.131876e-02  -1.207173e-01  -2.115079e-01  -1.881586e-01  -7.855540e-02  -1.183258e-01  -2.191237e-01  -2.880238e-01  7.660771e-02  -7.580314e-01  5.756176e-03  2.430180e-01  6.202652e-02  -5.769935e-01  -1.419272e-01  1.706149e-01  9.823069e-02  1.214914e-01  -1.606802e-01  -3.980491e-01  -9.011124e-02  -1.131624e-01  2.238853e-01  -2.930668e-01  4.546110e-01  1.030257e-01  -5.010231e-02  2.344656e-01  3.721563e-01  3.680473e-01  2.550394e-01  -7.585914e-02  -3.549920e-01  3.679354e-01  -1.335545e-01  3.354514e-02  1.226382e-01  3.624837e-01  7.422023e-02  -5.251219e-01  7.447670e-02  -4.049800e-01  2.743776e-02  -1.471571e-01  1.164928e-01  6.621208e-02  -1.282695e-02  7.119615e-02  1.319256e-01  -4.229660e-02  -1.304499e-01  -1.126887e-02  -3.561733e-01  3.309941e-01  -1.959859e-01  -2.304767e-01  1.465820e-01  1.821079e-01  3.008699e-01  -3.323722e-01  2.795791e-02  -3.740585e-01  1.108457e-01  -8.663724e-02  8.999776e-02  3.150231e-01  -2.661949e-01  -1.163050e-01  1.557324e-01  -3.365687e-02  -7.117438e-02  1.572642e-01  -5.770213e-02  1.247925e-01  -5.198641e-02  2.130762e-01  1.347598e-02  7.191703e-02  9.099943e-03  1.790031e-01  -2.052014e-01  9.622040e-02  4.617421e-02  3.595333e-01  1.564028e-01  1.200416e-01  -3.462409e-01  -1.389048e-01  4.760809e-02  -1.658629e-01  -2.710404e-01  1.510749e-01  2.465592e-01  5.882148e-02  9.426365e-02  -1.581201e-01  -2.342843e-01  1.315032e-02  1.886970e-01  -1.606709e-01  -4.137408e-01  2.598761e-02  7.935233e-04  2.447138e-01  -3.264807e-02  -7.639598e-02  5.056778e-02  5.859327e-02  3.703516e-01  2.079818e-01  -6.460930e-02  -3.111239e-01  -2.828554e-01  -1.009458e-01  4.265872e-02  -3.542388e-02  -2.510386e-01  -1.643984e-02  2.981050e-01  -1.035497e-01  2.431637e-01  2.726794e-01  -3.750005e-03  1.318024e-01  1.143708e-01  2.073137e-01  3.576898e-01  -1.545249e-01  3.700350e-01  -2.462480e-01  4.633188e-01  1.769534e-01  -1.413676e-01  -6.429026e-02  -1.629029e-01  3.468998e-01  -1.973812e-01  -1.873225e-02  -4.880502e-02  8.300305e-03  6.954599e-02  8.868358e-02  2.576769e-01  2.105535e-01  -2.091488e-02  1.877139e-01  -8.357993e-02  -1.730972e-01  -1.461816e-01  -7.911789e-02  -8.180670e-02  2.617871e-01  -9.564707e-02  1.438125e-02  1.811590e-01  -2.832846e-01  -6.776181e-01  9.030996e-02  8.686901e-02  -1.608933e-02  6.459555e-02  3.511505e-01  2.975875e-01  3.729265e-01  -1.197656e-01  -4.009094e-02  1.045053e-02  -4.669044e-02  2.900525e-02  1.311636e-01  -5.586823e-02  4.368030e-01  1.245645e-01  5.979708e-02  -3.468128e-01  2.151047e-01  4.587213e-02  3.031478e-03  3.131108e-01  -1.219634e-01  -9.985302e-02  1.914493e-01  -1.801991e-01  -1.840322e-01  1.031520e-01  6.588401e-02  -1.539186e-01  2.185526e-01  3.199610e-01  3.394897e-01  2.094609e-01  1.537684e-01  3.780112e-01  3.449229e-01  -1.101336e-02  -3.646112e-02  2.591053e-01  2.412192e-02  1.056383e-01  -1.291043e-02  1.694831e-01  4.817661e-02  -2.636829e-01  -1.560911e-01  -3.798493e-02  6.789386e-02  5.059840e-02  -2.188746e-01  -8.629137e-02  -2.245475e-01  1.995180e-01  7.822684e-02  8.199134e-03  -5.834438e-02  -1.266154e-02  -1.147049e-01  1.017848e-01  1.768627e-01  -1.867591e-01  3.251412e-01  2.009048e-01  1.135418e-02  2.089073e-01  -1.850225e-01  -3.985488e-02  -2.507303e-01  -1.956522e-01  -7.809207e-02  1.104402e-02  -2.806635e-01  4.682801e-02  -2.483859e-01  -2.043935e-01  2.971886e-01  3.162226e-01  2.331004e-01  -9.363351e-02  1.754531e-01  2.205330e-01  2.163985e-01  1.553274e-02  -1.125568e-01  5.022245e-02  5.263595e-02  -9.858118e-02  1.879020e-01  -1.106682e-01  3.036054e-02  3.570904e-01  1.371804e-01  -9.649203e-02  9.955765e-02  -7.837643e-02  -2.536447e-01  1.599888e-01  2.133698e-01  -7.606949e-03  -3.260954e-01  -8.686408e-01  2.461884e-01  -1.501994e-02  1.293445e-01  -2.188433e-01  -5.535217e-02  -4.171076e-01  -4.531020e-02  -2.801315e-01  -1.792950e-01  3.094699e-02  -1.776416e-01  -4.585499e-01  -1.367158e-01  2.626814e-01  -7.483709e-02  1.275565e-01  1.868974e-01  1.815563e-01  3.729957e-01  3.143171e-01  -3.253480e-01  -3.739128e-02  -1.424671e-01  -1.872916e-01  4.233910e-01  -9.993269e-03  -1.966264e+00  -4.787986e-01  6.885435e-02  1.229335e-01  -1.294335e-01  -1.219117e-01  2.401736e-01  -1.143163e-01  -1.710539e+00  2.173403e-01  -2.386920e-01  8.534097e-02  1.416486e-01  2.735524e-01  -1.074694e+00  3.003868e-01  1.374569e-02  1.033832e-04  -1.407447e-01  -1.635503e-01  1.989744e-01  -2.104494e-01  1.360043e-02  9.951399e-02  -7.297726e-02  -3.856320e-02  -1.690309e-01  -1.124904e-01  -1.976605e-01  1.487565e-01  3.242729e-01  2.709977e-02  -2.633289e-01  -4.043220e-01  -1.008759e-01  2.242180e-01  -4.935255e-02  1.620716e-01  5.616333e-02  -6.040506e-03  -1.940686e-01  -1.248240e-01  -3.575150e-02  -2.079595e-01  -1.368659e-01  1.148330e-01  -1.904012e-02  1.197645e-01  1.495092e-01  -1.710636e-02  7.650512e-02  6.345948e-02  -2.172324e-02  4.286465e-03  -4.297577e-01  1.641422e-02  -1.346721e-01  -2.733184e-02  2.160046e-01  -1.295764e-01  3.503973e-01  3.075957e-02  1.791320e-01  -6.992411e-02  -2.121051e-01  -2.649700e+00  -2.563517e-01  1.658718e-01  2.523441e-01  1.857320e-01  1.444974e-01  -1.599772e-01  -3.578527e-02  -2.421044e-01  -1.654841e-01  1.758158e-01  -1.550950e-01  3.182093e-01  -2.088443e-01  1.196686e-01  -1.378473e-01  1.506501e-01  -3.861991e-03  -1.802855e-01  2.433400e-02  1.510187e-01  1.234509e-02  4.854069e-02  1.795355e-01  1.282357e-01  1.126603e-01  -2.495615e-01  -1.499785e-02  1.185957e-01  -1.208396e-01  1.003431e-01  -8.886290e-02  1.753949e-01  2.275735e-01  2.102746e-01  -2.974878e-02  -5.916615e-02  -1.096880e-01  -2.969874e-03  6.701712e-02  -1.487294e-01  -1.540789e-02  1.484869e-01  -2.956925e-01  -4.567784e-02  1.502182e-01  -7.044077e-03  2.918960e-02  2.138676e-01  -2.475124e-01  -1.284427e-01  -3.264684e-01  2.137498e-01  -2.265813e-01  -5.307970e-02  -1.777845e-01  -6.273856e-02  2.446191e-01  9.681275e-02  2.594123e-01  -2.760998e-01  -1.596551e-01  -2.942848e-01  1.809365e-02  -4.255120e-02  -1.724423e-01  -2.713236e-01  -9.989637e-02  -6.648740e-01  1.554279e-01  -4.450271e-02  -3.503857e-01  2.218486e-01  1.133045e-01  8.222890e-03  1.648603e-01  2.755515e-01  -5.312579e-02  4.651279e-01  1.804967e-01  2.485290e-01  2.512917e-01  -2.420701e-01  3.604944e-01  -3.654332e-02  1.290411e-02  -9.795152e-02  -5.453193e-01  8.865508e-02  -5.554990e-01  -5.403326e-01  2.115210e-01  -3.345501e-02  9.132130e-02  8.080224e-02  1.422908e-01  -4.467235e-02  8.663668e-02  -6.623627e-04  -2.676683e-01  -4.958673e-01  -3.792345e-01  -1.577516e-01  2.170338e-01  2.372611e-01  -5.171474e-02  -5.028707e-01  2.357011e-01  -9.947279e-02  -1.816208e-01  -8.996575e-02  -9.288963e-02  4.657420e-02  2.117215e-01  1.609464e-01  3.170226e-01  -1.313985e-01  -7.035393e-01  -2.528755e-01  -1.524463e-01  6.726835e-02  3.471521e-02  -8.051076e-02  2.021479e-01  6.150179e-02  1.470276e-01  3.245337e-03  -1.994636e-02  2.911931e-01  -2.531660e-02  -6.739242e-02  -5.334892e-02  3.064916e-01  -2.828160e-01  1.286481e-01  -1.022695e-01  -1.353512e-01  4.915636e-02  -5.366294e-02  -1.301651e-01  -1.225573e-01  3.799951e-02  2.056616e-01  -1.245022e-01  1.342781e-01  -2.131065e-01  -4.782552e-02  8.313753e-02  -1.858615e-01  -4.569005e-01  -4.548032e-01  5.553042e-02  1.316774e-01  1.591437e-01  -2.578060e-01  1.452679e-01  -3.709800e-01  -2.918111e-01  -1.385663e-01  2.017507e-01  -1.824387e-01  -6.303106e-02  1.798700e-01  1.291879e-01  -2.081843e-01  7.809303e-02  1.702447e-01  -5.313765e-02  -2.681557e-01  -8.934835e-03  1.193320e-02  -1.191639e-01  -1.046991e-02  3.602906e-02  7.973349e-02  1.830182e-01  3.224927e-01  1.198846e-01  -5.175158e-03  -1.069703e-01  -1.227540e-01  1.720262e-01  7.779340e-02  -3.600733e-02  7.892227e-02  2.381505e-01  2.044393e-02  -7.443299e-01  -3.857066e-02  1.575336e-03  -6.683165e-01  -1.176631e-01  -1.549281e-01  -2.442361e-01  -2.552806e-01  -1.831008e-02  -1.215385e-01  2.215111e-01  -1.109779e-01  -2.450696e-01  -1.225274e-01  -1.327595e-01  2.511390e-01  2.001814e-01  3.071786e-02  2.163469e-01  -1.787103e-02  -1.260060e-01  1.531906e-01  2.923340e-02  -5.185603e-02  -6.090271e-01  -6.723901e-01  3.365129e-01  -1.565940e-02  -1.744477e+00  -3.965691e-01  -1.452965e+00  -2.117004e-01  2.227366e-01  -1.221997e-01  -5.608476e-03  2.569195e-01  -1.142292e-02  2.907491e-01  2.322680e-02  8.709271e-02  1.404381e-01  2.636504e-01  4.957228e-02  -2.904459e-02  -1.349124e-01  -1.310706e-01  3.325175e-01  -2.418620e-02  3.480539e-02  -1.543138e-01  1.614434e-01  1.508475e-01  9.088126e-02  -7.149318e-02  6.951553e-02  -7.836434e-02  3.095953e-01  3.521124e-01  7.481554e-02  1.645286e-01  -1.906925e-01  -1.032884e-02  1.563286e-01  -2.216189e-01  -1.000359e-01  -8.623284e-02  2.691275e-03  -2.043899e-01  6.259418e-02  -8.581945e-01  6.181656e-02  2.220150e-01  -5.560991e-01  2.508202e-01  -5.917047e-02  2.021234e-01  -8.790363e-02  -2.257432e-02  -1.249232e-01  4.770558e-02  2.145455e-01  -5.727412e-01  -8.340925e-02  -2.016646e-01  4.319286e-01  -8.775703e-02  -1.312200e-01  -2.061365e-01  -5.843074e-02  1.387146e-01  3.535418e-02  2.360736e-01  -1.309244e-01  -1.410412e-02  3.018821e-01  -1.444804e-01  2.670917e-01  8.183799e-02  1.367877e-01  -1.636173e-01  -1.004242e-01  -5.963431e-02  -3.646173e-01  5.121596e-02  -4.959840e-01  8.771077e-02  2.490734e-01  1.841569e-01  1.588827e-01  2.862886e-01  1.475980e-01  -1.536562e-01  -2.024384e-01  -2.774400e-01  -2.518975e-01  2.027617e-01  1.487233e-01  -5.404070e-02  1.320463e-01  8.731121e-02  1.092361e-01  -4.102554e-02  1.831265e-01  -2.841001e-01  -2.093124e-01  -2.027892e-01  2.525705e-01  -3.789489e-02  -2.259640e-01  1.282533e-01  3.423502e-01  5.107739e-02  -5.019199e-02  -2.296681e-01  2.757093e-01  -1.007092e-01  2.730438e-01  -1.304035e-01  -2.068256e-01  1.625470e-01  1.095298e-01  -3.109611e-02  4.418926e-02  -3.665056e-03  1.571249e-01  2.160488e-01  -1.019617e-01  6.735240e-02  -6.595926e-02  -4.678095e-01  2.226498e-01  -1.456297e-01  -1.717974e-01  -2.313755e-01  -2.090406e-02  -9.555467e-02  1.157699e-01  -2.782142e-01  3.042943e-02  -3.182746e-03  2.485142e-02  1.284478e-01  3.362443e-01  1.166352e-01  2.048339e-01  2.295981e-01  4.774773e-03  -3.225074e-01  1.868985e-01  1.936540e-01  -8.747636e-01  -3.231164e-02  -1.765197e-01  -2.806046e-01  -5.211068e-01  -6.396282e-02  -1.516721e-01  -1.133441e-01  -3.118650e-01  3.199057e-01  4.814214e-01  2.230927e-01  1.583884e-01  -3.145818e-01  1.212369e-01  1.865169e-01  2.380203e-01  1.775765e-01  -2.886125e-01  7.060712e-02  -1.219123e-01  -4.998617e-02  5.253108e-01  -6.639300e-01  -2.295641e-02  3.024982e-01  -2.865070e-01  -3.971491e-01  -1.220351e-01  -4.393270e-01  -8.065508e-02  1.724028e-01  7.951959e-02  -1.194145e-01  -5.758762e-02  -9.453776e-02  -8.183486e-01  8.348162e-02  3.170320e-01  -2.398785e-01  -1.014080e-01  1.571088e-01  9.772923e-02  -1.404227e-01  2.123586e-02  9.990657e-02  -2.583872e-01  1.156017e-02  5.652146e-03  6.242347e-02  1.862803e-01  -4.322301e-01  -1.260747e-01  -5.556677e-01  -6.495427e-02  3.054236e-01  -4.682117e-02  -2.001234e-01  1.575679e-01  -1.524171e-01  1.428884e-01  -2.160943e-01  -2.263461e-01  -1.053904e-01  -1.144464e-01  1.065784e-01  1.659624e-01  3.043083e-01  2.372481e-01  2.272872e-01  -3.083181e-03  1.189410e-02  9.081644e-02  -8.259688e-02  7.758239e-02  2.545587e-01  4.854428e-02  -7.733338e-02  1.027981e-01  -7.792993e-01  1.544835e-01  1.364088e-01  1.268656e-01  1.696215e-01  6.956021e-02  -1.067201e-01  -2.358830e-02  2.175043e-01  6.266069e-02  -4.830546e-02  1.120329e-01  -1.132107e-01  -9.662558e-02  -4.703176e-02  -6.109458e-02  -1.410805e-02  2.965451e-02  1.611232e-02  -1.336280e-01  -7.336085e-02  1.866301e-01  3.319142e-01  2.320725e-01  -5.968568e-01  2.796126e-01  -3.931267e-03  2.690771e-01  -2.088706e-01  2.282346e-01  -3.069943e-01  -3.789137e-01  -6.623026e-01  2.524526e-01  -3.796870e-01  3.550891e-02  2.902769e-01  8.386508e-02  -9.601843e-02  1.164064e-01  2.381854e-01  -1.106251e+00  1.626258e-01  -9.981854e-01  4.897126e-01  -8.796241e-02  -3.449844e-01  1.098772e-01  -6.042314e-02  2.406691e-01  -3.144789e-03  -4.900064e-01  -1.248685e-01  -6.107444e-01  2.883759e-02  8.909791e-02  -1.307064e-01  3.178416e-01  -2.570413e-02  1.012870e-01  -9.287424e-02  1.315704e-01  -1.734785e-01  -1.999307e-01  -2.009815e-01  2.575393e-01  -2.771824e-01  2.116933e-01  -3.138949e-01  2.490418e-01  3.504087e-01  7.322132e-02  6.606814e-03  1.026062e-01  1.636070e-01  -5.084298e-02  -1.933525e-01  -1.292794e-01  -2.636955e-01  -1.827227e-01  1.897005e-01  9.173360e-02  -2.088886e-01  -1.205147e-01  -8.112811e-02  -1.539113e-01  1.850411e-01  -1.609005e-01  2.963430e-02  7.210146e-03  -1.336965e-01  -1.997964e-01  2.046084e-01  -5.997729e-02  1.335696e-01  1.143626e-01  1.433108e-01  -1.822634e-01  -2.814903e-01  2.516061e-01  -4.294375e-02  1.785327e-01  -4.898412e-02  1.036092e-01  -1.132368e-01  -1.307780e-01  -6.178218e-02  -1.852543e-01  7.932124e-02  2.826380e-01  -2.325990e-01  -3.071287e-02  -1.576876e-01  -1.956268e-01  -2.640797e-01  -8.400734e-02  -1.634308e-02  -6.767322e-02  4.926181e-02  1.394198e-01  2.196442e-03  -1.218163e-01  2.481266e-01  -1.425922e-01  -1.151330e-01  -6.720549e-01  9.111697e-02  -1.366162e-01  2.565806e-01  -1.091832e+00  1.061743e-01  -2.811120e-02  -7.713296e-02  -2.493653e-02  -5.055097e-02  -1.249121e-01  -3.737783e-02  1.270759e-01  1.004950e-01  -3.514188e-01  -5.288831e-02  1.848817e-01  -2.742492e-02  1.030911e-01  -1.847711e-01  -1.956237e-01  2.288391e-02  3.110180e-01  1.491012e-01  -2.079015e-01  2.890160e-01  -3.832394e-01  -5.946947e-02  2.426203e-02  -2.303171e-02  7.160922e-02  3.126378e-02  -2.669321e-02  5.141957e-02  -9.471337e-02  -7.119235e-02  -4.745976e-01  -4.027398e-02  2.596817e-01  -9.343550e-02  -4.393261e-01  3.932806e-01  -2.800465e-02  -1.254832e-01  4.066302e-02  -1.286293e-01  8.350305e-02  -1.218504e-01  6.878359e-02  1.735596e-01  -8.596499e-02  1.697586e-01  -2.161488e-01  2.314621e-01  1.745778e-01  2.831325e-01  5.166604e-02  -8.732567e-02  5.381040e-02  4.886355e-02  -3.308589e-02  -2.738971e-01  1.434992e-01  2.054050e-01  1.844904e-01  -9.707987e-02  6.101191e-02  2.676532e-01  -2.339046e-01  -3.854029e-01  1.598047e-01  -2.056546e-02  1.518522e-01  -2.045706e-01  -1.781007e-01  1.803251e-01  1.375720e-01  -6.191678e-02  -2.969737e-01  -1.477240e-01  1.628020e-01  -2.092273e-01  -2.723176e-01  -1.745572e-01  -1.048526e-01  7.558636e-02  1.032840e-01  2.592584e-01  -1.512142e-01  -9.920985e-02  -3.061970e-01  7.282222e-02  -1.606861e-01  1.344792e-01  2.333332e-01  -4.186341e-01  1.337955e-03  2.771997e-02  -2.132037e-02  2.408108e-01  -2.319590e-02  -1.126047e-01  3.700209e-02  1.968325e-02  1.355709e-01  2.709359e-01  -4.023458e-02  -1.951374e-01  4.146774e-02  2.590502e-01  6.516775e-02  4.342800e-02  1.382228e-01  -1.174030e-01  -6.112771e-04  -1.411973e-01  1.107267e-02  -3.893652e-01  -2.111424e-01  -5.316975e-02  6.060715e-02  1.921928e-01  -1.510899e-01  -8.063355e-03  4.373952e-02  1.297525e-02  -8.053879e-02  -1.687944e-01  6.948020e-02  -2.495186e-01  -6.135655e-03  -4.345481e-02  -7.194161e-03  1.734060e-02  -1.949465e-01  -7.522133e-02  9.735727e-02  1.479527e-01  -1.538991e-01  7.215824e-02  -1.731838e-01  2.384916e-01  3.025965e-02  9.780824e-02  -3.984534e-04  9.744472e-03  1.950377e-01  7.176958e-02  -1.150971e-02  -2.449568e-01  -6.952347e-01  -7.049014e-02  1.292141e-02  -4.330446e-01  -6.160230e-01  9.896173e-02  -1.453053e+00  -2.969328e-01  2.697082e-02  2.061511e-01  6.215560e-02  3.855108e-01  -6.156838e-02  -6.740897e-02  1.062974e-01  4.829081e-01  -6.460560e-02  2.033823e-01  2.226793e-01  2.584112e-01  1.711533e-01  2.657036e-02  1.530622e-01  -2.979061e-02  6.886668e-01  -2.354789e-01  7.639261e-02  2.050922e-02  -2.016334e-01  6.823929e-02  -4.700029e-02  -5.810958e-03  2.467506e-01  2.559723e-01  1.373568e-01  -1.026148e-01  -5.158510e-01  1.136767e-01  -8.532987e-01  9.345186e-02  3.850970e-01  -5.596172e-02  -9.444062e-02  -4.956679e-02  -7.639842e-02  -5.549235e-01  
      </Weights>
      <Biases Rows="50" Columns="1">
        -1.762705e-01  9.431785e-02  2.496612e-02  5.511028e-02  -1.862791e-01  -6.464713e-02  -2.052998e-01  -7.198579e-02  1.070511e-02  -9.828293e-02  -7.548208e-03  7.811612e-02  -4.629214e-02  -5.181566e-02  -2.059707e-01  2.348626e-01  -1.541997e-01  -2.049210e-02  1.639257e-01  8.223799e-02  8.548139e-02  1.289989e-01  1.314674e-01  -1.835611e-01  7.163731e-02  -2.875415e-01  7.038955e-02  -9.837660e-03  -2.202590e-01  6.503556e-02  -1.847266e-01  -2.137219e-01  1.093922e-01  -7.026249e-02  1.094381e-01  2.289146e-01  -1.240732e-01  1.197393e-01  1.462658e-01  -6.950675e-03  -1.570671e-01  -1.072832e-02  1.145952e-01  8.646592e-02  -2.148812e-01  -3.692034e-02  2.464918e-01  1.604925e-01  1.426029e-01  -1.159898e-01  
      </Biases>
    </DenseLayer>
    <DenseLayer Width="50" ActivationFunction="1">
      <Weights Rows="50" Columns="50">
        5.658000e-01  1.766442e-01  1.808338e-01  -3.073948e-02  1.151451e-02  5.855233e-01  -3.769904e-01  1.919147e-01  -2.530500e-01  1.639313e-02  -1.462396e-01  3.377815e-01  3.230123e-02  -2.826107e-01  -3.619559e-01  1.697336e-01  2.396518e-01  -2.410466e-01  -2.836970e-01  2.057629e-01  -7.871123e-02  1.235118e-01  2.776935e-01  4.706218e-02  2.116238e-01  -1.877955e-01  4.497769e-01  -1.882805e-01  -3.004846e-01  4.053513e-02  -2.435297e-02  -3.359755e-01  -1.576762e-02  1.256004e-02  3.566122e-01  -1.897479e-01  4.745144e-03  -1.103379e-01  1.454547e-01  -2.186356e-01  -7.513261e-02  -9.561671e-02  -2.120958e-01  -2.122191e-01  -3.832124e-01  -1.853307e-01  4.226843e-02  1.354382e-01  3.314175e-01  -1.383135e-01  7.161973e-02  1.286004e-01  2.217061e-01  -1.151798e-01  -2.516492e-01  2.053345e-01  1.054484e-01  1.314655e-01  2.260463e-01  1.264644e-01  2.102139e-01  1.918967e-02  -2.332495e-01  -7.373039e-02  1.209285e-02  -2.001788e-01  -1.113867e-01  5.700639e-02  -1.269813e-02  -2.064530e-01  -1.186604e-01  -1.583036e-01  -8.672208e-02  -1.087270e-01  1.110905e-01  3.028227e-02  -8.388139e-02  2.376503e-02  -6.223817e-02  3.057338e-02  1.479574e-01  -1.786883e-01  -7.438064e-02  2.499184e-02  -1.999156e-01  1.384352e-01  8.844972e-02  -3.603438e-02  -6.878899e-02  -1.680745e-01  1.489724e-01  -2.133594e-02  -1.958160e-01  -1.511432e-01  -2.490017e-01  1.789857e-01  -2.114059e-01  -1.673210e-01  1.668603e-01  -2.046416e-01  -3.451332e-01  6.341790e-02  -2.574409e-01  1.045371e-01  2.143140e-01  -1.324369e-01  4.195984e-03  -2.054955e-01  -7.758758e-02  1.005170e-01  1.629288e-01  6.001415e-02  3.647586e-02  -7.306179e-02  1.163964e-01  1.475860e-01  1.196035e-01  1.656610e-02  -1.435910e-01  1.243026e-01  2.291468e-01  1.910371e-01  2.146767e-01  1.136539e-02  8.388448e-02  -6.715618e-02  1.099768e-01  -1.890390e-01  1.431059e-01  1.247585e-01  8.521215e-03  -1.714973e-01  1.834030e-02  -7.503552e-01  -1.671189e-01  1.065260e-01  1.329499e-01  1.676915e-01  7.895876e-03  5.974569e-03  -4.688354e-02  -9.120467e-02  -1.280834e-01  2.250383e-01  3.445473e-01  -1.136745e-01  -5.064954e-02  1.169115e-01  -9.950706e-02  2.863090e-02  -2.673015e-02  9.658188e-02  -2.744340e-01  -1.502254e-01  -2.230441e-01  -2.165642e-02  -3.311529e-02  1.316255e-02  -5.601720e-02  -4.642963e-02  7.580560e-02  -2.503543e-01  -3.918536e-04  -2.068626e-01  -1.356914e-01  -9.328129e-02  9.860474e-02  -8.178142e-03  -7.923806e-02  6.357919e-02  1.968284e-01  1.381500e-01  -2.701938e-01  2.528794e-02  -2.341017e-01  -2.208695e-01  -2.016937e-01  -1.002782e-01  2.106321e-01  1.955281e-01  -8.406842e-02  -1.814884e-01  4.835587e-02  6.679690e-02  -1.556072e-01  -3.103593e-02  -2.088931e-01  -4.865716e-02  -2.213091e-02  1.753793e-01  -4.843562e-02  1.295917e-01  -2.202294e-01  8.993988e-02  2.056704e-01  -6.332727e-02  -3.856245e-02  1.352216e-01  -2.124504e-01  -1.422420e-01  -1.945157e-01  6.269999e-02  -1.792111e-01  -4.077755e-02  1.811195e-01  -2.423086e-01  -5.844351e-02  2.513403e-03  5.487971e-02  -1.728518e-01  1.078752e-01  -2.169251e-01  2.226635e-01  -5.134819e-02  1.085218e-01  -1.071462e-01  1.519397e-01  -3.072527e-02  3.697871e-03  -2.098922e-01  -2.053820e-01  1.805507e-01  1.520013e-01  -2.024704e-01  -1.965542e-01  -1.018067e-01  -1.350177e-01  6.114577e-02  1.342833e-01  -2.453116e-01  3.605040e-02  -1.504784e-01  2.064436e-02  -7.232016e-02  -8.455820e-02  2.322607e-02  -5.902089e-02  -2.072722e-01  -8.980127e-02  -2.200123e-02  8.277426e-02  5.445217e-02  -1.960205e-01  1.171989e-01  -5.875759e-02  -1.882095e-01  -2.029429e-01  -1.122076e-02  -2.420401e-02  -4.619534e-02  8.646869e-02  -1.965007e-01  -2.111841e-01  2.136064e-01  -6.571236e-02  1.375979e-01  -3.105716e-02  4.741284e-02  -1.709559e-01  2.240346e-01  -4.671633e-04  1.716484e-01  -1.186067e-01  5.397509e-02  3.906613e-01  1.200964e-01  -1.632953e-01  1.700929e-01  2.450407e-01  -1.532772e-01  6.560142e-02  4.509497e-03  3.214134e-02  7.596337e-02  2.128383e-01  1.327764e-02  -1.892717e-01  -1.996187e-02  -5.583004e-02  4.974559e-02  3.404798e-02  1.640766e-01  -6.074603e-02  -1.784806e-01  2.060268e-02  3.408888e-02  1.398812e-02  6.028971e-02  3.013500e-01  3.398522e-01  1.213230e-01  -2.531855e-01  -2.874974e-02  1.642351e-02  -9.922578e-02  1.067536e-01  -2.816909e-01  1.819138e-01  2.277075e-01  4.750139e-01  -2.786658e-01  1.091967e-02  -1.228316e-01  2.303012e-01  1.391112e-02  2.749760e-01  -3.022221e-01  -1.154202e-01  -8.034343e-02  4.945811e-02  -2.259227e-01  -1.243955e-03  -1.601926e-01  -1.168968e-01  1.067881e-01  -2.091761e-01  -1.405077e-01  3.537049e-02  -5.036157e-02  -1.382069e-01  1.309203e-01  3.235776e-01  -1.386725e-02  -3.003102e-01  5.848258e-02  2.205522e-01  2.065522e-02  2.359373e-01  6.989320e-02  2.000432e-01  -7.827413e-02  -4.081228e-02  1.982798e-01  4.589850e-01  -4.566083e-02  1.497447e-01  8.697723e-02  -1.010821e-01  -3.446878e-02  -1.259005e-01  -2.287596e-01  -7.304505e-02  -3.704119e-03  3.458144e-02  -2.476376e-02  -3.970545e-02  2.653610e-01  1.407167e-02  -5.005191e-02  -3.498306e-01  -1.152220e-01  9.131725e-02  -7.944612e-03  -2.242295e-01  -2.063074e-01  5.778946e-02  -3.592729e-02  3.173101e-02  6.793572e-02  -1.409633e-02  5.858500e-02  -8.083858e-02  -6.558985e-02  -1.106339e-01  -9.543349e-02  -9.938791e-02  -1.854386e-01  1.718444e-01  9.288634e-02  -1.651358e-01  3.302663e-02  -1.555795e-01  1.563929e-01  -2.116787e-01  -1.892515e-01  -1.637052e-01  1.267457e-01  -4.456333e-02  -2.182531e-01  -2.274835e-01  -2.092972e-01  -1.846484e-02  -1.037756e-01  -1.029496e-01  1.918667e-01  -2.019617e-01  -1.489336e-02  -1.746496e-01  1.575681e-01  1.449583e-01  7.489806e-02  1.615006e-01  2.758568e-03  -1.425619e-01  -1.256599e-01  1.902576e-01  1.613157e-01  1.052259e-01  -2.971901e-01  1.909468e-01  4.545667e-01  -2.853341e-01  2.286615e-02  -2.569908e-01  2.586518e-01  1.337651e-01  3.695267e-01  -1.652251e-01  3.278017e-02  -1.088661e-01  -1.050471e-01  -3.058610e-02  2.786180e-01  -4.974742e-01  3.447568e-01  -1.721189e-02  1.913959e-01  1.611850e-01  -1.698797e-02  2.691711e-01  2.553385e-01  -2.819772e-01  -1.408248e-01  -8.492282e-01  1.172781e-01  1.912765e-01  -2.806880e-01  -2.397827e-02  9.659620e-02  3.035630e-01  -9.860681e-02  3.315113e-01  1.003149e-01  1.807873e-01  2.244565e-01  1.388634e-01  -3.195649e-01  -1.368376e-01  -3.403279e-01  -3.708576e-02  1.864237e-01  -1.904729e-01  -5.723857e-01  -6.356631e-02  -2.582628e-02  -4.206952e-03  -1.334558e-01  -2.309996e-01  -1.533329e-01  -2.667937e-01  -7.634779e-02  -2.377388e-01  2.417095e-01  9.019075e-02  1.556910e-01  -2.163907e-01  -1.116290e-01  -2.311542e-01  3.276635e-02  -1.973800e-01  1.018611e-01  -9.906412e-02  -2.439529e-01  -1.157511e-01  1.842627e-01  -8.247515e-02  7.668105e-03  4.224229e-02  -5.589877e-02  1.638240e-01  -1.976209e-01  5.701201e-02  -2.949831e-02  -9.791271e-02  -2.357036e-01  5.370153e-02  -6.065853e-02  1.745002e-01  -2.017212e-01  -1.319274e-01  -1.511928e-01  1.808956e-01  -1.756266e-02  2.373161e-01  1.126938e-01  -2.410585e-01  -5.429174e-02  -6.110048e-02  -1.572099e-01  2.121643e-01  3.408762e-02  2.718741e-03  -7.723833e-03  -2.354543e-01  -1.447007e-01  -1.830273e-03  -1.586597e-01  3.447819e-03  -1.616603e-01  -2.331284e-01  1.148914e-01  -8.812445e-01  -5.259810e-02  -7.895033e-01  3.374974e-01  1.117523e-01  5.103920e-02  1.806519e-01  -1.301603e-01  1.190331e-01  -1.763802e-01  -4.565507e-01  1.785789e-01  -8.264400e-01  -1.664561e-01  6.025939e-02  7.804593e-02  -1.810905e-01  -1.692405e-01  1.087774e-01  1.326507e-01  -1.399131e-01  2.489787e-01  -9.540790e-01  1.463110e-01  1.699013e-02  -1.981778e-02  1.920205e-02  -2.642426e-01  1.509077e-01  -1.407472e-01  9.457547e-02  2.178619e-03  5.260582e-02  1.288600e-01  -2.157421e-01  -7.590492e-01  -2.875626e-01  -4.616770e-01  -1.179011e+00  -6.553973e-03  -2.263512e-01  1.979623e-01  -2.481475e-02  8.208137e-02  -2.289143e-01  -7.824574e-02  -3.522597e-01  6.294098e-02  -1.800486e-02  3.313594e-01  1.475407e-01  1.222647e-01  4.928656e-02  1.694865e-01  9.400394e-02  3.169511e-01  -7.923449e-02  2.064211e-02  5.363370e-02  5.763299e-03  2.485930e-02  1.560435e-01  -2.662693e-01  -1.801632e-01  -1.634089e-01  4.364998e-02  2.621171e-02  -9.813211e-03  2.035495e-01  2.227748e-02  -1.976560e-01  3.281447e-02  9.149277e-02  5.653919e-02  9.220700e-03  -4.141932e-02  6.198874e-02  3.823436e-01  2.370074e-01  1.336714e-01  3.382776e-01  1.383571e-01  -3.428608e-01  1.052472e-01  1.468147e-01  -1.567386e-01  1.533941e-01  6.699499e-02  3.206558e-01  5.347724e-02  7.608968e-02  -1.344207e-01  3.402219e-01  -2.325732e-01  -1.272632e-01  -2.773162e-01  3.923959e-02  9.727044e-02  3.536191e-01  -4.660400e-01  -9.888829e-02  -1.540025e-01  -7.439591e-03  -9.745139e-02  3.800408e-01  1.572684e-02  5.886971e-02  1.261950e-01  1.055026e-01  2.205143e-01  4.951917e-02  -2.245073e-01  3.094527e-01  2.132944e-01  3.208672e-02  2.697815e-01  -3.373594e-01  -3.848816e-02  2.719052e-01  2.096578e-01  3.446298e-02  2.481783e-01  -2.521050e-01  -1.279539e-02  -9.610937e-03  1.963747e-01  7.422782e-02  2.690002e-01  1.633715e-01  -1.889389e-01  5.481407e-02  9.417070e-02  3.636592e-01  -2.980714e-02  -2.261516e-01  3.920637e-02  1.302334e-01  6.298124e-02  -1.584381e-01  2.011253e-01  -3.576744e-02  2.237217e-01  1.912668e-02  -1.970188e-01  7.564647e-02  1.411379e-01  5.162366e-02  -1.305512e-03  -3.382035e-01  2.126985e-01  -3.207416e-01  -6.354230e-01  -3.659375e-01  1.393441e-01  -8.062454e-01  -7.093198e-02  -1.423562e-01  2.068779e-01  -1.426589e-01  -1.505890e-01  -2.933854e-01  -1.828657e-01  -9.894383e-02  6.384951e-01  9.480129e-02  2.677633e-01  8.033138e-03  -4.477599e-01  1.758280e-01  -2.358418e-02  -4.842075e-01  -1.938156e-01  -4.504091e-01  -2.320108e-01  3.830592e-01  6.308001e-02  9.521881e-02  7.126293e-02  -1.709322e-01  -9.761333e-03  1.391691e-01  -4.933345e-02  -2.426691e-02  2.271340e-01  -2.147900e-01  -8.050508e-02  1.874609e-01  -7.390618e-02  3.013499e-02  -1.664349e-01  -1.317159e-03  -6.883111e-03  5.416503e-02  4.018702e-01  -6.278654e-02  -1.917433e-01  -4.023080e-01  -1.484460e-02  -9.899149e-02  2.163635e-01  -1.495829e-01  -6.959970e-02  2.491216e-01  2.781172e-01  -4.256022e-01  -4.696455e-02  3.237460e-01  -1.804384e-01  1.283340e-01  2.032590e-01  1.117746e-01  2.346561e-01  -2.193613e-01  2.657733e-01  1.385719e-01  8.636209e-02  -1.312330e-01  1.090152e-02  4.122778e-02  7.404335e-02  -1.451739e-01  2.030043e-01  -1.006375e-01  -5.820616e-02  2.350068e-01  1.028512e-01  6.255064e-02  -1.436430e-01  1.078540e-01  5.727415e-02  -4.405508e-02  1.238502e-01  2.701347e-01  -8.224482e-02  4.667196e-03  -9.685969e-01  -5.092080e-01  -1.057707e-01  -7.671278e-01  9.345522e-02  2.699477e-01  2.451516e-01  -2.810488e-02  2.930319e-01  -2.068961e-01  1.523096e-01  2.120161e-01  2.437238e-01  -4.295732e-01  1.476415e-01  8.752345e-02  3.379675e-01  2.111011e-01  -1.244457e-01  -1.827798e-01  2.265179e-01  1.369035e-01  -1.077299e-01  7.253620e-02  -1.526772e-01  2.883543e-01  -4.644433e-02  -1.258565e-01  -4.680327e-01  -8.625813e-02  -9.785945e-04  1.418621e-01  3.756716e-02  -2.705767e-01  -7.442665e-03  -2.676663e-01  -8.921379e-02  -1.656491e-01  -1.447977e-01  4.124760e-02  -3.466212e-01  2.187909e-01  5.649298e-02  4.393477e-02  4.710004e-03  1.131498e-02  7.599686e-02  2.169438e-01  1.266077e-01  -1.543792e-01  1.239656e-01  2.405895e-01  3.186409e-02  -1.245991e-01  7.519227e-02  3.952540e-01  2.322786e-01  2.320506e-01  -2.587830e-01  -2.692864e-01  4.040721e-01  -2.204546e-01  1.649078e-01  -2.882852e-01  7.927148e-02  1.346759e-01  2.634193e-01  -2.537575e-04  -6.651782e-01  -8.156848e-01  -2.226448e-01  1.908758e-02  -2.364298e-01  -1.429451e-01  -2.378594e-01  4.706307e-02  1.382227e-01  7.576317e-02  -2.134045e-01  2.544644e-03  -2.175411e-01  -3.062555e-01  6.648231e-02  -3.906254e-02  1.611989e-01  -9.308528e-02  1.516291e-01  -3.325644e-01  -4.015235e-01  -4.910231e-01  1.911517e-01  3.990456e-02  7.992941e-03  -1.386628e-01  4.900352e-03  -4.840856e-01  4.330651e-02  1.803264e-01  -1.871433e-01  -6.604646e-02  1.466337e-01  3.480499e-02  -7.087709e-03  -6.220951e-02  -2.673049e-01  2.142337e-01  3.121864e-01  -9.477941e-02  -6.089047e-01  -1.158215e-02  2.232906e-01  1.276267e-01  -1.529880e-01  -3.952335e-01  1.255968e-01  -5.607672e-02  -3.285961e-01  -1.458682e-01  4.843237e-01  -2.456136e-01  -1.211416e+00  1.175783e-01  -6.954099e-01  -3.957444e-01  1.844430e-01  3.928475e-02  -2.668485e-01  5.679332e-02  -1.803863e-01  -2.415979e-01  -8.666965e-01  -4.724996e-02  -7.221514e-01  -3.917908e-02  -2.300121e-01  -4.511603e-01  1.424054e-01  1.768146e-01  1.740207e-01  -4.183410e-01  6.273168e-02  -3.716459e-03  3.748260e-02  -1.735990e-01  -9.702273e-02  -5.525821e-01  -1.271860e-01  1.993980e-02  -1.377397e-01  9.684940e-02  -3.412465e-01  2.190584e-01  1.357574e-01  3.724208e-01  -2.192077e-02  -1.613306e-01  -2.307132e-02  1.715409e-01  -6.952783e-01  -2.464578e-01  1.160526e-01  -1.256731e-01  1.851329e-01  1.502407e-01  -1.748364e-01  2.529555e-01  -1.302761e-02  -1.039558e-01  -1.371030e-02  1.111373e-01  -2.927614e-01  -1.653638e-01  -4.105676e-02  7.103580e-02  -8.050865e-02  1.876213e-01  -8.335118e-02  3.476522e-01  -3.656259e-01  8.531077e-02  2.140354e-01  -2.062977e-01  -1.340010e-01  -1.158565e-01  1.062243e-01  -1.724441e-01  1.885320e-01  1.274871e-01  1.942387e-02  -2.147787e-01  -2.802459e-01  1.589341e-01  3.758543e-01  2.110070e-01  4.158056e-03  -1.092140e-03  2.073744e-01  5.195730e-01  -1.356662e-01  1.405754e-01  -2.056322e-01  5.972524e-02  1.672848e-02  -3.651791e-02  -8.629966e-02  2.271991e-02  2.047726e-01  3.628930e-02  -4.399508e-02  1.658201e-01  4.606889e-01  4.347570e-02  1.004144e-01  -1.881768e-01  -3.874082e-01  2.229531e-01  -3.529494e-02  2.369567e-02  -5.173249e-02  9.490440e-02  -1.228549e-02  -1.309474e-01  2.578209e-01  8.073475e-02  -1.701449e-01  -4.560445e-02  -1.073967e-02  -2.049091e-01  -1.139015e-02  2.372445e-01  1.191955e-01  2.058695e-02  -1.834662e-01  2.350222e-01  -5.317370e-02  5.030147e-02  1.286067e-01  -2.029384e-01  -1.395334e-01  -2.300757e-01  -3.777229e-02  2.327814e-01  -8.392234e-03  1.566620e-02  -1.871304e-01  -5.471882e-03  7.204219e-02  -7.270885e-01  1.226865e-03  -3.793082e-02  2.839842e-02  1.337293e-01  1.099077e-01  8.443941e-02  -1.222906e-01  1.789461e-02  1.169242e-01  2.513481e-01  2.122179e-01  1.561279e-01  -1.272967e-01  3.113389e-01  2.019528e-01  1.331709e-02  -2.680841e-01  1.560711e-02  3.054437e-01  -5.479574e-02  -6.447228e-02  5.637419e-01  4.580148e-01  6.809381e-02  3.332457e-02  3.711631e-02  -2.325250e-01  1.739191e-03  4.540810e-03  2.353469e-01  2.128034e-02  -1.255330e-01  2.798687e-01  4.585490e-02  -1.134135e-01  3.141550e-01  -8.007030e-02  -3.747178e-01  -1.897283e-01  -8.886726e-03  4.678332e-02  -1.651879e-01  1.376992e-01  2.045514e-01  -4.989429e-01  2.517560e-01  -1.916309e-01  3.260360e-01  -8.382116e-03  1.365525e-01  -9.358158e-01  1.872293e-01  9.395298e-03  -5.229575e-02  -2.514593e-01  6.857072e-02  3.013933e-01  1.038436e-01  -1.068203e-01  1.173292e-01  -1.340704e+00  1.713444e-02  -1.116679e-01  7.403225e-02  -2.444036e-01  -2.098448e-01  2.843557e-01  -1.385068e-02  4.327002e-02  2.030803e-01  3.219203e-03  -1.519334e-01  -4.057053e-02  3.394956e-01  1.877301e-01  2.564661e-01  -4.681344e-02  3.332752e-01  3.419141e-01  1.844550e-01  -2.950007e-02  -2.412930e-01  4.972327e-02  5.033846e-03  6.479924e-02  -2.133072e-01  -2.072279e-01  -1.557584e-01  -1.080963e-01  2.635003e-01  -6.740413e-02  2.791911e-01  -1.436365e-01  -5.757568e-02  4.589626e-01  1.802310e-01  5.689754e-02  8.571748e-02  1.018534e-01  -8.867504e-02  2.413964e-01  -2.160353e-01  -3.627786e-02  2.252910e-01  -1.015974e-01  -8.524662e-04  -2.527916e-01  -5.941609e-02  2.216643e-01  9.435925e-02  5.722331e-02  -1.738024e-01  2.173951e-01  2.565198e-01  -1.388777e-01  6.691497e-01  -1.116363e-01  -7.567605e-02  1.577829e-01  -7.594364e-02  -1.263759e-01  -1.843441e-01  1.521422e-01  -6.879169e-01  -1.233641e-01  -1.098786e-01  1.480071e-02  -6.418126e-02  2.149739e-01  2.470603e-01  -8.231809e-01  -1.449746e-01  -1.667898e-01  3.066762e-01  -1.460523e-01  3.597578e-02  6.778489e-02  -5.377470e-02  1.140774e-02  2.408023e-01  7.698913e-02  -2.982611e-01  -3.154310e-01  -2.409076e-01  3.616161e-01  5.470251e-02  -3.857064e-01  -1.083732e-01  7.317067e-03  -2.844669e-01  2.175608e-02  -9.564910e-03  -1.649151e-01  7.381374e-02  -9.773859e-02  1.291781e-01  -1.448266e-01  1.480394e-01  3.185153e-02  2.907623e-01  -1.151598e-01  -5.672949e-03  -1.077168e-01  1.371890e-01  2.601005e-01  1.173651e-01  -5.453470e-03  3.221902e-01  -1.387850e-01  2.600483e-01  1.504584e-01  4.703777e-02  1.736356e-01  6.472015e-02  -2.991231e-02  -5.501383e-02  -7.802358e-02  -1.366909e-01  2.368056e-02  7.409615e-02  3.037931e-02  2.658462e-01  2.315701e-01  -1.816404e-01  9.885543e-02  -3.249817e-02  -9.982838e-02  -1.504579e-01  -6.460222e-02  -8.614366e-02  -1.289858e-01  -3.104755e-01  7.972725e-02  2.336690e-01  2.026627e-01  2.576737e-01  2.858080e-02  -3.463126e-01  -6.022492e-02  -4.372538e-01  1.313843e-01  1.518148e-01  3.769123e-02  -3.052006e-02  1.265390e-01  -2.691146e-01  2.158179e-01  -4.935049e-01  4.967324e-02  -1.577937e-01  -8.258505e-02  1.165650e-01  4.752901e-04  2.029968e-01  1.148929e-01  -1.360439e-02  -1.105573e-01  3.048873e-02  2.537478e-01  1.143073e-01  -1.699324e-02  -1.712572e-01  9.090050e-02  3.395639e-01  3.210278e-01  -2.834463e-01  9.094314e-02  -2.391900e-01  -1.818329e-01  1.067858e-01  -8.927786e-01  2.729723e-01  1.412590e-01  2.378899e-01  9.577817e-02  1.504667e-01  1.897270e-01  -1.730635e-02  2.091673e-01  2.742040e-01  9.281257e-02  -5.547108e-02  -7.074937e-01  -2.099395e-01  3.607480e-01  2.809846e-01  -8.077840e-01  -6.552140e-02  -1.556745e-01  -1.778962e-03  -1.495390e-01  2.815815e-02  -2.562960e-01  2.546356e-01  -5.325429e-03  2.995795e-01  -1.814704e-01  -2.180113e-01  -4.553803e-02  -3.826229e-02  -2.321222e-01  6.899946e-02  -8.917891e-03  -1.161822e-01  -9.108808e-02  -2.244086e-01  4.736407e-02  -9.695502e-02  1.138791e-01  1.020440e-01  -1.106741e-01  -1.750648e-01  -4.565295e-02  1.033385e-01  1.021432e+00  2.723727e-01  -9.827521e-02  -3.917989e-03  2.066848e-02  4.456546e-02  6.104860e-02  -3.370681e-02  3.887690e-01  -5.178849e-02  -2.962666e-01  -9.028388e-02  -2.329363e-01  -4.914696e-01  -3.564772e-01  1.592722e-02  -9.035466e-01  -2.809182e-01  3.508404e-01  -2.901855e-02  -1.049357e-01  3.634733e-02  1.327119e-01  -8.167155e-02  -6.460137e-01  1.987381e-01  -4.699867e-02  -2.601543e-01  1.931119e-01  -7.767697e-01  -8.650112e-02  -6.654101e-01  1.355406e-01  8.767513e-02  1.640897e-01  -1.268064e-01  -1.718162e-01  1.790390e-02  -2.976600e-01  1.060179e-01  1.399580e-01  -7.641323e-01  5.571816e-02  -1.209769e-01  -1.122412e-01  2.178147e-01  -1.038626e-01  7.212692e-01  -7.338469e-01  3.319114e-01  5.878264e-02  4.883873e-02  1.278930e-01  1.971523e-01  -3.729578e-02  5.889923e-02  2.092566e-01  1.388164e-01  -1.231498e-01  -2.414877e-01  7.710111e-02  1.502981e-01  2.996063e-01  9.310130e-02  -2.052311e-01  2.140044e-01  1.154617e-01  2.917891e-01  4.725507e-02  -1.701083e-01  -7.022995e-01  -2.946330e-01  1.101715e-01  -2.666076e-01  -2.071493e-01  -2.023471e-01  -1.632690e-01  3.040380e-01  1.696870e-01  -1.472531e-01  1.366150e-01  -3.612654e-01  -8.559709e-02  -2.824275e-02  -1.710408e-01  4.611105e-03  -9.024809e-01  9.487333e-02  -1.727834e-02  2.313016e-01  2.429612e-01  4.786972e-03  -8.328624e-01  -2.050968e-02  1.498280e-01  -1.981184e-01  9.394391e-02  2.190631e-01  8.679539e-02  -2.715268e-01  -2.013708e-01  -9.484772e-02  1.999855e-01  -1.638902e-01  -7.995378e-02  -3.460332e-03  -3.718484e-02  -2.568055e-01  8.808458e-02  1.142244e-01  1.079183e-01  -2.286278e-02  2.673830e-01  2.277059e-01  -1.211705e-01  -6.856728e-02  1.461356e-01  -3.083061e-01  -4.003236e-02  1.346852e-01  -2.509848e-01  1.122584e-01  6.683583e-02  -1.401872e-01  -1.622018e-01  2.722822e-01  -2.122792e-01  1.177310e-01  1.268434e-02  7.825623e-02  -4.646061e-03  -7.191033e-03  7.219587e-02  -3.809688e-02  2.690158e-01  1.471977e-01  -1.786635e-01  -1.790781e-01  1.253870e-01  1.596023e-01  1.176241e-01  -3.202454e-01  3.229012e-01  1.289938e-01  -2.764613e-01  1.630286e-01  2.331231e-01  -1.392195e+00  3.794447e-01  3.483943e-01  -8.408852e-01  1.768126e-01  1.434856e-01  -2.138346e-02  1.444696e-01  1.061790e-02  6.236292e-02  6.795774e-02  2.487523e-01  6.256803e-03  -2.674583e-01  1.557467e-02  -1.894887e-01  -1.005991e-01  -1.949388e-01  2.986730e-01  -2.578332e-01  3.571068e-01  -2.631190e-02  -2.279169e-01  -2.610724e-01  1.357644e-01  1.568247e-01  6.799490e-02  -1.122450e-01  -6.801683e-01  -2.866886e-01  -4.278242e-01  2.429705e-01  1.126084e-01  4.488140e-02  2.745355e-01  9.108778e-02  2.099581e-01  -2.154327e-01  4.671489e-01  4.405972e-01  1.455928e-01  -2.198904e-01  -1.839380e-01  -2.981643e-01  3.503387e-01  -5.089635e-01  -6.339704e-02  -5.540495e-02  9.504052e-03  5.553827e-02  4.888548e-01  -2.985512e-01  -7.483392e-02  -1.506439e-01  -1.391089e-01  7.517160e-02  2.550232e-01  -1.544909e-01  1.901833e-01  -5.107758e-01  -3.815078e-02  -3.708723e-01  3.508798e-01  7.887406e-02  -3.650038e-02  -9.407493e-02  3.579729e-01  -5.207616e-02  1.158799e-01  1.651980e-01  -3.717896e-01  5.200152e-01  -1.198609e-01  -2.099871e-01  1.763090e-01  -3.186467e-01  -3.721482e-02  2.152650e-01  4.531313e-01  1.937987e-01  -1.606556e-01  -1.656782e-01  -5.338815e-03  5.992060e-02  -2.088271e-01  4.978111e-02  -2.644194e-01  -2.927155e-01  -1.914052e-01  -2.675505e-01  9.765343e-02  1.931901e-01  3.674625e-01  2.637591e-01  -1.654826e-01  -3.256255e-01  -5.564528e-02  -1.650584e-01  1.536178e-01  1.213943e-01  4.643005e-01  -2.156432e-01  -1.321408e-01  -4.282222e-01  -1.053307e-01  7.258215e-02  -5.745219e-02  1.469034e-01  2.226190e-02  -3.368793e-01  -7.852603e-02  -4.143593e-02  -6.299584e-02  2.007256e-01  -2.336877e-01  -5.984590e-02  2.166287e-01  1.950093e-01  -7.325484e-02  1.782012e-02  -4.209362e-01  3.402801e-01  9.458702e-02  1.068181e-02  -1.271512e-01  4.347012e-02  -1.634269e-01  3.045880e-01  -7.060039e-01  1.808693e-01  2.104918e-01  -4.402818e-01  1.093044e-01  1.799549e-01  1.416314e-01  -1.006982e-01  -2.706523e-01  -8.919327e-03  -8.337282e-02  -1.273637e-01  -1.083732e-01  -1.653146e-01  -3.553685e-02  2.374463e-02  1.468717e-01  -2.592544e-01  -2.666261e-01  7.469971e-02  1.358970e-01  -8.440099e-02  1.193971e-01  -1.076650e-01  -7.162452e-03  6.122782e-02  -1.431931e-01  -8.318616e-02  6.194294e-02  1.268782e-01  -9.745996e-02  1.400569e-02  -2.051071e-01  -2.088868e-01  -1.123798e-01  -7.382326e-02  6.323036e-02  1.718282e-01  1.328806e-01  -3.243328e-03  -8.264359e-02  -1.954814e-01  -1.233615e-01  1.144850e-02  1.700949e-01  6.339902e-02  -2.524111e-01  -2.630814e-01  -1.342421e-01  2.145143e-01  -4.486098e-02  -1.132549e-02  -7.417190e-03  1.457333e-01  1.485737e-02  7.723913e-02  -2.218971e-01  -1.707750e-01  -2.091959e-01  -2.883013e-01  9.090156e-02  1.196917e-01  -1.259227e-01  -1.280013e-01  1.862523e-01  -2.129793e-02  -1.785358e-01  4.754812e-01  1.381546e-01  2.483848e-01  1.291696e-01  1.691430e-01  1.824142e-02  6.779879e-02  2.298020e-01  -2.168315e-01  -3.175611e-01  -7.117590e-02  1.116069e-01  5.318589e-01  -1.842520e-01  -3.100798e-01  1.633085e-01  4.138532e-01  -1.938552e-01  -9.705333e-02  1.451560e-01  -1.387783e-01  -2.554764e-01  -1.859531e-01  -1.099966e-01  -1.211039e-01  -5.057847e-01  -3.485421e-01  -9.573685e-02  -1.965151e-01  7.157756e-02  1.615787e-01  -3.531749e-01  -1.502175e-01  -7.824683e-01  2.454016e-01  1.342438e-01  -1.851219e-01  2.905178e-01  1.404809e-01  4.292117e-03  -1.349759e-01  -5.039359e-02  -1.906115e-01  1.065034e-01  -1.117251e-01  1.504561e-01  6.242346e-02  -1.201330e-03  2.321942e-01  -1.506394e-01  -1.512167e-01  8.585785e-02  -9.810581e-02  2.095868e-01  -1.949746e-01  -6.129780e-02  -1.724291e-01  -1.948827e-01  -3.259585e-02  -2.103079e-01  1.578956e-01  2.610634e-02  -1.599619e-01  2.126435e-01  1.740329e-03  2.936403e-03  -2.149460e-01  9.809747e-02  -1.662807e-01  1.802033e-01  -5.780248e-02  1.171381e-01  1.310248e-01  1.872176e-01  -2.230075e-01  -1.076427e-01  -1.779149e-01  2.368450e-01  -4.964457e-02  -1.078122e-02  1.824694e-01  -2.090606e-01  -1.429863e-01  -1.784087e-01  -2.079274e-01  1.658346e-01  4.737181e-02  -7.360467e-02  -1.150169e-01  -1.609271e-01  2.384056e-01  -2.081215e-01  1.200113e-02  -2.539783e-01  1.906300e-01  7.721839e-02  1.687636e-01  -8.830766e-02  -1.556179e-01  -2.631086e-02  -1.128736e+00  3.350715e-02  1.979451e-01  1.383052e-02  -1.226377e-01  4.081588e-01  -2.857701e-02  1.214153e-01  1.177352e-01  3.292406e-02  -2.762187e-02  -2.838116e-02  -3.869772e-01  1.599250e-01  1.518383e-01  -8.793969e-02  1.447140e-02  -2.423670e-01  -9.008364e-02  -2.005055e-01  9.028665e-02  7.440924e-02  1.559481e-01  -4.902935e-01  2.539159e-01  -2.596391e-01  3.865663e-01  -2.227208e-01  -6.409009e-02  1.354138e-01  -2.510140e-01  -6.608538e-02  2.407942e-01  1.929792e-01  5.838340e-02  1.685330e-01  -2.273785e-01  1.638000e-01  -1.952471e-01  -1.269241e-03  -1.305332e-01  -2.049127e-01  -6.692642e-02  -4.347202e-01  -6.055445e-01  6.106822e-02  2.645177e-01  -1.187474e-02  -1.916729e-01  -1.854378e-01  -2.527942e-01  -1.907003e-01  -1.156205e+00  -2.487669e-01  2.037608e-01  -4.765801e-01  3.596907e-01  9.843048e-02  9.492978e-02  3.628512e-02  -1.955928e-02  -3.172750e-01  -2.287993e-01  -3.014228e-01  6.059804e-01  -1.773202e-01  1.397327e-01  3.139410e-01  -1.710903e-01  1.020650e-02  2.038385e-01  -1.794736e-01  3.465813e-02  -2.496372e-01  -2.379220e-01  2.466749e-01  -1.420229e-01  -1.490219e-01  -2.989367e-01  5.535962e-02  -3.904281e-01  -1.250931e-01  -1.234255e-01  1.671338e-01  1.437785e-01  -5.384747e-01  -6.598030e-02  -1.777201e-01  -3.811031e-01  -4.678718e-02  1.120796e-01  -1.679662e-01  -1.279454e-01  3.587174e-01  3.007408e-01  -2.674960e-01  -3.965709e-01  -8.060451e-02  2.302260e-01  3.081891e-01  -9.481434e-02  -3.498215e-02  1.274490e-01  -1.189996e-01  9.970807e-02  1.082568e-01  1.029920e-01  -1.546837e-01  -1.113610e-01  -2.708063e-01  -8.551838e-02  -1.926197e-01  -2.055132e-01  -8.355781e-02  1.674559e-01  -1.937864e-01  1.276301e-02  5.187125e-02  1.675839e-01  -8.558762e-02  -1.674646e-01  2.939373e-02  -2.125946e-01  -8.479100e-02  -2.959912e-02  -2.005787e-02  7.595998e-02  -9.442557e-02  -8.710002e-02  -1.193493e-01  -1.567809e-01  -4.030655e-02  1.002162e-01  -1.833276e-02  -5.838422e-02  -2.143270e-01  5.378333e-02  -1.213143e-01  3.184384e-02  5.117940e-02  -2.236226e-01  -1.018855e-02  9.694319e-02  1.331679e-01  9.534232e-02  7.417219e-02  9.972831e-02  -1.025069e-01  -2.880388e-01  -9.551370e-02  -2.597528e-01  1.715664e-02  1.164073e-01  1.035341e-02  -2.340390e-01  1.558926e-01  -3.154105e-01  8.642241e-02  -9.772893e-02  -1.154130e-01  -4.372957e-02  -3.736681e-02  -1.495230e-01  1.474768e-01  -2.341261e-01  1.981205e-01  1.427675e-01  1.120096e-01  1.279097e-01  1.611939e-01  1.422825e-01  1.972097e-02  9.132154e-02  -2.072148e-01  -5.466085e-02  -9.501748e-02  1.806476e-01  -1.157844e-01  -3.660734e-02  -1.645499e-01  -3.797756e-01  1.219570e-01  5.579187e-02  3.638408e-01  -6.533628e-02  7.761255e-02  7.062177e-02  -2.282914e-02  1.523367e-01  -2.217030e-01  -9.718628e-02  1.361280e-01  1.077927e-01  -1.778440e-01  -3.716528e-01  4.541803e-03  3.663649e-01  -1.281379e-01  2.283520e-01  -9.670541e-01  4.434959e-01  -1.907417e-02  -5.032084e-02  3.553740e-03  -8.776018e-02  3.029245e-01  1.491904e-01  3.511525e-01  2.730805e-01  2.660053e-01  -7.044693e-02  -1.179962e-01  1.732654e-01  -7.001619e-01  -2.487525e-01  -3.881332e-01  -1.562608e-01  1.805702e-01  6.596134e-02  -4.932772e-02  1.411121e-01  -4.616980e-01  -2.054203e-01  5.277445e-02  3.254900e-01  3.682347e-01  2.373517e-01  -1.267131e-01  -1.035813e+00  -1.793785e-01  3.900238e-01  3.358427e-01  -4.497390e-04  2.151853e-01  3.731807e-01  -6.722046e-01  -3.346745e-01  -1.163669e-01  -2.245657e-01  4.316255e-01  3.578556e-01  2.309098e-01  7.862545e-02  1.663783e-02  6.641705e-02  -1.466802e-01  -9.015238e-01  1.407144e-01  -8.103044e-02  4.400485e-01  -6.651076e-01  1.606341e-01  2.593933e-01  -2.990046e-01  1.889195e-01  5.436161e-01  -6.345454e-02  4.196484e-01  -4.878471e-02  -3.900170e-02  -4.313861e-02  -1.102224e-01  1.689948e-01  1.418573e-01  -1.672949e-02  -1.012259e+00  -1.518523e-01  3.152051e-02  -6.254096e-01  -4.728322e-01  -9.489504e-02  -6.339052e-02  -2.049463e-02  -2.147964e-02  5.160294e-02  2.136725e-01  1.454242e-01  2.379214e-01  7.518556e-02  2.884494e-02  1.352580e-01  3.320564e-01  1.381303e-01  3.787778e-01  -1.926663e-01  -5.670962e-02  1.284887e-01  2.101191e-01  1.620832e-01  8.356041e-02  -4.638169e-01  -2.713108e-01  3.820135e-02  -6.279996e-02  7.793093e-02  -1.067257e-02  2.310394e-01  2.581357e-01  1.948456e-01  2.545794e-01  -1.082414e-01  1.424830e-03  -2.828527e-01  -1.120861e-01  -8.062843e-02  1.123770e-01  -2.105821e-01  1.066585e-01  -2.630685e-01  1.573051e-02  1.153037e-01  -1.356391e-01  -4.449604e-02  5.481513e-02  -3.077108e-02  4.450327e-02  4.725721e-02  -2.510072e-01  4.301541e-02  -2.473086e-01  -1.387540e-01  1.200403e-02  -1.739510e-01  9.240001e-02  -1.452564e-04  -2.180146e-02  -2.126835e-01  -1.491463e-01  1.505879e-01  -2.417215e-01  2.131520e-01  6.490638e-03  1.342485e-01  -2.343496e-01  -3.686227e-02  6.447722e-02  -1.601787e-01  1.885907e-01  -1.511521e-01  -4.647669e-02  -2.299778e-01  -2.368839e-01  -5.382495e-02  9.300052e-02  4.736319e-02  8.508457e-02  -1.129629e-02  1.295059e-01  -2.129678e-01  -7.477114e-02  -1.851983e-01  1.149532e-01  -1.687803e-01  -8.178455e-01  3.404018e-02  1.186583e+00  -6.838965e-02  -6.291781e-03  -2.148316e-01  -3.030170e-01  2.437438e-02  -1.900510e-02  -1.159059e+00  6.979125e-02  -3.149137e-01  -1.910820e-01  1.385079e-01  -7.870556e-02  -6.273792e-02  1.532233e-01  2.197535e-01  1.670210e-01  8.302563e-02  -4.873817e-01  2.646932e-01  4.007538e-02  -4.152285e-01  -6.965192e-02  -2.059039e-01  1.873405e-01  -1.266291e-01  -1.594176e-01  1.000842e-01  -5.447732e-04  2.098924e-01  -2.555638e-02  -2.931308e-01  2.301930e-01  -4.323560e-02  7.210895e-02  2.137460e-01  8.023155e-02  -2.100080e+00  -1.054015e-01  -1.818010e-01  3.379006e-02  4.004762e-02  -1.168600e-01  2.013963e-01  -2.109679e-01  -3.402690e-01  5.650310e-03  1.452592e-01  -1.457394e-01  -1.190220e-01  -1.286728e-01  4.885897e-02  1.150318e-01  -1.819112e-01  1.530311e-01  1.326940e-01  -1.112916e-01  8.287397e-02  -6.601556e-03  -1.060260e-01  1.492149e-01  -8.870747e-02  8.589759e-02  -7.395962e-02  -5.762379e-02  1.867819e-01  6.007661e-02  -5.758007e-02  -4.882317e-02  2.114147e-01  -9.513855e-03  1.168089e-01  -1.190455e-01  4.150358e-02  2.909972e-01  6.512640e-02  1.160188e-01  2.693535e-01  7.738364e-02  -1.631107e-01  -5.499754e-02  9.252016e-03  1.568068e-01  2.395531e-01  8.151272e-02  -3.717976e-01  -1.371305e-01  -1.679668e-01  -3.771777e-03  1.673026e-01  -1.030075e-02  3.033754e-01  1.614047e-01  3.243972e-02  8.339301e-02  4.134740e-01  -2.671168e-02  9.529901e-02  2.839649e-01  1.150280e-01  -4.564698e-02  -1.190476e-01  -8.015787e-01  -5.351982e-01  -2.638393e-01  -1.881236e-01  -8.198714e-02  5.296801e-02  2.791916e-01  3.110233e-02  1.663365e-04  -3.094590e-01  2.446582e-01  1.552268e-01  1.667681e-01  2.374091e-01  -3.571236e-01  -1.411362e-02  2.575688e-01  1.394385e-01  -1.072914e-01  -4.091116e-01  2.125932e-01  4.318483e-01  2.020450e-01  -2.537815e-01  -1.590825e-01  -9.522227e-02  -1.442921e-01  2.688797e-01  -1.233128e-02  -3.020742e-02  1.701853e-01  -6.099950e-02  1.634818e-01  -5.531981e-01  7.805437e-02  1.989667e-01  2.487980e-01  -1.439275e-01  -5.329509e-03  1.389880e-03  -9.429545e-02  -2.052258e-01  -4.306135e-02  -1.455958e-01  -1.165522e-02  -2.355434e-01  -1.965345e-01  1.506955e-01  -5.704282e-01  4.004911e-02  9.793082e-02  1.085947e-01  -7.112613e-02  9.694982e-02  -5.212335e-02  -1.202668e-02  3.305256e-01  6.259825e-01  -7.804773e-01  6.950469e-02  5.389678e-02  -3.585119e-01  -3.614711e-01  -8.716809e-02  -2.196402e-01  -1.434062e-02  7.670350e-02  -3.812474e-01  3.238023e-01  2.237580e-01  5.913817e-02  -1.132890e-01  1.947745e-01  2.742390e-01  1.297113e-01  -2.634106e-02  6.796974e-02  -7.469809e-02  -3.951927e-01  9.028504e-02  6.673034e-02  -2.597144e-02  1.831513e-01  4.229611e-02  2.893369e-02  -3.195465e-01  1.945560e-01  4.534651e-01  -1.728905e-01  -3.207051e-01  -2.380828e-01  1.271934e-02  1.835813e-01  -4.214961e-01  -6.102211e-02  1.336157e-01  4.069312e-02  -2.855046e-01  1.261470e-01  -2.470647e-01  -3.798635e-01  2.868299e-01  -7.490567e-02  2.327201e-01  8.584234e-02  -1.205634e-02  4.501515e-01  2.743343e-01  -1.398737e-01  1.236794e-01  -6.541824e-02  -9.444570e-02  1.172023e-01  2.200685e-01  2.070286e-02  -2.321489e-01  -9.743457e-02  -1.691756e-03  5.074800e-02  -1.467063e-01  6.326663e-02  3.427009e-01  2.203633e-01  9.667677e-02  -1.296441e-01  2.311563e-01  5.630254e-02  -1.807089e-01  1.939614e-01  2.060930e-03  8.368213e-02  -3.030034e-02  2.978245e-01  -1.365630e-01  -1.900418e-01  1.759486e-01  5.657420e-02  2.286553e-02  1.538974e-02  2.560066e-01  8.843602e-02  6.688497e-02  -1.330886e-01  -9.930721e-02  2.863579e-01  -1.107168e-01  -1.270523e-01  -8.855823e-04  2.393339e-01  -4.814687e-02  -1.635633e-01  1.809424e-01  -6.677961e-02  -1.853579e-01  -9.300687e-02  1.679286e-01  -7.390270e-02  1.956935e-01  1.191931e-01  -1.367998e-01  1.423435e-01  1.425178e-01  1.843309e-01  -1.206206e-02  3.858617e-03  -1.650195e-01  -5.706291e-02  5.065010e-02  -8.557975e-02  -2.236818e-02  -3.663562e-02  1.099041e-02  1.621278e-01  1.949100e-01  3.064203e-02  -8.335855e-02  1.716019e-02  2.061332e-01  -1.173089e-01  1.212472e-01  2.408242e-01  2.867787e-01  1.475347e-01  2.050230e-01  -6.286826e-02  1.169107e-01  2.611765e-01  4.788537e-02  8.293424e-02  -1.352371e-01  -1.272536e-01  -6.433470e-02  1.258552e-01  -4.835598e-01  1.902369e-01  2.330613e-01  4.493674e-02  1.668246e-01  -8.489071e-01  5.295988e-02  -5.881628e-02  2.368687e-01  -1.333607e-02  1.526370e-02  1.001387e-01  2.973325e-02  -1.339827e-01  -9.550323e-02  1.250731e-01  -2.886676e-01  2.123034e-01  -6.611725e-03  -1.003856e-01  -1.326817e-01  -1.868263e-01  -1.491160e-01  7.762554e-02  -3.367959e-01  -9.379282e-02  1.396794e-01  -2.020427e-01  8.810080e-01  1.809732e-01  -1.122238e-01  -2.137163e-01  -1.717099e-01  1.150251e-01  -8.810322e-01  -8.389340e-02  2.474151e-01  -2.040033e-02  3.606553e-02  -1.512646e-01  -2.512869e-01  1.236787e-01  2.730963e-01  1.212008e-01  -4.650334e-01  9.500450e-02  1.865192e-01  1.444873e-02  -1.766815e-02  -9.101790e-02  -1.058958e-01  1.848937e-01  2.875046e-01  1.490567e-02  -7.149651e-02  4.818751e-01  1.789920e-01  -6.363660e-03  -1.207698e-01  1.704748e-01  -1.390196e-01  -9.664469e-03  -1.690900e-01  2.743667e-01  5.819362e-01  7.407203e-02  8.055227e-02  1.102145e-01  2.291640e-01  -9.032898e-02  -4.571334e-02  2.605006e-01  1.214391e-01  8.639270e-03  6.166640e-02  1.997647e-01  -9.854180e-01  1.759406e-01  -5.060191e-01  7.564233e-02  1.922503e-01  -1.815775e-01  2.907834e-01  -3.784947e-01  1.335954e-01  -1.182534e-01  3.106711e-01  8.073653e-02  -1.477387e-01  -2.394591e-01  1.446121e-01  -3.072712e-01  -2.131243e+00  1.922573e-01  3.166321e-01  1.336653e-01  -8.905589e-02  -8.445994e-02  3.597407e-02  -1.194086e-01  8.793096e-02  -1.853503e-01  -1.154172e-01  -1.172695e-01  -2.831129e-01  1.064636e+00  -5.124713e-01  4.229341e-01  7.418849e-02  1.244434e-01  2.152567e-01  2.944455e-01  -8.389470e-02  -8.506870e-01  -3.981560e-01  5.485688e-02  -2.522765e-01  -1.252829e-01  2.148596e-01  -8.547701e-02  -2.591202e-01  4.290463e-01  1.045662e-01  5.867100e-02  9.567194e-02  -6.035779e-02  1.297955e-01  -1.841005e-01  -6.980538e-01  -5.505058e-01  -1.533968e-01  -4.062509e-01  8.287542e-02  -2.323471e-01  2.501836e-02  2.686053e-02  1.892387e-01  -1.203088e-01  -8.063880e-02  5.104135e-02  -1.316591e-02  -1.409614e-01  2.312330e-01  -2.985836e-01  -4.966826e-01  1.509162e-01  2.288106e-02  1.812743e-01  1.279297e-01  1.514568e-01  
      </Weights>
      <Biases Rows="50" Columns="1">
        9.367933e-02  -1.997617e-02  1.240124e-01  -9.157501e-03  -3.854961e-02  4.779030e-02  1.524065e-01  -2.198025e-02  -2.265678e-01  -3.170875e-02  -4.251732e-02  5.995647e-02  3.185070e-02  -1.535080e-01  9.277240e-03  4.624116e-02  7.478537e-02  1.478640e-02  1.403656e-01  1.381130e-01  -3.640678e-02  -1.865315e-02  1.545763e-01  1.994216e-02  1.866193e-01  -3.545595e-02  4.547941e-02  9.899378e-02  -2.761637e-01  1.466094e-01  1.505358e-01  -1.957472e-02  1.143328e-01  1.048596e-02  8.036268e-02  -1.460738e-01  -7.095097e-02  1.214221e-01  -2.317287e-01  8.454250e-02  -5.331739e-02  4.101615e-02  1.247470e-01  7.896364e-03  -1.809076e-01  7.959895e-02  5.469320e-03  2.654085e-02  -9.286796e-02  -5.108671e-02  
      </Biases>
    </DenseLayer>
    <DenseLayer Width="3" ActivationFunction="0">
      <Weights Rows="3" Columns="50">
        1.152077e-01  7.403966e-02  -2.768443e-01  -2.929272e-01  -6.113972e-02  -1.622446e-01  -2.346915e-01  -1.252897e-01  2.130704e-01  -1.792479e-03  5.649794e-01  -1.078330e-01  -1.119490e-01  -1.821290e-01  3.372025e-01  1.914424e-01  9.282523e-02  1.060510e-01  -1.357531e-01  -1.928377e-01  1.079030e-01  5.201970e-02  -1.391804e-02  3.024801e-01  -2.356629e-01  2.862157e-01  8.109351e-02  -1.048579e-01  2.404994e-01  -1.641085e-01  -3.111078e-01  2.002651e-01  2.185303e-01  3.409985e-02  7.408083e-03  8.196895e-02  -5.131224e-03  -2.855490e-01  6.373347e-01  -7.259411e-03  1.594128e-01  2.072204e-01  -1.319791e-01  1.873856e-01  -1.416652e-01  -2.202203e-01  -9.786078e-02  1.144753e-01  -1.446574e-01  3.226779e-02  6.039363e-01  7.127548e-02  5.746788e-02  4.797665e-02  -2.350870e-01  4.158276e-02  -1.237914e-01  1.133665e-01  7.275223e-01  2.400451e-01  -2.098558e-01  -1.967843e-01  -7.427568e-03  6.490452e-01  -3.357089e-01  -4.678616e-01  3.626961e-01  3.773291e-01  -1.980053e-01  -2.797360e-02  5.799897e-01  6.079394e-04  -3.422909e-01  4.240731e-02  -2.329985e-01  1.407621e-01  3.440260e-01  -1.130551e-01  7.898161e-01  5.189649e-01  3.235645e-01  -2.043823e-01  -1.879536e-01  2.432328e-01  5.969301e-01  4.230260e-01  2.509206e-01  1.518457e-01  -1.941364e-01  -2.642118e-01  -5.897250e-02  -4.534038e-01  -1.140474e-01  -2.643119e-01  4.952857e-01  7.928975e-02  1.460400e-01  3.899814e-01  3.609554e-01  -9.582649e-01  9.874531e-03  2.404174e-01  -4.068451e-01  2.110101e-01  2.281078e-01  -2.086716e-01  1.810029e-01  -2.012985e-02  3.237170e-01  9.786570e-02  9.802338e-02  -3.238281e-01  2.640866e-01  1.307008e-02  2.084103e-01  1.683837e-01  1.678724e-01  7.656547e-01  1.966423e-01  -2.566786e-01  2.664032e-01  -4.655066e-01  -4.010572e-01  -3.945111e-02  -3.285438e-01  1.817506e-01  1.433817e-01  4.693343e-02  6.684987e-01  1.050112e-01  -3.487596e-01  3.123288e-01  -4.733884e-01  -1.757929e-01  4.433135e-01  9.475690e-02  -1.349734e-01  4.536044e-01  -1.977768e-01  2.718129e-01  7.538225e-02  -3.663438e-01  1.802085e-02  -2.915668e-01  -9.999070e-01  9.347845e-02  -1.840387e-01  2.051998e-01  2.242748e-01  -4.942571e-02  
      </Weights>
      <Biases Rows="3" Columns="1">
        -1.339829e-01  -7.589931e-02  -2.184476e-02  
      </Biases>
    </DenseLayer>
  </Weights>
</MethodSetup>
