<?xml version="1.0"?>
<MethodSetup Method="DL::DNN_CPU">
  <GeneralInfo>
    <Info name="TMVA Release" value="4.2.1 [262657]"/>
    <Info name="ROOT Release" value="6.24/06 [399366]"/>
    <Info name="Creator" value="rshara01-local"/>
    <Info name="Date" value="Thu Sep 23 14:07:33 2021"/>
    <Info name="Host" value="Darwin christophers-mac-mini.home 20.6.0 Darwin Kernel Version 20.6.0: Wed Jun 23 00:26:27 PDT 2021; root:xnu-7195.141.2~5/RELEASE_ARM64_T8101 arm64"/>
    <Info name="Dir" value="/Users/rshara01-local/WORK/linacTune/tmva"/>
    <Info name="Training events" value="5000"/>
    <Info name="TrainingTime" value="6.61094904e-01"/>
    <Info name="AnalysisType" value="Regression"/>
  </GeneralInfo>
  <Options>
    <Option name="V" modified="Yes">True</Option>
    <Option name="VerbosityLevel" modified="No">Verbose</Option>
    <Option name="VarTransform" modified="Yes">N</Option>
    <Option name="H" modified="Yes">False</Option>
    <Option name="CreateMVAPdfs" modified="No">False</Option>
    <Option name="IgnoreNegWeightsInTraining" modified="No">False</Option>
    <Option name="InputLayout" modified="No">0|0|0</Option>
    <Option name="BatchLayout" modified="No">0|0|0</Option>
    <Option name="Layout" modified="Yes">RELU|50,RELU|50,RELU|50,LINEAR</Option>
    <Option name="ErrorStrategy" modified="Yes">SUMOFSQUARES</Option>
    <Option name="WeightInitialization" modified="Yes">XAVIERUNIFORM</Option>
    <Option name="RandomSeed" modified="No">0</Option>
    <Option name="ValidationSize" modified="No">20%</Option>
    <Option name="Architecture" modified="Yes">CPU</Option>
    <Option name="TrainingStrategy" modified="Yes">LearningRate=1e-3,Momentum=0.3,ConvergenceSteps=20,BatchSize=30,TestRepetitions=1,WeightDecay=0.0,Regularization=None,Optimizer=Adam</Option>
  </Options>
  <Variables NVar="3">
    <Variable VarIndex="0" Expression="RFQPAH_R" Label="RFQPAH_R" Title="RFQ phase" Unit="units" Internal="RFQPAH_R" Type="D" Min="1.28002930e+02" Max="1.90002441e+02"/>
    <Variable VarIndex="1" Expression="RFBPAH_R" Label="RFBPAH_R" Title="buncher phase" Unit="units" Internal="RFBPAH_R" Type="D" Min="2.15795898e+02" Max="2.58337402e+02"/>
    <Variable VarIndex="2" Expression="V5QSET_R" Label="V5QSET_R" Title="tank5 phase" Unit="units" Internal="V5QSET_R" Type="D" Min="-3.30000000e+01" Max="-2.85000000e+01"/>
  </Variables>
  <Spectators NSpec="6">
    <Spectator SpecIndex="0" Expression="RFQPAH_S" Label="RFQPAH_S" Title="RFQ phase Set" Unit="degrees" Internal="RFQPAH_S" Type="F" Min="1.28002930e+02" Max="1.90002441e+02"/>
    <Spectator SpecIndex="1" Expression="RFBPAH_S" Label="RFBPAH_S" Title="buncher phase Set" Unit="degrees" Internal="RFBPAH_S" Type="F" Min="2.14996277e+02" Max="2.56997131e+02"/>
    <Spectator SpecIndex="2" Expression="V5QSET_S" Label="V5QSET_S" Title="Tank 5 phase" Unit="degrees" Internal="V5QSET_S" Type="F" Min="-3.30000000e+01" Max="-2.85000000e+01"/>
    <Spectator SpecIndex="3" Expression="TO1IN_R" Label="TO1IN_R" Title="to1in" Unit="units" Internal="TO1IN_R" Type="F" Min="2.22277756e+01" Max="2.42592621e+01"/>
    <Spectator SpecIndex="4" Expression="TO5OUT_R" Label="TO5OUT_R" Title="to5out" Unit="units" Internal="TO5OUT_R" Type="F" Min="-4.08233719e+01" Max="3.42947617e+01"/>
    <Spectator SpecIndex="5" Expression="TO3IN_R" Label="TO3IN_R" Title="to3in" Unit="units" Internal="TO3IN_R" Type="F" Min="-1.02136169e+02" Max="1.00574913e+02"/>
  </Spectators>
  <Classes NClass="1">
    <Class Name="Regression" Index="0"/>
  </Classes>
  <Targets NTrgt="4">
    <Target TargetIndex="0" Expression="LMSM" Label="LMSM" Title="LMSM" Unit="" Internal="LMSM" Type="F" Min="1.34887695e+00" Max="3.99658203e+01"/>
    <Target TargetIndex="1" Expression="D7TOR_R" Label="D7TOR_R" Title="D7TOR_R" Unit="" Internal="D7TOR_R" Type="F" Min="2.41185451e+00" Max="2.93067665e+01"/>
    <Target TargetIndex="2" Expression="TO5OUT_R" Label="TO5OUT_R" Title="to5out" Unit="mA" Internal="TO5OUT_R" Type="F" Min="-4.08233719e+01" Max="3.42947617e+01"/>
    <Target TargetIndex="3" Expression="D00LM_R" Label="D00LM_R" Title="d00lm" Unit="" Internal="D00LM_R" Type="F" Min="3.05175781e-03" Max="8.72802734e-01"/>
  </Targets>
  <Transformations NTransformations="1">
    <Transform Name="Normalize">
      <Selection>
        <Input NInputs="7">
          <Input Type="Variable" Label="RFQPAH_R" Expression="RFQPAH_R"/>
          <Input Type="Variable" Label="RFBPAH_R" Expression="RFBPAH_R"/>
          <Input Type="Variable" Label="V5QSET_R" Expression="V5QSET_R"/>
          <Input Type="Target" Label="LMSM" Expression="LMSM"/>
          <Input Type="Target" Label="D7TOR_R" Expression="D7TOR_R"/>
          <Input Type="Target" Label="TO5OUT_R" Expression="TO5OUT_R"/>
          <Input Type="Target" Label="D00LM_R" Expression="D00LM_R"/>
        </Input>
        <Output NOutputs="7">
          <Output Type="Variable" Label="RFQPAH_R" Expression="RFQPAH_R"/>
          <Output Type="Variable" Label="RFBPAH_R" Expression="RFBPAH_R"/>
          <Output Type="Variable" Label="V5QSET_R" Expression="V5QSET_R"/>
          <Output Type="Target" Label="LMSM" Expression="LMSM"/>
          <Output Type="Target" Label="D7TOR_R" Expression="D7TOR_R"/>
          <Output Type="Target" Label="TO5OUT_R" Expression="TO5OUT_R"/>
          <Output Type="Target" Label="D00LM_R" Expression="D00LM_R"/>
        </Output>
      </Selection>
      <Class ClassIndex="0">
        <Ranges>
          <Range Index="0" Min="1.2800292968750000e+02" Max="1.9000244140625000e+02"/>
          <Range Index="1" Min="2.1579589843750000e+02" Max="2.5833740234375000e+02"/>
          <Range Index="2" Min="-3.3000000000000000e+01" Max="-2.8500000000000000e+01"/>
          <Range Index="3" Min="1.3488769531250000e+00" Max="3.9965820312500000e+01"/>
          <Range Index="4" Min="2.4118545055389404e+00" Max="2.9306766510009766e+01"/>
          <Range Index="5" Min="-4.0823371887207031e+01" Max="3.4294761657714844e+01"/>
          <Range Index="6" Min="3.0517578125000000e-03" Max="8.7280273437500000e-01"/>
        </Ranges>
      </Class>
    </Transform>
  </Transformations>
  <MVAPdfs/>
  <Weights NetDepth="4" InputDepth="1" InputHeight="1" InputWidth="3" BatchSize="1" BatchDepth="1" BatchHeight="30" BatchWidth="3" LossFunction="R" Initialization="F" Regularization="0" OutputFunction="I" WeightDecay="0.0000000000000000e+00">
    <DenseLayer Width="50" ActivationFunction="1">
      <Weights Rows="50" Columns="3">
        -1.424351e-03  1.851127e-01  3.707329e-01  1.919438e-01  2.513170e-01  2.377632e-01  7.663397e-02  -3.991696e-01  2.576516e-01  2.882428e-01  4.269193e-02  5.841221e-03  -1.971917e-01  1.921885e-01  2.820060e-02  3.152294e-01  -1.397026e-01  -1.177044e-01  2.201081e-01  -1.946843e-01  1.119096e-01  2.634115e-01  -3.169727e-02  3.785112e-01  -1.277280e-02  -1.026240e-02  -4.547773e-01  -8.038303e-02  4.752770e-02  -4.666766e-01  -1.773544e-01  9.504276e-02  3.275716e-01  -2.849410e-01  -5.311744e-02  1.029767e-01  -2.544189e-01  6.231747e-03  -4.006782e-01  1.416712e-01  -8.698987e-02  1.438397e-01  -2.762254e-01  4.755737e-01  2.729586e-01  -2.502961e-01  3.149663e-01  -3.194140e-01  5.530406e-02  1.991497e-01  -2.905530e-01  4.094760e-02  -9.428833e-02  4.120581e-01  2.220809e-01  -3.300031e-02  -6.180127e-02  1.139476e-01  5.209147e-01  3.865441e-02  3.376329e-01  1.063531e-01  -2.963524e-02  4.391784e-02  8.648326e-02  1.276446e-01  -1.557672e-01  3.299925e-01  -3.848711e-01  1.425208e-01  1.614557e-01  6.983131e-02  2.699353e-01  2.521953e-01  2.582239e-01  -1.611918e-02  -2.458155e-01  -2.675447e-01  -1.949143e-01  -4.091116e-02  3.318488e-01  1.872930e-01  -2.957177e-01  -3.362035e-01  7.672238e-02  -9.146269e-02  -1.660467e-02  3.573269e-01  -4.454657e-01  -6.119794e-03  7.849129e-02  -1.846710e-01  -3.247928e-01  2.187369e-01  -3.526721e-01  7.323156e-02  2.415903e-01  2.846695e-01  -3.026819e-01  -4.225806e-01  4.056582e-01  -1.467473e-01  1.485833e-03  1.593818e-01  3.638755e-01  7.920066e-02  8.954736e-02  9.414413e-02  -3.282172e-01  -1.815710e-01  -1.061752e-01  -1.560219e-02  9.055662e-02  3.571971e-01  -2.179027e-01  -2.652020e-01  -3.470322e-01  -3.845318e-01  3.747346e-01  1.102503e-01  2.728536e-01  3.181479e-02  -1.337628e-01  -1.965596e-01  -4.162391e-01  9.468956e-02  1.936740e-02  -7.116827e-02  -4.127793e-01  2.512452e-01  -1.594961e-01  1.178596e-01  2.702141e-01  -3.116946e-02  -1.980376e-02  1.209050e-01  -2.986150e-01  -4.061344e-01  -2.376617e-01  9.459715e-02  3.725605e-01  3.534563e-01  -3.141750e-01  -1.142035e-01  3.511688e-01  2.193002e-01  -1.060217e-01  -3.275210e-02  -1.840690e-01  -1.161500e-02  
      </Weights>
      <Biases Rows="50" Columns="1">
        3.309812e-02  -1.306295e-01  4.700568e-02  -1.723973e-01  1.687220e-01  -1.031453e-01  3.539257e-02  -7.923572e-02  1.816135e-04  -8.760434e-02  5.309020e-03  1.120218e-01  -7.361382e-02  5.367973e-02  1.311554e-01  -1.482963e-01  8.588339e-02  3.060414e-02  7.193188e-02  -2.709024e-01  -1.135978e-01  6.515072e-02  -5.023007e-02  1.190040e-01  2.033509e-02  9.509499e-02  1.462031e-01  1.901933e-02  2.428306e-01  -4.210573e-01  5.448751e-02  -1.692979e-01  -1.058818e-01  -1.128444e-01  1.218764e-01  1.900096e-01  1.770088e-02  6.789611e-02  -3.424307e-02  1.115585e-01  5.594210e-02  -9.499688e-02  -6.937781e-02  -1.238550e-01  -2.140061e-01  -8.617976e-02  9.080539e-02  -4.608019e-01  -2.363770e-02  1.493039e-01  
      </Biases>
    </DenseLayer>
    <DenseLayer Width="50" ActivationFunction="1">
      <Weights Rows="50" Columns="50">
        1.239924e-01  2.447808e-01  9.990906e-02  1.106169e-01  9.100182e-02  5.745888e-02  1.282692e-01  5.359865e-02  2.425192e-01  7.233559e-02  5.204709e-02  -2.158188e-02  -2.820147e-02  -6.883891e-03  2.452295e-02  -2.988261e-01  1.967059e-01  -1.349523e-01  -2.616102e-01  1.319610e-01  1.012263e-01  -1.744874e-01  -1.735948e-01  -8.067834e-02  1.902180e-01  -9.838256e-02  -2.797438e-02  4.368408e-02  -7.482109e-03  6.114445e-02  1.074955e-01  -2.141342e-01  8.411438e-02  -2.352283e-01  -1.324528e-01  8.969610e-02  1.002532e-01  7.324529e-02  -2.605907e-01  -1.722337e-02  9.916259e-03  1.451499e-01  -7.143418e-02  -7.822289e-02  3.207773e-01  4.346653e-03  -2.214981e-01  2.862751e-01  2.607957e-02  -1.050767e-01  -5.184478e-01  8.690634e-02  1.576086e-01  1.908545e-01  1.865011e-01  -1.685984e-02  3.882661e-01  -4.062390e-01  -9.405228e-02  1.898885e-01  -1.790116e-01  -1.008125e-01  2.844682e-01  1.736264e-01  -2.373405e-01  -5.787284e-02  1.973426e-01  -1.155146e-01  -5.126501e-02  2.049291e-01  -2.649157e-01  1.457340e-01  -1.172803e-01  -1.325271e-01  -1.922610e-01  5.921420e-02  -3.400283e-01  -5.165412e-02  2.642777e-01  -1.873992e-01  1.726039e-01  -7.467055e-02  1.280956e-02  3.467069e-01  -1.914137e-01  -1.595009e-01  4.912032e-02  -7.316101e-01  2.385338e-01  -8.642358e-02  1.756476e-01  -2.204745e-01  -8.665744e-02  1.227871e-01  -7.446413e-02  2.074725e-01  -5.119144e-02  -7.919744e-02  3.286000e-01  -1.593199e-02  -5.826091e-02  5.231927e-02  -7.061534e-02  1.988675e-02  -8.719890e-01  2.460890e-01  2.982298e-01  1.805020e-01  -1.175428e-01  -9.940857e-02  2.555356e-01  3.141071e-01  -1.557418e-01  8.567429e-02  -9.803119e-01  2.304189e-02  -1.232759e-01  2.275899e-01  1.674316e-01  -1.531204e-01  -1.616438e-01  -1.380627e-01  -9.914063e-01  -3.444343e-02  1.908702e-01  -8.432496e-02  1.244350e-01  2.326921e-01  3.839633e-02  2.478837e-01  -2.186537e-01  2.995526e-01  -6.772131e-02  -1.234098e-01  -6.474657e-02  -2.459895e-01  -3.805925e-02  -2.160414e-01  4.396367e-02  -1.443490e-01  4.043091e-02  -3.587408e-01  -7.102432e-02  5.380368e-02  -1.466355e-01  -5.142995e-02  -1.561609e-01  -2.096798e-02  2.682852e-01  1.926648e-01  -4.766085e-01  -5.413100e-01  1.617571e-01  -1.765384e-01  4.215763e-01  3.554650e-02  -1.652661e-02  -1.233927e-01  1.800203e-01  1.339287e-01  -7.448937e-01  2.840136e-02  -1.256046e-01  -1.129279e-01  -5.050806e-01  -1.359424e-01  2.563880e-01  -2.090682e-01  4.562762e-02  -1.271035e-01  4.812395e-02  -1.904444e-01  -1.578967e-01  -1.354598e-01  -4.824751e-02  9.986275e-02  -1.564855e-02  1.401128e-01  3.395216e-02  9.819677e-02  1.504155e-01  -1.065087e-02  3.000506e-02  -4.522827e-02  -3.128269e-01  1.575176e-01  2.227179e-01  1.684466e-01  2.517746e-01  -3.555186e-01  -4.388648e-02  2.097999e-01  2.251212e-02  1.678665e-01  -1.566565e-01  -1.628185e-01  -2.420794e-01  4.428554e-02  1.913288e-01  1.060347e-01  1.784283e-01  2.629166e-01  -1.399137e-01  1.808503e-01  2.673266e-01  -1.732475e-02  3.404265e-02  2.914644e-01  -1.392274e-01  -3.031568e-01  2.164679e-02  -3.290285e-01  -1.262100e-01  9.812569e-02  1.816271e-01  5.900102e-02  5.481321e-02  7.412712e-02  -2.044889e-01  4.759442e-01  -2.982976e-02  7.093740e-02  1.508731e-01  -1.295296e-01  1.753641e-01  1.140508e-01  1.044584e-01  3.462590e-02  1.664922e-01  3.431300e-01  -2.314620e-01  -2.273334e-02  -4.976250e-02  1.604490e-02  4.249163e-02  -1.949314e-01  2.251696e-01  2.451545e-01  4.693853e-02  2.237545e-01  -1.322611e-01  1.769578e-02  -6.501912e-02  -1.688998e-01  3.807628e-01  8.698192e-02  -4.254912e-02  4.001966e-01  -2.628716e-01  1.879689e-01  -5.406216e-02  2.605422e-01  2.835248e-01  1.506794e-01  -4.823026e-01  2.780600e-01  1.874321e-01  1.548760e-01  1.746934e-01  -6.267396e-02  4.024861e-01  -1.065563e-01  -2.760789e-01  -1.014219e-01  1.955687e-02  -5.528352e-01  -1.043924e-01  -1.195475e-01  -9.398323e-02  2.591667e-01  -4.924690e-02  2.079806e-01  1.095904e-01  -1.719191e-01  -1.833543e-01  2.815604e-01  -2.259563e-01  7.814830e-03  1.719341e-01  3.783317e-01  -4.788897e-03  1.210320e-01  -8.009773e-02  1.735831e-01  1.396019e-02  -3.882411e-02  -2.297946e-01  -3.827774e-03  8.245443e-03  3.435989e-01  -4.858169e-02  1.418429e-01  1.009943e-01  1.840305e-01  9.941040e-02  3.223706e-01  2.562114e-01  4.489529e-01  -2.112175e-01  -1.494722e-01  2.579370e-02  1.758002e-01  -1.926479e-01  -1.004678e-01  -2.170648e-02  7.566191e-02  1.232594e-01  -4.828097e-01  -5.841813e-02  -2.633800e-01  -1.089754e-01  7.610273e-02  -9.269756e-03  -2.510726e-01  -4.424150e-02  -2.283882e-01  5.193168e-02  -2.034091e-01  2.127764e-01  2.344798e-01  7.903930e-02  -6.669604e-03  7.653120e-02  2.209891e-01  -1.038642e-01  1.260723e-01  8.032339e-02  -6.933761e-02  1.079026e-01  1.245125e-01  -2.130356e-01  1.184794e-01  -2.502913e-01  -7.961889e-03  -1.511637e-01  3.883590e-02  2.497604e-01  -1.885730e-01  -1.270087e-01  2.540802e-02  2.991770e-01  2.169474e-01  -2.870698e-01  1.818480e-01  1.953130e-01  -2.935398e-02  -1.792786e-02  -3.173507e-01  -1.560393e-01  2.716256e-01  -5.338192e-01  4.390946e-02  2.020855e-01  -7.298680e-02  3.483829e-01  -4.893116e-02  -9.823768e-02  -3.035068e-02  -3.047200e-01  -2.922664e-01  -1.950376e-01  -3.672026e-01  -1.562299e-01  -1.551736e-01  7.228541e-02  -1.597437e-01  -7.681378e-02  -9.320196e-02  -7.729526e-02  -2.896428e-01  -1.963275e-01  1.941064e-01  1.841756e-01  2.569868e-01  1.605618e-02  -3.003969e-01  -2.642823e-01  -1.317609e-01  8.547906e-02  1.003997e-01  4.878389e-02  2.029886e-01  6.168178e-02  -2.095985e-01  -4.247233e-02  1.805672e-01  6.952821e-02  -2.462840e-01  -7.880685e-02  4.737968e-02  1.444599e-01  2.741543e-01  -3.461309e-01  2.514295e-01  3.630903e-02  1.312263e-02  -1.316807e-02  3.052880e-01  2.129130e-02  1.778709e-01  5.807598e-02  5.325699e-02  1.610640e-01  3.139317e-01  -4.011023e-01  5.744486e-02  -1.288121e-01  2.873245e-01  -5.133694e-01  -2.517031e-01  -2.760108e-01  -2.872364e-01  3.859259e-02  2.215783e-01  -8.455400e-01  -1.345039e-02  -2.611421e-01  3.467673e-02  -9.864268e-02  -2.191018e-01  5.281565e-02  3.358453e-01  -3.256186e-01  -5.326060e-02  1.089045e-01  1.159327e-02  -1.780046e-01  -3.076473e-01  1.982660e-01  3.004077e-01  -4.173896e-02  2.197328e-01  1.180347e-01  -1.688197e-01  -8.304133e-02  7.991606e-02  -3.458194e-02  -1.244077e-01  -1.410567e-02  -5.648430e-01  1.029025e-01  3.195931e-01  -6.320913e-01  2.637456e-01  1.237772e-01  4.713963e-02  -4.228007e-02  4.750261e-02  -9.058525e-02  8.548410e-02  3.847972e-02  1.275490e-01  -2.110435e-01  -2.031209e-01  3.522716e-02  -1.220735e-01  9.183068e-02  -1.226908e-01  -1.204260e-01  -1.827933e-01  -1.783343e-01  2.621462e-02  -1.629639e-01  -3.505652e-02  -1.112376e-01  1.507794e-01  1.331999e-02  -2.191631e-03  2.462964e-01  2.985550e-01  -2.922517e-01  -2.251577e-01  -5.593830e-02  3.869718e-02  1.333067e-01  2.454822e-01  -1.193313e-01  3.873219e-02  2.399429e-02  -9.912252e-02  -1.565239e-01  -8.799301e-02  -1.486129e-01  -2.175971e-02  -2.315677e-01  2.653022e-01  1.017302e-01  2.535126e-01  -6.565533e-02  -1.077271e-01  1.789631e-01  -1.214483e-02  -2.470296e-01  5.727786e-02  -3.962467e-01  -1.488778e-01  -2.394812e-02  -3.987067e-01  2.372577e-01  3.324043e-01  4.581599e-02  -1.295716e-01  1.339751e-01  -1.020066e-01  -1.724319e-01  -2.343598e-01  -1.820405e-01  -1.923404e-01  -2.163689e-01  8.691071e-02  1.259318e-01  1.254491e-01  1.715578e-04  1.308583e-01  -1.372322e-02  -1.264111e-01  -1.204886e-01  -3.013042e-02  6.845269e-02  -3.088800e-01  1.011253e-01  -1.170274e-01  3.467239e-02  2.084688e-01  7.348078e-02  1.295312e-01  4.029584e-02  -1.158978e-01  2.407126e-01  -4.730197e-01  1.865951e-01  1.173718e-01  8.699217e-02  -3.629754e-02  -5.446472e-02  1.423999e-01  -1.003113e-01  1.253622e-01  2.669764e-02  -1.346466e-02  1.424640e-01  -7.563363e-02  1.355088e-01  -2.522523e-01  -3.199548e-01  -2.118975e-01  -2.118732e-01  -1.065294e-01  2.340939e-01  -2.705030e-02  -7.409268e-02  1.942576e-01  -1.336709e-01  9.941211e-02  -2.312379e-01  -5.750187e-02  -4.281644e-03  2.007132e-01  -2.169299e-01  2.659266e-02  -2.861940e-02  9.158003e-02  1.511611e-01  -1.907457e-01  -2.131514e-01  -1.472674e-01  1.586161e-01  -1.071147e-02  -1.727543e-01  1.434426e-01  5.759438e-02  9.274318e-02  7.327002e-02  1.150300e-01  -2.064296e-01  -1.802825e-01  4.702082e-02  1.363452e-01  -1.573330e-01  -2.552448e-01  1.579066e-01  1.958146e-01  -2.572861e-01  -2.960213e-02  1.389160e-02  1.882264e-01  5.489736e-03  1.169538e-01  -8.119216e-02  1.188719e-01  -8.042668e-02  1.865934e-01  -1.673800e-01  -1.222696e-01  -5.953301e-02  -8.393202e-02  -2.275648e-01  -1.660959e-01  5.524038e-02  -1.791879e-01  -1.833646e-01  -2.394821e-01  -6.776735e-02  -1.731950e-01  -9.943856e-02  -6.978628e-02  -3.404581e-02  -5.398006e-02  -2.265179e-01  7.419409e-02  9.356411e-03  -2.580096e-03  -1.082861e-01  -1.894721e-01  -5.090902e-02  -1.773480e-01  8.378251e-03  -1.057300e-01  -1.093462e-01  2.312858e-01  1.544597e-01  4.735108e-02  -5.724711e-02  -1.396795e-01  -6.743006e-02  -1.597667e-01  -1.484130e-01  -8.863775e-02  -1.304089e-01  1.744336e-01  2.313271e-01  -1.081808e-01  -1.059318e-01  -1.178995e-01  2.889260e-02  -2.149305e-01  -1.511811e-01  -2.108849e-02  -2.325835e-01  -1.069590e-01  1.161862e-01  -1.912205e-01  -8.373779e-02  7.645736e-03  -6.282966e-02  -3.077999e-02  -1.254226e-01  -8.119512e-04  2.124667e-01  -8.971833e-03  -7.594492e-01  -4.641359e-01  1.201549e-01  1.698557e-01  1.493136e-02  -8.959911e-02  1.978272e-01  -4.835953e-01  9.217122e-02  3.307603e-01  -1.133505e-01  4.786045e-02  2.162296e-01  -3.436244e-03  -1.934789e-01  -8.461528e-02  -9.716830e-02  -5.614619e-01  7.084698e-02  3.945364e-01  1.591841e-01  2.446347e-01  1.127255e-01  2.795599e-01  -5.606622e-02  -2.309734e-02  -4.033825e-01  9.288052e-02  -2.562143e-01  -2.204111e-01  -2.356997e-02  -1.933302e-01  1.359686e-01  3.749329e-01  -7.515640e-02  -2.135834e-01  2.769984e-01  -8.605140e-01  3.640364e-01  9.589224e-02  3.015427e-01  -4.672159e-01  -6.213280e-02  -8.640453e-02  4.489200e-03  1.644450e-01  -6.859822e-02  2.508950e-01  1.278131e-01  -3.322549e-01  -2.918642e-01  2.583537e-01  7.040257e-02  1.454938e-02  -1.330720e-01  2.490664e-02  2.472472e-01  -1.783226e-01  -4.800203e-01  -5.550376e-01  -1.562441e-01  -1.852894e-01  -2.912869e-01  2.049663e-01  4.439282e-02  3.413731e-01  -1.913402e-01  -9.570589e-02  1.870160e-02  5.432603e-01  -1.846576e-02  1.776972e-01  4.314790e-02  2.838753e-01  3.741103e-01  -3.237517e-01  1.979443e-01  -7.659162e-02  -4.236302e-03  1.161830e-01  3.272616e-02  7.920673e-02  -1.221983e-01  3.891374e-02  1.147649e-01  -3.350340e-02  -2.359702e-01  -6.285140e-02  -2.853602e-01  1.988020e-01  -2.395809e-01  3.201183e-01  -1.868224e-01  4.720294e-02  -1.046613e-01  4.390107e-02  -2.559781e-01  7.989427e-02  1.036187e-01  -1.401939e-01  -1.418187e-01  -9.466307e-02  2.645251e-01  -3.245120e-01  1.004758e-01  -1.755545e-03  7.706190e-02  -9.040493e-02  -1.662277e-01  -2.882714e-01  -1.193916e-01  2.126182e-01  -1.051237e-01  -1.040011e-01  -3.456671e-02  7.817318e-02  2.657105e-01  1.010657e-01  3.504075e-02  1.707097e-02  -6.635353e-03  -3.073047e-02  -2.494703e-02  3.305842e-02  1.645469e-01  2.389677e-01  5.329573e-02  -1.797384e-01  3.324837e-01  -8.829070e-01  3.668785e-02  -2.137460e-01  -3.730757e-02  -2.104658e-01  -7.490180e-02  4.815257e-04  2.609700e-01  -1.178831e-01  -7.711586e-02  -8.061110e-02  1.183352e-01  -1.467476e-01  1.446881e-01  -4.552221e-01  -3.330317e-01  -1.414261e-01  -7.810365e-02  -6.830484e-01  1.478395e-01  1.399038e-01  3.800324e-01  3.799437e-01  3.482290e-01  -1.807547e-02  -1.842580e-01  -3.200454e-01  -1.998747e-01  3.720343e-01  -4.512093e-01  -1.192918e-01  8.818610e-02  -9.523580e-02  -5.305306e-01  7.077646e-02  1.575300e-01  2.473104e-01  1.449057e-01  -2.002602e-02  -2.256545e-02  2.138618e-01  1.967769e-01  -2.029778e-02  -6.032681e-02  7.768892e-02  2.586755e-01  7.661750e-01  3.637487e-01  -3.156032e-01  -2.375025e-01  9.201030e-02  -7.866611e-01  9.120153e-02  -1.843715e-01  -3.459754e-01  1.771221e-01  1.877505e-01  1.649661e-01  4.551696e-01  3.097441e-02  1.353314e-01  -2.439004e-01  -3.478310e-02  -4.613684e-01  1.050340e-01  1.374817e-01  1.060764e-01  -3.040871e-01  1.486879e-01  1.764565e-01  3.349908e-01  -5.331217e-02  -3.616875e-01  1.501700e-01  1.911464e-01  1.442347e-01  -8.969505e-02  1.338968e-01  -5.514919e-04  3.993131e-02  1.343926e-01  -6.617563e-02  2.056665e-02  -4.163114e-02  8.027343e-02  -8.664778e-02  -4.382861e-01  -1.848855e-01  -7.108708e-02  1.231297e-02  -1.824014e-01  -1.031812e-01  1.164932e-01  -3.676365e-01  -1.371610e-01  1.141435e-01  -1.642976e-01  6.415145e-02  -2.993234e-02  1.637601e-01  -5.318630e-01  -1.246400e-01  -2.784715e-01  -8.824043e-02  -2.760642e-01  8.729136e-02  2.458542e-01  7.817445e-02  -7.711751e-02  3.769233e-01  2.439749e-01  5.518651e-02  -2.541227e-01  -2.472662e-01  6.899457e-02  -3.887393e-01  -1.168712e-01  2.607685e-01  -4.294759e-01  1.237582e-01  1.302979e-02  1.228457e-01  3.780278e-02  2.586842e-01  -2.095917e-01  8.841448e-02  -1.285791e-01  -2.134462e-01  2.886567e-01  -5.620096e-01  -3.869817e-01  1.691621e-01  -1.447710e-01  -5.220562e-02  2.688239e-01  -1.393746e-01  -7.447837e-02  -1.062755e-01  3.150195e-01  4.635212e-03  1.914350e-01  4.312283e-02  3.659448e-02  7.032246e-02  -1.288530e-01  1.151877e-03  2.114271e-01  2.429878e-01  1.409190e-01  -6.487071e-04  5.053174e-02  1.764398e-01  1.232712e-01  -2.487466e-01  -4.787770e-01  -1.174769e-03  -7.238544e-02  -4.704753e-02  5.354898e-02  -2.746176e-01  1.756690e-01  8.024687e-02  4.885521e-02  -6.628010e-01  1.451572e-01  -2.993855e-01  -3.814206e-01  1.158642e-01  -1.869857e-01  2.611120e-01  -1.474572e-01  -1.958953e-01  5.261988e-02  -1.083511e-01  1.855373e-01  -9.696361e-02  2.170769e-01  1.196912e-01  1.312425e-01  1.972863e-01  -1.732333e-01  1.887077e-01  1.970014e-01  1.642749e-01  3.773152e-02  1.060588e-01  -8.087694e-02  3.911797e-02  2.563634e-01  7.902085e-02  -2.050487e-01  1.873713e-01  -1.322129e-01  9.432612e-02  1.106782e-01  -9.365543e-02  1.273101e-01  -5.411691e-02  -8.116695e-02  5.297722e-02  -6.461083e-01  -5.203407e-02  -4.711964e-01  -2.211726e-02  4.920439e-02  -1.086837e-01  -1.744559e-01  6.565291e-02  1.233897e-01  1.334105e-01  -6.619322e-02  -6.896395e-02  1.964691e-01  2.506731e-01  1.210466e-01  -1.514422e-01  -7.439127e-02  5.539969e-02  -3.232029e-01  9.646639e-02  7.214171e-02  -1.430534e+00  -5.123899e-01  -3.180374e-01  -8.288374e-02  1.606486e-01  1.535237e-01  1.499173e-01  4.470443e-02  2.579609e-01  -5.321467e-02  8.603647e-02  -1.635976e-01  -1.293969e-01  -1.040534e-01  -1.150081e-01  -4.481071e-02  2.624334e-01  -1.584550e+00  2.423497e-01  -3.895395e-01  -2.772787e-01  8.680055e-02  -2.622967e-01  -1.396255e-01  5.364798e-02  1.373623e-01  -3.441240e-01  1.650419e-02  3.580626e-02  -1.876030e-01  3.292683e-01  -8.728418e-02  1.590976e-01  8.192024e-02  -6.537521e-01  1.031371e-01  1.818080e-01  -1.133701e+00  2.150528e-01  -9.926913e-02  2.293168e-02  -3.064356e-02  -1.766754e-02  -1.154297e-01  -3.214061e-03  -1.043012e-01  -1.788251e-01  2.961961e-02  3.099717e-02  2.708445e-01  -5.646308e-02  -7.860946e-01  4.178705e-02  3.187405e-01  2.810231e-01  -5.523868e-01  -6.278070e-01  1.153325e-01  3.108672e-01  3.110123e-01  -1.589299e-01  2.577091e-01  8.895272e-02  -2.055574e-01  -3.062721e-01  3.011034e-01  -9.395868e-02  2.737835e-01  1.315070e-02  3.168274e-01  -1.363689e-01  -3.700535e-01  9.939770e-02  2.132472e-01  -6.418792e-02  -5.109119e-03  2.293150e-01  -3.418571e-01  -2.461682e-01  -2.070194e-01  3.492359e-02  -7.186884e-01  2.184790e-03  3.605569e-01  -1.815485e-01  -7.390761e-02  -3.067894e-02  -3.236695e-01  -2.047903e-02  -2.611423e-02  9.350654e-02  9.059493e-02  1.720718e-01  1.627019e-01  1.345372e-01  -2.650563e-01  8.305551e-03  -4.853236e-02  -6.733838e-02  -2.826741e-01  -7.667503e-01  -2.372699e-01  -9.968774e-02  2.816081e-01  1.016644e-01  -2.694438e-01  -1.774868e-01  -1.087335e-01  1.496743e-01  1.411409e-01  -3.520124e-02  5.006266e-02  1.521131e-01  -3.345357e-01  -1.582158e-01  -1.235871e-01  -1.023976e-01  -4.856130e-01  9.263293e-02  -4.541408e-02  4.187515e-02  9.290479e-02  4.844011e-02  2.171936e-01  1.730646e-02  1.673653e-01  -6.323128e-01  2.109575e-01  2.347363e-01  7.099140e-02  2.654539e-01  1.177487e-02  4.623222e-02  1.919408e-01  -5.046831e-01  -2.572625e-01  2.037082e-01  -5.450174e-01  6.700910e-02  4.470790e-02  -1.897395e-02  -1.556252e-02  -1.205397e-01  5.187804e-03  3.855794e-01  -2.532051e-01  -4.650238e-01  2.490812e-01  4.345552e-03  -6.140761e-02  -1.473407e-01  -2.109508e-01  -1.404473e-02  -3.008110e-01  9.270792e-02  3.291171e-02  -8.656493e-02  -2.850347e-01  1.760312e-01  -2.672814e-01  1.303561e-01  1.188206e-01  -3.125732e-01  -1.927827e-01  -1.585383e-01  1.126963e-01  -3.768652e-02  -1.007249e-01  2.334671e-01  -7.937776e-02  -1.865037e-02  -5.972527e-02  -8.152950e-02  1.926352e-01  1.563077e-01  2.353581e-01  6.354369e-03  -1.418381e-01  1.382839e-01  -3.378082e-01  1.467038e-03  1.776326e-01  -1.724889e-01  3.318709e-01  -6.184565e-02  7.870722e-02  -2.891251e-01  1.531478e-01  9.000803e-02  -2.241386e-01  1.236207e-01  -1.662694e-01  9.357249e-02  -4.934387e-02  -1.453142e-01  -3.255586e-01  -9.158135e-02  -2.307653e-01  2.845877e-01  2.088745e-01  1.608543e-01  3.870244e-02  -3.857762e-01  -8.209699e-02  -9.182113e-03  4.879894e-02  -1.552794e-01  1.540793e-01  9.752675e-02  -7.031143e-02  1.969740e-01  4.545925e-02  6.538048e-02  1.296851e-01  6.779264e-02  -3.690422e-01  -9.374341e-02  9.617504e-02  1.759282e-01  3.108504e-01  2.547659e-01  6.295129e-02  -2.823599e-01  -2.274728e-02  7.686765e-02  3.522347e-02  -4.610989e-02  -2.551323e-01  5.759989e-02  -2.052221e-02  2.799353e-02  -2.539597e-01  2.329165e-01  -2.168720e-01  -1.799050e-01  2.391687e-01  1.702056e-01  -1.753959e-01  1.490750e-02  -1.581013e-01  4.227169e-03  -3.501022e-01  -6.741215e-02  1.469502e-01  -4.325598e-02  -1.244672e-01  -1.091773e-01  -2.851316e-02  2.631444e-01  2.406885e-01  8.383812e-02  -8.022159e-02  7.076578e-02  -2.173797e-01  -1.641989e-01  1.111834e-01  -2.805346e-02  -2.937427e-01  1.636037e-01  4.168181e-02  -2.690991e-01  2.666706e-01  -5.592711e-03  1.906455e-01  -1.535337e-01  -6.527012e-02  1.247352e-01  -1.685786e-01  -1.369547e-02  -2.496831e-01  -2.277188e-01  2.769373e-01  -2.700135e-01  1.787720e-01  -1.799485e-01  7.271908e-02  1.187763e-01  -1.132464e-01  3.298835e-01  -3.619861e-01  2.142691e-01  -1.095585e-01  -1.424242e-01  1.165756e-01  1.571239e-01  1.735687e-01  -2.287935e-01  1.477701e-01  -1.690100e-01  -1.246591e-01  -9.661642e-02  -2.816680e-01  -1.286150e-01  -1.472277e-01  -1.461075e-01  -6.692374e-02  -7.665373e-02  -4.862637e-01  2.046535e-03  -7.375472e-02  -2.953779e-02  -5.574519e-02  -2.243867e-01  2.197617e-01  -1.917758e-01  7.416102e-02  8.031250e-02  2.492991e-01  -1.387942e-01  -9.306422e-02  -1.687332e-01  2.392427e-03  1.320454e-01  2.264713e-01  2.081284e-02  8.777293e-02  -6.998176e-02  5.286136e-02  -3.278188e-02  7.399784e-03  -8.598040e-03  -8.837557e-03  1.910023e-01  -1.397030e-01  -6.945320e-02  1.698591e-01  -1.261083e-01  -1.590387e-01  -2.147265e-01  -6.536739e-02  -1.968418e-01  2.768218e-02  -6.801402e-02  1.514745e-01  1.296374e-01  -3.361971e-02  -1.607250e-01  -7.951309e-02  3.378531e-02  -2.755702e-01  -4.838909e-02  1.101397e-01  6.728158e-02  5.096490e-02  1.144972e-01  5.892556e-02  -2.486395e-01  -2.062604e-01  -2.311540e-01  8.418937e-02  -9.885522e-02  1.544355e-01  2.652799e-01  2.390995e-01  -1.624183e-01  5.167890e-02  1.878589e-01  1.257594e-01  -3.636989e-01  1.563373e-01  -4.068418e-03  4.244858e-03  -6.755911e-01  2.083354e-01  -1.449321e-01  2.899137e-01  1.400087e-02  -1.312555e-02  -1.009913e-01  -3.564106e-02  -5.863612e-02  8.351914e-02  7.370429e-02  1.139134e-01  2.260969e-01  -1.324758e-01  5.328144e-02  -2.963249e-01  2.342897e-02  -2.881155e-01  -1.018142e-01  -2.620948e-01  -1.763225e-01  1.753501e-01  -3.137834e-01  -1.303394e-01  6.003844e-02  -4.523827e-02  6.593741e-02  -1.090189e+00  3.037000e-01  2.486105e-01  1.018031e-01  -2.505449e-01  2.128416e-01  -4.592166e-01  -1.036624e-01  -4.100490e-01  1.281063e-01  1.209127e-01  -1.540500e-01  -3.555266e-01  1.066154e-01  -2.462646e-01  2.287804e-01  1.955418e-01  1.002586e-01  5.117291e-02  -1.095053e-01  -2.021872e-01  -4.317845e-02  -5.387984e-02  -1.454888e-01  -1.521446e-01  8.190667e-02  -5.961631e-03  8.563913e-02  9.609856e-02  7.623437e-02  -2.380815e-01  -2.063128e-01  -4.852821e-02  -2.678349e-01  -8.677687e-02  -3.832993e-03  -1.557224e-02  1.180477e-01  -6.527308e-02  5.524043e-02  -3.336224e-01  1.164113e-01  -3.479423e-01  7.260420e-03  -3.786322e-01  2.391217e-01  2.798083e-01  -2.270359e-01  -7.525894e-02  8.348548e-02  1.342384e-01  2.635201e-02  -3.037966e-01  1.629887e-01  -2.934681e-01  -1.337213e-01  -1.399046e-02  -1.814529e-01  -3.061617e-01  -3.027190e-02  2.514096e-01  -1.910968e-01  2.863456e-02  1.613605e-01  -1.336739e-01  2.131843e-01  6.879498e-02  1.894325e-01  -1.641492e-01  -1.693646e-01  -8.774738e-03  -2.039518e-01  -8.339244e-03  1.001102e-01  -4.645481e-02  6.295408e-02  -1.374615e-01  -1.314599e-01  -1.367598e-02  1.673258e-01  2.788562e-02  1.903304e-01  -1.788339e-01  7.869071e-02  -2.274354e-01  1.160371e-01  -2.236680e-01  -1.051815e-01  -1.006956e-01  -9.598242e-02  6.148335e-02  -1.325673e-02  -2.017636e-01  2.122804e-01  -2.074353e-01  -8.435872e-02  -2.475118e-01  -1.629723e-01  -2.165422e-01  -1.851575e-01  -7.561870e-02  -1.661375e-02  -3.615043e-02  -4.333160e-02  -2.431596e-01  -9.284475e-02  8.758905e-02  4.405277e-02  8.476146e-02  -1.880936e-01  1.492175e-01  1.100544e-01  8.157350e-02  -5.572745e-01  -1.511772e-01  -2.234359e-01  2.623776e-02  -2.655199e-03  -3.103918e-02  -1.945965e-01  2.689642e-02  2.594576e-02  1.927758e-01  -2.365934e-01  -4.792910e-01  1.395171e-01  1.779365e-01  -1.572593e-01  -2.574760e-01  -5.829993e-01  3.451350e-01  -1.717065e-01  1.123016e-01  5.520872e-03  -3.675355e-01  -2.504956e-01  -8.155305e-02  7.900964e-02  1.334620e-01  -5.197695e-01  -1.505211e-01  -4.745400e-01  1.772034e-01  8.054825e-02  3.296634e-01  2.332664e-01  -2.932727e-01  -9.526648e-02  2.607132e-01  -1.894315e-01  2.681112e-01  -5.232099e-02  2.053316e-02  -4.204092e-01  1.275864e-01  1.402806e-01  1.165909e-01  1.659739e-01  2.039498e-02  2.474613e-01  -4.152340e-01  6.798011e-02  6.717122e-02  -2.562507e-01  -4.534575e-02  6.521272e-01  1.621773e-01  1.790269e-01  1.757704e-01  -2.461987e-02  -1.919258e-02  -2.588835e-01  1.767711e-01  2.791781e-02  2.524026e-01  3.252314e-02  1.054418e-01  -1.724539e-01  7.853705e-03  9.510272e-02  -2.393563e-01  1.120038e-01  4.545579e-02  -2.887872e-01  -1.098633e-01  1.640006e-01  1.361284e-01  7.536224e-02  1.247439e-02  1.963582e-02  2.617219e-01  1.694016e-02  -1.552995e-02  -2.064875e-01  -8.648908e-01  -1.278783e-02  -1.751120e-01  7.859135e-02  -1.372990e-01  -1.972996e-01  -8.004308e-01  1.348286e-01  2.582334e-03  8.506107e-02  9.701864e-02  1.639794e-01  1.475329e-01  -7.929062e-02  2.372989e-02  -9.617602e-02  2.070298e-01  -5.364026e-01  -2.150586e-01  7.723550e-02  1.550062e-01  1.888942e-01  1.145330e-03  -2.888514e-03  4.102089e-02  -5.846862e-03  -5.946309e-02  -3.418143e-01  1.938243e-01  8.297265e-02  1.117033e-01  -1.324546e-01  7.907595e-02  6.436496e-02  3.457874e-02  -1.355377e-02  6.454934e-02  6.044524e-02  -2.257328e-02  -1.629412e-02  -5.122063e-02  5.546421e-02  2.643280e-01  -3.541426e-01  -1.628161e-01  1.393470e-01  2.481894e-01  -4.153270e-02  9.829349e-02  2.494749e-01  2.367415e-01  -1.649214e-01  -2.389384e-01  2.340102e-02  -2.717425e-01  1.996467e-01  5.136862e-02  1.882997e-01  6.732130e-02  4.079467e-02  1.733148e-01  1.649125e-01  -1.781748e-01  -4.849886e-01  1.028990e-01  6.690842e-02  -8.804967e-02  -2.891343e-03  3.598137e-01  6.103791e-02  3.215607e-02  -9.603453e-02  -1.298576e-01  1.142359e-01  2.387708e-01  -2.453382e-01  3.300815e-02  2.598719e-01  1.780407e-01  4.713822e-02  -7.229982e-03  -3.920759e-01  2.319238e-01  -1.315024e-01  -4.107332e-01  -2.705811e-01  3.788882e-01  -2.935778e-01  -5.584868e-02  1.661074e-01  -3.082480e-01  -1.413192e-01  1.260491e-01  2.392713e-01  1.555262e-02  6.800437e-03  -2.981592e-01  -6.157925e-02  -3.260790e-01  -4.399062e-01  -1.565229e-02  1.210787e-01  -6.839528e-02  7.565241e-02  -1.500043e-01  2.528234e-01  1.927809e-02  -5.929392e-02  -1.886180e-02  4.352216e-02  -6.045529e-01  -1.384752e-01  1.681437e-01  3.171348e-01  -2.610695e-01  -3.974878e-01  1.921011e-01  -3.139409e-02  7.095585e-02  2.513000e-01  5.685364e-02  -8.182110e-03  9.210068e-02  2.603274e-01  1.617303e-01  2.335589e-02  -6.241166e-02  -2.419376e-02  1.114914e-01  -2.462172e-01  2.104586e-01  1.268946e-01  7.598023e-03  -1.718051e-01  1.228682e-01  2.268750e-01  -2.408930e-01  5.933365e-02  -1.695822e-01  -6.839006e-02  -2.114724e-02  2.199122e-01  -7.186794e-02  7.843654e-02  -2.171658e-01  7.857054e-02  2.394389e-01  1.029063e-02  3.936233e-01  -5.020260e-02  2.636832e-01  -8.127892e-02  -7.659739e-02  1.313674e-01  -1.076203e-01  2.335101e-01  -3.113166e-02  -1.461048e-01  3.029620e-01  -1.564511e-01  2.539120e-02  2.854141e-01  -2.327031e-01  3.599995e-02  3.806727e-01  1.816977e-01  -9.482746e-02  -7.882605e-02  1.628652e-01  -2.229526e-01  1.152506e-01  -1.210860e-01  1.294298e-01  1.515984e-01  -9.321085e-02  -8.923747e-02  6.378853e-02  -1.878344e-01  -1.168773e-01  5.321642e-02  4.421167e-03  1.294797e-01  4.390196e-02  -2.404554e-01  -6.733224e-02  -1.147235e-01  -2.391438e-01  -1.042368e-01  1.307401e-01  -2.078739e-01  -2.172841e-01  1.807631e-01  6.430984e-02  -8.115408e-02  1.287836e-01  -9.664395e-02  2.046285e-02  -2.395778e-01  6.817736e-02  9.022289e-02  -2.088753e-01  -1.384936e-01  8.356920e-02  -5.556088e-02  1.620764e-01  -2.033180e-01  -4.881714e-02  -1.803150e-01  -1.099548e-01  2.163505e-01  -2.233314e-01  -1.047714e-01  8.632456e-02  5.234544e-02  1.809337e-01  1.096223e-01  -2.532521e-01  -8.569120e-02  -1.386283e-01  -2.560255e-02  1.760271e-02  9.189844e-02  9.097752e-02  5.921556e-02  -9.562536e-02  -4.894100e-02  -8.919714e-02  -4.711310e-04  1.796350e-01  -3.317596e-02  -8.323777e-02  1.170871e-01  -1.625402e-01  4.425584e-02  -1.457780e-01  1.917804e-01  -1.570559e-01  2.220367e-01  1.772794e-01  1.212539e-01  -2.409029e-01  7.927066e-02  1.648265e-01  -8.422408e-02  1.643313e-01  1.758797e-01  2.148187e-01  1.026993e-01  9.429520e-02  -1.951257e-01  1.905455e-01  5.475281e-02  -1.493604e-01  9.721193e-02  -2.154946e-01  -2.651985e-01  7.728478e-02  -1.397911e-01  -1.645991e-01  -1.134465e-01  -2.078782e-01  -2.522927e-01  -1.366991e-01  2.406817e-01  8.941109e-02  1.029019e-01  1.402398e-01  1.755012e-01  4.036913e-01  1.315076e-01  -4.545743e-02  2.664058e-01  -4.446767e-01  -8.313999e-01  -1.582012e-01  1.246807e-01  2.388731e-02  -1.112701e-01  1.467996e-01  -1.147193e-01  -5.847838e-01  1.445198e-01  1.709966e-01  1.436880e-01  -2.373220e-01  7.147524e-02  1.630930e-01  -1.542089e-02  -1.398451e-01  3.414569e-02  1.954880e-01  -4.294136e-02  -2.707957e-02  1.005747e-01  -2.680809e-01  -2.651295e-02  -2.410658e-01  -4.765441e-02  -4.035131e-01  2.545746e-01  -7.876379e-02  8.962907e-02  1.038284e-01  1.532039e-02  -2.853847e-01  -2.061760e-04  -2.080049e-01  5.437181e-02  -5.363256e-02  -2.264174e-01  6.374019e-02  1.183331e-01  -6.989703e-03  1.482860e-01  -6.294142e-01  -1.284930e-01  2.205802e-01  -1.227145e-01  2.512926e-01  1.605967e-01  1.722248e-01  1.960993e-01  -3.274870e-01  -2.054601e-01  -6.018138e-02  -4.301557e-01  -1.376868e-01  -2.438711e-01  -4.112385e-02  -4.497973e-02  -1.346365e-01  -1.917329e-01  3.610757e-02  -2.114424e-01  6.423222e-02  9.687974e-02  -2.409028e-01  3.508497e-01  1.968261e-01  1.613739e-01  1.449752e-01  -1.343442e-01  -3.766549e-01  1.563699e-01  1.146919e-01  2.242893e-01  1.695304e-01  -7.104758e-03  -2.170976e-01  -5.360861e-02  -3.681509e-02  1.751501e-01  1.175881e-01  1.355177e-01  2.559769e-03  -3.465666e-01  -6.509396e-02  -1.798601e-02  2.532457e-01  -3.982561e-01  7.317118e-02  4.386471e-02  -6.346192e-01  8.851595e-02  1.512320e-01  -5.427852e-01  -1.475041e-01  -2.165838e-01  -1.329750e-01  1.784202e-01  -2.726000e-01  1.710619e-01  -1.353998e-01  2.355732e-01  -1.715307e-01  -8.394890e-02  9.368786e-02  -1.264610e-02  2.155835e-01  -1.990391e-01  1.822644e-01  6.144371e-04  -6.273748e-02  -1.588877e-01  1.410820e-01  2.868890e-01  -2.374375e-01  -1.093260e-01  1.767779e-01  -3.193447e-02  -4.711799e-02  9.052428e-02  -2.292237e-01  1.756722e-01  -1.957683e-01  1.272083e-01  -1.260982e-01  2.834528e-01  -1.073738e-02  7.602595e-02  -1.688524e-01  -2.375728e-01  1.351396e-01  -2.478853e-01  -1.630790e-01  1.274480e-01  1.281421e-01  1.622903e-01  -1.300808e-01  6.862841e-02  1.970997e-01  -2.321453e-01  -4.940352e-02  -1.128215e-02  -1.970424e-01  -1.769214e-01  3.806287e-02  2.632351e-02  1.182953e-01  1.406821e-01  1.300057e-01  2.495617e-01  -4.254593e-01  1.323523e-01  -6.212381e-02  -5.577722e-02  -2.059941e-01  -1.984988e-01  -1.709009e-01  5.485845e-03  -6.185282e-02  9.156102e-03  -2.105900e-01  2.885278e-01  1.647377e-01  1.140402e-02  -4.585607e-01  -2.972955e-02  1.430547e-01  -1.136621e-01  -1.931030e-01  9.580228e-02  9.545255e-02  -8.757778e-03  -6.774828e-01  5.011339e-02  -2.649662e-01  1.311961e-01  8.224271e-02  -2.829532e-01  1.179005e-01  -2.160611e-01  1.232752e-01  -1.027501e-01  -8.629768e-02  1.128376e-01  5.297051e-02  8.301406e-02  -3.875532e-01  2.849559e-02  -5.141569e-01  -2.603181e-01  -4.843354e-01  1.481418e-01  7.202168e-03  -3.135455e-02  2.681457e-01  3.451788e-02  1.412373e-01  -1.856490e-01  2.234728e-02  -3.596406e-02  2.288392e-01  -1.081578e-01  2.308680e-01  2.286544e-01  -1.091390e-01  -2.106503e-01  -8.708175e-03  -6.581417e-02  -2.207505e-01  -8.637151e-02  -1.048988e-01  -1.474503e-01  -1.555507e-01  8.126471e-03  -2.389618e-02  -2.402030e-01  2.295433e-01  1.640431e-01  2.455327e-02  2.188714e-03  5.439887e-02  -5.399941e-02  -7.307053e-02  -1.495820e-01  -1.630235e-01  -1.620913e-01  3.332376e-03  1.760261e-02  6.332985e-02  -1.095304e-01  -9.096441e-02  -4.854483e-02  -8.801819e-02  -2.152996e-01  -2.122328e-01  1.995868e-02  1.340815e-01  -1.807226e-01  1.799256e-01  -1.166040e-01  -9.509182e-02  -1.994949e-01  -1.859742e-01  5.899118e-02  8.099899e-02  -2.842432e-01  2.657597e-01  4.308219e-01  2.165430e-01  -4.232518e-01  -1.676949e-01  2.701043e-01  -2.994555e-01  -4.435586e-01  -2.162783e-01  6.289071e-02  3.268288e-01  -2.603333e-01  1.565020e-01  -9.183314e-01  -6.749117e-02  -4.518423e-01  -1.361111e-01  3.445399e-03  2.253322e-01  2.982863e-01  -3.048964e-02  -7.292988e-01  -8.163723e-02  6.510819e-02  1.358883e-01  8.536295e-02  1.148174e-01  -5.881809e-03  5.378093e-02  -2.263658e-01  5.187634e-02  1.046545e-01  3.915758e-01  -2.169756e-01  1.436438e-01  2.198669e-01  -2.725617e-01  1.371382e-01  1.856871e-01  2.246164e-01  1.242036e-01  -7.182802e-02  1.990922e-01  -4.237096e-02  2.279673e-02  -1.219925e-01  1.395789e-01  3.821560e-01  3.418598e-01  -6.886417e-01  -6.367927e-01  -2.272508e-01  9.849171e-02  2.910936e-01  1.323592e-01  1.295209e-01  -8.882329e-01  3.225919e-01  3.843324e-02  -1.006496e-01  -1.226028e-01  7.655830e-02  3.831806e-03  -9.039482e-04  1.895946e-01  3.421294e-01  -9.537868e-01  -1.083624e-01  -1.984950e-02  2.342001e-01  -1.701636e-01  2.656672e-01  -3.787877e-02  -2.483511e-01  1.929139e-01  1.387647e-01  1.324958e-01  2.285182e-01  3.093905e-02  -3.824810e-02  1.313504e-01  1.775055e-01  1.066756e-01  -7.179246e-02  1.166902e-02  1.185905e-01  -8.347283e-01  -1.358581e-01  -2.373115e-01  2.683828e-01  -3.117511e-01  3.346960e-01  -7.907297e-02  1.995340e-01  2.650803e-01  3.249153e-01  2.792408e-01  -2.204090e-02  -3.151474e-01  8.346475e-02  -1.051277e-02  -1.963654e-01  2.589789e-02  2.186711e-01  -2.774622e-01  -1.292570e-01  -1.092928e-01  -1.822613e-02  -4.942108e-02  -9.371663e-03  1.260214e-01  -2.553459e-01  3.749983e-02  4.322269e-01  -1.416467e-01  -4.181148e-03  1.618842e-01  -1.885423e-01  5.657277e-01  -2.829337e-01  -6.545721e-02  -9.043308e-02  -1.385834e-01  -1.683136e-01  1.478481e-01  1.903456e-01  1.244545e-01  -3.102436e-02  2.804860e-01  2.040726e-01  3.210647e-01  2.088474e-01  6.426774e-02  1.185554e-01  -2.963337e-03  -3.315892e-01  2.700835e-02  2.847150e-02  3.793978e-01  -4.122434e-01  1.684434e-01  2.733046e-02  1.949516e-01  -2.565821e-01  3.657511e-01  1.106359e-01  1.353663e-01  -3.618749e-03  1.492345e-01  -9.954991e-02  -1.226740e-01  -6.940601e-02  -5.680035e-02  -5.422249e-02  -2.158444e-01  -4.117677e-02  -9.862258e-02  1.721566e-01  -2.648502e-01  -3.030708e-01  8.363368e-02  -5.061056e-02  1.474114e-01  -7.596361e-03  -6.384876e-02  5.814256e-02  -2.000856e-02  2.453096e-02  -2.190882e-01  -1.434264e-01  1.774013e-01  -5.478505e-02  9.395392e-02  2.624739e-01  5.847564e-02  -1.327686e-01  -1.763625e-01  2.739463e-01  -1.158835e+00  6.848403e-02  -5.055797e-01  2.626385e-01  -2.986461e-01  2.124980e-01  2.558877e-01  -1.483208e-01  1.041227e-01  -1.447475e-01  1.098168e-02  1.136182e-01  -1.169411e-02  2.392922e-02  -2.298590e-01  -1.999818e-01  -3.942951e-02  -2.306681e-02  -7.977246e-01  -1.021197e-01  2.413695e-01  -7.865010e-02  1.715048e-02  1.927888e-01  1.920361e-01  1.494191e-01  8.185510e-02  2.064817e-01  -2.162129e-01  -2.274475e-01  -1.817095e-01  -8.794491e-02  -2.375033e-01  6.064860e-02  -5.320524e-02  8.459663e-02  1.572345e-01  -1.708929e-01  -2.028648e-01  -3.689085e-02  -2.350240e-01  -1.715251e-01  -1.169529e-01  4.805229e-02  7.813246e-02  -1.138276e-01  -1.474810e-01  -3.627550e-02  -1.759419e-01  -2.191361e-01  -1.965771e-02  2.806632e-02  1.341104e-01  -2.090915e-01  -1.029405e-01  2.254398e-01  1.447454e-01  -8.089180e-02  -1.453750e-02  1.708209e-02  -1.115650e-01  -2.420612e-01  2.660934e-02  1.360850e-01  -1.621777e-01  -3.762009e-02  -8.605760e-02  7.688671e-02  -1.001999e-01  -2.185235e-01  -4.815089e-02  3.011482e-01  -2.100855e-01  -2.283303e-01  1.918197e-01  1.820814e-01  -1.310021e-01  2.233937e-02  -2.910079e-02  2.165641e-01  -2.512807e-01  2.425090e-01  2.399001e-01  -1.107103e-01  -5.002931e-02  -3.616307e-02  -9.816013e-02  1.770488e-01  -3.408674e-01  1.431098e-01  -5.724766e-01  9.433618e-02  1.890470e-01  -3.585596e-01  -3.348592e-02  -2.032485e-01  4.089632e-02  1.689487e-01  2.749481e-01  1.738339e-01  -4.515780e-01  3.183148e-02  -1.548958e-01  -2.480232e-01  -2.166817e-01  1.943975e-01  2.594649e-01  1.293357e-01  2.188969e-01  -1.938222e-01  -1.013402e-01  -1.619833e-01  -2.381709e-01  1.958278e-01  -1.761248e-01  2.058270e-02  -1.223130e-03  3.351852e-01  -3.758469e-01  -1.111977e-01  1.547594e-01  1.276537e-01  2.172603e-01  -7.801537e-02  -1.641795e-01  -3.066298e-01  2.848296e-01  -1.613951e-01  1.084674e-01  -1.077096e-01  -1.205174e-02  1.889272e-01  2.036456e-01  2.340530e-01  1.392211e-02  -5.452178e-01  -5.897245e-01  -2.382363e-01  2.078201e-01  1.619689e-01  2.279325e-01  -2.381376e-02  3.224369e-02  -6.213273e-01  -1.888232e-01  2.258617e-01  1.084933e-03  -8.206607e-02  -1.177520e-01  6.586359e-02  6.158620e-02  -2.667411e-02  -1.151554e-01  -2.118467e-01  -2.684419e-01  -2.955950e-01  2.578827e-01  2.143161e-01  -3.936000e-03  2.124494e-01  -1.288458e-01  8.280201e-02  2.326573e-01  -4.172973e-02  -1.795382e-01  -2.873892e-01  -1.993516e-01  1.687661e-01  -1.984602e-01  -7.628451e-02  5.017868e-03  -9.136160e-02  8.795229e-02  2.017909e-01  -2.459090e-01  -5.927053e-02  2.091439e-02  1.753965e-01  -1.870864e-01  -1.108639e-01  -1.019025e-01  -2.056606e-01  -2.551654e-02  1.231364e-02  -7.587331e-02  -8.786528e-02  2.579014e-01  1.233495e-01  -3.152551e-02  -1.587839e-01  1.128268e-01  -3.016016e-01  -1.093511e-01  2.023557e-02  1.509490e-01  1.188882e-01  -1.669974e-01  -1.994985e-01  -1.576573e-02  -1.273052e-01  4.755141e-02  -4.151661e-02  1.073040e-01  -1.359828e-01  9.063775e-02  1.343308e-01  2.414953e-01  1.556208e-01  -3.334407e-02  1.532490e-01  5.389126e-02  -2.651279e-02  -1.246735e-01  3.744263e-02  1.009248e-01  -9.526426e-02  -8.591095e-02  -1.803675e-01  -1.718971e-01  -1.151855e-01  2.071863e-01  
      </Weights>
      <Biases Rows="50" Columns="1">
        1.779609e-02  5.720708e-03  -4.412523e-02  6.447542e-02  -1.428297e-02  -7.016251e-02  1.663896e-01  2.123113e-02  -6.497115e-02  2.108110e-01  1.732835e-01  -1.434839e-02  9.368744e-03  -5.605847e-02  5.098075e-02  1.996298e-01  -9.465045e-02  2.172749e-01  2.299138e-02  -7.081805e-02  6.794878e-02  3.672464e-03  1.928035e-02  2.368930e-01  1.875749e-01  2.493970e-01  -3.258954e-02  1.119040e-01  1.621301e-01  -1.380860e-02  -1.704404e-01  4.750860e-02  -8.325087e-02  -1.700969e-03  2.958565e-02  -1.595912e-02  -9.512062e-03  1.754161e-01  1.451201e-01  8.606704e-02  1.961768e-01  0.000000e+00  -4.261699e-02  8.816464e-04  -1.141136e-01  3.070954e-01  -5.216280e-03  1.328077e-01  3.221391e-02  1.370025e-01  
      </Biases>
    </DenseLayer>
    <DenseLayer Width="50" ActivationFunction="1">
      <Weights Rows="50" Columns="50">
        -1.717180e-01  9.481183e-02  5.509429e-01  -1.884268e-02  -3.617398e-01  4.908404e-02  -2.517343e-01  -2.456016e-01  -1.606819e-01  -8.732743e-01  -3.933915e-01  1.950428e-01  2.084561e-01  2.305706e-01  -2.708530e-01  3.837757e-01  -2.399764e-01  3.589185e-02  -4.328201e-01  -2.060515e-01  -1.803317e-01  -2.772378e-02  1.617022e-01  7.715818e-02  -7.915720e-01  -2.807096e-01  9.829279e-02  -3.240827e-01  -5.658086e-01  2.207661e-01  -5.713153e-01  1.174685e-01  1.564544e-01  2.922118e-01  -2.713365e-02  -8.293976e-02  1.551214e-01  1.031787e-01  2.144326e-02  3.372581e-02  -3.744805e-01  2.171529e-01  3.516917e-01  2.822060e-01  2.421186e-01  -9.512401e-03  1.702270e-01  -6.025253e-01  2.041088e-01  -3.679318e-04  -2.787186e-01  3.066247e-02  -7.866374e-02  -1.534759e-01  -2.118237e-01  4.294726e-02  -3.606283e-02  1.382870e-01  8.994292e-02  -2.354829e-03  1.021493e-01  1.694029e-01  -2.220199e-01  -1.894547e-01  -9.652063e-02  6.841078e-02  4.774075e-02  1.314979e-01  -2.510514e-01  -1.263588e-01  -1.600666e-01  -2.315412e-01  2.997988e-02  -6.495338e-02  -1.454008e-01  1.848430e-02  3.337426e-02  1.631526e-01  -5.452259e-02  1.305583e-01  6.989210e-02  7.810125e-02  -1.205564e-01  9.241746e-02  1.901234e-02  7.126638e-02  -1.822183e-01  8.148520e-03  -2.436885e-01  -1.691601e-01  -7.180853e-02  -8.749489e-02  9.945654e-02  -3.104988e-03  1.159850e-01  -2.763816e-01  1.818402e-01  1.591057e-02  -3.527109e-02  8.778539e-02  1.402004e-01  8.043266e-02  1.205108e-01  -1.115538e-01  -1.581992e-01  -5.175770e-02  1.132803e-01  -1.811433e-01  -4.819670e-02  -1.413140e-01  2.259830e-01  -3.592885e-02  7.349613e-02  1.210435e-02  1.813090e-01  7.645220e-03  -1.853285e-01  2.801691e-01  1.476094e-01  -1.961490e-01  -1.925869e-01  2.363311e-01  1.022470e-01  1.727240e-01  1.821592e-01  -5.155272e-02  1.279060e-01  -2.439958e-01  -9.168132e-02  1.706901e-01  5.516899e-02  3.575516e-02  1.121148e-01  -1.151313e-01  9.612338e-02  1.072570e-01  -2.172395e-01  -1.905639e-01  -2.355209e-01  1.511858e-01  -4.789094e-02  1.050804e-01  1.041033e-01  2.326240e-01  1.183929e-01  1.192662e-01  -1.797755e-01  -3.549618e-01  -2.072737e-01  -1.483088e-02  6.779274e-02  -3.033668e-01  1.195049e-01  2.230029e-01  1.021225e-01  1.806979e-02  -1.473562e-02  4.199651e-02  2.784753e-01  1.495466e-01  -1.198683e-01  1.977603e-01  -2.171118e-01  -1.249821e-01  7.179076e-02  -9.244581e-02  5.025826e-02  5.843685e-02  -1.307072e-01  6.633200e-02  -5.355447e-01  -4.177340e-01  -4.824402e-01  1.785876e-01  -1.391962e-01  -5.030949e-01  6.008668e-02  -1.104931e-01  6.655884e-02  1.964721e-01  2.496097e-01  1.752792e-01  -3.443434e-03  7.383833e-02  1.305862e-01  1.033447e-01  -2.015339e-01  2.327523e-01  5.915422e-02  -1.545627e-01  3.084174e-01  4.914099e-02  9.000850e-02  -2.828741e-01  -2.126529e-01  1.570197e-01  -2.338423e-01  6.262535e-03  2.835488e-01  1.578375e-01  1.213234e-03  -2.022483e-01  -8.541743e-02  -2.392554e-02  -1.305621e-02  -6.579037e-03  -1.729236e-01  -1.993712e-01  4.702756e-02  -1.492810e-01  -5.481995e-02  -2.434633e-01  8.951450e-02  -1.274796e-02  1.950969e-01  -2.423647e-02  6.220099e-02  -2.783042e-01  -1.683263e-01  -1.387016e-01  -1.953973e-01  7.602321e-02  1.326562e-01  -1.057483e-01  1.727268e-01  2.597621e-02  1.685108e-01  1.537176e-01  -2.862954e-01  -2.234471e-02  8.392543e-02  -1.554902e-01  -2.425969e-01  -2.153605e-01  -2.270233e-01  -1.769087e-01  -5.099588e-02  -1.430193e-01  1.916029e-02  -3.277961e-02  2.987060e-02  -4.096811e-02  5.320517e-02  -5.162047e-03  -1.397565e-01  -5.837556e-02  8.968661e-02  1.475686e-01  -2.059126e-01  2.076392e-02  -5.548930e-02  1.557555e-01  3.651262e-02  -2.543631e-01  -1.644919e-01  -1.767417e-01  6.980726e-02  -1.025287e-01  4.918603e-02  1.075046e-01  2.766579e-02  -6.997226e-02  -1.557472e-01  3.611392e-02  -2.266200e-01  -6.310081e-02  7.377587e-02  1.455051e-01  1.344922e-01  -3.982940e-02  -6.765501e-01  5.904931e-02  -2.931892e-01  2.366118e-01  2.216616e-01  2.343382e-01  -5.925081e-02  -4.444026e-03  1.729746e-01  1.170134e-01  2.653340e-01  -1.104883e-01  -2.912166e-01  6.977560e-02  9.585688e-02  1.384120e-01  -2.191152e-01  -1.185687e-01  2.361006e-01  1.090778e-01  1.654505e-01  2.416049e-01  1.401737e-01  -1.547304e-01  -1.181404e-01  -6.727483e-02  -1.707052e-01  -2.401170e-01  -5.128827e-02  2.486831e-01  1.940598e-01  -3.196681e-02  -2.031282e-01  1.613184e-01  2.887631e-01  -4.407131e-02  2.553221e-01  -1.923359e-02  1.153814e-01  6.241608e-02  1.295411e-01  1.382020e-02  2.156942e-01  -2.645650e-01  -8.833842e-02  6.918997e-02  1.980806e-02  -2.513662e-01  -8.466548e-02  7.813159e-03  1.649060e-01  -4.021123e-01  1.830203e-01  1.247538e-01  2.086540e-01  2.969118e-02  8.739726e-02  1.827937e-01  3.566860e-03  -2.608179e-01  -3.774723e-01  1.136378e-01  -6.238639e-02  3.051896e-02  -9.990457e-02  1.395594e-02  -3.716594e-02  1.617174e-01  1.675003e-01  -4.168070e-02  2.184521e-01  -1.571026e-01  3.205463e-01  -2.133559e-01  -2.413533e-02  1.514795e-01  -7.506422e-02  2.934184e-01  -2.323393e-01  -4.358996e-02  -1.801652e-01  -5.566293e-03  -1.366553e-01  -3.778630e-02  -8.380987e-02  -2.445128e-01  -2.323969e-01  2.165994e-03  1.203514e-01  1.174901e-01  -9.973430e-02  1.363548e-01  -9.654933e-02  1.769452e-01  -1.314778e-02  2.145349e-01  -2.417983e-01  -2.396480e-01  -1.089550e-02  1.507660e-01  3.400547e-02  -1.985001e-01  -7.652456e-02  -1.105873e-01  -2.449724e-02  1.011582e-01  -1.530837e-01  -1.441428e-01  2.114169e-01  4.068836e-02  -7.376743e-02  -2.186756e-01  -1.862032e-01  -1.444043e-02  1.790018e-01  1.143893e-02  4.092498e-02  -2.584744e-01  -1.771274e-01  -2.380039e-01  1.159632e-01  -1.352414e-01  -1.916219e-01  -9.415150e-02  -2.111892e-03  -5.956034e-02  9.879635e-02  1.756954e-01  1.203395e-01  1.257094e-01  -3.107388e-03  -3.179299e-02  -3.683232e-01  5.961091e-02  -5.534334e-02  -1.053072e+00  -1.083975e-01  1.763987e-01  1.075392e-01  1.288939e-01  -4.510752e-02  -1.109421e-01  7.474765e-02  6.107025e-02  -1.294533e+00  2.274075e-01  -1.148520e+00  -3.458139e-01  1.525376e-01  2.346422e-01  -6.871440e-02  -2.636518e-01  -2.485821e-01  2.396486e-01  -1.132337e-01  -2.489118e-02  5.157541e-02  3.859760e-01  1.963707e-01  -1.129348e-01  1.934159e-01  -1.248055e+00  -5.008890e-02  -4.903763e-01  -4.420733e-01  -1.155138e-01  -8.844800e-02  1.698262e-01  -7.741885e-01  2.873494e-02  -1.732544e-01  -9.158997e-02  -6.043459e-01  2.817283e-01  -1.878509e-01  -3.884253e-02  -9.735721e-02  -3.958946e-01  1.069794e-01  -1.684646e-01  -5.698605e-02  -9.481777e-02  -1.860424e-01  5.604781e-03  4.470643e-02  -8.162289e-02  9.470243e-02  -8.813895e-02  -1.221750e-01  1.697917e-01  8.569367e-02  1.201581e-01  -2.217442e-01  2.083700e-01  3.820214e-02  -1.565423e-01  -1.883009e-01  7.094646e-02  4.922866e-02  -1.983797e-01  7.744638e-02  1.623719e-01  -7.045055e-02  -8.111044e-02  4.367366e-02  4.916245e-02  2.863614e-02  -1.101993e-03  -1.123985e-01  -1.877269e-01  -1.069068e-01  1.515869e-01  -1.295733e-01  9.140379e-02  -1.376465e-01  -2.039935e-01  -2.337318e-01  -2.481997e-01  1.299039e-02  -1.301547e-01  -5.264175e-02  -9.063142e-02  -3.111818e-02  -5.397139e-02  9.595748e-02  -1.410075e-01  -1.781676e-01  1.387156e-01  -7.366279e-02  -1.039604e-02  -3.449174e-01  2.108257e-01  -1.983049e-01  2.778114e-01  1.821230e-01  3.274096e-01  -1.058654e-01  3.583433e-02  -1.203288e-01  -2.973280e-01  -3.484804e-01  -1.600426e-01  6.247844e-02  3.066266e-01  3.875696e-01  4.765153e-02  -2.363119e-01  -2.665469e-01  -2.098647e-01  5.226159e-02  -2.326993e-01  2.309170e-01  1.819034e-01  -2.283202e-01  -7.171425e-01  -3.155638e-02  -6.462955e-02  -1.611344e-01  -1.297143e-01  -1.611450e-01  -2.024570e-01  -3.576436e-01  2.063132e-01  2.334529e-01  -1.192499e-01  8.580855e-02  -7.808997e-02  -1.463828e-01  -3.863355e-01  -1.906772e-01  -5.322924e-01  1.411143e-01  -7.041051e-01  4.488597e-02  2.478352e-01  -4.781688e-01  -1.527333e-01  -5.123996e-02  5.066239e-01  1.804849e-01  -2.623731e-01  2.835966e-02  -2.655439e-01  1.771610e-02  1.043882e-01  -2.264758e-01  6.153535e-02  -3.589793e-03  -2.476618e-01  3.870730e-02  -2.323771e-01  -1.313089e-02  1.043241e-01  -1.525636e-01  -1.207171e-01  -2.539339e-01  1.233402e-01  -7.209657e-02  -2.195094e-01  7.967184e-02  -5.400401e-02  -1.343486e-01  -1.523697e-01  -1.696486e-01  6.756654e-02  -2.358592e-01  1.296707e-01  1.647790e-01  -2.716983e-03  1.532506e-01  1.082484e-01  -8.989190e-02  -1.841170e-01  1.772361e-01  -1.647872e-01  -1.662894e-01  -1.412613e-01  -1.857875e-01  1.756357e-01  2.058130e-01  -2.234627e-01  -3.641893e-02  2.202508e-01  3.292106e-02  1.990221e-02  -2.282161e-01  7.204888e-02  8.101134e-02  -1.051278e-01  -4.264171e-02  -2.080156e-01  -5.265483e-02  -1.639021e-01  -3.145611e-02  -2.791811e-01  1.858192e-03  -2.717202e-01  3.079583e-02  -1.757072e-01  1.355125e-01  -1.482802e-02  5.967743e-02  -1.201359e-01  8.662245e-02  -2.124287e-01  1.459254e-01  -3.949293e-02  -2.672175e-01  9.587749e-03  1.514139e-01  7.947363e-02  -1.550609e-01  5.084366e-02  1.639819e-01  -1.065326e-01  -3.106196e-01  -1.410580e-01  2.516053e-04  -2.688071e-02  -1.029014e-01  -1.180373e-01  3.207947e-02  -2.214293e-01  1.105993e-01  -2.721699e-01  -2.494486e-02  -2.557979e-01  -1.491044e-01  1.829606e-02  1.784322e-01  -1.218045e-03  1.083124e-01  1.373978e-01  -1.960273e-01  6.502543e-02  -6.749961e-03  -1.946982e-01  -1.306973e-01  -3.739642e-02  -3.118397e-02  -1.702272e-01  1.821858e-01  -3.007272e-01  -2.592919e-01  1.351646e-01  -6.977642e-02  -1.778426e-01  -6.198430e-02  1.263470e-01  7.299046e-02  -2.393460e-01  7.235543e-02  -1.076921e-01  -2.221561e-01  -3.343733e-01  -8.560937e-02  2.151905e-01  -2.674740e-01  1.076121e-01  -8.990799e-03  -2.229148e-01  -2.275712e-01  -1.689178e-01  1.052691e-01  -3.242221e-01  -1.526870e-01  -1.760107e-01  -2.856847e-01  -1.940557e-01  -1.021288e-01  -2.385214e-01  5.756102e-02  -1.676483e-01  2.241102e-01  -2.589166e-01  -1.041369e-01  -1.040612e-01  -2.454245e-01  1.108860e-01  -2.188494e-01  -1.960292e-01  1.248132e-01  2.140085e-01  -1.941994e-01  1.658694e-01  -1.413379e-01  1.829794e-01  4.165879e-03  -1.352392e-01  -9.366337e-02  1.520575e-01  -5.166651e-02  4.807070e-02  1.254559e-01  2.851898e-01  2.842828e-01  -4.741433e-01  1.114217e-01  -2.125757e-01  -2.137424e-02  -2.252181e-01  1.244227e-01  -7.073456e-02  -2.393292e-01  -1.349736e-01  -1.085877e-01  1.433682e-01  -1.405999e-01  1.383260e-02  2.574733e-01  1.449184e-01  -7.554695e-02  -1.067663e-01  -9.832264e-02  -3.130752e-02  -5.855446e-01  1.652890e-01  2.153249e-04  -8.899434e-03  -1.061101e-01  1.436844e-01  -1.605017e-01  -1.124455e-01  2.877048e-01  1.013111e-01  1.676224e-01  -2.929005e-02  -3.236586e-03  2.122111e-01  -3.076949e-02  1.382663e-01  1.973329e-01  -4.033302e-01  -1.773505e-01  2.591676e-02  2.721491e-02  -1.322652e-01  2.290496e-01  -1.703545e-02  -2.267640e-01  6.364092e-02  -2.146272e-01  -1.625605e-01  -2.246281e-01  1.727007e-01  -1.536492e-01  -2.508964e-02  -2.019188e-01  1.691180e-01  -1.425522e-01  2.737236e-02  1.028518e-01  3.763598e-02  -1.272757e-01  9.958405e-04  -2.530197e-01  -1.918497e-01  -1.031330e-01  -1.036560e-01  -2.497507e-01  -6.357903e-02  -6.169083e-03  -1.404383e-01  9.507357e-02  -4.146523e-02  -2.142773e-01  2.927806e-02  -2.324771e-01  2.512328e-02  -8.419107e-02  6.105125e-02  -1.394097e-01  -6.395683e-02  -5.340331e-02  -2.219294e-01  -1.118469e-01  -8.191961e-02  -8.576175e-02  -2.177475e-01  -1.698773e-01  -1.354852e-02  -1.562777e-01  2.244782e-02  -1.816968e-01  7.740625e-03  6.406798e-02  1.412761e-01  -1.357830e-01  -6.340025e-02  5.312135e-02  -1.042616e-01  -1.449195e-01  9.473148e-03  -2.023389e-01  -4.936762e-02  -1.103583e-01  -2.492023e-03  7.292088e-03  -1.076678e-01  -9.449410e-02  -8.084758e-02  -4.897761e-02  1.731984e-01  1.762164e-01  -1.015402e-01  -2.263946e-01  1.896932e-01  -2.188266e-01  -3.687739e-02  1.038018e-01  1.185052e-01  -1.922076e-01  1.310604e-03  -1.362006e-01  1.919531e-01  -1.558390e-01  -4.523144e-02  -2.234840e-01  -2.500685e-01  2.093068e-01  1.278833e-01  -2.547135e-01  7.069205e-02  1.514546e-01  6.159066e-02  6.562711e-02  -1.025113e-01  -1.396425e-01  9.743176e-02  -1.654895e-02  -2.578645e-01  6.034617e-02  -2.326326e-01  3.162686e-02  -8.325401e-03  5.475944e-02  -2.004193e-01  -1.747253e-01  -8.020069e-02  -1.260340e-01  -1.810996e-02  -3.181629e-01  -3.056023e-01  -5.570697e-01  -1.291113e-01  1.454480e-01  1.318079e-01  -1.315352e-01  2.790494e-02  1.878129e-01  1.416355e-01  1.512167e-03  4.311049e-02  -1.686004e-01  1.676296e-01  1.043967e-02  7.160896e-02  -8.207894e-03  -8.992681e-02  -4.085794e-02  -6.147518e-01  1.029920e-01  -2.606009e-02  2.396559e-01  -5.966939e-02  5.417603e-02  8.398944e-02  2.535503e-01  -3.255937e-02  1.764036e-01  -2.375522e-01  -1.052763e-01  -5.052237e-01  -1.294732e-01  3.469742e-01  7.544664e-03  -1.816739e-01  -4.240352e-01  2.728433e-01  3.104689e-01  1.773260e-01  9.483065e-02  -1.212158e-01  -5.830500e-01  -5.584319e-01  -4.393746e-02  -1.557655e-01  -1.943352e-01  2.962970e-01  -4.443296e-02  -2.027986e-01  2.735725e-01  5.577244e-02  4.433349e-02  5.782495e-02  1.338249e-01  1.402893e-01  3.576144e-01  3.606517e-01  -6.529683e-02  2.650424e-02  7.931605e-02  7.985509e-03  1.398768e-01  8.308537e-02  -1.489453e-01  -1.621251e-01  2.468074e-02  1.894990e-01  1.792222e-01  3.333299e-02  -2.904354e-02  1.862860e-02  1.571105e-01  -9.172490e-02  -2.603301e-01  -8.222374e-02  2.879792e-01  -3.279334e-02  -2.224790e-01  7.040192e-01  -1.135750e-03  2.367408e-01  -2.869736e-01  1.891408e-01  1.205538e-01  3.515435e-02  -1.960469e-01  -2.583722e-01  -6.052766e-02  2.859883e-01  3.689570e-02  2.770978e-01  1.141357e-01  4.097860e-01  -1.541925e-01  -1.383961e-01  -1.591395e-01  4.303433e-02  7.097448e-02  -5.910274e-02  2.868577e-01  3.116680e-01  -1.378036e-01  -1.074693e-01  1.246098e-01  -6.046290e-02  -1.280362e-02  7.119062e-02  -2.137603e-02  -7.469436e-02  -1.117071e-01  1.090353e-01  1.237447e-01  -1.464414e-01  2.340624e-01  1.065720e-02  -1.663454e-02  2.424684e-02  2.262048e-01  -2.781442e-01  -5.389807e-02  -1.557221e-02  5.336988e-02  2.319470e-01  -1.418131e-01  3.742868e-02  -1.698313e-01  1.650496e-01  1.867419e-01  6.478096e-02  -1.141541e-01  -7.593056e-02  -1.261380e-01  5.003241e-02  1.874168e-01  1.688656e-01  2.221145e-01  -8.987814e-02  8.845226e-02  -7.042283e-02  7.934862e-03  2.910136e-01  -1.569181e-02  1.005888e-01  6.583687e-02  -9.914893e-02  -1.735300e-01  1.115784e-01  1.213769e-01  -2.510231e-01  1.528849e-01  -7.858800e-02  1.692567e-01  2.469831e-01  -2.256517e-01  2.461742e-01  1.906255e-01  -6.479649e-02  1.396776e-01  1.494950e-01  1.109302e-01  9.225355e-02  -1.046453e-01  -2.975053e-01  -1.316046e-01  -1.839159e-01  -2.468561e-01  -7.778196e-01  1.731737e-01  -4.909858e-02  -1.591572e-02  -6.668721e-02  1.372351e-01  1.834170e-01  -1.768449e-01  3.285729e-02  -2.241938e-01  1.917108e-01  1.890403e-01  -4.438451e-01  -2.219476e-01  -2.051130e-01  2.038209e-01  -3.302943e-01  1.105620e-01  1.602193e-01  1.054084e-01  9.856790e-02  -1.418915e-01  3.627782e-02  -1.781928e-01  -3.940727e-01  -8.621399e-02  -9.616372e-02  1.553077e-01  1.947899e-02  1.586055e-01  1.108466e-01  6.859071e-02  -8.601712e-02  -9.762270e-02  1.238808e-01  1.312618e-01  2.677780e-01  2.941341e-01  -7.568963e-01  -3.589252e-02  1.000354e-01  -1.814605e-01  -2.058327e-01  -1.523462e-01  1.482307e-01  -1.773082e-01  -5.012845e-02  2.749250e-02  3.325441e-01  -7.176129e-02  6.651293e-02  -7.161795e-02  1.850120e-01  -3.645912e-01  -6.948543e-03  -1.091804e+00  -7.829588e-01  -5.778418e-01  1.651244e-01  -4.352250e-02  1.697214e-01  -1.380379e-01  -2.029845e-01  8.889020e-02  5.777273e-01  -1.421438e-01  2.599504e-01  -1.876887e-01  -4.739964e-01  1.455738e-01  1.837834e-01  2.242769e-01  4.923390e-02  -4.570551e-02  -7.823125e-01  -8.189359e-02  -7.723213e-02  -2.069763e-02  -1.530540e-01  9.343275e-02  -6.886736e-02  -1.013045e-01  -1.774267e-01  2.262216e-01  -1.937712e-01  -8.254318e-02  2.835864e-02  1.061930e-02  -2.302679e-01  -2.060614e-01  -1.365539e-01  1.393391e-01  -1.793873e-01  -2.178438e-01  7.968234e-02  -1.853686e-01  -2.061108e-01  -1.675817e-01  2.440591e-01  -3.868412e-03  -2.202766e-01  1.366531e-01  2.411372e-01  1.930867e-01  -2.072929e-01  -1.461603e-01  -2.100819e-01  -2.120032e-01  1.609310e-01  2.019907e-02  -2.300174e-01  1.568273e-01  1.646481e-02  -7.611336e-02  -1.128395e-01  2.022412e-01  -4.887874e-02  9.455653e-02  -1.964299e-02  -1.584135e-02  -2.498005e-02  8.673144e-02  -2.204335e-01  -1.762525e-01  -5.375170e-02  -9.799711e-02  -1.265460e-01  -1.093656e-01  2.293296e-01  -1.606712e-01  3.499861e-02  -1.573898e-01  -1.240296e-01  -2.969546e-01  2.001365e-01  -3.002185e-02  2.209126e-03  1.021601e-01  -1.704710e-01  1.636195e-01  9.834280e-02  -9.768081e-02  -2.348238e-01  -2.128633e-01  -7.186102e-02  -1.976355e-01  -1.722925e-01  -1.685098e-01  -2.156343e-01  -2.916170e-01  2.033586e-02  1.471014e-01  -2.099154e-01  -2.129450e-01  -2.465275e-01  -1.593694e-01  1.369776e-02  -2.569680e-01  1.043771e-01  -1.592455e-01  1.129624e-01  -2.097148e-02  -2.600032e-02  2.100459e-02  -2.511709e-01  1.639243e-01  -1.711154e-01  1.919193e-01  8.078185e-02  1.564239e-01  9.146556e-02  -1.144602e-01  -4.379126e-02  -2.227922e-01  1.527678e-01  -8.404503e-03  -3.152506e-02  -2.156789e-01  -1.590313e-01  -2.479232e-01  -2.279738e-01  1.429356e-02  1.906638e-02  1.791667e-01  1.216878e-01  1.624161e-01  -2.747641e-01  -1.353733e-01  2.683592e-01  -4.553799e-02  -4.991086e-01  -8.511044e-03  -4.268312e-03  -2.134994e-01  8.109412e-02  -8.980443e-02  -5.200606e-01  -4.355940e-01  -6.283525e-01  -8.007832e-01  -6.677091e-01  -1.693982e-01  1.068685e-01  -4.380555e-02  1.701061e-02  3.513403e-01  1.487204e-01  -2.217480e-02  -4.676031e-02  3.854781e-01  8.726920e-02  7.347620e-02  7.726588e-02  2.836168e-02  5.762126e-02  -3.267087e-01  -6.859005e-02  -8.289739e-02  8.442993e-02  1.802200e-01  1.926765e-01  1.143909e-01  -9.493441e-02  2.065983e-01  8.349273e-02  2.721532e-01  -2.185021e-01  -4.378248e-01  2.286756e-01  -2.747270e-02  -3.033309e-02  1.903747e-01  1.205162e-02  -1.907841e-01  2.017047e-01  1.979014e-01  1.456682e-01  1.560639e-01  -1.499297e-01  -3.224145e-01  -8.663728e-01  2.858893e-01  2.879056e-01  1.683961e-02  1.968009e-01  1.715980e-01  -2.118530e-01  -1.126468e-01  2.118238e-01  -2.189247e-01  -6.203810e-01  -1.677110e-01  1.622774e-02  -3.995483e-01  -2.266428e-01  3.137511e-02  2.748381e-01  1.119138e-01  1.136681e-01  1.382596e-01  1.037362e-01  -2.371510e-01  3.840374e-01  1.457888e-02  1.453093e-01  -1.591344e-01  -1.433363e-01  1.187759e-01  -1.896762e-01  6.766258e-02  -3.950196e-01  -2.470211e-01  -8.189838e-02  1.608010e-01  2.589934e-01  1.080000e-01  -6.941105e-02  -1.801218e-01  -3.897084e-02  -4.073442e-02  -6.263856e-01  1.849519e-01  1.927267e-02  1.971287e-01  -2.638907e-02  4.973212e-02  -1.126275e-01  -1.329686e-01  -1.235560e-02  1.549493e-01  2.350282e-02  -2.488804e-01  -3.310277e-01  -5.572978e-03  -3.151064e-02  -1.586223e-01  6.710938e-02  1.094890e-01  1.455677e-01  -2.596313e-01  2.738055e-02  6.827458e-02  -2.557647e-01  9.046278e-02  1.816893e-01  -4.647465e-02  -2.171232e-01  3.829325e-02  -1.984265e-01  1.135448e-01  -7.058963e-02  1.521545e-01  -2.387339e-01  -8.560619e-02  -1.459716e-02  -2.069407e-01  1.872199e-02  -9.610389e-02  -3.283734e-01  -2.118009e-01  -2.960117e-02  -2.583291e-01  -1.026741e-01  -2.301697e-01  -7.631934e-02  -1.419240e-01  1.042028e-01  -2.549475e-01  -1.755656e-01  -2.114529e-02  6.218884e-02  -7.629284e-02  -1.913742e-01  2.689353e-01  -1.292758e-01  2.959070e-01  3.763817e-04  2.213294e-01  -4.369039e-02  2.302466e-01  -8.172871e-02  -2.352133e-01  2.048675e-01  -1.319124e-01  -2.416762e-02  3.521241e-01  1.626934e-01  -4.694254e-02  -1.490865e+00  -1.007201e-01  -9.239742e-02  1.473274e-01  1.496420e-01  1.532114e-01  -2.297376e-01  4.223267e-02  -1.932395e-01  -1.276856e-03  1.561915e-01  -1.053470e-01  1.224502e-01  -1.678166e-01  1.368318e-01  1.535083e-01  -1.996304e-01  -2.379166e-01  -1.162567e-01  2.249556e-01  9.359077e-02  1.532315e-01  -6.238766e-01  -1.216232e-01  4.557256e-02  1.476945e-01  -7.926456e-01  2.314941e-01  -8.304251e-02  1.693408e-01  2.149711e-01  -3.953692e-01  -7.191339e-02  -3.241349e-02  1.297201e-01  3.329170e-01  1.767094e-01  -2.330015e-01  9.970367e-02  6.286310e-02  1.056980e-02  1.361688e-01  1.836165e-01  1.889746e-01  2.262571e-01  -1.131875e-01  -1.056885e-01  -6.319581e-01  8.398242e-02  -2.288924e-01  1.727401e-01  3.513709e-03  3.288012e-01  -1.369954e-01  -1.777866e-01  -4.647978e-02  -2.821766e-01  -1.296292e-01  4.184199e-02  -1.204808e-01  6.669518e-02  -8.395645e-02  1.596512e-01  -8.383089e-02  2.075276e-01  -4.313491e-02  -2.851457e-02  -1.960140e-01  2.021658e-01  1.448544e-01  2.290496e-02  -1.487176e-01  -2.257692e-01  2.281318e-01  -5.878790e-02  -1.622137e-01  1.885452e-01  -4.978754e-01  1.229414e-01  -1.371465e-01  9.980999e-02  -1.878147e-01  2.042456e-01  -9.870249e-02  2.131927e-01  8.356360e-02  2.362898e-01  -7.980191e-02  7.721809e-02  3.306763e-01  4.090655e-02  3.748662e-01  2.333532e-01  -3.860223e-01  -1.285856e-01  2.130742e-01  -2.279094e-01  -7.823926e-02  -1.467558e-01  2.931032e-01  -1.810634e-01  -2.256601e-01  -1.316760e-02  -8.050188e-03  2.884712e-01  -1.006459e+00  -7.289647e-02  -1.752917e-01  -3.531204e-01  6.231236e-02  3.296015e-02  -8.637903e-02  -9.993061e-02  -2.475111e-01  -5.201625e-02  7.400969e-02  8.113045e-02  1.812769e-01  1.393322e-01  2.388618e-01  1.090685e-01  -6.109069e-01  -7.772963e-02  5.766810e-02  -4.458166e-02  -2.129433e-01  -2.219666e-01  -1.191610e-01  -1.854383e-01  9.065465e-01  1.204814e-01  5.628238e-02  2.935969e-02  -2.954213e-01  1.909362e-01  9.586877e-02  -1.593259e-01  -1.136527e-01  -2.476748e-02  -1.326007e-01  6.178801e-03  6.817971e-02  -1.029636e-01  1.635762e-01  -3.535874e-02  -2.265190e-01  -7.840895e-02  -3.051313e-01  2.484304e-01  4.240092e-02  -1.427708e-01  -6.792059e-02  -2.989084e-01  4.834708e-02  1.962522e-01  -2.175211e-01  1.702900e-01  2.606511e-01  -9.472420e-02  -5.648393e-02  -2.033917e-01  2.193463e-01  1.841138e-01  2.234232e-01  -3.767806e-01  3.632136e-01  -6.938954e-02  4.192375e-03  1.589856e-01  2.294089e-01  1.485117e-01  4.082300e-01  -1.439863e-01  -1.668438e-01  -1.188033e-02  1.743789e-01  1.278770e-01  -1.355437e-01  -1.542657e-01  -4.297986e-01  -2.295090e-01  2.018613e-01  -2.057794e-01  -3.006730e-02  2.033305e-01  2.282511e-03  -2.086195e-01  2.579406e-02  2.567996e-02  -1.800212e-02  1.478842e-02  1.404608e-01  -2.284239e-02  -3.209650e-01  -1.005086e-01  9.664136e-02  1.032803e-01  9.088030e-02  1.375975e-02  1.564797e-01  1.286275e-01  -4.240192e-01  5.260039e-02  1.897604e-01  -2.839332e-01  -4.381642e-01  -1.377028e-01  -4.571880e-01  -7.314769e-01  -3.948782e-01  1.136886e-01  3.451210e-02  -6.335377e-01  1.299727e-01  -1.781195e-02  9.415858e-02  -5.816355e-02  1.364699e-01  3.264357e-01  1.925084e-01  -2.353885e-02  -3.404899e-02  2.261106e-03  -2.535735e-01  3.907699e-02  -2.032800e-01  3.658665e-01  -1.263255e-01  -1.740317e-01  3.269007e-01  -2.447105e-01  1.803529e-01  1.444742e-01  1.452712e-01  -3.377167e-02  6.004623e-02  1.972223e-01  1.178527e-01  -9.081577e-02  -1.565444e-01  -1.094475e-01  -7.887380e-02  -1.414172e-01  -2.234840e-02  7.385278e-02  -2.998688e-02  -4.283999e-02  8.756489e-02  1.173873e-01  -2.285280e-01  5.274054e-02  4.144988e-02  4.119400e-02  -2.123724e-02  -1.752470e-01  -5.879216e-02  -1.107085e-01  6.408360e-02  -5.004672e-02  2.172877e-01  -6.109273e-02  2.110682e-01  5.289841e-03  1.769063e-01  2.679596e-02  -1.107872e-02  3.644419e-02  -1.534357e-01  -2.117143e-01  -1.904277e-01  2.528806e-01  1.374441e-01  -1.810707e-02  1.861448e-01  -8.442508e-02  5.950574e-02  -7.154659e-02  2.014841e-01  3.727358e-01  -2.522053e-01  -1.643968e-01  -1.085679e-01  8.645669e-02  5.777813e-02  -5.136119e-02  -1.805030e-01  1.920698e-03  -2.461597e-01  -1.765660e-01  3.215458e-01  -1.158906e-01  -2.355009e-01  5.654217e-02  1.409822e-01  -3.944230e-02  -1.376192e-01  2.269124e-01  -1.031814e-01  -6.363202e-02  1.630313e-01  -1.889590e-01  -9.672252e-02  -1.052458e-02  8.491389e-02  7.250899e-03  1.735746e-01  -2.574962e-01  2.799493e-01  3.148292e-02  2.936737e-01  1.275896e-01  -1.126769e-01  1.579030e-01  1.155110e-01  2.436739e-01  7.045924e-02  -2.796817e-01  2.606732e-01  -2.873825e-02  1.187696e-01  1.925367e-01  -1.381382e-02  4.151557e-02  -7.733147e-02  3.117325e-01  -1.932235e-02  -8.407069e-02  -2.617182e-01  -2.807252e-02  -3.285201e-02  -2.237423e-01  3.633053e-01  -1.314310e-01  7.596247e-02  -2.232988e-01  2.912177e-01  -1.401196e-01  2.028233e-01  -4.073624e-01  -2.966180e-01  1.961757e-01  5.237732e-01  -4.320437e-01  1.054563e-01  1.013017e-01  -1.645240e-01  -1.923180e-01  1.159938e-01  3.107818e-01  -1.876492e-01  1.340844e-01  -3.526313e-01  8.235277e-02  1.431275e-01  9.314840e-02  -6.003077e-02  1.726643e-01  3.035985e-01  -8.581898e-02  1.338453e-01  1.769018e-01  3.426500e-01  1.433861e-01  2.014485e-02  1.726373e-01  -9.034084e-02  -9.804362e-02  -2.139156e-01  -2.085563e-01  1.699865e-01  2.114260e-01  -1.501525e-01  1.374362e-01  2.815687e-01  -4.284260e-01  1.041003e-01  4.473212e-02  6.457172e-02  -2.652691e-01  9.895621e-02  1.350098e-01  -6.960707e-03  1.107055e-01  -2.466275e-04  -3.645957e-02  -1.277300e-01  -1.718494e+00  -1.021815e-02  -3.794175e-02  -8.450338e-01  1.359754e-01  -7.367445e-01  -7.128780e-01  2.542878e-01  -2.993498e-01  6.460536e-02  1.459780e-01  -1.218715e+00  -1.640940e-03  8.767945e-02  -1.942249e-01  1.348539e-01  -7.363849e-02  -3.319456e-03  1.059122e-01  3.460853e-01  1.469197e-01  2.640322e-01  1.292160e-01  1.386970e-01  -1.892671e-02  3.429288e-01  -1.490067e-01  -2.158356e-01  -1.656452e-01  1.778861e-01  -8.813867e-01  -2.215489e-02  -1.262271e-01  2.992930e-02  -3.486212e-01  -3.698682e-01  -1.513239e-01  1.359647e-02  1.790348e-01  -1.421682e-01  -2.204048e-01  -4.520716e-01  -6.758120e-01  3.371863e-02  1.243297e-01  -2.317685e-02  -7.430417e-02  6.398521e-03  -1.271352e-01  2.065161e-01  5.220239e-02  2.884764e-02  5.165920e-02  1.259004e-01  2.173502e-01  -2.731245e-01  1.279758e-01  1.695098e-01  1.531175e-01  4.555032e-02  -2.073919e-01  2.910640e-02  -1.918240e-01  -1.898062e-01  1.856995e-01  6.486707e-02  1.550716e-01  1.363835e-01  -2.543227e-02  -1.211212e-01  -1.223943e-02  2.133865e-02  4.029189e-02  1.933692e-01  6.307985e-03  -2.014772e-01  1.266694e-01  -1.273154e-01  3.251638e-01  1.668550e-01  1.405920e-01  4.780982e-02  1.156708e-01  8.571865e-02  1.229531e-01  2.649655e-01  -3.478250e-01  1.559388e-01  -4.115156e-01  -1.626189e-01  -2.438181e-01  2.047711e-01  -2.021469e-01  -4.983775e-01  -4.453693e-02  -1.134094e-01  5.331720e-02  -6.094833e-02  1.492776e-01  -6.803864e-02  -3.669021e-02  -2.273908e-01  -8.402084e-03  1.266692e-01  2.531893e-01  -2.577805e-01  1.011843e-01  1.044914e-01  1.123366e-01  -1.475620e-01  1.618431e-01  7.175949e-02  2.809858e-01  2.250316e-01  -1.347378e-01  -5.550446e-03  5.281048e-02  1.184422e-01  -7.476605e-02  -1.151241e-01  2.254121e-01  1.830969e-01  5.155912e-02  1.982830e-01  -8.623751e-02  -2.341123e-01  -1.095423e-01  -1.735537e-02  3.232053e-01  1.036818e-01  -1.814020e-01  -1.009379e-01  5.407575e-02  -2.465578e-02  7.134240e-02  1.090965e-01  1.058020e-01  1.582403e-01  2.185210e-01  7.479046e-02  8.036843e-02  1.999722e-01  -8.417277e-02  2.311384e-01  -7.154337e-02  2.272999e-01  -2.182936e-01  -1.498167e-01  2.287301e-01  -2.958975e-01  -2.618507e-01  1.003170e-01  1.742202e-01  8.645069e-02  -1.719952e-01  4.710809e-02  -1.856348e-01  8.992939e-02  1.589023e-01  6.309435e-02  1.239089e-01  2.563439e-01  8.255430e-02  2.675250e-01  3.399544e-01  -7.928738e-02  2.047593e-01  5.491629e-02  2.260832e-01  -1.825174e-01  2.610669e-01  -1.649848e-01  -2.713785e-03  9.765718e-03  -5.801658e-02  -5.804265e-02  6.622618e-02  2.010944e-01  2.062881e-01  1.607477e-02  1.040948e-01  2.711307e-01  9.517146e-02  7.110099e-02  -1.545993e-01  -2.880861e-01  1.415254e-01  -1.272812e-01  4.710571e-02  -5.474609e-02  7.307002e-02  4.593889e-02  -2.997707e-01  2.570829e-01  -1.873949e-02  5.588118e-02  8.936235e-02  -1.102982e-01  -2.197187e-01  2.268224e-01  -6.676023e-02  1.679644e-01  -1.893600e-01  -2.385251e-01  1.916090e-01  4.419059e-02  9.870204e-02  1.776484e-01  1.334943e-01  2.124803e-02  2.194756e-01  -5.017348e-01  1.317328e-01  6.489100e-02  -3.506560e-03  2.505015e-01  8.133708e-02  -3.193626e-01  -3.367318e-01  -9.146675e-01  -2.616443e-01  1.485286e-01  6.807455e-03  1.492552e-01  -7.693149e-02  1.266985e-01  -9.905275e-02  -3.759157e-02  -5.404711e-01  -9.733451e-02  1.274134e-01  9.219667e-02  1.357693e-03  -2.439847e-01  -1.137437e-01  -3.255712e-01  8.066618e-02  1.086615e-01  -1.152476e-01  2.041258e-01  2.295723e-01  -8.189461e-01  2.425913e-01  -8.214862e-01  -1.063579e-01  1.088737e-01  -1.972196e-01  1.219500e-02  -1.901915e-01  2.082178e-01  2.442661e-01  3.530328e-01  -3.449830e-02  4.159387e-01  5.233961e-02  4.433130e-01  3.751733e-01  -3.292544e-01  -5.600823e-01  2.340643e-01  1.893819e-01  1.338157e-01  1.337837e-01  -3.173257e-01  -7.058831e-02  -6.492012e-01  1.922562e-01  -1.707462e-01  -9.678408e-01  -1.866982e-01  -7.385125e-01  -5.659236e-01  -5.610198e-01  -1.237419e+00  9.569568e-02  -1.069497e-01  -2.974607e-01  6.422195e-02  1.120024e-02  6.044356e-02  5.414811e-01  -7.840548e-02  2.499678e-01  -9.193292e-02  1.061394e-01  -1.056039e-01  -2.475036e-01  -6.391796e-02  -4.263580e-01  -2.903153e-02  8.162403e-02  -8.364511e-01  -8.446899e-01  -9.751593e-01  -2.206722e-01  -8.079134e-01  -2.255334e-01  -2.327355e-01  -1.770141e-01  1.793899e-01  6.467804e-02  1.944597e-01  2.947215e-01  2.681749e-01  1.253909e-01  -2.150676e-01  7.572334e-02  -1.179785e-01  -1.667979e-01  1.299923e-04  -2.043377e-01  -1.116138e-01  2.481549e-02  2.184677e-02  -2.158704e-02  1.082274e-01  4.695819e-03  -8.509158e-02  1.349144e-01  2.471983e-01  -2.337835e-01  1.488104e-01  -1.007283e-01  -8.375572e-02  -4.432059e-02  -1.706229e-02  -8.121797e-02  1.917468e-01  -9.892598e-02  -1.709641e-01  2.913649e-02  2.659168e-01  1.731350e-01  -1.116744e-01  4.398680e-02  1.026318e-01  -8.450300e-02  1.098728e-01  -2.927013e-02  -3.490647e-02  -2.273924e-02  -2.494693e-01  -1.007315e-01  3.571808e-01  -1.200560e-01  -2.175969e-01  3.327462e-02  1.503108e-01  -1.734631e-01  6.288005e-02  -2.520569e-01  3.546572e-01  1.625072e-01  8.412555e-02  1.058991e-01  -5.865511e-02  -1.600399e-01  2.836602e-01  2.185621e-01  -2.166370e-01  -2.230046e-01  -5.036319e-01  -6.266075e-02  -1.491024e-01  -8.593511e-02  1.716887e-01  -2.006863e-01  -1.128488e-01  3.670529e-01  -7.622144e-01  -2.756908e-03  -3.545602e-02  1.405021e-01  1.959289e-01  4.400144e-02  3.708248e-02  3.644766e-02  2.008211e-01  -3.462879e-01  3.267761e-01  -8.562347e-02  -1.020436e-01  1.188535e-01  1.725849e-01  2.052027e-01  3.310406e-03  -2.045312e-01  9.521017e-02  7.319934e-02  -5.873306e-02  -1.883333e-01  1.930363e-01  1.632556e-02  -5.152403e-01  1.594587e-01  2.275688e-01  -4.218013e-01  3.933173e-02  -1.430835e-02  -2.550845e-02  7.159612e-02  -2.077128e-01  1.516369e-01  2.312712e-01  2.413146e-01  -1.694499e-01  8.209649e-02  -1.092827e-01  -2.948317e-02  3.672218e-03  5.176007e-02  -1.415774e-01  1.910407e-02  1.271680e-01  1.776312e-01  7.975069e-03  -1.145853e-02  -1.094363e-01  2.372459e-03  -6.631486e-02  -1.301886e-01  2.422341e-01  3.137282e-02  2.515116e-01  1.337099e-01  -2.165488e-02  1.909830e-01  -1.550073e-01  3.073176e-01  -4.975984e-02  -2.067973e-02  3.621686e-02  1.187239e-02  -1.842632e-01  1.155086e-01  1.184453e-01  2.540052e-01  1.705648e-01  2.016044e-01  -8.969360e-02  -1.129357e-03  -1.933842e-02  -4.622166e-02  2.134028e-01  6.149821e-02  -2.203045e-01  -9.217584e-02  2.019124e-01  2.436912e-01  -1.354601e-01  7.436252e-02  -8.436711e-02  -3.199528e-01  6.440308e-02  2.873749e-01  -7.324491e-02  4.448277e-01  -1.750048e-01  -1.839566e-01  3.948216e-02  5.693154e-02  -1.250805e-01  -1.250703e-01  2.388520e-01  -1.644669e+00  9.175695e-02  -6.215998e-01  1.751086e-01  -2.607445e-01  -1.356731e-01  -8.126767e-02  1.359354e-01  1.111046e-01  4.493912e-01  1.615150e-01  -4.398282e-01  3.627610e-02  1.124403e-01  -2.432636e-01  -1.747806e-01  -1.674459e-01  1.053182e-01  -5.181842e-03  2.190305e-01  1.641165e-01  1.071055e-01  -9.124030e-01  2.492586e-01  -1.641192e-02  -2.052838e-01  -2.069170e-01  2.408499e-01  -1.932209e-01  1.604095e-02  -9.004198e-02  -2.435324e-01  -7.737077e-03  -1.947269e-01  -2.464367e-02  4.563814e-02  -7.028420e-02  3.258555e-02  -1.133365e-01  -9.959047e-02  5.153435e-02  -2.439741e-01  -4.650095e-01  9.112412e-02  -1.176798e-03  1.978969e-02  -1.074322e-01  3.136425e-01  -2.837015e-01  2.968656e-01  -4.561489e-02  1.908662e-01  -1.785132e-02  9.023201e-02  2.819198e-01  8.811328e-02  8.618092e-02  -8.833478e-02  -5.314945e-02  8.306878e-02  -2.189740e-01  -7.060853e-01  -1.263309e-03  -2.208606e-01  5.379534e-01  -1.619679e-01  -1.267547e-01  -7.891990e-02  -9.964627e-02  1.050994e-01  -6.196099e-02  -3.826467e-02  2.629310e-01  -2.531227e-01  2.119618e-01  -1.058732e-01  -1.035946e-01  2.039031e-01  -5.506878e-02  2.351416e-01  -6.558335e-02  1.599398e-01  -1.423147e-01  -3.122804e-01  2.498322e-01  3.170826e-01  -8.099827e-01  -1.279752e-01  -1.723709e-01  -2.355724e-01  -1.479901e-01  -4.114296e-01  -8.905219e-02  -2.594816e-01  -1.819370e-02  -5.407184e-02  1.329960e-02  4.009516e-01  -1.388020e-01  7.915890e-02  5.548030e-01  -3.063707e-01  2.487638e-01  1.909281e-01  4.981473e-02  -1.162631e-01  1.755032e-01  1.201214e-01  -3.862219e-03  -3.414462e-02  9.471370e-02  6.164836e-01  -3.892476e-03  -2.264197e-01  -4.892128e-01  1.160133e-02  1.572087e-01  -7.116006e-02  -5.938479e-01  1.832129e-01  -5.268955e-02  -1.408684e-01  2.645694e-01  -1.333151e-01  -4.061227e-01  2.356437e-01  -1.265958e+00  1.893796e-01  1.903270e-01  -3.332847e-01  1.900174e-02  2.062890e-01  2.661179e-01  1.190055e-01  -4.640184e-03  1.234225e-01  1.977927e-01  -6.407627e-02  1.682250e-02  1.631313e-01  2.634658e-01  -1.440165e-01  4.497257e-01  2.534912e-01  1.247829e-01  1.179082e-01  2.219929e-01  8.396517e-02  1.171832e-01  3.094342e-01  -2.152305e-01  -1.310152e-01  -1.771318e-01  1.472042e-02  -2.550140e-01  8.793502e-02  -2.019470e-01  -1.037479e-01  -3.902876e-03  8.915646e-02  5.797168e-03  1.401170e-02  -2.813886e-02  1.978939e-02  3.456116e-01  5.361277e-02  -1.220916e-01  -2.194609e-02  -9.757120e-02  -6.096440e-02  1.675959e-01  1.270851e-02  1.035879e-01  8.007446e-02  -6.161018e-02  -1.899785e-01  2.277750e-01  2.157657e-01  -1.781679e-01  3.922703e-01  2.298769e-01  -1.249499e-01  4.287063e-02  -1.754790e-01  1.015409e-01  -3.351811e-04  1.774211e-02  2.284713e-01  -2.393532e-02  -7.120775e-02  -1.236153e-01  1.652546e-01  9.099182e-02  -1.321501e-01  1.062407e-01  -1.503347e-01  1.634124e-01  -5.248397e-02  2.059638e-01  -1.130663e-01  -1.453364e+00  4.089773e-01  -8.849265e-03  -2.746581e-02  -3.683017e-01  -2.411565e-01  -4.231462e-01  3.123434e-02  -2.542729e-01  2.790946e-01  8.419282e-02  3.449530e-01  2.440628e-01  -1.902158e-01  8.357719e-01  -5.569783e-01  -2.382640e-01  -2.599117e-01  1.844900e-01  -2.440080e-01  -3.140964e-02  -3.226103e-02  -1.118663e-01  -1.911633e-01  3.736574e-02  3.377104e-02  -1.052591e+00  1.999769e-01  1.737014e-01  3.059704e-01  1.179705e-01  -1.857024e+00  3.686493e-01  -1.152381e-01  7.206818e-02  1.212839e-01  5.457481e-02  2.583943e-01  7.265193e-03  -2.609186e-01  8.247723e-02  1.273264e-01  -3.720825e-01  1.595504e-01  -5.344917e-02  3.046017e-03  -1.330771e-02  -6.462631e-02  3.349646e-02  -3.027544e-01  1.905645e-01  -9.466729e-02  -1.139429e+00  5.130063e-03  8.577798e-02  1.778832e-01  -2.643513e-01  2.291678e-01  2.089125e-01  -8.188805e-02  -2.266339e-01  -1.676301e-01  7.333791e-02  -2.331144e-01  4.481681e-03  1.156161e-01  7.272510e-02  1.867675e-01  3.086673e-03  -1.977806e-01  -1.124392e-03  2.051393e-01  -7.088702e-01  1.974087e-01  -5.989245e-01  1.637371e-01  -8.498982e-02  1.722952e-01  8.331837e-03  -4.320848e-01  1.303908e-01  6.721506e-02  3.317188e-01  -1.410697e-01  
      </Weights>
      <Biases Rows="50" Columns="1">
        -1.743020e-01  -3.377878e-02  7.438598e-02  -6.707764e-02  -4.141326e-02  1.838470e-01  8.730286e-02  -1.744155e-02  2.667426e-02  -3.576324e-02  -6.898246e-02  -1.300670e-02  -3.839765e-02  -4.243049e-02  -8.906137e-02  -3.092514e-02  -3.132720e-02  5.513076e-02  2.320275e-02  8.069918e-02  4.695550e-02  -1.123651e-01  0.000000e+00  -3.897388e-02  1.348192e-01  5.816605e-02  -6.017261e-02  -4.812415e-02  4.446772e-03  -1.494288e-01  1.412088e-01  -1.178024e-01  1.161427e-01  8.029699e-02  1.608280e-02  -2.302326e-02  -5.482239e-03  4.768976e-02  2.632236e-02  5.697291e-02  -2.071079e-01  8.920353e-02  6.794734e-02  9.881361e-02  6.685968e-02  4.554844e-02  9.770064e-03  5.050395e-02  5.190015e-02  6.503340e-03  
      </Biases>
    </DenseLayer>
    <DenseLayer Width="4" ActivationFunction="0">
      <Weights Rows="4" Columns="50">
        3.051551e-01  1.918965e-01  -1.106763e-01  -1.942469e-01  1.052371e-01  -6.563348e-02  -9.507760e-02  1.184683e-01  -4.998607e-01  -1.625186e-02  7.560442e-01  1.218425e-01  -9.400330e-02  -1.183037e-01  2.990419e-01  -2.242078e-01  -1.691188e-01  -8.488474e-02  -3.108787e-01  -1.091882e-01  2.664506e-01  8.733662e-01  2.739653e-01  1.943105e-01  1.157265e-02  -2.806500e-01  2.864297e-02  3.104819e-01  3.006545e-01  2.418538e-01  -4.217122e-02  -6.679690e-01  7.812287e-03  -1.380070e-01  3.407063e-01  9.594576e-02  2.076546e-01  -3.149688e-01  1.501354e-01  -9.520528e-02  -5.773772e-02  -7.332908e-02  -2.028629e-01  -2.709000e-01  1.000814e-01  -8.661997e-02  4.139273e-01  -2.370940e-01  -3.598338e-02  3.592573e-01  -2.966423e-01  2.848878e-01  -2.917641e-01  2.688571e-01  1.772580e-01  -3.452837e-01  2.795079e-01  2.879122e-01  3.732076e-01  1.145158e-01  1.788367e-01  1.051160e-01  -3.061233e-01  -1.063362e-01  -3.291873e-01  -2.859391e-01  -1.955644e-01  -1.704794e-01  -2.394580e-01  -1.369872e-01  7.403082e-02  3.750007e-01  2.523563e-01  7.126867e-02  3.954913e-01  2.660162e-01  -2.611832e-01  -3.231184e-01  -3.309903e-01  3.966109e-01  -1.882497e-01  6.783357e-01  -2.947218e-01  2.493272e-01  3.138066e-01  -1.270958e-01  -2.409868e-01  2.457016e-01  2.426693e-01  -3.647555e-01  1.093790e+00  -2.311484e-03  8.653311e-02  2.172100e-01  -9.502407e-01  -1.249090e-01  1.279055e-01  -9.526318e-02  -1.158572e+00  2.888359e-01  -1.865185e-01  -1.642102e-01  7.280053e-02  -4.688795e-02  -2.018333e-01  -1.377445e-02  1.429708e-01  -5.244379e-02  1.221247e-01  -7.437267e-02  4.127046e-02  -8.726762e-02  -1.739932e-01  2.074580e-01  -9.401951e-02  -1.192267e-01  2.069198e-01  -1.297090e-02  -8.849172e-02  8.134297e-02  1.214350e-01  -6.235066e-02  3.247003e-01  -5.342383e-02  2.558323e-01  -4.298953e-02  -5.409135e-02  -1.780556e-01  -1.871857e-01  2.028912e-01  2.318978e-01  3.781079e-02  2.645673e-01  6.062287e-02  1.206352e-01  -6.919518e-02  -3.349515e-02  2.600963e-02  3.137044e-01  -9.942559e-02  -8.392651e-02  2.291083e-01  9.171685e-03  1.871762e-01  -3.546563e-01  1.114078e-01  6.503960e-02  -1.451796e-01  -4.449200e-01  -2.571093e-02  -9.203261e-01  -3.096575e-01  -1.690383e-01  -1.476616e-01  -8.366853e-04  -4.103557e-01  3.136543e-01  1.427838e-01  4.812472e-01  -8.364540e-02  1.642809e-01  -1.699983e-01  1.850972e-01  9.488468e-02  -8.582345e-02  -1.987707e-02  -5.043040e-03  7.283522e-01  -2.881214e-01  -1.596114e-01  -6.573769e-02  -8.143657e-02  -2.674226e-02  -9.779485e-03  6.518367e-01  2.192953e-01  2.922100e-01  -1.979839e-01  -5.394415e-01  -8.603306e-01  3.116384e-01  2.891625e-01  1.075938e-01  -2.154671e-01  5.447395e-02  9.443901e-01  3.339628e-01  -9.319299e-02  -1.373622e-01  -9.381483e-02  3.524993e-01  -9.638438e-02  3.882011e-01  -1.228547e-01  1.022901e-01  -4.196302e-01  3.250793e-01  -3.612580e-01  -4.764849e-01  2.245648e-01  
      </Weights>
      <Biases Rows="4" Columns="1">
        -1.013185e-01  -6.582608e-03  1.694402e-01  -3.199746e-02  
      </Biases>
    </DenseLayer>
  </Weights>
</MethodSetup>
