<?xml version="1.0"?>
<MethodSetup Method="DL::DNN_CPU">
  <GeneralInfo>
    <Info name="TMVA Release" value="4.2.1 [262657]"/>
    <Info name="ROOT Release" value="6.24/06 [399366]"/>
    <Info name="Creator" value="rshara01-local"/>
    <Info name="Date" value="Wed Sep 22 16:38:53 2021"/>
    <Info name="Host" value="Darwin christophers-mac-mini.home 20.6.0 Darwin Kernel Version 20.6.0: Wed Jun 23 00:26:27 PDT 2021; root:xnu-7195.141.2~5/RELEASE_ARM64_T8101 arm64"/>
    <Info name="Dir" value="/Users/rshara01-local/WORK/linacTune/tmva"/>
    <Info name="Training events" value="5000"/>
    <Info name="TrainingTime" value="3.25674510e+00"/>
    <Info name="AnalysisType" value="Regression"/>
  </GeneralInfo>
  <Options>
    <Option name="V" modified="Yes">True</Option>
    <Option name="VerbosityLevel" modified="No">Verbose</Option>
    <Option name="VarTransform" modified="Yes">N</Option>
    <Option name="H" modified="Yes">False</Option>
    <Option name="CreateMVAPdfs" modified="No">False</Option>
    <Option name="IgnoreNegWeightsInTraining" modified="No">False</Option>
    <Option name="InputLayout" modified="No">0|0|0</Option>
    <Option name="BatchLayout" modified="No">0|0|0</Option>
    <Option name="Layout" modified="Yes">TANH|50,TANH|50,TANH|50,LINEAR</Option>
    <Option name="ErrorStrategy" modified="Yes">SUMOFSQUARES</Option>
    <Option name="WeightInitialization" modified="Yes">XAVIERUNIFORM</Option>
    <Option name="RandomSeed" modified="No">0</Option>
    <Option name="ValidationSize" modified="No">20%</Option>
    <Option name="Architecture" modified="Yes">CPU</Option>
    <Option name="TrainingStrategy" modified="Yes">LearningRate=1e-3,Momentum=0.3,ConvergenceSteps=20,BatchSize=30,TestRepetitions=1,WeightDecay=0.0,Regularization=None,Optimizer=Adam</Option>
  </Options>
  <Variables NVar="3">
    <Variable VarIndex="0" Expression="RFQPAH_R" Label="RFQPAH_R" Title="RFQ phase" Unit="units" Internal="RFQPAH_R" Type="D" Min="1.28002930e+02" Max="1.90002441e+02"/>
    <Variable VarIndex="1" Expression="RFBPAH_R" Label="RFBPAH_R" Title="buncher phase" Unit="units" Internal="RFBPAH_R" Type="D" Min="2.15795898e+02" Max="2.58337402e+02"/>
    <Variable VarIndex="2" Expression="V5QSET_R" Label="V5QSET_R" Title="tank5 phase" Unit="units" Internal="V5QSET_R" Type="D" Min="-3.30000000e+01" Max="-2.85000000e+01"/>
  </Variables>
  <Spectators NSpec="6">
    <Spectator SpecIndex="0" Expression="RFQPAH_S" Label="RFQPAH_S" Title="RFQ phase Set" Unit="degrees" Internal="RFQPAH_S" Type="F" Min="1.28002930e+02" Max="1.90002441e+02"/>
    <Spectator SpecIndex="1" Expression="RFBPAH_S" Label="RFBPAH_S" Title="buncher phase Set" Unit="degrees" Internal="RFBPAH_S" Type="F" Min="2.14996277e+02" Max="2.56997131e+02"/>
    <Spectator SpecIndex="2" Expression="V5QSET_S" Label="V5QSET_S" Title="Tank 5 phase" Unit="degrees" Internal="V5QSET_S" Type="F" Min="-3.30000000e+01" Max="-2.85000000e+01"/>
    <Spectator SpecIndex="3" Expression="TO1IN_R" Label="TO1IN_R" Title="to1in" Unit="units" Internal="TO1IN_R" Type="F" Min="2.22277756e+01" Max="2.42592621e+01"/>
    <Spectator SpecIndex="4" Expression="TO5OUT_R" Label="TO5OUT_R" Title="to5out" Unit="units" Internal="TO5OUT_R" Type="F" Min="-4.08233719e+01" Max="3.42947617e+01"/>
    <Spectator SpecIndex="5" Expression="TO3IN_R" Label="TO3IN_R" Title="to3in" Unit="units" Internal="TO3IN_R" Type="F" Min="-1.02136169e+02" Max="1.00574913e+02"/>
  </Spectators>
  <Classes NClass="1">
    <Class Name="Regression" Index="0"/>
  </Classes>
  <Targets NTrgt="3">
    <Target TargetIndex="0" Expression="LMSM" Label="LMSM" Title="LMSM" Unit="" Internal="LMSM" Type="F" Min="1.34887695e+00" Max="3.99658203e+01"/>
    <Target TargetIndex="1" Expression="D7TOR_R" Label="D7TOR_R" Title="D7TOR_R" Unit="" Internal="D7TOR_R" Type="F" Min="2.41185451e+00" Max="2.93067665e+01"/>
    <Target TargetIndex="2" Expression="D00LM_R" Label="D00LM_R" Title="d00lm" Unit="" Internal="D00LM_R" Type="F" Min="3.05175781e-03" Max="8.72802734e-01"/>
  </Targets>
  <Transformations NTransformations="1">
    <Transform Name="Normalize">
      <Selection>
        <Input NInputs="6">
          <Input Type="Variable" Label="RFQPAH_R" Expression="RFQPAH_R"/>
          <Input Type="Variable" Label="RFBPAH_R" Expression="RFBPAH_R"/>
          <Input Type="Variable" Label="V5QSET_R" Expression="V5QSET_R"/>
          <Input Type="Target" Label="LMSM" Expression="LMSM"/>
          <Input Type="Target" Label="D7TOR_R" Expression="D7TOR_R"/>
          <Input Type="Target" Label="D00LM_R" Expression="D00LM_R"/>
        </Input>
        <Output NOutputs="6">
          <Output Type="Variable" Label="RFQPAH_R" Expression="RFQPAH_R"/>
          <Output Type="Variable" Label="RFBPAH_R" Expression="RFBPAH_R"/>
          <Output Type="Variable" Label="V5QSET_R" Expression="V5QSET_R"/>
          <Output Type="Target" Label="LMSM" Expression="LMSM"/>
          <Output Type="Target" Label="D7TOR_R" Expression="D7TOR_R"/>
          <Output Type="Target" Label="D00LM_R" Expression="D00LM_R"/>
        </Output>
      </Selection>
      <Class ClassIndex="0">
        <Ranges>
          <Range Index="0" Min="1.2800292968750000e+02" Max="1.9000244140625000e+02"/>
          <Range Index="1" Min="2.1579589843750000e+02" Max="2.5833740234375000e+02"/>
          <Range Index="2" Min="-3.3000000000000000e+01" Max="-2.8500000000000000e+01"/>
          <Range Index="3" Min="1.3488769531250000e+00" Max="3.9965820312500000e+01"/>
          <Range Index="4" Min="2.4118545055389404e+00" Max="2.9306766510009766e+01"/>
          <Range Index="5" Min="3.0517578125000000e-03" Max="8.7280273437500000e-01"/>
        </Ranges>
      </Class>
    </Transform>
  </Transformations>
  <MVAPdfs/>
  <Weights NetDepth="4" InputDepth="1" InputHeight="1" InputWidth="3" BatchSize="1" BatchDepth="1" BatchHeight="30" BatchWidth="3" LossFunction="R" Initialization="F" Regularization="0" OutputFunction="I" WeightDecay="0.0000000000000000e+00">
    <DenseLayer Width="50" ActivationFunction="3">
      <Weights Rows="50" Columns="3">
        1.515122e-01  -5.076324e-01  2.197858e-02  -4.042891e-01  -5.591484e-01  3.281778e-01  1.813571e-01  -1.940521e-01  2.090771e-02  -2.714329e-01  2.400738e-01  4.282022e-01  -2.996184e-01  -2.896126e-02  6.343834e-01  3.938246e-01  -1.661349e-01  7.283395e-02  -5.190830e-02  4.744579e-01  4.986721e-01  -2.831986e-01  2.604877e-01  -6.368841e-01  8.780868e-03  1.230344e-01  5.486041e-01  1.552729e-01  -7.599910e-01  -6.548818e-01  -2.045519e-01  -3.272394e-01  7.842314e-01  8.540237e-01  -3.701852e-01  -3.720100e-01  -8.760048e-01  -9.478018e-02  2.118994e-01  -1.662078e-01  -2.485417e-01  -6.202091e-01  -5.608002e-02  -3.444203e-01  -7.222791e-01  6.613383e-01  -8.348520e-01  -1.395195e-01  5.413425e-02  6.633855e-01  4.101625e-01  -4.056637e-02  4.334994e-01  -1.594730e-01  1.415697e-01  -3.070247e-01  1.749346e-01  -4.900029e-01  4.876935e-01  -4.274743e-01  2.202272e-01  4.155507e-01  -5.666637e-01  2.706039e-01  -2.264241e-01  1.924172e-01  -4.907199e-01  -2.065828e-01  3.961269e-01  2.030050e-01  -4.822351e-01  3.746895e-01  -1.225398e-01  4.707434e-01  1.952683e-01  1.075982e-01  -7.434403e-02  4.709135e-01  -2.773663e-01  3.644240e-01  2.294178e-01  -5.133927e-01  3.090036e-01  1.316293e-01  -4.871793e-01  6.556955e-02  -5.307804e-01  -4.155033e-01  -3.490590e-01  3.207197e-02  5.450026e-01  2.330574e-01  2.288173e-01  -6.047398e-01  2.363157e-02  2.955044e-01  1.826867e-01  -1.393971e-01  4.093893e-01  -3.738898e-01  4.773797e-01  -1.830673e-01  -1.037332e-01  1.249644e-02  6.061984e-01  4.596783e-01  2.143057e-01  -4.588999e-01  1.893000e-01  5.858358e-01  3.805422e-02  -5.678332e-02  -6.501707e-01  -1.500718e-01  1.303352e-01  -1.158619e-01  2.657164e-01  -4.294575e-01  -1.441547e-01  6.578467e-01  -2.372192e-01  -3.961030e-01  -4.318185e-01  2.015541e-01  -2.649572e-01  8.260913e-02  1.550955e-01  -4.907573e-01  -5.512363e-01  2.970336e-02  -5.305454e-01  -1.271546e-01  -5.859797e-02  1.778400e-01  6.490490e-01  -2.972707e-01  -4.535996e-01  -4.772385e-01  1.237386e-01  -4.331207e-01  -2.999319e-01  4.439457e-01  5.067179e-01  -3.125610e-01  1.979470e-01  -1.028989e-01  2.581811e-01  -4.058381e-01  9.314206e-03  -3.059389e-01  
      </Weights>
      <Biases Rows="50" Columns="1">
        -4.144671e-01  -2.070274e-01  1.238510e-01  1.568761e-01  2.272658e-01  1.872342e-01  1.371392e-01  -3.149698e-01  2.160147e-01  3.705656e-01  1.469674e-01  -7.764804e-01  5.197019e-01  2.729115e-01  -1.244010e-01  1.622948e-01  -2.897408e-01  1.116923e-01  1.411083e-01  4.210788e-01  -3.814773e-01  3.417547e-01  2.199647e-01  1.222413e-02  4.930102e-01  1.796962e-01  -1.550349e-01  -3.233550e-01  5.231926e-01  -5.841269e-02  -1.328920e-01  4.553466e-01  2.051624e-01  6.446783e-01  2.006774e-01  -8.744762e-02  -2.099385e-01  -4.581992e-01  -1.341117e-01  -3.477344e-01  2.698834e-03  2.411088e-01  8.349032e-02  -3.037968e-01  3.012008e-01  -4.187223e-02  -2.935161e-01  9.509211e-02  2.384830e-01  -2.911111e-01  
      </Biases>
    </DenseLayer>
    <DenseLayer Width="50" ActivationFunction="3">
      <Weights Rows="50" Columns="50">
        9.313835e-02  -6.511305e-02  -1.386702e-01  -2.319918e-01  -2.216772e-01  -1.190242e-01  -3.297564e-02  -1.126151e-01  -1.911218e-01  -1.029125e-01  -1.938475e-01  2.093226e-02  1.752566e-01  -4.482083e-02  2.589165e-02  6.609277e-03  -1.202253e-01  -1.369751e-01  1.821558e-01  -2.055442e-01  2.502356e-01  5.981668e-02  1.058504e-01  7.308300e-02  -1.197204e-02  1.833306e-02  -3.753962e-02  5.270862e-02  -2.237147e-01  5.204960e-02  7.263024e-02  7.767516e-02  -1.820046e-01  1.667923e-01  -2.282609e-01  1.683192e-01  1.534901e-01  -6.926361e-02  2.693203e-02  -3.499219e-02  -8.374364e-02  -1.060509e-01  1.819317e-01  -1.339039e-01  -2.525305e-01  6.872476e-02  1.346725e-01  -7.314794e-02  1.754750e-01  2.495600e-01  2.767865e-01  -1.077742e-01  2.815162e-01  -1.744018e-01  2.132548e-01  5.980400e-01  1.020818e-01  -2.672348e-01  5.683611e-03  1.824998e-01  -1.156778e-01  4.687636e-02  -1.245061e-01  3.084690e-01  -2.943968e-01  2.217909e-01  -2.006138e-01  -2.152190e-01  1.484723e-01  -1.974386e-01  -2.064768e-01  5.501146e-01  -2.924046e-01  1.233475e-01  2.594227e-01  4.244641e-01  -3.557914e-01  -6.838781e-01  -4.195742e-02  -3.253785e-01  2.913353e-01  1.104043e-01  5.283284e-01  8.540256e-02  -1.207409e-01  3.921472e-01  -2.692311e-01  -2.519866e-01  6.741678e-03  -3.556861e-01  -2.616991e-01  6.248956e-01  2.947422e-02  2.035681e-01  1.856897e-01  2.230614e-01  6.267332e-02  2.938199e-01  5.613723e-01  -6.333463e-01  -2.043070e-01  -1.528235e-01  2.625265e-01  3.360566e-02  1.059652e-01  2.675048e-01  -8.122771e-02  -1.242798e-01  -2.336057e-01  -1.277001e-01  1.258038e-01  2.302078e-01  -2.740935e-01  -3.066339e-02  2.520049e-01  1.764538e-02  1.496675e-01  1.667111e-01  2.434940e-01  7.871488e-02  1.349770e-01  -8.852517e-02  1.221497e-01  -6.147906e-03  -2.223621e-01  6.020126e-04  -6.256843e-02  -4.438327e-02  1.854566e-01  -1.286794e-01  -6.480999e-02  -4.026319e-02  -3.717810e-02  -2.954657e-01  -2.099992e-01  -1.293309e-01  -8.976592e-02  -3.052141e-02  -4.207410e-02  2.601536e-02  -1.342584e-01  -3.750013e-02  -1.207503e-01  -3.954205e-02  -3.202024e-01  -7.231924e-03  2.165048e-01  -4.759999e-03  -4.477153e-02  -3.310811e-02  1.736963e-01  8.898304e-03  5.372713e-01  -2.003111e-01  4.511862e-01  4.379615e-01  -6.930600e-01  -5.125086e-01  -6.128424e-02  1.267706e+00  2.643482e-01  -4.625243e-01  8.554071e-01  4.545258e-01  4.989115e-01  4.468507e-01  -1.724608e+00  -5.148679e-01  6.003746e-01  -1.752807e-01  -1.251746e+00  6.318417e-01  6.728550e-01  3.859657e-01  1.834975e-01  3.513247e-01  -5.986908e-01  -2.950705e-01  4.466999e-02  1.276057e-01  -7.322231e-01  6.746168e-01  2.569943e-01  1.188601e-01  3.583619e-01  -3.540037e-01  -1.281305e+00  4.613651e-02  -1.695600e-01  -3.821660e-01  6.456872e-01  7.606314e-01  9.151486e-01  1.639538e-01  -1.818537e-01  5.687237e-01  3.716661e-01  -4.339443e-01  4.035626e-01  -6.479187e-02  8.262181e-01  2.622440e-01  -9.428511e-02  -1.070146e-01  3.861311e-02  2.411463e-01  6.338328e-02  -1.031433e-01  -2.131311e-01  2.083496e-02  2.949194e-01  4.093768e-01  -3.558086e-01  -2.630246e-01  -9.622616e-02  -7.930287e-03  1.934722e-01  -4.256092e-01  3.481531e-01  -7.805388e-01  -2.912070e-01  -2.480733e-01  -4.993110e-02  4.561772e-01  -8.016173e-01  -5.242364e-02  1.212070e-01  8.012465e-02  -5.005197e-01  1.672830e-01  -3.426966e-03  -3.590627e-02  2.447050e-01  -1.117153e+00  -2.377928e-02  2.045470e-02  -3.697869e-01  6.726190e-01  2.369944e-01  2.527964e-01  6.455345e-03  -1.258520e-01  2.312106e-01  4.831033e-01  -3.478321e-01  2.935135e-01  3.602705e-01  -4.316786e-01  -1.115014e-01  2.616410e-01  3.790367e-01  2.606249e-01  2.102305e-01  -3.198852e-01  -1.455193e-01  7.697937e-02  -3.707206e-01  1.511607e-01  -3.659851e-02  3.588136e-01  -1.682369e-01  1.214319e-01  1.457924e-01  1.046401e-01  5.311920e-01  -1.158357e-01  -3.553677e-01  -3.010718e-01  3.963980e-02  -1.545325e-04  -3.043099e-02  1.185773e-01  3.061003e-02  2.686423e-01  -2.322751e-01  -3.616457e-02  4.578538e-02  -3.152698e-03  -7.772800e-02  4.306304e-01  5.030192e-02  -2.805048e-01  7.137463e-03  -3.855427e-01  8.880350e-02  -7.680552e-02  -1.984936e-01  8.019857e-01  1.966356e-01  2.261417e-01  3.131849e-01  -2.360108e-01  3.936971e-01  7.947063e-01  -3.615929e-01  5.352486e-01  4.406426e-01  -4.548035e-01  -3.658830e-02  5.829475e-02  7.146366e-01  6.988268e-01  5.113640e-02  -1.605545e-01  3.323753e-01  -3.260133e-01  -3.443749e-01  1.400495e-01  3.485484e-02  2.019027e-01  2.868769e-01  4.602805e-01  1.715128e-01  -4.599333e-01  -7.917105e-03  -2.291312e-02  -1.623413e-01  -4.693969e-01  -1.389475e-01  -1.802831e-02  -1.037019e-01  5.949625e-02  3.480574e-01  -8.903446e-02  -6.819535e-01  2.664476e-01  2.840844e-01  3.091700e-01  -2.872870e-01  5.509260e-01  -4.534548e-02  -3.905148e-02  2.253042e-01  -6.254570e-01  1.269853e-01  -3.373189e-01  -1.314431e-01  1.163709e+00  3.047191e-01  3.057966e-01  3.305164e-01  -2.874027e-01  1.579789e-01  7.688133e-01  5.177389e-02  1.839650e-01  6.249138e-01  -8.485096e-01  -1.595091e-01  3.629797e-01  -1.256598e-01  1.455290e-01  -8.715687e-02  -2.444299e-01  9.016972e-02  2.501186e-02  2.047961e-01  2.439736e-02  1.638333e-01  -3.844505e-01  1.194662e-01  4.041257e-01  -7.430153e-01  -4.865428e-01  -3.565775e-01  -1.924025e-01  3.214411e-01  1.037537e-01  5.735087e-02  -3.041787e-01  2.030820e-01  -1.688198e-03  -4.642342e-01  -2.098802e-01  -1.938775e-01  1.688492e-01  -8.667628e-02  -1.945020e-01  -5.258561e-01  -7.863511e-02  5.385528e-01  -4.269137e-01  -1.166096e-01  -2.665225e-01  2.001964e-01  3.056753e-01  3.377708e-02  -1.073835e-01  2.892866e-01  -3.800644e-02  -3.938334e-01  3.573427e-03  -1.181080e-01  2.169386e-02  -9.327168e-02  -4.413287e-01  1.263652e-02  2.105898e-01  1.921705e-01  -1.884305e-02  -1.705229e-02  -3.517044e-02  -1.047660e-01  -6.439870e-02  -1.435141e-01  -1.422559e-01  2.577493e-01  1.170561e-01  -1.679318e-01  -5.768120e-02  -1.690171e-01  1.111244e-01  1.632217e-01  4.049580e-02  3.109078e-02  5.460312e-02  -1.738975e-01  1.232817e-01  9.909871e-02  -1.017674e-01  1.642435e-01  -2.020008e-01  -7.321410e-02  -1.379341e-01  -1.411034e-01  -7.417736e-02  -2.150881e-01  -1.347906e-01  -4.512354e-02  -2.942344e-01  -1.685163e-01  -4.016542e-02  -1.794455e-01  -1.733831e-01  6.257947e-02  -6.614644e-02  6.871195e-02  -2.420522e-01  -1.405858e-01  2.555769e-02  1.562474e-01  3.936361e-02  -3.499800e-03  -1.130560e-02  -1.032341e-01  -1.907691e-01  2.061730e-01  8.499878e-02  -9.390645e-02  -1.402827e-01  4.303182e-02  -8.821508e-02  1.601214e-01  2.340202e-01  1.276718e-01  -1.575635e-01  -3.993806e-02  -5.648983e-02  -3.343149e-02  1.263279e-01  1.159295e-01  1.913293e-01  2.230360e-02  -9.036394e-02  -1.752177e-01  -1.470363e-01  9.295077e-02  -5.469416e-02  2.151383e-01  -1.513475e-01  3.051843e-01  1.620799e-01  -5.678268e-02  6.131292e-02  -9.073669e-02  -6.129602e-02  1.880673e-01  2.136298e-01  1.738276e-01  1.878501e-02  -2.410696e-01  -2.411623e-01  2.636602e-01  1.051868e-01  4.125516e-02  3.402154e-02  1.168309e-01  -1.724457e-01  1.902067e-01  -1.929382e-01  1.890208e-03  -2.134210e-01  -1.181286e-02  -5.244861e-02  -1.472845e-01  2.565688e-01  6.285769e-02  8.202451e-02  2.122208e-01  -1.010654e-01  -1.984166e-01  1.297940e-01  -4.076618e-01  4.858648e-01  5.023366e-01  -5.135800e-01  3.010012e-01  3.286765e-01  2.593227e-01  -3.749475e-01  2.684971e-01  -6.804703e-01  5.804387e-01  -3.151290e-02  -2.992951e-01  -1.174526e+00  1.132667e-01  1.369345e-01  -2.101321e-01  5.186953e-01  6.272352e-02  -3.599665e-01  2.332379e-02  -3.867807e-01  2.450061e-01  -1.941920e-01  6.948308e-01  4.985941e-01  4.241383e-01  -1.241182e-01  -2.285974e-01  2.768796e-01  -4.161803e-01  1.307284e-01  9.817860e-02  -1.625075e-01  2.202824e-01  -7.052649e-02  1.236371e-01  2.306636e-01  -3.686525e-02  -2.294278e-01  -5.797671e-01  -3.446516e-01  1.767479e-01  7.598021e-02  -1.819886e-01  -1.229917e-01  -1.862037e-01  2.789496e-01  5.960866e-01  2.500136e-01  1.791722e-01  -6.886979e-01  -5.144945e-01  1.731278e-01  -5.441470e-01  -2.545503e-01  -1.085783e-02  4.601904e-01  -2.100223e-01  9.713266e-01  -5.757040e-01  -4.195190e-01  1.995645e-01  8.188568e-01  6.204193e-02  -6.721073e-01  3.301787e-01  -8.508766e-01  -1.009884e-01  2.466627e-01  -4.911419e-01  7.557279e-01  -5.327933e-01  5.938133e-02  -9.436593e-01  -3.807693e-01  -6.023495e-01  -1.844196e-01  2.359343e-01  -4.332170e-01  3.170531e-01  -7.606854e-01  -2.005399e-01  2.445946e-01  -4.419943e-01  5.706856e-01  2.725089e-01  -8.236494e-02  6.882331e-02  2.088683e-01  6.643429e-01  6.157960e-01  -2.179518e-01  -2.275177e-01  7.273155e-01  1.170952e-01  2.094226e-01  -1.434714e-01  3.696101e-01  9.604596e-03  2.063993e-01  -1.548986e-01  -1.936677e-01  2.223587e-01  -8.004188e-02  -1.301970e-01  -1.533100e-01  -1.476289e-01  1.885381e-01  8.952123e-02  -6.765804e-03  -4.032362e-02  -1.817394e-02  1.127247e-01  6.542309e-02  -2.083107e-01  3.827363e-02  -4.677506e-01  4.834699e-02  2.630216e-01  1.171202e-01  3.077014e-02  -5.095338e-02  -1.797018e-02  7.833789e-02  1.344737e-01  -2.315279e-01  -1.800245e-02  3.904466e-02  -1.660063e-01  3.563752e-01  -3.948837e-01  5.015266e-02  1.576023e-01  9.470937e-02  8.833315e-03  3.257646e-01  5.360331e-02  -1.841265e-01  -1.055592e-01  -3.367406e-02  3.936499e-02  6.336427e-02  2.378247e-02  2.293286e-01  2.199498e-01  3.676391e-02  -3.216802e-01  -5.346807e-02  -1.653038e-01  -1.167563e-01  5.170504e-02  -2.369004e-01  -9.456065e-02  1.415540e-01  5.771430e-02  4.105746e-02  -2.446263e-02  3.637402e-01  2.542875e-01  1.975527e-02  1.465402e-01  -1.280215e-01  -5.456989e-02  1.443655e-01  -1.267046e-01  -1.675649e-01  -8.775123e-02  2.056287e-01  7.292116e-02  -1.925173e-02  -9.099390e-02  1.755213e-01  3.986935e-02  2.148142e-01  8.229107e-02  1.003168e-03  5.227117e-02  1.096195e-01  -2.046566e-02  -1.565895e-01  -8.972227e-02  -2.393227e-01  6.153835e-03  3.125930e-01  -1.627762e-01  1.118645e-01  1.278431e-01  -1.027396e-01  -3.314429e-04  1.160906e-01  3.674631e-02  -7.728609e-02  1.205579e-01  -1.355928e-01  7.899444e-02  1.184286e-01  -2.608587e-03  -9.977440e-03  7.507077e-02  -2.776213e-01  3.277660e-02  -1.524155e-01  -1.030658e-01  -8.430110e-02  7.332768e-02  -1.954475e-01  1.081840e-01  3.304343e-02  1.595277e-01  -8.732286e-02  -9.148508e-02  -1.182420e-01  8.594811e-02  4.167457e-01  8.853041e-02  -3.825613e-01  3.260755e-01  3.217641e-01  -3.725540e-01  -2.290663e-01  6.578572e-02  -7.249212e-02  -3.322198e-01  4.485438e-02  3.157159e-01  1.658620e-01  3.893761e-02  1.222605e-01  -2.899778e-01  3.510128e-02  1.653191e-01  8.474367e-02  -1.738829e-01  1.764028e-01  -2.271987e-01  2.072086e-01  2.045187e-01  -6.203711e-02  -3.784846e-01  9.757848e-02  -1.106829e-01  1.552250e-01  -8.387737e-02  -1.867224e-01  5.835048e-02  -1.712731e-02  3.075974e-01  1.000728e-01  6.569514e-01  1.341947e-01  5.026429e-01  1.044738e+00  9.585031e-02  3.798069e-02  -2.668526e-01  6.720225e-01  1.827698e-01  8.221823e-01  -3.538762e-01  7.291985e-01  1.749813e-01  8.771525e-02  -1.239562e-01  -6.594705e-01  -2.759912e-01  3.833289e-01  3.733121e-02  -1.955850e+00  5.177408e-01  1.570756e+00  2.924773e-01  1.684904e-02  6.222401e-01  -9.055801e-02  1.002040e-01  -1.107440e-01  8.072705e-01  -6.233520e-01  5.382010e-01  3.571948e-01  -4.416888e-02  9.893252e-01  -1.104389e+00  -8.632647e-01  -2.600358e-02  5.092788e-02  4.596587e-02  6.054212e-01  2.881052e-01  -1.048599e-01  5.874532e-02  3.446350e-01  5.673660e-01  1.136022e-01  -7.314190e-01  5.570157e-01  -1.426585e-01  4.644741e-01  2.012634e-01  7.187666e-01  -2.209140e-01  -1.423619e-01  7.843031e-01  -2.031201e-01  -1.728765e-01  2.789679e-01  5.733480e-01  2.753443e-01  4.173007e-01  -3.074651e-01  2.845677e-01  -2.911097e-01  8.859594e-01  -1.993759e-01  -4.027073e-01  8.597056e-01  -1.543890e-01  -2.562254e-01  8.236220e-01  -2.721939e-03  4.882690e-01  1.609005e-01  4.895225e-01  -8.213788e-01  -9.976704e-01  -1.823727e-01  -1.125587e-02  1.749871e-01  -1.671470e-01  4.889230e-01  -3.099786e-01  -2.772473e-02  1.764246e-01  -2.765260e-01  1.054781e-02  2.937537e-01  -3.151616e-01  -1.762141e-02  1.053378e+00  2.939885e-01  3.671045e-01  1.573361e-01  8.933485e-02  3.962668e-01  2.319377e-01  6.615440e-01  -5.036004e-01  1.754555e-01  -2.150724e-01  3.028641e-01  -5.551945e-01  -2.378314e-01  3.590952e-02  -6.054860e-01  1.625898e-01  -3.513251e-01  2.393870e-02  -1.049422e-01  2.877851e-01  -2.358880e-02  3.988982e-01  7.785063e-02  -7.136769e-03  -3.416100e-01  -1.720899e-01  -1.697795e-01  -2.440353e-01  -1.166475e-01  -1.786134e-01  1.213775e-01  -3.511954e-02  -3.262789e-01  8.686335e-02  -8.523596e-02  -1.420990e-01  5.239312e-02  2.067911e-01  -2.815232e-01  -1.991063e-01  1.826270e-01  -2.372535e-01  -5.286759e-02  1.640668e-01  -8.415134e-02  -7.672805e-02  -3.986265e-02  -2.045616e-01  2.133542e-01  1.323372e-01  3.741869e-01  2.743091e-01  -2.457593e-01  3.729622e-01  3.479732e-01  1.979479e-01  1.812175e-01  2.199394e-01  6.553952e-02  -3.858139e-01  6.237338e-01  -1.402179e-01  -3.421989e-02  4.725813e-01  -4.766597e-01  -3.480532e-01  -2.123381e-01  6.054573e-01  -1.463958e-01  -3.044718e-01  3.404639e-02  7.244867e-01  1.584016e-01  1.918383e-01  -6.770894e-01  1.543932e-01  3.124371e-01  1.989326e-01  5.959986e-02  5.969706e-01  -3.570709e-01  -1.008608e-01  -9.163369e-03  2.265771e-01  -7.419547e-01  -7.155232e-01  2.541985e-01  -9.225976e-02  2.603545e-01  2.716323e-02  2.337308e-01  5.854983e-02  -1.403053e-01  3.725293e-01  2.840606e-02  2.421688e-01  -2.962613e-01  -7.105342e-01  3.173610e-01  1.650344e-01  4.873638e-01  3.794671e-01  5.026352e-02  9.586532e-02  1.217465e-01  1.689051e-01  2.036031e-01  -1.099026e-01  -1.348145e-01  2.464783e-02  2.000362e-01  -1.990444e-02  1.440778e-01  2.548069e-01  2.938078e-01  -2.331421e-01  3.262527e-01  4.544221e-02  4.068572e-01  -2.718409e-01  -1.829519e-01  -1.066046e-01  -2.854989e-01  9.768964e-02  -1.538420e-02  -2.316448e-02  3.852459e-01  -6.483571e-02  -2.489692e-01  4.048044e-01  2.141810e-01  -4.577549e-02  3.299716e-01  4.165673e-01  2.014660e-02  -4.142362e-01  5.626705e-02  -1.964169e-01  9.247757e-02  2.831229e-01  4.842678e-01  1.440645e-01  2.658209e-01  -1.467889e-01  1.343842e-01  -7.075810e-02  2.068441e-01  -1.351970e-02  -1.181129e-01  3.333838e-01  1.153126e-01  -6.333397e-02  1.221783e-01  -3.375859e-01  -4.534710e-02  -1.954143e-01  5.731605e-01  -5.524219e-01  1.198064e-01  9.373647e-02  5.026546e-02  -2.075531e-01  1.345114e-01  -1.720293e-01  -2.020034e-01  8.007950e-02  -1.529803e-01  -4.380223e-02  -1.833378e-01  2.609252e-01  -5.265536e-02  -1.599269e-01  1.386729e-01  -2.824462e-01  -1.806720e-02  -1.432186e-01  -2.197968e-02  3.222876e-01  -2.387931e-01  1.391059e-01  1.519855e-03  8.965270e-02  -6.968068e-02  -1.119502e-01  -2.239412e-01  6.198728e-02  8.224751e-02  -2.037874e-01  -1.039699e-01  -9.508226e-03  6.314451e-02  3.255255e-02  1.882606e-01  -1.161598e-01  1.623692e-01  -3.590423e-02  2.160510e-01  1.678444e-02  9.833393e-02  2.623872e-02  -8.541752e-02  -1.172707e-01  6.582645e-03  3.884371e-02  7.641665e-02  5.629179e-02  -9.267514e-03  -1.836697e-01  -1.748942e-01  -1.242196e-01  2.187962e-02  -5.339843e-02  -1.359610e-01  8.480252e-02  -1.739893e-01  5.332968e-02  -2.568800e-01  2.804418e-01  -2.548078e-01  -7.135357e-01  6.805211e-01  4.667927e-01  2.771305e-01  4.629286e-02  -3.136004e-01  2.153746e-01  -2.572881e-02  1.743932e-01  -1.533692e-01  1.855335e-01  -6.303323e-02  -7.136763e-02  1.516537e-01  -2.194033e-01  -1.028002e-01  -1.970863e-01  1.355860e-01  3.440914e-01  -4.519799e-01  4.745915e-01  -1.969920e-01  1.580247e-01  -1.824840e-01  -1.708164e-01  -3.012570e-01  -3.366175e-02  -1.422823e-01  -2.206752e-01  5.340450e-01  2.160636e-01  3.248243e-01  -8.149471e-02  -2.001984e-01  5.167282e-01  -6.690218e-04  1.713820e-01  1.534792e-01  3.303486e-02  1.443714e-01  -4.859250e-01  -3.936896e-02  -6.005949e-01  -8.720015e-01  -1.196953e-01  -7.462141e-01  4.606175e-01  -1.641937e+00  6.884667e-01  -7.413666e-01  6.939030e-01  4.536983e-02  8.218940e-01  1.399042e+00  1.704918e-02  -5.586169e-01  8.230409e-02  -2.677307e-01  4.771948e-01  6.006494e-01  -1.654185e-01  -4.250405e-01  -5.836967e-01  -2.589467e-01  -8.787634e-01  -8.813368e-02  1.200072e-01  4.712161e-01  1.039175e-01  -3.407561e-01  -2.276352e-01  -9.450085e-01  2.643197e-01  -1.732769e+00  5.802946e-01  -1.211993e-01  1.140222e-01  -3.446009e-01  -4.264420e-01  7.042123e-01  -2.423905e-01  8.746684e-01  9.117071e-02  -1.414217e+00  7.177185e-01  6.240820e-01  3.971896e-01  -1.731624e-01  3.102983e-01  -1.703830e-01  -2.453752e-02  -1.197180e-01  -7.593708e-03  3.238245e-02  -2.445161e-01  1.385128e-01  -1.179143e-01  -2.677386e-01  -1.566561e-01  -1.812234e-01  -1.489789e-01  2.007607e-01  1.560314e-01  8.007131e-02  2.428157e-01  -4.710340e-02  -8.158923e-02  -1.068605e-01  -2.692874e-01  -1.028953e-01  -7.300249e-02  -2.843563e-02  2.406814e-01  1.889742e-01  1.539102e-02  -1.186016e-01  1.326060e-01  5.626836e-02  5.294693e-02  -3.246893e-01  -1.048723e-01  1.678404e-01  2.300519e-01  -1.332929e-01  1.356141e-02  1.091828e-01  2.779954e-02  -8.465128e-02  -1.553471e-01  2.332976e-01  7.955858e-02  -1.123906e-01  1.904668e-01  -2.241465e-02  2.067228e-01  1.146451e-01  3.091550e-01  -1.760845e-03  -2.175797e-02  -4.634600e-02  2.514473e-01  -3.628929e-01  3.879162e-01  -6.788871e-02  -6.486585e-01  3.072466e-01  2.155285e-01  -1.482901e-01  -8.921652e-01  2.279122e-01  4.106402e-01  1.585213e-02  -3.447476e-01  -9.337705e-02  -1.979859e-01  4.748218e-01  2.799666e-01  -2.225430e-01  -1.289268e-01  1.498409e-01  -7.424084e-01  6.236678e-02  -8.794729e-02  -8.866538e-02  -2.786178e-01  6.495010e-01  9.351521e-01  1.588651e-01  4.682678e-02  -1.638825e-01  -1.307129e-01  -2.213211e-01  -1.280329e-01  -1.047127e-01  -6.827652e-02  3.760548e-01  -1.175624e-01  -2.769217e-02  4.095751e-01  -1.484565e-01  -8.804895e-01  -4.551108e-01  6.983888e-02  -9.236250e-03  -1.118877e-01  7.311568e-02  -9.999341e-02  -5.600467e-01  6.588230e-01  8.085901e-01  2.842319e-01  -1.046603e-01  -4.266427e-01  -1.188406e-01  1.464645e-01  -5.142543e-01  1.785778e-02  -4.001140e-01  -2.788968e-01  1.075717e-01  8.621973e-01  -5.707074e-01  -4.158622e-01  2.253194e-01  3.078052e-01  2.191024e-01  -4.128456e-01  2.071924e-01  -6.338972e-01  4.395837e-01  -1.898229e-01  -1.930181e-01  2.487969e-01  -1.280806e+00  4.795369e-03  -2.533231e-01  -1.097807e-01  -7.041503e-01  2.084519e-01  5.638624e-02  -7.799062e-01  -1.084559e-01  -8.155828e-01  -2.039991e-01  1.644682e-01  5.243647e-02  6.202518e-01  2.492474e-01  2.244278e-01  1.162969e-01  1.569696e-01  7.530034e-07  6.327255e-01  -4.462012e-01  3.384352e-01  3.720884e-01  -1.999936e-01  -2.712629e-01  1.024833e-02  1.881085e-01  4.984643e-02  4.516261e-02  3.698734e-01  6.368016e-01  -1.691991e-02  2.071578e-01  -1.967897e-01  4.140314e-01  -2.252923e-01  3.545332e-01  -2.143456e-01  2.330890e-01  -1.432795e-01  -3.068483e-01  4.964890e-02  1.258398e-01  -1.024936e-01  4.871231e-02  -1.244589e-01  -1.516963e-01  2.295705e-01  4.056568e-01  1.980376e-01  3.481210e-01  2.619960e-01  3.105843e-02  -2.307544e-01  1.632784e-01  1.057774e-01  1.665365e-01  2.608093e-01  3.015553e-01  1.351509e-01  4.511425e-01  -3.200555e-01  -2.333910e-01  2.156759e-02  -8.389905e-02  1.563402e-01  -3.659596e-02  -6.948391e-02  -1.081761e-01  5.334961e-02  5.445764e-01  -2.561409e-01  -3.135862e-01  3.790612e-02  4.138366e-01  -1.124389e-01  4.834493e-01  4.463237e-01  -1.432322e-01  1.576082e-02  -5.326224e-02  -3.163620e-01  -3.152288e-01  2.817676e-01  -3.377131e-01  -2.857964e-01  -1.841549e-02  3.925678e-01  -3.360111e-01  -1.463336e-01  9.171065e-02  -2.264301e-01  -1.637301e-01  -4.463259e-01  1.459473e-01  -3.284813e-01  -1.691126e-01  -1.946185e-01  6.985803e-02  1.208744e-01  -1.267738e+00  1.584243e-01  -5.524542e-02  1.044414e-01  -4.917056e-01  5.342172e-01  -6.695949e-02  -2.866522e-01  5.905068e-02  -6.133680e-01  3.672910e-02  -3.682676e-01  -2.808362e-01  1.554028e+00  2.267509e-01  4.164504e-02  3.408467e-01  1.559244e-01  1.301953e-01  7.408871e-01  -2.547340e-01  4.495576e-01  6.361074e-01  -6.484107e-01  -4.231907e-02  2.789105e-01  -3.797882e-02  2.547448e-01  -7.613385e-02  2.095357e-01  9.103647e-02  -2.509093e-01  4.309785e-01  -5.862482e-02  3.727391e-01  -5.285674e-01  6.220160e-02  2.354517e-01  -2.433403e-01  -3.694336e-01  -3.542864e-01  -3.064434e-01  2.913723e-01  2.106987e-01  -1.922353e-01  1.653086e-01  2.130602e-01  -1.755336e-03  1.343415e-01  1.150421e-02  6.188533e-03  2.069439e-01  9.191054e-02  2.592840e-01  -3.688233e-01  2.009766e-01  3.476517e-01  -1.666515e-02  -1.440828e-01  -2.557658e-01  2.711634e-01  3.002970e-02  -8.048555e-02  -5.623800e-02  -1.242558e-01  2.219352e-01  -5.202256e-01  3.103175e-02  -2.928953e-01  -2.910530e-01  3.011747e-01  -2.920887e-01  -1.856855e-01  -7.112397e-02  -1.905136e-01  1.565407e-03  1.810770e-01  -1.021444e-01  -1.084522e-01  1.811535e-01  5.545039e-02  3.303465e-01  4.914059e-02  6.076209e-02  -1.858281e-02  1.723588e-02  -1.085003e-01  7.733488e-02  3.392015e-02  -8.051332e-02  -2.693923e-01  -3.364694e-01  -5.194911e-02  -1.433643e-01  2.903439e-01  -2.060260e-01  1.577075e-01  1.123095e-01  -1.937831e-01  -1.024494e-01  2.051314e-01  2.630137e-01  -2.716350e-01  -1.498823e-01  -2.353228e-01  -3.394954e-01  5.708315e-02  -1.314067e-01  -9.458468e-02  -3.498296e-01  1.765931e-01  2.981448e-01  -3.208002e-01  1.206172e-01  -4.226377e-03  -1.613663e-01  1.234041e-01  1.213448e-01  2.095746e-01  -6.679950e-02  -7.215622e-02  -1.228425e-01  -7.034423e-02  2.210184e-01  2.098445e-01  -2.644067e-01  -1.449805e-01  -1.813359e-01  -1.841006e-01  -7.474236e-02  4.211861e-01  -1.073992e-01  -1.812437e-01  -3.466630e-01  2.111530e-01  2.011242e-01  3.258322e-01  -2.257456e-01  6.349757e-02  -1.003446e-01  5.158772e-02  -6.965911e-02  4.252818e-02  1.902825e-03  -2.288895e-02  -1.431919e-01  -4.209507e-01  -8.807655e-03  1.786151e-01  1.909682e-01  2.772346e-01  4.462748e-01  1.395006e-01  -9.168842e-02  5.947134e-02  -1.903215e-02  -1.001366e-01  2.086810e-01  2.757303e-01  2.084625e-01  3.698080e-01  -1.782510e-01  1.360206e-01  -1.906318e-01  -8.380292e-03  -9.046277e-02  -5.310617e-02  -3.559362e-02  1.363948e-01  -2.078041e-01  1.160681e-01  7.400241e-02  -1.574350e-01  1.255969e-01  -1.044399e-01  -3.128487e-01  3.463899e-01  2.958299e-01  -1.481170e-01  7.645486e-02  2.310944e-01  -1.041358e-01  -1.586887e-01  -7.673854e-02  7.631139e-02  -5.785376e-01  -4.243360e-02  1.093675e-01  -2.701014e-01  -5.077826e-01  -3.325632e-01  6.617963e-02  4.833614e-01  -3.043496e-01  -1.324264e-01  -1.663973e-01  -2.333143e-01  -3.429338e-01  2.946465e-01  2.504162e-01  1.024780e-02  2.246211e-01  3.724746e-01  3.808604e-01  -5.689458e-01  2.586496e-01  -7.287088e-03  -8.405045e-02  -3.231151e-02  -5.498236e-01  2.946595e-01  -4.171563e-01  8.608801e-02  6.031598e-02  1.843805e-01  6.640316e-01  -3.296363e-01  -2.817490e-01  -4.435348e-01  3.397137e-01  2.278417e-01  -3.229846e-01  1.827674e-01  -1.371978e-01  -1.946624e-01  -1.228024e-01  5.717310e-01  2.242636e-01  1.307880e-01  -2.294872e-01  -1.725434e-01  -1.225204e-01  1.329253e-01  -6.603897e-02  5.188874e-02  3.015727e-02  4.926594e-02  3.928371e-01  -7.271475e-01  -2.524397e-01  -1.940376e-01  -2.890376e-01  1.126142e-01  -3.146030e-01  5.868256e-02  -3.347539e-01  -1.367750e-01  4.143685e-02  -3.045045e-01  2.903199e-02  -6.674889e-01  3.622188e-02  1.025178e-01  2.522255e-01  -1.090917e-01  -2.745017e-01  -6.476654e-02  -4.557389e-01  3.118510e-02  -5.969124e-01  -2.356507e-02  2.258600e-01  -9.667708e-02  6.291231e-01  4.174383e-02  -1.841250e-01  2.273626e-02  3.421896e-02  -2.059109e-01  3.053659e-01  -3.990497e-02  -9.819482e-03  2.554186e-01  7.734147e-02  -1.549113e-01  1.518977e-01  -2.290784e-01  1.167016e-02  -1.062004e-01  4.223338e-01  3.791544e-01  3.058561e-03  3.317259e-01  -3.631378e-01  8.892647e-02  -3.457889e-01  1.701005e-01  -5.158398e-01  2.902831e-01  -1.613016e-01  -2.468408e-01  -6.165282e-02  2.818905e-01  -2.698698e-01  -3.366535e-02  9.308387e-02  -2.248951e-01  7.361379e-02  -1.091258e-02  2.073242e-01  1.610634e-01  3.285243e-01  -1.841471e-02  1.513690e-01  -1.457750e-01  5.206404e-02  -1.274321e-01  5.778526e-02  2.999109e-01  1.947217e-01  2.644668e-01  -4.694410e-02  5.167654e-02  -3.872024e-02  -7.161109e-02  3.179085e-01  -7.241837e-02  -6.400622e-02  -3.661520e-01  -7.036918e-02  -3.622548e-02  1.707488e-01  -2.205868e-01  -2.356374e-01  1.644190e-01  1.290402e-01  -4.120596e-01  -3.164439e-01  -3.229854e-01  -3.987009e-02  -8.358735e-03  -1.916772e-01  2.641529e-01  4.849017e-01  1.056483e-01  -4.430480e-01  4.145584e-02  -2.790586e-01  4.255652e-01  -4.273877e-02  4.544561e-02  -3.861828e-01  4.200465e-03  5.590332e-01  -5.282103e-01  5.171941e-01  2.246887e-01  -1.092430e-01  1.379291e-01  -4.041890e-01  2.377397e-01  -4.196649e-01  2.850104e-01  3.982894e-05  3.601663e-01  -1.789876e-01  1.678135e-01  2.694111e-01  -2.044684e-01  3.940143e-01  -4.127649e-02  2.093435e-01  4.083029e-01  -8.353524e-01  -4.063992e-01  -2.003137e-01  -2.541911e-01  -3.508375e-01  -3.051654e-01  -8.447074e-01  -1.781832e-01  -2.183411e-01  -4.624839e-01  1.252072e-01  -2.087680e-01  5.981216e-02  7.312606e-02  -4.127377e-01  -1.618869e-01  -6.398498e-01  -1.142022e+00  2.439559e-02  -4.149807e-01  8.289689e-01  -1.810540e+00  5.070346e-01  -9.922627e-01  2.835942e-01  -2.813295e-01  8.079405e-01  1.425614e+00  2.351731e-01  -5.141901e-01  4.812044e-01  -1.398621e-01  1.845742e-01  5.768183e-01  -1.571948e-01  -5.126441e-01  -2.141902e-01  -2.111807e-01  -1.158108e+00  -3.293228e-01  -2.039445e-01  3.285648e-01  2.592742e-01  -6.549549e-01  -3.112257e-01  -7.939297e-01  3.471490e-01  -2.172313e+00  5.437948e-01  -6.523916e-02  1.822731e-01  -4.437747e-01  -1.458144e-01  6.113936e-01  -1.644982e-01  4.441350e-01  5.518765e-02  -1.242010e+00  7.659258e-01  5.201073e-01  4.195617e-01  -2.698969e-01  6.004663e-01  -8.765605e-02  -1.593552e-01  3.094672e-02  -4.838765e-02  1.171217e-01  1.432205e-01  2.521455e-01  -4.829845e-01  4.517060e-01  -2.121551e-01  3.285362e-01  3.864778e-01  -3.594892e-01  -5.033976e-01  -4.942839e-01  8.912875e-02  3.468557e-01  -2.700038e-01  1.013807e-01  -3.606663e-01  -2.577441e-01  1.486066e-01  -4.014096e-01  3.427041e-01  9.894330e-02  4.386823e-01  -1.021548e-01  -3.270221e-01  -5.168644e-01  -1.138770e-01  9.598850e-01  -7.342383e-02  2.262835e-01  -4.057579e-01  7.809342e-02  8.431806e-02  3.062503e-01  -2.841975e-01  3.183956e-01  -1.417966e-02  -4.062477e-01  -4.267662e-02  -1.053928e-01  1.262769e-01  4.950537e-01  -6.676822e-01  -2.925471e-01  -8.692516e-02  4.338007e-01  -4.664003e-01  9.495555e-02  -1.551679e-02  2.306561e-02  -1.647954e-01  2.284100e-01  -4.491209e-02  -9.689394e-02  -1.140641e-01  1.367050e-01  1.382908e-01  1.270760e-01  -5.615171e-02  5.658177e-02  2.059937e-01  1.772555e-02  3.961549e-02  1.788648e-01  -2.123907e-01  7.474000e-03  1.040523e-01  -1.603566e-01  3.317111e-01  -1.453519e-01  2.438738e-01  2.335764e-01  1.500800e-01  -2.126038e-02  -2.003576e-01  7.383925e-02  -4.018109e-01  3.518178e-01  -2.416963e-01  3.549934e-01  3.846924e-02  2.781546e-01  -1.366412e-01  1.076859e-02  -1.639177e-01  -3.267812e-02  -1.691386e-02  9.383625e-02  2.301439e-01  1.696654e-02  -1.528491e-01  1.634703e-01  -2.223382e-01  -1.827703e-01  7.686839e-03  1.376195e-01  -3.751249e-01  1.549943e-01  -2.908382e-01  2.150738e-01  3.611118e-02  -1.912245e-01  1.104513e-01  -7.013228e-03  1.227531e-01  6.041583e-02  4.415309e-02  -2.303661e-02  4.732236e-01  -6.464356e-01  -1.928060e-01  -2.326138e-01  -1.114610e-01  -4.978693e-02  -5.043601e-02  -1.458525e-01  4.488340e-02  -1.009202e-02  1.599445e-01  -3.255033e-01  -2.511577e-01  1.166594e-01  3.049858e-01  8.917368e-02  -3.187348e-03  -2.725369e-01  -8.545887e-01  6.419207e-01  -3.853510e-01  1.926905e-01  -2.335044e-01  -1.485131e-01  5.085263e-01  1.577138e-01  -4.107021e-01  1.180304e-03  -9.270248e-02  -3.846930e-01  1.061536e-01  1.915170e-01  -2.957466e-01  -1.003196e-01  -4.252472e-01  5.250415e-02  4.365007e-01  -1.875101e-03  -1.429995e-01  2.001377e-01  -2.505842e-02  1.065617e-01  7.818693e-02  1.239892e-01  -8.493848e-02  1.261628e-01  -1.385679e-01  -2.516542e-01  -1.886829e-01  1.533105e-01  -1.492170e-01  -3.938970e-02  -8.392084e-02  -1.144773e-01  2.641538e-02  9.358148e-02  1.652203e-01  -8.296168e-02  2.526264e-01  -6.983025e-02  2.087792e-01  -2.528201e-01  -1.427586e-02  -1.599631e-02  -8.034819e-02  6.485943e-02  -2.092867e-01  3.612545e-01  -2.128922e-01  -4.203968e-02  1.164803e-01  1.512797e-01  -4.739339e-02  -9.235167e-02  6.054292e-02  1.466228e-01  1.164553e-01  6.776556e-02  5.428010e-03  1.540993e-01  6.899771e-02  -1.925180e-01  2.196523e-01  -1.419691e-01  1.551429e-01  2.146883e-01  -8.341042e-02  2.315402e-01  1.165848e-01  3.651861e-02  -2.650082e-01  -6.829127e-02  1.699560e-01  1.687231e-01  1.666865e-01  -1.587332e-01  2.193322e-01  8.978163e-02  -2.363307e-01  -2.116726e-01  -5.413224e-02  -2.616340e-01  -1.922096e-01  -1.121226e-01  -4.108247e-01  -2.086002e-01  -1.087330e-01  2.847764e-01  2.971755e-02  1.497066e-02  -4.146214e-02  1.900025e-01  -2.609363e-01  -8.323400e-02  2.347410e-01  5.146837e-02  -1.765832e-02  -3.569151e-01  1.581725e-01  -1.241726e-01  1.374664e-01  -4.403149e-02  -1.332715e-01  -6.437667e-02  3.114014e-01  -2.355681e-01  1.144754e-01  -1.350677e-01  -8.362994e-02  1.357841e-01  2.626649e-01  5.304276e-02  -1.139994e-01  -1.357523e-01  1.974068e-01  4.769606e-02  -1.569332e-01  3.331658e-01  -1.378815e-01  -5.498162e-02  -1.930288e-01  5.293815e-01  -7.299505e-01  -3.704963e-02  2.540897e-01  -6.928990e-01  2.130313e-02  -1.792803e-01  1.538911e+00  9.890139e-02  4.702799e-02  -3.113545e-02  5.347565e-01  5.774618e-01  3.741780e-01  -9.730393e-01  -1.774625e-01  4.336093e-01  2.736749e-01  -4.123614e-01  4.526853e-01  -1.435696e-02  -2.279168e-02  -2.155983e-01  -1.606340e-01  -8.001116e-01  -9.089145e-01  3.033105e-01  1.689978e-01  1.478897e-02  -4.422839e-05  1.710230e-01  2.271729e-01  -1.349054e-01  2.817501e-01  -3.370769e-01  4.294071e-01  1.732889e-01  -5.676747e-01  3.717237e-01  4.746266e-01  1.121374e+00  3.490248e-01  -4.854500e-02  4.588778e-01  2.381898e-01  2.277705e-01  1.903678e-01  -9.697039e-02  -2.253454e-01  -1.773444e-01  8.342659e-02  2.584645e-01  3.116288e-01  3.623181e-02  3.455570e-01  -5.479530e-01  4.693530e-01  2.031952e-01  2.102316e-01  -4.249923e-01  3.593051e-01  1.154284e-01  -3.199153e-01  2.205345e-01  -2.556342e-01  3.567031e-02  -5.017005e-02  -1.767395e-01  -3.236245e-01  2.682495e-01  9.913591e-02  1.586330e-01  4.039352e-01  6.888097e-01  -3.566071e-02  -5.697432e-02  2.275504e-01  1.738892e-01  1.566553e-01  2.536864e-01  3.899474e-01  1.433003e-01  4.855394e-01  -1.271608e-01  -3.602249e-01  -2.876042e-01  2.239798e-01  -2.439820e-01  -5.284861e-02  1.831801e-01  -1.164277e-01  5.316438e-02  4.145553e-01  1.739136e-01  -2.579850e-01  3.181114e-02  2.193232e-01  -1.634754e-01  -9.220400e-02  -8.688824e-02  2.561880e-02  5.336035e-02  -1.700734e-01  -7.408097e-02  -3.797332e-02  1.780980e-01  -1.748283e-01  -6.111407e-02  -1.265788e-01  2.276583e-01  -1.528701e-01  2.215935e-01  -3.832227e-02  -3.617929e-02  -2.047737e-01  8.670125e-02  -1.229879e-01  -1.208362e-01  1.297821e-01  2.163286e-01  1.094641e-01  1.393450e-01  -1.040496e-01  -7.951727e-02  -1.853084e-01  -1.203642e-01  -2.315709e-01  -8.809368e-02  1.646070e-01  -3.487067e-01  -4.167267e-02  -2.584634e-01  -1.308738e-01  -5.532495e-02  -1.334498e-01  3.801845e-01  -1.797303e-03  1.411454e-01  -6.386745e-03  1.182643e-01  2.220660e-02  3.877744e-01  -6.068926e-02  -1.108155e-01  3.572788e-01  2.061657e-01  -2.517132e-02  -7.123772e-02  2.444613e-02  2.416623e-01  6.430157e-02  6.308587e-01  8.171798e-01  1.729378e-01  7.893912e-01  -1.319992e-01  9.400191e-01  -2.262311e-01  3.318748e-01  -7.864298e-01  2.963253e-01  -1.958093e-01  -1.128044e+00  -1.558035e-01  3.328433e-01  -1.721643e-01  1.596351e-01  1.821837e-01  -2.517304e-01  1.460307e-01  4.366186e-02  -1.155009e-01  5.327101e-01  3.724921e-01  2.743357e-01  1.566684e-02  -2.372813e-01  2.253695e-01  -1.058878e-01  5.198345e-01  2.030763e-01  6.005677e-03  6.026292e-01  -6.041988e-02  2.803891e-01  -5.183471e-01  3.183993e-01  2.224454e-01  -2.958021e-01  -1.801754e-01  -4.872265e-01  -5.580042e-01  1.282643e+00  -2.384805e-01  -7.633155e-01  -2.395998e-01  3.545656e-01  -1.886010e-01  -3.016403e-01  6.544220e-02  -2.758592e-01  -1.842792e-01  -4.254812e-02  -2.552059e-01  1.588769e-01  8.596546e-03  -1.270907e-01  3.598585e-01  -4.753659e-01  -2.453207e-01  4.625497e-02  2.222117e-01  8.591996e-02  2.049150e-01  -3.527153e-01  1.935830e-02  6.911699e-02  1.989234e-01  5.274591e-02  -1.557515e-01  -9.280846e-02  -3.573400e-01  2.384678e-01  -4.013018e-01  5.149748e-02  2.360729e-01  1.318132e-01  -2.332811e-01  9.589779e-02  3.312091e-01  -4.252935e-01  1.676673e-01  2.159909e-02  1.492082e-01  1.490630e-01  -3.541929e-01  2.194367e-02  -4.190800e-02  7.767365e-02  -9.789173e-02  2.834903e-01  1.464681e-01  -1.710718e-01  1.348694e-01  1.191587e-01  1.487210e-01  -1.063707e-01  2.056124e-01  -7.194201e-02  2.833812e-01  3.892799e-01  -1.384245e-01  2.711875e-01  2.799575e-02  3.432263e-02  -4.745018e-01  3.126053e-01  3.217702e-01  4.723933e-01  -2.046098e-01  1.568629e-01  4.035713e-02  -9.641659e-02  -1.370217e-01  -3.412273e-01  -2.091136e-01  4.730660e-01  -5.626273e-02  -9.299319e-01  5.226402e-01  3.173753e-01  3.850172e-01  3.210762e-01  2.295342e-01  -2.341365e-01  -3.839109e-01  1.814335e-01  2.287186e-01  -1.273785e-01  4.066736e-01  5.858772e-01  1.186295e-01  4.898002e-01  -6.690160e-02  -2.668052e-01  -7.633531e-02  -1.442793e-01  4.510812e-02  9.968205e-03  4.806775e-01  6.871466e-02  -1.864867e-01  4.771419e-01  3.556267e-02  4.862091e-03  -2.952021e-01  4.952308e-01  -5.863861e-01  2.418742e-01  -1.443833e-01  3.471054e-01  -9.667158e-02  -1.630272e-01  1.367487e-01  -3.128017e-02  -2.301557e-01  5.157981e-02  -3.178383e-01  -2.186970e-01  -2.996584e-02  -2.496705e-01  -2.577012e-01  -2.947341e-01  -2.381014e-01  -7.981890e-02  -2.036251e-01  2.736644e-02  1.302826e-02  1.789593e-01  1.234829e-01  -2.609310e-01  2.763867e-01  -7.494942e-02  2.189262e-01  -1.972256e-01  -1.630543e-02  -5.357101e-02  -2.485501e-01  4.878404e-01  -1.953014e-01  1.022951e-01  -2.980149e-01  2.848892e-02  -9.090282e-02  -8.926856e-02  2.030309e-02  1.115525e-01  8.727329e-02  -2.935614e-01  -3.509151e-02  -2.868286e-01  -7.420644e-02  -1.373454e-01  -7.086840e-02  8.803234e-02  1.874063e-01  3.149366e-01  -2.233490e-01  -2.106569e-01  1.431803e-01  2.315244e-01  9.216928e-02  3.889084e-03  -7.832407e-02  -7.484112e-03  -1.825035e-01  5.023534e-01  -7.569670e-02  3.121801e-01  -3.014432e-01  2.347450e-01  1.453955e-01  -2.163635e-03  2.386204e-01  5.518692e-03  -2.239318e-01  1.293741e-01  -1.349931e-01  -3.831331e-01  6.188731e-02  -1.027402e-01  1.537323e-01  2.610509e-01  1.407191e-01  -2.011922e-01  6.332156e-02  5.539391e-03  2.153738e-02  2.409027e-01  -1.132559e-01  1.219561e-01  2.243054e-02  9.574677e-03  2.211324e-02  -1.353340e-01  -2.515016e-01  2.568917e-01  2.771350e-02  -2.005189e-01  1.774746e-01  -7.694884e-02  6.059028e-02  5.261536e-01  -1.728312e-01  -3.174075e-01  -1.340820e-01  9.974182e-02  -4.186697e-01  -3.562120e-01  2.179748e-01  -9.203751e-02  1.658441e-01  2.231513e-01  -1.530971e-01  -1.902639e-01  2.338249e-01  -1.636803e-01  3.448943e-01  1.997272e-01  -3.585685e-01  8.648378e-01  3.163984e-01  3.031405e-01  -2.708998e-02  -1.954903e-01  1.380887e-01  2.184325e-02  4.676287e-01  4.118500e-02  -2.934148e-03  4.513172e-01  -2.774010e-01  4.366837e-01  1.225570e-01  2.718879e-01  -2.863054e-03  2.262622e-01  -4.363829e-03  -2.694391e-01  6.772277e-01  1.189616e-01  6.218028e-01  1.818320e-01  -9.900758e-02  -8.762818e-02  -4.464623e-01  -3.514559e-01  1.803122e-01  2.243548e-01  8.832496e-02  2.889011e-01  -1.683852e-01  1.667548e-01  1.030251e-01  9.301311e-03  -3.509059e-01  -2.649266e-01  1.458638e-02  
      </Weights>
      <Biases Rows="50" Columns="1">
        -1.101400e-01  2.097663e-01  -1.171701e-01  3.565612e-01  -2.010274e-01  -1.020661e-01  -2.948844e-01  -1.084668e-01  -8.701454e-02  7.448684e-02  -6.690665e-02  -2.280150e-01  6.206282e-02  -1.112405e-01  -1.981570e-01  2.302417e-01  2.567568e-01  5.320174e-02  3.877361e-01  1.964552e-01  -7.823393e-02  5.714117e-02  -1.770336e-01  -1.085546e-02  -2.598911e-01  -4.254397e-01  2.306449e-01  -2.176569e-01  -2.643502e-02  4.207970e-02  1.830947e-01  -2.617024e-01  -3.236786e-02  5.410888e-02  1.588678e-02  -1.357368e-01  -4.855969e-03  7.617286e-02  3.930550e-02  -7.240654e-02  1.142197e-01  1.827893e-01  3.345643e-01  -2.830772e-02  1.344164e-01  -7.630841e-02  2.262523e-01  -1.593092e-02  2.343355e-01  1.493742e-01  
      </Biases>
    </DenseLayer>
    <DenseLayer Width="50" ActivationFunction="3">
      <Weights Rows="50" Columns="50">
        4.035569e-01  1.044659e-01  1.480203e-01  -2.379220e-01  -1.988142e-01  3.328863e-01  -2.518249e-01  1.891733e-01  2.392057e-01  -3.082354e-01  1.732824e-02  3.667381e-01  -1.115925e-01  1.606549e-01  2.610533e-01  -2.568799e-01  4.378444e-02  6.776930e-02  3.114613e-02  -4.713255e-01  3.154119e-01  -1.484087e-01  1.702537e-02  1.554914e-01  -1.647201e-01  1.953902e-01  -4.053124e-01  -1.211676e-01  -8.486540e-02  -6.929418e-02  -5.157842e-01  -2.080359e-01  -2.083852e-01  -2.809155e-01  1.936189e-02  5.247567e-01  -2.319886e-01  -5.163729e-01  1.781010e-01  1.869041e-01  -9.912813e-02  -2.263075e-01  -4.785657e-01  6.185032e-02  -4.384296e-01  2.810743e-01  -4.336648e-01  -1.883254e-01  -1.969792e-01  -1.452330e-01  -5.559282e-02  -3.550225e-01  -6.961092e-02  1.779810e-01  -5.477762e-01  2.406748e-01  -1.595722e-01  -1.644971e-01  1.702168e-02  8.137271e-02  2.067847e-01  -1.193203e-01  -4.425056e-01  3.433883e-03  6.771781e-02  7.606577e-02  -7.402879e-03  -3.198087e-01  -9.727246e-04  -8.035464e-02  9.352533e-02  1.566641e-01  3.812183e-01  3.520487e-01  2.963552e-01  -3.117119e-01  5.050613e-02  1.381145e-01  -6.798000e-02  -3.341546e-01  6.249853e-02  -2.556922e-02  1.663049e-01  1.562044e-01  -6.359133e-02  3.565754e-03  -2.174855e-01  -2.154708e-01  7.648424e-02  -7.716683e-02  -4.874204e-02  9.615410e-02  1.894839e-01  -8.365584e-02  -3.521124e-01  2.937849e-01  9.080082e-02  4.553325e-02  -1.115839e-01  2.546981e-01  1.811523e-01  -1.238143e-01  -3.336267e-03  2.998680e-01  -3.442109e-01  4.576197e-02  5.975090e-02  3.480263e-01  2.481179e-01  -3.805330e-01  -1.388653e-02  3.054199e-02  1.166810e-01  1.098024e-01  4.626158e-01  -3.301346e-01  -1.050460e-01  -1.786966e-01  -2.822675e-01  6.440566e-02  1.102967e-01  -1.374122e-01  1.554895e-01  -1.609504e-01  3.699377e-01  3.572850e-01  -2.354589e-02  -1.336703e-01  -1.766102e-02  -4.003396e-03  -3.067068e-01  2.090847e-01  -7.089628e-03  4.476586e-02  -5.494835e-01  1.339474e-01  2.326396e-01  -1.407628e-01  -1.382927e-02  5.498120e-02  1.160985e-01  -4.746115e-02  -1.881072e-01  1.813174e-02  -2.792502e-01  7.382987e-02  3.649503e-02  1.104075e-01  -2.081953e-01  -1.047655e-02  1.168171e-01  -4.232252e-02  4.091942e-02  -1.338387e-01  -3.801551e-04  -1.339065e-01  6.798205e-02  -1.965238e-01  2.316983e-01  -1.719899e-01  -5.715100e-01  -6.471356e-01  1.077387e-01  1.156555e-01  9.091585e-02  -2.843544e-01  3.391072e-01  -4.367534e-02  -1.176333e-02  2.022374e-01  -2.627173e-02  3.614028e-01  5.022521e-02  -9.767168e-02  -1.514263e-01  2.418782e-01  1.010460e-01  -1.288234e-01  -1.206836e-01  1.280514e-01  -1.596945e-01  6.737286e-02  -9.254943e-02  1.048371e-01  -4.368049e-02  -3.995714e-02  -1.704584e-01  -1.533772e-01  1.029805e-01  7.132519e-02  -1.671952e-01  8.250453e-02  -7.698513e-02  4.355380e-02  4.305237e-03  -1.157556e-01  -2.594071e-01  -9.300228e-03  -1.349220e-01  2.306369e-01  1.567500e-01  -7.145989e-02  6.483825e-02  -4.265130e-02  -9.200576e-02  -6.520192e-02  -7.466540e-02  5.209070e-02  -1.268521e-01  -9.800716e-02  -5.323707e-02  1.222321e-02  -4.088151e-02  -1.731841e-01  1.026697e-02  -2.735360e-02  2.321999e-02  1.309060e-01  7.750411e-03  -7.660040e-02  2.018501e-01  -9.044165e-03  -2.087942e-02  -3.021377e-02  -4.801870e-02  1.434166e-01  1.496875e-02  2.518516e-02  -1.660155e-01  6.238539e-02  9.047181e-02  1.667490e-01  6.346551e-02  1.559626e-01  1.432133e-04  -2.393317e-02  -1.210203e-02  2.135252e-01  -1.685162e-02  1.065478e-01  -2.161716e-01  -8.203617e-02  1.178984e-01  -1.872037e-01  -4.726117e-02  4.452560e-02  -7.830935e-02  6.546966e-02  -1.016480e-01  9.314079e-02  1.303456e-01  -1.780043e-01  9.491014e-02  -6.103975e-01  -1.618021e-02  -1.570369e-01  -2.294737e-01  -2.936622e-01  -1.122926e-01  -3.214618e-01  1.442200e-01  5.203189e-02  -2.528081e-02  -7.478274e-02  -1.501446e-01  -1.345776e-01  2.134692e-02  3.458113e-02  2.199422e-01  -1.596935e-01  5.580981e-02  9.439556e-02  5.326653e-01  9.814756e-02  -2.184541e-01  2.160500e-01  -2.136526e-01  -1.081195e-01  -3.036394e-01  -3.479374e-01  -2.295014e-01  -8.671231e-02  2.466114e-02  -1.053907e-01  -2.982721e-01  3.820336e-01  -3.600747e-01  6.211292e-02  -2.415414e-02  -7.864327e-03  -1.026018e-02  -1.587862e-01  -2.049845e-01  -1.374587e-02  -5.775893e-01  4.325081e-01  -1.527149e-01  -3.724224e-02  -2.791473e-01  7.160482e-02  -2.148397e-01  -2.517073e-01  -1.529046e-01  -6.128062e-01  -1.063055e-02  -2.618665e-01  1.423265e-01  2.425778e-01  8.013748e-02  1.036240e-01  -1.577496e-01  -8.457980e-02  -2.391713e-01  9.345885e-02  1.837176e-01  1.750811e-01  -2.159981e-01  -4.004984e-01  -3.932106e-01  -3.256629e-02  2.552822e-02  -3.385068e-01  -4.697039e-01  5.506958e-02  3.250389e-01  -1.468850e-01  -4.759262e-02  -2.068521e-01  2.889068e-01  -2.302434e-01  -5.251156e-02  2.378690e-01  9.500677e-02  3.355256e-01  -1.388581e-01  -5.248011e-03  3.217886e-01  -2.630248e-01  -2.472468e-01  -2.230871e-02  -1.436152e-01  -2.715412e-01  -1.727304e-01  -3.471280e-02  2.085847e-01  7.831354e-02  -3.100784e-01  1.336700e-01  1.340915e-02  1.808910e-01  2.050140e-02  2.847365e-01  2.118088e-01  -6.412899e-02  1.795442e-01  -2.936033e-01  -7.119983e-02  -4.564288e-02  1.404092e-01  -2.778556e-02  -8.292919e-02  -1.794022e-01  1.986480e-01  -1.654354e-01  -1.051774e-02  5.973399e-02  -2.092211e-01  -3.953553e-03  -1.144014e-01  1.687657e-01  2.512671e-01  -4.496942e-02  -3.526169e-02  -3.634590e-02  1.321111e-01  -2.248356e-01  -9.300283e-02  5.419153e-02  1.447215e-01  -1.026676e-01  -1.859077e-02  -2.450596e-01  4.180460e-02  2.159076e-01  -1.764111e-01  6.016850e-02  5.919437e-02  -1.216037e-01  -1.087484e-01  -8.463872e-02  -9.157812e-02  2.036853e-01  -8.315238e-02  2.060001e-01  -5.785414e-02  9.618066e-02  -2.265626e-02  -1.338292e-02  -2.907517e-02  6.521221e-02  -1.335395e-02  5.702122e-03  6.032171e-02  -5.061865e-02  -9.081969e-02  -1.445463e-01  8.459663e-01  6.910660e-01  1.636501e-01  -1.275814e-01  2.078430e-01  -1.672631e-01  -1.099123e-01  9.524120e-02  1.620669e-01  1.362278e-01  -1.067485e-01  -2.971448e-01  -1.495932e-01  -7.498217e-02  2.677939e-02  -6.495026e-01  6.269557e-02  -2.725818e-01  -9.974223e-02  3.418432e-01  -4.511304e-02  3.564611e-01  4.591565e-01  1.135418e-01  -2.130200e-01  5.815552e-01  5.240080e-01  4.574617e-02  -1.363069e-01  1.725469e-01  7.783175e-02  6.724861e-02  2.091559e-01  6.608834e-02  -2.817403e-02  -1.765832e-01  -2.724112e-01  2.953231e-01  -1.856868e-01  -3.647314e-02  5.019590e-02  -6.724031e-02  -2.486110e-01  -5.386620e-01  2.308885e-02  9.183951e-02  -1.205057e-01  9.277079e-02  3.169284e-02  -2.428241e-01  -1.358004e-01  -1.194436e-01  -1.782769e-01  2.930982e-01  2.541557e-01  -7.168715e-02  -3.043665e-02  1.144911e-01  -4.562073e-01  3.303265e-02  1.004858e-03  -5.913660e-02  4.427453e-01  -1.489822e-01  -4.249030e-01  3.395076e-01  4.860160e-02  -9.548216e-02  -2.857928e-01  -4.016678e-01  -1.277823e-01  1.514912e-02  1.729457e-03  1.593026e-01  2.170985e-01  -2.227904e-01  -3.487337e-01  -3.165843e-01  2.258312e-01  4.386031e-02  -1.808501e-02  3.137943e-01  -1.064102e-01  -1.091357e-01  -1.212828e-01  4.187908e-01  2.218413e-01  -3.275037e-01  8.290450e-02  1.065626e-01  2.747473e-01  -6.670430e-02  1.908099e-01  -9.840026e-03  -2.338422e-01  -1.351792e-01  -2.247667e-01  1.226997e-01  1.202732e-01  -2.712305e-02  -2.649139e-01  -1.779560e-01  -1.585722e-01  8.680809e-02  -1.536290e-01  -1.252981e-01  5.349139e-02  -2.865113e-02  -1.000146e-01  -6.807921e-03  2.549911e-01  -2.066725e-01  -7.100907e-02  2.499845e-01  -1.136511e-01  -2.265147e-02  -1.368523e-01  -1.747841e-01  -7.609369e-02  -5.654159e-02  2.403052e-01  2.834700e-01  7.538085e-02  2.654218e-02  3.412077e-01  1.906951e-01  1.378799e-01  6.549069e-02  1.508674e-01  -4.945473e-01  4.593547e-02  1.542400e-01  1.359546e-01  3.873711e-03  4.038865e-02  1.264160e-01  2.183052e-01  1.450280e-01  4.512661e-02  3.206463e-02  5.605855e-01  2.357796e-01  3.555664e-01  1.707753e-01  4.383941e-02  -2.216025e-01  -1.390604e-01  3.694502e-01  2.513853e-02  -1.404907e-01  -4.811064e-01  -2.027084e-01  1.999790e-01  1.472069e-01  2.477665e-01  -1.351213e-01  -4.328152e-01  1.005593e-02  -5.703366e-02  -7.333166e-03  3.336414e-02  1.177428e-01  7.153221e-01  -2.337972e-03  -1.611733e-01  9.150691e-02  7.622963e-02  1.153201e-01  -1.334078e-01  1.371448e-01  6.362379e-02  -1.035001e-01  -2.216289e-01  -9.417571e-02  7.535847e-02  -4.965483e-01  5.433111e-02  2.967818e-01  2.902328e-01  -9.655160e-02  4.707522e-02  -1.158795e-01  3.543400e-01  3.524269e-02  -1.709561e-02  6.118070e-01  2.149263e-01  9.277928e-02  -1.181000e-02  1.556196e-01  -1.990878e-01  -2.038852e-01  3.765245e-01  1.111089e-01  -1.299717e-01  -3.679479e-03  -9.690607e-02  -6.430870e-02  -3.043949e-02  -1.414141e-01  5.222727e-02  1.785979e-02  2.135516e-01  4.084182e-02  -1.367041e-02  -5.358224e-02  1.763823e-03  1.002432e-02  -1.110639e-01  3.844965e-02  -3.531117e-02  -3.483691e-02  1.427813e-01  2.111367e-01  7.518942e-03  -1.155109e-01  1.050583e-01  -2.031890e-01  1.692336e-01  -7.435197e-02  -1.137682e-01  4.839173e-02  -3.681866e-02  -1.580144e-01  -1.010077e-01  -1.106744e-01  1.452411e-01  1.758847e-01  -7.556481e-02  -1.301731e-01  7.290135e-02  8.710703e-02  1.265084e-02  -1.087694e-01  2.361313e-01  6.340774e-02  -2.585610e-02  1.786785e-01  -1.395336e-01  6.673659e-02  6.962182e-02  -1.134108e-01  -1.117616e-01  6.072678e-02  4.029430e-02  -3.071015e-01  -1.111796e-01  -9.992778e-02  2.051658e-01  1.635391e-01  -3.437501e-01  -1.772821e-01  1.397533e-01  -1.865842e-02  1.848253e-01  4.265004e-02  -1.182512e-01  -2.966058e-01  -1.749261e-01  1.324729e-01  4.355728e-01  1.224491e-01  3.763812e-01  2.166665e-02  -9.754864e-02  1.653415e-01  5.832084e-02  1.970119e-01  -1.597685e-01  -1.679386e-01  -1.436381e-01  -4.374508e-02  -1.745542e-01  -1.669151e-01  -4.459220e-02  -8.355018e-02  -2.799525e-02  -6.143651e-02  1.355417e-01  -1.179468e-01  -6.025190e-02  3.204365e-02  -1.491041e-01  -4.187853e-02  1.922876e-01  -1.167293e-01  2.569568e-01  4.523626e-02  3.413818e-01  -2.695683e-02  -1.484712e-02  -4.761752e-02  -1.311881e-01  -1.270668e-01  2.766509e-02  -1.645187e-01  -1.897619e-01  2.725146e-01  2.755997e-02  -3.255427e-01  -1.596102e-01  8.255342e-02  -6.234004e-02  1.432365e-01  2.836320e-01  -8.831652e-02  6.256758e-02  2.129985e-01  -4.507269e-02  -1.442266e-01  -8.256917e-02  -2.921443e-01  2.596624e-01  -8.109643e-02  -1.925773e-01  1.275846e-01  -2.372624e-01  -3.041804e-02  2.616475e-01  8.979791e-02  1.639689e-01  -3.520582e-01  2.618898e-01  -1.486147e-01  2.315690e-01  3.894058e-02  -2.457540e-01  3.248371e-01  -1.646660e-01  -3.604121e-01  2.120849e-01  -3.546915e-02  -9.697797e-03  -6.314188e-02  -1.741016e-01  -2.145756e-02  -6.482664e-02  -3.467927e-01  1.786890e-02  -3.393217e-01  -9.929657e-02  -6.061434e-02  -4.137562e-02  3.008325e-01  -1.365312e-01  1.659022e-01  -1.561594e-01  1.253639e-01  -1.238066e-01  -1.694321e-01  -1.119708e+00  -9.411069e-01  1.981095e-01  -3.383455e-02  -2.887797e-01  2.201520e-01  1.417376e-01  -3.919749e-02  -2.337120e-01  1.365163e-01  7.358932e-02  -2.550344e-01  4.433343e-01  3.802386e-01  -3.094215e-01  1.021938e+00  4.421884e-01  6.505260e-01  -3.197755e-01  -9.873620e-01  -2.145758e-01  -1.370657e+00  -4.063977e-01  -3.578476e-02  -6.649216e-02  -5.124716e-01  -1.193018e+00  3.430525e-01  -2.905456e-01  3.538537e-01  -9.240914e-02  3.129763e-01  -6.801746e-01  1.886402e-01  -7.890698e-02  4.077080e-01  2.756877e-01  -2.963865e-01  1.872420e-01  8.981232e-02  1.874781e-01  -4.340033e-01  1.061357e-01  9.630548e-01  -2.921110e-02  -1.825703e-01  -2.231528e-01  -4.356894e-02  1.655667e-01  1.428073e-01  3.383256e-01  9.848420e-02  -2.472541e-01  9.477734e-02  -1.341496e-01  -1.472433e-01  1.389774e-01  -2.508851e-01  -1.452553e-01  2.621950e-01  1.116208e-01  8.417872e-02  -6.628355e-02  -1.606315e-01  -2.663098e-01  -1.050591e-01  4.370378e-01  -4.443769e-02  -1.731314e-01  1.652620e-01  -3.794588e-02  -2.084607e-01  -1.205117e-01  2.440257e-01  1.753544e-01  -6.196513e-02  1.815152e-01  -2.572035e-01  4.606509e-02  3.707489e-01  -2.620302e-05  1.956165e-01  2.780885e-01  -2.418457e-01  2.312465e-01  2.134856e-01  2.198000e-01  1.911410e-01  -2.983333e-01  -1.359444e-02  5.962380e-03  2.131085e-01  -4.076768e-02  -2.384227e-01  -1.088608e-01  1.098999e-01  -2.026665e-01  1.134026e-01  3.221696e-02  -1.262392e-02  -2.297850e-02  5.226754e-02  -2.629826e-01  1.502550e-01  1.115763e-01  9.847143e-02  7.359962e-02  4.680998e-02  -1.311594e-01  5.942773e-01  -6.206438e-02  9.818949e-02  2.456972e-01  3.635297e-01  -8.341771e-02  -2.017101e-01  -1.721238e-03  -2.550157e-01  1.958121e-01  3.347720e-01  3.657850e-01  -5.437836e-02  2.004434e-01  2.288764e-02  1.254464e-01  -2.405770e-01  -3.035861e-02  1.503261e-02  -1.115528e-01  -1.597049e-01  3.981211e-01  2.651386e-01  1.178777e-01  -1.684874e-02  -3.390302e-02  -1.622567e-01  1.599935e-01  -1.006021e-01  6.003050e-02  -4.731660e-01  2.858065e-01  2.825751e-01  3.003575e-01  -1.776103e-01  3.088763e-01  -2.118789e-01  3.525867e-01  3.241871e-01  2.444762e-01  2.022396e-01  -2.485854e-01  -5.026093e-01  7.689267e-02  -5.056788e-03  -1.069144e-01  9.174560e-02  -1.943834e-01  -5.835122e-02  2.497917e-01  -7.375558e-01  -2.270235e-01  3.523546e-01  1.615794e-01  -3.778420e-01  1.882047e-01  5.725227e-01  1.342759e+00  4.171528e-01  1.082884e-01  2.154754e-01  -4.824415e-01  1.668492e-01  -7.739699e-01  2.369808e-01  -3.795676e-02  -1.092525e-01  1.627800e-01  -3.869094e-01  2.183348e-01  6.063320e-01  -3.400365e-01  -1.070253e-01  4.621404e-01  -3.516959e-02  -1.180982e-01  3.459842e-01  8.376015e-03  2.341604e-01  -9.055392e-01  5.865486e-01  1.695394e-01  -2.848025e-01  -5.029458e-01  3.986159e-02  -1.662426e-01  -2.277853e-01  1.918280e-02  1.863499e-01  -1.383015e-01  -3.543705e-01  6.488199e-02  -2.704387e-01  -6.261959e-02  2.696209e-01  -4.691048e-01  1.008092e-01  2.244877e-02  9.226020e-02  1.591843e-01  -7.461078e-02  -2.271507e-01  -8.033224e-02  1.095353e-02  2.473203e-01  8.201446e-02  2.982586e-01  1.555708e-01  5.248021e-02  3.396131e-01  4.814048e-02  2.003547e-01  -9.246967e-01  2.637410e-01  -3.048275e-02  6.037994e-02  8.722947e-02  -2.022479e-01  3.333931e-01  -6.910240e-02  1.342627e-01  9.542663e-03  6.894869e-02  -1.899153e-01  -8.561087e-02  -1.008455e-01  2.844322e-01  9.979598e-02  -3.357982e-01  -4.429565e-02  3.234236e-02  3.932008e-02  -1.905223e-01  1.158167e-01  1.410487e-02  2.663550e-01  6.836107e-02  9.008441e-02  1.082860e-01  3.999574e-02  -2.714570e-01  -4.991880e-01  -1.112455e-01  2.036040e-01  -1.749753e-01  1.693104e-01  3.296838e-01  9.841500e-02  8.050982e-02  9.765670e-02  -2.261316e-01  -8.623710e-02  3.069074e-02  -1.928686e-01  -1.299314e-01  1.127965e-01  3.099423e-02  -5.421239e-02  5.134659e-02  7.275355e-02  -2.489355e-01  1.782938e-02  -2.765435e-02  1.497242e-02  2.454184e-01  -3.816936e-01  -2.404416e-01  9.941868e-02  1.395869e-01  -3.254192e-01  -1.056246e-01  -3.843431e-02  -3.239386e-01  2.881860e-01  2.277867e-01  1.451284e-01  6.148077e-02  -1.913930e-01  2.115585e-01  -4.874224e-02  -1.756689e-01  -3.534135e-01  -6.050486e-02  -1.662078e-01  -3.019858e-01  -2.783523e-01  6.869984e-01  -9.264787e-02  9.214084e-02  -2.025028e-01  -1.877710e-01  -5.038403e-01  -1.133489e-01  -2.249124e-01  2.264233e-01  -3.753481e-02  -2.188819e-01  1.270396e-01  -6.410003e-02  -1.412607e-01  -9.807656e-02  2.257524e-01  -2.414383e-01  5.666189e-02  4.762156e-01  -1.116862e-01  -2.507590e-02  -1.198210e-01  -4.279918e-02  -2.663508e-01  -2.945594e-01  4.135640e-01  3.610562e-01  1.646128e-01  1.143423e-01  2.603604e-01  -1.701948e-02  -1.010960e-02  1.532859e-01  4.880538e-02  5.443315e-03  -3.468789e-01  4.351758e-01  -1.958464e-01  -3.400816e-02  3.631955e-02  2.439485e-01  3.005535e-01  -1.621539e-01  5.982235e-01  -2.374138e-01  1.091310e-01  1.898090e-01  2.857867e-01  4.203450e-02  -2.043431e-01  -3.290713e-01  8.249357e-02  -1.585013e-01  -3.752151e-01  -4.998350e-01  -1.394366e-01  1.620366e-01  1.198785e-01  -1.423613e-01  1.040192e-01  2.321614e-02  -1.216149e-01  2.871786e-01  6.477012e-03  -1.107758e-01  3.288184e-01  -4.227829e-01  2.046967e-01  -1.221970e-01  -8.520784e-02  -2.706420e-01  -4.202456e-01  -1.519960e-01  2.259416e-01  4.954041e-02  1.928423e-01  -2.886704e-01  2.297304e-01  1.818269e-01  6.357138e-02  1.401930e-01  4.975103e-02  1.336477e-01  -3.439139e-01  9.306132e-02  4.737335e-04  -1.242667e-01  1.855937e-01  3.782922e-02  1.455465e-01  -4.618162e-01  5.288519e-02  -1.213522e-01  4.433141e-01  -1.462424e-01  -2.265700e-02  2.675296e-01  -5.051693e-02  7.555359e-02  -1.148376e-01  -6.801514e-02  -1.426217e-01  1.402844e-01  -3.057951e-01  1.108329e-03  -1.340598e-01  1.770133e-01  -1.222684e-01  -1.200486e-01  1.603878e-01  -1.552652e-01  -2.774256e-01  -1.001848e-01  9.914140e-03  -1.397039e-01  1.512169e-01  -9.083137e-02  2.656335e-01  1.425703e-01  6.155945e-02  8.733785e-02  7.173155e-02  -6.651317e-02  -2.135548e-01  -6.231839e-01  -7.617019e-02  -2.042845e-01  1.601399e-01  -4.067791e-01  -6.216386e-02  1.495014e-02  -2.737257e-01  -1.349070e-01  4.402009e-01  5.714111e-02  -8.734873e-02  5.933803e-02  -8.350516e-02  1.077641e-01  -4.175676e-02  1.461174e-01  2.045283e-01  -2.852665e-01  1.726698e-01  1.397570e-01  -2.479821e-01  -1.131305e-01  -5.987985e-02  1.727027e-01  7.198914e-02  3.266824e-01  -1.584921e-01  8.585659e-02  3.642732e-01  1.721515e-01  1.535130e-01  -2.047594e-01  -1.803977e-01  6.097678e-02  2.989389e-01  -1.013415e-01  -4.019324e-02  -1.717287e-01  -4.055268e-01  -5.213350e-03  -2.348091e-01  -1.057839e-01  1.333969e-01  -2.572596e-02  -1.214562e-01  2.581791e-01  -1.220521e-01  -7.222302e-02  -3.908920e-01  3.074997e-01  8.003427e-02  2.359917e-01  -7.475678e-02  2.074437e-01  2.076679e-01  -2.104604e-01  -3.863071e-02  -1.050899e-01  -1.866978e-02  -4.224519e-01  1.286768e-01  -3.959530e-02  2.345245e-01  -9.336437e-03  6.068887e-02  2.798486e-01  1.111773e-01  1.584982e-01  1.397994e-01  -8.435262e-02  1.883272e-01  4.066226e-01  3.519205e-02  -2.421062e-01  -1.299540e-01  -1.783929e-01  9.176362e-02  -4.137573e-01  -2.419047e-01  -1.762409e-01  1.850995e-01  -2.905758e-02  1.908187e-01  3.989682e-02  2.746507e-01  -4.053117e-01  -3.176684e-01  2.247931e-01  2.902433e-01  1.546219e-01  -2.510139e-01  -1.240710e-01  -3.495411e-01  -1.266880e-01  3.017343e-01  8.724423e-02  -1.994655e-01  -1.434150e-01  1.030948e-01  -3.607959e-01  -1.167356e-01  -3.917903e-01  -8.105998e-02  -2.762847e-01  -1.378286e-01  3.166860e-01  -1.992216e-01  4.473433e-01  1.742569e-01  -4.426540e-01  -4.019300e-02  2.501129e-02  -3.004996e-01  8.518283e-02  -3.007934e-01  -2.828643e-01  -2.343148e-01  -2.655699e-01  -4.402604e-01  2.891412e-01  -3.234249e-01  -1.477849e-01  5.594861e-02  4.092322e-01  2.268253e-01  -2.078871e-01  -1.142046e-01  -3.210444e-01  1.234737e-01  -1.744113e-01  -3.507296e-01  1.886083e-01  1.407132e-01  2.076722e-01  2.373127e-01  1.914893e-01  -2.644648e-01  -1.079103e-01  1.859138e-02  -3.188846e-01  4.041965e-01  -6.527817e-02  8.000466e-02  1.424330e-01  -1.168161e-01  9.984899e-03  -9.016055e-02  1.505312e-01  1.151607e-01  5.486191e-02  -5.383943e-02  -1.320134e-01  -1.992802e-01  2.505813e-01  -8.894640e-02  3.062449e-02  4.878838e-02  -4.097088e-02  -3.215465e-02  -3.234965e-02  3.055967e-01  2.008208e-01  3.419335e-01  6.010468e-02  5.081501e-02  -1.312521e-01  -4.836981e-02  -8.665780e-03  2.551554e-01  3.501550e-02  3.607253e-01  -1.384206e-01  -2.523333e-01  -1.698132e-01  -1.180458e-01  1.756852e-01  1.037155e-02  1.477679e-01  1.481810e-02  4.735664e-02  -1.358846e-01  -9.348642e-02  -4.636158e-02  3.603883e-02  9.040622e-02  5.149103e-01  7.156958e-02  2.083607e-01  6.281479e-02  -5.011107e-01  2.112934e-01  -8.131602e-02  1.567032e-01  2.554094e-01  -4.859092e-03  2.151806e-01  2.210811e-01  -2.868615e-01  1.316620e-01  8.046822e-02  -1.006362e-01  -3.919146e-01  -3.260721e-02  -8.522345e-02  3.986066e-02  9.852608e-02  1.324391e-02  1.108931e-01  -6.339890e-02  6.400520e-02  4.199008e-02  -6.593743e-02  2.166124e-01  -1.926227e-01  -1.357878e-01  -1.027650e-01  -2.496505e-01  -1.366269e-02  -1.231979e-01  1.231880e-01  -7.618073e-03  -4.609179e-02  -1.961728e-02  9.781677e-02  -3.011424e-01  -1.561961e-01  -1.455668e-01  3.770653e-01  -2.645908e-01  -3.511244e-01  -2.916369e-01  8.288109e-02  2.911414e-02  7.585234e-02  3.160062e-02  3.235145e-01  7.812921e-02  2.188707e-01  -1.897115e-01  7.493232e-02  -2.409307e-01  3.423959e-02  9.472489e-02  1.660627e-01  -9.362823e-02  -5.043874e-01  1.411667e-01  -3.116243e-01  1.382322e-01  -2.863008e-01  2.702232e-01  -7.194331e-01  1.341217e-01  -9.322731e-02  3.689871e-01  3.878438e-02  -2.030863e-01  -1.539609e-01  -1.155294e-01  1.159303e-01  2.062809e-01  2.709838e-02  1.134095e-02  -1.506032e-01  -3.739891e-02  1.020342e-01  2.530632e-01  -2.455320e-01  -2.881718e-01  7.269037e-02  5.826785e-02  -9.347082e-02  1.289828e-01  -3.393112e-01  1.186685e-01  -3.604613e-01  -2.381513e-01  -3.766165e-01  -3.390754e-01  -5.553576e-01  2.848405e-01  3.508998e-01  -1.968689e-01  -1.508593e-02  -2.266060e-01  -1.918781e-01  3.695359e-02  9.970545e-02  -9.367266e-02  -2.241156e-01  -3.499451e-01  6.794684e-02  -1.921981e-01  7.546660e-02  6.163115e-02  5.452614e-02  2.037364e-01  2.754529e-02  2.652581e-01  -2.729753e-01  -2.090530e-01  -1.260708e-01  5.428162e-01  -2.145563e-01  -1.066519e-01  2.027807e-01  -1.292277e-01  7.295221e-02  2.584502e-01  4.956725e-02  8.282193e-02  -1.329989e-02  6.008571e-02  1.088595e-02  -8.407824e-02  -5.408070e-01  -2.520811e-01  1.056652e-02  7.873406e-02  -1.749815e-01  -3.361962e-01  9.458946e-02  -2.477110e-02  2.306779e-01  1.375333e-01  -1.748804e-01  5.607652e-03  -6.505641e-02  -4.120774e-01  -1.093971e-01  -7.868025e-02  -1.280119e-01  2.111761e-01  -1.092333e-01  1.121660e-01  1.799034e-01  -2.793255e-01  -8.738467e-03  8.704083e-02  -3.870852e-01  -2.615729e-01  7.648058e-02  1.057506e-01  -5.354303e-01  -2.309886e-02  3.612686e-01  1.251837e-01  8.683170e-02  1.710625e-01  -2.327200e-01  -3.812948e-01  2.215011e-02  1.087828e-01  -4.688268e-01  7.233331e-02  -4.859176e-02  -2.494918e-01  3.778808e-01  1.724850e-01  8.483578e-02  3.811062e-02  -3.935367e-01  1.119742e-02  7.977007e-02  -2.434367e-01  1.703406e-01  -3.491894e-01  9.949488e-02  -2.402252e-01  7.315529e-02  -3.586444e-01  -4.491649e-01  -7.992677e-02  4.465737e-01  2.522956e-01  -2.848375e-01  5.796762e-02  8.230041e-02  1.364608e-01  -7.834605e-02  -1.202483e-02  1.620427e-02  -1.786093e-01  -1.417647e-01  -2.191505e-01  5.027158e-01  5.482689e-02  1.827071e-01  2.057125e-01  2.982423e-01  -2.300612e-02  -1.600864e-01  -3.672550e-01  -7.254696e-02  -7.937291e-02  -2.635291e-01  2.202759e-01  -2.460201e-02  3.464757e-01  -2.765711e-01  2.167174e-01  -1.954826e-01  -2.483262e-01  -3.502390e-02  -7.721321e-02  2.742714e-01  -3.964898e-02  1.307504e-01  -2.749919e-01  -6.520248e-02  3.542802e-02  2.012064e-02  -1.503666e-03  1.264643e-01  -2.501773e-01  -8.573862e-02  -2.299267e-01  7.067586e-02  6.644922e-02  3.962929e-02  -1.197437e-01  -1.085633e-01  2.001833e-01  -1.473475e-01  1.880950e-03  6.194970e-02  -1.268290e-01  2.323965e-01  -3.088610e-01  -1.113125e-01  -3.552758e-01  -2.047237e-01  8.862291e-02  -4.469999e-03  -1.253439e-01  -4.723450e-01  -2.905059e-01  1.379717e-02  2.266092e-01  3.068117e-01  1.196407e-01  -1.969431e-01  3.340063e-01  2.386510e-01  -1.699881e-01  1.115063e-01  3.421569e-01  -2.161795e-02  -3.565811e-01  -3.083408e-01  -2.030984e-01  -7.752880e-01  -9.320402e-02  3.418618e-02  6.947297e-02  1.602317e-01  -4.327323e-01  2.764819e-01  9.528454e-02  6.123007e-01  -4.777868e-01  -8.366477e-02  -1.179613e-01  -3.469984e-03  -1.511529e-01  3.418101e-01  2.701658e-01  -2.553062e-01  2.399506e-03  3.703942e-01  -1.474451e-01  -1.389246e-01  -5.484498e-02  2.292137e-01  -1.207869e-01  -4.422683e-01  -8.107827e-02  -3.413556e-01  3.785617e-02  -6.402934e-02  8.608168e-02  -1.389073e-01  1.652807e-01  -8.255302e-02  -2.666174e-02  -4.584755e-02  -1.811630e-01  -9.544089e-02  3.642088e-01  -4.404209e-02  -2.085091e-01  1.283411e-01  -2.769437e-01  5.658426e-02  6.080635e-02  -4.460373e-02  3.197834e-01  -1.473640e-01  2.222056e-01  -4.262591e-01  -9.445935e-02  -2.611852e-01  -7.581627e-02  3.660615e-02  -6.934866e-02  1.062668e-01  1.043750e-01  1.321121e-01  2.862642e-01  1.495914e-01  3.006107e-02  -3.527014e-01  -2.117323e-01  5.446449e-02  -2.150366e-01  -6.067065e-02  -3.819215e-02  -2.792287e-01  -3.423659e-01  3.452402e-01  -2.555839e-01  -4.066617e-01  -1.128428e-01  2.810308e-01  -8.492137e-02  -3.365433e-01  1.537861e-01  2.613102e-01  1.584385e-02  -3.691490e-01  7.212247e-02  -2.816672e-02  2.185210e-01  1.493341e-01  -1.630543e-01  2.114664e-01  -1.160920e-01  2.297345e-02  3.134551e-01  -1.787021e-01  -4.055434e-02  1.843188e-01  -1.283342e-01  -3.614348e-01  3.974250e-02  1.688565e-02  -1.202541e-01  1.670108e-01  4.025916e-01  6.437408e-03  -2.744380e-01  -6.816600e-02  -1.352496e-01  -2.107515e-01  -2.139593e-01  1.394495e-01  -2.028445e-02  -1.362012e-01  1.488605e-02  1.232046e-01  7.734360e-02  -2.521441e-01  -1.421959e-01  -7.472749e-02  5.759081e-03  3.475361e-02  -1.304431e-01  -4.394183e-03  -2.038599e-01  6.077135e-02  -4.628364e-01  -1.390792e-01  -8.440344e-02  -4.885426e-02  -2.007503e-01  2.775970e-02  5.272985e-02  -4.424459e-03  2.380604e-01  1.197448e-01  -6.191666e-03  -1.032063e-01  3.463470e-02  6.431542e-03  9.008998e-02  -3.767972e-01  2.639699e-01  7.783325e-02  -1.329407e-01  1.718745e-01  -3.022748e-01  7.834088e-02  2.960519e-02  -1.838554e-02  6.940362e-02  -1.703360e-01  1.776348e-01  7.758880e-02  -5.209475e-02  5.763036e-01  -3.106249e-01  4.182443e-01  1.792636e-01  2.041261e-02  -1.981902e-01  2.757016e-01  5.215102e-01  -1.981298e-01  -1.114068e-01  1.140053e-01  -3.138500e-01  2.513388e-01  1.039564e-01  1.780698e-01  8.988953e-02  -1.497566e-01  1.637937e-01  1.204287e-01  -2.219981e-01  -1.537894e-01  1.851887e-01  1.746344e-01  1.179878e-01  -5.064158e-01  1.713186e-02  7.822448e-02  6.575898e-02  1.777332e-02  -3.044117e-02  -9.455466e-02  -1.046674e-02  7.528183e-02  -7.293088e-03  -1.372800e-01  -6.773232e-03  -1.082042e-01  5.994290e-02  -1.741560e-01  -6.617058e-02  -2.883245e-04  -5.816535e-02  7.457392e-02  1.433821e-02  1.359852e-01  1.442351e-01  3.381277e-02  1.579711e-01  2.576173e-02  1.309894e-01  4.860689e-02  -7.401250e-02  7.766031e-02  -5.548288e-02  -9.973613e-02  4.009245e-02  -3.302198e-03  -1.347786e-01  2.123804e-01  -5.076624e-02  -1.580495e-01  4.502064e-02  4.307056e-02  3.302900e-02  -1.354904e-01  6.629641e-02  -1.637752e-02  8.303177e-03  6.707621e-02  -8.432902e-02  4.243150e-02  -8.909894e-02  1.239739e-01  -1.143964e-01  6.589874e-02  -1.559232e-01  -5.981090e-02  -1.942193e-01  -1.701743e-01  -4.249448e-01  -6.352306e-02  5.064364e-02  8.003493e-02  -7.804349e-02  -6.939922e-02  2.335579e-01  -8.000738e-01  -4.953425e-03  -1.296345e-01  -1.068914e-01  -2.080555e-01  3.749389e-02  1.544805e-01  -2.278942e-01  -1.288390e-01  9.670214e-02  3.256280e-01  -1.865449e-01  -1.199378e-01  1.328790e-01  -3.045748e-01  -1.040212e-01  7.736462e-03  2.102996e-02  -3.700514e-01  2.473631e-01  -3.538690e-01  1.506883e-04  -1.538301e-02  4.552667e-01  -2.023120e-01  1.712994e-01  1.464668e-02  7.343067e-02  8.966541e-02  -3.764921e-01  -3.512220e-01  1.595048e-02  -8.057963e-02  1.572917e-02  9.836897e-02  -1.929898e-01  -2.713356e-01  7.844625e-02  4.185602e-01  -2.539514e-02  -3.095708e-02  6.169328e-02  2.603960e-01  1.643396e-01  -2.412312e-01  -1.587970e-01  1.531395e-01  -1.064121e-02  4.863344e-02  1.014489e-01  9.974492e-02  2.973907e-02  -1.112737e-02  4.558099e-02  -2.562513e-01  3.011383e-01  5.916115e-02  1.632607e-01  5.158089e-02  -1.394332e-01  4.933232e-03  -9.759428e-02  -1.856088e-01  -6.410619e-02  3.873946e-02  8.008239e-02  3.621471e-01  2.282272e-01  2.298956e-02  1.487260e-01  -2.835175e-01  1.339286e-01  -1.750756e-01  2.112461e-02  3.092599e-01  1.221042e-02  -3.715898e-02  2.588209e-01  -2.227867e-01  -1.192941e-01  -1.698355e-01  -1.567286e-01  1.293480e-01  -4.889460e-01  -6.463803e-02  -2.525066e-01  2.514299e-01  -9.417435e-02  2.834528e-02  -1.646610e-02  -6.012486e-01  2.361174e-01  -1.355788e-01  1.884757e-01  7.355405e-02  2.840346e-01  1.704703e-01  1.826361e-01  1.203756e-01  -1.191037e-01  1.916363e-01  -2.751723e-01  2.587860e-01  3.566544e-01  -5.050527e-01  -1.245889e-02  -2.996540e-02  -2.139931e-01  -1.797141e-01  2.457692e-01  -1.133283e-01  -4.532908e-01  -1.030460e-01  2.060639e-01  8.177389e-02  1.116060e-01  2.579171e-01  9.703353e-02  -7.810931e-02  -2.381869e-01  3.289005e-01  -1.821408e-01  -1.743163e-01  -2.348497e-01  -7.109228e-01  -2.047430e-01  -6.146055e-02  2.177941e-01  -2.060761e-02  -1.318904e-01  -4.379881e-01  -1.754532e-01  -1.908277e-01  1.614494e-01  -1.092887e-01  -4.991953e-01  -2.870741e-01  -2.075239e-02  -6.549260e-02  -2.684997e-01  -1.915914e-01  -1.521729e-02  4.023006e-01  -4.699058e-02  2.437376e-01  5.060802e-01  2.304654e-02  -1.069913e-01  -4.314191e-02  -1.831282e-01  3.593866e-01  3.207516e-01  -3.162196e-01  -1.322694e-01  -3.078674e-01  4.682660e-02  4.526221e-02  7.209978e-02  7.648584e-02  -8.794186e-02  -3.150624e-01  6.606623e-02  -8.793669e-02  -4.870029e-02  -8.948008e-02  -7.267106e-02  -4.795929e-01  -5.322517e-02  2.491984e-01  1.042433e-01  1.245112e-01  2.497460e-01  -1.949081e-01  -4.630948e-01  2.543491e-01  -1.060015e-01  -8.737371e-02  -1.814086e-01  -5.580897e-03  2.174070e-01  -3.114538e-01  2.780389e-01  -8.282533e-02  -2.272980e-01  -3.315734e-01  7.700416e-02  1.589409e-01  7.687010e-02  -1.143431e-01  -6.377582e-02  -1.390621e-01  3.326583e-03  4.309400e-02  2.629350e-01  9.755792e-02  -2.193284e-01  -4.303408e-01  -1.135811e-01  1.910666e-02  -2.316571e-01  2.570824e-01  5.213660e-02  -5.059260e-02  -6.761893e-02  -6.442730e-01  8.391041e-02  -1.126972e-01  1.668019e-01  -2.846827e-01  -4.499203e-02  1.432526e-01  7.727586e-01  6.275360e-02  -7.674286e-02  -5.329353e-02  3.735114e-03  5.446603e-02  -1.186028e-01  -1.164717e-01  1.483716e-01  -5.957397e-03  -4.627677e-02  -6.586346e-02  -5.619954e-02  4.887164e-01  -4.114541e-01  -1.669983e-01  9.672090e-02  -1.663643e-02  -3.997260e-02  3.841234e-01  1.969724e-01  -1.709872e-01  -3.252815e-01  2.227864e-01  3.292964e-02  -4.039745e-02  -1.095824e-01  1.913620e-01  -1.883195e-01  -3.770860e-02  -1.201521e-01  2.918125e-01  -9.088433e-01  -2.540613e-01  -1.341168e-01  -1.551919e-01  -1.131961e-01  1.681063e-01  -3.116423e-01  6.336069e-02  -2.925244e-01  -6.020730e-02  -2.699891e-01  4.383352e-01  6.617384e-02  -3.705968e-01  2.791194e-01  2.713822e-01  -3.594690e-02  -3.443216e-02  1.918294e-01  1.594983e-01  -2.954700e-01  -5.118567e-02  -3.525220e-01  -9.861460e-01  1.272080e-01  -2.668441e-01  3.660719e-01  -1.683470e-01  -7.606800e-01  -3.464350e-02  -1.091250e-01  5.567926e-01  -3.126991e-01  -4.050576e-02  -2.459820e-01  -1.115534e-01  -1.876695e-01  1.496151e-01  5.006950e-01  -3.563192e-01  2.683400e-01  2.448027e-02  8.123083e-02  -5.405704e-01  2.425516e-01  8.581790e-01  1.370307e-01  8.300060e-03  2.846184e-01  -5.742747e-02  -1.398806e-01  2.209690e-01  2.245714e-01  2.802038e-01  2.920951e-02  -2.262418e-02  -5.479127e-01  -2.372865e-01  -9.068398e-02  -8.870474e-02  1.503232e-01  2.301839e-01  -4.600779e-02  -5.765884e-02  -2.950612e-02  -1.936359e-01  2.047368e-01  -2.549832e-01  -3.128632e-01  1.270084e-01  5.101756e-02  3.650115e-01  -2.043062e-02  1.119272e-01  -1.710658e-01  1.394986e-01  -2.626010e-01  3.250960e-01  5.144451e-02  9.606621e-02  1.520838e-01  -1.104616e-01  1.836686e-01  -1.260066e-01  2.190213e-01  1.988720e-01  1.233413e-01  -1.944733e-01  -2.548195e-01  -1.299354e-01  6.268499e-02  1.963596e-01  7.129236e-02  1.538986e-01  -1.244663e-01  -2.550761e-01  2.660348e-01  -1.876944e-01  2.011466e-01  -3.827018e-01  6.923819e-02  -1.234353e-01  -5.132596e-01  -3.745782e-01  -2.986836e-02  -7.694598e-02  -2.408296e-01  3.415895e-01  -2.210718e-01  -9.553927e-02  -1.263702e-01  -2.191762e-01  -2.225953e-01  5.905182e-01  1.748409e-01  -1.098227e-01  2.420978e-01  3.321474e-01  1.130097e+00  1.501045e-01  -1.825841e-01  1.812788e-01  -3.852744e-01  8.507856e-02  -3.908009e-01  -4.423457e-02  -1.895177e-01  -4.179277e-01  -6.441683e-02  -5.031038e-01  -5.850797e-03  6.592301e-01  -1.758686e-01  7.975609e-02  4.330146e-01  -6.884334e-02  -9.014966e-02  2.298628e-01  -1.299262e-01  1.202577e-01  -6.108973e-01  2.620382e-01  2.441610e-01  -2.939734e-01  -2.674805e-01  -2.321751e-01  -9.465767e-02  -1.046561e-01  -9.783638e-02  -1.597980e-02  3.912474e-01  6.486531e-02  3.246728e-01  -5.507010e-02  -5.183502e-02  -1.074644e-01  5.319388e-01  4.123392e-01  -8.561567e-02  1.761775e-02  8.731170e-03  1.248998e-01  1.412742e-01  -1.469742e-01  -7.102309e-02  3.037643e-01  1.733927e-01  1.535704e-01  -2.305374e-01  -4.049997e-02  8.321173e-02  -9.564103e-02  -2.774345e-02  2.845631e-01  9.644239e-02  -6.629656e-02  9.731413e-02  1.973803e-02  1.663116e-01  2.324928e-03  -9.330997e-02  -9.576983e-02  -1.117090e-01  -9.266929e-02  -2.111412e-03  9.580538e-02  -1.192541e-02  -1.669891e-01  1.473148e-01  -2.524266e-01  2.912406e-01  -2.547030e-01  -3.960997e-02  -1.611967e-01  3.567069e-01  1.267577e-01  -1.222663e-02  -3.103446e-01  -1.905926e-02  -6.996654e-03  1.421932e-01  6.804179e-02  -6.530033e-02  -8.782494e-02  1.275451e-02  6.831230e-02  2.178135e-01  1.019303e-01  7.954642e-02  -1.065008e-01  -1.941298e-01  -1.066659e-02  1.688238e-01  2.141963e-02  7.950242e-02  -5.673358e-02  6.580645e-02  9.585472e-02  -1.658259e-01  -2.091671e-01  -1.660177e-02  -2.190516e-01  -6.042042e-02  1.429155e-01  -1.646214e-01  9.163547e-02  -8.149564e-02  1.721791e-01  -1.004784e-01  -1.500398e-01  1.556927e-01  1.394728e-01  6.658213e-02  -7.230019e-03  1.215965e-01  1.628124e-02  -1.070198e-01  -1.788903e-01  -1.403349e-01  -7.405366e-02  1.015925e-01  4.952700e-02  1.492623e-01  -5.315426e-02  8.931739e-02  -8.771147e-03  8.698495e-02  -8.089864e-02  -3.844506e-01  2.489029e-01  2.376545e-01  8.094504e-02  5.033808e-01  -1.340248e-03  -1.702749e-01  2.141941e-02  1.748216e-01  -1.648928e-01  -2.682339e-01  1.480268e-01  -1.037353e-01  6.413582e-02  -7.108188e-02  1.749031e-02  1.322528e-02  -1.970183e-02  -4.030383e-01  1.614977e-01  -1.988319e-01  2.440039e-01  3.096268e-03  5.036032e-01  1.122289e-01  7.216475e-02  -2.034616e-01  -1.774727e-01  1.460765e-01  -6.532867e-02  -1.391852e-01  -2.352397e-02  2.103882e-01  1.379139e-01  2.863449e-01  -2.769733e-03  -2.198833e-01  3.333858e-02  -7.167973e-02  2.938369e-01  7.393337e-02  -4.743523e-01  2.488634e-01  -1.928323e-01  -1.047318e-01  -4.185892e-01  5.409875e-02  1.532616e-01  -4.236259e-02  -2.281567e-01  -1.873792e-01  -1.605291e-01  -7.676990e-02  -1.061488e-01  2.179516e-01  1.134611e-01  -2.955732e-01  4.498323e-02  3.100422e-01  2.183176e-01  1.658567e-01  4.957073e-03  -6.528794e-03  7.998915e-02  -4.207051e-01  -1.466507e-01  -1.904554e-01  -2.618738e-01  1.202136e-01  1.947419e-01  -1.729742e-01  -1.847368e-01  4.164180e-01  2.871383e-01  1.180540e-01  2.762219e-02  3.609317e-01  -5.065707e-02  4.184320e-02  4.142684e-01  2.511181e-01  2.233972e-01  5.207006e-02  4.892581e-02  -1.352232e-01  5.366882e-03  -3.777265e-01  8.173097e-02  4.223939e-02  -4.227712e-01  -1.119697e-01  4.332704e-02  -2.077408e-01  2.164992e-01  3.622007e-03  -8.285875e-02  -9.764510e-02  1.886466e-01  3.422468e-02  -5.408894e-02  -7.882227e-02  -4.338883e-01  -2.040584e-03  1.511876e-02  1.038222e-01  -1.656877e-02  3.231812e-01  -1.050337e-02  1.536110e-01  -2.204041e-01  1.172823e-01  6.291980e-02  3.487112e-01  -3.325124e-01  1.750451e-01  3.776897e-02  2.623541e-01  1.608886e-01  -2.189454e-02  2.903193e-01  2.618872e-01  2.440587e-01  -2.384635e-01  -2.660184e-01  -2.667248e-01  4.975285e-02  -1.215748e-01  1.170204e-01  -2.067657e-01  -7.719377e-02  -1.246169e-01  -1.105954e-01  7.641279e-02  4.529733e-01  -3.519676e-01  -2.634417e-02  9.814672e-02  1.361893e-01  -2.116693e-01  6.600212e-01  -5.890110e-02  1.612780e-01  -1.209114e-02  5.216112e-01  -2.772504e-01  -2.315879e-01  -9.524939e-02  4.264542e-01  
      </Weights>
      <Biases Rows="50" Columns="1">
        -2.272652e-01  1.763050e-02  -2.492395e-01  -6.242108e-02  -3.407296e-02  -9.616937e-03  -9.939174e-02  4.317533e-02  -2.601129e-01  1.573274e-01  1.464966e-01  2.239023e-01  3.365105e-02  1.536927e-01  8.825084e-02  1.581404e-01  1.190662e-01  2.713018e-02  3.682595e-02  -1.032923e-01  4.724503e-02  2.658752e-01  -4.395764e-02  7.054188e-02  -3.585319e-02  -1.607618e-01  4.052516e-02  1.015703e-01  2.055012e-03  3.018535e-02  -1.266376e-01  -6.842031e-02  -1.423345e-02  -2.935673e-02  -1.045474e-01  -1.111452e-01  -3.689712e-02  -8.909407e-02  5.593409e-02  -9.369284e-02  1.234717e-01  3.207271e-02  1.098764e-01  -2.464195e-01  4.195653e-02  7.346036e-02  2.319329e-02  -4.749355e-02  -6.114391e-02  -1.099992e-01  
      </Biases>
    </DenseLayer>
    <DenseLayer Width="3" ActivationFunction="0">
      <Weights Rows="3" Columns="50">
        9.241616e-02  -1.163685e-01  -2.131529e-01  -3.466203e-02  1.827332e-03  3.288141e-02  1.559394e-01  -1.662337e-03  1.466559e-01  2.433560e-01  -7.989739e-02  -3.212094e-01  3.665945e-03  -2.038157e-02  -3.850899e-02  3.159984e-02  1.320161e-01  -7.514992e-02  -7.683975e-02  6.412891e-02  -6.297117e-02  -4.056316e-01  6.804262e-02  9.576558e-02  8.079117e-02  9.560972e-02  2.119680e-02  -6.715118e-03  4.358292e-02  -1.210630e-01  1.310600e-01  9.317980e-03  -1.116971e-01  -1.292128e-01  1.334978e-01  8.773895e-02  3.107260e-03  1.533422e-01  -1.139759e-01  -4.922780e-02  1.923314e-01  7.431433e-02  6.879757e-02  2.681509e-03  1.040871e-02  -9.225905e-02  -4.374465e-03  4.495557e-02  8.895492e-02  3.999728e-02  1.070518e-02  4.862808e-02  -6.304128e-03  -1.445224e-02  -2.423922e-03  -5.089609e-02  1.808957e-01  -1.732182e-03  2.238725e-01  1.962821e-01  -2.054175e-01  2.444027e-02  8.306202e-04  -1.161996e-01  -1.899924e-01  -4.428398e-01  -1.363232e-01  1.733897e-01  4.544828e-01  -5.725973e-02  -2.381381e-02  8.492234e-03  -1.163479e-01  1.852996e-01  -1.000148e-01  -8.657070e-02  1.560290e-02  -3.613589e-03  8.142210e-02  -1.372946e-01  5.454566e-02  -1.455417e-01  3.054209e-01  -9.792268e-02  -1.996721e-01  1.473674e-01  2.020796e-03  2.943703e-02  1.312313e-01  -3.039980e-01  -1.737638e-02  -3.411717e-01  -6.393530e-02  2.180377e-02  -2.874786e-01  4.476494e-02  -1.172076e-03  4.537232e-02  -2.555633e-02  8.487956e-02  4.794383e-02  2.190248e-02  2.706935e-01  3.352894e-02  -1.478509e-03  2.326050e-01  1.098052e-02  3.896378e-03  1.107591e-01  -1.884148e-01  -7.644614e-02  2.070914e-02  2.098833e-03  -1.332955e-01  -1.688021e-01  1.216853e-01  -7.881613e-02  1.980943e-01  3.178097e-01  8.265441e-02  -3.387414e-02  6.858819e-02  -3.084923e-02  -3.151546e-01  1.901183e-01  -2.813231e-01  -5.221383e-02  -5.230426e-02  4.335377e-02  2.035520e-02  9.881864e-02  -1.728733e-01  3.868714e-01  9.003519e-02  4.334320e-02  2.151042e-01  -2.865376e-03  1.243025e-01  -1.569447e-03  -8.864429e-02  -9.766928e-02  -1.464382e-01  2.856568e-01  1.388770e-01  -3.454999e-01  -1.115060e-01  -8.187167e-03  -3.060582e-02  8.969361e-02  -4.850845e-02  
      </Weights>
      <Biases Rows="3" Columns="1">
        -2.632082e-02  3.066178e-02  -1.276129e-01  
      </Biases>
    </DenseLayer>
  </Weights>
</MethodSetup>
